300,1,5,8,0.001000,0.001000,50,20
-0.0185151604
-0.0082466162
-0.0445673490
0.0152985679
0.0600174488
0.0036161442
0.0033914742
0.0067044279
-0.0036548890
0.0005773457
-0.0018206998
0.0055135122
0.0119547888
0.0030369706
0.0041857610
-0.0078917965
0.0045277046
0.0061108352
0.0070571935
0.0091813745
-0.0052247836
0.0031906846
0.0037396940
0.0036177517
0.0085977600
-0.0065242154
0.0001897791
-0.0036682973
0.0030241157
0.0121978163
-0.0107501944
-0.0000844547
-0.0038724539
0.0072947347
0.0123982552
-0.0146390657
-0.0022062011
-0.0070017813
0.0125866833
0.0107217151
-0.0087091459
-0.0032770835
-0.0069837673
0.0079329098
0.0032283186
-0.0099704762
-0.0031754661
-0.0071532087
0.0107656707
0.0028820806
-0.0047260411
-0.0039785620
-0.0060343895
0.0067401556
-0.0034324505
0.0027702265
-0.0032796251
-0.0032186974
0.0006341167
-0.0109355824
0.0071168557
-0.0039848104
-0.0040672932
-0.0039970277
-0.0115027034
0.0128951767
-0.0023531235
0.0003055242
-0.0079809133
-0.0162533731
0.0150685135
-0.0018049034
-0.0000002738
-0.0116451914
-0.0135719785
0.0145683499
-0.0007357504
0.0009369060
-0.0121776595
-0.0107597520
0.0105324592
0.0006287109
0.0013083956
-0.0108406480
-0.0036287216
0.0082486303
0.0009611556
-0.0001058284
-0.0097203507
0.0007008966
0.0056037339
0.0014177745
-0.0003659799
-0.0078124569
0.0050627726
-0.0020520744
0.0008895465
-0.0027613203
-0.0024782362
0.0131706995
-0.0042214679
0.0009620480
-0.0031184484
0.0002823403
0.0111169814
-0.0043224045
0.0012251149
-0.0004193354
0.0025129161
0.0089030620
-0.0072844311
0.0028732985
0.0031202276
0.0054968239
0.0070545091
-0.0043073317
0.0035107839
0.0074151585
0.0060183067
0.0015712819
-0.0007391725
0.0039383662
0.0083456370
0.0037220264
-0.0027700253
0.0025026302
0.0034398380
0.0093505378
0.0017698857
-0.0065925624
0.0051442379
0.0018429114
0.0094929697
0.0001918279
-0.0109185692
0.0078079749
0.0010846712
0.0071122513
-0.0019615724
-0.0119846171
0.0077953053
0.0008572596
0.0063452387
-0.0022980953
-0.0120888315
0.0078535265
-0.0001055194
0.0018122314
-0.0048316471
-0.0077997215
0.0091760536
0.0002498867
0.0030366716
-0.0064623404
-0.0080280278
0.0065105264
-0.0010865915
-0.0017199017
-0.0055950176
-0.0030819504
0.0009921476
-0.0017342250
-0.0056682037
-0.0030242185
0.0035164926
0.0019526381
-0.0016667236
-0.0050054440
-0.0039687101
0.0025428551
-0.0031334925
-0.0034905477
-0.0101628619
-0.0017184875
0.0074347290
-0.0039943855
-0.0023930365
-0.0076471736
-0.0009744581
0.0064975529
-0.0050636349
-0.0024323141
-0.0078097153
0.0003003992
0.0074507971
-0.0044855508
-0.0024180549
-0.0075868924
-0.0000979864
0.0071954482
-0.0036812658
-0.0016412777
-0.0060368547
0.0000756771
0.0076565611
-0.0028618066
-0.0006078583
-0.0038266475
0.0000570551
0.0064659975
-0.0012398867
0.0001217167
0.0000693502
0.0002028710
0.0039869987
-0.0026259213
-0.0001140533
-0.0012147520
0.0016128180
0.0032361111
-0.0015043915
-0.0006275507
-0.0015372134
0.0006458088
0.0025896841
0.0034844714
0.0007219923
0.0020581478
-0.0006246985
-0.0052928158
-0.0035351066
-0.0016384436
-0.0025714174
0.0037164848
0.0008139474
-0.0042519830
-0.0012880519
-0.0013591789
0.0045187013
0.0034546271
0.0022875988
-0.0006284417
0.0012766588
0.0000029283
-0.0053952381
0.0004511121
-0.0007425381
0.0006225771
0.0019481089
-0.0043060461
0.0012477906
-0.0006345884
-0.0009706508
0.0018644056
-0.0068880440
-0.0007826994
-0.0025086690
-0.0034309382
0.0024438459
-0.0056252839
0.0044580142
-0.0023543043
-0.0016088222
-0.0012813578
-0.0099124596
0.0055158678
-0.0016597814
-0.0013444126
-0.0007305520
-0.0086124434
0.0074190946
-0.0008900013
0.0000138063
-0.0027291373
-0.0114058397
0.0016835285
-0.0015781495
-0.0017971841
0.0019961746
-0.0059790819
0.0010705439
0.0012418606
0.0021068184
0.0018766310
-0.0019176910
-0.0034218284
0.0015149100
0.0042132343
0.0045892633
0.0018613223
0.0039023319
0.0031917905
0.0078406523
-0.0003788855
-0.0047332131
-0.0017407838
0.0030061563
0.0049183375
0.0033275639
0.0031526066
-0.0084964917
0.0015663456
0.0004580128
0.0074862306
0.0091855567
0.0122517203
0.0053898598
0.0142145057
-0.0058694131
-0.0085091927
0.0036015612
0.0067462230
0.0132794469
-0.0001401089
-0.0002925542
0.0025187234
0.0057953192
0.0103247286
-0.0007921995
0.0050025649
0.0089800727
0.0099403082
0.0210284210
-0.0025819452
-0.0020350216
0.0091198161
0.0070505934
0.0150433037
-0.0038740668
-0.0031329029
0.0060779358
0.0057509609
0.0122635268
-0.0026036510
-0.0023719462
-0.0006084221
0.0037022732
0.0073736802
0.0003857407
0.0050026016
-0.0045109183
0.0003817837
-0.0014551062
0.0018606815
0.0080583241
-0.0065410417
-0.0006061194
-0.0043100644
0.0030994367
0.0109767491
-0.0152303284
-0.0028033648
-0.0098101419
0.0077960852
0.0160248846
-0.0156683477
-0.0043619242
-0.0106420043
0.0106046389
0.0099852431
-0.0175325658
-0.0075972169
-0.0169279020
0.0110879422
0.0093827186
-0.0160614340
-0.0057873362
-0.0142555068
0.0107184257
0.0045709322
-0.0055752648
-0.0068472597
-0.0132972823
0.0030436699
-0.0048017583
-0.0023178862
-0.0039299952
-0.0058653373
0.0042256976
-0.0094707354
0.0021337166
-0.0004738325
0.0013089815
0.0018229779
-0.0112610029
0.0074329040
0.0038451659
0.0090098410
0.0001470504
-0.0160441153
0.0080726014
0.0065646930
0.0169967365
0.0012022338
-0.0142069800
0.0060241374
0.0090657114
0.0200069858
0.0019281946
-0.0071681847
0.0042625269
0.0102569371
0.0212870739
0.0008157000
-0.0011824724
0.0070508390
0.0100324575
0.0173085767
-0.0046468194
0.0034718478
0.0045738283
0.0062571468
0.0109938236
-0.0032180101
0.0084280080
0.0018533227
0.0028487093
0.0024319882
-0.0041516846
0.0113316147
0.0014766440
-0.0004423531
-0.0035821008
-0.0047812526
0.0105317223
-0.0020479791
-0.0040195505
-0.0107585316
-0.0039015561
0.0114007086
0.0013161148
-0.0073530049
-0.0196531403
-0.0084200866
0.0041130754
-0.0046913495
-0.0128924806
-0.0276795156
-0.0040956510
0.0042570253
-0.0049647913
-0.0159890295
-0.0329899272
-0.0038563766
0.0010782691
-0.0063797018
-0.0163320057
-0.0336727620
-0.0024236490
-0.0006586910
-0.0061612424
-0.0125176950
-0.0271126765
0.0001107547
-0.0010875637
-0.0102318264
-0.0079892919
-0.0175875166
0.0061605422
0.0025736807
-0.0099957136
-0.0023147084
-0.0065827784
0.0067853953
0.0040471883
-0.0043552744
0.0036580518
0.0059533213
0.0042840248
0.0036569473
-0.0008042393
0.0077966485
0.0140056303
0.0026894472
0.0036377480
0.0047983318
0.0097769357
0.0182494701
-0.0017006608
0.0038860516
0.0091727885
0.0125710477
0.0250608609
-0.0038564147
0.0025282749
0.0158218351
0.0126420231
0.0262104754
-0.0086573721
-0.0035912754
0.0137924223
0.0109570109
0.0225525815
-0.0073918686
-0.0048888389
0.0156015918
0.0088557337
0.0201888378
-0.0090653571
-0.0070705911
0.0128497313
0.0034473278
0.0100854141
-0.0077335385
-0.0089793752
0.0120097388
-0.0004984323
0.0025934196
-0.0075303658
-0.0117245926
0.0078958769
-0.0047202134
-0.0061137378
-0.0054875842
-0.0106240875
-0.0003450299
-0.0091043420
-0.0154781283
0.0013345038
-0.0094150569
0.0038219331
-0.0091990930
-0.0152351595
-0.0009921114
-0.0127880078
0.0024691220
-0.0088315073
-0.0121961632
0.0011192012
-0.0114483526
-0.0062155152
-0.0062732500
-0.0104849215
0.0088041365
-0.0039334166
0.0018077967
-0.0025958592
-0.0034364529
0.0009319876
-0.0042115637
0.0012915117
-0.0000402104
0.0009744182
0.0039032233
-0.0023627784
0.0023447582
0.0014146511
0.0022783690
0.0006867402
0.0009376640
0.0003379007
0.0034379388
0.0046634054
-0.0003889166
0.0045995941
-0.0076899624
0.0037359789
0.0033304887
0.0056364772
0.0103300360
0.0012200067
0.0043428391
0.0064962067
-0.0036315622
0.0054857233
-0.0028095095
0.0024024410
0.0017446905
-0.0011924250
0.0079706538
-0.0059246568
-0.0002909055
-0.0054546798
-0.0000261027
0.0107841844
0.0007056533
-0.0007794187
-0.0037468559
-0.0051055300
0.0031592646
-0.0003686464
-0.0020847991
-0.0053805541
-0.0018810165
-0.0015060155
0.0007312888
-0.0020731338
-0.0032739747
-0.0016918482
-0.0035634364
0.0038863795
-0.0023819321
-0.0011401567
-0.0015614425
-0.0079125973
0.0039741848
-0.0001573131
0.0018386859
0.0009186269
-0.0103897492
0.0036845444
0.0002034610
0.0045993482
0.0019775612
-0.0078735298
0.0099332315
0.0027380929
0.0124774066
0.0006883453
-0.0153298752
0.0074236799
0.0034211191
0.0138085658
0.0022016289
-0.0105338323
-0.0051819417
0.0034322692
0.0076132953
0.0089742277
0.0035058777
-0.0031067748
0.0044083014
0.0099928375
0.0060743534
0.0018373139
-0.0013517988
0.0042863309
0.0104026216
0.0041437378
-0.0023910699
-0.0075728738
0.0026511425
0.0047613747
0.0075641129
0.0031028077
-0.0110463422
0.0028638240
0.0014976866
0.0069981643
0.0138075921
-0.0038007214
-0.0002156380
-0.0053927871
-0.0023039478
0.0095942650
-0.0034808966
-0.0007109274
-0.0094504175
-0.0055231315
0.0111636576
-0.0055132619
-0.0005827035
-0.0105518569
-0.0020486557
0.0140139702
-0.0060573049
-0.0046189738
-0.0148109489
-0.0008110008
0.0102888850
-0.0040939497
-0.0018774363
-0.0057480190
0.0016011348
0.0027120515
-0.0047020785
-0.0037040121
-0.0073711151
0.0036532047
0.0001817130
-0.0009081877
-0.0022373323
-0.0012892730
0.0044528744
-0.0064705591
0.0014690718
0.0002956713
0.0058060037
0.0053946219
-0.0095556462
0.0004230838
0.0015129675
0.0084944774
0.0067499836
-0.0095935243
0.0102217735
0.0074031334
0.0230839715
0.0018332724
-0.0139120499
0.0030482018
0.0093894769
0.0243699127
0.0076306145
-0.0051965792
0.0083095430
0.0112078308
0.0278358243
0.0025773446
-0.0047649994
0.0113702091
0.0117379289
0.0244962037
-0.0019152569
-0.0035966012
0.0040518769
0.0070228504
0.0102679719
-0.0016613458
0.0052880192
0.0086690850
0.0026185786
-0.0009610039
-0.0126685591
0.0093501576
0.0002314998
-0.0033876302
-0.0153134740
-0.0086231192
0.0147743644
-0.0012702858
-0.0056666671
-0.0216852057
-0.0113171716
0.0121476726
-0.0064563987
-0.0102140465
-0.0283732138
-0.0081335350
0.0105652941
-0.0202708452
-0.0116049054
-0.0306269906
0.0044253178
0.0139691992
-0.0134349955
-0.0095955336
-0.0214218224
0.0013743757
0.0056285883
-0.0211974464
-0.0092082882
-0.0223833329
0.0123953591
0.0053659137
-0.0156297678
-0.0029060231
-0.0077179329
0.0101034603
0.0081541081
-0.0114809009
0.0007745830
0.0021280106
0.0067470966
0.0076556249
-0.0094182899
0.0042294693
0.0103861264
0.0091442671
0.0078293172
0.0017774581
0.0076244521
0.0191312675
0.0042193588
0.0006885251
0.0074592430
0.0080347801
0.0195401760
0.0013202814
-0.0038905400
0.0164119468
0.0066556493
0.0183197104
-0.0058277059
-0.0072767998
0.0208857730
0.0041874447
0.0145667844
-0.0100480850
-0.0106947475
0.0230414805
0.0003974990
0.0055224060
-0.0116609691
-0.0158679612
0.0145446269
-0.0040384527
-0.0043462174
-0.0057401172
-0.0129493628
0.0076086855
-0.0061341227
-0.0116577157
-0.0037383583
-0.0102074747
0.0036366127
-0.0076861214
-0.0142300459
-0.0007123053
-0.0102699540
-0.0017547999
-0.0063085038
-0.0133020891
0.0015678132
-0.0053049471
-0.0089845971
-0.0051850326
-0.0134132830
0.0042359159
0.0043344103
-0.0173140628
-0.0039163224
-0.0157565799
0.0084619514
0.0132811042
-0.0143986935
-0.0023444360
-0.0100332903
0.0043413504
0.0159052491
-0.0108807528
0.0003919378
-0.0022318326
0.0032854356
0.0124088498
-0.0108869289
0.0014667768
-0.0001158246
0.0028399630
0.0143187167
-0.0050990495
0.0055661139
0.0077571581
-0.0005783714
0.0139682730
0.0012316087
0.0057481363
0.0109720118
-0.0034835013
0.0089197412
0.0153139662
0.0090173141
0.0219707618
-0.0107340489
-0.0037479162
0.0142679634
0.0075777935
0.0188020358
-0.0082138351
-0.0052871098
0.0082890844
0.0047673730
0.0122471700
-0.0006896786
-0.0066706357
0.0163725554
0.0016386460
0.0086765785
-0.0040328962
-0.0201311433
0.0046655048
-0.0030584845
-0.0007591680
0.0068331434
-0.0196473740
0.0048382414
-0.0054425284
-0.0056403232
0.0069536842
-0.0224886670
0.0043851257
-0.0064063101
-0.0098880712
0.0033796481
-0.0176629288
0.0033922352
-0.0061305242
-0.0099497527
0.0041293426
-0.0144472111
0.0133017699
-0.0069108021
-0.0129105760
-0.0098510759
-0.0145406036
0.0072154132
-0.0051409025
-0.0108122806
-0.0071962430
-0.0067443649
0.0033572983
-0.0045557288
-0.0108086135
-0.0062511510
-0.0004317227
0.0104607079
-0.0006127617
-0.0040240336
-0.0158891053
0.0029436853
-0.0010738955
0.0013288368
0.0001196151
-0.0045710153
0.0113326098
0.0063098436
0.0051516891
0.0092745052
-0.0105160060
0.0086724817
0.0035836018
0.0067652060
0.0143641450
-0.0044253016
0.0065519953
-0.0132810189
0.0079337917
0.0126187088
0.0117308472
0.0154969822
-0.0053019442
0.0064201305
0.0137326828
0.0050574545
0.0067232431
-0.0156845047
0.0042711484
0.0081280605
0.0154419743
0.0065034663
-0.0129480083
0.0010149676
0.0029084826
0.0128758518
0.0030420933
-0.0066261276
-0.0016278281
0.0004203898
0.0072013795
-0.0031957157
-0.0096125966
-0.0045747857
-0.0067818287
0.0111462397
-0.0070542361
-0.0017620898
-0.0059310733
-0.0095640127
0.0038096023
-0.0116558515
0.0010221411
-0.0057694724
-0.0094153303
0.0025272303
-0.0114775064
-0.0010104255
-0.0029273566
-0.0083647276
0.0003384351
-0.0044743597
0.0079987404
-0.0014170920
-0.0021575631
-0.0071174725
-0.0076852847
0.0023133138
0.0001646854
-0.0033148875
-0.0014951296
-0.0030617139
0.0027858058
0.0002117817
-0.0011040989
-0.0010335042
0.0006580485
0.0094691846
0.0023135853
0.0057248088
-0.0047847193
-0.0015015849
0.0027732415
0.0042316229
0.0064380957
0.0006170741
0.0075695788
0.0016284016
0.0071339228
0.0133184882
0.0013504408
0.0096895987
-0.0002021175
0.0086287227
0.0157356907
0.0039681447
0.0113548334
-0.0044963629
0.0052057885
0.0089592685
0.0068461883
0.0117943515
-0.0007161922
0.0067107537
0.0140009049
0.0051845980
0.0056277207
-0.0005040402
0.0031607183
0.0071507363
0.0062153358
0.0043902404
-0.0032119469
0.0047392036
0.0098696306
0.0072011648
0.0040935105
-0.0012250489
0.0066844669
0.0130723156
0.0044991267
0.0014659240
-0.0006306759
0.0037219629
0.0084678185
0.0013290255
-0.0028779248
-0.0029270990
0.0045093116
0.0073981654
-0.0016992660
0.0023399563
-0.0008695109
-0.0011392702
-0.0037868513
-0.0069842815
-0.0006316428
0.0025512786
-0.0026781897
-0.0081278842
-0.0126960539
0.0009915207
-0.0031724142
-0.0056399251
-0.0170378219
-0.0114079327
0.0100188570
0.0028870768
-0.0052071636
-0.0167441979
-0.0183976315
0.0094032287
0.0018456162
-0.0065235722
-0.0218189109
-0.0204196442
0.0164369769
-0.0054942740
-0.0091178862
-0.0259056950
-0.0092149719
0.0141180201
-0.0072118010
-0.0076928876
-0.0194283146
-0.0005308674
0.0122997503
-0.0083547419
-0.0071967535
-0.0157214841
0.0073807216
0.0076338570
-0.0030313409
-0.0032920006
-0.0037162013
0.0094610603
-0.0011491001
0.0016816332
0.0000598717
0.0057007776
0.0103259735
-0.0048734014
-0.0034713612
0.0022154357
0.0118798845
0.0200342436
-0.0092459849
0.0064878149
0.0068744598
0.0202976890
0.0126549512
-0.0125825692
0.0038001572
0.0068381668
0.0223053490
0.0143182741
-0.0164041609
0.0057211494
0.0067733375
0.0206341567
0.0102675966
-0.0200217259
0.0068399259
0.0043459555
0.0147605471
0.0031300087
-0.0170643046
-0.0052857940
0.0012494543
0.0041602725
0.0065127780
-0.0063635298
-0.0002282402
-0.0001122475
-0.0023608886
-0.0066315350
-0.0031176673
-0.0085497298
-0.0019585426
-0.0088130119
-0.0043402815
0.0047928215
-0.0165348225
-0.0052229031
-0.0187430389
-0.0011439459
0.0172233946
-0.0107959931
-0.0060639263
-0.0190588685
-0.0073118475
0.0127544228
-0.0031473175
-0.0052536461
-0.0161727597
-0.0099296616
0.0088837980
-0.0043129887
-0.0057375972
-0.0179682459
-0.0103558505
0.0138803730
-0.0047481586
-0.0065475931
-0.0204919461
-0.0069687428
0.0151421932
0.0051922033
-0.0036859754
-0.0093368683
-0.0082816320
0.0045552748
0.0173840258
-0.0002493626
0.0008652456
-0.0121726442
-0.0066992196
0.0107032233
0.0022208544
0.0076269629
0.0008275785
-0.0035326568
0.0099963141
0.0053314395
0.0151928286
0.0061280966
-0.0057114966
0.0101721366
0.0075660343
0.0182315511
0.0077049256
-0.0111208403
0.0101220295
0.0067234651
0.0218295622
0.0106924095
-0.0168960399
0.0039944098
0.0028389520
0.0129152525
0.0121465138
-0.0157422928
0.0009869279
0.0018628372
0.0096285784
0.0119468925
-0.0151233825
0.0033003181
0.0011550748
0.0063505957
0.0041057241
-0.0134115378
-0.0021823797
0.0005407257
0.0014308107
0.0044466971
-0.0057835781
-0.0003086393
0.0007990369
0.0009639834
-0.0031525771
-0.0032905441
-0.0019069951
0.0011167652
-0.0005477044
-0.0061144486
0.0019010059
-0.0023537856
-0.0005766772
-0.0046895074
-0.0075149706
0.0041043007
-0.0006561485
-0.0018229456
-0.0090246796
-0.0107238103
0.0073943424
0.0003128116
-0.0034411023
-0.0111583333
-0.0107361308
0.0068105723
-0.0023746490
-0.0045977250
-0.0129400339
-0.0046732919
0.0080991953
-0.0030088666
-0.0032851388
-0.0093376828
-0.0010725294
0.0095966672
-0.0053864658
-0.0033753300
-0.0059519429
0.0065739587
0.0029196557
-0.0010187493
-0.0028556788
-0.0021120701
0.0078969339
-0.0044666063
-0.0032198249
-0.0013733478
-0.0010969927
0.0103494900
-0.0007390267
-0.0062681414
-0.0019571707
-0.0022377311
0.0158400123
-0.0013699565
0.0040863370
-0.0007366084
-0.0017857447
0.0047361898
-0.0065614794
0.0071140415
-0.0005095142
0.0012021997
0.0019572597
-0.0077859760
0.0049498443
-0.0035312757
-0.0046789961
-0.0007976515
-0.0082110212
0.0020069979
0.0009428909
-0.0001104748
-0.0033735875
0.0024115597
-0.0015525146
0.0019985844
0.0017041132
-0.0020274328
0.0040586562
0.0044162670
0.0041123074
0.0073218289
-0.0070402284
-0.0025569956
0.0102119051
0.0078533032
0.0151191437
-0.0103495010
-0.0028696131
0.0051101116
0.0067719283
0.0101842688
-0.0077975881
0.0032707329
0.0168859508
0.0078408487
0.0185567417
-0.0175185253
-0.0039153779
0.0040345837
0.0088014705
0.0192959825
-0.0041476709
0.0014813335
-0.0051436876
0.0096431916
0.0185635636
0.0072470769
0.0081456503
-0.0014607223
0.0087312773
0.0197212189
0.0067633615
0.0025086600
-0.0044041126
0.0053818655
0.0137784693
0.0113516158
0.0015145390
-0.0001740312
-0.0022030757
-0.0004033769
0.0071230278
-0.0051827828
-0.0145526703
-0.0087903246
-0.0169868329
0.0181067997
0.0005408419
-0.0076134946
-0.0094717468
-0.0181745643
0.0118999767
-0.0028646212
-0.0024115891
-0.0118945799
-0.0212528431
0.0075002193
-0.0099048786
-0.0094698952
-0.0048754205
-0.0108525063
0.0124842190
-0.0008000446
-0.0021977262
-0.0000016618
-0.0036670203
0.0050513508
0.0020715627
-0.0013299997
-0.0010038423
-0.0052224023
0.0022795791
-0.0001543783
0.0050134255
0.0065640140
0.0079140981
-0.0077071187
0.0088413774
0.0033974926
0.0058551197
0.0020813246
-0.0135701934
0.0132806444
0.0012017097
0.0093782944
0.0097287220
-0.0161926101
0.0229174771
0.0001387667
0.0125759878
0.0139166498
-0.0174809508
0.0319618900
-0.0045712322
0.0116302206
0.0154143682
-0.0140470079
0.0311266373
-0.0068771831
0.0081075801
0.0100070401
-0.0116080599
0.0298006959
-0.0070416332
0.0026029684
0.0002142187
-0.0079791624
0.0231427494
0.0007144102
0.0002047677
-0.0044676592
-0.0150986579
0.0217665885
0.0013994039
-0.0074669443
-0.0162842561
-0.0111751270
0.0084007638
0.0039640050
-0.0063414807
-0.0088381496
-0.0010587233
-0.0063603339
0.0009656731
-0.0116871432
-0.0173610446
0.0101455588
-0.0220038392
0.0010385723
-0.0114080437
-0.0125146033
0.0207974457
-0.0354714509
0.0037762699
-0.0102352869
-0.0084771082
0.0205815706
-0.0393853967
0.0069022955
-0.0114350550
-0.0108350806
0.0186253837
-0.0459428851
0.0121421949
-0.0073885072
-0.0046989981
0.0090005960
-0.0399575250
-0.0036925094
-0.0094162479
-0.0161300349
0.0116204728
-0.0190429100
-0.0032786795
-0.0076320433
-0.0120698547
0.0067073638
-0.0147036403
0.0045158606
0.0002556593
0.0036124306
-0.0019697680
-0.0143339587
0.0015978721
0.0045133664
0.0068009373
-0.0090720196
0.0033139013
-0.0049738338
0.0090666232
0.0090849519
-0.0153311042
0.0332947137
0.0017589383
0.0143690835
0.0182564542
-0.0216014482
0.0368839875
0.0148194935
0.0102497908
0.0153314342
-0.0289450200
0.0203116451
0.0078429957
0.0093123054
0.0139131959
-0.0186184853
0.0195671280
0.0010824397
0.0082620826
0.0124159418
-0.0047161353
0.0157035795
-0.0005766747
0.0047614220
0.0077873111
0.0022329647
0.0062835942
-0.0010521191
0.0034804551
0.0104819282
0.0116206251
-0.0039154592
-0.0038466577
-0.0009735924
0.0034669400
0.0188424278
-0.0121501500
-0.0070160540
-0.0064345371
-0.0082760802
0.0228723439
-0.0177336276
-0.0139344033
-0.0108000029
-0.0172742568
0.0280003119
-0.0146256396
-0.0082949836
-0.0130012643
-0.0207282061
0.0222326818
-0.0214038336
-0.0089798349
-0.0115997795
-0.0173666513
0.0213068547
-0.0197995146
-0.0119686413
-0.0074576278
-0.0128621126
0.0161071921
-0.0044369147
-0.0142603095
-0.0047045552
-0.0096098749
0.0133177135
0.0021106878
-0.0067528959
-0.0009899077
-0.0012767291
0.0050816995
0.0020527282
0.0074030614
0.0029886197
0.0061788721
-0.0102774004
-0.0001504083
0.0063213129
0.0034020486
0.0048972814
-0.0122560693
0.0067079941
0.0072342466
0.0039724491
0.0026394841
-0.0167436785
0.0108933582
0.0026685230
0.0055170544
0.0044785002
-0.0126872937
0.0204973517
0.0045603459
0.0014181784
-0.0009044904
-0.0131926039
0.0103773140
0.0086269823
0.0033866313
0.0017797276
-0.0162051975
0.0102901193
0.0075035673
0.0003250694
-0.0057766517
-0.0153008535
0.0086723282
-0.0046639435
-0.0056643449
-0.0159175858
-0.0025472981
0.0094661260
-0.0004670129
0.0002172312
-0.0039821881
-0.0006591403
0.0096438902
0.0074271598
0.0001266808
0.0011754895
-0.0023065749
-0.0071411370
0.0085823027
0.0049178724
0.0115109478
-0.0010885765
-0.0064188908
0.0046414516
0.0079759822
0.0193475407
0.0058763215
-0.0077446257
-0.0066665496
0.0028294973
0.0107307347
0.0184184307
-0.0118673607
0.0064664638
0.0038116600
0.0169017175
0.0092645611
-0.0234011205
0.0007648094
0.0024019781
0.0124637309
0.0119626737
-0.0173961314
-0.0014851701
0.0012702939
0.0049409227
0.0079013403
-0.0105118405
0.0036329808
0.0019074535
0.0060350687
0.0004587436
-0.0063255534
0.0066327517
-0.0008884756
0.0005799297
-0.0046938374
-0.0057063692
0.0055750014
-0.0033359521
-0.0067450232
-0.0067112482
-0.0012541177
0.0040880050
-0.0028341072
-0.0069794562
-0.0076359515
0.0017295562
0.0048541554
0.0002365194
-0.0019951700
-0.0083287232
0.0067272941
0.0008079747
0.0000748714
-0.0021984186
-0.0055513562
0.0093093479
0.0035141205
0.0047735703
0.0087305374
-0.0046550288
0.0057587364
-0.0062155755
0.0041301943
0.0068899324
0.0042936442
0.0096937871
-0.0087508157
0.0011368896
0.0015469758
0.0059162569
0.0072696412
-0.0058231253
0.0067757188
0.0084428198
0.0036588672
0.0110791450
-0.0030984808
0.0031814013
0.0034883670
0.0005503747
0.0084627337
0.0026470981
0.0087186605
0.0134014362
-0.0027757663
0.0104086567
0.0031650377
0.0119793684
0.0182940890
-0.0047054481
0.0144113370
0.0024558002
0.0086288247
0.0109264175
-0.0075342974
0.0144881320
0.0052098143
0.0089144414
0.0122439040
-0.0099358051
0.0120237294
0.0053306425
0.0037845281
0.0038674808
-0.0082052707
0.0070095108
-0.0000507814
-0.0029423274
-0.0078516096
-0.0032432448
0.0026910408
-0.0006468702
-0.0044003185
-0.0085527211
-0.0008990549
-0.0019268233
-0.0044899318
-0.0089946159
-0.0148437223
0.0012015740
-0.0047785394
-0.0154755409
-0.0141962560
-0.0265673348
0.0105346825
-0.0033531652
-0.0126357262
-0.0194575477
-0.0340833554
0.0100804973
-0.0116343462
-0.0204659876
-0.0200652836
-0.0372152355
0.0188792897
-0.0105557850
-0.0132075484
-0.0165436413
-0.0299034047
0.0114717961
-0.0087148726
0.0077132052
-0.0088433947
-0.0138943896
-0.0052411081
-0.0123573240
0.0104994622
-0.0009374378
-0.0014208382
-0.0060182161
-0.0063381378
0.0188882972
0.0049695804
0.0098652808
-0.0132212887
-0.0032178575
0.0203380485
0.0146611434
0.0277032199
-0.0175392281
0.0041468876
0.0291360162
0.0170094866
0.0343941740
-0.0211201514
-0.0090119347
0.0265026304
0.0187414853
0.0383936089
-0.0179155243
-0.0049165926
0.0063548138
0.0148274230
0.0254960556
-0.0052141511
0.0122772885
0.0041443333
0.0098122266
0.0186999345
-0.0031507209
0.0041158904
0.0022223413
0.0077690368
0.0181687179
0.0002193162
-0.0060915474
-0.0143900932
-0.0029231649
-0.0024769899
0.0146649194
-0.0049276094
-0.0317424424
-0.0073945810
-0.0138137256
0.0280017581
0.0076052786
-0.0177656654
-0.0094400568
-0.0166104449
0.0172739484
-0.0039455923
-0.0098083974
-0.0106706169
-0.0177159330
0.0117101579
-0.0085687820
-0.0153725203
-0.0078936846
-0.0152755105
0.0182812791
-0.0026860079
-0.0053828714
-0.0062172965
-0.0100123522
0.0099513414
-0.0061837277
0.0040897387
-0.0070557647
-0.0099308530
0.0027945486
-0.0146724153
0.0110565310
-0.0044478937
-0.0058315649
-0.0016429593
-0.0177964947
0.0242064476
-0.0049684598
-0.0074352732
-0.0153935683
-0.0221670557
0.0202728392
-0.0075624316
-0.0107174736
-0.0132568702
-0.0190849866
0.0103229000
-0.0033754070
-0.0074018395
-0.0094904707
-0.0053962318
0.0021463738
-0.0036538672
-0.0075634627
-0.0056130699
-0.0024297348
-0.0200825417
-0.0017896377
-0.0055876368
0.0149512797
0.0075979787
-0.0204200675
0.0005996577
0.0000452354
0.0161167377
0.0094834582
-0.0240372680
0.0034589202
0.0030711784
0.0161774497
0.0173359871
-0.0180089897
0.0061545371
0.0082112376
0.0096129505
0.0222428726
-0.0152397264
0.0067959058
0.0090228640
0.0065031686
0.0214928640
-0.0095068148
0.0067382274
0.0087736509
0.0011709709
0.0241053559
-0.0006811844
0.0069568224
0.0073824829
-0.0070952904
0.0235912894
0.0069901564
0.0050233216
0.0047406728
-0.0126533723
0.0154036154
0.0166834646
0.0037878756
0.0023789336
-0.0193745592
0.0093180247
0.0180219895
-0.0004874012
-0.0024031604
-0.0172708442
-0.0002182124
0.0092925086
-0.0078820690
-0.0167512486
-0.0102925369
-0.0034072827
-0.0002962916
-0.0042548714
-0.0095568152
0.0005499058
-0.0000072619
0.0019385706
-0.0028385781
-0.0032977763
0.0053115787
-0.0125247722
-0.0116055558
-0.0003289626
0.0029974748
0.0213845814
-0.0093486360
-0.0060427086
0.0030481078
0.0112714383
0.0188617630
-0.0134965512
-0.0087642392
0.0003338984
0.0052328952
0.0182730579
-0.0094236814
-0.0105584946
0.0007730393
0.0047348399
0.0172027284
-0.0031174195
-0.0003002303
-0.0000550206
0.0031054801
0.0056160354
-0.0040909358
0.0045765938
-0.0002570345
0.0026596834
-0.0009533379
-0.0021370187
0.0119629906
0.0016363835
0.0036653065
-0.0086043646
0.0002548983
0.0116404910
0.0033872767
0.0059073747
-0.0120519178
0.0056996345
0.0144006182
0.0019563596
0.0024475505
-0.0177523162
0.0043950504
0.0166984392
0.0058274141
0.0114234511
-0.0174172383
-0.0010868312
0.0186858204
0.0059946618
0.0120811338
-0.0159075158
-0.0081286441
0.0135395346
0.0094511653
0.0197154924
-0.0086306254
-0.0056698809
0.0153887588
0.0120304351
0.0267388292
-0.0075059585
-0.0109294670
0.0130038687
0.0075315558
0.0185192767
-0.0072993771
-0.0138319373
0.0064018893
0.0032985094
0.0085603373
-0.0030498920
-0.0087189516
-0.0021279445
-0.0021418086
-0.0029926933
0.0003229766
-0.0042154974
-0.0081404506
-0.0047719333
-0.0097679806
0.0016172284
0.0038621699
-0.0120761045
-0.0064777547
-0.0133529182
0.0032903627
0.0078238015
-0.0163042892
-0.0040574507
-0.0095841069
0.0093696151
0.0100276909
-0.0194168753
-0.0048749936
-0.0119316729
0.0090296130
0.0171646775
-0.0284130401
-0.0012553115
-0.0076963497
0.0166185723
0.0267665767
-0.0172467645
-0.0000563563
-0.0045875542
0.0092680903
0.0168583710
-0.0115075822
0.0003619139
-0.0024103358
0.0080739369
0.0100139784
-0.0022849472
0.0011438941
-0.0013083580
0.0016105806
0.0060740888
0.0049751092
0.0003334915
-0.0029964503
-0.0037619886
0.0029062275
0.0105707817
-0.0021537943
-0.0061636068
-0.0078585295
-0.0026921033
0.0179672623
-0.0044538919
-0.0084459989
-0.0139387549
-0.0096226698
0.0165731085
-0.0032173351
-0.0047245406
-0.0119586814
-0.0075535624
0.0185907478
-0.0004450345
-0.0012964644
-0.0133392356
-0.0083764582
0.0150184472
0.0001946190
0.0013959718
-0.0127502804
-0.0038253870
0.0143125229
0.0003458817
0.0029207261
-0.0137682858
-0.0076914050
0.0056091412
0.0021724293
0.0051986630
-0.0069174574
-0.0030826215
0.0083085409
0.0020219436
0.0091480885
-0.0061492429
-0.0112606438
-0.0023713810
0.0013565084
0.0069075553
0.0036629160
-0.0064678598
-0.0135681409
-0.0009980710
-0.0005803195
0.0096738904
0.0002752219
-0.0209633012
-0.0021989475
-0.0054378685
0.0152214821
0.0036276627
-0.0057605289
-0.0032300023
-0.0045903569
0.0035372118
-0.0088731797
-0.0031110268
-0.0038983925
-0.0096317710
0.0021461663
-0.0063143435
-0.0236787699
-0.0090072077
-0.0248497634
0.0135937389
0.0204658278
-0.0092605749
-0.0036030091
-0.0101826237
0.0054139395
0.0105416878
-0.0006774815
0.0023560236
0.0029673132
0.0058563188
0.0010383503
0.0042690384
0.0020022426
0.0062649817
0.0049819266
-0.0039315352
-0.0038830089
0.0035128402
0.0078192952
0.0131977853
-0.0004594784
-0.0003937696
0.0015376279
0.0054371775
0.0109311983
-0.0079626852
0.0078351038
0.0009502088
0.0089711706
0.0068462751
-0.0191622175
0.0126830174
-0.0033458536
0.0007942578
-0.0010648755
-0.0227953289
0.0154795812
-0.0021177397
0.0026617161
-0.0062155376
-0.0217689903
0.0076199699
-0.0069662950
-0.0117166261
-0.0059710540
-0.0122262067
0.0052954510
-0.0122073517
-0.0237714687
-0.0108636026
-0.0068181452
0.0091382552
-0.0074457106
-0.0156931557
-0.0121300379
-0.0093826222
-0.0061121144
-0.0076582863
-0.0199402194
-0.0023693792
0.0035001969
-0.0172439821
-0.0017011263
-0.0093648920
0.0062292376
0.0172188636
-0.0142076693
0.0048915888
0.0053525026
0.0057477554
0.0149371812
-0.0151896647
0.0083125479
0.0125846282
0.0090264522
0.0148138546
-0.0142915059
0.0133616937
0.0226051614
0.0112025623
0.0203130790
-0.0118188892
0.0154001730
0.0263171099
0.0102757391
0.0216193327
0.0035864923
0.0178175313
0.0349433071
0.0011955448
0.0116964266
0.0141250777
0.0186862759
0.0366508483
-0.0045167846
0.0042054962
0.0075648032
0.0128504686
0.0278934408
0.0009589861
0.0048219908
0.0040450229
0.0067607048
0.0123797768
0.0007046258
0.0064270992
0.0038610765
-0.0036082049
-0.0072234077
-0.0009870308
0.0003138656
0.0046468349
-0.0113045199
-0.0217064546
-0.0014668223
-0.0044629130
0.0123049191
-0.0148561203
-0.0274118538
-0.0073994356
-0.0117892196
0.0084028013
-0.0116450551
-0.0232779768
-0.0059005596
-0.0051513032
-0.0014251231
-0.0107968900
-0.0222593957
-0.0005957548
-0.0007883899
-0.0071097462
-0.0067409558
-0.0109106043
0.0064409110
-0.0051962622
-0.0112019326
-0.0029473267
-0.0049553525
0.0112948741
-0.0062189766
-0.0147184853
-0.0023669440
-0.0052212549
0.0122529738
-0.0013429690
-0.0035811043
0.0023552891
0.0053938488
0.0000003875
0.0012480610
-0.0002496832
0.0047566751
0.0090869386
-0.0044474440
0.0055193671
-0.0035402703
0.0041845925
0.0067135998
0.0002711326
0.0076060906
0.0004625113
0.0047999840
0.0086499952
-0.0007079738
0.0005505207
-0.0037367074
0.0023415231
0.0031920335
0.0048729737
0.0036358901
-0.0013113949
0.0006252382
-0.0012279117
0.0002957067
0.0048021416
0.0053062802
0.0033111262
0.0025034159
-0.0034554198
0.0080378164
0.0077431699
-0.0003470699
-0.0072072757
-0.0099423055
0.0112745210
0.0088206587
-0.0037002160
-0.0126307185
-0.0126659434
0.0121936430
0.0047515130
-0.0065352911
-0.0160903488
-0.0094992980
0.0057809042
0.0076440266
-0.0049249086
-0.0110294163
-0.0106926984
-0.0030937721
0.0007857286
0.0024592645
0.0044878900
-0.0047025635
0.0047509128
-0.0014144197
0.0155553367
0.0291327198
-0.0008799758
0.0119874743
0.0009905157
0.0209809149
0.0420257475
0.0015025058
0.0071675742
0.0072332441
0.0195867084
0.0417122378
-0.0014813335
-0.0017617964
0.0080878131
0.0153402728
0.0334657008
-0.0010924223
-0.0058061655
0.0073826158
0.0068952878
0.0153621046
-0.0039537114
-0.0068102130
0.0103685990
0.0002354622
0.0036085297
-0.0061321986
-0.0146505399
0.0022999599
-0.0085097242
-0.0084346349
0.0071803376
-0.0273166159
0.0034626955
-0.0137387945
-0.0168105174
0.0057404629
-0.0296412644
-0.0097183119
-0.0206221330
-0.0334987639
0.0159135005
-0.0255347449
-0.0099508806
-0.0239933269
-0.0417287792
0.0107233660
-0.0176996340
-0.0106166290
-0.0222590762
-0.0454623028
0.0045181257
-0.0013036995
-0.0026792799
-0.0162312110
-0.0340605799
-0.0018284863
0.0019186543
0.0015510886
-0.0056821492
-0.0176457608
-0.0089386247
0.0170496888
0.0005683215
0.0090869419
0.0096192605
-0.0071402170
0.0260406811
0.0105222999
0.0215585917
0.0364121384
-0.0111081025
0.0225819645
0.0035754491
0.0260652729
0.0430993379
-0.0073143985
0.0301429685
0.0091888951
0.0226380093
0.0379773789
-0.0131367185
0.0231511380
0.0139430198
0.0128048757
0.0238671235
-0.0161333792
0.0027734141
0.0085670812
0.0019306543
0.0064238585
-0.0103214521
-0.0105979761
-0.0120137396
-0.0151046091
-0.0289210741
0.0027483259
-0.0089313636
-0.0180112655
-0.0209034120
-0.0369360007
0.0111260008
-0.0151034359
-0.0140686896
-0.0254556727
-0.0438900320
0.0119247030
-0.0247554941
-0.0111679590
-0.0234291226
-0.0423718642
0.0128381624
-0.0236205333
-0.0088060413
-0.0198639497
-0.0342073680
0.0148980569
-0.0185321917
-0.0065403771
-0.0130175586
-0.0210217335
0.0188440711
-0.0172832245
-0.0010398980
0.0009989951
0.0058006787
0.0176942705
-0.0135840103
0.0054284484
0.0092292485
0.0226665297
0.0134610240
-0.0089256298
0.0185022868
0.0176153486
0.0400511367
0.0034043649
-0.0131729898
0.0165525911
0.0192203292
0.0400980388
-0.0017002166
-0.0018901577
0.0118905621
0.0173113410
0.0345433354
-0.0033118917
0.0036725714
0.0073712100
0.0140160811
0.0257497287
-0.0066313230
0.0104166360
0.0011124306
0.0086566798
0.0160092201
-0.0050815275
0.0078162093
-0.0052810667
0.0038239978
0.0019760170
-0.0079259195
0.0166965554
-0.0055191221
-0.0010747892
-0.0106549618
-0.0148521095
0.0245854085
0.0006731218
-0.0049271747
-0.0161500928
-0.0190050866
0.0118368380
0.0090539147
-0.0040769061
-0.0138672724
-0.0242147932
0.0064162721
0.0137474863
-0.0038877864
-0.0078446330
-0.0193454551
-0.0066362309
0.0042685836
-0.0031468244
-0.0069113597
-0.0074890299
-0.0025092765
0.0080233925
-0.0002986563
-0.0000332502
-0.0073131969
-0.0031889627
0.0086550316
0.0036205403
0.0062499173
-0.0032804071
0.0007260389
0.0058359545
0.0032784796
0.0092761956
0.0030758148
-0.0004167657
-0.0047992733
0.0024101290
0.0073372725
0.0164967145
0.0020618706
-0.0174453131
0.0019780990
0.0049752102
0.0264472669
0.0114489259
-0.0155819486
0.0034921709
0.0111654931
0.0260337686
0.0027502957
-0.0144137611
0.0077911225
0.0158951749
0.0250941605
0.0033536627
-0.0240264526
0.0000293825
-0.0016257584
0.0276776353
0.0080975881
-0.0199597653
-0.0020160962
-0.0067405622
0.0232186637
0.0025987595
-0.0075682672
-0.0086767468
-0.0168971424
0.0078930587
-0.0094068723
-0.0149925088
-0.0165791058
-0.0354247862
0.0060106395
-0.0040072082
-0.0186089016
-0.0130517160
-0.0321155747
0.0041931805
0.0085564053
-0.0156058927
-0.0129095043
-0.0315974295
-0.0011664932
0.0089863111
-0.0063124166
-0.0050243140
-0.0135719105
-0.0050454893
0.0095019175
0.0032940098
0.0020496448
0.0015960304
-0.0108437370
0.0058238279
-0.0004822484
0.0077345161
0.0142427953
-0.0035599855
0.0122412839
0.0093462886
0.0129000963
0.0253553343
-0.0088583235
0.0096371823
0.0297861350
0.0188181226
0.0402877931
-0.0189044870
-0.0079543568
0.0317364151
0.0180322992
0.0394301175
-0.0170588973
-0.0086373975
0.0359303259
0.0128555271
0.0283033930
-0.0216385072
-0.0133981844
0.0157588753
0.0093576907
0.0148214692
-0.0094401006
0.0058056624
0.0048145429
-0.0027594911
-0.0101845405
-0.0069081586
0.0067259878
-0.0029160055
-0.0052748098
-0.0152882336
-0.0022460831
0.0102281767
-0.0157755900
-0.0090612564
-0.0241735146
0.0064959761
0.0191818518
-0.0175972807
-0.0066237706
-0.0185105392
0.0103331259
0.0157976786
-0.0173420055
-0.0071368959
-0.0175742588
0.0101356325
0.0100791596
-0.0207752242
-0.0040656497
-0.0102747964
0.0112922198
0.0138666348
-0.0230529308
-0.0032350885
-0.0077265131
0.0147714222
0.0067361531
-0.0141572526
-0.0013719154
0.0020219992
0.0113205582
-0.0031427304
-0.0120863527
0.0044538166
0.0151692033
0.0164975021
-0.0061037734
0.0084182751
0.0013436295
0.0113830411
0.0020377732
-0.0241112078
0.0245698324
0.0109140913
0.0277190761
-0.0085341240
-0.0251704232
0.0337863801
0.0057748906
0.0183799136
-0.0176355750
-0.0363372992
0.0238472251
0.0063594373
0.0144730806
-0.0138499114
-0.0155382893
0.0153784457
0.0074818874
0.0145181468
-0.0102388815
-0.0035707291
0.0145169267
0.0005580697
0.0012630566
-0.0136403766
-0.0018745013
0.0014416591
-0.0060313839
-0.0122088835
-0.0043099251
0.0014653934
-0.0093834532
-0.0112173657
-0.0248304124
0.0004065878
0.0100805417
-0.0193142888
-0.0112316740
-0.0328670126
0.0059887963
0.0185979362
-0.0137989580
-0.0160340705
-0.0365056038
0.0014109047
0.0085497349
0.0002872798
-0.0123718016
-0.0249197348
-0.0061414889
-0.0067580081
-0.0151187163
-0.0162793083
-0.0340765475
0.0056975277
-0.0000176863
-0.0235839720
-0.0158911888
-0.0364079656
0.0105082616
0.0097074196
-0.0014082574
-0.0087028560
-0.0161541601
-0.0009630584
-0.0147062551
0.0092182282
0.0003265851
0.0067279940
-0.0033880249
-0.0227056477
0.0179495297
0.0130490596
0.0332626705
-0.0042679266
-0.0229660210
0.0174667003
0.0227556619
0.0519962252
-0.0014448906
-0.0166013497
0.0277539384
0.0253909806
0.0590318103
-0.0086710949
-0.0194718965
0.0268993993
0.0217683801
0.0514760920
-0.0084003379
-0.0142315195
0.0252795449
0.0139713535
0.0357349993
-0.0096680143
-0.0113911705
0.0189668830
0.0071491150
0.0213865618
-0.0073065743
-0.0067455784
0.0058181172
0.0018620634
0.0064926237
-0.0011495028
0.0023102172
0.0094787928
-0.0062508399
-0.0102908408
-0.0083987530
-0.0020343909
-0.0092059482
-0.0135447646
-0.0277892359
0.0062726355
0.0024382663
-0.0158499715
-0.0159643440
-0.0402218873
0.0061765253
0.0074221921
-0.0191093961
-0.0144173594
-0.0328291309
0.0083344686
0.0087212797
-0.0141110636
-0.0103324423
-0.0233805359
0.0032998679
0.0068485499
-0.0118822612
-0.0042598151
-0.0128242220
0.0047263397
0.0060638011
-0.0117580286
0.0015577026
-0.0041822963
0.0034794848
0.0155093844
-0.0019129933
0.0027636484
-0.0048798493
-0.0125581849
0.0228578868
0.0097089546
0.0115612776
0.0143875674
-0.0170607852
0.0196758830
0.0089785473
0.0126424432
0.0159255508
-0.0138019007
0.0210000732
0.0059175128
0.0120603892
0.0203641967
0.0007638708
0.0097259060
0.0048229882
0.0140191008
0.0271202158
0.0043413790
0.0060983385
-0.0067095934
0.0038302140
0.0087950523
0.0134987206
0.0035439731
-0.0023394909
-0.0046123320
-0.0020674468
0.0119526757
-0.0137391301
-0.0062466945
-0.0136079201
-0.0172927948
0.0172739722
-0.0222517103
-0.0112539155
-0.0167138926
-0.0184237414
0.0255681228
-0.0340750888
-0.0056750071
-0.0129634764
-0.0114754984
0.0210961832
-0.0328692518
-0.0021965315
-0.0085577019
-0.0053385555
0.0148285379
-0.0271698110
0.0009084766
-0.0005289459
0.0046424327
0.0058369118
-0.0134709385
-0.0034600660
0.0037174049
0.0038090314
-0.0013602547
0.0111147453
-0.0067002118
0.0075996834
0.0062821202
-0.0033887547
0.0236135648
-0.0047398269
0.0077259302
0.0036926985
-0.0065032306
0.0266929393
-0.0125820659
0.0124881402
0.0107174203
-0.0008738633
0.0378380925
-0.0095289557
0.0122949764
0.0100504251
-0.0042702186
0.0374125304
-0.0087187901
0.0104046022
0.0080590859
-0.0073284207
0.0333286676
-0.0084471186
0.0069814784
0.0026968966
-0.0050658512
0.0278835835
-0.0041779034
-0.0004445408
-0.0058068235
-0.0054280410
0.0108087722
-0.0056194424
-0.0054907093
-0.0101624655
0.0012071786
-0.0018899898
0.0050167490
-0.0065658992
-0.0064049196
-0.0031100015
-0.0140167962
0.0111876526
-0.0093473215
-0.0115875776
-0.0087580567
-0.0161770682
0.0151026330
-0.0128086720
-0.0210957152
-0.0110400903
-0.0210721546
0.0148757823
-0.0147659900
-0.0221458329
-0.0077414570
-0.0214512836
0.0089397749
-0.0166417679
-0.0291516158
-0.0031898182
-0.0126178362
0.0025211856
-0.0070707847
-0.0158202241
0.0012481802
0.0009269826
-0.0009338473
0.0004369846
-0.0035544162
0.0036264702
0.0107160741
-0.0076608409
0.0106449446
0.0154880393
0.0108950847
0.0187867966
-0.0118704148
0.0134609622
0.0206815225
0.0155988312
0.0173554984
-0.0143541280
0.0148546771
0.0265219844
0.0173849543
0.0134570347
-0.0147572467
0.0127091401
0.0251802638
0.0154619066
0.0085296732
-0.0182469881
0.0076889670
0.0169569675
0.0160289756
0.0039861193
-0.0153309655
0.0097724631
0.0216820563
0.0139932521
0.0046929497
-0.0087975120
0.0025351839
0.0055639895
0.0022061826
0.0045336598
0.0080069520
-0.0001606887
0.0014582302
-0.0121945126
-0.0033066881
0.0035463659
-0.0089046150
-0.0188676642
-0.0130731162
0.0048984185
0.0017821946
-0.0138020408
-0.0284657340
-0.0094382124
0.0023941150
0.0118347646
-0.0096196182
-0.0192644469
-0.0110694730
-0.0112029389
0.0025017174
-0.0071146148
-0.0151580701
-0.0000267403
-0.0047742031
0.0048417268
0.0030542808
0.0064837801
0.0047689848
-0.0067209301
0.0126105574
0.0105518127
0.0242926398
0.0016494720
-0.0097719872
0.0050994171
0.0066034736
0.0163285021
0.0072571095
-0.0075570983
-0.0099080517
-0.0011129690
-0.0017766982
0.0122819885
0.0022699394
-0.0047093820
-0.0038248712
-0.0040399389
0.0071183407
-0.0076038538
-0.0024147442
-0.0054832365
-0.0046131640
0.0041760701
-0.0113834361
-0.0000427260
-0.0107894332
-0.0168258192
-0.0026731999
-0.0150928483
0.0114030357
-0.0073232453
-0.0105543009
-0.0143260209
-0.0165327670
0.0268463351
-0.0037307295
-0.0052066079
-0.0281703153
-0.0208174963
0.0325990275
-0.0037083969
-0.0036646483
-0.0332266296
-0.0221260626
0.0435970364
0.0068140303
0.0182680857
-0.0372502128
-0.0252369094
0.0498927440
0.0095663679
0.0253382764
-0.0410347658
-0.0295594603
0.0219001465
0.0085916697
0.0166603880
-0.0191198090
-0.0052119323
0.0059154824
0.0069769955
0.0090073420
-0.0069075915
0.0079239284
0.0049460477
0.0058277453
0.0105646877
-0.0030128923
0.0027709328
-0.0069203533
-0.0009498494
-0.0030962441
0.0056634119
0.0066697868
-0.0158430687
-0.0018330971
-0.0078724565
0.0108218075
0.0179470085
-0.0160483528
-0.0051231013
-0.0133007805
0.0144475404
0.0110490204
-0.0038038241
-0.0012882164
0.0002531915
0.0108674686
-0.0052930156
-0.0019173577
0.0045510644
0.0157432540
0.0152647063
-0.0150387179
-0.0144448215
0.0011323158
0.0088164264
0.0252248250
-0.0135969343
-0.0236890099
0.0040221722
0.0134898037
0.0312523590
-0.0025978399
-0.0100721899
0.0012324056
0.0061094806
0.0160763994
-0.0021388025
0.0097642235
-0.0002196824
0.0048263027
-0.0032829625
-0.0119101978
0.0108671761
-0.0027489463
-0.0046160753
-0.0097902454
-0.0045788929
-0.0018636019
-0.0032901221
-0.0124563916
-0.0046926050
0.0095877096
-0.0105873179
-0.0070516112
-0.0190369247
0.0005742597
0.0116166714
-0.0074428000
-0.0034817273
-0.0132582245
-0.0017684871
0.0097573778
-0.0138107038
-0.0045577984
-0.0178072826
0.0000982433
0.0232387218
-0.0156017386
-0.0072843222
-0.0268506614
-0.0026271352
0.0318471700
-0.0107531240
-0.0045102114
-0.0191339907
-0.0016484964
0.0253435745
-0.0045491113
0.0014215647
-0.0040281323
0.0002494805
0.0158324027
-0.0146788093
0.0043614119
0.0059786074
0.0145000252
0.0121150852
-0.0138540953
0.0113641415
0.0210139321
0.0201430099
0.0041676913
-0.0010169195
0.0124038045
0.0286815595
0.0134570419
-0.0083398903
0.0006449466
0.0039567899
0.0148645253
0.0109374982
-0.0160198589
0.0133399658
0.0037639820
0.0142498815
-0.0014347547
-0.0169309942
0.0136573567
-0.0017874496
0.0029199898
-0.0050381880
-0.0163575203
0.0163251374
-0.0024797799
0.0001048869
-0.0103829817
-0.0140003775
0.0096392948
-0.0016552586
-0.0048903993
-0.0126845599
0.0050920227
-0.0007046060
-0.0024582859
-0.0115717499
-0.0097247896
0.0186233170
-0.0061809476
-0.0046451275
-0.0186528968
-0.0096842258
0.0262623974
-0.0141567275
-0.0030087117
-0.0149700024
-0.0005256650
0.0278103363
-0.0224956505
-0.0046528062
-0.0173772553
0.0085477958
0.0260898417
-0.0257257196
-0.0046170981
-0.0174995259
0.0157059690
0.0230561623
-0.0238057600
0.0025249910
-0.0023108301
0.0176851537
0.0188271581
-0.0220878437
-0.0036404249
-0.0117718637
0.0147439358
0.0147654686
-0.0007836932
-0.0033137958
-0.0061303219
0.0010341813
-0.0018682292
0.0118517753
-0.0044955511
-0.0056269343
-0.0051456245
-0.0125431100
0.0222317400
-0.0035937433
-0.0014344749
-0.0101143898
-0.0223652357
0.0329797679
0.0048137635
0.0170227784
-0.0162725316
-0.0252812238
0.0274536660
0.0034624475
0.0146968729
-0.0128119829
-0.0264117467
0.0075332762
0.0079514610
0.0204062341
0.0040391755
-0.0115690584
-0.0034333139
0.0113393506
0.0259855538
0.0119623399
0.0011886536
-0.0183974132
0.0111779975
0.0216096403
0.0213082174
0.0080089571
-0.0228137582
0.0151012959
0.0271118893
0.0213963560
0.0169462899
-0.0220222328
0.0112447641
0.0212377872
0.0189382811
0.0112167538
-0.0145918433
0.0030750672
0.0067711655
0.0100551207
-0.0004488228
-0.0162884687
-0.0032915839
-0.0086709353
0.0065182478
0.0083772731
-0.0015303679
-0.0085169349
-0.0211634966
-0.0108170544
0.0093501096
0.0244020289
-0.0124005557
-0.0290437642
-0.0351395625
-0.0012551162
0.0353631327
-0.0104256105
-0.0207137267
-0.0401222067
-0.0107497132
0.0401041589
-0.0020276573
-0.0055423219
-0.0408663224
-0.0090775796
0.0126513542
-0.0052440048
-0.0158119402
-0.0170556890
0.0078032209
0.0127779907
-0.0066102378
-0.0135746742
-0.0086543358
-0.0117165250
0.0097569867
-0.0045177930
-0.0058167612
0.0019541261
-0.0211803773
0.0036245577
-0.0061634351
-0.0064282152
0.0077694002
-0.0235795586
-0.0073703690
-0.0014243355
0.0039334169
0.0191222814
-0.0161241012
-0.0059469271
0.0027793507
0.0149091001
0.0191407826
-0.0192785292
-0.0050291662
0.0064760450
0.0246872197
0.0179748577
-0.0203054335
0.0150236665
0.0107960628
0.0364423942
-0.0005727268
-0.0303207128
-0.0001467646
0.0083308186
0.0237306701
0.0055652499
-0.0112958153
-0.0145109975
0.0065591948
0.0084361833
0.0053499738
0.0192679181
0.0059214442
0.0084094882
0.0109606472
-0.0177998153
0.0219722376
0.0086554931
0.0072322047
0.0063595406
-0.0212045009
0.0235796143
0.0120922385
0.0072729736
0.0081896050
-0.0196546478
0.0112196829
-0.0111453877
0.0075832014
0.0053813781
0.0023118126
0.0241419548
0.0039336110
-0.0007521474
-0.0059424149
-0.0072454589
-0.0019344232
0.0160622382
-0.0051935317
-0.0102527531
-0.0120950453
-0.0172642530
0.0152925727
-0.0139160446
-0.0260219641
-0.0110947657
-0.0202785847
0.0092385561
-0.0222128371
-0.0398402115
-0.0036444757
-0.0237084482
-0.0015615393
-0.0204516963
-0.0375377820
0.0040874878
-0.0162541169
-0.0054701324
-0.0167442881
-0.0238606161
0.0126271034
-0.0216731150
-0.0114460005
-0.0066751446
-0.0048824128
0.0208797676
-0.0165925573
-0.0155356026
-0.0045863688
-0.0007514594
0.0238270484
-0.0084146686
-0.0112473158
0.0039411192
0.0127781894
0.0189089673
-0.0006106363
-0.0103170638
0.0058988221
0.0127515276
0.0109533888
0.0123677247
-0.0075735915
0.0111177521
0.0191428129
0.0049303951
0.0176627834
-0.0023920456
0.0140936275
0.0215298986
-0.0030888110
0.0207254459
-0.0081451893
0.0180642012
0.0264581873
0.0019063583
0.0247629195
0.0033425247
0.0124693559
0.0174594210
-0.0085154940
0.0123680690
0.0170514761
0.0044544295
0.0029282743
-0.0219722172
0.0012793286
0.0140840836
0.0002423074
-0.0049730501
-0.0183693194
-0.0008900594
0.0036520154
-0.0038274319
-0.0130048860
-0.0101211474
0.0047766603
-0.0023703459
-0.0043184927
-0.0112428103
-0.0022969629
0.0040202945
-0.0095244127
-0.0070393056
-0.0125479004
0.0094090910
-0.0031042303
-0.0272798466
-0.0052438028
-0.0109991733
0.0282244426
0.0048071903
-0.0311932645
-0.0108244326
-0.0202117068
0.0326983975
0.0061689445
-0.0215553471
-0.0069037916
-0.0116429800
0.0273278404
0.0028475553
-0.0156471934
-0.0094020354
-0.0220648020
0.0129461909
0.0112333298
-0.0021559471
-0.0057794033
-0.0160355807
-0.0027882801
0.0143484817
0.0004670625
-0.0034002936
-0.0104182524
-0.0057544436
0.0116732433
0.0078599545
0.0037834843
0.0071610055
-0.0083894160
0.0086665235
0.0173218410
0.0086710856
0.0182118054
-0.0147678487
0.0004297582
0.0228455085
0.0193235569
0.0357086388
-0.0231649825
0.0081554616
0.0060246102
0.0229217145
0.0362538956
-0.0125392821
0.0336490004
-0.0058532153
0.0090643065
0.0102803730
-0.0050207683
0.0255155214
-0.0109351463
0.0106783876
0.0165453676
0.0100109824
0.0140948149
-0.0193571625
-0.0032575603
-0.0087491563
0.0158366248
0.0107209272
-0.0259959527
-0.0034012050
-0.0104934652
0.0230152661
0.0144128911
-0.0178690627
-0.0019206784
-0.0076221438
0.0160715444
0.0157685105
-0.0050454082
-0.0070298701
-0.0147550078
0.0068398452
0.0020414952
0.0008340997
-0.0142595068
-0.0268260861
0.0019461560
-0.0095328526
0.0118767443
-0.0192484686
-0.0348634533
-0.0082140346
-0.0230142913
0.0152293458
-0.0147185913
-0.0236773238
-0.0092230442
-0.0250474411
0.0146382236
-0.0135103823
-0.0200387981
-0.0086279019
-0.0285023469
0.0129282307
-0.0024359356
0.0045448037
-0.0010644864
-0.0329492321
0.0201939120
0.0082213200
0.0253127806
-0.0099579484
-0.0265143188
0.0217431254
0.0104833795
0.0286883158
-0.0148414680
-0.0271096206
0.0199560416
0.0174110495
0.0361534806
-0.0166049847
-0.0084195690
0.0086699016
0.0153354728
0.0290105324
-0.0113298717
0.0125321031
0.0291264190
0.0164361747
0.0326655340
-0.0256768193
-0.0016431517
0.0421816839
0.0178599874
0.0385463453
-0.0319503838
-0.0129925502
0.0022263401
0.0108903374
0.0183088382
-0.0011126678
0.0108903843
-0.0297956491
0.0020832282
-0.0056070480
0.0230339216
0.0385227817
-0.0208131312
-0.0033727225
-0.0082586339
0.0237221890
0.0081319956
0.0057057544
-0.0047749216
-0.0043119897
0.0071719797
-0.0188783596
-0.0004167609
-0.0035800779
-0.0031553774
0.0141246945
-0.0195910155
-0.0051476261
0.0026554223
0.0102058827
0.0180341521
-0.0125783545
-0.0107476587
0.0000730375
0.0028432205
0.0199171704
-0.0127477095
-0.0052529848
-0.0017009131
0.0038744814
0.0117366638
-0.0192966853
0.0034159763
-0.0053182038
-0.0055665367
-0.0059525893
-0.0114206341
-0.0052670730
-0.0110285966
-0.0190732568
-0.0051167398
0.0010362709
0.0001154451
-0.0142211908
-0.0279179982
-0.0165218301
0.0087516799
-0.0002043023
-0.0154433350
-0.0347672677
-0.0198311756
0.0155519746
0.0011572036
-0.0109738284
-0.0222633925
-0.0178777837
0.0078396577
-0.0111052541
-0.0091487311
-0.0198281664
-0.0047979368
0.0097108783
-0.0180439224
-0.0065604363
-0.0176311891
0.0057583907
0.0165792278
-0.0132611832
-0.0052009759
-0.0119205165
0.0100237892
0.0075607229
0.0037408596
-0.0027648237
-0.0058323595
-0.0024023261
-0.0016365168
0.0172329930
0.0060808415
0.0127210523
-0.0081464967
-0.0139983983
0.0181643456
0.0114918973
0.0235261793
-0.0073583315
-0.0094148461
0.0246352321
0.0161793847
0.0330089636
-0.0089740247
-0.0131273339
0.0132420047
0.0226246871
0.0446166574
0.0045004621
-0.0032983345
0.0076246332
0.0164354611
0.0309225320
0.0038555881
0.0002623572
-0.0058219444
0.0091118547
0.0160815799
0.0115733058
0.0063369263
-0.0168999488
-0.0018845433
-0.0096270602
0.0128899417
0.0156701493
-0.0206403512
-0.0132481592
-0.0291491724
0.0125784085
0.0074215536
-0.0151915588
-0.0179375854
-0.0367754563
0.0088891013
-0.0027790266
-0.0198965521
-0.0166320893
-0.0328745641
0.0159775029
-0.0045006258
-0.0222757412
-0.0154425989
-0.0270206949
0.0159489466
-0.0010499657
-0.0093942474
-0.0141598127
-0.0216466343
0.0065019314
-0.0103670965
0.0069789324
-0.0067618462
-0.0039806744
-0.0035549393
-0.0202092878
0.0121362776
-0.0012905892
0.0066175652
-0.0070613586
-0.0189321058
0.0048502760
0.0087599712
0.0220388783
-0.0005886161
-0.0030544610
0.0062002352
0.0125992738
0.0263458212
-0.0010298924
0.0015285172
-0.0065266877
0.0098505924
0.0191077503
0.0093055626
0.0085858211
-0.0124363004
0.0101980998
0.0142754120
0.0090992538
0.0213567672
-0.0210545986
0.0085314799
0.0061802335
0.0107822452
0.0347491404
-0.0124098063
0.0101653521
0.0040019324
0.0000842631
0.0398990933
0.0140886901
0.0063251078
0.0017233353
-0.0179021694
0.0169871165
0.0209346476
-0.0008644718
-0.0119724377
-0.0252611711
0.0127568057
0.0160527389
-0.0019473056
-0.0187932872
-0.0267612916
0.0269462425
0.0128990086
-0.0008026528
-0.0131751904
-0.0242811423
0.0252034606
0.0109707266
-0.0011462899
-0.0078486353
-0.0169808830
0.0120089314
-0.0078188883
-0.0004460232
-0.0019491901
0.0075048639
0.0077934412
-0.0172358008
-0.0006642163
0.0014725868
0.0219128989
0.0000585021
-0.0257161820
-0.0126373816
-0.0194553264
0.0281110666
-0.0092220615
-0.0175100388
-0.0146148069
-0.0212129457
0.0213819453
-0.0159807149
-0.0038431180
-0.0144141118
-0.0180652180
0.0113725009
-0.0272475225
0.0007930823
-0.0067463125
-0.0020007163
0.0106718135
-0.0262583445
-0.0005350053
0.0065899429
0.0201907109
0.0127661514
-0.0100624210
0.0144602376
0.0129596979
0.0319036618
-0.0032827713
-0.0088348845
0.0175930383
0.0257019047
0.0564200963
-0.0028168276
-0.0064712725
0.0118052883
0.0215195119
0.0393550811
-0.0071393556
0.0112206081
0.0140516745
0.0170204534
0.0244000935
-0.0192524488
0.0235639610
0.0160307571
0.0113371447
0.0115067318
-0.0213535962
0.0183595233
0.0203678158
0.0005635199
-0.0065953236
-0.0272455211
0.0039272474
0.0093471737
0.0021392940
0.0012498590
-0.0104151551
-0.0035043991
0.0069521079
-0.0032929519
-0.0047276867
-0.0040910578
-0.0186547641
-0.0036483718
-0.0048958387
-0.0091065005
0.0057500956
-0.0153296573
-0.0139074123
-0.0095210939
-0.0186358691
0.0097308723
0.0000419189
-0.0032930785
-0.0115185749
-0.0207763067
-0.0001715584
0.0003703116
0.0226619803
-0.0111905883
-0.0143286111
-0.0207342780
-0.0178433568
0.0013953034
-0.0078298222
-0.0111335329
-0.0022518639
0.0015482720
-0.0003467939
0.0024522983
0.0100999897
0.0022997907
0.0073825339
0.0014630162
0.0048505502
0.0170146193
0.0036843087
-0.0027711607
0.0047695881
0.0057905959
0.0173679522
0.0037934352
-0.0161107092
0.0080340071
0.0014175950
0.0094031440
-0.0023593805
-0.0206568342
0.0209914797
-0.0011450910
0.0038377129
-0.0145089519
-0.0310515524
0.0145284076
-0.0018396290
-0.0018660176
-0.0122519947
-0.0201358576
-0.0095880918
-0.0003790423
-0.0063594525
0.0068849675
0.0009909111
0.0183640858
0.0060792125
0.0107944481
-0.0129774631
-0.0133521687
0.0111685801
0.0118909931
0.0238507842
-0.0047942675
-0.0050623586
-0.0036604929
0.0081801025
0.0137738087
0.0052248887
0.0085605316
-0.0236259176
0.0050092100
0.0031497841
0.0198852041
0.0303811231
-0.0014498252
0.0034714275
0.0087138615
0.0067148547
0.0064181978
0.0013088404
0.0024286172
0.0070213847
0.0019408083
0.0088868491
-0.0054335008
-0.0024299181
-0.0033414245
0.0077994966
0.0034990109
-0.0023390846
-0.0105100269
-0.0194717952
-0.0025181360
-0.0021679109
0.0034516640
-0.0106990788
-0.0184349070
-0.0138406196
-0.0060357404
0.0055296474
-0.0163858594
-0.0252308792
-0.0115088890
-0.0206495131
-0.0072889495
-0.0173232885
-0.0336848982
-0.0027541554
-0.0117896058
-0.0191867770
-0.0117466738
-0.0247291059
0.0077294840
0.0021801524
-0.0216268039
-0.0020405055
-0.0105242167
0.0095123447
0.0156845754
-0.0256842810
0.0074566519
0.0093340964
0.0198017398
0.0124892567
-0.0395079732
0.0125700129
0.0164524650
0.0369771580
0.0243466675
-0.0194721620
0.0167451337
0.0254814883
0.0226739164
0.0199770422
-0.0105522318
0.0134821636
0.0224485268
0.0164819843
0.0123004344
0.0109820244
0.0079731978
0.0121465608
-0.0035416001
0.0058864200
0.0109226827
-0.0021124950
-0.0052181947
-0.0075658405
0.0032021323
0.0139045243
-0.0173283751
-0.0303410816
-0.0084219125
-0.0167577189
0.0268904636
-0.0218264529
-0.0324547778
-0.0169323197
-0.0368247571
0.0149824208
-0.0202776674
-0.0306361997
-0.0100877819
-0.0253207115
0.0074084804
-0.0104557290
-0.0130109997
-0.0038177336
-0.0132469041
-0.0016077271
-0.0009488720
0.0028654431
0.0037766817
-0.0026221268
-0.0199663199
0.0033732716
0.0051105061
0.0158556183
0.0208617338
-0.0178950445
0.0071035742
0.0104456778
0.0088004964
0.0254429465
-0.0169255167
0.0100969908
0.0125642892
0.0045589498
0.0315689837
-0.0144724196
0.0100308106
0.0079465791
-0.0006957762
0.0365823834
0.0000924423
0.0115206578
0.0109539269
-0.0103772553
0.0240018686
0.0040311248
0.0149803503
0.0182830195
-0.0120598377
0.0237713318
0.0138027505
0.0118244456
0.0140120439
-0.0186429945
0.0107040314
0.0097934441
0.0022437920
-0.0016333823
-0.0151041215
-0.0006692066
0.0095336188
-0.0007936446
-0.0073445532
-0.0094513246
-0.0145457442
-0.0001105511
-0.0081073070
-0.0150819026
0.0027317353
-0.0138941683
-0.0132297397
-0.0103809274
-0.0212823028
0.0149427309
-0.0030067226
-0.0095667102
-0.0050643047
-0.0080762693
0.0164741858
-0.0044863983
-0.0054301800
-0.0005642680
0.0026148280
0.0156593829
-0.0034509156
-0.0005245004
0.0014666157
0.0107269193
0.0176053499
-0.0083047686
0.0042001189
-0.0017538560
0.0051317576
0.0133821871
-0.0119047487
0.0011443896
-0.0038718553
-0.0010726642
0.0145559233
-0.0081744387
0.0168712252
-0.0010842137
0.0059916704
-0.0007572298
-0.0157983524
0.0277736863
0.0016380343
0.0124812396
-0.0113565152
-0.0235188535
0.0198064055
0.0034119224
0.0126416319
-0.0067988545
-0.0168877451
0.0024888956
0.0088157337
0.0220258324
0.0062692922
-0.0077807888
-0.0015866994
0.0075031848
0.0193552658
0.0069439132
-0.0090850602
0.0024929100
0.0042986787
0.0103568509
-0.0049039368
-0.0064114632
-0.0197261160
-0.0078791823
-0.0223101039
0.0028445060
0.0165840200
-0.0163500323
-0.0113632569
-0.0327563736
-0.0051975295
0.0214000217
0.0009573867
-0.0089870224
-0.0233137149
-0.0167949382
0.0050970500
0.0182521364
-0.0074730885
-0.0156828803
-0.0271161626
-0.0110949845
0.0141438519
-0.0021237530
-0.0040337856
-0.0201332462
-0.0034912541
0.0122912911
-0.0007953584
-0.0018202741
-0.0154783755
0.0004063742
0.0085891045
0.0074614283
0.0121969633
-0.0080519413
0.0111447452
0.0250722706
0.0123744541
0.0274446611
-0.0153262253
-0.0040816654
0.0123171206
0.0147466731
0.0285895088
-0.0032396866
0.0065511062
-0.0004873454
0.0112712726
0.0225588238
0.0090857549
0.0070430792
-0.0152052668
0.0009310987
0.0018924853
0.0191849276
0.0068703080
-0.0285600239
-0.0088179339
-0.0178743128
0.0277666416
0.0049392423
-0.0047914124
-0.0126462578
-0.0208901318
0.0068781136
-0.0155487110
-0.0034671641
-0.0112295895
-0.0205170910
0.0057313532
-0.0114292033
0.0120742543
-0.0009345042
0.0032846301
0.0012886568
-0.0323343590
0.0054227871
0.0061749904
0.0161437862
0.0065217924
-0.0217605971
0.0287277322
0.0140965376
0.0372075319
-0.0112124096
-0.0361751920
0.0181829693
0.0131586247
0.0340128802
-0.0058261668
-0.0252631953
-0.0009573145
0.0097407120
0.0216209585
0.0035136736
-0.0028379305
-0.0032705303
0.0082110218
0.0139990920
-0.0021412902
0.0139123806
0.0220603052
0.0084880511
0.0175722928
-0.0273485039
0.0007413485
0.0165828769
0.0037863696
0.0058788291
-0.0282829821
0.0099456597
-0.0238332437
-0.0084351834
-0.0290172113
-0.0033816266
0.0458913797
-0.0259209028
-0.0137768668
-0.0364727506
0.0043839259
0.0321802442
-0.0197202799
-0.0198055793
-0.0395458628
0.0057931835
0.0098220772
-0.0215959036
-0.0237702069
-0.0483639553
0.0050706758
0.0064006952
-0.0523368681
-0.0260563993
-0.0629351319
0.0231011085
0.0368966058
-0.0312718336
-0.0145345923
-0.0321622150
0.0185238165
0.0150632485
-0.0128329312
-0.0042906191
-0.0069904772
0.0169001852
-0.0046864563
-0.0062619326
0.0057551147
0.0145161465
0.0192827517
-0.0064460394
0.0114589273
0.0163027941
0.0354671647
0.0058963474
-0.0086104992
0.0190034563
0.0216265901
0.0441014792
-0.0034580905
-0.0040659327
0.0160281699
0.0221900019
0.0435914745
-0.0028502032
-0.0006937562
0.0362841599
0.0183575569
0.0406719086
-0.0185790120
-0.0185536144
0.0385547280
0.0128822453
0.0300502482
-0.0200834632
-0.0240640921
0.0148117012
0.0051190494
0.0082306584
-0.0106191166
-0.0025339620
0.0023917542
-0.0035199709
-0.0105202499
-0.0076954542
0.0059921611
-0.0124932827
-0.0066600921
-0.0129726566
0.0055714696
0.0002477243
-0.0260277580
-0.0169569075
-0.0371896678
0.0108296110
0.0088649545
-0.0272003501
-0.0223319147
-0.0463860604
0.0113923515
0.0040246847
-0.0084422175
-0.0179216980
-0.0361624179
-0.0039985067
-0.0016754690
-0.0236768085
-0.0132259090
-0.0330997605
0.0083883107
0.0220896020
-0.0241258954
0.0011399884
-0.0038208082
0.0155941244
0.0224205081
-0.0127914707
0.0032485038
0.0017936889
0.0045303507
0.0209353247
-0.0035237735
0.0177125326
0.0316706767
0.0056052858
0.0167397883
0.0101706017
0.0170771491
0.0302615347
-0.0064093773
0.0147459365
0.0142971405
0.0156756538
0.0276948600
-0.0073516135
0.0064427753
0.0128273817
0.0116005893
0.0199944609
-0.0035769829
-0.0024480128
0.0015251560
-0.0001033318
-0.0006047578
0.0050985472
-0.0062370311
-0.0005838975
-0.0050903055
-0.0064449527
0.0115553831
-0.0188795186
-0.0049554772
-0.0112560102
-0.0152332122
0.0176807590
-0.0254048887
0.0004471296
-0.0089795519
-0.0097097129
0.0142185744
-0.0280680384
0.0079157399
-0.0066732383
-0.0067791349
0.0042829929
-0.0208436667
0.0149949986
-0.0071982339
-0.0102530922
-0.0068989173
-0.0146160142
0.0134821021
-0.0043948126
-0.0098588902
-0.0111785063
-0.0005834071
0.0083608173
-0.0012001787
-0.0060317262
-0.0076647751
0.0065550835
-0.0034687934
0.0038852977
0.0011433966
0.0017505013
0.0218508445
0.0087045267
0.0103164926
0.0167745106
-0.0050290870
0.0101321594
0.0224509648
0.0093306525
0.0207920952
-0.0174069561
-0.0073858645
-0.0027822500
0.0081078790
0.0167229852
0.0022737043
0.0046345094
-0.0060170255
-0.0023338703
-0.0038476005
-0.0010182948
0.0013589049
-0.0076408677
-0.0057082389
-0.0119225642
-0.0036757650
0.0082435087
0.0073411930
-0.0112532517
-0.0166977812
-0.0120413607
-0.0154565504
0.0131357806
-0.0105722848
-0.0170510492
-0.0185328073
-0.0128566780
0.0022998641
-0.0054081655
-0.0138228132
-0.0090839690
0.0002105618
0.0224108883
0.0042840978
0.0117611024
-0.0198928190
-0.0150743444
0.0112462903
0.0112187730
0.0215292583
-0.0089044188
-0.0004818338
0.0006304758
0.0115154977
0.0213805139
0.0051101842
0.0032692578
-0.0071880751
0.0181860940
0.0308701937
0.0133844155
0.0142181876
0.0008117751
0.0127968644
0.0258953478
0.0075993584
0.0014490169
0.0190040515
0.0101302463
0.0255907364
-0.0035009446
-0.0215840968
-0.0066811167
-0.0017274344
-0.0016591251
0.0137624617
-0.0094744814
-0.0134075852
-0.0099949226
-0.0162553636
0.0176425555
-0.0120433539
-0.0083698107
-0.0142363818
-0.0183953852
0.0130302781
-0.0208530184
0.0033339544
-0.0160993961
-0.0222647201
0.0023007989
-0.0283816277
-0.0018358941
-0.0104819753
-0.0142895211
0.0050308106
-0.0213280440
0.0020300589
-0.0042742126
-0.0063214638
-0.0047754238
-0.0053547387
-0.0016626071
0.0038063722
0.0012185440
-0.0053427946
0.0164283235
-0.0001907362
0.0074461515
0.0088566044
-0.0053610056
0.0195403830
0.0022513308
0.0095380681
0.0096975837
-0.0113840342
0.0265154775
-0.0215204557
0.0073332934
0.0015655052
0.0035973271
0.0454712804
-0.0299169210
0.0071923766
0.0005685390
0.0088125577
0.0499439909
-0.0196088017
0.0058418822
0.0025094379
0.0037175353
0.0374768900
0.0007218937
0.0030046396
0.0051265093
-0.0062403081
0.0084212500
0.0140549357
-0.0004557194
-0.0008470593
-0.0148672681
-0.0045793017
0.0172914133
-0.0053221216
-0.0091905010
-0.0192125935
-0.0039141517
0.0044499499
-0.0052900621
-0.0124379087
-0.0074435473
0.0027222268
0.0065784848
-0.0044646919
-0.0078882354
-0.0011393919
-0.0157076684
-0.0063801306
-0.0037175267
0.0025513042
0.0223063806
-0.0260603969
-0.0089033975
-0.0046685551
0.0012544635
0.0257430661
-0.0277570538
-0.0141632645
-0.0069341594
-0.0076553215
0.0232278298
-0.0145700370
-0.0018970771
-0.0078449316
-0.0094867968
0.0033655222
-0.0143768976
0.0113808905
-0.0040520022
0.0035794745
-0.0039080151
-0.0312588797
0.0065061589
-0.0032967337
0.0057448881
0.0010909708
-0.0289812506
0.0129139187
-0.0013508893
0.0062633091
-0.0089811373
-0.0240866408
-0.0010951967
-0.0003952952
-0.0030410442
-0.0076695486
0.0072501650
0.0151140923
0.0010057397
-0.0065809704
-0.0288808438
0.0190193236
0.0138769775
-0.0004505116
-0.0163687576
-0.0334811518
0.0299634528
-0.0140287972
0.0056239210
-0.0120023374
-0.0082519842
0.0561869341
-0.0284940140
0.0178274791
0.0187860365
0.0183304075
0.0526182090
-0.0296185648
0.0220615957
0.0319315517
0.0283764185
0.0431591669
-0.0301485769
0.0211193944
0.0338669432
0.0316756282
0.0321432904
-0.0004451018
0.0074213703
0.0162394330
0.0080186522
-0.0038446521
0.0174105187
-0.0041648546
0.0003365640
-0.0067876349
-0.0307975721
0.0167973027
-0.0166141276
-0.0229541607
-0.0100772684
-0.0351184009
0.0251547997
-0.0137007388
-0.0171197406
-0.0158040258
-0.0364065550
0.0272557872
-0.0092148303
-0.0068601105
-0.0152492806
-0.0371115654
0.0125379686
-0.0046486582
-0.0044112980
-0.0012371820
-0.0190637569
0.0019157091
-0.0003625166
-0.0004563005
0.0073492143
-0.0107593055
-0.0025948870
-0.0034656591
-0.0071922526
0.0100545428
-0.0092522226
-0.0199621656
-0.0046473998
-0.0131750633
0.0202345222
0.0083519177
-0.0108709657
-0.0034902395
-0.0101447582
0.0121986217
0.0043947503
-0.0137098732
-0.0016949493
-0.0063740223
0.0107186432
0.0122983257
-0.0179795806
-0.0007700434
-0.0073849351
0.0096156625
0.0289385492
0.0054929248
-0.0008528316
-0.0019717877
-0.0070554184
0.0021165371
0.0169254872
-0.0052590629
-0.0067609167
-0.0167912165
-0.0094441892
0.0102902609
-0.0068094081
-0.0115139445
-0.0113644072
-0.0037710395
0.0025570015
-0.0117915981
-0.0243477022
-0.0090389353
0.0095898379
-0.0055547797
-0.0025517922
-0.0105836718
-0.0017073399
0.0224063993
0.0021926781
0.0084560761
0.0141069763
-0.0014568531
0.0141917015
0.0197760538
0.0201378976
0.0417874688
-0.0079216855
-0.0017716177
0.0092915399
0.0238245203
0.0515663158
0.0055704029
-0.0052223991
0.0079114931
0.0185964704
0.0383757862
0.0045026009
-0.0103144396
0.0029526928
0.0129545412
0.0268230142
0.0057052872
-0.0095903486
-0.0005919989
-0.0005932290
0.0003035992
0.0054122210
-0.0140230100
0.0159554666
-0.0104767108
-0.0159304838
-0.0109362935
-0.0318646956
-0.0117653989
-0.0143721080
-0.0313442028
0.0030727462
-0.0031762858
-0.0265489364
-0.0136378003
-0.0335324172
0.0119255292
0.0123842845
-0.0220110326
-0.0073152871
-0.0189625292
0.0110070557
0.0126072560
-0.0097236401
-0.0100359841
-0.0204703704
0.0033456247
0.0042746590
0.0094090628
-0.0052219949
-0.0071153007
-0.0076291016
-0.0072069560
0.0299188053
0.0043651945
0.0121717384
-0.0202370295
-0.0177104921
0.0340881492
0.0072642540
0.0215742918
-0.0229418022
-0.0164940756
0.0385505712
0.0121791517
0.0372213943
-0.0221563194
-0.0220320461
0.0141043716
0.0097855223
0.0311207245
-0.0010205241
-0.0130324388
-0.0101983354
0.0021223378
0.0071056367
0.0109380457
0.0098573583
-0.0152009895
-0.0053088620
-0.0115921418
0.0093492370
0.0119550023
-0.0210570120
-0.0010009862
-0.0083975472
0.0099399304
0.0227605252
-0.0318530614
0.0002650217
-0.0108655065
0.0158339835
0.0302392013
-0.0435370111
0.0010974101
-0.0107106505
0.0271507490
0.0336886677
-0.0245991713
0.0047575756
0.0006540388
0.0153027155
0.0189340326
-0.0110878406
0.0059062845
0.0033524736
0.0016327819
0.0162072953
0.0135109612
0.0056808823
0.0056624754
-0.0217301603
0.0071586620
0.0155457844
0.0013644990
0.0002582239
-0.0219744836
0.0002783672
0.0176016983
-0.0028361532
-0.0058818565
-0.0205434555
-0.0063744185
0.0086389494
-0.0041976163
-0.0051330854
-0.0059626095
-0.0104653009
0.0112634244
-0.0072638222
-0.0067494607
-0.0036506543
-0.0217683419
-0.0004263175
-0.0079997429
-0.0100577134
0.0050678728
-0.0135188277
0.0020434630
-0.0063683761
-0.0035845341
0.0052597104
-0.0195742220
-0.0096766884
-0.0031593503
0.0002546373
0.0191131099
-0.0116303717
-0.0206199697
0.0002662985
0.0049250456
0.0308004981
-0.0004467686
0.0057087578
0.0002441492
0.0044715529
0.0046499377
-0.0108547260
0.0117709715
0.0052307872
0.0111853809
-0.0057084965
-0.0009101930
0.0236984430
0.0026765939
0.0050537021
-0.0217616273
-0.0018882118
0.0164776626
0.0022135242
0.0021673443
-0.0139037395
0.0009305071
0.0135160000
0.0000050391
-0.0025504831
-0.0146325418
-0.0002846219
0.0042603774
-0.0007462296
-0.0094705319
-0.0117016551
0.0137260656
0.0056312003
0.0011974136
-0.0038861413
-0.0145367024
0.0083505533
-0.0130866712
0.0018707152
-0.0044898212
-0.0014572407
0.0203521093
-0.0325005580
0.0075754598
0.0076711900
0.0196555818
0.0274283068
-0.0409950042
0.0097112806
0.0140954920
0.0282317452
0.0314920625
-0.0233367258
0.0104716456
0.0177736528
0.0137967046
0.0231031122
-0.0049783723
0.0032082255
0.0051838200
-0.0052293341
0.0120396797
-0.0023483485
-0.0035237891
-0.0087129978
-0.0058678141
0.0099052666
-0.0022704047
-0.0119001675
-0.0237168364
-0.0005487607
0.0010644838
0.0078521031
-0.0084404825
-0.0134664657
0.0001912653
-0.0101645743
0.0282389282
-0.0089678029
-0.0058730463
-0.0075395105
-0.0431826254
0.0074441983
-0.0085434189
-0.0095365631
0.0096160243
-0.0256849751
-0.0081125964
-0.0084045614
-0.0117632049
0.0225317654
-0.0109035264
-0.0244910684
-0.0067660611
-0.0120793789
0.0346703350
0.0030415874
-0.0031956945
0.0004002096
0.0060812922
0.0209253216
-0.0175940069
0.0071869193
0.0002537023
0.0066973528
0.0091397210
-0.0260582134
0.0044286166
0.0072887360
0.0169572498
0.0063469633
-0.0086949453
0.0048696718
0.0042838319
0.0061795305
-0.0048339458
0.0055899025
0.0076404388
0.0081343705
0.0105921917
-0.0128708841
0.0156037236
0.0351847286
0.0063837453
0.0084707010
-0.0374045308
-0.0091753794
0.0268565925
-0.0001301368
-0.0034834938
-0.0323670505
-0.0049107327
0.0148155024
-0.0054743678
-0.0151882320
-0.0223396401
-0.0030036906
0.0097444758
-0.0052821731
-0.0161344299
-0.0184095432
0.0015087744
0.0157287117
-0.0005498146
-0.0035351552
-0.0200218690
-0.0027273904
-0.0016752411
-0.0049376633
-0.0169781136
-0.0071154027
0.0096927401
-0.0185185000
0.0026115742
-0.0002912568
0.0153983610
0.0178835816
-0.0129813076
0.0084226704
0.0205318052
0.0189562444
0.0031322302
-0.0063770065
0.0118376885
0.0290818243
0.0153189798
0.0019597976
-0.0106339019
0.0055541598
0.0171060291
0.0142052426
0.0020787505
-0.0175917030
-0.0053594181
-0.0108276814
0.0123424411
0.0112182275
-0.0101688601
-0.0114021061
-0.0206741421
0.0087248699
-0.0004869767
0.0125200629
-0.0083735449
-0.0102409826
-0.0058580977
-0.0184072004
0.0045761657
-0.0047655766
-0.0068231069
-0.0018008270
-0.0047734019
-0.0141948853
-0.0038732493
-0.0096140163
0.0117114700
0.0092595393
0.0047892359
-0.0024629825
-0.0084382113
-0.0091055235
0.0049811612
0.0053234888
0.0020762298
0.0032266263
-0.0038909104
0.0005585667
0.0162837533
0.0049098605
0.0116774967
-0.0095429885
-0.0136669608
0.0165467657
0.0057965402
0.0172501988
-0.0052527921
-0.0240087256
-0.0049850109
0.0093873452
0.0246583376
0.0154730851
-0.0147440103
-0.0117899742
0.0080081367
0.0178714328
0.0143722132
-0.0012721007
-0.0128196252
0.0047689130
0.0144434168
0.0142239451
-0.0035279226
-0.0054332830
-0.0028201417
-0.0014557691
0.0020246762
-0.0038368310
-0.0141876498
-0.0044881221
-0.0084354033
0.0057490410
0.0067248614
-0.0209427745
-0.0057819118
-0.0181570603
0.0062135558
0.0217171834
-0.0198761373
-0.0050903810
-0.0181310046
0.0020160360
0.0276775374
0.0001841683
0.0001054570
-0.0042251083
-0.0090790083
0.0108476768
0.0168253276
0.0018905287
0.0008581517
-0.0202092365
0.0051884956
0.0225320490
0.0089541829
0.0135471590
-0.0213480030
0.0062064289
0.0432681764
0.0115363424
0.0225238154
-0.0393002201
-0.0084861356
0.0234933483
0.0126728048
0.0210771835
-0.0232863377
0.0045534732
0.0098838141
0.0080452183
0.0124108419
-0.0097095314
0.0041129708
-0.0027878953
-0.0026293824
-0.0057045932
0.0041058569
-0.0023372898
-0.0041491594
-0.0127698564
-0.0219865082
0.0079720787
-0.0137950912
-0.0139024810
-0.0156142453
-0.0310676622
0.0116711570
-0.0055849029
-0.0261123908
-0.0162701656
-0.0355370215
0.0207845106
0.0069511469
-0.0099684483
-0.0096270748
-0.0180052505
0.0096264057
-0.0027011222
0.0034072197
-0.0010373428
-0.0005811253
0.0026382201
-0.0067887227
0.0126952470
0.0118840875
0.0294549525
0.0012837950
-0.0141897885
0.0051621341
0.0144753853
0.0313536478
0.0064639773
-0.0055863051
-0.0038758622
0.0119532290
0.0252702954
0.0092543086
0.0026655036
-0.0322536291
0.0122202101
0.0171790029
0.0271692082
0.0345100947
-0.0204883904
0.0023409869
-0.0023532713
0.0099058931
0.0287048984
-0.0076313968
-0.0006321233
-0.0085449049
-0.0029061176
0.0181330718
0.0062189456
-0.0036723576
-0.0127551815
-0.0165815827
0.0090623225
0.0145611129
-0.0046092739
-0.0124162521
-0.0221972107
-0.0004320142
0.0076202205
-0.0072805988
-0.0149536891
-0.0144478671
-0.0032561467
0.0308149280
-0.0066889486
-0.0003894245
-0.0211418122
-0.0423197274
0.0175521337
-0.0026924353
0.0046201437
-0.0075642498
-0.0294335528
-0.0103511953
0.0014577520
0.0037705853
0.0117954735
0.0004381163
-0.0277203060
0.0036980167
0.0064227147
0.0240623461
0.0204372991
-0.0117467007
0.0099847854
0.0214758144
0.0161017224
0.0068784968
-0.0137804310
0.0060220377
0.0135824550
0.0199546781
0.0037195482
-0.0348941765
0.0023369118
-0.0021367706
0.0338828020
0.0280842038
-0.0244931078
-0.0036314583
-0.0133723433
0.0252133316
0.0163343622
-0.0188043243
-0.0065474077
-0.0187536604
0.0196394995
0.0088985470
-0.0112902326
-0.0125024709
-0.0288536495
0.0127349407
-0.0020509107
0.0220589784
-0.0150647740
-0.0255902279
-0.0121872516
-0.0338768054
0.0365124066
-0.0109131886
-0.0173313694
-0.0247800986
-0.0346850528
0.0393176942
-0.0077815465
-0.0128664908
-0.0337014617
-0.0207156063
0.0349296718
0.0008798548
0.0011680408
-0.0323076423
-0.0076299929
0.0199686598
0.0034918803
0.0032224313
-0.0249422062
0.0071720327
0.0118975888
0.0097218049
0.0159697632
-0.0203819288
0.0163584640
0.0119214290
0.0088654597
0.0164703455
-0.0208519013
0.0142875200
-0.0020065311
0.0029001153
0.0053561926
-0.0058726493
0.0135244538
-0.0286659205
-0.0065788210
-0.0202053227
0.0137533490
0.0309361826
-0.0133647021
-0.0078056560
-0.0160141245
0.0054320376
0.0059349110
-0.0075141203
-0.0081152759
-0.0141354056
0.0045743000
-0.0077576803
0.0017042348
-0.0041270000
-0.0018175381
0.0050502092
-0.0224560695
-0.0116381383
0.0000484459
0.0063172786
0.0260166908
-0.0221514245
-0.0072531080
0.0066705903
0.0166619274
0.0211188299
-0.0102558776
0.0027560622
0.0136221206
0.0298143712
0.0136816314
-0.0073784047
0.0031965024
0.0144748558
0.0299362188
0.0095825518
-0.0011002740
0.0096244768
0.0187634459
0.0405422714
0.0047515819
-0.0066953880
-0.0034980897
0.0196664624
0.0419803457
0.0166235714
0.0033633792
0.0030697405
0.0176594169
0.0337445731
0.0073718123
0.0026390979
0.0115454866
0.0003884916
0.0052514454
-0.0070660677
-0.0082297036
0.0207748015
-0.0075007809
-0.0090366778
-0.0173266089
-0.0212963315
0.0079794219
-0.0172676750
-0.0308369564
-0.0140583180
-0.0136391390
-0.0078889184
-0.0148577531
-0.0296957692
-0.0016858094
0.0001922645
-0.0102077026
-0.0101636536
-0.0210068672
-0.0022862290
0.0056475572
-0.0132267951
-0.0036970850
-0.0142671695
-0.0036839464
0.0231401543
-0.0047889082
0.0027362796
-0.0065326907
-0.0143262967
0.0327033418
0.0238275903
0.0031982407
-0.0020081705
-0.0364645802
0.0122365060
0.0375540601
0.0066358802
0.0115323042
-0.0398325907
-0.0113792982
0.0214349586
0.0023989835
0.0057254630
-0.0214382612
-0.0178973665
-0.0001608954
0.0018582384
0.0125880928
0.0057710222
-0.0235697521
0.0015921081
-0.0019648081
0.0089240731
0.0065928805
-0.0307283471
-0.0221427569
-0.0029865450
-0.0001897151
0.0252103838
-0.0043552807
-0.0296691184
-0.0045791804
-0.0112933686
0.0310722318
0.0147397311
-0.0231370507
-0.0067075140
-0.0165172674
0.0226735367
0.0185037816
-0.0305262058
-0.0036037061
-0.0106614087
0.0297370738
0.0204258050
-0.0379700354
-0.0040767499
-0.0174272349
0.0286630690
0.0356081629
-0.0183917783
-0.0021112300
-0.0120600795
0.0086649637
0.0257139102
0.0045169107
0.0030812830
0.0008477697
-0.0107059782
0.0146854814
0.0250765378
0.0100863886
0.0147177589
-0.0281314042
0.0102144782
0.0315807007
0.0162990399
0.0310013745
-0.0279473663
-0.0003031894
0.0283158860
0.0154769401
0.0309346719
-0.0236797576
-0.0072507310
0.0252196947
0.0088010843
0.0179879351
-0.0253815935
-0.0105430222
0.0031457265
0.0047832837
0.0112070242
-0.0055681913
-0.0009054291
0.0065517072
-0.0038522761
-0.0022128957
-0.0063094739
-0.0164747674
-0.0174132064
-0.0120669712
-0.0228597972
0.0151720532
-0.0024652349
-0.0229512943
-0.0137678430
-0.0271182866
0.0219571732
0.0010386929
-0.0073889755
-0.0149984240
-0.0275883372
0.0082349517
-0.0122165350
-0.0030048936
-0.0133452068
-0.0244800835
0.0047268674
-0.0108767885
-0.0099872827
-0.0110498917
-0.0203460677
0.0133493405
-0.0034689906
-0.0137732291
-0.0057260124
-0.0102881169
0.0202277164
0.0032444987
-0.0067921208
-0.0012562187
-0.0031116419
0.0130025211
0.0054487160
0.0091253869
0.0009798900
0.0033013459
-0.0000591515
-0.0076513496
0.0164823659
0.0008705925
0.0048658763
-0.0116723933
-0.0125610543
-0.0007436663
0.0019938819
0.0036038860
0.0004910593
-0.0000027453
-0.0250765073
0.0055826605
0.0019650546
0.0151902740
0.0279798638
-0.0283043558
0.0084439172
0.0055133121
0.0125736613
0.0403229956
-0.0109801778
0.0116028394
0.0108462160
-0.0024439904
0.0331603878
0.0032640483
0.0137009564
0.0214571591
-0.0073352376
0.0149322649
0.0079281113
0.0118554480
0.0217423277
-0.0065619200
0.0004451710
0.0116596496
0.0031034004
0.0059674451
-0.0115330309
-0.0078606902
0.0053383443
-0.0031359610
-0.0065137174
-0.0060895517
-0.0055085908
0.0025914876
-0.0154143740
-0.0318879776
-0.0066283644
-0.0027007961
0.0059613169
-0.0163761599
-0.0252478517
-0.0005669385
-0.0202903808
-0.0029383959
-0.0112971450
-0.0143553841
0.0111578931
-0.0191236596
0.0111701095
-0.0085675911
-0.0083171156
-0.0011388733
-0.0226581928
0.0029202922
-0.0035259446
-0.0013043771
0.0057279568
-0.0094380247
0.0161477814
-0.0008315632
0.0042751814
-0.0035712581
-0.0157719661
0.0210711396
0.0048937180
0.0173697087
-0.0014012385
-0.0216879545
0.0138863756
0.0106188056
0.0265518621
0.0036994077
-0.0192625122
0.0024345505
0.0170309008
0.0339004531
0.0086794622
-0.0018120070
-0.0244421596
0.0165282634
0.0295000081
0.0289001136
0.0176736240
-0.0165705253
0.0153027980
0.0295073856
0.0236999430
0.0071680779
-0.0018432665
0.0005598010
-0.0042253028
-0.0027150051
0.0102971026
0.0067109282
-0.0061858404
-0.0201242282
-0.0190260276
0.0126037847
0.0055451029
-0.0149017226
-0.0365377977
-0.0253739493
0.0130512225
0.0123561602
-0.0213668853
-0.0476165830
-0.0319101640
0.0054995597
0.0033140935
-0.0170060069
-0.0350872064
-0.0159652151
-0.0037903230
0.0042862961
-0.0130619591
-0.0232691137
-0.0108673132
-0.0147779728
0.0080010612
-0.0013919370
-0.0008739882
-0.0114084322
-0.0108233584
0.0068247264
0.0040227829
0.0057359312
-0.0115596512
0.0039720095
0.0093338297
0.0174608523
0.0383826017
-0.0002169787
-0.0037151890
0.0132264907
0.0226143449
0.0488878182
0.0007703228
-0.0056375099
-0.0076768909
0.0239758255
0.0499453678
0.0205459773
0.0096952660
-0.0126916666
0.0205892509
0.0435620921
0.0241667666
0.0113887069
-0.0167681071
0.0118447511
0.0273554663
0.0271999384
0.0042926923
-0.0152579263
0.0006456891
0.0031476350
0.0197000962
0.0087537028
0.0110565261
-0.0105086385
-0.0184778127
-0.0096329498
-0.0061651776
0.0113151108
-0.0182844396
-0.0301142949
-0.0097362793
-0.0201077624
0.0008730386
-0.0220562165
-0.0397760859
-0.0017938491
-0.0164415310
-0.0102986467
-0.0199249263
-0.0329286203
0.0138627107
-0.0222358748
0.0094513013
-0.0116513125
-0.0172293827
-0.0040560835
-0.0260228825
-0.0056719615
-0.0001542335
-0.0017110854
0.0063422272
-0.0010304495
-0.0097692410
0.0064106936
0.0046216664
0.0037887653
0.0204033422
0.0056915676
0.0137848967
0.0243725701
-0.0072678782
0.0082286797
0.0143818748
0.0131243997
0.0277766156
-0.0134592274
-0.0079074428
0.0027347129
0.0126198971
0.0199903718
-0.0133744252
0.0174239550
-0.0119770849
0.0117543032
0.0168512287
-0.0052876492
0.0298841797
0.0108573342
0.0070688573
0.0083934018
-0.0257462774
0.0170199420
-0.0074031760
0.0013449608
-0.0114429384
-0.0145035085
0.0399708204
-0.0062956136
-0.0054678002
-0.0224290739
-0.0113989480
0.0255308554
-0.0000781979
-0.0084855983
-0.0243580022
-0.0138798176
0.0162902601
-0.0087329732
-0.0160787146
-0.0361786400
-0.0025088926
0.0097619899
0.0036157401
-0.0167283780
-0.0314664071
-0.0037797740
-0.0094605244
0.0127059015
-0.0127094422
-0.0166720748
-0.0019157624
-0.0257923745
0.0319620479
-0.0058966139
0.0016544641
-0.0096960043
-0.0430149258
0.0212023775
0.0068827266
0.0242474767
0.0036292088
-0.0296371147
-0.0086154805
0.0104409157
0.0215625965
0.0248586430
0.0016375507
-0.0177970428
0.0111895391
0.0195355397
0.0305542836
0.0090987009
-0.0219791185
0.0078772680
0.0169589732
0.0358173834
-0.0011998386
-0.0036748133
-0.0015017103
0.0008196815
0.0119241885
-0.0141610695
-0.0054165861
-0.0060143786
-0.0106247242
0.0037996818
-0.0070628886
-0.0244365027
-0.0079879261
-0.0225540356
0.0083051804
0.0212109414
-0.0295470118
-0.0058451793
-0.0159990476
0.0138932562
0.0196143561
-0.0165083594
-0.0030695710
-0.0045316539
0.0109824180
-0.0024148925
-0.0052419826
-0.0028673384
-0.0040847629
-0.0007615626
0.0017970827
-0.0142753383
0.0031845928
-0.0033001032
0.0048359417
0.0205377885
-0.0067609761
0.0045266823
0.0022388896
-0.0011975469
0.0186807701
0.0071911264
0.0054736879
0.0029574648
-0.0145073450
0.0195583161
0.0085618375
0.0066305788
0.0058839057
-0.0119654018
0.0188689990
0.0227001365
0.0057520941
0.0084692897
-0.0189756005
-0.0005998960
0.0306037601
0.0020886100
0.0035910786
-0.0248370356
-0.0103232926
0.0182614264
0.0005669972
0.0007081388
-0.0149199561
-0.0051966370
0.0134879235
0.0009860075
0.0036419047
-0.0095781826
-0.0107093005
-0.0009440694
-0.0003499245
0.0043004864
0.0073591787
-0.0151770202
-0.0112112938
-0.0015370685
0.0015743035
0.0155555941
-0.0093735713
-0.0158099718
-0.0017090961
-0.0000184737
0.0174057728
-0.0052262350
0.0027489390
-0.0002365344
0.0063824068
0.0014245590
-0.0106233395
-0.0119601966
-0.0030040520
-0.0085973095
0.0090652128
0.0120747171
-0.0147529222
-0.0023114031
-0.0078442024
0.0164824044
0.0105378327
-0.0005929556
-0.0013514364
0.0022005157
0.0118398199
-0.0092473692
0.0059755063
-0.0000921835
0.0139151071
0.0132434708
-0.0324557572
0.0181138806
0.0039103982
0.0239345563
0.0048902047
-0.0402029820
0.0003514125
-0.0027297017
0.0018596858
0.0118432277
-0.0201991243
-0.0009561293
-0.0043058613
-0.0073931583
0.0054493117
-0.0049576140
0.0115567665
-0.0005946964
0.0001389314
-0.0085580628
-0.0048188522
0.0094115687
-0.0003833888
-0.0087846657
-0.0166203045
0.0142299273
0.0001652875
0.0005072746
-0.0132644425
-0.0152972547
0.0319315513
0.0071464998
-0.0016440703
-0.0126967910
-0.0213065373
0.0167004554
0.0164715316
0.0030410468
-0.0037301529
-0.0332493962
0.0208448472
0.0149723777
0.0057743281
0.0021546971
-0.0339303164
0.0229637979
0.0047327562
0.0089168912
0.0130236739
-0.0197686220
0.0207817828
0.0067657479
0.0101179492
0.0256351052
-0.0051198925
-0.0106856962
-0.0251047163
0.0030829047
0.0106665724
0.0242041592
0.0052399251
-0.0468566113
0.0046787546
0.0171899768
0.0521345241
0.0054882207
-0.0469636626
-0.0064613168
-0.0043516066
0.0520429126
-0.0004074005
-0.0347500038
-0.0133426257
-0.0211892758
0.0388980484
-0.0060994761
-0.0051812866
-0.0132035579
-0.0181725111
0.0186438745
-0.0250881735
0.0146326676
-0.0150440921
-0.0242010079
-0.0033374120
-0.0256453438
0.0166961400
-0.0096996746
-0.0126145453
-0.0043374112
-0.0244693352
0.0306423762
-0.0119782109
-0.0221093542
-0.0268085392
-0.0170483392
0.0506711068
-0.0034552222
-0.0026484445
-0.0421950993
-0.0292737892
0.0380881122
0.0037420473
0.0110576499
-0.0316911838
-0.0167766238
0.0354998010
0.0076515859
0.0178924108
-0.0298721646
-0.0118811871
0.0356408755
0.0145281139
0.0329607025
-0.0285629926
-0.0160040411
0.0158348632
0.0110212490
0.0206091923
-0.0202071220
0.0025958688
-0.0233888905
0.0062145649
-0.0003340285
0.0037653700
0.0398852948
-0.0337816428
0.0037202838
-0.0081181140
0.0145229026
0.0417955455
-0.0116922933
0.0050612085
-0.0004702719
-0.0005570504
0.0246684308
-0.0143315529
0.0089651151
0.0115655038
0.0077583911
0.0167236339
-0.0112803908
0.0093079065
0.0169496614
0.0090083926
0.0065887424
0.0068626518
0.0016276454
0.0030706520
-0.0096427601
-0.0023711317
0.0036613862
-0.0033966159
-0.0033508738
-0.0028536637
-0.0099335905
0.0079415703
-0.0077154965
-0.0102324023
-0.0062288391
-0.0128663749
-0.0212638694
-0.0037168394
-0.0035251954
0.0250297394
0.0004543477
-0.0361140546
0.0013567962
0.0046184583
0.0408291535
0.0087546312
-0.0140862700
-0.0014471735
-0.0041886317
0.0158701494
0.0046992369
-0.0018078438
0.0007539519
-0.0019508130
0.0028105215
0.0048642904
0.0027824967
0.0017180227
-0.0023778560
-0.0033236822
0.0116108072
0.0025846594
0.0043256294
0.0070275348
0.0042938788
0.0015224664
-0.0011267713
0.0055359776
0.0116427172
0.0127134014
-0.0067148508
-0.0031608722
0.0056239988
0.0062011293
0.0073455995
0.0007125524
-0.0026668347
0.0001697452
-0.0039317198
-0.0011675092
0.0052541713
0.0015750979
-0.0074473566
-0.0180048882
-0.0075809342
0.0017809162
0.0083104439
-0.0140908984
-0.0268856823
-0.0122446993
-0.0077315236
0.0030905653
-0.0215033206
-0.0414374644
-0.0093468634
-0.0062939949
-0.0014434610
-0.0194786963
-0.0422484604
-0.0100135345
0.0011875317
-0.0153950754
-0.0095480727
-0.0249769966
-0.0005482485
0.0211684070
-0.0048515291
0.0032237672
-0.0026993928
-0.0059202344
0.0229395174
0.0054638555
0.0096679374
0.0173320634
-0.0062738204
0.0101466437
0.0072454030
0.0147580351
0.0282311405
-0.0026337661
0.0051244955
0.0097879915
0.0188462636
0.0346142441
-0.0050563637
0.0093250882
0.0041660358
0.0179080983
0.0359422448
0.0028098687
0.0032962232
0.0156162384
0.0147634230
0.0355645801
-0.0024225442
-0.0183794559
0.0134274370
0.0085067049
0.0259848619
0.0019895185
-0.0313989880
-0.0090436623
0.0018188378
0.0101086899
0.0191951428
-0.0172915428
-0.0249677083
-0.0029950174
-0.0061907699
0.0248530752
0.0090523687
-0.0122383965
-0.0064674059
-0.0101614253
0.0165184457
-0.0054356515
0.0142891378
-0.0083407445
-0.0096492319
-0.0052614497
-0.0226371640
0.0065731295
-0.0122391096
-0.0224689736
-0.0037372624
-0.0093202778
-0.0118528929
-0.0102033517
-0.0239965931
0.0084241215
0.0119216636
-0.0189441229
-0.0061777036
-0.0183733965
0.0087629806
0.0281209196
-0.0062462600
-0.0003527713
-0.0049867014
-0.0000723181
0.0182544396
0.0128836538
0.0062854319
0.0129244958
-0.0098597299
-0.0013627499
0.0080918440
0.0084445605
0.0161460689
-0.0031235098
-0.0039961172
0.0071065538
0.0074891798
0.0097393204
-0.0079240704
0.0057973582
0.0033966544
0.0087939359
0.0126557210
-0.0065032236
0.0149574583
-0.0085273421
0.0005469364
-0.0037613341
-0.0010570720
0.0193362669
-0.0179186292
-0.0029010573
-0.0104260412
0.0099917354
0.0198900418
-0.0059827780
-0.0064202362
-0.0148708353
0.0006207866
0.0035409847
0.0104547661
-0.0083850351
-0.0171154237
-0.0122751587
-0.0131832461
0.0253468850
-0.0065650093
-0.0072715803
-0.0212904062
-0.0285662571
0.0251652289
-0.0088793208
-0.0121632257
-0.0237636876
-0.0259752922
-0.0035004549
0.0001668302
0.0061232978
0.0046926209
-0.0101697491
0.0044540365
0.0006926888
0.0094721097
-0.0027406040
-0.0110395542
0.0145818748
0.0071323543
0.0288701123
-0.0050872241
-0.0248463999
0.0153468476
0.0035828700
0.0182576089
-0.0073121816
-0.0200184995
-0.0164812963
-0.0039256096
-0.0070166034
0.0157223871
0.0115000147
-0.0127825069
-0.0009011493
0.0009647043
0.0181188778
0.0016639291
0.0041942859
-0.0072285461
-0.0186356473
-0.0030121877
0.0004912462
-0.0056330414
0.0007691014
0.0034140660
0.0127653872
-0.0052308663
0.0004516452
-0.0015626488
-0.0014885740
0.0043460455
-0.0051441100
-0.0048502595
-0.0026116490
-0.0072454680
0.0092805037
0.0004710256
0.0017107409
0.0007690659
0.0035492251
0.0044290392
-0.0049719604
0.0162411066
-0.0008400088
-0.0026142864
-0.0169423205
-0.0019912733
0.0035771134
0.0079596403
0.0164926945
-0.0030878459
0.0052612716
-0.0103084482
0.0077683481
0.0095198536
0.0053247682
0.0196459191
-0.0121060640
0.0058233304
0.0091854735
0.0111376860
0.0078470596
-0.0181454336
0.0031054429
0.0032695122
0.0168122413
0.0064901226
-0.0047732758
-0.0001270990
0.0020774200
0.0065248589
-0.0057151253
-0.0003382901
-0.0037163251
-0.0082641323
-0.0003781665
-0.0077917405
0.0054262704
-0.0052777270
-0.0060622490
-0.0027674106
-0.0175976561
0.0110609471
-0.0023107383
0.0003988491
-0.0061634720
-0.0189116042
0.0067443683
-0.0002413345
0.0013909570
-0.0084561298
-0.0019546582
-0.0138474205
-0.0008128995
-0.0057890571
0.0053049841
0.0183318866
-0.0271223230
-0.0073447236
-0.0240002650
0.0127733830
0.0280074106
-0.0073937101
-0.0054234056
-0.0156268854
-0.0008576489
0.0089289681
0.0103796092
-0.0027074758
-0.0076475250
-0.0142056466
-0.0010749055
0.0115298074
0.0016421432
-0.0017975551
-0.0152812389
0.0013396570
0.0030745640
0.0002412275
-0.0081565515
-0.0142878863
0.0207451201
0.0063574189
0.0039964883
0.0006521817
-0.0124582355
0.0173570841
0.0382366505
0.0115580418
0.0228978399
-0.0279301994
-0.0154899261
0.0369737249
0.0161813757
0.0392953985
-0.0190492704
-0.0247262134
0.0153162318
0.0122365211
0.0270157834
-0.0030615606
-0.0095325630
-0.0022250308
0.0029057925
0.0046422954
0.0068009868
0.0054899684
-0.0224493922
-0.0022059993
-0.0037934051
0.0258971513
0.0077155428
-0.0167701286
-0.0023824527
-0.0045699113
0.0221843953
-0.0030862439
-0.0255801259
-0.0096044073
-0.0159455459
0.0249406647
-0.0027151997
-0.0399681911
-0.0120552230
-0.0272238052
0.0268421001
0.0155430048
-0.0328013226
-0.0077022349
-0.0218394918
0.0146499627
0.0244614015
-0.0107807826
-0.0012715320
-0.0041046713
0.0012220865
0.0087120964
0.0005987064
0.0015733778
0.0014819906
-0.0045858382
0.0064880776
0.0179654521
-0.0000214130
-0.0026406555
-0.0204362400
-0.0027001187
0.0152597105
0.0040133705
0.0020383533
-0.0196015967
0.0011681491
0.0086152972
0.0024222504
-0.0039353103
-0.0187209845
0.0144634500
0.0017537957
0.0040701528
0.0041028930
-0.0040302050
0.0064685768
-0.0026323307
-0.0008413448
-0.0039489954
0.0056116328
0.0026472714
0.0082718458
-0.0053469107
-0.0121739764
-0.0017872411
-0.0051281138
0.0035222365
-0.0063939216
-0.0134677839
0.0040088392
-0.0005127442
0.0064469601
-0.0018285117
-0.0012986291
0.0029612190
-0.0050277186
0.0059039812
0.0070077932
0.0199128116
0.0079547365
-0.0047443837
-0.0087847379
0.0067452004
0.0182097147
0.0200478960
0.0029200952
0.0030326778
0.0064194385
0.0159196808
0.0070980514
-0.0021414387
0.0171370498
0.0044051535
0.0106469872
-0.0138012161
-0.0028492420
0.0151595165
0.0036798104
0.0060263038
-0.0178531255
0.0037529220
-0.0031021420
0.0000576771
-0.0039981284
-0.0057500434
0.0114152651
-0.0152003599
-0.0042040286
-0.0113899576
0.0089076081
-0.0008942361
-0.0219115379
-0.0072078540
-0.0146805836
0.0118496056
-0.0022897126
-0.0209158210
-0.0036938890
-0.0078784238
0.0089798604
0.0011781097
0.0140125377
-0.0011807277
-0.0011145256
-0.0180625523
-0.0132962349
-0.0003695624
0.0006225303
-0.0027993058
-0.0060813951
0.0070540995
-0.0154161902
0.0049453575
0.0056242722
0.0130341424
0.0203041309
0.0002579462
0.0062761821
0.0173424267
0.0092784182
-0.0036404928
0.0200231587
0.0058088764
0.0222289066
-0.0006514189
-0.0261036797
0.0126377054
0.0020837081
0.0146918733
0.0052543406
-0.0233195683
0.0013219891
0.0012785675
0.0068426243
0.0109880261
-0.0077987652
0.0078323953
0.0018494126
0.0075743336
0.0053550732
-0.0102411727
0.0233187203
0.0002121632
0.0053600946
-0.0096105734
-0.0217445009
0.0186835756
0.0017348204
0.0092713420
-0.0080367959
-0.0217453822
0.0063885535
-0.0041136631
-0.0033574132
-0.0023368669
-0.0195434734
0.0107204944
-0.0093726529
-0.0136069658
-0.0134532723
-0.0185425645
-0.0036000090
-0.0065393648
-0.0080621733
-0.0037409333
-0.0091059102
-0.0035577387
-0.0048886817
-0.0113526950
-0.0110405750
0.0092779728
-0.0190935445
0.0033373873
0.0005513157
0.0014526368
0.0260288806
-0.0160615156
0.0101701968
0.0119119089
-0.0001969151
0.0324522431
-0.0115111394
0.0112652366
0.0117822820
-0.0030762805
0.0362557384
-0.0246553936
0.0092319435
0.0068024094
0.0101419063
0.0437334200
-0.0072719825
0.0015826581
-0.0068218467
-0.0063200489
0.0332488442
0.0105889985
-0.0019856116
-0.0063388661
-0.0111300550
0.0018557936
0.0187835737
-0.0024736545
0.0008046078
-0.0038113710
-0.0249419108
0.0264335793
-0.0047562842
0.0041900382
0.0034225062
-0.0517535122
0.0160541314
-0.0049668485
0.0066385934
0.0175142187
-0.0574136393
0.0012511703
-0.0097652228
-0.0061037606
0.0240488220
-0.0414800180
-0.0221404246
-0.0110583003
-0.0174025867
0.0329116638
-0.0143402365
-0.0339628789
-0.0138653948
-0.0262447541
0.0330072877
0.0052999018
-0.0162937060
-0.0125118012
-0.0222820245
0.0141677137
-0.0000577243
-0.0136817312
-0.0057493839
-0.0149570441
0.0042668456
0.0188539579
0.0060485827
-0.0042321212
-0.0137545457
-0.0208042856
0.0169018032
0.0070604998
0.0023979670
-0.0064936439
-0.0278970468
0.0286774501
-0.0105390971
0.0055809910
-0.0058545586
-0.0174838055
0.0483318191
-0.0055106441
0.0056204784
-0.0019491616
-0.0169513095
0.0336511519
-0.0004804534
0.0049827737
0.0000397780
-0.0139101267
0.0156402449
0.0105939779
0.0053791309
0.0091786709
-0.0120199845
-0.0093146357
0.0038019043
0.0049795397
0.0102143481
0.0002004243
-0.0093877327
-0.0015224677
0.0075520428
0.0155242333
0.0121681276
-0.0158260950
-0.0028405746
0.0090837624
0.0281056166
0.0192965103
-0.0224303686
0.0082510106
0.0088251909
0.0311336081
0.0130825321
-0.0378083037
0.0056599933
0.0106895385
0.0265846301
0.0118516470
-0.0225670086
-0.0024416328
0.0042859823
0.0055535372
0.0047693739
0.0085791579
0.0111719175
0.0001332446
-0.0068932587
-0.0154626940
0.0157429110
0.0248763168
-0.0036077334
-0.0115323800
-0.0296461161
0.0041307875
0.0187311900
-0.0037293073
-0.0131367182
-0.0294596565
0.0119599591
0.0032393152
-0.0045490895
-0.0216045809
-0.0226165242
0.0320251933
0.0009333666
-0.0070322275
-0.0233478842
-0.0182199695
0.0235433512
-0.0020157487
-0.0116278499
-0.0336589114
-0.0147800597
0.0216718697
-0.0013278980
-0.0092987189
-0.0234341305
-0.0074181736
0.0112517158
-0.0073004073
-0.0048573284
-0.0139593504
-0.0008730446
0.0177703076
-0.0056111467
-0.0046055609
-0.0108291409
0.0034678432
0.0092226571
0.0061677901
-0.0029203775
-0.0016734517
0.0038749468
-0.0105994065
0.0246545336
-0.0026986811
0.0071373753
-0.0019274811
-0.0344737179
0.0004513121
0.0007906641
0.0089254540
0.0168108088
-0.0129738437
-0.0138299898
0.0021344716
0.0079218441
0.0232939543
0.0001241706
-0.0062949287
0.0125808300
0.0308112963
0.0195788837
-0.0057604955
-0.0074925458
0.0106980801
0.0275047863
0.0219999324
-0.0131978891
-0.0130569367
0.0111688105
0.0297618111
0.0293673788
-0.0194203553
-0.0223087484
0.0029228858
0.0066580892
0.0231634109
0.0024590850
-0.0208633752
0.0047433343
0.0089206843
0.0160880435
0.0072874847
-0.0136466064
0.0044256359
0.0025547583
-0.0006352356
0.0197538927
-0.0025158425
0.0039278485
0.0044556675
-0.0065791996
0.0033225052
0.0116267337
0.0078426932
0.0152715079
-0.0148698809
-0.0041811303
0.0176093919
0.0005845512
-0.0019938723
-0.0263491484
0.0032255368
0.0074107776
0.0043497767
0.0059413522
-0.0129829313
0.0089061777
0.0221998655
-0.0034823485
-0.0059054370
-0.0239110016
-0.0069341681
0.0000303705
-0.0020809622
-0.0010977088
0.0056156990
-0.0095478053
-0.0092844940
-0.0083706998
-0.0139037473
0.0151018014
-0.0085495674
-0.0101720469
-0.0099124820
-0.0165774495
0.0161101510
-0.0063582051
-0.0087119012
-0.0054146827
-0.0061501346
0.0168865655
-0.0095160684
0.0011586310
-0.0040484376
-0.0038070716
0.0069761726
-0.0095186588
-0.0129811776
-0.0002403754
-0.0000748503
0.0162786349
0.0063584742
-0.0072290489
0.0058242617
0.0101489807
0.0109609968
0.0047730220
0.0089287228
0.0078315098
0.0151884362
-0.0067943397
-0.0001121996
0.0125250207
0.0116631032
0.0210931385
-0.0133539999
0.0021148273
0.0149715587
0.0093061168
0.0121751697
-0.0238961421
0.0179069633
0.0149629324
0.0051085748
0.0054866073
-0.0269851887
0.0166680332
0.0066912335
-0.0010956193
-0.0052595266
-0.0184798983
0.0115125203
0.0000847326
-0.0110635312
-0.0235771522
-0.0094638337
-0.0003202397
-0.0069416287
-0.0161777571
-0.0345227196
-0.0028559191
0.0011422135
0.0135485011
-0.0182078176
-0.0339882671
-0.0161494555
-0.0179347396
0.0041327660
-0.0125737060
-0.0244223619
-0.0034325458
-0.0101602748
-0.0065956873
-0.0041070146
-0.0069717145
0.0132679157
-0.0056788090
-0.0061605475
0.0080445302
0.0242223515
0.0252007325
-0.0192685087
-0.0056407588
0.0110130032
0.0306014459
0.0240453459
-0.0156159847
-0.0036367981
0.0098742211
0.0263254816
0.0209916500
-0.0146688958
-0.0108402493
0.0066248813
0.0175999977
0.0190782516
0.0032954764
-0.0039048561
0.0069781102
0.0173607047
0.0073962646
0.0053293011
-0.0150889918
0.0023605045
0.0037367654
0.0092614189
0.0153894694
-0.0144401158
0.0002240580
0.0030231355
0.0127467187
-0.0010441904
-0.0045566779
-0.0056086641
-0.0096147856
0.0031336243
-0.0129252150
0.0180438127
-0.0114364735
-0.0192851879
-0.0178187811
-0.0286222469
0.0138375275
-0.0153980649
-0.0320296166
-0.0199188301
-0.0142730287
-0.0030750831
-0.0142843206
-0.0374642198
-0.0130811995
0.0174179494
-0.0071419561
-0.0032100648
-0.0135579595
-0.0008801968
0.0145221035
0.0032807137
0.0039975957
0.0046859841
-0.0014199361
0.0014788189
0.0248374978
0.0033219651
0.0083885521
-0.0166460622
-0.0167116665
0.0112206063
0.0038330804
0.0025961288
-0.0104340035
0.0055894550
0.0042649909
0.0048573219
0.0042563445
-0.0042321663
0.0135434500
-0.0016471024
0.0068779572
0.0107082976
0.0044447733
0.0184635069
-0.0009166024
0.0100537541
0.0224804104
0.0051899890
0.0065177368
-0.0014230809
0.0075998560
0.0174755406
0.0038368205
0.0059950754
-0.0055703114
0.0071513646
0.0115352606
0.0033329808
0.0147130025
-0.0109953762
0.0030612261
-0.0013865549
0.0028903083
0.0238774283
-0.0066090195
-0.0026544579
-0.0136123018
-0.0041201714
0.0204681517
0.0048681252
-0.0081763848
-0.0209549312
-0.0137812903
0.0063321585
0.0063127838
-0.0100756603
-0.0234372797
-0.0133492579
0.0016144110
0.0015466039
-0.0118534178
-0.0283957319
-0.0109486917
0.0080275211
-0.0098998226
-0.0105253780
-0.0292012971
-0.0044057813
0.0202828912
-0.0169314705
-0.0048172251
-0.0145464182
0.0082033908
0.0142081746
-0.0148652286
-0.0034665976
-0.0103098617
0.0085201584
0.0104811498
-0.0015643102
-0.0006844703
0.0035993447
0.0066858494
-0.0145277517
-0.0063757937
0.0053394741
0.0192414907
0.0181998919
-0.0234526828
0.0003263238
0.0063041060
0.0222539905
0.0108086877
-0.0220358772
0.0010791691
0.0145584923
0.0339191800
0.0076712761
-0.0083917304
0.0177235298
0.0113240426
0.0255032570
-0.0093109682
-0.0102511224
0.0174056393
0.0102131310
0.0253258749
-0.0053217090
-0.0159350794
0.0166382468
0.0044325385
0.0152938928
-0.0043741603
-0.0228627145
0.0228905935
-0.0029993046
0.0009995018
-0.0135835349
-0.0293924582
0.0062968842
-0.0046256416
-0.0070521314
-0.0048664740
-0.0119681100
0.0028759302
-0.0097747017
-0.0266960533
-0.0080650090
-0.0016538514
-0.0003674083
-0.0040826707
-0.0096627610
-0.0026138074
0.0053670603
0.0082702779
-0.0038426248
-0.0097469332
-0.0112150609
0.0069397052
-0.0011633451
0.0065513982
0.0125760668
0.0019283702
0.0119012644
0.0036345352
0.0058944227
0.0111117755
-0.0013638397
0.0068280602
0.0085355947
0.0048940568
0.0106674556
-0.0032279872
-0.0019179065
0.0013623851
0.0086710246
0.0217693518
0.0084491988
-0.0045151070
-0.0166711138
0.0066104482
0.0093969947
0.0179203588
0.0195496002
-0.0246147670
0.0108619740
0.0179451080
0.0243112177
0.0241105449
-0.0077360178
0.0069012085
0.0104042046
0.0063135130
0.0152023145
0.0010140377
0.0021958314
0.0028705415
-0.0041631624
0.0066484273
-0.0036962483
-0.0043118844
-0.0100876997
-0.0029197264
0.0047489708
-0.0075470858
-0.0057239583
-0.0119472658
0.0035843337
-0.0030708828
-0.0096118373
-0.0088708947
-0.0154842421
0.0049574960
-0.0064497743
-0.0136359531
-0.0019758800
-0.0007597695
0.0117824723
-0.0066955606
0.0017964541
0.0005081852
0.0033917725
-0.0031431893
-0.0100814321
-0.0012361225
-0.0017587865
-0.0040178938
-0.0054076548
0.0025155935
0.0020358878
-0.0063880696
-0.0128680289
-0.0052996564
-0.0059474930
0.0157696749
-0.0103757582
-0.0205660594
-0.0166889055
-0.0121264072
0.0004643954
-0.0068045678
-0.0150570648
-0.0004882149
-0.0057713417
-0.0058332508
-0.0028557790
-0.0051550362
0.0087731768
-0.0034416109
-0.0049738433
0.0010057838
0.0008922500
0.0089436449
0.0015951634
-0.0176391271
0.0043479505
0.0038656129
0.0191831285
0.0197026275
-0.0079781348
0.0083761144
0.0124865220
0.0131072678
0.0207092245
-0.0040265202
0.0105889961
0.0228070440
0.0126631708
0.0077482959
0.0059054749
0.0098904341
0.0263808167
0.0062556303
-0.0095767067
0.0122771148
0.0021054100
0.0121825576
-0.0026741162
-0.0202967450
0.0177761606
-0.0041981755
-0.0020239561
-0.0096065186
-0.0260676680
0.0164377737
-0.0084899506
-0.0175011476
-0.0180577219
-0.0110916120
0.0108770260
-0.0047619667
-0.0112690078
-0.0157433972
0.0005708887
-0.0070664506
0.0022879006
-0.0019574748
-0.0022736205
0.0182171433
-0.0207655171
0.0013317641
-0.0051586486
0.0069682165
0.0287647832
-0.0121253825
-0.0035499088
-0.0129802874
0.0026218349
0.0129243980
-0.0162331434
-0.0071603219
-0.0182434153
0.0074681596
0.0090392048
0.0082787396
-0.0076954027
-0.0139231027
-0.0108350592
-0.0118750591
0.0147653639
-0.0009258809
-0.0007238654
-0.0162584012
-0.0100707025
0.0160980998
-0.0002488480
-0.0025095458
-0.0210786443
0.0037730072
0.0043115937
0.0017990867
-0.0012827896
-0.0108787114
0.0130949525
0.0134430860
0.0006539054
0.0047378938
-0.0099705164
-0.0082459305
0.0241183168
-0.0039513537
-0.0034282527
-0.0167346840
-0.0245688095
0.0111296130
-0.0051043710
-0.0116027887
-0.0078460618
-0.0159483675
0.0008609297
-0.0078483253
-0.0207030039
-0.0028504125
0.0009167331
-0.0117926706
-0.0038538082
-0.0188453459
0.0049645066
