50,3,15,8,0.000100,0.000100,50,20
-0.0000505975
0.0001949810
-0.0000143142
0.0000739528
-0.0001048940
0.0000265568
-0.0000454642
0.0000747348
-0.0000155484
0.0000073548
-0.0001344378
0.0000029192
-0.0000917623
0.0001890881
-0.0000930027
0.0001526345
0.0005875773
-0.0000649410
0.0000461603
-0.0000679977
-0.0000380507
0.0004381700
0.0001412330
-0.0000303961
-0.0000234263
-0.0000463323
0.0001346079
0.0002731642
0.0001689398
0.0001127874
0.0000204235
0.0000507932
0.0003791708
0.0001330118
-0.0000341359
-0.0000399743
-0.0000020632
0.0000080550
-0.0000201540
0.0000360342
0.0001950775
0.0000707554
0.0002146026
-0.0000616960
0.0001036875
0.0002006548
0.0001519252
0.0000822298
0.0000589494
0.0000386781
0.0001749617
0.0000543741
0.0000195405
0.0000214226
-0.0000288249
-0.0000716049
0.0002814827
-0.0000750602
0.0000265532
0.0000610033
-0.0000309423
-0.0000152161
0.0000147569
0.0000491328
0.0000286606
0.0002241224
-0.0000450698
0.0001186376
0.0000609612
0.0000022901
-0.0000983417
0.0001313530
-0.0000453808
0.0000616615
0.0000569302
-0.0000426826
0.0002202219
-0.0000260882
0.0000246604
-0.0000433421
0.0000102841
-0.0000049444
0.0000585505
0.0001413018
-0.0000224584
0.0000310694
-0.0000237283
-0.0000256973
0.0000055812
-0.0000990588
0.0000023718
0.0001461214
-0.0000188211
0.0001345592
0.0000356503
-0.0000010637
0.0001334148
0.0000121924
-0.0000797124
0.0001094427
-0.0000098844
0.0001075937
0.0000108619
-0.0000229820
-0.0001010552
0.0003842277
0.0000526989
-0.0000065793
0.0002252875
-0.0000571905
0.0001206684
0.0000241217
0.0002067526
0.0002981515
-0.0000452178
-0.0000852602
-0.0000290208
-0.0000348050
-0.0000535293
-0.0000890507
0.0002573127
-0.0000612935
0.0000364844
0.0002703812
-0.0000871136
0.0002100346
0.0000095825
0.0000093011
0.0000479120
0.0000474416
-0.0000799922
-0.0000423716
-0.0000849389
-0.0000761316
-0.0000708093
-0.0000087515
-0.0000658097
-0.0000165170
0.0000572060
-0.0000780591
0.0000188848
0.0001685710
0.0000867332
0.0001989651
-0.0000139304
-0.0000587719
0.0000479062
0.0001364631
0.0003443960
0.0000346321
0.0004885756
0.0000253779
0.0000105222
0.0000906071
-0.0000808399
0.0000028223
-0.0000358530
0.0000297405
-0.0000540511
0.0001097143
0.0003463559
-0.0000198739
-0.0000701000
-0.0000593083
-0.0000639141
0.0000324033
0.0006648884
0.0000085833
-0.0000301120
-0.0000204578
0.0000348091
0.0000847669
0.0000545168
0.0000641620
0.0000114457
0.0000831642
-0.0000449973
-0.0000763795
0.0001487363
0.0001739560
0.0004227941
-0.0000056978
-0.0000780019
0.0000052704
-0.0000494332
0.0001254842
0.0000489947
0.0003696507
0.0000985484
-0.0000256413
-0.0000088033
0.0000343579
0.0000172300
-0.0000262917
-0.0000015579
0.0000132629
0.0000198881
-0.0000805034
0.0001304618
-0.0000858752
0.0000985917
0.0000404202
-0.0000307173
-0.0000645960
-0.0000055237
-0.0000788847
0.0000315528
0.0000283146
-0.0000433641
-0.0000222110
-0.0000346712
-0.0000265952
-0.0000846060
0.0000576219
-0.0000701641
0.0001222672
-0.0000389847
0.0001240523
0.0001344097
0.0000007550
-0.0000826918
0.0005074747
-0.0000798385
0.0001295810
-0.0000879262
0.0000700108
-0.0000667553
-0.0000583488
0.0004217317
-0.0000761979
0.0001075940
0.0000646200
0.0000144133
-0.0000727070
-0.0000396642
0.0001232899
0.0001135367
0.0001476254
0.0000616492
-0.0000452825
0.0000615737
-0.0000391666
0.0001492268
0.0000723428
0.0001897458
0.0003106896
0.0000131460
0.0000349390
-0.0000053020
-0.0000132921
-0.0000944731
0.0004501376
0.0000749771
-0.0000783137
-0.0000263586
-0.0000276869
0.0001212060
-0.0000689378
-0.0000353805
-0.0000113146
-0.0000250900
0.0000575231
0.0000088558
0.0000251160
0.0000577326
-0.0000958721
0.0000705545
-0.0000363366
0.0003131525
-0.0000653402
-0.0000362199
-0.0000072308
-0.0000755717
-0.0000252309
0.0000308923
0.0000164062
0.0004243674
-0.0000285834
-0.0000068640
0.0003820705
-0.0000107800
0.0000445819
-0.0000856299
0.0001013642
0.0001020024
0.0000797398
-0.0000186725
0.0001638638
0.0001458284
-0.0000757952
0.0000015446
0.0000832352
-0.0000319743
0.0003513079
0.0000030254
-0.0000875202
0.0002938823
-0.0000896192
0.0001195970
-0.0000389054
-0.0000287285
-0.0000718867
-0.0000605360
0.0005378108
-0.0000454070
-0.0000353212
-0.0000154429
0.0005756021
0.0000349077
-0.0000412490
0.0000108827
-0.0000271578
-0.0000892581
-0.0000831220
0.0000897814
-0.0000528130
0.0000832743
-0.0000849383
0.0000457906
-0.0000108858
0.0001194895
-0.0000249803
-0.0000405174
0.0000167558
0.0000157525
-0.0000549998
0.0000653287
0.0001289734
0.0000544505
-0.0000259607
-0.0000369881
0.0000023170
0.0000498331
0.0003674340
0.0001473599
0.0003246486
0.0003590460
0.0003236832
0.0000722665
-0.0000056648
0.0000774765
-0.0000366951
0.0000639311
-0.0000383143
0.0000523907
0.0000151099
0.0000460640
0.0001238472
0.0002128231
0.0001002308
0.0002774702
-0.0000124273
0.0000208319
-0.0000639300
0.0000155048
0.0001568275
0.0000278077
-0.0000331087
0.0000722686
-0.0000731918
-0.0000328502
-0.0000366188
0.0004971975
-0.0000000925
0.0000420968
-0.0000155189
-0.0000454988
0.0004614948
-0.0000063420
0.0000314882
0.0000762318
0.0001329480
-0.0000836617
-0.0000328516
-0.0000137001
0.0002114208
-0.0000690600
-0.0000844670
-0.0000375915
-0.0000110496
0.0000175119
0.0003927073
0.0000744883
0.0001037815
0.0001812993
0.0000821762
0.0000045477
-0.0000221047
0.0001406548
-0.0000607286
-0.0000227709
0.0000335532
0.0000581164
0.0001068632
0.0000045830
-0.0000041762
0.0000288218
-0.0000312324
0.0000764245
-0.0000194329
-0.0001031124
0.0000079529
0.0001226660
0.0004725128
0.0000822578
0.0000659046
-0.0000051585
0.0000221104
0.0001260721
-0.0000642171
0.0000602498
-0.0000239010
0.0000593286
-0.0000485586
-0.0000095026
-0.0000475175
0.0000087555
-0.0000536186
-0.0000686089
-0.0000020073
-0.0000059167
-0.0000298148
-0.0000184807
0.0000392001
-0.0000623249
0.0002341205
0.0001129820
-0.0000149513
-0.0000729442
0.0000543566
-0.0000583599
-0.0000146935
-0.0000459598
-0.0000771179
0.0000319470
-0.0000383652
0.0000401741
-0.0000514965
-0.0000160242
-0.0000731173
0.0000717108
0.0000916854
0.0003012003
0.0001280189
0.0000004232
-0.0000013684
0.0000975619
0.0000195619
-0.0000751949
-0.0000776958
0.0002109020
-0.0000583169
0.0005061619
0.0000952088
-0.0000755599
0.0000191735
0.0000153252
0.0000119407
0.0000982189
0.0000262417
0.0000396625
0.0000052233
-0.0000343862
-0.0000373778
0.0002673192
-0.0000487903
0.0000033764
0.0000447758
0.0000164200
-0.0000147587
0.0001195815
0.0000707223
-0.0000382160
0.0000356277
0.0000818637
-0.0000561285
-0.0000418284
0.0000864602
-0.0000852128
0.0002508006
0.0001781703
0.0003399427
0.0003639251
0.0004655397
0.0000134223
-0.0000061488
0.0001592558
0.0001690575
-0.0000144566
-0.0000261790
0.0000838647
0.0000734218
-0.0000862642
-0.0000716854
-0.0000950895
0.0002585764
-0.0000620858
0.0000193910
-0.0000333631
-0.0000273498
0.0000375785
0.0002501093
0.0001063824
-0.0000408676
-0.0000121978
-0.0001017750
0.0002607719
-0.0000774944
-0.0000469498
-0.0000507035
0.0000046743
-0.0000036254
0.0000098931
0.0000189913
-0.0000355468
0.0001527951
0.0000364909
-0.0000017566
0.0000361249
-0.0000360869
-0.0001021666
-0.0000376375
0.0002454460
-0.0000483941
0.0003257329
0.0000354605
-0.0000472473
0.0001089801
-0.0000279867
0.0000840979
0.0002533084
0.0000872777
0.0000823141
-0.0000027176
-0.0000335421
-0.0000962208
0.0001474374
0.0000045363
0.0000963634
0.0001931559
-0.0000338851
0.0000331015
0.0000164244
-0.0000150020
-0.0000835301
-0.0000009179
0.0002838768
0.0000995366
-0.0000736915
0.0001215102
-0.0000774401
0.0001264249
0.0000491698
0.0000734743
0.0000768959
0.0001075952
-0.0000347922
0.0002461636
0.0000584170
-0.0000289186
0.0000418993
0.0003115255
0.0000724458
0.0001161689
0.0004436241
-0.0000649064
0.0000127433
-0.0000424913
0.0003523951
0.0000932011
0.0000411924
-0.0000663660
-0.0000566538
0.0003532356
0.0000716718
0.0001743154
0.0000718919
0.0000269108
-0.0000064724
0.0004903707
0.0001278959
-0.0000165308
-0.0000523343
-0.0000857241
0.0000457886
-0.0000104572
-0.0000625841
-0.0000620368
0.0001230788
0.0000499734
0.0001237638
-0.0000478962
0.0004900888
0.0000690677
0.0000065914
0.0000800203
0.0000500658
0.0004950716
0.0001551897
-0.0000825172
0.0000924113
-0.0000455571
-0.0000090014
-0.0000365880
-0.0000185819
0.0000091571
0.0002414587
0.0000081106
0.0000654726
0.0000938570
-0.0000275302
0.0000437092
-0.0000609051
0.0000680921
-0.0000596828
-0.0000548078
-0.0000084512
0.0000715756
-0.0000332971
-0.0000449351
0.0004511571
0.0001286571
0.0001378264
0.0000235532
0.0001422942
-0.0000975164
0.0000156475
0.0000351698
0.0000591397
0.0007081663
0.0001234468
-0.0000454532
-0.0000183469
0.0000036567
0.0001644638
-0.0000126834
0.0000069945
0.0000732443
0.0000119812
0.0002544536
-0.0000075129
-0.0000175507
0.0000504573
-0.0000659449
0.0000153703
-0.0000084946
-0.0000622042
-0.0000336252
0.0000733246
-0.0000548526
0.0000763741
0.0002603774
0.0001431916
-0.0000546595
0.0001589425
0.0000061097
0.0000066318
0.0000427594
-0.0000078288
0.0000227620
-0.0000059866
0.0001456498
0.0000596449
-0.0000038406
0.0000551827
0.0000538032
0.0000931744
0.0000114272
-0.0000305034
0.0001502081
0.0001127505
-0.0000397908
-0.0000435527
0.0000252772
-0.0000919332
0.0001395555
0.0000654238
-0.0000197204
-0.0000023247
-0.0000711927
-0.0000023514
0.0002378312
0.0002761074
-0.0000658012
0.0001193807
-0.0000690067
0.0000089655
-0.0000769486
0.0000262653
0.0001487732
-0.0000189381
-0.0000707106
0.0001589762
-0.0000009773
-0.0000810282
-0.0000225946
0.0000479926
-0.0000205344
-0.0000383077
0.0000898044
0.0000487500
0.0004417688
0.0001642696
0.0001786045
-0.0000827926
0.0001108474
0.0000234619
0.0000181264
-0.0000049581
0.0005750092
0.0001151365
0.0000373011
-0.0000230947
0.0000010834
0.0000049948
0.0000285602
0.0004062653
-0.0000756825
0.0000244811
-0.0000068214
-0.0000133828
0.0000378890
-0.0000356023
-0.0000008712
0.0002809591
-0.0000023519
-0.0000346036
-0.0000268073
0.0000192999
-0.0000219765
-0.0000299730
0.0002193034
0.0001700339
0.0000054229
0.0001758850
0.0002436649
-0.0000064777
-0.0000651096
-0.0000168363
-0.0000375213
0.0002456995
-0.0000128342
0.0000423135
0.0002885884
-0.0000427071
-0.0000654822
0.0000397016
-0.0000830672
0.0000042507
-0.0000907263
0.0001623794
-0.0000693626
0.0003337131
0.0006567684
0.0001510739
0.0000166419
0.0001602161
0.0000000656
-0.0000801817
0.0003919958
0.0001121828
-0.0000055347
0.0000234092
0.0000778584
0.0001236234
-0.0000336239
0.0000896658
-0.0000795616
0.0003314690
0.0002358398
0.0001798178
-0.0000434203
-0.0000361352
0.0000021549
0.0000708484
-0.0000175251
0.0001230752
-0.0000878887
-0.0000920135
0.0000798507
-0.0000146116
0.0001517095
0.0006811339
0.0001163684
0.0000000728
-0.0000345506
-0.0000492646
0.0000276040
0.0003881248
0.0001606656
-0.0000214368
0.0000431162
0.0000989353
0.0000232871
-0.0000395328
0.0001367324
0.0005969433
0.0001177002
0.0000973453
-0.0000824887
0.0000967050
0.0001747035
0.0000839966
-0.0000508082
-0.0000345870
0.0004232337
-0.0000014105
0.0001690577
0.0004877171
-0.0000615238
-0.0000492932
-0.0000573085
0.0000455361
-0.0000108770
-0.0000700119
0.0000666781
-0.0000485435
0.0001840783
0.0000155674
0.0002158358
-0.0000719148
0.0000105499
-0.0000283761
0.0000086019
0.0000559693
0.0001044076
0.0000680014
0.0000407560
-0.0000054031
0.0001409484
0.0000366180
0.0001107208
-0.0000390176
-0.0000311521
-0.0000321146
0.0000499115
0.0001003205
-0.0000311800
0.0000446475
0.0000157319
0.0000248332
-0.0000184046
0.0000273227
0.0000753677
0.0001037863
0.0000500275
-0.0000000405
-0.0000109915
0.0000071623
-0.0000172161
-0.0000168408
0.0000174466
-0.0000706225
-0.0000271859
0.0001167460
0.0000570149
-0.0000455073
-0.0000699272
0.0000575212
0.0001015718
0.0000120048
0.0000003261
0.0003018162
-0.0000084395
0.0000382133
-0.0001038180
-0.0000130651
-0.0000741703
-0.0000221131
-0.0000782090
-0.0000373800
-0.0000572112
-0.0000426644
-0.0000275353
-0.0000301596
-0.0000139230
0.0001347997
0.0000829652
0.0000270317
0.0000286608
-0.0000330312
0.0001785226
-0.0000809631
-0.0000534676
-0.0000116671
0.0000054716
0.0001050459
0.0002202347
-0.0000152211
-0.0000056579
0.0000103658
-0.0000472955
0.0000136442
-0.0000643277
0.0001206705
-0.0000737845
0.0002276141
0.0003520083
0.0001299378
0.0000458276
-0.0000398830
0.0002853511
0.0001699702
0.0001239779
-0.0000846519
-0.0000127890
-0.0000447550
0.0000314600
-0.0000493720
0.0000571875
-0.0000934274
0.0001894361
0.0001279755
0.0002024742
0.0000077580
-0.0000202658
-0.0000506287
0.0002406397
0.0002832945
0.0000610657
-0.0000168937
0.0002541976
0.0001450742
0.0000946504
0.0001398344
-0.0000638366
0.0002651393
0.0001072823
0.0000062036
-0.0000324784
0.0000862787
0.0002688673
-0.0000178845
0.0002883650
0.0000010464
0.0000170069
0.0001472587
-0.0000148197
0.0000151620
0.0001083250
0.0000128987
0.0000479220
-0.0000065441
-0.0000740956
-0.0000168232
0.0000354213
0.0001699934
0.0000786745
-0.0000274089
-0.0000399728
0.0004082612
0.0000297898
0.0001456183
-0.0000529614
0.0000457772
-0.0001073675
-0.0000194635
0.0003187346
0.0000154731
0.0002293082
0.0000507653
0.0001059817
0.0000995651
0.0004611394
0.0003374209
0.0000199067
0.0000436582
0.0000428088
-0.0000662652
-0.0000011929
0.0000170801
0.0000895317
-0.0000557709
-0.0000766350
-0.0000632083
0.0001805051
-0.0000341178
0.0001263065
0.0000710153
0.0001816943
-0.0000244758
0.0001724861
0.0000707867
0.0001923516
0.0000196885
-0.0000982544
0.0001023623
-0.0000465570
0.0001121876
0.0000492232
0.0000235416
-0.0000683055
0.0000431487
0.0000127869
0.0000059609
-0.0000252793
0.0000020872
-0.0000334893
-0.0000360830
-0.0000485535
-0.0001086435
0.0001466384
0.0000728879
0.0000091602
-0.0000911767
0.0002458372
0.0000026498
0.0002260326
0.0000791568
0.0000425171
0.0001238066
-0.0000336627
0.0000361377
-0.0000399326
0.0000657467
0.0000077047
0.0000014103
-0.0000659343
-0.0000274727
0.0001469290
0.0001368457
-0.0000483399
0.0002346875
0.0000433547
0.0001151441
0.0001426503
-0.0000261559
0.0000260919
-0.0000449012
-0.0000156480
-0.0000449282
0.0004962927
0.0000118005
-0.0000769119
0.0001438545
0.0001646139
0.0000550107
-0.0000232335
0.0001586257
0.0000652166
-0.0000402348
0.0000773086
-0.0000166400
-0.0000678899
-0.0000117733
0.0001104163
0.0001534677
-0.0000254093
0.0002222712
0.0000410910
0.0000318359
-0.0000690168
0.0000993285
0.0000081159
-0.0000226933
0.0000106071
-0.0000439594
0.0000920067
-0.0000033448
-0.0000097735
0.0004354859
-0.0000324360
0.0001152821
-0.0000925545
-0.0000459667
-0.0000350989
0.0002026587
-0.0000813632
0.0001372270
-0.0000242059
0.0000525845
-0.0000100258
0.0000938425
-0.0000192830
0.0002722240
-0.0000735495
0.0000278462
0.0001172353
-0.0000618970
0.0000159361
0.0000158551
-0.0000335807
0.0001093360
0.0000225101
-0.0000107340
0.0000850546
-0.0000452830
-0.0000319851
-0.0000661505
-0.0000507545
0.0001032940
-0.0000026548
-0.0000898311
0.0001694355
0.0000028506
0.0001526940
-0.0000606458
0.0000031919
0.0000022685
-0.0000673568
-0.0000338630
-0.0000386831
0.0005120898
0.0001681161
-0.0000410795
0.0001700492
0.0000205753
0.0000796482
0.0000063690
-0.0000349853
0.0000668967
0.0001543392
-0.0000547816
0.0000554677
0.0000286090
0.0000278501
0.0000805386
0.0000104695
-0.0000736006
-0.0000136489
-0.0000007378
0.0001012458
0.0000602286
-0.0000559541
-0.0000502348
0.0000482157
0.0001076848
0.0002485835
0.0000186837
-0.0000058819
0.0002635174
-0.0000497898
0.0000378605
0.0004778368
0.0000895478
-0.0000217538
0.0004075038
-0.0000681481
0.0000241763
0.0000869605
-0.0000025814
0.0002697073
-0.0000733165
0.0005887302
-0.0000749132
0.0000510941
0.0000902888
-0.0000023600
0.0001624003
0.0000059019
-0.0000508505
0.0000681108
0.0000370417
-0.0000611849
-0.0000232867
-0.0000242135
0.0001023930
-0.0000364364
0.0000656383
0.0001765720
-0.0000411859
0.0000046251
0.0002839365
0.0000696521
0.0000909411
-0.0000863034
0.0000663957
0.0000627321
-0.0000504044
0.0000406434
0.0001910592
0.0001775719
-0.0000608014
0.0001044813
0.0000016773
0.0000185538
0.0001438352
0.0000501980
-0.0000394395
0.0000949643
0.0000254736
0.0001565097
0.0000196896
-0.0000708709
0.0000637081
0.0001888323
0.0001321182
-0.0000455643
-0.0000381534
-0.0000169336
0.0002359173
-0.0000376879
0.0002262636
-0.0000549171
0.0002495367
0.0000486671
-0.0000213655
0.0005120206
-0.0000693525
-0.0000076682
0.0000127300
0.0000100964
0.0000116546
-0.0000167283
0.0000476363
0.0004004415
0.0002827751
0.0000114405
-0.0000483678
0.0000639869
0.0000558045
0.0000052092
0.0001173483
-0.0000617267
-0.0000312889
0.0000565520
0.0004018879
-0.0000623469
-0.0000107934
-0.0000259354
0.0004774857
0.0000371007
0.0001406663
0.0000071322
-0.0000166447
-0.0000989255
0.0000291469
0.0000004787
0.0000335536
-0.0000090105
-0.0000138162
-0.0000433744
-0.0000177531
-0.0000162122
-0.0000834385
-0.0000315274
-0.0000104588
0.0006270984
0.0000063833
0.0003686790
0.0008323738
0.0002058873
0.0001378287
-0.0000806082
-0.0000224701
0.0001584257
-0.0000514398
-0.0000439518
-0.0000223414
-0.0000199960
0.0001089930
0.0003947740
-0.0000117807
0.0000029215
-0.0000526980
0.0001649935
-0.0000059286
-0.0000822198
0.0001089229
-0.0000911678
0.0000978679
-0.0000338705
0.0003706212
0.0001012390
0.0000032348
0.0001830892
0.0001382073
0.0000016384
0.0002864050
0.0000672995
-0.0000730776
0.0000740971
0.0000945571
-0.0000378174
-0.0000019096
0.0000890411
0.0000134871
0.0000220440
0.0001345599
0.0000956158
-0.0000340721
0.0000626769
0.0002374221
0.0004587753
-0.0000174269
-0.0000852411
0.0000161491
0.0001099111
0.0000308663
-0.0000811959
0.0000053824
-0.0000371976
-0.0000356490
0.0001094388
-0.0000106826
0.0001061443
0.0000926535
0.0000645115
0.0000347681
-0.0000156697
0.0000508051
0.0005641755
-0.0000248805
-0.0000902627
0.0001418431
0.0000046338
-0.0000262702
-0.0000654644
0.0000126853
-0.0000133089
0.0001717447
-0.0000189000
-0.0000043748
0.0001638506
0.0001794058
-0.0000855468
-0.0000285337
-0.0000119400
0.0001115094
-0.0000784345
0.0003406749
-0.0000190151
0.0002627615
0.0001194223
-0.0000712098
0.0000198261
-0.0000190175
-0.0000090453
-0.0000591663
-0.0000225680
0.0000718131
0.0000885236
0.0002691220
0.0001291743
-0.0000841235
-0.0000508165
-0.0000312498
0.0000616690
0.0000948511
0.0000314478
0.0000909000
0.0003379234
-0.0000376665
-0.0000488491
-0.0000036812
0.0000239162
0.0000050875
0.0000079396
-0.0000885662
-0.0001010763
0.0000754372
0.0001677925
-0.0000478172
-0.0000229942
0.0000911012
0.0000248225
0.0000479806
0.0000570663
0.0002071879
-0.0000488152
-0.0001049388
0.0000818849
-0.0000792590
-0.0000824746
-0.0000258215
-0.0000126423
0.0000618231
0.0001158581
-0.0000203616
-0.0000557000
0.0000107342
0.0000235363
0.0001369853
-0.0000802138
-0.0000091170
0.0000483627
0.0000815943
0.0000375472
-0.0000790867
-0.0000347107
-0.0000057509
0.0001123982
-0.0000251246
0.0000398033
-0.0000460366
0.0001038686
0.0000697947
0.0000806755
-0.0000514922
-0.0000264775
-0.0000884655
0.0001442840
-0.0000686120
-0.0000859042
-0.0000850755
0.0000166307
0.0000414463
0.0000414849
0.0001609346
-0.0000504016
0.0000106093
0.0003110443
0.0000604079
-0.0000372722
-0.0000544296
0.0001049812
-0.0000410779
0.0001612317
0.0001011335
-0.0000347895
-0.0000393802
0.0000190086
0.0004085190
0.0005041214
0.0000064716
0.0001881245
0.0000685969
-0.0000198847
0.0000309733
0.0000525372
-0.0000296365
-0.0000388445
0.0000905062
-0.0000329638
-0.0000354358
0.0001447008
-0.0000676284
-0.0000753218
-0.0000388055
-0.0000704336
-0.0000008770
-0.0000383102
0.0000287021
0.0002857733
-0.0000415754
-0.0000786714
0.0001586408
-0.0000032528
-0.0000311687
0.0000305607
0.0000386168
0.0001555167
-0.0000677327
0.0001686871
0.0003250337
0.0005582818
-0.0000277976
-0.0000369003
-0.0000619817
0.0000886499
0.0000407537
-0.0000342105
-0.0000580845
0.0002696410
-0.0000490914
-0.0000551010
-0.0000616462
0.0000382623
0.0001284729
0.0000204640
0.0000020175
0.0001943540
-0.0000218447
0.0000434696
-0.0000514201
-0.0001048616
0.0000117931
0.0000879032
0.0000592375
-0.0000661958
-0.0000512690
0.0005348195
0.0000495580
0.0001034624
0.0000555298
0.0000295780
0.0002302271
0.0000040481
0.0001334629
0.0000275783
0.0001986191
0.0000870061
0.0000305938
-0.0000929827
-0.0000921922
0.0001746699
0.0001067096
0.0001757323
-0.0000248314
0.0001668801
0.0000165800
-0.0000252243
-0.0000135708
-0.0000246591
0.0000591805
0.0000175536
0.0000833604
-0.0000097288
0.0000336181
-0.0000979530
0.0000588462
-0.0000070044
0.0001402718
0.0000296900
0.0001889288
-0.0000229531
0.0000263719
0.0000204319
-0.0000318494
0.0001381724
-0.0000166680
0.0000073546
-0.0000487199
-0.0000790415
0.0000091568
0.0001111099
0.0001862084
-0.0000631892
0.0000222177
0.0001279127
0.0000034184
0.0000279003
0.0000389975
0.0002305484
0.0000414455
-0.0000251490
0.0001964882
-0.0000201231
-0.0000769443
0.0002304726
-0.0000477538
-0.0000397299
-0.0000354399
-0.0000256238
0.0000470972
0.0000403811
-0.0000109465
-0.0000211563
-0.0000129251
0.0001035804
-0.0000614447
0.0001648100
-0.0000302295
0.0001641951
-0.0000495088
-0.0000428016
0.0000383540
0.0000161346
0.0005721284
-0.0000543191
0.0000431696
0.0002488587
0.0002269003
-0.0000302906
-0.0000514540
-0.0000740313
0.0000105142
0.0000026264
0.0003827276
-0.0000227096
0.0000037066
-0.0000599172
-0.0000454412
0.0001164705
0.0002798197
0.0001133168
0.0002302991
0.0000388445
-0.0000349097
-0.0000254536
-0.0000758509
0.0001048473
0.0000370241
-0.0000815018
-0.0000561029
0.0003581608
0.0001900080
0.0000266897
0.0000545348
0.0001119217
0.0003645774
0.0000332704
0.0002131995
-0.0000472913
-0.0000244646
-0.0000381455
-0.0000413867
0.0000083966
-0.0000899508
-0.0000336981
0.0000396483
0.0001278540
0.0000919619
0.0001929581
-0.0000752554
0.0000337821
0.0000185446
0.0000007832
0.0000196982
0.0000147596
-0.0000650794
-0.0000175271
-0.0000625228
0.0000353970
-0.0000026922
-0.0000030289
-0.0000417831
-0.0000576924
0.0000627986
0.0004789215
-0.0000137323
0.0002670923
-0.0000174759
-0.0000175303
0.0001686116
0.0001141869
0.0002316480
-0.0000518754
0.0000479343
0.0000008773
0.0000358205
0.0000186033
0.0000703709
0.0001387907
0.0003250606
0.0000864914
0.0000013659
-0.0000199115
0.0001241348
0.0002362006
0.0001589532
0.0000169902
0.0002910919
0.0000161863
0.0001278044
-0.0000102719
0.0000056459
0.0002576726
0.0000353584
0.0000133926
-0.0000435312
-0.0000275447
0.0000796849
0.0001197802
0.0004778987
-0.0000211843
-0.0000431350
-0.0000801554
-0.0000618254
-0.0000274330
0.0001304989
-0.0000546840
-0.0000730921
0.0000387163
-0.0000403983
0.0002425233
0.0000804402
-0.0000307142
0.0001142492
0.0000648970
0.0001635499
0.0001565081
-0.0000209833
-0.0000601909
0.0003689355
-0.0000291612
0.0000855994
0.0000213524
0.0001324018
-0.0000724391
-0.0000087582
-0.0000169883
0.0001072838
0.0002832230
-0.0000384903
-0.0000768775
0.0001188634
0.0000280884
0.0000221278
0.0000316157
-0.0000388206
0.0000483927
0.0000208503
0.0000612662
0.0000058478
0.0001136012
0.0000109496
0.0002876759
-0.0000692141
-0.0000109606
-0.0000293877
0.0001443610
-0.0000612587
0.0001632657
0.0000250953
-0.0000027621
-0.0000122885
0.0000151763
0.0000394293
-0.0000030217
0.0004173576
0.0000712436
-0.0000205581
0.0005473599
0.0000900175
-0.0000863273
-0.0000210956
-0.0000765350
0.0001855600
-0.0000002991
0.0001412565
0.0000554817
0.0000662900
0.0001287494
-0.0000372245
-0.0000419135
0.0000231884
0.0000829979
-0.0000216239
0.0000576319
-0.0000970529
-0.0000151465
0.0000868569
0.0000046027
0.0001007054
-0.0000262803
0.0002902999
-0.0000805069
-0.0000263086
0.0000627041
0.0000186151
0.0001500126
0.0000360653
0.0000840048
0.0000672357
-0.0000489845
0.0001927298
0.0000094005
-0.0000768517
0.0001071239
0.0000085682
-0.0000720355
0.0000082788
-0.0000189234
0.0000488483
0.0000472914
0.0002141058
0.0001465347
-0.0000521156
-0.0000130735
-0.0000893798
0.0006394763
0.0000157394
-0.0000568516
-0.0000001350
0.0000185539
0.0000267826
0.0000178394
0.0001679673
-0.0000778498
0.0002238224
-0.0000049361
0.0002441338
-0.0000745082
0.0002358054
0.0000499739
0.0001327931
0.0001454487
0.0001193071
-0.0000260366
-0.0000519592
0.0000304735
0.0000980520
-0.0000071247
0.0001166944
-0.0000442922
0.0000814580
-0.0000300157
0.0000063937
-0.0000453606
-0.0000178516
0.0000060822
-0.0000800422
0.0000329725
0.0004737927
-0.0000372289
-0.0000222330
-0.0000747479
0.0000131461
-0.0000544009
-0.0000111031
0.0000984205
0.0001207177
0.0001963672
0.0001648985
0.0002067580
-0.0000025278
-0.0000480358
-0.0000721621
-0.0000985759
-0.0000303330
-0.0000463225
-0.0000775332
0.0000238397
-0.0000587708
0.0000350375
0.0002934339
0.0000334937
-0.0000264236
-0.0000204508
-0.0000193547
0.0000321922
-0.0000788354
-0.0000778212
-0.0000334607
0.0000746047
-0.0000584577
0.0001549243
0.0000384788
0.0002590607
0.0001853129
0.0002928594
-0.0000208239
-0.0000593925
0.0000419091
0.0000799188
0.0000309043
-0.0000291988
0.0000715875
-0.0000967332
0.0000031276
-0.0000410942
0.0000157256
0.0005258343
-0.0000736268
0.0000602899
-0.0000153116
0.0001589195
0.0001107255
0.0000826756
-0.0000950712
0.0001352473
-0.0000261624
-0.0000661411
0.0000363737
0.0000674320
0.0004655993
0.0000010218
0.0003876152
0.0000023014
0.0000875130
-0.0000235881
0.0001830089
-0.0000665020
0.0000637813
0.0000930239
0.0000677735
-0.0000467333
0.0001005446
-0.0000092061
0.0000285962
0.0000762886
0.0001938389
0.0000526653
-0.0000782576
-0.0000044995
0.0000105726
0.0000721079
0.0000462611
-0.0000100142
0.0000119272
-0.0000407785
0.0000174372
0.0000136453
-0.0000146052
0.0000092829
-0.0000361037
-0.0000232884
-0.0000314652
0.0000420744
0.0000578021
0.0002708787
-0.0000186099
-0.0000591403
0.0000315205
0.0000456208
0.0000687842
-0.0000494869
-0.0000824260
-0.0000572188
0.0001404733
-0.0000588161
0.0001276407
0.0001952745
-0.0000744626
0.0000047006
-0.0000173203
0.0001641745
0.0000574268
0.0000919359
-0.0000642832
0.0002522436
-0.0000172307
-0.0000928422
-0.0000517821
0.0000173203
0.0000333395
-0.0000466368
-0.0000249179
0.0001729654
0.0000017258
-0.0000472403
-0.0000300651
0.0001124463
0.0001244509
-0.0000848559
0.0000436929
0.0002438420
0.0002249415
-0.0000977551
-0.0000496944
-0.0000082146
0.0002879296
0.0003211362
0.0000264544
0.0000060691
-0.0000219610
0.0001406519
0.0000529867
-0.0000412027
-0.0000915527
0.0000222563
0.0001218039
-0.0000752235
-0.0000378716
0.0000955690
-0.0000628098
-0.0000472154
0.0001771906
-0.0000669867
0.0001251592
-0.0000053610
0.0000605557
0.0001620337
0.0001001792
-0.0000986530
-0.0000444555
-0.0000872554
0.0000593134
-0.0000901277
0.0001758675
-0.0000662162
-0.0000678446
0.0001882883
0.0000018642
0.0005530747
0.0000254927
0.0000083120
-0.0000599529
0.0000812665
-0.0000485277
-0.0000143105
-0.0000109233
0.0000363449
-0.0000542027
0.0000437652
0.0001347637
-0.0000309553
-0.0000211226
0.0003682314
0.0000082301
0.0000613321
0.0001272719
-0.0000612517
-0.0000541611
0.0000388254
0.0000143039
0.0000323403
-0.0000580776
0.0001616470
-0.0000084052
-0.0000465892
-0.0000605666
0.0000117313
-0.0000772262
-0.0000167942
0.0002374569
0.0000523553
0.0000020534
0.0000174532
-0.0000092420
0.0001073661
0.0002081625
-0.0000799164
0.0000442145
-0.0000226472
0.0000810854
-0.0000449459
0.0000523204
0.0001552631
0.0001968780
0.0001795210
0.0001406896
0.0001812937
0.0001287989
-0.0000613117
0.0000907834
0.0000280661
0.0001530536
0.0001590786
-0.0000492871
-0.0000567310
0.0000700490
0.0000326310
0.0000311791
0.0000840701
0.0000526160
0.0001800229
-0.0000603084
0.0002305700
-0.0000323157
-0.0000447217
-0.0000463560
-0.0000549196
-0.0000016296
-0.0000368975
-0.0000232692
0.0000322518
0.0000193232
0.0002892648
0.0001275137
-0.0000256738
0.0002593195
0.0001187809
0.0001020480
-0.0001088059
0.0001253277
0.0000395098
0.0000717330
0.0005172069
-0.0000324104
-0.0000128182
0.0001050605
0.0001441671
-0.0000677244
-0.0000415906
-0.0000392419
0.0002979781
0.0001255584
0.0001511120
-0.0000345416
0.0001435203
0.0001034460
-0.0000884968
0.0000827614
0.0005051023
-0.0000465118
-0.0000470069
0.0000569234
-0.0000482138
0.0000195174
-0.0000358764
0.0000307839
-0.0000354302
0.0002437544
0.0000129227
0.0002387084
0.0002796736
-0.0000276551
-0.0000405744
0.0001525667
0.0002077340
0.0000060773
0.0000725990
-0.0000708084
0.0000802546
0.0000423535
0.0000700821
0.0002779167
-0.0000086880
0.0000366617
-0.0000345354
0.0001234940
-0.0000562041
0.0000260834
0.0001111909
-0.0000478584
0.0002240215
0.0002654543
0.0001375783
0.0000720206
0.0000516538
-0.0000086344
0.0000401557
-0.0000453886
-0.0000997688
0.0002049714
-0.0000574275
-0.0000669809
0.0000419753
0.0000368677
-0.0000644534
0.0003390007
0.0003250549
-0.0000779731
0.0001452966
0.0000777932
0.0000247811
-0.0000458244
-0.0000513627
0.0001694246
-0.0000114869
0.0000252683
0.0000321625
0.0000440516
0.0001887636
0.0000609656
-0.0000647452
0.0001335170
0.0003891504
0.0000863723
-0.0000236648
0.0000134332
0.0000073201
0.0000260895
-0.0000314930
0.0001993449
-0.0000446342
-0.0000597277
-0.0000897198
0.0000644968
-0.0000630666
0.0000738266
0.0000925344
0.0001778534
0.0001628426
0.0000477744
0.0000601963
0.0000988814
0.0000847794
-0.0000843121
-0.0000026122
-0.0000776338
-0.0000509855
-0.0000639552
0.0000132836
0.0001538411
-0.0000381828
-0.0000333315
-0.0000822410
0.0000429896
0.0002456587
0.0000589853
0.0001189835
0.0004922745
-0.0000032769
-0.0000027882
-0.0000690082
-0.0000235158
-0.0000353375
-0.0000506162
-0.0000297098
-0.0000390547
0.0001865914
-0.0000862519
-0.0000152152
0.0000396476
-0.0000006112
0.0000032660
0.0000257823
-0.0000937332
0.0000452215
-0.0000707618
0.0003814566
-0.0000913866
-0.0000400784
-0.0000099366
-0.0000628477
0.0001248572
-0.0000609540
-0.0000052425
0.0001239399
0.0000007320
-0.0000383331
-0.0000507591
-0.0000036409
0.0000428900
-0.0000587367
-0.0000568868
-0.0001037778
-0.0000562193
0.0002848944
0.0001208445
0.0000799354
0.0000801460
0.0004089667
-0.0000456126
0.0002188323
0.0003325960
0.0000733814
-0.0000899096
-0.0000392154
0.0000240101
-0.0000365036
0.0000027870
-0.0000085873
0.0000198812
0.0000257028
-0.0000355354
-0.0000139877
0.0000851893
0.0000923802
-0.0000153592
-0.0000607464
0.0000010463
-0.0000716991
0.0001564117
0.0000609372
-0.0000846124
0.0000810494
0.0000510147
-0.0000066703
-0.0000849649
0.0000252730
0.0002444832
0.0000884804
0.0000263410
-0.0000092223
0.0000756037
0.0002998991
-0.0001007050
0.0003521315
-0.0000563995
0.0000314238
0.0000556028
0.0000115613
0.0000132052
-0.0000381775
-0.0000218784
-0.0000556884
-0.0000316067
-0.0000063315
0.0002701107
-0.0000647870
0.0001433973
0.0001265637
-0.0000204642
0.0001388441
0.0000108601
-0.0000782686
-0.0000152983
0.0003153531
0.0000101111
0.0000834525
-0.0000827378
0.0000857268
0.0003470809
0.0000897397
0.0000005835
-0.0000514627
-0.0000106260
0.0000189061
0.0000421535
-0.0000687929
0.0000179395
0.0000284265
0.0000204447
-0.0000751071
0.0000563275
-0.0000705245
0.0000242579
0.0000871114
0.0000148826
0.0000619103
0.0000186130
0.0001222724
0.0000199534
0.0000578430
0.0000726211
0.0001037087
0.0000441960
0.0001658101
-0.0000296790
0.0001455183
0.0000548445
0.0002484098
0.0002786805
0.0002292680
-0.0000674653
0.0001312776
-0.0000165886
0.0001482204
-0.0000359165
0.0001073069
-0.0001003140
-0.0000501959
-0.0000365249
0.0000122357
0.0000199147
-0.0000838757
-0.0000243952
-0.0000244575
0.0002155360
-0.0000341293
-0.0000230639
-0.0000843666
0.0001037631
0.0001120755
0.0002386901
-0.0000658865
0.0001164864
-0.0000660225
0.0000318491
-0.0000025003
-0.0000503457
-0.0000085269
-0.0000494060
0.0001826734
0.0000040434
0.0000553957
0.0001272080
-0.0000227432
0.0000287269
0.0001307337
0.0003945265
-0.0000344859
0.0005191942
-0.0000619091
0.0001427102
0.0000351043
-0.0000349639
0.0000198992
0.0001002602
0.0000701211
0.0002095252
-0.0000078232
0.0000743968
-0.0000589192
-0.0000729090
0.0003586045
0.0003404218
0.0000070871
-0.0000729683
-0.0000127485
-0.0000804887
0.0000376840
0.0000595194
0.0002279388
0.0001786872
0.0000260933
-0.0000007144
-0.0000200529
-0.0000752290
0.0000057045
0.0000098592
-0.0000440422
0.0002050253
-0.0000373038
-0.0000235697
-0.0000356279
0.0001088359
0.0000730476
-0.0000096951
0.0000167206
-0.0000010055
-0.0000776778
0.0000314163
0.0000495071
0.0001620337
-0.0001002418
0.0000278787
0.0002031356
0.0001714903
0.0000793974
-0.0000256424
0.0000176701
0.0000352462
0.0000702453
-0.0000472061
-0.0000481584
0.0000519949
0.0000198636
-0.0000727741
-0.0000561790
0.0000043784
0.0000104550
0.0000253066
0.0000609577
-0.0000337254
0.0002536068
-0.0000358268
0.0001227738
0.0000196760
-0.0000603107
0.0000415020
0.0001459874
-0.0000039658
-0.0000757778
0.0000236126
0.0001447701
-0.0000543340
0.0002384878
-0.0000739733
0.0000526486
0.0001733068
0.0000932878
-0.0000285994
0.0000320911
-0.0000658542
0.0001690491
0.0000336119
0.0000647959
-0.0000534221
-0.0000117731
0.0001098216
0.0000070398
0.0003496856
0.0000535140
0.0000176654
0.0000448752
-0.0000410606
0.0000295415
-0.0000280028
0.0000516114
0.0000568845
-0.0000438844
0.0000198707
0.0000474637
0.0003720574
-0.0000079350
0.0001733644
-0.0000566622
-0.0000383227
0.0001430266
-0.0000496389
0.0001258551
0.0000172935
-0.0000275594
0.0000928228
-0.0000134332
-0.0000641367
0.0000730657
-0.0000502270
-0.0000455632
-0.0000913660
0.0000092335
-0.0000454660
-0.0000268742
0.0000343706
-0.0000353931
0.0000271778
0.0000842638
0.0000548681
-0.0000597198
-0.0000483045
0.0000385916
0.0000778376
0.0000575580
-0.0000578659
0.0003707450
-0.0000521415
0.0003143048
-0.0000781449
-0.0000294819
0.0000489361
0.0000799892
0.0000299195
-0.0000326114
-0.0000158032
0.0000622307
-0.0000859241
0.0000734065
0.0000650007
0.0000021011
0.0000266010
-0.0000450753
0.0000475405
-0.0000481593
-0.0000361020
-0.0000821003
-0.0000195621
-0.0000222851
0.0000374649
0.0000699778
0.0001129637
-0.0000473082
0.0000029706
-0.0000103607
0.0001124547
0.0000960858
0.0001228225
-0.0000686831
0.0001175312
0.0001325096
-0.0000584429
0.0000517046
-0.0000522590
-0.0000269494
0.0000185994
0.0000152892
-0.0000617259
0.0003154209
-0.0000243693
-0.0000252610
0.0004905100
0.0002961248
0.0000517098
0.0000328773
0.0000032211
0.0000335695
0.0000683417
0.0002716571
0.0001142122
-0.0000005482
0.0001214505
0.0002440204
-0.0000186408
0.0000659224
0.0002202972
-0.0000560364
0.0005834870
-0.0000332003
-0.0000223718
0.0000618039
0.0000434448
0.0000082068
-0.0000269703
0.0001404237
-0.0000538414
0.0000056321
0.0000425782
0.0000935094
0.0001986628
0.0000952124
-0.0000774629
-0.0000402155
0.0000091839
0.0000297268
0.0000076400
-0.0000338863
0.0001251879
0.0003052096
0.0000392779
-0.0000582194
0.0001794993
0.0000949163
0.0001734414
0.0000221561
0.0000543517
0.0002002235
-0.0000181654
0.0000270225
0.0000873921
0.0001079210
0.0000112663
0.0000169388
0.0000451289
-0.0000338081
-0.0000517787
0.0000503107
0.0000923170
0.0002068303
0.0000668620
0.0000679367
-0.0000214107
0.0002576940
0.0002774967
-0.0000748182
-0.0000208318
0.0000125190
-0.0000424870
0.0000303199
0.0001263641
-0.0000541802
0.0001359437
0.0000188038
-0.0000390912
0.0000631218
-0.0000529919
-0.0000459694
0.0000658354
0.0000152923
0.0000617585
0.0001212424
0.0000039166
0.0000229268
0.0000226527
0.0000273661
-0.0000369032
0.0000918264
-0.0000805945
0.0000172041
-0.0000204452
-0.0000357878
-0.0000762661
0.0000130476
-0.0000711086
-0.0000844307
0.0001777007
0.0000325037
0.0000235081
-0.0000455574
-0.0000223915
-0.0000759010
0.0002362597
0.0000703558
0.0003011025
-0.0000610574
0.0003125300
0.0000675124
-0.0000510516
-0.0000053522
-0.0000194305
0.0003694993
-0.0000155093
0.0000043185
-0.0000364174
0.0000339031
0.0000773640
0.0000456390
-0.0000787731
0.0001920489
-0.0000159700
-0.0000224304
-0.0000827005
-0.0000474271
0.0003701132
0.0000147583
-0.0000301383
-0.0000091012
-0.0000431813
0.0000619792
0.0001727847
-0.0000506143
0.0001706587
-0.0000844038
0.0001263187
-0.0000835903
0.0002257315
0.0000954628
0.0000598553
0.0000494379
-0.0000671493
0.0000083558
0.0000777810
-0.0000299850
0.0000549202
-0.0000061734
-0.0000299411
0.0000189868
-0.0000503166
0.0000058354
-0.0000806893
0.0000033031
0.0001121714
-0.0000577455
0.0003781832
0.0002413544
0.0002882689
-0.0000296042
-0.0000201311
-0.0000084227
0.0000185018
0.0000120586
0.0006435297
0.0006412928
0.0000254764
-0.0000547144
0.0000524631
-0.0000907453
-0.0000467974
-0.0000203576
-0.0000318829
-0.0000131404
0.0001056738
0.0002002108
0.0002677514
0.0001309197
-0.0000633609
-0.0000402752
0.0000815935
-0.0000226427
0.0000885257
-0.0000849744
-0.0000069123
0.0003440422
0.0001343054
0.0001495836
0.0000704702
-0.0000329265
-0.0000226055
0.0002410029
0.0000134687
0.0001829734
-0.0000247177
0.0001533907
-0.0000263404
-0.0000435065
0.0002497795
0.0004286881
0.0001052794
0.0002176966
-0.0000796814
0.0007672308
-0.0000408303
0.0000145548
-0.0000126466
0.0000571238
-0.0000547573
-0.0000222164
0.0002371002
0.0000379411
0.0002196951
0.0000048578
0.0005479816
0.0000271567
0.0000502253
-0.0000621473
0.0000237421
0.0000073109
-0.0000012232
-0.0000034970
-0.0000008472
-0.0000020702
0.0002511401
-0.0000837061
-0.0000439349
-0.0000548010
-0.0000889072
-0.0000779873
0.0001242283
-0.0000253711
0.0000661556
-0.0000056223
0.0001669510
0.0000365960
0.0001188926
0.0001750623
-0.0000042719
0.0000069482
0.0000551465
0.0001707375
-0.0000867621
0.0000650759
0.0000076776
0.0001138911
0.0000029999
0.0000030196
0.0000440870
-0.0000277877
0.0000458740
0.0000146010
-0.0000157156
-0.0000006381
0.0000067852
0.0001006512
-0.0000124584
-0.0000293535
-0.0000546442
0.0001027306
0.0000040892
0.0001148074
0.0000548914
-0.0000277986
-0.0000569621
0.0000440559
0.0000479027
0.0000152726
-0.0000602950
-0.0000051920
0.0000244636
-0.0000305941
-0.0000745669
-0.0000253940
0.0001561708
0.0001256751
0.0003487903
-0.0000447062
0.0001855570
0.0001043866
0.0000912443
0.0000268401
0.0001099649
-0.0000781990
-0.0000038786
0.0000636598
0.0001275877
0.0000221760
0.0000038136
0.0000716495
0.0000697990
-0.0000711748
-0.0000273989
0.0001745963
-0.0000682211
-0.0000059808
-0.0000033003
0.0000201509
-0.0000249724
0.0001449864
-0.0000466127
0.0000874282
0.0000274679
0.0000788943
0.0001775227
-0.0000022542
-0.0000599188
-0.0000575332
0.0002489965
-0.0000426609
-0.0000275811
0.0003793299
0.0004152170
0.0003526117
0.0001348579
0.0000801090
-0.0000207824
-0.0000845693
0.0001141632
0.0000327464
0.0000238334
0.0000086470
0.0000489313
-0.0000189298
-0.0000530802
-0.0000228127
-0.0000391603
-0.0000266133
0.0001369271
0.0000342946
-0.0000050703
0.0000071890
0.0004730745
0.0001250261
0.0002746816
0.0000400217
0.0001330415
-0.0000655840
0.0007792390
0.0002876269
0.0000215753
-0.0000150837
0.0000257409
0.0000050663
0.0002058436
-0.0000833700
0.0000398665
-0.0000439766
0.0000901978
-0.0000598173
0.0000326484
0.0000569032
-0.0000363288
0.0009200563
-0.0000754659
0.0009265473
0.0000139728
0.0001878444
-0.0000732886
0.0000239915
-0.0000558877
0.0000488624
0.0000271453
-0.0000813648
-0.0000594889
0.0000475416
-0.0000499969
-0.0000380754
0.0000042141
0.0000446053
0.0003086603
0.0000468306
-0.0000380677
0.0000522150
0.0000012687
-0.0000413461
0.0004315157
0.0000553744
0.0000295792
0.0000033152
-0.0000564241
-0.0000584876
0.0000295722
-0.0000173563
-0.0000471598
0.0003422530
0.0000677631
-0.0000384436
0.0001006740
0.0003033761
0.0000502783
0.0003182240
-0.0000060417
-0.0000313434
-0.0000962174
-0.0000107268
-0.0000306336
-0.0000581058
0.0001787477
0.0000460456
0.0006101873
0.0001087159
-0.0000272093
0.0000254949
0.0000208544
0.0002511697
0.0001154730
0.0000439737
-0.0000470516
-0.0000340285
0.0002496446
-0.0000244019
0.0002278849
0.0000530660
-0.0000377489
0.0001178289
0.0000104502
0.0002174250
-0.0000079851
0.0001886526
0.0003000296
0.0000057041
-0.0000589967
0.0001363957
-0.0000955323
0.0001707125
-0.0000582931
-0.0000309185
0.0003307433
-0.0000298888
0.0000130015
0.0000248117
-0.0000261843
-0.0000547349
0.0000756236
-0.0000419358
0.0003211432
0.0000710466
0.0002862828
0.0001192531
-0.0000151028
-0.0000635720
0.0000133432
0.0000634761
-0.0000047348
0.0001099900
0.0000500696
0.0000447704
0.0001820426
-0.0000501537
-0.0001038952
-0.0000157513
-0.0000103153
-0.0000074259
-0.0000922580
-0.0000492513
0.0002073222
-0.0000764751
0.0000100217
0.0001783021
-0.0000171955
0.0000051828
0.0000051482
0.0000898047
0.0000217074
0.0000251761
0.0000110409
0.0000989329
-0.0000769895
0.0002809553
-0.0000033137
-0.0000193296
-0.0000013774
0.0000837470
-0.0000053891
0.0000249926
0.0000029186
0.0003218732
0.0000453776
0.0000066027
0.0002461723
0.0001370961
0.0000626921
-0.0000837853
-0.0001039648
0.0001504385
-0.0000065796
-0.0000486795
0.0002471450
0.0000136887
-0.0000407530
0.0000067968
0.0000323947
0.0000022233
0.0001169072
-0.0001052319
0.0000028538
0.0000605052
-0.0000709651
-0.0000450452
0.0000344912
0.0004393040
0.0003275047
-0.0000384046
0.0002491423
0.0001235546
0.0000317867
0.0000848760
-0.0000233013
0.0001112312
-0.0000358582
0.0000275553
-0.0000550833
-0.0000669307
-0.0000663474
-0.0000266210
-0.0000570309
0.0000707887
0.0000955034
-0.0000219423
0.0000777683
0.0002207228
-0.0000304447
-0.0000652362
0.0003125943
0.0003715138
-0.0000332082
-0.0000683409
0.0002743641
0.0000800725
-0.0000459476
0.0001843397
0.0003227964
-0.0000310040
0.0000858787
0.0000563073
0.0002082658
-0.0000197842
0.0000246867
-0.0000119233
0.0004964655
-0.0000203485
-0.0000649075
-0.0000852142
-0.0000331714
0.0003529619
0.0004142099
0.0002074239
0.0000122576
0.0001158546
0.0001191120
0.0001000915
0.0001409861
0.0000243779
-0.0000230656
0.0001145705
0.0004634777
-0.0000447884
-0.0000399918
0.0001560506
0.0001644035
0.0001215649
0.0001182095
0.0001505765
-0.0000024901
-0.0000300283
-0.0000267441
-0.0000030891
0.0002397996
0.0004928473
0.0002341660
-0.0000414144
0.0001802519
-0.0000829060
-0.0000326651
0.0001090955
-0.0000601665
-0.0000821400
0.0000178780
0.0001142384
0.0002638979
0.0000241176
0.0000331484
0.0000090515
0.0000548411
-0.0000888351
0.0000140072
-0.0000302475
-0.0000244563
0.0004856239
0.0000760308
-0.0000394933
0.0000210961
0.0000430153
-0.0000719045
-0.0000414717
0.0000276704
0.0000023624
0.0000860738
-0.0000191777
-0.0000655934
0.0001399557
0.0000123095
0.0000577083
-0.0000602379
0.0001379909
-0.0000175986
-0.0000021777
0.0001503244
0.0002201554
-0.0000262832
0.0002301102
0.0000133628
0.0000965098
0.0002904090
-0.0000460603
-0.0000179031
0.0002966684
0.0000403079
-0.0000270610
0.0000127903
0.0001062674
-0.0000669853
-0.0000175307
0.0000305419
-0.0000431373
0.0000044609
0.0000155107
-0.0000044354
-0.0000385467
-0.0001079070
0.0000925762
-0.0000656560
0.0001336137
0.0000441247
-0.0000098849
-0.0000497318
0.0001709473
-0.0000354484
0.0000367849
0.0001593644
0.0003949020
-0.0000139164
0.0001146376
-0.0000114388
0.0000420375
0.0001046436
0.0000448759
0.0000231856
-0.0000331194
0.0000865323
0.0001193609
-0.0000069369
0.0000622950
-0.0000203063
0.0002327968
0.0000255022
0.0001808522
0.0000320100
0.0001328077
-0.0000831281
0.0000395176
-0.0000552988
0.0002626295
-0.0000829314
0.0002660366
-0.0000493568
-0.0000282542
0.0000713097
-0.0000685804
0.0004797772
-0.0000116291
0.0001180642
0.0002824834
0.0000107296
-0.0000331456
-0.0000072356
0.0000902085
0.0001432565
0.0000063121
-0.0000206414
0.0000347908
0.0000107712
0.0000818917
-0.0000245175
-0.0000023232
0.0004404462
-0.0000274887
-0.0000364554
-0.0000104878
0.0003712558
0.0002339533
-0.0000624651
0.0002530731
-0.0000931797
0.0001320612
-0.0000237700
0.0000408574
0.0002321447
0.0000593103
0.0000126362
0.0000128034
0.0000107769
-0.0000621480
-0.0000174109
0.0001604698
0.0007089189
-0.0000868998
-0.0000271764
-0.0000016210
-0.0000573581
0.0000280948
-0.0000718449
0.0000436611
0.0000131240
0.0001868163
0.0001681498
0.0001095249
0.0000700879
0.0000409708
0.0000512667
-0.0000199497
-0.0000878014
-0.0000373545
-0.0000529626
0.0002388188
-0.0000124801
0.0002025294
0.0000915609
-0.0000511100
-0.0000267474
0.0001585978
0.0002276131
0.0000806428
-0.0000101912
-0.0000950138
0.0000201357
0.0000932448
-0.0000728692
0.0002852094
-0.0000191773
-0.0000724843
-0.0000772196
-0.0000173619
0.0000157244
-0.0000188048
-0.0000199488
-0.0000359741
0.0000522321
0.0002001125
-0.0000810245
0.0000438468
0.0000779507
0.0000284913
-0.0000709151
-0.0000303245
-0.0000095110
-0.0000416470
0.0000055106
-0.0000617938
0.0006156232
-0.0000396275
-0.0000236330
-0.0000719691
-0.0000199248
-0.0000558796
0.0001767637
-0.0000797791
-0.0000075280
0.0000359458
0.0000492997
0.0001680642
-0.0000715474
0.0000199390
0.0001353649
-0.0000369475
0.0001468263
-0.0000173983
0.0000854487
-0.0000247131
-0.0000421652
0.0000143487
-0.0000098311
-0.0000742632
0.0000212057
0.0000629106
-0.0000551838
0.0000022494
0.0004210957
0.0001002523
-0.0000408055
-0.0000251734
0.0002150027
-0.0000767311
0.0001278863
0.0000868131
0.0002001650
0.0000012958
0.0001585373
-0.0000288752
0.0000074625
0.0000307239
0.0003897832
0.0000233102
0.0001565500
-0.0000334372
-0.0000363932
0.0001878302
0.0000138706
0.0000694041
0.0000344518
0.0002281460
-0.0000058530
0.0001652046
0.0001017931
0.0002408703
-0.0000164503
-0.0000209328
-0.0000121740
-0.0000851788
0.0000018130
-0.0000136719
0.0001617094
-0.0000487741
0.0000285538
-0.0000093622
0.0001318467
0.0003186637
-0.0000660005
0.0000913943
0.0000622330
-0.0000163336
0.0000104816
0.0000132881
-0.0000721384
0.0002379794
-0.0000441949
-0.0000130548
0.0001471292
0.0000671044
0.0000149512
-0.0000304679
0.0000141369
0.0000529256
-0.0000863428
-0.0000486893
-0.0000283514
0.0001288237
0.0004500273
-0.0000564392
-0.0000018863
-0.0000046995
0.0000432250
-0.0000382036
0.0000050894
-0.0000800966
0.0001456405
-0.0000046507
0.0001127572
-0.0000036761
0.0001521857
0.0002426840
0.0001068297
0.0000263786
0.0000324580
0.0000395498
0.0000109117
0.0000029232
-0.0000406233
-0.0000131331
-0.0000954745
-0.0000394389
0.0002158281
-0.0000750502
-0.0000708002
0.0000762866
0.0002133074
0.0000715417
0.0000821843
-0.0000123368
0.0000109889
-0.0000280550
0.0000796422
0.0000244437
0.0001209844
0.0002772622
0.0000200879
-0.0000214979
0.0002176241
-0.0000851247
0.0000604921
-0.0000123873
0.0000523556
0.0000328933
0.0003505924
-0.0000268315
0.0000095552
0.0001826165
0.0001358308
0.0002790716
-0.0000453142
-0.0000437974
-0.0000743295
-0.0000746675
-0.0000840167
0.0003266641
0.0000789195
0.0003027644
-0.0000137304
-0.0000568092
0.0000491743
-0.0000084362
-0.0000207709
0.0000432458
-0.0000225439
0.0005230572
-0.0000317296
0.0000806572
0.0003766552
-0.0000079638
0.0000771801
0.0000022445
-0.0000268861
0.0000141568
-0.0000674397
0.0000023887
0.0000048009
0.0000294049
-0.0000212856
0.0000907402
-0.0000829512
0.0000323947
0.0002380439
-0.0000529954
-0.0000271571
-0.0000209848
-0.0000340557
0.0001565246
0.0000517877
-0.0000740697
0.0001756720
0.0000656762
-0.0000028351
-0.0000419794
0.0001869518
-0.0000831728
0.0000416191
-0.0000822813
0.0001133264
-0.0000806985
0.0001264206
0.0002169989
-0.0000477757
-0.0000114832
-0.0000729569
0.0001668048
-0.0000118975
0.0003702666
0.0000019895
0.0000525175
-0.0001049073
0.0002970457
-0.0000247785
-0.0000574428
-0.0000428412
-0.0000574144
0.0000391206
0.0000904213
0.0000755697
0.0000385702
0.0000874475
0.0000617203
-0.0000322962
0.0000443114
0.0000153568
0.0000141753
0.0002052579
-0.0000039593
0.0001063628
0.0003577342
-0.0000036840
0.0003344983
-0.0000278108
-0.0000027487
-0.0000692976
-0.0000145747
-0.0000187668
0.0000923423
0.0000115433
0.0000311482
0.0000250551
0.0002434300
0.0001412050
0.0002041046
-0.0000953278
-0.0000255435
0.0001232821
0.0000529542
-0.0000008625
0.0004092478
-0.0000008038
0.0001448872
0.0003295288
-0.0000106358
-0.0000187335
-0.0000899525
0.0001727063
0.0000492559
-0.0000206535
0.0000132376
-0.0000247262
0.0001199903
0.0000768883
0.0000324073
-0.0000566283
0.0000224626
0.0000558477
-0.0000326641
-0.0000202131
-0.0000427822
-0.0000052147
0.0000492372
-0.0000895072
0.0001063307
-0.0000960076
0.0002803604
0.0001533187
-0.0000823557
-0.0000307380
-0.0000770617
0.0000048601
0.0001477368
0.0000335033
0.0000312816
-0.0000014287
-0.0000222451
-0.0000284288
0.0000215294
0.0000600412
0.0002278999
0.0000132465
0.0001063134
-0.0000247104
0.0000047317
0.0000882064
0.0000140169
-0.0000283912
0.0001483608
0.0002067802
0.0001237820
0.0000937014
-0.0000327527
-0.0000517476
-0.0000701803
-0.0001001103
0.0000835652
0.0000417155
0.0000566066
-0.0000125426
-0.0000504869
-0.0000151897
0.0001526246
-0.0000274159
0.0004854756
0.0002542097
-0.0000021905
-0.0000082824
0.0002423796
-0.0000076674
-0.0000908501
0.0000407563
-0.0000675445
0.0005742931
-0.0000064676
0.0001450409
-0.0000361584
0.0003164490
0.0000946354
0.0000335881
0.0006203506
-0.0000458741
0.0000040430
-0.0000550234
0.0000736983
0.0004016499
-0.0000522308
-0.0000457847
-0.0000351888
0.0000415340
0.0000033512
0.0000770484
0.0000133617
0.0000512887
0.0000802883
-0.0000252262
-0.0000940968
0.0000664262
0.0000992413
0.0001403889
0.0003687578
0.0000032723
0.0003085773
-0.0000509428
-0.0000086361
-0.0000459140
0.0000549003
-0.0000248321
0.0000707641
-0.0000706362
0.0000119616
0.0001192822
0.0000658296
-0.0000543760
0.0001432349
0.0001435395
0.0001456771
0.0001952974
-0.0000205455
0.0000374980
-0.0000826891
0.0001367281
0.0001973386
0.0001052873
0.0000828937
-0.0000522708
-0.0000363714
0.0001310140
-0.0000756664
-0.0000109864
0.0000249361
-0.0000367411
-0.0000149115
0.0000032917
-0.0000186238
-0.0000361378
0.0000466669
0.0000935978
0.0000432590
0.0001400836
0.0004007841
-0.0000474296
0.0000153635
0.0000476737
0.0000163707
-0.0000677004
0.0001576489
0.0001586497
-0.0000603578
0.0004223768
0.0000646284
0.0000672252
0.0000527072
0.0000044238
0.0001682500
0.0000211800
-0.0000575221
-0.0000162836
0.0001138120
-0.0000678327
0.0000378812
-0.0000289089
0.0000115139
-0.0000668589
0.0002170802
-0.0000378092
-0.0000046865
0.0001583528
0.0004435361
0.0002467501
0.0003573367
-0.0000969436
0.0001138242
-0.0000557644
0.0000875818
-0.0000585898
0.0002444171
0.0000234168
-0.0000773446
0.0001208781
0.0002457609
0.0001567793
0.0001376214
0.0000612800
0.0000186740
0.0001122638
-0.0000910003
0.0002624866
0.0000487464
0.0000336192
-0.0000780502
-0.0000338925
0.0000632402
-0.0000729602
0.0000488623
0.0000582050
0.0001675774
-0.0000502832
0.0000438439
-0.0000751934
-0.0000297399
-0.0000648647
-0.0000125837
0.0000935298
0.0001040878
0.0000267674
-0.0000429604
0.0000577032
0.0000145035
0.0000307937
-0.0000663609
-0.0000186113
0.0003117657
0.0001986310
-0.0000279166
-0.0000320005
0.0000449109
-0.0000202463
0.0000205367
0.0000861657
0.0003379825
0.0000628348
0.0001895646
0.0001567209
-0.0000387433
-0.0000566689
-0.0000297562
0.0000052367
0.0000938264
0.0000294495
0.0000356583
0.0002878814
0.0000851594
-0.0000672781
0.0000030203
0.0000841074
-0.0000282810
0.0001758937
0.0001248755
0.0004502423
0.0001873303
-0.0000225219
-0.0000318299
-0.0000086135
-0.0000250350
0.0001833221
0.0000985130
0.0001326238
-0.0000652772
0.0002270712
0.0000495843
0.0000814657
0.0001207222
0.0000794579
0.0001914229
0.0002576589
0.0000735862
0.0000027608
0.0001915681
0.0000521588
0.0003814766
-0.0000337871
-0.0000223902
-0.0000418592
0.0000166443
-0.0000230415
0.0001159673
0.0001367706
0.0000453442
-0.0000348848
0.0000592961
-0.0000264204
0.0003519740
0.0003653165
0.0001505046
-0.0000016344
-0.0001084125
0.0000026572
-0.0000810112
0.0001550532
-0.0000334286
0.0000777010
0.0002994110
0.0000578338
0.0000085823
-0.0000698341
0.0003632212
0.0001988414
0.0003020255
0.0000089243
0.0000009980
0.0001011340
0.0000381014
0.0000445024
0.0000832776
-0.0000497732
-0.0000538149
0.0001708854
-0.0000192192
-0.0000219012
0.0000534920
-0.0000041535
0.0000300432
-0.0000245551
0.0001929822
0.0000968397
0.0001057035
0.0000592432
-0.0000135377
0.0000237338
0.0000231796
0.0000895945
0.0002106573
0.0000808686
0.0000523549
-0.0000464996
0.0001170906
0.0000307928
0.0000609235
-0.0000313350
-0.0000140166
-0.0000862485
0.0000729619
-0.0000845875
0.0000015536
0.0001197831
0.0001809374
-0.0000562556
0.0000474471
-0.0000246960
-0.0000130017
-0.0000088715
0.0000072431
0.0000456626
-0.0000048003
0.0001837090
0.0001758606
0.0001554805
-0.0000103308
-0.0000221799
0.0000896332
0.0000995092
0.0001741352
-0.0000690016
0.0000451199
0.0001726825
0.0001067432
0.0000511099
0.0000691680
0.0000132649
-0.0000518516
0.0000284830
0.0001276078
0.0002651000
0.0000926710
-0.0000653262
0.0000738357
0.0001426887
-0.0000632234
-0.0000095189
-0.0000581125
0.0008026369
0.0000172417
0.0000726014
-0.0000386287
-0.0000554824
-0.0000725143
0.0000499005
-0.0000443419
-0.0000925459
0.0000291349
0.0000471724
0.0003261985
0.0001027279
-0.0000219641
0.0000648654
-0.0000401621
-0.0000329773
-0.0000001775
-0.0000320624
0.0000691937
0.0001190711
0.0001311518
0.0003313284
0.0001416074
-0.0000541455
-0.0000186643
0.0000313411
-0.0000790708
0.0001395970
-0.0000543490
0.0000896290
0.0002216555
0.0000027790
0.0001472573
0.0000784214
-0.0000988182
0.0000118838
0.0002921008
0.0001965032
-0.0000756768
-0.0000189422
-0.0000550322
0.0000586660
0.0002467095
0.0001189128
0.0001501243
0.0000180714
0.0001722356
0.0000021281
0.0000071578
0.0002319201
-0.0000112779
-0.0000446657
-0.0000462760
0.0001570589
-0.0000407934
-0.0000527423
0.0000522486
0.0000039983
-0.0000320687
-0.0000240426
0.0003242246
0.0001183683
0.0000161871
0.0003070911
-0.0001012383
0.0000841212
-0.0000286070
0.0000958914
0.0002351562
-0.0000198204
0.0001949041
-0.0000708125
0.0000164135
0.0000501501
0.0001177757
0.0001373265
0.0000209481
-0.0000221651
0.0000467707
0.0000379734
-0.0000166437
-0.0000854128
0.0001662490
0.0000388260
0.0001115480
-0.0000264176
0.0000243968
0.0004324839
0.0001360311
-0.0000339768
0.0000877659
-0.0000067881
-0.0000706563
0.0000214271
-0.0000305743
0.0000321307
0.0001634813
0.0001313796
0.0003937292
-0.0000364834
0.0000115401
0.0000357124
-0.0000373471
0.0000091590
0.0000465114
0.0000357419
-0.0000362749
0.0001953381
0.0000524204
0.0003167320
0.0001056500
-0.0000877582
-0.0000478486
-0.0000019504
0.0000765905
0.0000865515
-0.0000825321
0.0001768078
0.0000244426
0.0002231323
0.0001626763
0.0000342640
0.0003188443
0.0000143794
-0.0000882432
-0.0000242174
0.0001074858
-0.0000029118
-0.0000775886
-0.0000331052
0.0000351037
0.0000071690
-0.0000210096
-0.0000019165
0.0003198959
0.0000200493
0.0001107600
0.0001952873
0.0000209088
0.0000122060
0.0000002699
0.0000925647
-0.0000130784
-0.0000260010
0.0000299182
-0.0000443852
0.0000031838
-0.0000145704
-0.0000458576
0.0002675198
-0.0000091700
0.0004760382
0.0000509439
0.0003037230
-0.0000382893
0.0000100080
-0.0000470975
-0.0000392047
-0.0000511194
-0.0000119190
-0.0000287353
0.0000844446
0.0000548904
0.0002243034
0.0000748832
-0.0000500906
-0.0000317119
0.0000493698
0.0000810424
-0.0000975293
0.0004037086
-0.0000710614
-0.0000659913
-0.0000672032
0.0000553338
0.0000668436
0.0004066263
-0.0000039946
0.0001868314
-0.0000332689
0.0001897276
0.0006531286
0.0001109071
-0.0000499134
0.0000048030
-0.0000135638
-0.0000190750
0.0000305001
-0.0000448117
0.0002366948
0.0000962207
0.0001804334
0.0000406629
0.0000478156
0.0005048573
0.0000437431
0.0001556827
0.0000606460
0.0002093557
-0.0000234847
-0.0000154576
-0.0000532907
0.0003002861
-0.0000239028
0.0000997775
0.0003352063
-0.0000211944
0.0001552749
0.0000876801
0.0001109371
0.0003073871
0.0000381078
-0.0000485259
-0.0000349466
-0.0000480511
-0.0000375754
0.0002672014
-0.0000917889
0.0000333500
0.0001944483
-0.0000503755
0.0001320623
-0.0000312462
0.0001225921
0.0000958153
0.0000851114
0.0001203423
-0.0000051217
0.0003950010
0.0001351936
0.0000951717
-0.0000035407
-0.0000199149
-0.0000189735
0.0001037447
-0.0000629122
0.0001020334
-0.0000361568
0.0003239880
0.0000392219
-0.0000471335
0.0001753488
-0.0000119011
-0.0000438767
-0.0001077573
0.0005024073
0.0001056593
-0.0000771772
0.0000271983
-0.0000402778
0.0007487322
0.0002294552
0.0002540935
0.0000879792
-0.0000150136
-0.0000385926
-0.0000098301
-0.0000583495
-0.0000383787
0.0001586360
-0.0000394423
-0.0000402877
0.0000153223
0.0001475047
-0.0000420395
0.0000128658
-0.0000235814
0.0000133090
-0.0000052366
0.0000316916
0.0000824096
0.0002688165
0.0002894694
-0.0000017396
-0.0001050278
0.0001225350
0.0000996758
-0.0000778647
0.0002402607
-0.0000169604
-0.0000525580
-0.0000589173
-0.0000096766
-0.0000025486
0.0000775734
0.0002108640
0.0001355567
-0.0000086833
0.0000656314
-0.0000717188
0.0001323464
-0.0000636392
-0.0000625805
-0.0000962277
0.0000558367
-0.0000546900
0.0000111910
0.0002261881
0.0001294394
0.0000357961
-0.0000283561
0.0000681568
0.0001265297
0.0000180324
-0.0000082984
0.0000041714
0.0001339359
-0.0000890849
-0.0001018965
0.0000627821
0.0002486572
-0.0000781144
0.0003456367
-0.0000023357
0.0000524655
0.0000457469
0.0000531599
0.0000534168
0.0001089524
0.0000035339
-0.0000284858
0.0000967637
-0.0000526044
-0.0000206387
0.0000050855
0.0000659864
-0.0000263477
-0.0000329618
-0.0000771419
0.0002433154
-0.0000325840
0.0000610799
-0.0000651662
0.0000754420
0.0000348327
0.0000767318
-0.0000714837
0.0000915504
-0.0000428564
0.0000391212
0.0001413453
0.0000323690
0.0001029665
-0.0000160527
0.0001737715
0.0001843818
0.0001475174
0.0002024312
0.0000138387
-0.0000740210
0.0002177967
0.0004531824
-0.0000305003
0.0001458484
-0.0000293700
0.0010927570
-0.0000838805
0.0000239133
-0.0000523395
0.0002372848
0.0000303121
0.0000955155
-0.0000062212
0.0000164024
-0.0000442143
-0.0000250926
-0.0000517438
-0.0000236151
0.0000430126
0.0004419438
-0.0000684060
0.0000298153
0.0000136102
-0.0000800214
0.0001116486
-0.0000240507
0.0000718811
0.0000162471
0.0000372422
-0.0000519435
0.0001000698
0.0000313169
-0.0000878432
-0.0000050472
-0.0000276079
0.0000844871
-0.0000552269
0.0000555012
-0.0000281755
0.0000569448
-0.0000403452
0.0003055227
0.0000168829
-0.0000023683
0.0004828750
0.0002110039
0.0000192807
0.0000220545
-0.0000690712
0.0002018346
0.0000739290
-0.0000013459
-0.0000133546
0.0000292304
0.0001284931
-0.0000215429
0.0000474403
-0.0000592699
0.0001118466
0.0000778547
0.0000222259
0.0000892066
0.0000075048
0.0001289619
0.0000314691
-0.0000558048
-0.0000354148
0.0000775892
0.0002100729
0.0001020832
0.0002286468
-0.0000222360
0.0001936063
0.0000801920
-0.0001006159
0.0000475265
-0.0000380526
-0.0000518110
-0.0000367788
-0.0000224770
0.0001322506
-0.0000839632
-0.0000131376
0.0000731632
0.0000586124
0.0000529251
0.0004377187
0.0006171631
0.0001778493
-0.0000861210
-0.0000119544
-0.0000663701
0.0003659454
-0.0000473427
-0.0000564933
-0.0000703556
-0.0000724822
0.0000131045
0.0000751896
-0.0000332378
0.0002554043
0.0000150994
-0.0000556164
-0.0000080527
-0.0000665573
0.0001136435
0.0001808872
-0.0000551036
-0.0000165619
0.0000249705
0.0000114355
-0.0000083745
0.0004067254
-0.0000372919
0.0000113433
-0.0000035834
0.0002702901
0.0000348452
-0.0000463647
-0.0001044523
0.0000050473
-0.0000816471
0.0000328219
0.0000417535
0.0000191458
-0.0000058672
0.0000790976
0.0005620675
-0.0000873254
0.0000340078
0.0000694824
-0.0000155425
-0.0000762676
0.0002818030
-0.0000379665
0.0000409266
0.0000011547
0.0002329964
0.0002102592
0.0000517761
0.0000242444
-0.0000719298
0.0001249137
0.0000391199
0.0002957393
0.0000315159
0.0000784741
-0.0000640407
0.0000681297
0.0000669561
-0.0000075037
0.0000111238
-0.0000079967
0.0002457904
-0.0000330617
0.0001012712
-0.0000536239
0.0000627109
-0.0000854382
0.0001520727
0.0000718811
0.0001699092
0.0000301243
0.0000098762
0.0000451210
0.0000528579
-0.0000593961
0.0000324028
0.0003502262
-0.0000417466
-0.0000701657
0.0000372014
0.0000280668
-0.0000804064
0.0000381878
0.0001132657
-0.0000137588
-0.0000303938
0.0000103070
-0.0000079122
0.0002005094
0.0000010846
0.0001560151
-0.0000645417
0.0003060350
0.0000416171
0.0000330906
0.0000149564
0.0002900584
0.0000439632
-0.0000416635
0.0000867479
0.0000128141
0.0001501993
-0.0000961816
-0.0000243928
-0.0000337413
0.0002512884
0.0000379390
0.0001689714
-0.0000624903
0.0001229741
0.0001016940
-0.0000755933
0.0000179122
0.0004095346
0.0001999712
-0.0000042970
0.0000562954
-0.0000846119
-0.0000242446
-0.0000007745
-0.0000606187
-0.0000796710
0.0001053516
0.0000096155
-0.0000192880
0.0002555374
-0.0000789409
0.0002099206
0.0001077396
0.0001596620
0.0000774563
-0.0000527194
-0.0000879708
-0.0000311306
0.0000532732
-0.0000487928
-0.0000977754
0.0000071338
-0.0000162293
0.0001277265
-0.0000058946
-0.0000442591
0.0000052218
-0.0000458432
-0.0000401272
-0.0000568699
-0.0000396251
-0.0000298873
-0.0000375627
0.0000191616
0.0000249065
0.0000035588
0.0000093269
0.0000078962
-0.0000564780
0.0000353740
0.0000528428
0.0000794837
0.0000563653
0.0002244845
-0.0000091091
0.0000324428
0.0000720068
-0.0000156759
-0.0000350115
-0.0000643276
-0.0000613650
-0.0000141601
-0.0000345024
0.0002268165
0.0000043379
0.0004126253
0.0000706574
-0.0000389441
-0.0000340474
0.0000584071
0.0001152555
0.0000574434
0.0000622771
0.0000391157
-0.0000684669
-0.0000824256
0.0000685160
0.0003331589
0.0000521585
0.0000211003
0.0001523319
0.0000207242
0.0007407534
-0.0000223120
-0.0000740454
0.0002085888
-0.0000947159
0.0000110065
-0.0000144687
-0.0000456658
-0.0000846831
-0.0000564727
0.0000775437
0.0000574690
0.0000933578
-0.0000701522
0.0002295987
0.0000563377
0.0000147846
0.0001862317
0.0000298873
-0.0000854268
0.0000976319
0.0000430129
0.0000162560
-0.0000442748
-0.0000511828
0.0002034474
-0.0000576891
0.0000779204
-0.0000445792
-0.0000084228
-0.0000394592
0.0000499226
0.0000678108
-0.0000331022
0.0003989257
0.0003402075
-0.0000883336
-0.0000454920
0.0000429236
0.0001476621
-0.0000674475
-0.0000055208
0.0000197296
0.0000950737
-0.0000033359
0.0000039265
0.0001062920
-0.0000736687
0.0000672997
-0.0000621007
0.0005201559
0.0001977484
-0.0000791199
-0.0000271654
0.0001133199
0.0001005111
-0.0000302742
0.0002246605
0.0002301762
-0.0000011338
0.0000313541
0.0000898645
0.0000232250
-0.0000061719
-0.0000825844
0.0002611656
-0.0000769348
-0.0000821481
-0.0000436954
0.0004515551
0.0001068202
-0.0000203210
0.0000975004
0.0001443897
-0.0000104079
-0.0000134143
0.0002915280
-0.0000780788
-0.0000039060
-0.0000857630
0.0001105405
-0.0000444183
-0.0000860088
0.0001022717
0.0002825363
-0.0000543305
0.0003606496
0.0000494233
-0.0000474861
0.0000633618
-0.0000348791
0.0003773498
-0.0000033684
0.0002590217
0.0001632646
0.0000111020
-0.0000112499
-0.0000016415
-0.0000131243
0.0000513469
-0.0000483592
-0.0000476746
0.0000413957
-0.0000797237
-0.0000113800
0.0001423000
-0.0000003363
-0.0000217089
0.0000722793
0.0000188706
0.0001358079
0.0000534562
-0.0000689519
0.0002646045
0.0004333281
0.0001038909
-0.0000022475
-0.0000024413
-0.0000044880
-0.0000444369
0.0000439229
-0.0000187782
-0.0000075160
-0.0000296174
0.0000752438
-0.0000281055
-0.0000503308
-0.0000234144
-0.0000742931
0.0001752953
0.0000314907
0.0002436516
-0.0000048954
0.0001616608
-0.0000050993
-0.0000035300
-0.0000246321
-0.0000197252
0.0000288887
-0.0000596651
0.0004368720
0.0001451435
0.0000082384
-0.0000764001
-0.0000476070
0.0000688900
0.0000043179
0.0000624913
-0.0000180442
0.0000822421
0.0001086458
0.0000081778
0.0000054622
0.0000230843
-0.0000408321
0.0001505544
-0.0000568692
0.0000891175
-0.0000600746
0.0001143300
0.0000441436
-0.0000463842
-0.0000161205
-0.0000735761
-0.0000303167
0.0000226199
-0.0000113325
0.0000179259
0.0000291213
-0.0000649303
0.0000089516
0.0001875360
0.0000856012
0.0002241951
-0.0000274535
-0.0000224890
0.0002528828
0.0002512843
-0.0000391660
0.0000597913
-0.0000294646
0.0001027702
0.0000515812
0.0000403610
0.0000342311
0.0000164525
-0.0000383653
-0.0000667755
-0.0000783332
-0.0000457929
0.0000304229
0.0001456043
0.0002095521
0.0000237047
0.0001501206
-0.0000487725
0.0000316336
-0.0000252952
0.0003501728
-0.0000699814
0.0003826542
-0.0000810361
-0.0000917882
-0.0000769932
0.0000885407
0.0000918017
0.0002684387
0.0001419472
-0.0000752376
-0.0000443449
-0.0000252402
0.0000178233
-0.0000275853
0.0000248807
-0.0000837887
0.0000048042
0.0000982447
0.0001131952
-0.0000310467
-0.0000247118
0.0000081910
-0.0000121356
0.0001095368
-0.0000198539
-0.0000044006
-0.0000414725
-0.0000338289
0.0000803727
0.0000097329
-0.0000389336
-0.0000082392
-0.0000910767
0.0000702780
-0.0000709116
0.0001504265
0.0000259887
-0.0000420098
-0.0000241443
-0.0000562402
0.0000048459
-0.0000249905
0.0001479950
0.0001572709
0.0001667913
-0.0000561331
-0.0000345672
0.0000358528
0.0000273914
-0.0000926072
0.0000318170
0.0000583501
-0.0000580798
-0.0000013377
-0.0000784482
0.0000787196
0.0000674105
-0.0000390123
0.0000824270
-0.0000157150
0.0001443375
0.0001795651
-0.0000625027
-0.0000499368
-0.0000955436
-0.0000530728
-0.0000650597
0.0003818732
-0.0000371085
-0.0000072230
-0.0000023504
-0.0000464870
0.0002331372
0.0000640863
-0.0000444945
0.0002860963
0.0001173949
-0.0000349562
0.0000710351
0.0007090477
-0.0000150016
-0.0000204796
-0.0000837040
-0.0000119311
0.0001088764
0.0001116386
0.0000824609
-0.0000110635
0.0001617911
0.0000416411
-0.0001087343
0.0002039112
0.0001236087
0.0000669341
0.0002257338
-0.0000321390
-0.0000479264
0.0001601524
0.0004680604
-0.0000551640
0.0001504329
-0.0000124545
-0.0000311977
0.0003198542
0.0000100522
-0.0000550441
0.0001551633
-0.0000611526
-0.0000931818
0.0000743294
0.0001049024
-0.0000697632
-0.0000726692
0.0000913298
0.0001038012
0.0001378100
-0.0000055893
0.0004042873
0.0002029140
0.0000298921
-0.0000360889
0.0000587315
-0.0000086769
0.0001981733
-0.0000727153
0.0001842252
0.0001929015
0.0000869813
0.0000041543
0.0000196231
0.0001229672
0.0002667206
-0.0000334879
0.0000307782
0.0002653893
-0.0000811004
-0.0000399624
-0.0000531890
0.0001061347
-0.0000576359
0.0000173227
-0.0000584832
0.0000780392
0.0000430306
0.0000435345
0.0001361553
0.0000036098
0.0000794614
0.0004521543
-0.0000024622
0.0000518476
0.0000959558
0.0000879726
-0.0000674593
-0.0000816367
-0.0000564459
0.0001119771
-0.0000667362
0.0000127733
0.0000446846
-0.0000319248
-0.0000305363
0.0001647365
-0.0000190660
-0.0000124637
0.0003626919
0.0001888583
0.0000127938
0.0002147490
-0.0000171186
0.0001998285
-0.0000390938
0.0001969196
0.0002610721
-0.0000392055
0.0000328660
0.0002583674
0.0001151278
0.0000720353
-0.0000390649
0.0004565026
-0.0000318239
-0.0000548714
-0.0000037082
0.0000250905
-0.0000538887
-0.0000494858
0.0000122867
0.0000721778
-0.0000737086
-0.0000151607
-0.0000511617
0.0000208371
0.0000829035
0.0001782247
-0.0000675267
-0.0000267407
0.0000586014
0.0000330440
0.0002236707
0.0002373888
0.0000949074
0.0003525677
0.0000033745
-0.0000519245
0.0002787088
-0.0000250780
-0.0000388891
0.0000560950
-0.0000399991
-0.0000509133
-0.0000384373
-0.0000748528
-0.0000815237
0.0002073523
0.0001169303
-0.0000539631
0.0001115372
0.0000262879
0.0000292012
-0.0000114006
0.0001246148
0.0000761553
-0.0000009964
0.0004469651
0.0001978355
0.0000896049
0.0000947752
-0.0000737443
-0.0000449879
0.0000769223
0.0004999320
0.0001429999
0.0000866583
-0.0000531859
0.0002884716
0.0001837533
0.0000063675
-0.0000686211
0.0007894402
-0.0000851168
0.0000230005
0.0000007728
-0.0000628390
-0.0000289606
0.0001846483
-0.0000433905
-0.0000068770
-0.0000170689
-0.0000742487
0.0000186401
0.0003294472
0.0004984593
-0.0000796468
0.0001286374
-0.0000718346
0.0000202031
-0.0000746021
-0.0000081486
-0.0000312968
0.0000018521
-0.0000073104
0.0000184331
0.0000886538
0.0003238850
-0.0000297638
0.0000298396
0.0000201281
-0.0000357381
0.0000461736
-0.0000286736
0.0001740804
-0.0000694724
-0.0000207507
0.0000060081
0.0000862719
-0.0000388995
-0.0000711417
0.0001073938
-0.0000153480
-0.0000237842
0.0000649750
0.0000695394
0.0000440771
-0.0000330221
-0.0000755857
0.0003553922
0.0000352213
-0.0000201034
-0.0000648876
0.0000446240
0.0001761040
-0.0000825922
-0.0000064466
0.0000139789
0.0000725221
0.0002116983
0.0000539375
-0.0000415973
-0.0000204528
-0.0000015791
0.0001070483
-0.0000689924
0.0002326635
-0.0000583301
0.0001243776
0.0000209419
0.0000504404
0.0001091597
-0.0000546623
0.0002517933
0.0000663567
0.0000210662
0.0002164688
0.0003513420
-0.0000853562
0.0000485212
-0.0000354976
0.0000569769
-0.0000620195
0.0000413074
0.0001286798
0.0000248248
-0.0000362397
0.0000357125
0.0000339238
0.0000608200
-0.0000316620
0.0005666702
-0.0000370121
0.0001828031
0.0000755692
0.0000160677
-0.0000635899
0.0001444999
-0.0000303781
0.0001434071
-0.0000231196
0.0000182056
0.0000805522
0.0002576779
0.0000311274
0.0001728098
0.0004068384
0.0002547747
-0.0000754374
0.0000143695
-0.0000371569
0.0001504132
-0.0000222836
-0.0000275643
0.0001784186
-0.0000726331
0.0003564089
0.0001161211
0.0002708061
0.0000609460
-0.0000287309
-0.0000774552
0.0001461122
-0.0000637297
-0.0000058647
-0.0000848768
0.0004282225
-0.0000745406
0.0000993217
0.0000112367
0.0001593073
0.0000108113
-0.0000786530
-0.0000324592
0.0001296690
-0.0000411806
-0.0000340103
0.0000510407
-0.0001002224
0.0000540146
-0.0000520794
0.0000804851
-0.0000778117
0.0001532723
-0.0000514457
-0.0000513590
-0.0000188521
-0.0000323650
0.0000063564
0.0001174288
0.0001316486
-0.0000596631
0.0000054698
-0.0000331602
0.0000509024
-0.0000049233
-0.0000447680
-0.0000002479
0.0000945983
-0.0000469802
-0.0000799567
0.0000979093
-0.0000093273
0.0004094524
-0.0000473652
0.0000279035
-0.0000778515
0.0000530673
-0.0000419899
0.0000002475
0.0000496848
-0.0000454122
-0.0000321377
0.0000135596
-0.0000201151
-0.0000469410
0.0001727555
-0.0000675265
-0.0000217341
0.0000621694
0.0001434142
-0.0000414685
-0.0000238222
0.0000281216
-0.0000140625
-0.0000363013
0.0000696018
0.0000406619
0.0000100211
-0.0000173438
0.0004883131
0.0000255506
0.0000633528
-0.0000302056
0.0000966780
0.0000055413
0.0000591086
0.0000006647
0.0000317757
-0.0000112292
-0.0000019175
0.0001102069
0.0000049475
-0.0000439089
-0.0000446944
-0.0000766471
-0.0000079782
0.0000210734
-0.0000360569
0.0000074443
-0.0000052245
-0.0000361490
0.0000898178
-0.0000720732
0.0000050000
0.0002762275
0.0000056671
0.0000292772
0.0001902354
0.0004299492
0.0000578824
0.0000735934
-0.0000833367
0.0000108782
0.0001349875
0.0003038579
0.0000368964
-0.0000453569
0.0000302537
0.0002066549
0.0001372232
0.0000415598
-0.0000424124
-0.0000250532
-0.0000265836
-0.0000345584
0.0000053720
-0.0000101047
-0.0000168972
-0.0000525784
-0.0000339189
-0.0000373052
0.0004070711
0.0001606953
0.0000097025
0.0005014382
0.0001047886
-0.0000603660
0.0001368843
0.0000040424
0.0000909517
-0.0000326991
0.0000607875
0.0000538871
-0.0000495694
0.0002036887
0.0001282218
-0.0000036446
0.0003782680
0.0000018613
-0.0000600262
0.0002105078
0.0002032147
0.0000074201
0.0000278084
-0.0000449549
0.0002839610
0.0002042629
0.0001151137
0.0000053990
-0.0000256039
0.0001075476
0.0001021379
0.0001907415
-0.0000034538
0.0000058876
0.0000462610
0.0001049784
0.0002063994
0.0002405584
0.0001582760
0.0000148840
-0.0000588706
-0.0000361818
0.0005186849
0.0000574310
-0.0000160265
0.0000100907
-0.0000589687
0.0000692211
0.0003914728
-0.0000671834
-0.0000364103
-0.0000439824
0.0000005642
0.0003036251
0.0000183592
-0.0000123192
0.0001689157
0.0000056345
-0.0000251820
0.0004377669
0.0001546453
-0.0000298231
-0.0000256334
-0.0000244863
-0.0000159775
0.0005445605
-0.0000111146
0.0000059791
-0.0000478166
-0.0000058187
0.0000300482
0.0000694089
0.0000782405
0.0000459267
-0.0000450621
-0.0000416642
0.0000085728
-0.0000136258
-0.0000408583
0.0004382701
-0.0000713978
0.0000473909
0.0002404475
0.0001312841
0.0000477058
-0.0000253376
0.0000211968
0.0001323217
-0.0000368167
-0.0000411522
-0.0000230935
-0.0000350581
0.0000599005
0.0003593596
0.0000064947
-0.0000820790
0.0000270104
-0.0000662207
0.0000912710
-0.0000294933
0.0001699384
0.0000047890
0.0000726348
0.0000354810
0.0004146781
0.0000353856
-0.0000141510
0.0000416176
-0.0000724881
-0.0000480700
-0.0000947352
0.0001212320
0.0000213514
0.0001596641
0.0001169726
0.0001150128
-0.0000414269
0.0000367855
0.0001002994
-0.0000755080
-0.0000321833
0.0001292228
0.0003943830
-0.0000028806
0.0003585588
-0.0000319229
0.0001622909
-0.0000151387
0.0003198782
0.0000248200
-0.0000360132
-0.0000354050
0.0005248137
0.0000193755
-0.0000576114
0.0000419697
-0.0000668210
-0.0000062943
-0.0000433959
0.0001970648
0.0000147902
0.0000894593
0.0000260381
0.0000469701
0.0000828940
0.0000984850
-0.0000290221
-0.0000005740
0.0000096867
0.0002211159
-0.0000501051
0.0001308079
0.0000527347
-0.0000736071
0.0003598278
0.0000941474
0.0000935657
0.0001329647
-0.0000681661
0.0000451084
0.0003336087
0.0002597197
-0.0000506750
0.0001701070
0.0000295995
-0.0000204021
-0.0001055998
0.0000619348
-0.0000528238
0.0000048120
-0.0000694172
-0.0000438212
-0.0000358688
-0.0000195806
0.0000919614
0.0001146980
0.0000219480
-0.0000210931
0.0001612041
0.0000181815
-0.0000430539
-0.0000399215
0.0000283584
0.0001527649
0.0000275532
-0.0000482452
-0.0000130709
0.0002890364
0.0003326404
0.0000372234
-0.0000725981
0.0000521653
0.0003013922
-0.0000115489
0.0000852318
0.0000700379
-0.0000809635
-0.0000075623
-0.0000386238
-0.0000726049
0.0000305018
0.0002141427
0.0001391931
0.0000220097
0.0001200217
0.0000892247
0.0001072969
0.0000673556
0.0000493151
0.0000402427
0.0004516221
-0.0000861135
0.0001765469
-0.0000046840
0.0000338489
0.0001006379
0.0000838838
0.0001254612
-0.0000166865
0.0003002189
-0.0000499661
-0.0000203592
-0.0000043991
0.0000376454
-0.0000760506
-0.0000419218
-0.0000861724
0.0000561631
0.0001259666
0.0000253377
0.0000165852
0.0002349402
-0.0000385609
-0.0000339360
0.0000360270
0.0000671159
-0.0000010080
0.0000521397
-0.0000036870
0.0001707016
0.0002189029
-0.0000908790
-0.0000332560
-0.0000808028
0.0001288352
-0.0000988662
-0.0000402486
0.0000838325
0.0000724420
0.0001956381
0.0000832545
0.0002813384
0.0002554404
0.0001335230
-0.0000182977
0.0001952615
-0.0000487478
0.0000773799
0.0000719261
-0.0000928124
0.0001222221
-0.0000562036
0.0000757259
-0.0000772132
0.0000122139
0.0000315761
0.0002715365
0.0000433887
0.0000243810
0.0002686514
-0.0000532334
0.0000178029
0.0004637554
-0.0000802311
-0.0000222513
-0.0000318770
0.0000493277
0.0000200186
-0.0000570924
0.0000280523
-0.0000584490
-0.0000203640
0.0001713969
0.0002229686
-0.0000155639
0.0001181829
-0.0000008534
0.0000691685
0.0003968695
0.0001910248
-0.0000732071
0.0001050265
0.0001409490
0.0001768551
0.0002432405
0.0000518923
0.0000632944
0.0005487895
-0.0000273333
-0.0000207047
0.0001865319
-0.0000437308
-0.0000177337
0.0000409289
0.0001565267
0.0002424596
-0.0000015832
-0.0000664653
0.0000208723
0.0000117309
-0.0000386265
0.0000024630
-0.0000165446
0.0000138641
-0.0000118858
-0.0000213996
-0.0000765037
0.0000824226
0.0001054734
0.0002508122
0.0000174855
0.0001456659
-0.0000653603
0.0000666514
0.0000220256
0.0001826352
0.0000741521
-0.0000322305
-0.0000386318
-0.0000490636
-0.0000057617
0.0001974608
0.0000368483
0.0000199343
0.0000840112
0.0000565276
0.0000453984
0.0000219502
0.0000631049
0.0000372148
0.0000751407
0.0000615920
0.0000309341
0.0000050367
-0.0000639523
0.0000321106
0.0000137462
-0.0000093588
0.0003520180
0.0002064908
-0.0000207595
0.0000625595
-0.0000127622
0.0000510477
0.0000708621
-0.0000015136
0.0003072664
0.0000898209
0.0000899996
-0.0000180705
0.0000638033
0.0001868838
-0.0000163663
0.0000680339
-0.0000180740
-0.0000326561
0.0000341594
-0.0000448830
-0.0000599849
0.0006089682
0.0000300810
0.0000926717
0.0000025645
0.0005938035
-0.0000349380
-0.0000043846
-0.0000217700
-0.0000183371
0.0000111054
0.0001748139
0.0000814228
-0.0000318918
0.0000807013
-0.0000333619
0.0004023667
-0.0000450706
0.0001911501
-0.0000482871
0.0000403767
0.0000589171
-0.0000481503
-0.0000983077
0.0001901214
0.0000606997
0.0000662942
-0.0000328465
-0.0000434639
-0.0000108848
-0.0000439772
0.0004645694
-0.0000114053
-0.0000136705
0.0001237504
-0.0000319923
-0.0000338396
0.0001672776
0.0001050430
-0.0000117348
-0.0000708935
0.0000251638
-0.0000247783
0.0000381659
0.0003050621
0.0000109053
-0.0000204112
0.0000080746
-0.0000112295
0.0001481485
-0.0000117478
-0.0000208090
0.0000751798
-0.0000019613
0.0000230414
-0.0000221540
0.0000628183
-0.0000220557
0.0001142575
-0.0000648144
-0.0000590475
0.0000124685
-0.0000559773
0.0000646526
0.0000330333
0.0000653986
0.0001352740
0.0000102660
0.0002047628
0.0000722341
0.0000405148
-0.0000840673
-0.0000069708
0.0001297367
0.0001192036
0.0000890182
0.0000804665
-0.0000787625
0.0000464965
-0.0000171000
0.0000258329
-0.0000491544
-0.0000422529
0.0000016558
0.0000713812
0.0000531854
-0.0000918822
0.0002080543
-0.0000031347
-0.0000070939
-0.0000070240
0.0003344135
0.0000966738
-0.0000404336
-0.0000056146
0.0000842756
-0.0000549669
-0.0000509349
-0.0000060813
0.0000240819
-0.0000757388
-0.0000859375
-0.0000703567
0.0000019983
0.0000189607
0.0003980432
0.0000127759
-0.0000597189
0.0001312245
0.0000471951
-0.0000239249
-0.0000574901
0.0001022169
-0.0000709502
0.0000266072
-0.0000802384
-0.0000024488
0.0001891234
0.0000401179
-0.0000177449
0.0000432392
0.0000061044
0.0000057210
0.0005980271
-0.0000476867
0.0001739948
-0.0000561295
0.0000421821
0.0001724494
-0.0000195298
-0.0000519872
0.0000407497
-0.0000524792
0.0001364492
0.0003255004
0.0000232827
0.0001323085
0.0000308008
0.0000392968
0.0000099251
0.0000689993
-0.0000175438
0.0000661395
0.0000640185
-0.0000045181
0.0000552434
-0.0000564555
0.0002183950
0.0001268548
-0.0000488690
0.0000410054
0.0000431335
-0.0000678472
0.0000403749
-0.0000101934
0.0001659890
0.0000392444
0.0001725380
0.0001981836
0.0000064207
0.0002026909
-0.0000624470
-0.0000691482
0.0003481898
-0.0000514140
0.0000016538
-0.0000369738
0.0001190268
0.0000505081
0.0000553176
-0.0000418316
0.0001872524
0.0000935783
0.0001104586
-0.0000387894
-0.0000630838
-0.0000896107
0.0000640415
0.0000119276
-0.0000068350
0.0001184024
-0.0000235863
-0.0000073243
-0.0000126184
-0.0000522412
-0.0000301959
0.0001556007
0.0001523178
-0.0000061067
0.0000489078
0.0000465145
-0.0000324839
0.0000210797
0.0000071338
0.0000240227
0.0002506245
0.0002063044
0.0013263989
-0.0000182694
-0.0000053653
0.0000482289
-0.0000223644
-0.0000256291
0.0000500808
-0.0000031644
-0.0000423051
-0.0000821497
-0.0000946058
-0.0000156174
0.0004152212
-0.0000200354
0.0002900542
-0.0000032547
0.0000644711
-0.0000279397
0.0000432144
-0.0000790298
0.0003717381
-0.0000971381
-0.0000082434
-0.0000782068
0.0000124925
0.0000300009
0.0001431612
-0.0000270020
0.0001974828
0.0003282066
0.0000410940
0.0006604310
0.0000086522
0.0001539786
0.0000079301
-0.0000031358
-0.0000827507
-0.0000409006
0.0001063813
-0.0000799043
-0.0000405937
-0.0000528680
-0.0000493606
0.0000058849
0.0004767806
0.0000392372
0.0000729877
0.0001018846
0.0000610820
0.0002072823
0.0002057222
-0.0000352950
0.0002850206
0.0000040248
0.0001481444
0.0000579852
0.0000301226
0.0001721541
0.0000034153
0.0001821305
-0.0000647943
0.0000340666
-0.0000175673
0.0000569972
-0.0000754600
0.0000387393
-0.0000835257
0.0000471138
-0.0000421240
-0.0000555526
-0.0000518045
-0.0000064262
-0.0000036546
-0.0000038195
-0.0000333836
0.0001482785
0.0002616704
-0.0000275247
0.0000740733
0.0001354836
0.0004925751
-0.0000614198
0.0001608175
-0.0000740802
-0.0000700984
0.0001236930
-0.0000027507
-0.0000227662
-0.0000732373
0.0000438619
0.0001258497
-0.0000415468
0.0000820326
0.0000170788
0.0003905063
-0.0000341632
-0.0001001370
0.0000240496
-0.0000682434
-0.0000268969
0.0000828822
-0.0000494774
0.0003529087
0.0000268649
0.0000200501
0.0002075787
0.0001396747
0.0003809465
0.0000176369
0.0003424308
0.0000920061
-0.0000503184
0.0001470992
0.0001637998
0.0000515279
-0.0001045485
0.0000508465
0.0000680030
0.0000931694
0.0000387229
0.0001109261
0.0000004161
0.0001600350
0.0001416515
0.0000161209
0.0000512888
-0.0000532530
0.0000779754
-0.0000357309
-0.0000193224
0.0000995586
-0.0000024694
0.0003636100
0.0000268897
0.0005405226
0.0000861100
0.0000847347
-0.0000242244
-0.0000273284
-0.0000691312
0.0000641532
-0.0000131989
-0.0000160164
-0.0000309531
0.0001243637
0.0000771314
0.0001990679
0.0000361156
-0.0000604564
-0.0000012581
0.0000005720
0.0001194237
0.0000437070
0.0002428059
-0.0000526671
0.0001169656
-0.0001061750
0.0001572533
-0.0000580429
-0.0000337553
0.0000030739
0.0001138296
0.0002143774
0.0001501722
-0.0000290663
0.0002655601
0.0001158662
-0.0000354770
0.0000923235
0.0002597889
0.0000714024
0.0001958059
0.0000465126
-0.0000888513
-0.0000408796
-0.0000658911
0.0001088270
-0.0000125667
0.0000210754
-0.0000026357
0.0001303452
0.0000668303
0.0000488273
0.0000282279
0.0002048212
0.0001713060
-0.0000772223
0.0000847594
0.0001236571
0.0000573636
-0.0000270135
0.0001749606
-0.0000588114
-0.0000333957
0.0001905479
0.0002615749
-0.0000383070
0.0001156892
0.0003159021
-0.0000556558
0.0000604627
-0.0001042122
0.0000588731
0.0002265918
0.0000053126
-0.0000843925
0.0000936653
-0.0000310495
-0.0000047108
0.0000554691
0.0006574953
0.0003667452
0.0004294152
0.0000281281
-0.0000719111
0.0000052154
0.0000111534
0.0000010667
-0.0000720304
-0.0000386611
-0.0000516460
0.0000008759
0.0000067744
-0.0000524836
0.0001573771
0.0000561436
0.0002747514
0.0003013171
0.0001131385
0.0001570747
-0.0000063304
-0.0000357032
0.0000439743
0.0000137092
-0.0000809782
0.0000783603
0.0001814524
-0.0000641750
-0.0000691981
-0.0000168485
0.0000375393
0.0000346131
0.0001104421
-0.0000271002
-0.0000655049
-0.0000326407
0.0000349628
0.0000044697
-0.0000641018
0.0000440072
0.0002578618
0.0001697651
0.0000374083
0.0002250179
0.0001137787
-0.0000768883
0.0000386158
0.0000685024
0.0002520652
0.0000448485
-0.0000389870
0.0002705523
0.0001725621
0.0000950276
-0.0000523471
0.0000261260
-0.0000461950
0.0000627899
-0.0000795134
0.0001084523
0.0000277184
0.0000711236
-0.0000302491
0.0000201519
0.0003141165
0.0001233770
-0.0000804647
0.0001152208
-0.0000659333
0.0001198736
-0.0000921092
-0.0000405564
-0.0000640494
0.0003153030
0.0003393580
-0.0000305382
0.0000055247
0.0000065318
0.0000200322
0.0000240595
0.0000485584
-0.0000662800
0.0000125844
0.0000349261
0.0005663812
0.0000248700
-0.0000184789
0.0000030135
-0.0000581143
-0.0000272812
0.0005101363
0.0002438312
-0.0000036513
-0.0000210118
-0.0000677742
-0.0000284810
-0.0000996006
0.0002530012
0.0000050215
0.0001192866
-0.0000737901
0.0001387402
-0.0000331091
-0.0000425067
0.0000556000
0.0001159784
-0.0000038818
-0.0000355834
-0.0000336793
0.0002568304
0.0002025244
0.0000874277
0.0000389409
0.0000187334
0.0000433874
-0.0000533505
0.0002401018
0.0000047366
-0.0000016298
0.0003278966
0.0004890185
0.0000327380
0.0001794942
0.0000741306
0.0006970435
0.0000125056
0.0001037444
-0.0000282852
-0.0000691368
-0.0000362460
-0.0001073428
-0.0000540726
-0.0000557985
0.0000015703
0.0001258752
0.0002110496
0.0000646094
0.0003540877
-0.0000336323
0.0000820059
0.0000636746
0.0000430733
0.0000956610
-0.0000239825
0.0000608511
-0.0000416827
0.0001008011
-0.0000477112
0.0001049629
0.0000071034
-0.0000674181
0.0000106735
-0.0000311186
-0.0000064212
-0.0000009025
-0.0000534858
0.0003618923
0.0000902197
0.0000323387
0.0000158826
-0.0000696023
-0.0000320448
0.0001660260
0.0000179606
0.0002112848
0.0001781338
0.0001951463
0.0000261204
-0.0000266132
0.0000981667
0.0000579428
0.0000206465
-0.0000084812
0.0003435985
0.0001619330
-0.0000445597
0.0001606266
-0.0000268107
-0.0000533036
-0.0000207182
-0.0000806371
0.0000899239
0.0001128000
-0.0000222776
0.0002295454
-0.0000358021
-0.0001016643
0.0000689113
0.0000383466
-0.0000549082
-0.0000492348
0.0001404970
-0.0000606368
0.0001392981
0.0000705530
-0.0000751067
-0.0000255405
0.0000580284
0.0001644961
0.0002098053
0.0001303220
0.0002219528
-0.0000334590
0.0000944082
-0.0000105584
-0.0000772938
-0.0000411612
0.0000230172
-0.0000442856
0.0001959629
-0.0000133832
0.0000911843
0.0001713295
0.0000254850
-0.0000424931
-0.0000120559
0.0000912161
0.0000106909
-0.0000677422
-0.0000563632
0.0003574914
0.0000570762
0.0000562440
0.0000381816
0.0000827022
-0.0000592647
0.0001272873
0.0002811262
0.0000278732
0.0001219235
-0.0000515807
-0.0000596241
0.0000804302
0.0001449034
0.0000395624
0.0000989645
-0.0000292836
-0.0000150558
0.0002967531
0.0002187863
-0.0000459248
-0.0000053732
-0.0000220786
0.0001385444
0.0000262206
-0.0000197807
-0.0000514755
0.0000991942
0.0000364615
-0.0000029326
0.0000674072
-0.0000115130
0.0000349533
0.0001337378
0.0002853076
-0.0000857791
-0.0000153149
0.0000467403
-0.0000113872
-0.0000477304
-0.0000157449
-0.0001090040
-0.0000003487
0.0001256414
-0.0000285406
-0.0000740935
0.0000204056
-0.0000225745
-0.0000144097
-0.0000352272
-0.0000608501
0.0001017313
0.0000315933
0.0000328571
-0.0000808249
0.0000344688
0.0003265725
0.0001191168
-0.0000032328
0.0001445432
-0.0000563673
0.0000103863
-0.0000416432
0.0002900282
-0.0000204535
-0.0000802437
0.0000909593
-0.0000318019
-0.0000184527
0.0004541919
0.0001507897
-0.0000821806
0.0000456572
-0.0000196110
0.0000184805
0.0000399043
-0.0000372570
0.0002517471
-0.0000270204
-0.0000276599
-0.0000644279
0.0000326721
0.0000632543
0.0001428735
-0.0000534868
0.0001825346
-0.0000326907
0.0001755749
0.0000717934
0.0001048514
0.0001776809
0.0002812406
0.0001142657
-0.0000292530
-0.0000215612
0.0001108208
0.0000295673
0.0002296646
0.0000948280
-0.0000765669
-0.0000378432
-0.0000625894
-0.0000380305
0.0001707749
0.0000145562
0.0000697869
0.0000256474
0.0004716952
0.0000258639
0.0001514206
0.0000158202
-0.0000410334
0.0000635577
0.0000916361
0.0002113733
0.0001165946
-0.0000886939
0.0001635129
-0.0000329294
0.0000004790
-0.0000418024
-0.0000076269
0.0000130869
-0.0000337799
0.0000280222
0.0000754594
0.0000065019
0.0000770023
0.0001290888
0.0000463850
0.0002571259
0.0000793234
0.0000765129
0.0000261577
-0.0000073814
-0.0000509466
0.0000373560
0.0000373582
0.0000250498
-0.0000139248
0.0003054568
0.0000076085
0.0001297904
0.0002691472
0.0000250054
-0.0000485913
-0.0000143449
0.0000691845
-0.0000814577
-0.0000155816
-0.0000782491
0.0003211942
0.0000113247
-0.0000282339
0.0001175387
-0.0000197198
0.0000053738
-0.0000315106
0.0003058336
0.0001268778
0.0000735042
-0.0000069807
0.0002134280
0.0000572439
0.0000784252
0.0001861324
0.0001169003
0.0000225593
0.0000341803
-0.0000249631
0.0001901429
-0.0000234360
0.0000693131
0.0001286805
0.0000451219
-0.0000319254
-0.0000492502
-0.0000318790
0.0000457915
-0.0000296945
-0.0000986316
0.0000430195
0.0001293491
-0.0000582931
0.0000550693
-0.0000726656
0.0002657414
0.0001071142
0.0002450312
0.0000965517
-0.0000001639
0.0001595991
0.0000828594
0.0000366160
0.0001835763
0.0000168204
-0.0000540458
0.0000146142
-0.0000401095
0.0001382761
0.0000091397
0.0000320493
0.0001399124
0.0002153823
0.0000568247
0.0000313275
-0.0001032413
0.0000241686
0.0002855650
-0.0000543579
-0.0000129770
0.0000687922
-0.0000178997
0.0002132986
-0.0000100649
0.0004058462
0.0000811815
-0.0000099691
0.0000165314
0.0003629445
0.0000439224
-0.0000479559
-0.0000103361
-0.0000816040
-0.0000451700
0.0000011181
-0.0000583487
0.0001568566
0.0002059528
0.0001741038
-0.0000314437
0.0000872064
-0.0000053778
0.0001345297
0.0000115514
-0.0000185509
-0.0000703454
-0.0000113046
-0.0000706455
-0.0000823597
-0.0000780788
-0.0000312126
-0.0000047781
0.0002608689
-0.0000013353
-0.0000685366
0.0000688469
0.0003824347
0.0001035926
-0.0000043074
-0.0000134026
0.0001063072
0.0000927320
-0.0000610507
-0.0000689233
0.0000846923
0.0001789851
-0.0000083539
-0.0000446784
0.0000963629
-0.0000610222
-0.0000087554
-0.0000166526
-0.0000183642
0.0002008024
-0.0000531138
-0.0000338177
-0.0000347558
0.0000338306
-0.0000237327
-0.0000586750
0.0002434111
-0.0000363039
-0.0000085647
0.0001270320
-0.0000877849
0.0003305007
0.0000893015
0.0000562558
0.0000806044
0.0000274836
-0.0000053409
0.0000780737
0.0002026587
0.0000591244
-0.0000174578
0.0000058887
-0.0000091872
0.0002659851
-0.0000019915
-0.0000715681
0.0002013588
-0.0000434170
0.0002437656
-0.0000272424
0.0000285955
-0.0000104652
0.0000037722
-0.0000165355
0.0000524978
0.0000248618
-0.0000275708
0.0000623676
0.0000205627
-0.0000234304
0.0000161489
-0.0000416283
0.0001256843
-0.0000367870
-0.0000703278
0.0002395828
-0.0000251765
0.0000744961
0.0001444218
-0.0000573469
0.0001787649
0.0000399915
-0.0000416022
-0.0000612170
0.0000054752
0.0000305708
-0.0000343517
-0.0000146769
-0.0000291862
-0.0000318274
0.0002644945
0.0002075752
-0.0000033520
0.0000781181
0.0002944951
-0.0000543316
-0.0000078789
-0.0000449099
-0.0000802121
0.0004091459
0.0000925258
0.0001423979
0.0001205473
0.0001711948
0.0001052025
0.0000104340
-0.0000092391
0.0000422108
0.0001637794
-0.0000430345
-0.0000787882
0.0001583241
0.0001006219
-0.0000850129
-0.0000237372
-0.0000818561
-0.0000286413
-0.0000074746
0.0002495211
0.0000022904
0.0000032512
-0.0001082467
0.0001516558
0.0000527850
-0.0000616100
-0.0000716286
-0.0000274004
0.0003591066
-0.0000821554
-0.0000278421
0.0000387986
0.0000249098
-0.0000340545
0.0002865857
0.0000322802
0.0003178172
-0.0001090816
0.0002131890
0.0001289844
0.0001232439
-0.0000921703
0.0000597515
0.0005004368
-0.0000458114
0.0001086422
0.0000383430
0.0000767292
-0.0000482999
-0.0000095588
0.0000079421
0.0000361513
0.0000031460
0.0000752663
0.0000656279
0.0000093814
-0.0000690023
-0.0000262316
-0.0000478589
-0.0000131015
-0.0000251889
0.0001659789
0.0000271814
0.0000697479
0.0000821825
-0.0000553707
0.0002229640
0.0000219851
-0.0000012758
-0.0000837183
-0.0000363749
-0.0000724048
0.0000422148
0.0002388961
-0.0000431990
0.0002089802
0.0000015357
0.0000534328
0.0001429996
-0.0000197091
0.0000746817
-0.0000149785
-0.0001000242
-0.0000214094
-0.0000805866
0.0000814859
0.0000102741
0.0000290445
-0.0000683348
0.0000970216
-0.0000027247
-0.0000662657
0.0002731203
0.0001288851
-0.0000126890
0.0001173899
-0.0000098440
-0.0000503298
-0.0000240137
-0.0000244348
-0.0000505180
-0.0000774966
0.0003109541
0.0000381107
-0.0000239329
0.0001921304
0.0001651238
0.0000191117
0.0000669210
0.0000307939
0.0000745025
0.0000170442
0.0003598322
0.0002138176
-0.0000614496
-0.0000604922
0.0000685392
0.0000273600
0.0000587130
-0.0000667422
-0.0000101024
-0.0000303327
0.0000095783
-0.0000343946
0.0003468869
0.0000296993
0.0000241413
-0.0000851379
0.0000206357
-0.0000763820
0.0000793803
0.0000067241
0.0000153302
-0.0000303346
0.0004810629
0.0000664349
0.0000232426
0.0000309628
-0.0000168703
0.0007298488
0.0001165353
-0.0000428389
-0.0000842510
-0.0000375465
-0.0000814305
0.0000488950
-0.0000779892
0.0000269721
0.0000465001
0.0000772110
0.0000682312
0.0000470884
0.0000412876
-0.0000527828
0.0000224328
-0.0000552310
-0.0000492616
0.0000785008
0.0000110303
-0.0000497495
-0.0000069360
-0.0000237757
0.0000296554
-0.0000214376
-0.0000475181
-0.0000188239
-0.0000825556
0.0001169887
0.0002456540
0.0001830609
-0.0000280308
0.0000558169
0.0000785222
-0.0000137034
-0.0000074283
0.0002852116
0.0002511407
0.0001070856
-0.0000133401
-0.0000351858
0.0000092776
-0.0000357097
0.0003382590
-0.0000167186
0.0000618286
-0.0000096083
0.0000940021
-0.0000987604
-0.0000318993
-0.0000650209
0.0006822002
-0.0000629945
-0.0000378230
-0.0000665582
0.0000442238
0.0001591171
0.0000445640
0.0000255239
-0.0000320540
0.0003882662
0.0000584137
0.0005010971
0.0000967614
0.0002950265
-0.0000514499
0.0001529610
-0.0000914476
-0.0000511220
-0.0000446381
-0.0000350691
-0.0000113070
0.0001811561
0.0001176410
-0.0000391959
0.0000521059
-0.0000641393
-0.0000531146
-0.0000355174
0.0001729409
-0.0000223172
-0.0000891433
0.0000328352
-0.0000378787
-0.0000240549
0.0000644170
0.0000578074
0.0000831572
-0.0000052051
-0.0000441716
-0.0000041773
0.0000124963
0.0001921506
-0.0001017817
0.0000706726
0.0002447493
0.0000097299
-0.0000305318
-0.0000092547
0.0001441926
-0.0000150639
0.0002361842
0.0000732828
-0.0000335761
0.0002460846
-0.0000006938
0.0001440777
0.0000611099
0.0002191499
0.0001271990
-0.0000742406
-0.0000051631
0.0000611443
-0.0000571598
0.0002363895
-0.0000110202
0.0001306542
0.0000386515
-0.0000155321
0.0000467526
0.0000608075
0.0000081522
0.0000395974
0.0000126096
0.0000459829
-0.0000294511
0.0000064616
0.0004796978
0.0000868656
0.0000767709
-0.0000469846
0.0003912938
-0.0000507394
0.0000298745
0.0001274026
0.0000052797
-0.0000792057
-0.0000020465
-0.0000917643
-0.0000372078
0.0001159141
0.0000609326
-0.0000278048
-0.0000371383
0.0000778056
-0.0000541743
0.0003187782
0.0000242632
0.0000571823
0.0000060285
-0.0000080008
-0.0000741035
0.0001192891
0.0000386350
0.0002182868
-0.0000226663
0.0000011508
-0.0000171187
0.0000986114
-0.0000017187
-0.0000772100
0.0000565867
-0.0000346735
0.0002502316
0.0000643512
0.0000875987
-0.0000518693
0.0000434314
0.0000160508
-0.0000003422
-0.0000900041
0.0001980150
-0.0000236396
0.0000475148
-0.0000349884
-0.0000424675
0.0000241308
0.0001455852
0.0003355465
0.0000122192
0.0000075857
-0.0000279677
0.0000092810
-0.0000077987
0.0003761676
0.0002510902
0.0001197248
0.0001370964
0.0001160508
0.0000769287
-0.0000586604
-0.0000301150
0.0000607832
0.0000845579
0.0000008638
0.0000485139
-0.0000494165
0.0000391348
-0.0001136222
0.0000380877
0.0000962368
-0.0000916964
0.0000401529
0.0000197275
0.0001763059
-0.0000124062
-0.0000354709
-0.0000680191
0.0000107380
-0.0000240492
0.0000045517
-0.0000815606
0.0004482969
-0.0000323261
0.0000996848
0.0000647488
0.0000912146
0.0001324014
0.0001176203
0.0000763370
0.0002808215
0.0003785929
0.0002721726
0.0000263979
-0.0000209334
0.0001559100
0.0000157440
0.0002739337
0.0001286243
-0.0000336621
-0.0000110420
-0.0000307471
-0.0000891709
0.0001064028
0.0000162965
0.0000030757
0.0000941468
0.0002177009
0.0001278793
-0.0000146423
-0.0000284423
-0.0000335331
0.0000754139
-0.0000759628
0.0001969560
0.0000108422
-0.0000121149
0.0001833750
0.0000627079
-0.0000115082
0.0001123964
0.0003344251
-0.0000837158
0.0002553614
-0.0000112177
0.0000621029
-0.0000705111
-0.0000228528
0.0002514432
0.0000188888
0.0000044761
-0.0000391885
-0.0000727942
0.0001399842
0.0000621471
-0.0000650732
-0.0000362457
0.0000424036
0.0001370825
-0.0000367515
0.0003674620
0.0000234074
0.0001889804
0.0003532758
0.0000636683
-0.0000863742
0.0000243406
0.0001440721
0.0000323006
0.0001677597
0.0003282228
0.0000142972
0.0000645038
-0.0000082231
-0.0000293408
0.0000034083
-0.0000078085
0.0000971095
-0.0000207263
0.0000299775
-0.0000088375
0.0000105557
-0.0000879423
-0.0000336103
-0.0000263781
-0.0000228347
-0.0000116421
0.0002914349
0.0001780085
-0.0000525904
-0.0000421300
-0.0000666927
0.0001455683
-0.0000938414
0.0001116525
0.0000579245
0.0000051989
-0.0000523738
-0.0000387544
0.0000007122
0.0000783559
0.0000669868
-0.0000312478
0.0000997481
-0.0000369215
-0.0000113522
0.0002985990
0.0001659060
0.0000170965
0.0001434740
-0.0000893227
-0.0000121559
-0.0000633737
0.0000014213
0.0003730144
-0.0000711913
0.0000367819
-0.0000042308
0.0000259595
-0.0000267149
0.0000111922
-0.0000389254
0.0000346076
-0.0000330490
0.0001484089
-0.0000823257
-0.0000695731
0.0002798038
0.0001153305
0.0000003461
-0.0000224695
0.0001023558
0.0004697271
0.0000378152
-0.0000431247
-0.0000065707
0.0000323860
0.0000279943
0.0001174649
0.0001069810
-0.0000515311
0.0000174644
0.0001356455
-0.0000469335
0.0000009322
-0.0000800538
0.0000351169
-0.0000414217
0.0000152143
-0.0000000548
0.0001592218
0.0000518131
-0.0000402463
0.0002843092
-0.0000367256
-0.0000285495
0.0000708352
-0.0000069242
0.0000570149
-0.0000584619
-0.0000444185
0.0007823997
0.0001703125
0.0000400808
-0.0000469129
0.0001636813
0.0002066180
-0.0000431614
0.0002129672
0.0001464935
0.0002951197
0.0000553258
-0.0000743189
-0.0000095462
0.0000455553
-0.0000622728
0.0000279151
-0.0000223368
0.0000506079
0.0001432280
-0.0000384429
-0.0000257379
0.0000465627
0.0001429657
0.0002890966
-0.0000482495
0.0000015820
0.0002333955
-0.0000031556
-0.0000270612
0.0003865300
0.0002054720
-0.0000563484
0.0002579749
0.0000623865
0.0000114801
-0.0000460281
-0.0000519176
0.0000682697
0.0001784564
0.0000166618
0.0000475819
-0.0000939118
0.0001819158
0.0000426312
-0.0000693981
-0.0000252290
-0.0000248826
-0.0000257109
-0.0000496312
0.0003103724
-0.0000529614
0.0001065283
-0.0000891650
-0.0000343991
0.0000256510
-0.0000431481
-0.0000926684
0.0000477640
-0.0000318165
-0.0000583999
0.0001633710
0.0000051694
-0.0000004221
0.0000064276
0.0000901834
0.0000462644
-0.0000445587
0.0001419108
0.0004385091
-0.0000101899
0.0000069300
-0.0000078658
-0.0000287845
-0.0000001748
-0.0000410197
0.0000509654
-0.0000393133
-0.0000075758
-0.0000401590
-0.0000355158
-0.0000095713
0.0000166700
-0.0000569633
-0.0000110361
-0.0000879739
0.0000728483
-0.0000246944
0.0002242996
-0.0000492493
-0.0000734404
0.0000445436
-0.0000489394
-0.0000090619
0.0000477401
0.0000987482
0.0000038113
0.0000180857
0.0001109601
0.0000879504
-0.0000529908
0.0000081043
0.0002353877
0.0004314197
-0.0000355245
0.0001712330
0.0000852596
-0.0000793678
0.0000702853
0.0005506447
-0.0000047151
-0.0000790609
0.0000148310
0.0000005361
0.0001326314
-0.0000871626
0.0001514352
-0.0000576141
-0.0000031234
0.0000115331
-0.0000320160
0.0002960464
0.0000167756
-0.0000347357
-0.0000129178
0.0001353410
-0.0000705936
0.0001289967
-0.0000385748
0.0000496598
-0.0000690218
0.0002266428
-0.0000986210
0.0003725786
0.0002173078
-0.0000133848
0.0000357672
-0.0000338875
0.0000555910
0.0000324327
0.0003059375
0.0001397037
-0.0000015649
0.0000126688
-0.0000330097
-0.0000632403
-0.0000221280
-0.0000988849
0.0002888618
0.0001036535
-0.0000411934
0.0000058431
0.0000029749
-0.0000023103
-0.0000215965
0.0001119316
0.0001188762
-0.0000451249
-0.0000409811
0.0000514700
0.0001242128
0.0000337637
-0.0001015283
0.0000281674
0.0004360581
0.0004082817
0.0001209992
-0.0000639171
-0.0000407393
0.0000229146
0.0000333037
0.0000777431
0.0001033399
-0.0000693632
0.0000293266
-0.0000577412
0.0000262476
0.0000064346
0.0000380887
0.0002189930
0.0000234708
0.0000789814
-0.0000278105
0.0000773975
0.0000247566
-0.0000362694
0.0001719415
0.0002175585
-0.0000370744
-0.0000433318
0.0000010827
0.0000872078
0.0000025514
0.0000391350
-0.0000610895
0.0003277294
0.0001152172
-0.0000541354
0.0001049616
0.0000904002
0.0000446944
-0.0000807019
0.0004216210
0.0004128878
0.0000283467
0.0004095623
-0.0000873845
-0.0000376657
-0.0000061485
0.0000283590
-0.0000739450
0.0001435848
-0.0000532505
0.0001821348
0.0001102981
0.0000770742
-0.0000603863
0.0000276089
-0.0000457739
-0.0000330155
0.0000475493
-0.0000181083
0.0000268923
-0.0000163710
-0.0000454356
0.0000072003
0.0002813874
-0.0000147658
-0.0000268805
-0.0000014047
-0.0000371869
-0.0000802710
0.0000339351
-0.0000886044
0.0001420577
-0.0000043458
0.0001147170
0.0000704906
0.0000154898
0.0000081695
-0.0000332333
0.0000985368
0.0001473400
-0.0000059838
-0.0000040916
-0.0000359888
-0.0000182320
-0.0000508559
-0.0000840830
-0.0000102528
0.0001456926
0.0001003985
0.0000601107
-0.0000391657
-0.0000708213
-0.0000369161
0.0000352850
-0.0000791162
0.0000896062
0.0005154006
0.0001333476
0.0005078138
0.0002180328
-0.0000979832
-0.0000100879
0.0000848114
-0.0000612249
-0.0000147922
-0.0000565040
0.0001346882
-0.0000336055
0.0000872140
0.0001001516
-0.0000352224
0.0000785710
0.0001235149
-0.0000539272
0.0000147387
0.0000354481
-0.0000360345
0.0000148222
0.0000666125
-0.0000930572
0.0001317452
0.0000440621
-0.0000774490
-0.0000388105
-0.0000288142
-0.0000222321
-0.0000281205
-0.0000079120
0.0001516326
-0.0000270688
-0.0000852781
0.0000421844
0.0000349028
0.0003023079
0.0000557759
-0.0000271888
0.0000256613
0.0000935765
0.0002256255
0.0001573469
0.0000004529
0.0001784491
-0.0000194628
-0.0000528286
0.0000373922
0.0000595524
0.0001558390
0.0002305053
0.0001066484
-0.0000731948
-0.0000528281
0.0000826184
-0.0000764706
0.0000320660
-0.0000655838
0.0000841825
0.0000188879
-0.0000460517
0.0001001528
0.0000773719
-0.0000571883
-0.0000050699
0.0001242069
-0.0000323654
0.0001459619
0.0000115241
-0.0000669009
-0.0000708622
0.0000404490
-0.0000331723
-0.0000324316
0.0001124951
0.0000423325
-0.0000761787
0.0000065786
0.0000818114
-0.0000242130
-0.0000723096
0.0000801630
0.0000146320
0.0000578832
0.0000371779
0.0001926459
-0.0000290065
-0.0000664344
0.0000437235
-0.0000488330
-0.0000316424
-0.0000433033
-0.0000127104
0.0001660644
0.0000487748
-0.0000694152
-0.0000789660
0.0002867016
0.0001392023
-0.0000664987
0.0000028475
-0.0000131777
-0.0000779680
0.0000631188
0.0000700077
-0.0000425755
0.0000454340
0.0000162423
0.0000892264
0.0000187755
-0.0000265779
0.0000205985
0.0000683407
0.0000766181
-0.0000694151
-0.0000234587
0.0000446092
-0.0000565147
0.0000913180
0.0000974764
-0.0000252216
-0.0000646971
0.0001582976
0.0000621447
-0.0000247941
-0.0000534489
-0.0000485074
0.0002678775
0.0000002450
-0.0000540428
0.0001296416
-0.0000227694
-0.0000333531
0.0004717996
-0.0000397236
0.0001958776
0.0001076815
0.0001724268
-0.0000767200
0.0001649963
-0.0000542651
0.0001930711
0.0001380548
0.0000657211
0.0000039765
0.0001761111
0.0002459315
-0.0000583372
0.0001130778
-0.0000343514
-0.0000025712
-0.0000225977
0.0000009349
-0.0000375527
0.0002287168
0.0001342673
-0.0000857617
-0.0000937648
0.0003066530
0.0000834574
0.0000050209
0.0000644425
0.0000654121
0.0000393399
0.0003612009
0.0000002418
-0.0000712238
-0.0000481823
-0.0000065504
0.0003111346
-0.0000736926
-0.0000805528
-0.0001039537
-0.0000212004
-0.0000720108
0.0000407581
0.0000127339
0.0000072145
0.0000696842
0.0000820787
0.0000481936
-0.0000666313
-0.0000274345
