100,1,20,8,0.001000,0.001000,50,20,100
-0.0009420019
0.0028232713
-0.0022306040
-0.0015082055
-0.0045270520
0.0015460197
-0.0030976675
0.0008734419
-0.0018491431
-0.0003787666
-0.0021372324
0.0014233454
-0.0005255499
-0.0007671894
0.0024468863
0.0017310013
0.0013484650
-0.0005453824
-0.0028685990
-0.0025538753
0.0011418381
0.0048840803
-0.0082806412
0.0022148904
-0.0141200514
0.0026779077
-0.0099215734
0.0023002322
-0.0025217731
-0.0022056949
-0.0070724941
0.0020717187
-0.0039398373
0.0023572262
0.0068682006
0.0053838531
-0.0002636058
0.0026319652
-0.0085341750
-0.0055224955
-0.0036564665
0.0064673153
-0.0052173523
-0.0088667123
-0.0069665525
0.0086000919
-0.0044755573
-0.0030455759
-0.0040288185
-0.0070203030
-0.0035419836
0.0032904704
0.0069917495
0.0010531970
0.0001732637
0.0047746915
0.0078162325
0.0048696689
-0.0081104117
-0.0011338943
-0.0000148616
0.0006344909
-0.0015885934
-0.0010175691
-0.0013950446
0.0026840135
-0.0008324693
-0.0016081829
-0.0000389437
-0.0032356515
-0.0012531106
0.0005102219
0.0022463441
0.0021273145
-0.0005224918
0.0015286686
0.0015844842
0.0037743616
-0.0026023545
0.0011421056
-0.0045880949
0.0047321109
0.0007535943
-0.0090824219
0.0011193688
0.0042127536
0.0009727516
-0.0019155700
-0.0033346426
-0.0013198155
0.0016414477
0.0017498970
0.0059103615
-0.0031930738
-0.0021084212
0.0005746253
0.0062635417
-0.0018791699
-0.0009420150
-0.0003777876
0.0012222600
-0.0042501417
0.0036699826
0.0013700393
0.0074875353
-0.0011313304
0.0053643876
-0.0024768654
0.0030120808
-0.0011427270
0.0032722972
-0.0016497431
0.0022266570
0.0025293569
-0.0040373758
-0.0022413558
-0.0011812124
0.0031113570
0.0035883929
0.0050614320
0.0042861972
-0.0086404501
0.0027297237
0.0050907561
0.0095113711
0.0002891183
0.0072692833
-0.0060026745
0.0067175243
-0.0066547094
0.0025559637
-0.0026606810
0.0047101202
0.0093028042
-0.0066961006
-0.0014025026
-0.0026621631
0.0121593063
0.0015912503
0.0107282918
-0.0004162320
-0.0016531049
0.0012761594
-0.0028272621
0.0049001353
0.0032367605
0.0036482113
-0.0042860761
0.0015875625
-0.0051917687
0.0017054374
-0.0001852535
0.0062244577
0.0032187529
-0.0046504814
0.0001001582
0.0026602459
0.0062205001
-0.0005857612
0.0057040469
0.0008208048
-0.0060205111
0.0066024380
-0.0003113522
0.0137796240
-0.0007343608
0.0097079055
-0.0047547156
0.0043502367
-0.0020917297
0.0062270144
-0.0024062657
0.0057491836
0.0031394061
-0.0079083632
-0.0037437069
-0.0001201020
0.0044392103
0.0058300273
0.0087834179
0.0054783428
-0.0078333754
0.0034717168
0.0112251378
0.0057406595
-0.0075355321
0.0036178880
0.0020633607
0.0053380555
0.0042787660
0.0021046176
-0.0034504760
-0.0069925708
0.0027373369
0.0000949724
-0.0036824719
-0.0085460803
-0.0002824471
0.0059713052
0.0026871232
0.0041297957
-0.0035613261
-0.0019900924
0.0074960060
-0.0022901333
-0.0021305164
-0.0015304679
0.0007827394
0.0029087948
-0.0009393413
-0.0022715118
-0.0012231771
-0.0036651258
0.0046805467
0.0017783449
0.0006111399
-0.0047065866
0.0043787458
-0.0012257426
0.0012599691
0.0026239204
-0.0051235948
0.0041895707
0.0060986831
0.0061337599
-0.0056225959
0.0043834735
0.0014386254
0.0032321438
0.0043904052
0.0030891235
-0.0024413090
-0.0039813820
0.0000782655
-0.0009310548
-0.0036265242
-0.0050975596
-0.0023619366
0.0059956510
0.0018452461
0.0007521943
-0.0000540001
-0.0016174212
0.0007009435
-0.0017381989
0.0010301269
-0.0012075682
-0.0006798649
0.0002421354
-0.0019461950
-0.0012040875
0.0001975327
0.0003765609
0.0020972754
0.0003092929
0.0015513012
0.0002567692
0.0026444585
-0.0020067268
0.0004811317
0.0056860592
-0.0054907567
-0.0002398530
0.0120886075
-0.0013603275
-0.0067963769
-0.0011575085
0.0040632495
0.0040873946
0.0039350252
-0.0014493037
-0.0021398963
-0.0089908882
0.0029852837
0.0035685714
-0.0014263580
-0.0087774043
-0.0002267329
0.0023847897
-0.0004024039
0.0050714876
-0.0045324695
-0.0018363251
0.0087295786
-0.0012019967
-0.0022309956
-0.0008824221
-0.0000048965
0.0040221198
-0.0017631104
-0.0020042841
-0.0015054891
-0.0037609413
0.0060638766
0.0011330388
0.0004752974
-0.0054662763
0.0062737884
-0.0011483250
0.0025514336
0.0039340735
0.0003787126
-0.0051950925
0.0087349067
-0.0106122979
-0.0036336041
-0.0076844837
0.0053679153
-0.0000302638
0.0034440463
-0.0057526989
0.0000600670
-0.0099091647
0.0008665880
0.0079988879
0.0021076368
-0.0059976188
-0.0019532425
-0.0029982687
-0.0058931391
-0.0061499188
0.0092195461
-0.0042679527
-0.0126465411
-0.0065722726
0.0090640451
-0.0042893209
-0.0025820004
-0.0060702844
-0.0052813604
-0.0023137120
0.0042173731
0.0081283671
-0.0027326074
-0.0000023308
0.0047108419
0.0101730389
0.0010296903
-0.0072372919
-0.0030139326
-0.0016248811
0.0036184090
-0.0034109988
-0.0043247088
-0.0046845088
0.0047662383
-0.0031293717
-0.0015907306
-0.0022548478
-0.0041404126
-0.0025937570
0.0017966697
0.0035908365
0.0009327839
0.0004430658
0.0030557933
0.0044024196
0.0032627583
-0.0048382541
-0.0004501039
-0.0013035724
0.0014030138
-0.0017931795
-0.0043512749
-0.0004711858
0.0050496270
-0.0000709335
-0.0037620499
-0.0004441294
-0.0059339048
-0.0007239968
0.0011687014
0.0062222373
0.0026716185
-0.0023468456
0.0022232147
0.0043078314
0.0058692879
-0.0038413887
0.0027537733
-0.0039422252
0.0045883181
0.0026413275
-0.0040973607
-0.0005147742
-0.0030555319
-0.0006270881
0.0050762447
-0.0041298421
0.0089352167
0.0021262735
0.0008219373
-0.0037584218
-0.0097660587
0.0034147220
-0.0021829711
0.0010135579
-0.0138142461
0.0043488125
-0.0072389829
0.0018065119
-0.0020843888
0.0005375791
0.0038166379
0.0007926202
-0.0021900023
0.0002940789
0.0009018578
0.0015151831
0.0017860974
-0.0000299702
-0.0007946848
-0.0026167223
0.0009782135
0.0007874287
-0.0005821447
-0.0027098640
-0.0000368481
0.0012756618
0.0006667651
0.0013267808
-0.0006596054
-0.0008239534
0.0024362062
-0.0015769260
-0.0009017452
-0.0011016641
0.0009292044
0.0007240394
0.0006224223
-0.0009324690
-0.0001927099
-0.0021425880
0.0006683672
0.0013483117
0.0002864839
-0.0016670549
0.0006374115
-0.0002643015
-0.0005954885
-0.0001034059
-0.0004765668
0.0004198958
-0.0005258688
0.0016455955
0.0007858299
0.0012901745
-0.0010682517
0.0004366880
-0.0012197313
0.0007985214
-0.0001131523
0.0015627668
0.0008680788
-0.0012779709
-0.0000837365
0.0005853442
0.0017601071
-0.0000263479
0.0014947472
0.0031545174
-0.0042171346
0.0016480950
0.0067413360
0.0022072742
-0.0042314521
0.0013375052
0.0018258428
0.0029175783
0.0031507384
0.0007026703
-0.0019104128
-0.0045026171
0.0011806765
0.0008367381
-0.0017711041
-0.0050841682
-0.0008172969
0.0032388258
0.0008615023
-0.0002752753
-0.0000624174
0.0007372184
-0.0009685583
0.0016891630
0.0005304858
0.0011971999
-0.0009636546
0.0003842061
-0.0008622655
0.0007727163
-0.0001249660
0.0014625848
0.0004230285
-0.0012810260
-0.0002434126
0.0006440674
0.0009117637
0.0003443945
0.0012704691
-0.0014381848
0.0010062173
0.0020321726
-0.0024191428
0.0025431236
-0.0005353375
0.0022261638
0.0004457515
-0.0007352467
0.0023088902
0.0019473261
0.0002100101
0.0006704071
-0.0028571762
-0.0008321674
-0.0012877907
0.0011700111
-0.0034520962
0.0021948248
-0.0006942775
0.0011786095
-0.0010487570
0.0001135688
0.0025909424
-0.0002196276
-0.0017829314
0.0000571535
0.0010981586
0.0009292919
0.0014327020
-0.0001497716
-0.0005019634
-0.0023152362
0.0001385238
0.0008829765
-0.0004847044
-0.0018067229
-0.0007357170
0.0008399142
-0.0003517673
0.0021590223
0.0012594892
-0.0048220509
0.0042765548
-0.0084147715
-0.0002866628
-0.0056906510
0.0024235308
-0.0004261783
-0.0000119460
-0.0048056923
0.0005721029
-0.0047065617
0.0015812565
0.0048878178
0.0025822755
-0.0022166810
0.0009172271
-0.0041372610
-0.0035801299
-0.0004504429
0.0008562913
-0.0012425345
-0.0015495071
-0.0008708027
0.0019821807
-0.0007766903
-0.0007835818
-0.0003002673
-0.0022839863
-0.0005642024
0.0005220786
0.0023180892
0.0010381086
-0.0003199049
0.0011075427
0.0014698375
0.0023171919
-0.0020245199
0.0004612350
0.0023270581
-0.0047443888
0.0036115365
0.0023523316
0.0074915264
-0.0015720972
0.0052255482
-0.0023050665
0.0034607432
-0.0008203700
0.0030877600
-0.0018364662
0.0016249516
0.0027084401
-0.0037164310
-0.0023100851
-0.0017864869
0.0031182136
0.0035711979
0.0051853067
-0.0006680804
0.0026529836
-0.0015848404
0.0005201261
-0.0048612428
-0.0010399186
-0.0035944623
0.0033717969
-0.0019533893
0.0037157118
-0.0016921385
0.0007549604
-0.0040838773
-0.0032373270
0.0038192195
0.0004800825
-0.0007266508
-0.0051417102
0.0000773965
-0.0047131955
-0.0019305658
0.0035581908
-0.0010671727
-0.0030939913
-0.0029731153
0.0011590757
-0.0019240425
0.0013320543
-0.0026138074
0.0013877694
-0.0006746855
0.0012712486
-0.0002890099
-0.0030579283
0.0020995267
0.0006731444
0.0020039845
-0.0032753988
-0.0009774044
-0.0032271461
0.0003675839
0.0002734786
0.0002426793
0.0022515638
-0.0014051618
-0.0021914487
-0.0012230656
0.0032376796
-0.0002035884
0.0035740865
-0.0002773115
-0.0000784539
-0.0038521162
-0.0021573610
0.0022053293
-0.0004500330
-0.0020151836
-0.0039248085
0.0014246937
-0.0027083790
-0.0007274058
-0.0017974007
0.0036154665
-0.0023379532
0.0074174126
0.0008887296
0.0052345547
-0.0027244971
0.0012606349
-0.0011639709
0.0045146423
-0.0006246257
0.0047309211
-0.0000084179
-0.0044229992
-0.0018812650
0.0016890997
0.0009742856
0.0030977116
0.0039019979
0.0017643123
-0.0021591510
0.0006513316
0.0036583931
0.0008917836
-0.0019525097
0.0004985488
0.0010119437
0.0016533061
0.0012750929
0.0004132884
-0.0004685371
-0.0023193239
0.0010661360
0.0003578583
-0.0008754655
-0.0026542695
0.0000002071
0.0014525425
0.0004987841
0.0036219503
-0.0010297403
-0.0045505897
0.0067161630
-0.0066279883
-0.0004815982
-0.0046790442
0.0011178664
0.0013565861
-0.0018683122
-0.0045816942
-0.0002222060
-0.0041449776
0.0047485800
0.0036961870
0.0023995957
-0.0036874745
0.0047900027
-0.0040698599
-0.0007903006
-0.0033231403
0.0020161036
0.0019419218
-0.0070181180
0.0038186865
0.0033600068
0.0028596052
-0.0024946872
-0.0013993523
-0.0022074735
0.0024025058
0.0008404160
0.0061651864
-0.0014944270
-0.0033468588
-0.0002698566
0.0052311184
0.0001877661
0.0005046585
0.0019629441
-0.0022960710
0.0028099242
-0.0004780568
-0.0041782388
-0.0012155128
0.0020376496
-0.0002829343
0.0002022756
-0.0021128715
-0.0001250218
-0.0000559813
0.0012588021
0.0020167206
-0.0021630491
0.0000115992
0.0008338215
0.0030870204
-0.0017811112
-0.0004091496
-0.0014704998
-0.0011740187
0.0035463575
-0.0040269170
-0.0043259577
-0.0049563330
0.0054534003
-0.0031383970
-0.0023652651
-0.0019606300
-0.0054201937
-0.0027093852
0.0020389443
0.0044354540
0.0020666743
0.0003937363
0.0034380041
0.0042308646
0.0048906889
-0.0058322522
-0.0001003978
-0.0008461155
0.0029827605
-0.0025583748
-0.0013860389
-0.0050772728
0.0014054505
-0.0033303594
0.0010970935
-0.0015005035
-0.0000876762
-0.0022374678
0.0012456570
-0.0004888967
-0.0008954623
0.0025437282
0.0019534719
0.0012004738
-0.0008681128
-0.0023353472
-0.0027667408
-0.0000522782
-0.0003810089
-0.0010058397
-0.0017032389
0.0005369180
0.0032070258
0.0005789863
-0.0029590739
0.0005819290
-0.0045656279
-0.0004549526
0.0003154192
0.0039925622
0.0031847308
-0.0019773046
0.0012325552
0.0020118663
0.0057732585
-0.0022648585
0.0029667874
0.0000234157
0.0001423679
0.0025163012
0.0017217680
0.0010220422
-0.0045258584
0.0004364793
0.0039155422
-0.0003061911
0.0068400530
0.0016362092
-0.0004394996
-0.0049078365
-0.0047922925
0.0019735689
-0.0023874208
-0.0021577263
-0.0079387493
0.0043743614
-0.0035890643
-0.0012185763
0.0019983593
0.0006239958
-0.0009807562
-0.0010683049
-0.0014251950
-0.0009148875
0.0023580280
-0.0017903771
0.0036889740
0.0003224060
0.0004698230
-0.0018432262
-0.0038504426
0.0017676297
-0.0005916258
0.0001323596
-0.0055661709
0.0013328002
-0.0033437852
0.0010341612
0.0005771599
-0.0030154277
0.0017292964
-0.0046883598
0.0009086109
-0.0031878749
0.0003736692
-0.0001094156
-0.0016635972
-0.0028897671
0.0004523970
-0.0010980965
0.0022162481
0.0021861916
0.0019498924
-0.0004366621
0.0025210860
-0.0032969785
-0.0009638091
0.0045764174
-0.0042402200
0.0001843578
0.0094364616
-0.0007168335
-0.0056843993
-0.0007486432
0.0031866751
0.0030829052
0.0037843952
-0.0007648916
-0.0018037220
-0.0073696917
0.0017531600
0.0027890505
-0.0012918481
-0.0067833694
-0.0009603122
0.0024024222
-0.0007555384
-0.0001664296
0.0010058226
0.0000346373
0.0005839473
-0.0010203127
-0.0012647257
-0.0007560350
0.0016719965
-0.0004813846
0.0022541529
-0.0001363209
0.0000957377
-0.0021683142
-0.0017450587
0.0014164101
-0.0003891729
-0.0008012288
-0.0029226166
0.0007179656
-0.0019287669
0.0010202076
-0.0016130162
0.0016382268
0.0024048130
0.0019789928
-0.0024250296
0.0013095723
0.0012532979
0.0010444558
0.0023330133
0.0011207075
-0.0008999738
-0.0020467990
-0.0006350385
0.0002604881
-0.0015100723
-0.0022227679
-0.0014963527
0.0026897533
0.0001557784
0.0033535553
-0.0054275731
0.0023867921
0.0063859778
0.0045238038
-0.0034303651
0.0031615186
-0.0003261405
0.0038226166
0.0006206007
0.0019845808
-0.0020559456
-0.0021360202
0.0031415079
-0.0013010765
-0.0019080170
-0.0044875668
0.0023567610
0.0032505565
0.0035066244
0.0005565812
-0.0020109217
0.0018057969
-0.0008056154
0.0046108786
0.0009513540
0.0032833795
-0.0027239528
0.0016997219
-0.0025332390
0.0019105946
-0.0005403926
0.0034365253
0.0020813977
-0.0034313071
-0.0007670442
0.0008843337
0.0034390583
0.0009659608
0.0039039686
0.0031541786
-0.0009198613
-0.0028380037
0.0060493014
-0.0051822130
-0.0020931186
-0.0036917772
0.0021927999
0.0011005819
0.0008522370
-0.0031108677
-0.0003913462
-0.0052251866
0.0021921028
0.0036374917
0.0015587365
-0.0039944551
0.0010064289
-0.0017500094
-0.0015320332
-0.0028525604
0.0022939886
0.0013915515
-0.0051266464
0.0017547033
0.0015960594
0.0011439572
-0.0006621926
-0.0015524021
0.0003239668
0.0015809988
0.0007426527
0.0028756637
-0.0029669682
-0.0013981333
-0.0000179584
0.0032834188
-0.0025648056
0.0006379730
-0.0006294984
-0.0001483443
-0.0020587166
0.0042661124
-0.0001321964
0.0061886391
-0.0024283468
0.0042699557
0.0000473128
0.0016936007
0.0026757441
0.0042189720
-0.0011371291
0.0001668977
-0.0019980020
-0.0022479837
-0.0029099095
-0.0007605421
-0.0030922903
0.0047476378
0.0014887489
-0.0011661805
0.0020055977
-0.0005390038
-0.0023828537
-0.0012267200
0.0011729156
-0.0009028392
0.0000963756
-0.0013222825
-0.0000773034
-0.0003873090
0.0008136392
0.0009586204
-0.0013804209
0.0005062053
0.0007182311
0.0017212806
-0.0011169296
-0.0007490160
-0.0013146210
0.0034396307
-0.0060508339
0.0030882636
0.0057142856
0.0063620198
-0.0033540671
0.0044421124
-0.0010087915
0.0043741334
0.0001190302
0.0023484136
-0.0022487180
-0.0011101017
0.0035283058
-0.0021410087
-0.0024459824
-0.0040313405
0.0031836050
0.0037776924
0.0046725229
0.0003957080
-0.0000787417
0.0009854772
0.0018261982
0.0001654718
-0.0026121182
0.0000357302
0.0023194332
0.0002683689
0.0035094362
0.0004963309
-0.0002402937
-0.0032044331
-0.0021384494
0.0015117543
-0.0011377656
-0.0017521510
-0.0038833106
0.0023978929
-0.0019042696
0.0035934162
-0.0050881790
0.0019870343
0.0071040759
0.0033319768
-0.0044647600
0.0025936046
0.0008920928
0.0035043382
0.0019800880
0.0010390162
-0.0021507891
-0.0038007461
0.0023023948
-0.0002090691
-0.0020896664
-0.0053362350
0.0007305550
0.0033699966
0.0023961867
-0.0011565839
0.0022480930
-0.0008272252
-0.0037300328
-0.0007905223
0.0028122798
-0.0004956080
-0.0013138957
-0.0012565275
-0.0017693511
-0.0003687959
0.0009712499
0.0029011865
-0.0002915598
-0.0006664093
0.0010898697
0.0030261505
0.0009445077
-0.0018483221
-0.0000931189
0.0035464480
-0.0036036318
-0.0005338226
0.0061776674
-0.0000712564
-0.0019157789
-0.0000880729
0.0002667826
0.0027876786
-0.0001971185
-0.0009562721
-0.0010908472
-0.0029190869
0.0036268235
0.0007905226
-0.0002451450
-0.0036857969
0.0038534771
0.0002848408
0.0017390028
-0.0006122293
0.0013593314
-0.0001303076
-0.0000725975
-0.0014298779
-0.0011393728
-0.0012540260
0.0019391300
-0.0011770709
0.0026732182
-0.0002834972
0.0005625321
-0.0021691007
-0.0023498370
0.0018002538
0.0001174766
-0.0003637696
-0.0036615124
0.0006688541
-0.0026334657
-0.0011651762
0.0012188322
0.0007236482
-0.0013998474
0.0005953353
0.0001820537
0.0002791759
0.0006323853
-0.0009854258
0.0013907362
0.0007079993
0.0002840466
0.0000307917
-0.0019511728
0.0001096889
-0.0004676431
0.0011128782
-0.0025488356
0.0010660576
-0.0010394727
0.0021285093
-0.0042519102
0.0035708562
0.0041135419
0.0062492852
-0.0034783778
0.0042317218
-0.0000058296
0.0033481873
0.0017667340
0.0027124036
-0.0020169175
-0.0013153382
0.0012940543
-0.0021404483
-0.0024743383
-0.0033367317
0.0006742313
0.0043599037
0.0033393107
0.0022412543
-0.0006193596
-0.0009551894
0.0063742809
-0.0039194091
-0.0047098428
-0.0029106112
0.0046038314
0.0003781158
0.0055479436
-0.0017773662
-0.0005632555
-0.0078683257
-0.0014308684
0.0046783148
-0.0004938020
-0.0049734691
-0.0047888034
0.0013240864
-0.0040313349
0.0002440712
0.0013994104
-0.0030879040
-0.0001198671
-0.0040032340
0.0025046077
-0.0026804455
-0.0008675522
-0.0005134244
-0.0031419404
-0.0023024704
0.0010505312
0.0009506557
0.0022730470
0.0012371379
0.0024196771
0.0010720875
0.0036588376
-0.0038264581
-0.0001141725
-0.0036379353
0.0044923825
0.0002062714
-0.0063160498
-0.0014765250
0.0023879388
-0.0010513993
0.0006112763
-0.0033307103
0.0007820891
0.0002435390
0.0017080175
0.0024537136
-0.0037116155
0.0002878303
0.0007057767
0.0043221070
-0.0037654243
-0.0006712039
-0.0026531648
0.0023795371
-0.0040717944
0.0030313272
0.0051830023
0.0043040409
-0.0043622395
0.0026147415
0.0012973391
0.0025985250
0.0031542905
0.0022457558
-0.0016203818
-0.0032698870
0.0003429836
-0.0003836408
-0.0023875471
-0.0043234390
-0.0016506410
0.0042237067
0.0012308860
-0.0024768860
-0.0014629664
0.0059971210
-0.0052254693
0.0104659300
0.0004710789
0.0073645609
-0.0028803768
0.0005799653
0.0005299358
0.0058501097
-0.0006794891
0.0057083123
-0.0023691884
-0.0059013498
-0.0029392906
0.0029478612
-0.0015430397
0.0053412825
0.0040074647
-0.0025629496
0.0026341490
0.0023047204
-0.0030677281
0.0008548110
-0.0017839773
0.0003888646
0.0025955580
-0.0023364080
0.0052149174
0.0018243442
0.0006617792
-0.0013720884
-0.0060277484
0.0009279890
-0.0016973063
0.0012671547
-0.0081450189
0.0030675472
-0.0036847690
0.0005970407
-0.0005428295
0.0009225087
0.0017923850
0.0004924295
-0.0023058787
0.0000904795
0.0016900525
0.0001375778
0.0032201047
0.0004893196
-0.0003239638
-0.0025669106
-0.0009549227
0.0010339917
-0.0010432829
-0.0018064060
-0.0025273173
0.0018587572
-0.0013120993
-0.0018178856
0.0044416892
-0.0029105061
-0.0025172987
-0.0062615858
0.0014070960
-0.0044895623
0.0023956694
-0.0030948690
0.0011760357
-0.0023497185
0.0017394090
-0.0011438409
-0.0027547100
0.0040745130
0.0018924734
0.0018088627
-0.0029792048
-0.0028564398
-0.0047588234
-0.0007472299
-0.0008413670
0.0025309833
-0.0016562501
0.0040473916
0.0003729236
0.0029021800
-0.0011883928
0.0006164371
-0.0002660709
0.0023809113
-0.0003583805
0.0023015003
-0.0003406395
-0.0023392618
-0.0011946702
0.0011782735
0.0002553777
0.0018201149
0.0021398162
-0.0017084177
0.0025826795
-0.0000563880
-0.0021333364
-0.0015673386
-0.0001312007
-0.0012079830
0.0016708076
-0.0018574854
0.0023344300
-0.0000496328
0.0007949580
-0.0008168852
-0.0032934284
0.0014338291
0.0003398401
0.0012888980
-0.0042700296
0.0005094532
-0.0028480258
-0.0000652787
0.0018626042
-0.0009612052
0.0012818114
-0.0033728468
-0.0017042674
-0.0025912270
0.0028175589
-0.0012742353
0.0031151434
-0.0012389702
0.0003003593
-0.0036281303
-0.0023251423
0.0030606449
0.0001291386
-0.0011508810
-0.0040746452
0.0000774887
-0.0035994356
-0.0009843058
-0.0008083809
0.0031923326
-0.0015974816
0.0051329780
-0.0005076695
0.0035473563
-0.0005515972
0.0004640173
0.0014287169
0.0029594014
-0.0003628246
0.0014574723
-0.0016807755
-0.0020664792
-0.0018010044
0.0005514595
-0.0018901541
0.0036688822
0.0014061583
0.0003050036
0.0018457984
-0.0023535931
0.0010961349
-0.0048999240
-0.0003605875
-0.0035065265
0.0020486890
-0.0012626617
0.0020094333
-0.0023295531
0.0008754631
-0.0025381879
-0.0007328140
0.0031947816
0.0012676745
-0.0008113883
-0.0018248598
-0.0017591351
-0.0032322769
0.0001243957
-0.0028753409
0.0032537251
-0.0007471475
0.0069044343
0.0003718521
0.0047272999
-0.0026984167
0.0019501922
-0.0019070536
0.0029762090
-0.0007101382
0.0036402476
0.0015656196
-0.0042889352
-0.0014504983
0.0008618091
0.0030420085
0.0023845490
0.0045978674
-0.0008498338
0.0004555148
-0.0010955002
-0.0037589920
0.0009309412
0.0048898242
0.0008897764
-0.0042611691
0.0001850091
-0.0060955909
-0.0001085302
0.0007591958
0.0062685943
0.0034371774
-0.0030657250
0.0017274408
0.0037183909
0.0070340469
-0.0031739937
0.0037156559
0.0042495959
-0.0041512710
-0.0005078234
0.0085445718
-0.0007458466
-0.0041647793
-0.0006875043
0.0018003168
0.0031883023
0.0015827117
-0.0009976060
-0.0017076343
-0.0056862230
0.0030177869
0.0019949747
0.0000591200
-0.0059420729
0.0015518512
0.0012065113
0.0005115128
-0.0009271068
-0.0008628838
0.0035781312
-0.0007029884
0.0051118702
-0.0020838485
0.0032947260
0.0004991828
0.0001337579
0.0031034298
0.0031130332
-0.0006957693
-0.0000023056
-0.0026692021
-0.0011595122
-0.0024845104
-0.0001671659
-0.0039996656
0.0045071886
0.0002816108
-0.0024347823
0.0034477904
0.0002021736
-0.0036468164
-0.0016825010
0.0003719865
-0.0011171811
0.0015901448
-0.0026587887
0.0025154373
0.0003518976
0.0016647382
-0.0001292801
-0.0042286253
0.0012978513
-0.0000101628
0.0022639952
-0.0048720782
0.0002318993
-0.0035305937
-0.0007551872
0.0004789216
0.0014659924
-0.0007658752
0.0017044530
-0.0009434703
0.0011363916
0.0005331733
-0.0003713271
0.0018330573
0.0015419592
-0.0001451845
-0.0001907418
-0.0018037531
-0.0002896717
-0.0010758925
0.0002436415
-0.0023956895
0.0018696167
-0.0002985813
0.0018558593
-0.0023805261
0.0008373217
0.0042386803
0.0012047265
-0.0022286377
0.0007079596
0.0007826302
0.0016846818
0.0012015518
0.0003008248
-0.0010706039
-0.0022080076
0.0010147929
0.0003941324
-0.0009640131
-0.0028305101
0.0006934596
0.0015911053
0.0007279773
-0.0019644393
0.0019778328
0.0017820695
-0.0017007444
0.0004573861
-0.0013598517
0.0001810924
0.0021454048
-0.0018464409
0.0040821483
0.0012668333
0.0003166816
-0.0013442841
-0.0045391448
0.0009887128
-0.0012362459
0.0006056331
-0.0062161301
0.0023966114
-0.0027871513
0.0012284167
-0.0023976695
0.0038290715
0.0044164919
0.0034902162
-0.0062557501
0.0021793690
0.0037296592
0.0010426254
0.0073119896
0.0024865426
-0.0014973275
-0.0058636248
-0.0036304297
0.0011846562
-0.0034488808
-0.0043793451
-0.0073194700
0.0062473316
-0.0019011812
0.0000400434
0.0009127983
-0.0007159996
0.0009185733
-0.0022566186
-0.0009365772
-0.0015367092
0.0015984540
-0.0007244833
0.0018484702
-0.0009205100
0.0001863310
-0.0018691669
-0.0010636470
0.0018813211
0.0005535534
-0.0008014964
-0.0020904279
0.0000788721
-0.0017661794
0.0074546577
-0.0074756646
-0.0010651755
0.0148950378
-0.0010773019
-0.0061575134
-0.0008029197
0.0020857740
0.0056134091
0.0012783785
-0.0022751981
-0.0027340214
-0.0083778772
0.0064987535
0.0027934621
-0.0006982237
-0.0098496767
0.0046464880
0.0014038347
0.0020185381
-0.0031059296
0.0062511511
-0.0039019143
-0.0055623741
-0.0074205438
0.0036616958
-0.0050421720
0.0011335872
-0.0043834980
-0.0003662417
-0.0030825460
0.0027952450
0.0009295578
-0.0027526332
0.0030750608
0.0028898523
0.0043634103
-0.0024023346
-0.0046779042
-0.0049401844
0.0005221493
0.0007827133
-0.0030222383
-0.0000002432
-0.0035014359
0.0026594760
-0.0023002870
-0.0011945060
-0.0001016952
-0.0035806861
-0.0022052338
0.0006587646
0.0013581414
0.0027446399
0.0005800060
0.0025210621
0.0009177169
0.0043909162
-0.0038699690
0.0004369987
0.0009749963
-0.0018639685
0.0002998254
0.0010539202
0.0018315982
0.0003647050
0.0012473626
-0.0013786420
0.0016963515
-0.0020149430
0.0003833672
-0.0003482971
0.0013496042
0.0024045562
-0.0014509329
0.0000148661
-0.0004581235
0.0032564709
-0.0001444055
0.0028188870
0.0017736139
-0.0033926939
0.0048128922
0.0051727253
0.0051867666
-0.0066775726
0.0032088544
0.0037932028
0.0017609351
0.0076028367
0.0031836311
-0.0018933632
-0.0057677739
-0.0029866938
0.0005024681
-0.0039136720
-0.0050212563
-0.0066912166
0.0068817010
-0.0009390479
-0.0009237534
0.0029311588
-0.0035995309
-0.0025368515
-0.0052776182
0.0039573946
-0.0031355743
-0.0008637652
-0.0016846690
-0.0038453219
-0.0030243377
0.0015739209
0.0022400349
0.0015635676
0.0010434689
0.0029570314
0.0028102325
0.0034420053
-0.0046546011
-0.0008448939
0.0000647057
0.0050225489
-0.0054659897
0.0028429088
-0.0125577664
-0.0016234673
-0.0090144889
0.0065240446
-0.0034931771
0.0053380074
-0.0056143441
0.0017382830
-0.0083528030
-0.0037811918
0.0086517539
0.0025325551
-0.0021457352
-0.0068134153
-0.0031646677
-0.0092265689
-0.0000097165
-0.0006799515
0.0005436890
-0.0006448854
0.0016685205
0.0006451513
0.0012204814
-0.0012496919
0.0005369480
-0.0012835127
0.0011652852
-0.0001488101
0.0016329132
0.0008544380
-0.0012938761
-0.0000694623
0.0005274804
0.0016887334
0.0001139342
0.0015848708
0.0042456836
-0.0019618958
-0.0046147478
0.0071323541
-0.0062776671
-0.0004073677
-0.0045323917
0.0005677045
0.0019540280
-0.0023719070
-0.0046167607
-0.0002394832
-0.0038856761
0.0058733430
0.0035000777
0.0025036065
-0.0039390465
0.0060483407
-0.0043670977
0.0002363176
0.0012293669
0.0000352174
-0.0011464887
0.0016162600
-0.0016200381
-0.0000635960
-0.0012078471
0.0002845285
0.0004232413
-0.0006712995
-0.0012709705
0.0000973678
-0.0009829417
0.0015926022
0.0008836161
0.0009917358
-0.0007576188
0.0013698483
-0.0011277065
-0.0000962012
0.0002925241
0.0002988305
0.0006283227
0.0022655016
-0.0010231293
-0.0032902434
-0.0010905407
0.0036865439
-0.0006506231
0.0048441822
0.0000423469
-0.0001327578
-0.0046403138
-0.0029387167
0.0025971138
-0.0012032877
-0.0023250966
-0.0057411672
0.0022232587
-0.0029429840
-0.0010253876
0.0010137925
-0.0002524136
-0.0020257971
0.0000134843
0.0017100484
0.0000760451
-0.0010950833
-0.0006546052
-0.0014608427
0.0001033277
0.0009375493
0.0021507316
-0.0000089336
-0.0008169291
0.0008770593
0.0018740530
0.0008611265
-0.0008916749
0.0003819744
0.0025828519
-0.0011003245
-0.0019558330
0.0055125832
-0.0036939874
-0.0018757369
-0.0027866186
0.0022261965
0.0008115944
0.0014473373
-0.0019694575
-0.0003841911
-0.0048349018
0.0012853586
0.0031513139
0.0006196570
-0.0036354463
-0.0000307624
-0.0007929879
-0.0017606317
0.0026639439
-0.0014550243
-0.0007474866
0.0067035732
-0.0032284911
-0.0044552193
-0.0024837531
0.0039526694
0.0009638143
0.0043134298
-0.0011999232
-0.0008022133
-0.0071821262
-0.0004677540
0.0041126449
-0.0006085827
-0.0051540989
-0.0032564521
0.0012124629
-0.0030368840
0.0004339831
0.0016647381
-0.0002556516
0.0033103608
-0.0044576380
-0.0034981483
-0.0033303183
0.0051012117
-0.0012595842
0.0059740533
-0.0012716028
0.0001209340
-0.0068072964
-0.0034407064
0.0049715277
-0.0004460713
-0.0028844710
-0.0071430341
0.0011905209
-0.0056709485
0.0003924838
0.0007603011
-0.0004039187
0.0007448523
-0.0013594610
-0.0006927100
-0.0010600441
0.0014609746
-0.0002165218
0.0013259886
-0.0004865175
0.0002126325
-0.0015582093
-0.0006211412
0.0014226297
0.0001716947
-0.0005864316
-0.0015497713
0.0001023304
-0.0015178112
0.0000801667
-0.0000582602
0.0001941446
0.0000666385
0.0000196950
0.0000562329
-0.0000101069
0.0000104626
-0.0000235937
0.0000048522
-0.0000376013
-0.0000534918
-0.0000390273
0.0000840460
0.0001209574
-0.0000112751
0.0000041359
-0.0000154195
0.0001205571
0.0000153152
0.0014358995,-0.0018956438,0.0001542239,0.0114259451,-0.0247970374,-0.0241731267,-0.0208197450,0.0458425774,0.0074092204,0.0256960466,-0.0173793959,0.0241167205,0.0360213389,-0.0360845292,-0.0513379489,0.0255887844,-0.0471857878,0.0452383394,-0.0438655129,0.0113297326,0.0193025404,0.0156680011,-0.0333946762,0.0324141780,0.0245588602,0.0203696708,-0.0218832705,0.0109390920,-0.0341863953,-0.0067890135,0.0473494066,0.0196132172,-0.0110839984,0.0168829316,-0.0143783562,0.0268842080,-0.0126301919,0.0160661518,0.0029115057,-0.0414328159,-0.0081758866,0.0469322221,-0.0194313416,-0.0391099354,-0.0147701096,0.0074477610,0.0269717568,-0.0334841803,-0.0240518337,0.0118325501,-0.0090350556,-0.0345144082,0.0231381701,0.0342262773,-0.0449731095,-0.0464894237,-0.0032004671,0.0419660568,-0.0162552987,0.0137562484,-0.0093370133,-0.0466401166,0.0189686491,
