300,1,20,8,0.001000,0.001000,1024,Rectangle,50,20
0.0062284988
0.0008472434
-0.0008503002
-0.0005793122
0.0112518330
0.0044816977
0.0061731380
0.0043327770
-0.0017009796
0.0031784426
0.0063589593
0.0058883030
0.0038026175
-0.0001101655
0.0064682269
0.0018100416
-0.0022146214
0.0016421731
0.0044723703
-0.0013017107
0.0021167772
0.0020219515
-0.0004112186
0.0001847011
-0.0048435212
0.0021185671
-0.0043943217
-0.0030783016
0.0049436755
-0.0013558946
-0.0010190025
-0.0013358361
-0.0012040800
0.0006866514
-0.0057051042
0.0081206475
0.0033713080
-0.0032718398
-0.0044467973
0.0027638599
0.0019307023
0.0020429042
-0.0001667532
-0.0009666117
-0.0052889014
0.0012534684
-0.0009097061
-0.0023518484
0.0013528697
-0.0035153996
-0.0061636036
-0.0036404684
-0.0011974621
0.0003871232
-0.0035452034
0.0043551869
0.0033247345
-0.0030934802
-0.0045157071
0.0017151850
0.0010411868
-0.0005189879
0.0029855465
0.0031358547
-0.0062668100
0.0000071339
-0.0049962794
-0.0020516389
0.0028800851
-0.0034285621
-0.0044012448
0.0012573107
-0.0032096280
0.0020549857
-0.0035795252
0.0039220361
0.0039656393
-0.0032518294
-0.0031161148
0.0018588027
0.0020033237
-0.0001040151
-0.0006222633
0.0018540028
-0.0075727245
-0.0000274637
-0.0042281616
-0.0011710610
0.0029695203
-0.0010184734
-0.0069492093
-0.0039363675
-0.0019393021
0.0008240951
-0.0034694426
0.0030711028
0.0019903491
-0.0024337395
-0.0056837242
0.0024450926
0.0006490723
0.0026472408
-0.0016572597
0.0003582373
-0.0043569533
-0.0014437915
-0.0021709013
-0.0015199367
0.0029358082
-0.0003351843
-0.0044964386
-0.0032733174
-0.0035212677
0.0016438683
-0.0050817033
0.0059398779
0.0029160211
-0.0044558563
-0.0009901534
0.0003343441
0.0012440802
0.0039282603
0.0012061385
-0.0011552665
-0.0069437938
-0.0028061091
-0.0048341485
-0.0034145088
0.0009760443
-0.0013928762
-0.0052736907
-0.0027277999
0.0007857447
0.0007590981
-0.0029911778
0.0039005396
0.0045397586
0.0027881882
-0.0052730149
0.0005023009
0.0016494185
0.0039472668
0.0036848690
-0.0011573001
-0.0074017357
0.0015106099
-0.0007673832
-0.0038906934
0.0005193239
-0.0018173822
-0.0045875528
-0.0037647194
0.0023166728
0.0009389171
-0.0041562131
0.0042233077
0.0024940735
0.0020352000
-0.0053312624
0.0037710146
0.0011649672
-0.0005952795
0.0032189541
0.0002717876
-0.0078406497
0.0023446335
-0.0038272688
-0.0019314822
0.0022718448
0.0052263912
-0.0058945994
-0.0022808832
-0.0001118604
0.0043944799
-0.0000206418
0.0030467450
0.0015782721
-0.0014300877
-0.0043266584
0.0011222629
0.0045614502
-0.0005626365
-0.0009277870
-0.0010650804
-0.0057328025
-0.0024005502
-0.0040651987
-0.0003597208
0.0006574790
0.0018903218
-0.0063446729
-0.0035029739
-0.0028507872
0.0021587935
-0.0047120931
0.0035130224
0.0024359307
-0.0014488114
-0.0052974731
0.0027552261
0.0058080753
-0.0001900591
0.0002624562
-0.0009753408
-0.0062183824
-0.0025491953
-0.0001685664
-0.0013283449
0.0009996239
-0.0027899902
-0.0023191736
-0.0042769260
0.0025488213
0.0024455953
-0.0037713417
0.0027521502
0.0014490812
-0.0010730318
-0.0048483831
0.0019962281
0.0044359040
-0.0002350736
-0.0000716703
0.0001709254
-0.0049888328
0.0036148257
-0.0043480557
-0.0032154135
0.0019137326
-0.0031984612
-0.0045140207
-0.0027490551
-0.0007354768
0.0059651405
-0.0036287315
0.0056429473
0.0000716890
-0.0016717410
-0.0047360555
0.0063505876
0.0019515988
0.0004690788
0.0005848684
0.0002241664
-0.0042548897
-0.0020671346
-0.0023517991
-0.0033305611
0.0045780340
0.0015120676
-0.0019858852
0.0032423103
0.0021768588
0.0049533463
-0.0022253698
0.0032164968
0.0024755670
-0.0009135905
-0.0046828366
0.0016988285
-0.0051206258
-0.0009293490
-0.0058548003
-0.0049849238
0.0007010207
-0.0003529022
0.0004929677
0.0085538327
-0.0007573907
0.0027881029
-0.0010107156
-0.0003045587
-0.0029030096
-0.0064651310
-0.0055715981
0.0155893742
0.0061589106
-0.0017928976
0.0024601090
-0.0020018008
-0.0065495859
-0.0027318832
-0.0024895528
-0.0037077794
-0.0057771539
0.0014459685
0.0019426171
0.0014769009
-0.0025977664
0.0026576650
-0.0074237240
-0.0044527807
-0.0040703447
-0.0014900255
-0.0101158545
0.0093207785
0.0106086750
-0.0025469663
0.0030646314
-0.0042342358
-0.0093601120
0.0021931402
-0.0154046511
-0.0064776334
0.0105180676
0.0001420950
0.0008533075
0.0122228582
0.0049319337
0.0031483685
0.0079613114
-0.0006394580
-0.0059268448
-0.0175627706
-0.0122164616
0.0147254418
0.0156155242
-0.0151780583
0.0156055802
-0.0034690409
-0.0264056462
0.0049085989
-0.0396824950
-0.0223998010
0.0440236237
-0.0049303989
0.0035502344
0.0377112642
0.0182786104
0.0056500456
0.0381376578
0.0041687543
-0.0151264080
-0.0446082741
-0.0165912330
0.0287234975
0.0250168323
-0.0389104508
0.0475877702
-0.0028483945
-0.0267790286
-0.0095120451
-0.0020624677
-0.0024881393
-0.0604671897
0.0054344965
0.0121745703
-0.0102040318
-0.0127041413
0.0142089722
-0.0635288026
-0.0374466497
-0.0214076813
0.0026787718
-0.0843692844
0.0646228766
0.0823929754
-0.0419022343
-0.0305280289
-0.0259868949
-0.0490075198
-0.0270483403
-0.0011549746
-0.0176926575
-0.0513540776
0.0187276214
0.0463965027
0.0013397308
-0.0441892366
0.0390825014
-0.0582484669
-0.0222703359
-0.0064351913
-0.0061087316
-0.0604695101
0.0494182190
0.0677481602
-0.0088191317
-0.0248269550
-0.0560427428
-0.0025605308
-0.0255555923
0.0358639592
0.0071960564
-0.0168848217
0.0189558643
0.0284243635
-0.0250714649
-0.0520875727
0.0175613782
-0.0215664526
0.0044533571
0.0251852480
0.0267660084
0.0316352637
-0.0431212215
-0.0410651532
0.0618179832
-0.0321266586
-0.0297757952
-0.0160203291
-0.0124147991
0.0009259671
-0.0081583473
0.0072699926
0.0070993633
0.0167382391
0.0049360472
-0.0190327291
0.0125574390
0.0042988159
0.0088398765
0.0089355206
-0.0092499563
0.0154063758
-0.0004208685
-0.0066825754
0.0151218247
0.0065764490
-0.0168477882
0.0022459113
-0.0010601188
0.0044132130
-0.0002216161
0.0072131796
0.0028856810
-0.0019754457
0.0000540315
-0.0014744311
-0.0015030743
0.0078402664
0.0039677688
0.0059661132
-0.0000173406
0.0136788011
-0.0099343399
-0.0123095978
0.0099943493
0.0045341764
0.0003515986
-0.0019227239
0.0003114743
-0.0018886557
-0.0026787473
-0.0047941884
0.0013106701
-0.0007401474
-0.0018199446
0.0052979660
0.0015958075
-0.0036262016
-0.0016752331
-0.0003693242
-0.0016713263
-0.0024099495
0.0070177922
0.0046376472
0.0021114479
-0.0016932553
-0.0001256306
0.0030576590
0.0022853573
-0.0037881680
-0.0017450494
-0.0046285422
-0.0031042337
-0.0044003150
0.0014314291
0.0051729662
-0.0028073326
-0.0052062761
-0.0050810533
-0.0066314749
-0.0016275489
-0.0114281970
0.0138342752
0.0127390505
-0.0112299184
0.0026497982
0.0032698244
0.0094581574
0.0049753289
0.0021009518
0.0045837657
0.0046609097
-0.0039220652
-0.0085126919
-0.0028279794
0.0052958242
-0.0071830854
0.0048477607
0.0024468583
0.0022015684
0.0045236577
0.0079056545
-0.0100581976
-0.0086260010
0.0058710568
0.0012583342
0.0095005059
0.0019042201
-0.0000985872
0.0029087504
-0.0009134386
0.0052276991
0.0015701978
0.0002816073
-0.0029348288
-0.0011399053
-0.0022054221
0.0063561313
0.0045745520
0.0040673104
0.0000474778
0.0099091749
-0.0107274567
-0.0122129198
0.0123062481
0.0020149639
0.0005814832
-0.0070553896
-0.0043027932
0.0002832977
-0.0045971708
-0.0028032225
0.0025000142
0.0041335541
0.0024835278
-0.0052781768
0.0072244750
-0.0063872286
-0.0032088276
0.0007745453
-0.0038720441
-0.0067316381
0.0059954760
0.0067339440
-0.0023333672
-0.0013859396
-0.0077801378
-0.0039915167
-0.0040000749
0.0004632532
0.0020344323
-0.0067403907
0.0004902907
0.0052120285
-0.0033107994
-0.0059932376
0.0049802750
-0.0079574129
-0.0033428183
0.0000533253
0.0054622351
-0.0036493547
-0.0012676833
0.0050177345
0.0049360301
-0.0051817818
-0.0044792392
-0.0016752787
-0.0068524601
0.0022760162
-0.0028923338
0.0260334184
0.0043397901
0.0099271362
0.0031944899
-0.0114426009
0.0034642607
0.0202383197
0.0174395359
0.0115730623
-0.0048424149
0.0276433426
-0.0249885652
-0.0308581228
0.0233844949
0.0097851894
-0.0046902474
-0.0239649445
0.0089732618
-0.0503008796
-0.0249275000
0.0891882932
-0.0071952015
0.0031464366
0.0596968912
0.0248061408
0.0028963556
0.0858130920
0.0329027141
0.0014748099
-0.0590052839
0.0218231549
0.0038734760
-0.0087814226
-0.0216614266
0.0758144286
0.0025322161
-0.0536004037
0.0064969073
-0.0929964800
-0.0543653636
0.1839984659
-0.0000081862
0.0255193932
0.1112658705
0.0332231451
0.0126091353
0.1682921034
0.0704607869
0.0012242169
-0.1182015919
0.0571841969
-0.0115078092
-0.0271501580
-0.0135922102
0.1525320588
-0.0075734028
-0.0660321163
0.0040248835
-0.0995722528
-0.0605293209
0.1794792176
0.0000327742
0.0323931605
0.1200326182
0.0315442020
0.0205866222
0.1629221765
0.0696534534
-0.0039456121
-0.1265447145
0.0461796740
0.0068102445
-0.0145102906
-0.0272629954
0.1543298980
-0.0177319011
0.0179532764
0.0145131445
-0.0277330289
-0.0076673524
0.1260979282
-0.0019482682
-0.0110929408
0.0413970893
0.0257934196
-0.0180655711
0.1198837497
0.0559098092
0.0192059430
-0.0352952625
0.0874017667
-0.0783916327
-0.0873030101
0.0281657708
0.0723867803
0.0266940160
-0.0193718430
0.0071367812
-0.0496506248
-0.0244744649
0.1298023818
-0.0013228049
0.0141223758
0.0621738290
0.0181428250
0.0020163733
0.1178847433
0.0537437291
0.0087150932
-0.0660455150
0.0583396577
-0.0321558315
-0.0469535823
0.0093687196
0.0907880152
0.0002451290
-0.0151920654
-0.0083965070
-0.0058715378
-0.0103053222
0.0276395895
0.0070083096
0.0171955556
0.0145751077
-0.0128461344
0.0124077344
0.0219367446
0.0143751897
0.0067177777
-0.0181061018
0.0149727207
-0.0026496880
-0.0096668780
0.0132356029
0.0193609424
-0.0143321156
-0.0443290076
-0.0232428067
-0.0208362887
-0.0286931923
0.0674020210
0.0215095051
0.0459725100
0.0371891286
-0.0360340432
0.0323846896
0.0523386570
0.0373939628
0.0178382319
-0.0429517573
0.0428128179
-0.0142633174
-0.0309024449
0.0381310644
0.0512546312
-0.0410631227
-0.0054195876
-0.0312358932
0.0067385504
-0.0139620894
0.1794327758
0.0338612053
0.0568004703
0.0342133581
-0.0641505036
0.0274513071
0.1545724997
0.1065186763
0.0772543890
-0.0287316715
0.2031848201
-0.1781275387
-0.2061415680
0.1631042777
0.0839816256
-0.0285207220
-0.0792974365
-0.1001168573
0.0215407291
-0.0435268475
0.2396035163
0.0871707162
0.1642299966
0.0557339395
-0.1771680672
0.1021711858
0.1874195683
0.1510247896
0.1310699789
-0.0601962280
0.2832751335
-0.2247100653
-0.2758685133
0.2784535057
0.1225337613
-0.1297317536
-0.1637068498
-0.0486897029
-0.1344998440
-0.1162125177
0.2813525143
0.0464588689
0.1376929470
0.1874399924
-0.0575649567
0.0972953686
0.2371897941
0.1341454030
0.0335856075
-0.2059864704
0.1202569354
-0.0005713251
-0.0637010469
0.0470642568
0.2364727487
-0.1078126246
-0.0862343346
-0.0918265930
0.0391161947
-0.0316739642
0.0707741039
0.0778985398
0.1446213181
0.0124663688
-0.1715052608
0.0999506130
0.0380795010
0.0720120572
0.0882664997
-0.0162807408
0.1492246135
-0.0943052701
-0.1292421890
0.1902964451
0.0199375668
-0.1331714298
-0.0028321267
-0.0310772780
0.0405317270
0.0092307924
0.0353569656
0.0270396757
0.0393418038
-0.0156784823
-0.0644701309
0.0224895332
0.0239208268
0.0357413496
0.0456222592
0.0216106382
0.0940465401
-0.0860916371
-0.1007415702
0.1036614995
-0.0020098361
-0.0339636932
0.0424239969
-0.0216276317
0.0623798500
0.0279672538
0.0413100517
0.0212502506
0.0158075730
-0.0430583475
-0.0604324660
-0.0005924256
0.0348883718
0.0432473726
0.0642276962
0.0495320200
0.1382218820
-0.1475862013
-0.1542916170
0.1395384568
-0.0271613936
-0.0027604457
-0.0090073223
-0.0223054264
0.0121235935
-0.0011907741
0.0556664747
0.0184431978
0.0327811151
0.0042381985
-0.0410074882
0.0170470961
0.0413965957
0.0346752917
0.0352417009
-0.0042172762
0.0742817032
-0.0614889163
-0.0746911436
0.0719586444
0.0187473704
-0.0226954065
-0.0131178534
-0.0535490027
0.0419519593
-0.0017163412
0.0881855786
0.0529103545
0.0796704838
-0.0026331283
-0.1063246179
0.0424333466
0.0699197904
0.0784393007
0.0798181414
0.0043249863
0.1758154840
-0.1577467930
-0.1784303479
0.1803362982
0.0203801243
-0.0551260539
0.0109548632
-0.0018369515
-0.0019699588
-0.0034197536
0.0532123758
0.0014010704
0.0048987916
0.0109841277
-0.0032546424
-0.0039191402
0.0529019287
0.0345380638
0.0182274677
-0.0101713182
0.0589722961
-0.0475701608
-0.0569379749
0.0372263275
0.0262985143
0.0036028065
-0.0116860095
0.0141248920
-0.0346027750
-0.0144193599
0.0279430956
-0.0133300848
-0.0145643219
0.0319545704
0.0374328757
-0.0065242400
0.0310297994
0.0070954825
-0.0211273302
-0.0365020880
-0.0294630130
0.0471773710
0.0426878274
-0.0505950235
0.0401840570
0.0143993084
0.0279329138
0.0299206722
-0.0264166739
0.0008527014
0.0404577152
-0.0251559979
-0.0433629553
0.0193214320
0.0561717249
-0.0347098172
0.0476829343
0.0147913798
-0.0124795697
-0.0123936601
0.0051108243
-0.0062386751
-0.0066278892
-0.0381163218
0.0301971046
0.0518583281
0.0794308664
0.0535759276
-0.0190449320
0.0209552518
0.0596510731
-0.0367961018
-0.0844369263
0.0086903055
0.0951691790
-0.0686297261
0.0768482670
0.0220241932
-0.0059430489
0.0071110936
0.0388809958
-0.0606680172
-0.0583072403
-0.0288801082
0.0249316566
0.0993093365
0.0525749282
0.0559057469
-0.0408441286
0.0030692520
0.1006601795
-0.0381117099
-0.0721108375
0.0370065621
0.0955660049
-0.0582177777
0.1100887413
0.0324309788
-0.0106838256
-0.0297372786
0.0317267388
-0.0379491450
-0.0350073568
-0.0458565437
0.0672914962
0.0836832578
0.0788585664
0.0815919562
-0.0711981410
0.0052953528
0.1209926973
-0.0606118262
-0.1147473843
0.0510650460
0.1567602087
-0.0908798553
0.1379880645
0.0272622511
-0.0376070573
-0.0422331752
0.0085626340
-0.0197716489
-0.0172618108
-0.0995404503
0.0913551529
0.1273202432
0.0705673310
0.0675363003
-0.0469846330
0.0124556923
0.0820741181
-0.0513128578
-0.0936269924
0.0288057514
0.1166931951
-0.0747652340
0.1004349638
0.0202951284
-0.0253407371
-0.0199123824
0.0161208447
-0.0308478262
-0.0216163555
-0.0657693325
0.0554504287
0.1023992625
0.0511279408
0.0359596441
-0.0013214794
0.0237375404
-0.0206725711
-0.0292015435
-0.0611528027
-0.0192883758
0.0576757529
-0.0489188511
-0.0061575467
-0.0152340346
-0.0212941697
0.0248536823
-0.0289257930
0.0003180075
0.0195406472
-0.0438995008
-0.0188505980
0.0572942170
0.1560240170
0.1496082887
-0.0968678104
0.0371013111
0.1043616984
-0.1118939194
-0.2176954760
0.0464905499
0.2736788608
-0.1590681359
0.1467574319
0.0012256765
-0.0845904294
-0.0290202631
-0.0542678358
0.0179114781
0.0382161343
-0.2056709876
0.0905778219
0.2325517858
0.1367296252
0.1166325449
-0.0810777380
0.0307499234
0.1531862050
-0.0889147399
-0.1690849316
0.0564040739
0.2139199032
-0.1365923779
0.1825880803
0.0388309515
-0.0450527613
-0.0339754464
0.0326013902
-0.0697318916
-0.0475241049
-0.1113827093
0.1061600105
0.1916590472
0.0783072230
0.0555523269
-0.0021831757
0.0373470356
-0.0253911588
-0.0465314359
-0.0956629065
-0.0222179230
0.0973918995
-0.0711344605
-0.0059533305
-0.0268943481
-0.0341419029
0.0304807504
-0.0431809829
0.0127072987
0.0298513131
-0.0731363760
-0.0121278157
0.0905262389
-0.0218970301
-0.0352334686
0.0495207100
0.0140430548
-0.0807033054
0.0282026256
0.0376128982
-0.0409136605
-0.0612086098
0.0296414390
-0.0879593729
-0.0235359070
0.0220238824
0.0374197319
-0.0032065417
-0.0104476015
0.0020524261
0.0660696181
-0.0559938961
-0.0451833097
-0.2198329746
-0.1154934835
-0.0545794034
-0.1029648068
0.1150673092
0.0928159048
0.2171624472
0.1134083995
-0.1754111015
0.1642305148
0.0609555088
0.0736951680
0.0512245262
-0.1327253693
0.0636601889
0.0459274600
0.0079806416
0.1188856776
0.1335918258
-0.2082428987
-0.1667429143
-0.1234934910
0.0287934206
-0.0580974831
0.0104662336
0.0988280905
0.2017886783
0.0254342156
-0.2167446561
0.1476917787
-0.0312225691
0.0508003274
0.0774304816
-0.0480088184
0.0918023926
-0.0372858700
-0.0559925272
0.1834855122
0.0112652292
-0.2001683946
0.1053902548
0.0679256670
0.0031262744
0.0424213430
-0.0019685210
-0.0519597563
-0.1173306730
-0.0288801873
0.1121337847
-0.0873244479
0.0235827730
-0.0087554024
-0.0224537994
0.0395197439
0.0053178907
-0.0606536706
-0.0355356913
-0.0441886898
-0.0196355846
0.1238231145
0.1225483458
0.0857488838
0.0194169425
0.0753092219
-0.0575626674
-0.0668981817
-0.1416162331
-0.0546575905
0.1301233943
-0.1116252797
-0.0171341992
-0.0298942171
-0.0279271753
0.0695396181
-0.0019982144
-0.0607438257
-0.0388578176
-0.0557022371
-0.0525318152
0.1442582268
0.0629116338
0.0631504498
0.0060426248
0.0476804586
-0.1190374895
-0.0556687107
-0.1076597265
-0.0466210689
0.1079177836
-0.0722571231
-0.0908053123
-0.0740740609
-0.0553627076
0.0468827835
-0.1055911061
0.0536341940
0.0879506786
-0.1134802624
-0.0551415137
0.0911772364
-0.0692019628
-0.0303346905
-0.0183661522
-0.0298453847
0.0418746388
0.0246646210
0.0646974656
0.0435899170
-0.0488657312
0.0437135873
0.0210429988
0.0293255109
0.0189398731
-0.0488868025
0.0275697446
-0.0146735979
-0.0065328721
0.0409155817
0.0454417255
-0.0574198474
-0.0792727353
-0.0505108009
-0.0143096280
-0.0373063285
0.0832280555
0.0430331978
0.0845083570
0.0470004982
-0.0601301688
0.0633384539
0.0597225883
0.0537937095
0.0402663336
-0.0606706863
0.0722482191
-0.0395488372
-0.0369956543
0.0985774525
0.0685672105
-0.0733740623
-0.0825097161
-0.0893985532
0.0840540810
-0.0017903438
-0.1101556169
0.0712641627
0.1159847816
-0.0629101309
-0.1543016867
0.0973439645
-0.1303281929
-0.0222305213
0.0525592953
0.0433049728
-0.0121422643
0.0018688629
0.0388415415
0.1391644916
-0.0815491581
-0.1255897298
0.1144280368
0.0244121426
0.0702137023
0.0696155132
0.0064884455
-0.0113038545
-0.0726489461
-0.0634790956
0.0302959782
-0.0627084374
0.0208105013
0.0140927822
0.0445765280
0.0880341869
0.0796203652
-0.1385946133
-0.1051933335
0.0896787432
-0.0369553854
0.0869298934
-0.0834317339
0.0475597176
-0.1480150343
-0.0702423841
0.1669296082
-0.0387837927
-0.0169670034
0.1476129597
0.1262926935
-0.0033418373
0.1569271686
0.0224020544
-0.0646338190
-0.1740094528
-0.1061848099
0.1875766473
0.1880915337
-0.1711425291
0.2191474338
0.0223937902
-0.2161418499
-0.1498031040
0.0351277928
-0.0646958693
-0.0237212356
0.1253132509
0.2429547400
0.0255143247
-0.2440218255
0.1850482671
-0.0758654644
0.0194035746
0.0759851538
-0.0517730159
0.0056544357
0.0808421040
0.0783726188
0.1743651700
0.0089226635
-0.2426639578
-0.1331016090
-0.0230054686
-0.0543310912
-0.0425645577
-0.0419357617
0.0142697635
0.0641190037
0.0484884104
-0.0081711876
0.0643338115
-0.0597619965
-0.0466546491
-0.0491535603
-0.0803184278
-0.1566187105
0.2326794900
0.2406098850
-0.0904872311
0.0524266130
-0.0887017295
0.1731299857
0.0420746587
0.1185394810
0.1021331329
-0.1041300515
-0.0302833809
-0.1222461893
-0.1388636551
0.0583827038
-0.0934243594
-0.0692727457
-0.0282435322
0.0264827022
0.1613984416
0.0681387081
-0.1517127888
-0.1199466055
0.0809393313
-0.1465436626
0.1274797831
0.1968707423
0.0834224870
0.0451494462
0.0814149340
0.0222969570
-0.0587807895
-0.1661385332
-0.0691344209
0.1483190268
-0.1293427539
0.0611349298
0.0166955957
0.0124970347
0.0998275901
0.1078432679
-0.1863036707
-0.1665739930
0.0305374487
-0.0488487436
0.1921523482
-0.0535415124
-0.0715369084
0.0484290172
-0.0130026660
0.0065938992
0.0597963260
0.0984865790
-0.0157777732
-0.1241413926
0.0718921292
-0.0124316736
0.0403393240
0.0696244898
0.0123481636
0.1127881957
-0.1236527425
-0.1254960472
0.1760990731
-0.0227368053
-0.0900987071
-0.0811651531
-0.0748472482
0.0276351838
-0.0277572082
0.0078892468
0.0691679972
0.1097336780
0.0048119426
-0.1163916434
0.0836520942
-0.0173483958
0.0287245928
0.0520609992
-0.0185930348
0.0657869471
-0.0715088526
-0.0688258553
0.1293879909
0.0011195191
-0.1044803386
-0.1047343858
-0.0057436997
-0.0705907026
-0.0547936146
-0.0044068723
-0.0017486603
0.0361415991
0.0698322898
0.0280107739
0.0415446360
-0.0190586834
-0.0271068480
-0.0569931565
-0.0969795746
-0.1145035225
0.1979111766
0.1760068874
-0.1169574945
0.0756251830
-0.0493287577
-0.0715822710
-0.0345674378
0.0410478395
0.0008185952
-0.2236831348
0.0189490128
0.0419000107
-0.0589252586
-0.0577773481
0.0515994810
-0.2243590214
-0.1051083782
-0.0422185364
0.0388929669
-0.1712138972
0.2066194478
0.2082820226
-0.0558627387
-0.1077191901
-0.0767779941
0.0015828443
-0.0408964215
0.0590402880
0.0088158085
-0.0077987355
0.0438057573
0.0442789400
-0.0373469079
-0.0749973681
0.0296031940
-0.0125286332
0.0330600515
0.0646811353
0.0432436717
0.1336961307
-0.1453076385
-0.1644363181
0.1535251133
-0.0550258690
-0.0322259029
0.0387902541
0.0212185109
0.0220637275
0.0253645200
-0.0894420202
-0.0178754926
-0.0408785616
-0.0426432410
0.0339230535
-0.0313279794
-0.0717878276
-0.0386289079
-0.0203480411
0.0444654275
-0.0395037422
0.0324849566
0.0242680143
-0.0372275106
-0.0633124665
0.0364863859
-0.0591768292
0.0211476944
-0.0841201206
-0.0483660879
0.0150384006
-0.0185531565
0.0021014310
0.0789129705
0.0514434090
0.0173546377
0.0155008696
-0.0163267906
-0.0504251665
-0.0796999735
-0.0853404775
0.1536952112
0.1123928452
-0.1296675463
0.0635905842
-0.0084898696
0.0325223872
0.0426784329
-0.0310095003
-0.0003999643
-0.0174643185
-0.0371141278
-0.0603711417
0.0093325722
0.0777900062
-0.0418726440
0.0044732233
-0.0207318356
-0.0371460409
-0.0030255384
-0.0329272613
0.0396120176
0.0176684893
-0.0897981176
-0.0090459082
0.0575605801
-0.0256549558
0.0023532214
-0.0079976133
-0.0096285086
-0.0892058144
-0.0054945864
-0.0044831245
-0.0079700981
0.0095834582
0.0092781859
-0.0832914531
-0.0549695191
-0.0389581550
0.0113746664
-0.0994804223
0.1150304429
0.1058312441
-0.0827159108
-0.0348118027
-0.0039099406
0.0649716247
0.0254362162
0.0534061905
0.0463781443
-0.1409584697
-0.0222229097
-0.0599773081
-0.0817170308
0.0248238047
-0.0417521889
-0.1175698950
-0.0615974855
-0.0222249759
0.0928151990
-0.0555815397
0.0122376593
0.0252761799
-0.0319618229
-0.1115844804
0.0532077778
-0.1438139928
-0.0510989467
-0.0880728683
-0.0945129411
0.1153017800
0.0384722607
0.1144665914
0.1209157878
-0.0557484162
0.0972988200
0.0858704768
0.0489988641
0.0009930674
-0.1427089639
0.0154813000
0.0933190954
0.0286564734
-0.0074199615
0.1475318079
-0.1052451270
-0.1747357502
-0.0630083914
-0.0842088487
-0.0992176178
0.0455200110
0.0443124775
0.1355690343
0.1060953545
-0.0774863394
0.1152692988
0.0045335523
-0.0006490759
-0.0198363287
-0.1288277577
-0.0861750938
0.1889958872
0.1474286644
-0.0566800882
0.1015562011
-0.1429216718
0.0463454012
0.0192699343
0.0013411803
0.0129643132
0.0195489987
-0.0101606442
-0.0362135059
-0.0024251624
0.0296164392
-0.0320043725
0.0298058313
0.0100571010
0.0044503220
0.0169828170
0.0475213548
-0.0460310869
-0.0660520677
0.0013556844
-0.0092397649
0.0499706367
-0.0216377442
0.0173297879
-0.0893428479
-0.0511192677
0.1797835756
-0.0082009060
0.0011390510
0.1074183595
0.0493732759
-0.0013644654
0.1701196545
0.0735372702
0.0012605223
-0.1030456768
0.0768449901
-0.0366533483
-0.0758863112
-0.0264572610
0.1316852726
0.0186302135
0.1818998972
0.0195773052
0.1241074403
0.0876036379
-0.0406292251
-0.0095686680
-0.0852292059
-0.1256958750
-0.0052840629
-0.0793014370
-0.0157174482
0.0200736697
0.0686504889
0.1626051408
0.1687317302
-0.2738823137
-0.2727006919
0.1446887214
-0.1490039290
0.1019668401
0.0673246598
0.0037911348
0.0578430046
0.0399231705
-0.1375453665
-0.0071324192
-0.0376566758
-0.0840081139
-0.0080389773
-0.0257974072
-0.1278847464
-0.0585357750
-0.0103106639
0.0996479830
-0.0535924011
-0.0201055856
0.0055319038
-0.0109020341
-0.1403443622
0.0271243548
0.0196718045
-0.0426650578
0.0973298387
0.0321289463
-0.1371049182
0.0340799663
0.0349960688
-0.0924909432
-0.0976463760
0.0238611308
-0.1390518810
-0.0371443248
0.0310764110
0.1013545699
-0.0005331685
-0.0494695022
-0.0331522040
0.0817295846
-0.1468530172
-0.0407167476
-0.0523397118
-0.0293376928
0.0099874126
-0.0102589432
-0.1179276952
0.0142643753
0.0400329364
-0.0226021666
-0.0471696397
0.0417117292
-0.1203685433
-0.0589430559
-0.0272597100
0.0120774558
-0.1132917261
0.1229517299
0.1380137978
-0.0457264654
-0.0661457766
-0.0584220787
0.0711265987
0.0020462859
0.0408691898
0.0229171437
0.0498101148
0.0035548452
-0.0191354532
-0.0300524396
-0.0111299462
-0.0234273029
0.0571603023
0.0450165929
0.0466372569
0.0468042313
0.1328478955
-0.1785676719
-0.1837878164
0.0931478987
-0.0200501388
0.0355538652
0.0435236815
0.0583860266
-0.0510642026
0.0062160457
0.0029849940
-0.0481809647
-0.0848539591
0.0256852801
0.1151724109
-0.0554884883
0.0227190882
-0.0215817202
-0.0535742190
-0.0161122752
-0.0653598261
0.0443768284
0.0441725749
-0.1272879158
0.0183601761
0.0813240739
0.0670787047
0.0354076859
0.0290600284
0.0408021078
-0.1316214375
-0.0350279498
-0.0727286883
-0.0641732291
0.0512571457
-0.0521605472
-0.1065977507
-0.0643501715
-0.0367329350
0.0766188943
-0.0825654535
0.0029744633
0.0298375412
-0.0756933887
-0.1155431738
0.0589269588
0.0252664547
0.0268393622
-0.0446476595
-0.0207386580
0.1168246730
-0.0184684328
-0.0249881125
0.0526717157
0.0459297995
-0.0193993175
0.1301915926
0.0640011363
0.0129890591
-0.0353826763
0.0949601547
-0.1430869635
-0.1457086462
0.0018824922
0.0502592098
0.0440786621
0.0052801647
-0.0057022120
-0.0023996170
-0.0096405521
0.0625600839
0.0082106224
0.0153028140
0.0156140741
-0.0204935245
0.0108510167
0.0629774419
0.0513297593
0.0346463589
-0.0086767449
0.0985847065
-0.1161436307
-0.1198443907
0.0658731969
0.0102382990
-0.0035209106
0.1617031821
0.0285828395
0.0860624842
0.0671040143
0.0816820652
-0.0066041293
-0.0687119903
-0.0731642985
0.0073762553
-0.0739659087
0.1048949107
0.0800560019
0.0879700282
0.1082543722
0.2615960050
-0.3406490762
-0.3481408539
0.1863393372
-0.0621481173
0.0996607180
0.0660571608
0.0313842819
0.0169403250
0.0294075721
-0.0007056871
-0.0237684564
-0.0583693572
-0.0264636760
0.0465165009
-0.0482295990
0.0107347445
-0.0039942269
-0.0019150797
0.0427441015
0.0255937182
-0.0734864985
-0.0621847417
0.0002557190
-0.0420162393
0.0612647713
0.0024235607
0.0287873394
-0.0264841445
-0.0039119281
-0.0414613169
-0.0229204538
-0.0371872357
0.0042776128
0.0530321714
-0.0197904666
-0.0329289591
-0.0366782809
-0.0423428457
-0.0011737407
-0.0836061290
0.0758502396
0.0853804662
-0.0956510124
-0.0159529421
0.0267040126
0.0956796649
0.0451284011
0.0149724175
0.0379367636
-0.0116606462
-0.0382115763
-0.0857504751
-0.0378516323
0.0735024543
-0.0673569942
0.0121170679
-0.0095960891
-0.0056901987
0.0517881436
0.0222765707
-0.0807340952
-0.0696048012
-0.0199838633
-0.0476699422
0.0899403527
0.0433978533
0.0286277289
-0.0157955396
0.0072423645
0.0535658262
-0.0215601695
-0.0403753394
0.0091813826
0.0492629267
-0.0376350663
0.0652233082
0.0268755162
0.0022290209
0.0019074879
0.0477301723
-0.0622125691
-0.0656367101
-0.0076189285
0.0153835459
0.0512903811
0.0631600787
0.0196753309
0.0053317029
0.0153896206
0.0629775549
-0.0104320530
-0.0334930634
-0.0056900476
0.0224018007
-0.0369005860
0.0747672497
0.0393499854
0.0247622251
0.0182526452
0.0918351895
-0.1229429158
-0.1259958734
0.0519215258
-0.0012019614
0.0510311435
0.0070324156
0.0067252778
-0.0307062856
-0.0159576065
0.1061496752
-0.0020187749
0.0025662218
0.0454913622
0.0046980156
-0.0067700208
0.1102065593
0.0589161136
0.0214246814
-0.0356205835
0.0881915511
-0.1007680542
-0.1103528956
0.0368707558
0.0496449455
0.0094426826
0.0238552827
-0.0064928141
0.0436775044
0.0245182065
-0.1014198482
-0.0006138294
-0.0098481022
-0.0532331489
-0.0224815527
-0.0048055694
-0.0949071844
-0.0414577283
-0.0069266954
0.0565733845
-0.0435002547
-0.0022892574
0.0205500744
0.0027579271
-0.0929518420
-0.0043545360
0.0252083065
0.0025962942
0.0118994558
0.0021839919
0.0561871341
0.0017705801
-0.0047687399
0.0101697868
-0.0030084910
-0.0108029167
0.0594954397
0.0380777250
0.0263625028
0.0014123660
0.0849478209
-0.1110671027
-0.1151355646
0.0518689710
0.0083957370
0.0201027112
0.0892304214
-0.0409805735
0.1787430087
0.0965054924
-0.3630238418
0.0217599271
-0.0121029586
-0.2141526613
-0.1183420366
0.0026600484
-0.3396203535
-0.1324154745
0.0100742293
0.2385018260
-0.1148143032
-0.0608536144
0.0296982282
0.0695543022
-0.3508534697
-0.0281742634
-0.0919604824
-0.0280706907
-0.1226847988
-0.0958756642
0.2962237097
0.0298151711
0.0932659655
0.1717890434
-0.0412023111
0.0576218087
0.2676909926
0.1539423018
0.0481437962
-0.1682889570
0.1832206091
-0.1541410556
-0.1888144669
0.0825422559
0.2043423452
-0.0584644651
-0.0244849833
-0.0325152252
0.0386453520
0.0034034105
-0.1042787829
0.0234700981
0.0374263905
-0.0402955559
-0.0670722045
0.0455553104
-0.1073938960
-0.0399273933
0.0064597112
0.0375888660
-0.0492201991
0.0104859420
0.0315169334
0.0204317894
-0.0765236045
-0.0537661490
-0.0380852536
-0.0156432761
-0.0087517981
-0.0162388128
-0.0120163131
0.0119646949
0.0304809346
0.0130201613
-0.0286529729
0.0279680760
-0.0204981577
-0.0073036273
-0.0036769572
-0.0138807619
-0.0216817615
0.0249378396
0.0294411087
-0.0020828715
0.0016056826
-0.0372017454
-0.0225875322
-0.0135642734
0.0058118972
-0.0083976605
-0.0078231294
0.0128773839
0.0248836808
0.0037546197
-0.0233969961
0.0207518919
-0.0077892947
-0.0011741930
0.0054278173
-0.0085897748
-0.0060451385
0.0015505896
0.0033385219
0.0089008774
-0.0015108926
-0.0237245276
-0.0325061301
-0.0220821612
0.0089710644
-0.0094642954
-0.0500322066
0.0170154412
0.0297279003
-0.0105150129
-0.0354952293
0.0270708444
-0.0534464726
-0.0222172441
-0.0067681699
0.0039043688
-0.0425580974
0.0408436601
0.0463230783
-0.0013517220
-0.0298591471
-0.0402979163
-0.0298830153
-0.0056939686
-0.0205001926
-0.0204704970
0.0466634529
0.0076402717
0.0236681996
0.0304387036
-0.0092159136
0.0161373621
0.0450154139
0.0205107135
0.0056218568
-0.0353481257
0.0163363901
-0.0017392797
-0.0087586076
0.0063427646
0.0363231506
-0.0170279173
-0.0315221740
-0.0065118828
-0.0265873693
-0.0216264486
0.0414199773
0.0069482879
0.0245812940
0.0336278501
-0.0076822780
0.0183786484
0.0326985399
0.0230381939
-0.0001927967
-0.0391897820
0.0052188517
0.0144351950
0.0085310091
-0.0007149694
0.0394570267
-0.0220487105
-0.0645845252
-0.0205867255
-0.0353135384
-0.0352458442
0.0319135497
0.0187222154
0.0489975154
0.0425311199
-0.0292681171
0.0405661947
0.0202743754
0.0131380762
-0.0045520730
-0.0546539007
-0.0221117260
0.0410512735
0.0370758405
-0.0110103902
0.0425473191
-0.0543638372
-0.0886876849
-0.0152203346
-0.0651872219
-0.0515807729
0.0618825715
0.0111567540
0.0484209538
0.0820110128
-0.0039387265
0.0419632326
0.0463174668
0.0157050499
-0.0194307360
-0.0939962515
-0.0442669497
0.0809379216
0.0735005264
-0.0511519742
0.0867394936
-0.0536300379
-0.0228707745
-0.0136569563
-0.0062070289
-0.0099194503
0.0036892420
0.0086571431
0.0220366121
0.0086603527
-0.0226520128
0.0164268026
-0.0018373098
0.0030268025
0.0056218638
-0.0130941561
-0.0005827358
0.0033020463
0.0052545480
0.0078540742
0.0030737615
-0.0248917771
0.0140711135
-0.0229370198
0.0664703705
0.0305816092
-0.1544062441
0.0110980790
0.0061031410
-0.0814819650
-0.0533250245
0.0086725237
-0.1426295698
-0.0609221175
0.0024914533
0.0831593212
-0.0608031210
0.0122313775
0.0343186772
0.0184988906
-0.1298286888
-0.0148446739
0.0568586042
-0.0202305770
0.1080229176
0.0606518231
-0.1757679816
0.0184676481
-0.0107943042
-0.1240872805
-0.0635368506
-0.0079206823
-0.1663372836
-0.0599230419
0.0170491343
0.1320855399
-0.0181639909
-0.0397334302
-0.0121773237
0.0627053846
-0.1754456775
-0.0053693410
0.0147881956
-0.0045202833
0.0340190587
0.0168792676
-0.0675127762
0.0039655422
-0.0024569937
-0.0431170968
-0.0207757926
-0.0014939966
-0.0637712246
-0.0247832173
0.0029101979
0.0437411386
-0.0164536446
-0.0061894724
0.0048784350
0.0204995782
-0.0646455484
-0.0067823462
0.0253462633
-0.0198938415
0.0697596210
0.0378563900
-0.1195852413
0.0125790638
0.0013559309
-0.0785540277
-0.0508238325
0.0033739519
-0.1103488020
-0.0408443622
0.0128734940
0.0813350879
-0.0164483797
-0.0173299864
-0.0024578962
0.0438247540
-0.1152246858
-0.0160302406
-0.0411082469
-0.0179943829
-0.0183615500
-0.0231843853
0.0184116108
0.0167233768
0.0356208273
0.0252278826
-0.0247702768
0.0258486021
0.0089282484
0.0169341607
0.0019027349
-0.0252556938
0.0009353534
0.0257757658
0.0112803855
0.0078272664
0.0198443514
-0.0344542950
0.0000456274
-0.0128524409
0.0265874822
0.0073810441
-0.0409022732
0.0075396351
0.0094457888
-0.0242381353
-0.0289127689
0.0076103076
-0.0422636898
-0.0113631846
0.0061178953
0.0315189063
-0.0053481251
-0.0024922302
0.0007708429
0.0207873828
-0.0397795983
-0.0124470037
0.0135913176
-0.0017407712
0.0184680843
0.0121243655
-0.0257594714
0.0000102316
0.0004646989
-0.0199212921
-0.0089442239
-0.0050859918
-0.0241306618
-0.0033931958
0.0067532450
0.0266468093
0.0049540317
-0.0176879338
-0.0119520143
0.0159532742
-0.0322220217
0.0031097372
0.0215489599
-0.0068526976
0.0308124931
0.0186218230
-0.0413335211
0.0038963992
-0.0056997767
-0.0366430849
-0.0136838240
-0.0038218727
-0.0352225449
-0.0093025059
0.0115424156
0.0381235567
0.0091449909
-0.0267838541
-0.0213873020
0.0295254754
-0.0492372640
0.0030919461
0.0110008084
-0.0081067377
0.0210119922
0.0086747657
-0.0228450813
0.0051333574
-0.0001212699
-0.0212612164
-0.0158782430
0.0076708439
-0.0226499854
-0.0046968870
0.0093164129
0.0215212475
0.0120153871
-0.0213517246
-0.0185126587
0.0246060089
-0.0294905988
-0.0036742061
-0.0055366687
-0.0117355959
0.0125774876
0.0000406615
-0.0208359478
0.0066807537
0.0109716162
-0.0117149410
-0.0205356770
0.0066961018
-0.0223857679
-0.0061498499
0.0039429118
0.0123235057
-0.0023592443
-0.0001391081
0.0006151285
0.0188394645
-0.0190670762
-0.0074855429
-0.0005760618
-0.0060612924
0.0110594335
0.0022014321
-0.0275205774
0.0033377663
0.0032002788
-0.0149313553
-0.0151109540
0.0048893895
-0.0267504850
-0.0080265675
0.0018379655
0.0128240368
-0.0081194986
0.0035933426
0.0046702384
0.0089198323
-0.0245555326
-0.0068183691
0.0259401450
-0.0006527737
0.0271300824
0.0167581008
-0.0483856271
-0.0019447089
-0.0133685028
-0.0280630503
0.0017206153
-0.0108742725
-0.0413252818
-0.0167478535
0.0014507764
0.0370993199
-0.0051637080
-0.0140926492
-0.0056933047
0.0159745646
-0.0482982784
0.0113813515
0.0018922509
-0.0002891529
-0.0043892049
0.0031048597
0.0007424220
-0.0020331446
0.0014731921
0.0017856208
0.0040046381
0.0004992998
-0.0000393142
-0.0002745242
-0.0007251887
-0.0018176500
-0.0001331319
0.0007524439
-0.0000741782
-0.0031178126
-0.0014011601
0.0055262439
0.0220066179
0.0067570114
0.0084875812
0.0101612697
-0.0186322113
-0.0066817402
-0.0164424775
-0.0151497410
0.0095379386
-0.0138929428
-0.0128811407
-0.0069042795
0.0002339096
0.0169443165
0.0002122264
-0.0023935565
-0.0072526385
-0.0014674572
-0.0203918866
0.0176679155
0.0225526771
0.0015339184
0.0210676850
0.0148333660
-0.0337843978
-0.0001875144
-0.0068771601
-0.0278766947
-0.0080049233
-0.0066563677
-0.0282725972
-0.0037737063
0.0041029058
0.0295588861
0.0051764491
-0.0129174683
-0.0146208176
0.0198754924
-0.0376869144
0.0070908006
-0.0099647653
-0.0039177691
-0.0115963151
-0.0104925885
0.0027280292
0.0019689300
0.0056952637
0.0085862344
-0.0015475917
0.0060629576
0.0003398897
-0.0013079992
-0.0054300601
-0.0126671792
-0.0094163628
0.0198920510
0.0147904962
-0.0034646477
0.0072787465
-0.0093791391
-0.0050194554
-0.0040515288
0.0028980128
-0.0032266878
-0.0153021307
0.0041496157
0.0055867396
-0.0042072754
-0.0092130654
0.0064373643
-0.0147846457
-0.0099350264
-0.0040050572
0.0006301407
-0.0174946805
0.0222823947
0.0207555815
-0.0038500719
-0.0079763068
-0.0125047977
-0.0033707853
-0.0038912082
0.0115120965
0.0020823201
-0.0322222704
0.0028541624
0.0042092076
-0.0122050255
-0.0115674048
0.0041981717
-0.0380794094
-0.0179866592
-0.0043892456
0.0113618636
-0.0228731564
0.0239358370
0.0264224533
-0.0049020270
-0.0259581773
-0.0082575302
-0.0065857615
0.0072632113
-0.0119865444
-0.0031254586
-0.0137898225
-0.0054106631
-0.0081017277
0.0040195985
0.0114562827
-0.0027235911
-0.0152137152
-0.0127059685
-0.0138864316
-0.0038782952
-0.0266437649
0.0374468419
0.0351691227
-0.0294124914
0.0036869774
0.0016435879
0.0181562864
0.0100536960
0.0205991584
0.0120356143
-0.0446701793
-0.0066563770
-0.0183911712
-0.0267069081
0.0060750177
-0.0112094888
-0.0399465806
-0.0181565109
-0.0057067261
0.0273257095
-0.0205842938
0.0086024816
0.0129598519
-0.0098100659
-0.0359601536
0.0106266646
-0.0047073532
0.0136052497
-0.0160556750
-0.0045492831
-0.0192921080
-0.0084982786
-0.0156494638
0.0051493981
0.0250186058
-0.0057483239
-0.0160346567
-0.0161435555
-0.0203972232
-0.0093252653
-0.0395585176
0.0507402112
0.0476292854
-0.0411074040
0.0031916890
0.0174574393
0.0056232143
0.0112285181
0.0014311365
0.0016839699
-0.0195842408
-0.0051059454
-0.0035747212
-0.0061564393
0.0091693269
-0.0062462694
-0.0158525617
-0.0100221174
-0.0051188634
0.0032989994
-0.0132251391
0.0195459565
0.0186455486
-0.0151035816
-0.0077860361
0.0057221385
-0.0049302476
0.0066952539
-0.0107395548
-0.0039702147
-0.0083006986
-0.0060499657
-0.0034068543
0.0055592021
0.0151826184
-0.0017199488
-0.0069541282
-0.0077813518
-0.0131518948
-0.0093447607
-0.0239907114
0.0313978051
0.0300357544
-0.0262017246
0.0025698878
0.0034959744
-0.0152420514
0.0093251931
-0.0299241318
-0.0145128559
0.0188327785
-0.0089970862
-0.0054130275
0.0266898912
0.0313921988
0.0003640743
0.0255217309
0.0058150827
-0.0143885603
-0.0289071801
-0.0223578027
0.0398818506
0.0346960496
-0.0396680559
0.0281567403
0.0065604900
0.0036773682
0.0065107325
-0.0141640890
-0.0064890190
0.0244677416
-0.0058500701
-0.0072699846
0.0142391388
0.0213040809
-0.0066860030
0.0281999666
0.0112453355
-0.0008103946
-0.0134046862
0.0113478051
-0.0035645271
-0.0113721596
-0.0077701343
0.0174538191
0.0115290657
-0.0276890266
0.0121892786
-0.0417229986
-0.0225957866
0.0198459800
-0.0101274781
0.0002101053
0.0392031297
0.0290526738
0.0018235663
0.0196950493
-0.0020919378
-0.0256634439
-0.0431383046
-0.0390995655
0.0671130871
0.0611608065
-0.0575250033
0.0403922752
-0.0006530750
-0.0275412290
0.0101536146
-0.0339745334
-0.0162511064
-0.0252071433
-0.0095969265
-0.0052074298
0.0198692178
0.0286236966
0.0024647254
-0.0208063744
-0.0290968640
-0.0351832991
-0.0269621259
-0.0819242726
0.1097642968
0.1074605870
-0.0751848632
0.0128763113
-0.0065946269
0.0148546132
0.0073088261
0.0003507036
0.0033724022
0.0029600976
-0.0043158509
-0.0159908826
-0.0045751179
0.0111947390
-0.0120559205
0.0064274129
0.0016745640
0.0000617530
0.0082824489
0.0100175936
-0.0119856228
-0.0136391490
-0.0008503817
-0.0050015677
0.0173093588
0.0373028018
0.0115604831
0.0119888625
0.0163603395
0.0105124045
0.0005188607
-0.0226814400
-0.0138483901
0.0105418482
-0.0209806472
0.0153130161
0.0108712594
0.0112665129
0.0172288447
0.0378593375
-0.0491464771
-0.0466398359
0.0207618116
-0.0062491877
0.0312097417
0.0212668733
0.0232685971
-0.0175493239
-0.0008493198
0.0308202365
-0.0145615830
-0.0274101670
0.0110034829
0.0389641178
-0.0231236121
0.0342302236
0.0096588915
-0.0082317340
-0.0076487296
0.0087765880
-0.0069080506
-0.0125728889
-0.0203599467
0.0190521503
0.0310033091
0.0344787703
0.0148986612
0.0084015305
0.0112915148
0.0034246547
-0.0120911851
-0.0304185066
-0.0112439502
0.0218912860
-0.0258383194
0.0146964897
0.0025769207
0.0004198889
0.0167950290
0.0202382689
-0.0254245689
-0.0327639953
0.0014588506
-0.0069582279
0.0314904519
-0.0042357189
0.0067033356
-0.0198301709
-0.0092675217
0.0152558939
-0.0072924293
-0.0051704413
0.0174510441
0.0202914031
-0.0040552632
0.0134710344
0.0021097208
-0.0092079471
-0.0172530436
-0.0112296139
0.0182844374
0.0158851317
-0.0196023667
0.0176319688
0.0068399608
-0.0079711841
0.0039207575
-0.0165274548
-0.0120365941
0.0251498830
-0.0032826204
0.0021225957
0.0182621858
0.0110580990
-0.0016797629
0.0253100387
0.0069910773
-0.0016995807
-0.0219350538
0.0004307331
0.0102673747
0.0042844083
-0.0127865171
0.0236102686
0.0015570570
0.0029045801
0.0030443248
-0.0064870922
-0.0039632467
0.0069401282
-0.0031093474
-0.0031816334
0.0053375077
0.0100640853
-0.0039955905
0.0074564938
0.0029589195
-0.0016438567
-0.0052394690
0.0070250440
-0.0013939378
-0.0050801515
-0.0024316386
0.0036806536
0.0069845125
-0.0002971437
0.0034405405
-0.0064686494
-0.0043166246
-0.0029194219
-0.0039482784
-0.0059650117
0.0018560186
0.0074517193
-0.0002815854
-0.0021909570
-0.0027174578
-0.0073524020
-0.0026262898
-0.0100920148
0.0178330014
0.0115295212
-0.0104784741
0.0007562633
0.0039146262
0.0017550615
0.0028127803
-0.0115725339
-0.0034169867
0.0325848271
-0.0021171767
-0.0012391367
0.0132554912
0.0106057793
-0.0058296175
0.0334032829
0.0192839895
0.0045969219
-0.0141088225
0.0264197305
-0.0138520155
-0.0252951781
0.0061944736
0.0230846714
0.0068241552
0.0036224907
-0.0034022984
0.0009878630
-0.0005118529
0.0086651682
0.0023977966
0.0003224165
-0.0022318569
-0.0041499254
-0.0006855496
0.0115194339
0.0071786667
0.0055697505
0.0080494133
0.0187376526
-0.0174752565
-0.0230244137
0.0150106768
-0.0002920957
0.0000630392
0.0142320096
0.0042392712
0.0012360835
0.0000257544
0.0010984190
-0.0010935948
-0.0054076011
-0.0025899418
0.0035760766
-0.0044899966
0.0024520706
0.0039386054
0.0033442684
0.0096147275
0.0103212414
-0.0108338578
-0.0124539776
0.0086925305
-0.0038014192
0.0058215713
0.0164556797
0.0137881562
0.0022774409
0.0060831833
0.0207575173
-0.0020838706
-0.0086223487
-0.0006621998
0.0056876930
-0.0074809614
0.0215904202
0.0170280267
0.0077593624
0.0019444357
0.0314373132
-0.0303427876
-0.0408915685
0.0203937951
0.0021363855
0.0142463776
0.0119909817
-0.0003614746
0.0069983207
0.0028948251
0.0099856309
0.0019457428
0.0049263466
-0.0056642740
-0.0071574847
-0.0046272476
0.0117924940
0.0098576437
0.0163229005
0.0117968306
0.0294459633
-0.0272846113
-0.0363888362
0.0243058247
0.0007363242
0.0052317296
-0.0016041898
0.0047824934
-0.0069626885
-0.0059154011
0.0225003090
0.0004192417
0.0016319673
0.0094267943
-0.0017771946
0.0000637593
0.0232284661
0.0130742201
0.0044848342
-0.0101741376
0.0178120567
-0.0109292808
-0.0192843255
0.0106759547
0.0132057532
-0.0019963677
-0.0130850146
-0.0026974373
-0.0241974994
-0.0174978919
0.0483341088
0.0028107091
0.0117554807
0.0286866476
0.0034213705
0.0074873589
0.0422745123
0.0257093668
0.0026968749
-0.0314971068
0.0223319722
0.0003942292
-0.0176478772
0.0040105841
0.0378206193
-0.0061613260
0.0098901079
-0.0029412384
0.0020860385
-0.0001481114
0.0253912438
0.0014848409
0.0000289193
0.0035947616
-0.0034590764
0.0037185459
0.0248805170
0.0171768426
0.0169429346
0.0016348018
0.0406527758
-0.0349179922
-0.0473039494
0.0286786209
0.0056782862
0.0059648336
0.0004484930
-0.0021595579
-0.0036623058
-0.0005426258
0.0238524290
0.0014935199
0.0045160869
0.0073728926
-0.0036378177
0.0015379924
0.0201211334
0.0132291940
0.0074254281
-0.0005872489
0.0250103215
-0.0223342418
-0.0277166654
0.0198921009
0.0098876217
-0.0006651882
-0.0187032534
-0.0051490281
-0.0186184246
-0.0154553148
0.0297865753
0.0042957051
0.0124600320
0.0222002081
-0.0013715687
0.0106659671
0.0255582613
0.0136400181
-0.0006915413
-0.0267200977
0.0089726608
0.0070707729
0.0005857844
-0.0014886356
0.0291852730
-0.0127740229
-0.0271757917
-0.0051625000
-0.0289908122
-0.0233440415
0.0417730854
0.0011580200
0.0189178427
0.0339042981
0.0018108024
0.0145457739
0.0351623791
0.0143644429
-0.0032054342
-0.0400380262
0.0049214013
0.0190028650
0.0087140655
-0.0111503106
0.0430764142
-0.0146724967
-0.0075926384
-0.0065641187
-0.0011156543
-0.0065738639
0.0150864505
0.0064753334
0.0155094265
0.0052020749
-0.0141162449
0.0110176482
0.0153792461
0.0104453166
0.0090355417
-0.0074497031
0.0193228493
-0.0107410424
-0.0183802146
0.0189453877
0.0088135170
-0.0108576299
-0.0037012704
-0.0143075898
0.0096971188
-0.0012992084
0.0166399046
0.0097392958
0.0172905337
-0.0016990006
-0.0225842187
0.0091097042
0.0146832965
0.0190150401
0.0175756078
-0.0001587465
0.0374521017
-0.0331060103
-0.0414814720
0.0403713763
0.0040909125
-0.0152183505
0.0012349672
-0.0042913361
-0.0012410631
0.0025118355
0.0229967235
0.0031960729
0.0029156372
0.0091396839
-0.0045817435
0.0038935039
0.0211124921
0.0148079188
0.0093727317
-0.0055576389
0.0271096830
-0.0199629985
-0.0275392684
0.0206159496
0.0097757163
-0.0019490702
0.0025481831
0.0009222207
-0.0028519719
-0.0019726604
0.0200466743
0.0030480977
-0.0013803179
0.0051982934
0.0000208759
-0.0027132884
0.0199260367
0.0109151217
0.0054425680
-0.0048159041
0.0224871614
-0.0166914625
-0.0229915811
0.0136856052
0.0089011882
0.0033079948
-0.0090319562
-0.0062133718
-0.0064587040
-0.0091376433
0.0335938035
0.0087637031
0.0151651553
0.0115503305
-0.0122799755
0.0089017874
0.0251022660
0.0169520873
0.0102355615
-0.0112136714
0.0273505090
-0.0178774307
-0.0281493810
0.0233552869
0.0182824992
-0.0087938872
-0.0125927077
-0.0060045678
-0.0097755761
-0.0137805894
0.0458824376
0.0147194953
0.0195444596
0.0217271443
-0.0154611793
0.0133954734
0.0343554616
0.0273017958
0.0148856153
-0.0192980028
0.0359696407
-0.0182274835
-0.0299107857
0.0240418171
0.0275135308
-0.0150863331
-0.0166159882
-0.0042203905
-0.0199129894
-0.0146560764
0.0389423185
0.0011592227
0.0101283669
0.0273005982
0.0014792886
0.0077708632
0.0360089325
0.0178821684
0.0008437368
-0.0263995244
0.0173124799
0.0003321574
-0.0085940158
0.0046097266
0.0310988178
-0.0089347625
-0.0028391698
-0.0049725364
-0.0029945502
-0.0042539714
0.0162892543
0.0029715134
0.0058983868
0.0100513432
-0.0086622829
0.0037720002
0.0148552003
0.0108246261
0.0062607924
-0.0067423134
0.0190756981
-0.0130749344
-0.0150699699
0.0163283077
0.0075253543
-0.0045117465
-0.0053209871
-0.0031308784
-0.0059523569
-0.0075229553
0.0099786614
0.0043203940
0.0046458952
0.0099389180
-0.0058414158
0.0055750000
0.0094588074
0.0050851593
0.0008267922
-0.0027783027
0.0089852506
-0.0000712417
-0.0070806091
0.0074324065
0.0078670178
-0.0039291776
-0.0109735242
-0.0120965552
-0.0060867600
-0.0088226890
0.0401118523
0.0126601532
0.0178350552
0.0130028732
-0.0196673770
0.0102881074
0.0343938596
0.0256199721
0.0160287007
-0.0135198695
0.0452010327
-0.0312423920
-0.0424682967
0.0383336832
0.0225325253
-0.0113585045
-0.0237388897
-0.0073015756
-0.0187258306
-0.0163707749
0.0151448256
0.0033260044
0.0173809323
0.0195444106
-0.0060410052
0.0135743828
0.0140492445
0.0064092749
-0.0027540372
-0.0237965960
-0.0073409310
0.0233704239
0.0134353078
-0.0075120854
0.0208242184
-0.0150536623
-0.0057960208
-0.0078373190
0.0019277996
-0.0066571919
0.0191182367
0.0070937434
0.0153302346
0.0045495643
-0.0143674197
0.0064988553
0.0139731573
0.0123495860
0.0088950757
-0.0070369624
0.0255112422
-0.0159276782
-0.0231476671
0.0268191842
0.0076756582
-0.0057728398
-0.0071627098
-0.0000123731
-0.0107260192
-0.0091853854
0.0140883296
-0.0013341307
0.0043520702
0.0136853659
0.0035667116
0.0047602142
0.0117451812
0.0044869158
-0.0010653913
-0.0122175355
0.0015893001
0.0062982271
0.0031582843
-0.0039804052
0.0153598292
-0.0030170993
-0.0001834253
-0.0036597923
0.0048799915
-0.0007788333
0.0104036327
0.0045569188
0.0059251101
0.0010970887
-0.0118706779
0.0034811088
0.0088025569
0.0160396492
0.0129452523
-0.0001522252
0.0230966549
-0.0167583996
-0.0246591753
0.0221489938
0.0022671589
-0.0054797180
-0.0050862438
-0.0003064004
-0.0115371538
-0.0072255056
0.0243893683
-0.0014772055
0.0028876396
0.0140239862
0.0023509367
0.0013738760
0.0201919658
0.0228604163
-0.0010759161
-0.0076167730
0.0098336592
0.0003455059
-0.0047320377
0.0016332844
0.0184980731
-0.0017318260
-0.0033382556
0.0007550462
-0.0116521573
-0.0081648734
0.0251050015
-0.0008783123
0.0009668655
0.0116629408
0.0031499302
-0.0018535074
0.0246603841
0.0207944024
0.0019476032
-0.0144692385
0.0161871525
-0.0057195773
-0.0142563176
0.0031427598
0.0165182827
0.0016716863
0.0001742902
0.0012841759
-0.0086372332
-0.0057493272
0.0281555823
-0.0020726028
0.0034270618
0.0124487019
0.0079036778
-0.0029567387
0.0257965437
0.0124028127
0.0026976293
-0.0147677522
0.0169036318
-0.0082753083
-0.0174058074
0.0075037947
0.0180630772
0.0049824792
0.0043845447
-0.0012230856
-0.0037690692
-0.0038061706
0.0250556703
0.0006540318
0.0000555014
0.0059833886
-0.0008936800
0.0006148029
0.0270864920
0.0199112830
0.0083425638
-0.0053992359
0.0269982071
-0.0172288163
-0.0299591405
0.0177148098
0.0129088565
0.0028248326
-0.0065498789
-0.0004174501
-0.0102826473
-0.0071736256
0.0195070329
0.0049837235
0.0042401573
0.0114557556
0.0039113453
0.0015890261
0.0170519342
0.0059855192
-0.0007592098
-0.0135872146
0.0048164713
0.0022092559
-0.0026505299
-0.0024187586
0.0140083099
-0.0015985104
-0.0050131653
0.0051675629
-0.0205657880
-0.0121327192
0.0301789620
-0.0042219428
-0.0004775835
0.0207528304
0.0129176844
-0.0019771165
0.0285480264
0.0145085740
-0.0046886343
-0.0241798181
0.0040443634
0.0056054357
-0.0001057766
-0.0093396090
0.0264802200
0.0157077715
-0.0094402474
0.0039602407
-0.0235731057
-0.0143277824
0.0380393596
-0.0022364235
0.0028572551
0.0254705437
0.0120206018
0.0004504509
0.0363404789
0.0190392189
-0.0034747738
-0.0256649331
0.0177227153
0.0030166109
-0.0065413420
-0.0063967613
0.0330230415
0.0026753956
0.0008131992
0.0001969580
-0.0064484873
-0.0042080645
0.0269825376
-0.0020797190
0.0012908555
0.0089116323
0.0033033938
-0.0019497966
0.0240708888
0.0172099773
0.0039033633
-0.0109880316
0.0213120360
-0.0141309400
-0.0225550693
0.0085387552
0.0157865256
0.0042860745
-0.0243831932
0.0098487130
-0.0403762424
-0.0238225913
0.0469795896
-0.0054599561
0.0070721757
0.0399275275
0.0182527654
0.0047574200
0.0396802591
0.0163822156
-0.0070748839
-0.0437112354
-0.0084252760
0.0308165917
0.0251025535
-0.0276107647
0.0523631934
-0.0022396177
-0.0110287675
0.0017197869
-0.0243874160
-0.0144947626
0.0419210541
-0.0035323730
0.0029664797
0.0294514337
0.0101614761
0.0003581784
0.0386763947
0.0149590249
-0.0024935143
-0.0280865143
0.0120001385
0.0031283793
-0.0050982230
-0.0022624303
0.0387313471
-0.0000256019
0.0071360898
0.0003644870
0.0019453163
0.0023392127
0.0033379590
-0.0004213687
-0.0036003177
-0.0022182023
0.0006493459
-0.0033831456
0.0046442701
0.0030869684
0.0048046972
0.0056292244
0.0118716215
-0.0114376140
-0.0129428367
0.0096841174
-0.0018312861
0.0064357469
-0.0018886285
0.0017140551
-0.0071107713
-0.0055501431
0.0220138160
-0.0033720446
0.0019955970
0.0134322083
0.0078252521
0.0003746143
0.0172617350
0.0068066279
-0.0017597242
-0.0095257835
0.0066163322
-0.0015273245
-0.0054809316
-0.0018584577
0.0139734678
0.0045552082
-0.0204972177
0.0018446191
-0.0301084628
-0.0177419133
0.0427119562
-0.0005352742
0.0039273754
0.0348865389
0.0125798551
0.0043180333
0.0376058463
0.0128441708
-0.0027785719
-0.0373396589
-0.0021681455
0.0228350441
0.0099670990
-0.0202502813
0.0442792365
-0.0043490676
-0.0091077169
-0.0005977517
-0.0093418182
-0.0087553664
0.0097157681
-0.0019626580
0.0004904772
0.0111348554
0.0055566976
0.0010977553
0.0106236392
0.0095058988
-0.0047767308
-0.0142216247
-0.0035996438
0.0176568881
0.0080582810
-0.0099527738
0.0123800003
-0.0024499734
-0.0067615885
0.0020557578
-0.0152344339
-0.0100181019
0.0192328663
-0.0019636897
0.0008159726
0.0155615465
0.0096829064
0.0013284563
0.0178258496
0.0062009729
-0.0044692744
-0.0147043293
0.0016936537
0.0069838859
0.0064646930
-0.0107706624
0.0184439703
0.0011928697
-0.0020603990
0.0017227792
-0.0061089121
-0.0012858269
0.0059669519
0.0038397918
-0.0032617276
0.0044792110
0.0036783926
-0.0023785773
0.0034045828
0.0014424094
-0.0034137002
-0.0016511697
-0.0020890564
0.0045738572
0.0020817866
-0.0046381558
0.0033473344
0.0000732559
-0.0112514133
0.0017872568
-0.0231604565
-0.0142918510
0.0198540664
-0.0042480825
0.0038424023
0.0238225577
0.0117158863
0.0047689074
0.0213809502
0.0053175680
-0.0058114849
-0.0248994053
-0.0088205728
0.0187418063
0.0153312585
-0.0186643673
0.0262508095
0.0030755454
-0.0113071630
0.0002639322
-0.0125088434
-0.0116970859
0.0182816751
-0.0007648061
0.0025166991
0.0188699935
0.0040857940
0.0058765807
0.0136837172
0.0086730664
-0.0043149243
-0.0182091156
-0.0020463542
0.0137288677
0.0062334773
-0.0081010894
0.0176472387
-0.0029502687
-0.0221951098
0.0041420527
-0.0367181836
-0.0199703652
0.0384662023
-0.0053121544
0.0023476586
0.0395634538
0.0200217149
0.0089539054
0.0360379515
0.0155661064
-0.0123960626
-0.0404745783
-0.0105233857
0.0279453697
0.0217717054
-0.0284945780
0.0442870781
-0.0008480227
-0.0066731812
0.0009521549
-0.0149493112
-0.0078228555
0.0206696827
-0.0015243757
0.0041680066
0.0157123643
0.0083049147
0.0012876853
0.0180613095
0.0086614245
-0.0003295354
-0.0188586945
0.0007532839
0.0062563244
0.0061608314
-0.0083156500
0.0180205586
-0.0021079928
0.0054545759
0.0009901510
-0.0012774937
0.0000106111
0.0042104343
-0.0034464130
-0.0001273439
0.0008080318
0.0038988345
-0.0036581598
0.0006053291
-0.0024187766
-0.0030380954
-0.0026117344
-0.0046379030
0.0045913882
0.0027464392
-0.0057182207
0.0012833900
0.0015747866
-0.0133886786
0.0008075652
-0.0215177756
-0.0149265051
0.0186599612
-0.0031843354
0.0022518163
0.0204359782
0.0101303639
0.0048910457
0.0161269968
0.0052661322
-0.0093004324
-0.0236320870
-0.0104675894
0.0222573211
0.0211360068
-0.0198523073
0.0227414539
-0.0038802303
-0.0465431931
0.0048424674
-0.0647524818
-0.0366669482
0.0646380713
-0.0039029114
0.0163177974
0.0672944119
0.0305521860
0.0119356098
0.0608963852
0.0173296340
-0.0208250220
-0.0729830229
-0.0232764788
0.0616819863
0.0487805493
-0.0550020294
0.0752454515
-0.0109519399
-0.0423024538
0.0034018569
-0.0574036949
-0.0361307224
0.0513334976
-0.0056145942
0.0121104950
0.0575135129
0.0229501357
0.0150704402
0.0449284778
0.0110173123
-0.0207514323
-0.0648489712
-0.0280145492
0.0578254954
0.0491310364
-0.0489757857
0.0675817016
-0.0117700776
-0.0292377993
0.0042768358
-0.0404051528
-0.0265266708
0.0416036597
-0.0028134259
0.0076506137
0.0461692079
0.0157243142
0.0110498959
0.0371242887
0.0133785269
-0.0130966509
-0.0494483718
-0.0155051082
0.0387875147
0.0296846408
-0.0348600903
0.0502959064
-0.0083181890
-0.0381875125
0.0029194744
-0.0553546214
-0.0348910590
0.0587279820
-0.0044981517
0.0132213305
0.0555411166
0.0240892118
0.0106394104
0.0536476506
0.0174310878
-0.0117869494
-0.0614261146
-0.0162597390
0.0462024681
0.0353690607
-0.0441149886
0.0662873977
-0.0094952808
-0.0276512231
0.0049822569
-0.0424500457
-0.0224627190
0.0482063143
-0.0007273346
0.0106526549
0.0457065642
0.0124593638
0.0087691340
0.0409938527
0.0155334976
-0.0085948486
-0.0484848358
-0.0106331456
0.0342705125
0.0249032016
-0.0286182503
0.0498447314
-0.0116231574
-0.0146956181
0.0017931143
-0.0206771028
-0.0116905480
0.0176510124
-0.0038280781
0.0020002416
0.0193319093
0.0099724561
0.0022314609
0.0195362097
0.0054952692
-0.0071089422
-0.0235075215
-0.0097107831
0.0222593294
0.0249804347
-0.0190879638
0.0217864876
-0.0035703226
-0.0029287225
0.0066841496
0.0001752738
-0.0014438545
-0.0042755277
-0.0006874621
-0.0016636025
0.0080245096
0.0038000315
0.0023284577
-0.0045010365
-0.0044540961
-0.0061071781
-0.0070016571
-0.0112709859
0.0174317332
0.0132641013
-0.0117109575
-0.0002120616
0.0023190394
-0.0338632916
0.0076578035
-0.0445514940
-0.0292702549
0.0467924326
-0.0024058057
0.0109642176
0.0458624543
0.0158134072
0.0097852682
0.0421875396
0.0125382099
-0.0100575118
-0.0499459752
-0.0159495769
0.0384120592
0.0296206259
-0.0318803876
0.0524865064
-0.0118968504
-0.0137784267
0.0020105032
-0.0253006707
-0.0152027207
0.0359618613
-0.0036628449
0.0074288284
0.0248055038
0.0092377458
0.0074436194
0.0273084469
0.0112146004
-0.0050320586
-0.0269839959
-0.0015466798
0.0139024183
0.0116168261
-0.0147808461
0.0324402478
-0.0029740725
-0.0087835854
0.0055188784
-0.0152353070
-0.0095056854
0.0123572334
-0.0011300849
-0.0014344696
0.0154822641
0.0096054952
-0.0001497346
0.0116452507
0.0022807133
-0.0067361759
-0.0152262692
-0.0063444189
0.0155567992
0.0090529844
-0.0152122351
0.0173858721
0.0006972068
-0.0024979304
0.0029996649
-0.0197156186
-0.0029750225
0.0179937833
-0.0038276880
0.0000612762
0.0240269295
0.0076191940
0.0011751108
0.0156134932
0.0054746102
-0.0049091809
-0.0188631062
-0.0061653595
0.0163151628
0.0102418621
-0.0162448581
0.0242803417
-0.0028047467
-0.0037632571
0.0048600304
-0.0132433914
-0.0073994975
0.0126979235
-0.0053906571
-0.0042112508
0.0143725425
0.0090663966
-0.0028268157
0.0142234429
0.0051259432
-0.0071727638
-0.0135032209
-0.0056806099
0.0113339683
0.0058853646
-0.0130547796
0.0130776114
0.0029374458
0.0020415002
-0.0000401650
0.0052779995
0.0030205323
-0.0068768273
-0.0034154423
-0.0043493311
-0.0032074698
0.0026507065
-0.0032886418
-0.0040276652
-0.0044113865
-0.0039509764
0.0041138380
-0.0051691517
0.0049981774
0.0057758327
-0.0041915404
-0.0048258988
0.0018083576
0.0071693659
0.0032522045
-0.0004368248
0.0034249394
-0.0033585896
-0.0039499178
-0.0058579373
-0.0032552566
0.0051237612
-0.0077296055
-0.0040130087
-0.0026560008
-0.0034402492
0.0031004861
-0.0034973008
0.0041887421
-0.0000609689
-0.0049678413
-0.0058246542
0.0071202334
0.0053266599
0.0022819497
0.0065084303
0.0042062134
-0.0138603154
-0.0007845547
-0.0049341392
-0.0093058920
-0.0019831836
-0.0048311817
-0.0134638409
-0.0046232252
-0.0016753085
0.0096277915
-0.0039693695
-0.0013345865
0.0001727153
0.0019686649
-0.0149020228
0.0038161702
0.0032557348
0.0005333924
0.0000253861
0.0011506163
-0.0050753979
0.0010788884
-0.0054413596
-0.0026565850
0.0043282068
-0.0043270004
-0.0048247945
-0.0025234540
0.0014369759
-0.0000290982
-0.0050675226
0.0045012490
0.0038000758
-0.0028034797
-0.0054227802
0.0064031080
0.0081285452
0.0003447567
0.0089479638
0.0046150110
-0.0111379754
-0.0021375546
-0.0063074045
-0.0108774459
0.0035285902
-0.0019755505
-0.0115023929
-0.0077662472
-0.0036278543
0.0110243665
-0.0094933644
0.0047960947
0.0048512754
-0.0029222761
-0.0131184918
0.0050912798
0.0055172950
0.0018811636
0.0029668938
0.0018960350
-0.0186324487
-0.0006180413
-0.0014895065
-0.0068140675
0.0064967182
-0.0043873323
-0.0134930147
-0.0091800833
-0.0045430401
0.0080294634
-0.0069774103
0.0063614111
0.0094614375
-0.0062980957
-0.0144490665
0.0027869030
-0.0034964280
-0.0021662287
0.0025234353
-0.0006906987
-0.0155965927
-0.0013568740
-0.0006694446
-0.0056674075
0.0006189939
0.0009769672
-0.0220699339
-0.0106505101
-0.0033837539
0.0025541612
-0.0222179058
0.0267377208
0.0243331256
-0.0130907984
-0.0088034007
-0.0061381825
-0.0052145278
-0.0017053227
-0.0057116757
-0.0019554898
-0.0061250630
-0.0022320909
-0.0005944918
0.0015697509
0.0048293862
0.0037662315
-0.0078967694
-0.0048468605
-0.0048339948
-0.0040024359
-0.0113161621
0.0157464779
0.0128474977
-0.0091877256
-0.0026428290
-0.0028545897
0.0034108144
-0.0007526823
0.0047119920
0.0016762849
-0.0167550278
-0.0020356993
-0.0048431599
-0.0067952594
0.0003035854
-0.0029724488
-0.0118542704
-0.0084028369
-0.0040886960
0.0057492986
-0.0099752788
0.0050012316
0.0063377336
-0.0036597422
-0.0106817927
0.0002366946
0.0072818599
0.0031483214
0.0093746084
0.0089896300
-0.0112587157
-0.0022317613
-0.0036819879
-0.0118207901
0.0013356262
-0.0029045646
-0.0152179069
-0.0067966151
-0.0009447129
0.0111864161
-0.0000738200
-0.0043610898
-0.0024700623
0.0021219226
-0.0179607057
0.0057636944
-0.0060169860
-0.0024345533
-0.0072207193
-0.0057162255
-0.0010208289
-0.0008310543
0.0005124012
0.0063175889
-0.0010731637
0.0027555647
0.0010149621
-0.0005235925
-0.0024738614
-0.0074954716
-0.0077554415
0.0095299983
0.0122706028
-0.0044417255
0.0035301415
-0.0046904542
0.0018895299
-0.0017720350
0.0010018690
-0.0021993169
-0.0110887361
0.0007441921
0.0020267003
-0.0029387385
-0.0030294783
-0.0007778294
-0.0093332806
-0.0047625415
-0.0034533175
0.0075461488
-0.0097044437
0.0075932246
0.0078852918
-0.0004436388
-0.0063953285
-0.0028407520
-0.0104622095
-0.0013260149
-0.0055659571
-0.0058643547
-0.0049262504
0.0005854827
0.0042322732
0.0031365219
-0.0030720022
0.0029353357
-0.0054767442
-0.0019545321
-0.0059616337
-0.0053403358
-0.0127087722
0.0172489536
0.0188839939
-0.0084628383
0.0023001634
-0.0081406314
-0.0009678917
0.0010804548
-0.0066903814
-0.0018035640
0.0014651447
-0.0027383846
-0.0020167755
0.0059292645
0.0026022260
0.0002544047
0.0015844210
0.0028963452
-0.0037957973
-0.0073415892
0.0000768808
0.0105688886
0.0057198048
-0.0045498698
0.0048316053
-0.0012818963
-0.0044277350
-0.0030261210
-0.0012607445
0.0010675409
-0.0121876932
0.0057142007
0.0006218407
0.0084497931
-0.0033990535
0.0032760995
-0.0120585382
-0.0038873145
-0.0019262784
0.0006666452
-0.0119160636
0.0122917254
0.0127415932
-0.0047191089
-0.0071081104
-0.0058034224
-0.0029339045
0.0024482835
-0.0018949146
-0.0016705986
-0.0161667071
-0.0001053517
-0.0011472280
0.0004910866
-0.0009416395
0.0005715616
-0.0144739661
-0.0081612369
-0.0049019635
0.0004874638
-0.0140526272
0.0145456665
0.0163152938
-0.0034736635
-0.0090101726
-0.0040441256
0.0073562987
-0.0003727557
0.0122307218
0.0038435847
-0.0254108291
0.0006307697
-0.0039451733
-0.0145106381
0.0015565829
-0.0026666352
-0.0246774199
-0.0128918872
-0.0030438067
0.0147286969
-0.0148116190
0.0064111990
0.0135998553
-0.0010833250
-0.0224464235
0.0051103985
0.0012157657
-0.0011784586
0.0003092212
0.0000306847
-0.0143697076
-0.0010314394
-0.0016937438
-0.0063195520
-0.0015992943
-0.0003420097
-0.0152207951
-0.0029995216
-0.0021128366
0.0043133859
-0.0126486433
0.0090432406
0.0091198653
-0.0047539166
-0.0076913231
-0.0020554460
0.0023908751
-0.0007739781
0.0030715022
0.0004624033
-0.0161571610
-0.0024999558
-0.0055750598
-0.0079326314
0.0025902492
-0.0032116012
-0.0158571755
-0.0081746930
-0.0041570025
0.0089088433
-0.0114886231
0.0092477634
0.0140275962
-0.0063882212
-0.0128150899
0.0015363507
0.0026123947
-0.0002785798
0.0017798254
0.0072803826
-0.0243337773
-0.0015828235
-0.0034589941
-0.0080599577
0.0011584076
-0.0001258099
-0.0267142086
-0.0073565559
0.0000664455
0.0068216532
-0.0271955485
0.0233411417
0.0266931672
-0.0148459696
-0.0144887445
-0.0015536239
0.0119908445
-0.0031102136
0.0197992008
0.0107268733
-0.0519682505
-0.0010926605
-0.0085587888
-0.0249431140
-0.0085925812
-0.0056407147
-0.0483118017
-0.0198293322
-0.0024577386
0.0306771892
-0.0206485327
0.0120312986
0.0144531666
0.0000073309
-0.0439447447
0.0017110139
0.0093434505
-0.0007709931
0.0134042255
0.0135432670
-0.0532054546
-0.0027738574
0.0003814772
-0.0202754292
-0.0059345956
-0.0014941494
-0.0500542501
-0.0262710717
-0.0072337015
0.0244650382
-0.0367816339
0.0198039641
0.0297991829
-0.0124039973
-0.0385744788
-0.0032621906
0.0260821313
-0.0033780997
0.0331808773
0.0229914025
-0.0819061614
-0.0022192176
-0.0130991479
-0.0449333457
-0.0035990457
-0.0090953367
-0.0755658791
-0.0354005291
-0.0029501346
0.0513946176
-0.0342152753
0.0045357018
0.0183152715
0.0003657788
-0.0677743501
0.0030719623
-0.0003419133
0.0022826360
0.0059359654
0.0084465262
-0.0424363648
-0.0016152727
0.0037026290
-0.0138103671
-0.0019660847
-0.0011782398
-0.0391887464
-0.0217471551
-0.0105595455
0.0129617267
-0.0322325426
0.0219783615
0.0278353857
-0.0149412594
-0.0275506504
-0.0033314517
0.0030611410
-0.0040458718
0.0128949420
0.0063065296
-0.0445982634
0.0016420885
-0.0031761419
-0.0213593586
-0.0069832494
0.0006327196
-0.0442436070
-0.0216889585
-0.0059806265
0.0211016388
-0.0293571407
0.0180810704
0.0263902186
-0.0056992854
-0.0332552625
-0.0048974879
0.0143179543
-0.0023218640
0.0248987048
0.0151905994
-0.0662260674
0.0009090414
-0.0102771787
-0.0350897783
-0.0103099019
-0.0059294057
-0.0636700834
-0.0305296598
-0.0054912811
0.0353316248
-0.0335982540
0.0103861112
0.0225573120
-0.0041142330
-0.0560472913
0.0060246815
0.0030964752
-0.0025174885
0.0145374322
0.0120138067
-0.0630761628
-0.0014477722
-0.0049015899
-0.0269153926
-0.0073089097
0.0005121117
-0.0602503384
-0.0313386738
-0.0093620808
0.0240178711
-0.0424734411
0.0305216243
0.0372446627
-0.0141790062
-0.0450334971
-0.0060833412
-0.0033104644
-0.0012741583
0.0080762564
0.0030488607
-0.0555436051
0.0007031286
-0.0019316177
-0.0193241477
-0.0059306857
0.0039546545
-0.0531779797
-0.0271597080
-0.0109010978
0.0175177605
-0.0472165445
0.0337276348
0.0433751471
-0.0219786010
-0.0332517533
-0.0079671582
-0.0057353886
-0.0038667098
0.0068369837
0.0017656180
-0.0455003438
0.0006932776
0.0005224912
-0.0155193022
-0.0089082031
0.0043498785
-0.0434517168
-0.0252967413
-0.0111752352
0.0150326114
-0.0408720918
0.0310443540
0.0376527711
-0.0146197292
-0.0300561707
-0.0095259101
-0.0031672905
-0.0005625030
-0.0019779183
-0.0026981293
-0.0159106310
-0.0023270267
0.0030828862
-0.0001754002
0.0037228587
-0.0007902573
-0.0157587690
-0.0042197178
-0.0073048891
0.0032002280
-0.0167381509
0.0165408702
0.0188486901
-0.0101148827
-0.0089080053
-0.0031502530
0.0081138411
0.0003748264
0.0047341339
0.0029059291
-0.0172081590
-0.0024077188
-0.0069175967
-0.0099647596
0.0009690484
-0.0055722367
-0.0174539338
-0.0100113095
-0.0035321570
0.0092140993
-0.0089939934
0.0055596156
0.0063895168
0.0085642531
-0.0142158755
0.0055053006
0.0109587063
-0.0035361906
0.0239049183
0.0127811152
-0.0685557865
0.0006983259
-0.0049264251
-0.0358012394
-0.0125452075
-0.0013476936
-0.0667464810
-0.0321813184
-0.0078859940
0.0381408918
-0.0394572886
0.0170955679
0.0288543666
-0.0067454308
-0.0554064457
0.0011305010
-0.0061337725
-0.0051855300
0.0081171394
0.0015675837
-0.0467802195
0.0016068529
0.0044628069
-0.0087042838
-0.0125261749
0.0061103252
-0.0456403100
-0.0182393439
-0.0063219673
0.0127540412
-0.0328502607
0.0277807058
0.0337706653
-0.0118839215
-0.0306378435
-0.0132536760
-0.0009019579
-0.0083948385
0.0252364401
0.0129316733
-0.0981272737
0.0011444087
0.0019295455
-0.0387288055
-0.0177321137
0.0061672979
-0.0944450359
-0.0474975084
-0.0134142617
0.0364114970
-0.0668854534
0.0417929489
0.0591670615
-0.0139857135
-0.0655967259
-0.0052469551
-0.0010219080
-0.0006102904
0.0028490887
-0.0015050502
-0.0203891203
0.0021884148
-0.0017384250
-0.0045455377
-0.0014208940
-0.0005591711
-0.0178804309
-0.0097470887
-0.0070857681
0.0041052535
-0.0180278020
0.0157411092
0.0154639968
-0.0089702235
-0.0093527865
-0.0028382564
0.0065817300
0.0008444443
0.0133924072
0.0057421489
-0.0409721412
0.0008351197
-0.0055503792
-0.0199722107
-0.0045644088
-0.0032333201
-0.0378517449
-0.0193271013
-0.0042253894
0.0184701854
-0.0217434097
0.0115500432
0.0155375685
-0.0059898051
-0.0315554257
-0.0003528086
-0.0002610933
-0.0022055935
0.0001182486
-0.0015620059
-0.0156203512
-0.0019296420
-0.0010460554
-0.0041907903
-0.0022814391
0.0063911062
-0.0145222295
-0.0074386574
-0.0010018940
0.0029196636
-0.0120983157
0.0117005912
0.0145227232
-0.0061399736
-0.0095640708
-0.0030341456
0.0003374151
-0.0005313172
0.0028242915
0.0021900081
-0.0194432568
0.0033503037
-0.0023962237
-0.0091839331
0.0001174722
-0.0006051324
-0.0192330841
-0.0089752863
-0.0003105519
0.0063507636
-0.0143964550
0.0091210052
0.0113631575
-0.0059678482
-0.0139591558
-0.0004328489
0.0049901963
0.0092322111
0.0052711365
0.0013899556
-0.0132875032
0.0002343614
-0.0004161278
-0.0080808045
-0.0012449508
-0.0022587602
-0.0167326259
-0.0087558295
-0.0047759392
0.0051723072
-0.0143960878
0.0123881680
0.0130357982
-0.0062397313
-0.0137192180
0.0032668482
-0.0101019483
0.0010753638
-0.0150592926
-0.0095364803
0.0044683905
-0.0032371359
0.0005168909
0.0123652369
0.0084996981
0.0012128409
0.0028556598
-0.0024184824
-0.0080839486
-0.0161619654
-0.0154610000
0.0203909402
0.0226617926
-0.0161698343
0.0129071596
-0.0014172690
0.0012636136
0.0007317468
0.0024853415
0.0011297144
-0.0286203750
-0.0032831460
-0.0009637914
-0.0081291746
0.0032161015
0.0014526404
-0.0240499320
-0.0155545361
-0.0059030699
0.0056317124
-0.0252287451
0.0183159079
0.0228736599
-0.0152521391
-0.0188862532
-0.0032380773
0.0051056083
0.0012533287
0.0083913360
0.0103778943
-0.0412050275
0.0033316738
-0.0006180724
-0.0161657866
-0.0044937350
0.0035007236
-0.0436613763
-0.0204011719
-0.0099695844
0.0131285454
-0.0334583457
0.0231546539
0.0313086873
-0.0141243354
-0.0292775879
-0.0069283520
-0.0004088775
-0.0042134342
0.0108544999
0.0050928536
-0.0479083646
-0.0009170203
0.0008653239
-0.0171353538
-0.0028146330
0.0016127783
-0.0460043069
-0.0203639194
-0.0085921138
0.0278744368
-0.0309074109
0.0264243188
0.0286104008
-0.0068507107
-0.0309858398
-0.0054153662
0.0037443779
-0.0016117142
0.0081760761
0.0032120096
-0.0264418055
0.0057453632
-0.0019597639
-0.0108643183
-0.0036067640
-0.0000698864
-0.0250970196
-0.0135375600
-0.0050591965
0.0102791970
-0.0184563769
0.0201674286
0.0219237449
-0.0074660364
-0.0184473384
0.0077354033
0.0008436267
-0.0013537473
0.0053105554
0.0029562758
-0.0175487759
-0.0017392392
-0.0021216106
-0.0037936567
-0.0025440750
-0.0002190398
-0.0155298258
-0.0090987217
-0.0019218313
0.0110355094
-0.0093912121
0.0127266713
0.0082594087
-0.0047317936
-0.0042453582
-0.0015038909
0.0014490353
-0.0007501403
0.0055242246
0.0021458875
-0.0224492275
0.0008311756
-0.0028505016
-0.0113582640
-0.0052870983
-0.0004902820
-0.0175229267
-0.0044146944
-0.0001520463
0.0118625138
-0.0075387996
0.0086087435
0.0148790025
-0.0001146995
-0.0150767258
0.0074975349
0.0008517264
-0.0023294795
0.0027235786
-0.0002840714
-0.0165743806
-0.0016670870
0.0010757212
-0.0050187038
-0.0006469015
0.0013385447
-0.0106722504
-0.0070814632
-0.0036105498
0.0041688240
-0.0071252295
0.0074687001
0.0090968986
-0.0042431389
-0.0119671837
-0.0001606715
0.0010981844
-0.0013054369
0.0043867964
0.0003769241
-0.0111074487
-0.0019536320
-0.0009674555
-0.0062360217
0.0009654568
-0.0015435358
-0.0122298848
-0.0059070779
-0.0032526054
0.0036193017
-0.0085443026
0.0061462013
0.0073826815
-0.0049213461
-0.0102722248
0.0003965490
0.0066922842
-0.0012946581
0.0053355942
0.0030596489
-0.0225449443
0.0048986865
-0.0019999844
-0.0102222929
-0.0008706941
-0.0013234654
-0.0215541955
-0.0105511650
-0.0016310944
0.0082764592
-0.0124002868
0.0118661970
0.0101147966
-0.0041237170
-0.0156820586
-0.0007452549
0.0051310936
0.0001030034
0.0115454571
0.0065122524
-0.0196291147
0.0030030591
-0.0005086184
-0.0153898138
-0.0057277972
-0.0011013837
-0.0268831961
-0.0082236552
-0.0016086675
0.0133239405
-0.0138019269
0.0073035765
0.0096935138
-0.0009390572
-0.0221276094
-0.0034499858
0.0050353689
-0.0028371421
0.0065644812
0.0019596894
-0.0221489344
-0.0005707074
-0.0010218091
-0.0068648816
-0.0006601151
0.0005738782
-0.0142438398
-0.0109944387
-0.0016312469
0.0101884698
-0.0130370832
0.0096264126
0.0092112921
-0.0021048046
-0.0165736772
-0.0015507625
0.0082745132
-0.0011607337
0.0017095618
0.0006826606
-0.0077566605
-0.0018729946
-0.0014669089
-0.0037775683
0.0012901431
0.0022080094
-0.0086239886
-0.0043742768
-0.0001755794
0.0022557975
-0.0047057820
0.0069894459
0.0044571953
0.0058441998
-0.0069864321
-0.0009748396
0.0050357074
-0.0012768464
0.0036629206
0.0011787693
-0.0141530744
0.0039110216
-0.0037878452
-0.0002460154
-0.0030711292
-0.0024579058
-0.0137998487
-0.0066163413
-0.0012188216
0.0133341206
-0.0053711299
0.0043879020
0.0029492290
0.0008204524
-0.0121723468
0.0040796511
-0.0005668560
-0.0003953743
0.0003097351
0.0009080975
-0.0064774123
0.0003729895
-0.0032035649
0.0005277174
0.0009590631
0.0006882515
-0.0066685390
-0.0048246269
-0.0029403138
-0.0007361528
0.0018608086
0.0067960356
0.0063069754
-0.0020184857
-0.0039520448
0.0001184449
-0.0005277062
0.0005883161
0.0018777848
-0.0010363152
-0.0086087876
-0.0018826623
-0.0022731290
-0.0011688256
-0.0012012967
0.0043800911
-0.0086304696
-0.0042848536
-0.0036083301
0.0040201964
-0.0049784371
0.0055677053
0.0050815871
-0.0032347596
-0.0035816733
0.0076979325
0.0050211417
0.0014510135
0.0039728828
0.0094595311
-0.0176385488
-0.0017860381
-0.0032126792
-0.0073049559
-0.0020721065
-0.0022716065
-0.0036486495
-0.0087615275
0.0041335849
0.0066768929
-0.0105956922
0.0082424925
0.0088441726
-0.0025038651
-0.0051026661
0.0005583880
0.0041289184
-0.0008327941
0.0082556696
0.0035524784
-0.0253422973
0.0033259155
-0.0040979116
-0.0141862929
-0.0037607462
-0.0029272230
-0.0262767393
-0.0127855058
-0.0018163177
0.0205569408
-0.0123611057
0.0055418939
0.0075030492
-0.0019187876
-0.0204911399
0.0048756063
0.0033854355
-0.0002642991
0.0065938036
0.0050831359
-0.0241139437
-0.0009147599
-0.0045455200
-0.0130216351
-0.0031097477
0.0022481962
-0.0239899852
-0.0085271069
-0.0032146394
0.0103000511
-0.0146097064
0.0078573234
0.0145079237
-0.0011780953
-0.0155516613
0.0038295207
0.0009523354
-0.0028212304
0.0054640669
0.0014878137
-0.0273741200
-0.0009513625
-0.0026778691
-0.0104542888
-0.0025843273
-0.0012609468
-0.0264206763
-0.0142069913
-0.0057940420
0.0147859138
-0.0190735672
0.0164929104
0.0192165914
-0.0037784036
-0.0184138032
-0.0038497042
-0.0001525236
-0.0030478347
0.0031514303
0.0004971189
-0.0191839944
0.0010005301
-0.0014121467
-0.0048887820
-0.0042787070
-0.0006122499
-0.0231121404
-0.0115123221
-0.0028335481
0.0055585390
-0.0179767412
0.0134348973
0.0179690604
-0.0076203058
-0.0104806806
-0.0037817867
0.0024411799
-0.0015670863
0.0054399490
0.0020991040
-0.0167935453
-0.0000681839
0.0000278785
-0.0096824069
-0.0001749767
-0.0016762303
-0.0196378137
-0.0123164036
-0.0034719255
0.0061540179
-0.0173886645
0.0107502011
0.0160150594
-0.0044037224
-0.0153036848
-0.0010874684
-0.0002325157
0.0009618450
0.0001774658
0.0002378540
-0.0107223456
-0.0014699803
-0.0037676451
-0.0026762213
0.0002288693
0.0015462162
-0.0108161886
-0.0065723692
-0.0002078628
0.0052224333
-0.0092338507
0.0067724385
0.0060602424
-0.0015143862
-0.0070245983
0.0023653236
0.0046701436
-0.0009860050
0.0041554610
0.0001659064
-0.0094463098
-0.0016780381
-0.0041024320
-0.0042620074
-0.0007056836
-0.0002687901
-0.0097565112
-0.0039751958
-0.0025019320
0.0056581904
-0.0030750200
0.0020382229
0.0014428643
-0.0014511188
-0.0086210261
0.0013745630
0.0015839388
-0.0006532577
0.0067740501
0.0021846790
-0.0156129940
-0.0018879308
-0.0035383218
-0.0058111520
-0.0019801469
-0.0028072085
-0.0146331762
-0.0076592738
-0.0039111938
0.0051564929
-0.0090395790
0.0051766256
0.0112021021
-0.0035025466
-0.0070342715
0.0007514839
0.0012830751
-0.0019324266
0.0030361978
-0.0002386875
-0.0151576632
0.0005897658
-0.0026394578
-0.0057228778
0.0069239598
0.0011225512
-0.0170685616
-0.0097983540
-0.0042687776
0.0060633341
-0.0139297848
0.0087375664
0.0120700531
-0.0049830805
-0.0071979339
-0.0023627079
0.0046378114
-0.0000107666
0.0037137126
0.0010709329
-0.0139530448
-0.0018864241
-0.0006024877
-0.0061024326
-0.0020565192
-0.0010629193
-0.0126879050
-0.0054402146
0.0000691067
0.0071439286
-0.0031324642
0.0053299171
0.0049229528
-0.0022386666
-0.0111793992
-0.0004755424
0.0088742326
0.0033567164
0.0063469357
0.0012803789
-0.0099948899
0.0004149810
0.0033860855
-0.0056089976
0.0014898076
-0.0004519238
-0.0066117083
0.0062477196
-0.0005914824
0.0047571594
-0.0052456247
0.0028705124
0.0047157228
-0.0017535659
-0.0074022896
-0.0003140834
0.0008546617
-0.0023895274
0.0048585649
0.0002701236
-0.0157726240
-0.0011045490
0.0006584213
-0.0073995278
-0.0008639706
-0.0018646116
-0.0094851242
-0.0066735282
0.0001723896
0.0070804132
-0.0080273790
0.0046253053
0.0076248225
0.0040826178
-0.0080478234
-0.0005947709
-0.0005168764
0.0011152309
0.0017834263
0.0025637579
-0.0126732399
0.0008563914
0.0023095186
-0.0058538038
-0.0021665098
0.0015096522
-0.0131252365
-0.0060882576
-0.0038765880
0.0029298361
-0.0093408360
0.0093981298
0.0078874885
-0.0016274616
-0.0086515713
-0.0038109689
0.0000037825
0.0017602939
0.0051282090
0.0002816151
-0.0099943518
0.0014181206
-0.0016809311
-0.0054372434
-0.0003475141
0.0005691333
-0.0088831251
-0.0004507829
-0.0019560570
0.0024828241
-0.0042157473
0.0059255695
0.0030626986
0.0039751542
-0.0060560239
-0.0011961230
0.0045753877
-0.0023192103
-0.0008909863
-0.0025508432
-0.0124602767
0.0028876040
-0.0005792793
-0.0041007684
-0.0018831577
0.0010415448
-0.0119065312
-0.0052355345
-0.0030466981
0.0019739487
-0.0088197009
0.0089363978
0.0092460163
-0.0051022857
-0.0033924355
-0.0026516022
0.0009625270
-0.0011998789
0.0054201443
0.0010055105
-0.0158771548
-0.0021667301
-0.0028786538
-0.0034811548
-0.0004906968
0.0002972818
-0.0171236418
-0.0086808960
-0.0050468953
0.0054789293
-0.0078588412
0.0082610919
0.0087770079
-0.0046291296
-0.0112063322
0.0041318648
0.0013077042
-0.0003145430
0.0111654771
0.0074365051
-0.0313825718
0.0037142182
-0.0000065858
-0.0110323487
-0.0002235842
-0.0012033473
-0.0321337565
-0.0166108789
-0.0085271309
0.0104720187
-0.0261575340
0.0209515705
0.0261209929
-0.0079489812
-0.0214230544
0.0039393648
0.0006233871
0.0001626862
0.0012025102
-0.0003057236
-0.0109787201
0.0010592786
-0.0011898320
-0.0046978132
-0.0000521424
0.0056024141
-0.0122969112
-0.0075373189
-0.0019604331
0.0025136971
-0.0096932018
0.0093763005
0.0078935320
-0.0043083999
-0.0084241918
-0.0005119673
-0.0005646487
-0.0019413900
0.0020613197
0.0024855337
-0.0168300347
-0.0010349814
-0.0011942194
-0.0035019007
-0.0030146410
0.0013936275
-0.0172661128
-0.0106969721
-0.0054966037
0.0053072060
-0.0160860324
0.0139518725
0.0185578918
-0.0064292175
-0.0112666281
-0.0025502067
0.0008652684
0.0017787214
0.0022568239
0.0001742126
-0.0112931248
-0.0009977073
-0.0018194818
-0.0060410546
-0.0000435967
-0.0011596677
-0.0096456166
-0.0077298189
-0.0029693434
0.0057252844
-0.0091994533
0.0078325976
0.0065260369
0.0008554860
-0.0074243243
0.0003608879
-0.0002636322
-0.0016624915
0.0019008228
0.0002465382
-0.0120350644
-0.0013145721
-0.0021648325
-0.0042970660
0.0003007659
-0.0023520791
-0.0085346932
-0.0078239633
-0.0022286949
0.0038349041
-0.0112587713
0.0081153182
0.0145849714
-0.0020231146
-0.0083002106
-0.0002153816
0.0003657049
-0.0020081475
0.0030782137
0.0017753743
-0.0176333750
-0.0018899907
-0.0021732667
-0.0046464264
-0.0028278156
0.0006022864
-0.0201528890
-0.0092599532
-0.0037874888
0.0065928106
-0.0131038402
0.0098359398
0.0104861021
-0.0035933169
-0.0148068777
-0.0003703931
0.0063374777
-0.0011142140
0.0066666090
0.0015242461
-0.0150554429
-0.0016572726
-0.0032471740
-0.0069145600
-0.0026881659
-0.0006362751
-0.0146790481
-0.0058382884
-0.0003677120
0.0100730058
-0.0066725180
0.0045990373
0.0059770078
-0.0003933474
-0.0067551265
0.0047456454
0.0040648308
-0.0008989557
0.0025905687
0.0018426211
-0.0065031389
-0.0021385995
-0.0026932045
-0.0008893533
-0.0012242391
-0.0011419238
-0.0063049508
-0.0034997312
-0.0019472865
0.0015416116
-0.0030812257
0.0025383782
0.0039055542
0.0010760394
-0.0064199685
-0.0002642819
0.0026169181
-0.0010167161
0.0004255747
-0.0008019952
-0.0088375006
0.0016225154
-0.0004543653
-0.0034597521
0.0045834046
-0.0009831610
-0.0085122965
-0.0037745005
0.0005375468
0.0013668860
-0.0065936554
0.0058062163
0.0035719569
0.0005806694
-0.0040218824
0.0009374366
-0.0026912951
0.0029819691
-0.0000796824
-0.0039881234
-0.0026385614
-0.0002271781
0.0027862412
0.0005428540
0.0039657422
0.0012804031
-0.0038729040
-0.0003031931
-0.0012887277
-0.0039256752
-0.0061610476
0.0103850193
0.0072261822
-0.0045337205
0.0001567496
-0.0006683164
0.0018768979
0.0021678965
0.0043543241
0.0020402583
-0.0108706207
-0.0011490846
-0.0008533866
-0.0059966177
-0.0006320787
-0.0021995447
-0.0084948248
-0.0035123013
-0.0010996206
0.0088989482
-0.0051444283
0.0047572417
0.0025790866
0.0049788555
-0.0071166442
0.0023899761
0.0023676678
-0.0005079776
0.0029022440
0.0015503589
-0.0115583503
-0.0018381652
-0.0033636682
-0.0070381893
-0.0025379726
-0.0030919997
-0.0092473849
-0.0045789828
-0.0019892859
0.0084196357
-0.0047095879
0.0021228708
0.0031704581
0.0043412642
-0.0078556686
0.0007887191
0.0036333205
0.0014000007
0.0028972620
0.0001575290
-0.0060484758
-0.0010058843
-0.0014195108
-0.0050157217
-0.0007417099
-0.0019326823
-0.0069664542
-0.0044022970
-0.0011524148
0.0046207136
-0.0028779981
0.0011073998
0.0007055236
0.0009656915
-0.0067989651
0.0030942284
0.0010336159
0.0044219852
0.0024796413
-0.0003984901
-0.0035295650
0.0020749115
0.0011189161
-0.0027604930
-0.0009230322
-0.0014692149
-0.0051925788
-0.0012869773
0.0042836059
0.0027431001
-0.0017884913
0.0007970768
-0.0007446291
-0.0003286337
-0.0050384132
-0.0004558265
0.0013301034
-0.0006105938
0.0030000638
0.0007013442
-0.0152600115
0.0011623929
-0.0015675456
-0.0068682064
-0.0018931730
-0.0010553943
-0.0159076907
-0.0084578168
-0.0037734374
0.0057580216
-0.0097341119
0.0045373056
0.0052901489
-0.0007166767
-0.0119876200
-0.0019021538
0.0045141610
-0.0022375025
0.0045290489
-0.0018129113
-0.0069968228
-0.0013570540
-0.0002919286
-0.0025439676
0.0043884251
-0.0005874902
-0.0093986157
-0.0027747781
-0.0045536534
-0.0008093550
-0.0089696008
0.0087653182
0.0080162264
-0.0051854333
-0.0048533309
-0.0014989001
0.0065092654
0.0030371484
0.0019382393
-0.0009280566
-0.0065592462
0.0030348619
-0.0035366724
-0.0024560397
0.0014152480
-0.0012776757
-0.0046522853
-0.0010725870
-0.0026896944
0.0022216366
-0.0042881410
0.0046193361
0.0015554874
-0.0003620086
-0.0052443171
0.0015895694
-0.0012244472
0.0009277705
-0.0027196073
-0.0023097936
-0.0037436259
-0.0015715656
-0.0008176960
-0.0010753423
0.0002770904
-0.0020462619
-0.0049398394
-0.0015844961
-0.0035940073
-0.0020932119
-0.0045094548
0.0062605148
0.0046000687
-0.0050634012
-0.0021107842
0.0017368666
-0.0014155725
0.0007807732
-0.0053331780
-0.0029701187
-0.0033040615
-0.0006590467
-0.0027538841
0.0012543306
0.0023727340
0.0015006002
0.0017129705
0.0031027678
-0.0041098121
-0.0038857162
-0.0072500222
0.0074436995
0.0051195457
-0.0068446051
-0.0006441607
0.0012531952
0.0013713130
0.0006014139
-0.0000184899
-0.0010129302
-0.0040267320
-0.0011154671
-0.0036438792
-0.0010329627
-0.0000412584
-0.0017297971
-0.0025592737
-0.0043845119
-0.0015774964
0.0009120232
-0.0065078001
0.0051933627
0.0044608004
-0.0042696656
-0.0035499879
0.0010560963
0.0074667773
-0.0009999259
0.0025358734
-0.0006501360
-0.0101642822
0.0018677067
-0.0024103774
-0.0049158249
-0.0008274144
-0.0024597376
-0.0120869701
-0.0070530369
-0.0030486762
0.0043407883
-0.0070274734
0.0055124342
0.0121449212
-0.0037311865
-0.0072515614
-0.0001388818
0.0025546647
-0.0014341464
0.0029079242
0.0013669545
-0.0099450868
0.0019981782
-0.0027714893
-0.0041951264
-0.0007497162
0.0011499264
-0.0046081111
-0.0032240547
-0.0009682562
0.0021477612
-0.0064306725
0.0047024573
0.0125748219
-0.0030370962
-0.0056541717
0.0001442804
0.0044413839
-0.0013890359
0.0046004556
0.0013979608
-0.0114500564
0.0052934826
-0.0041499079
-0.0028908709
-0.0013796126
-0.0026257863
-0.0085586639
-0.0056848246
-0.0020950068
0.0041693919
-0.0016932957
0.0065057221
0.0021004457
-0.0008390461
-0.0079541583
0.0005866099
0.0022445862
0.0064973123
0.0025282440
0.0002573868
-0.0078738648
-0.0016483754
-0.0027291569
-0.0066647684
-0.0024440853
-0.0028342517
-0.0104353966
-0.0038737647
-0.0023816819
0.0066316325
-0.0053902003
0.0039496233
0.0041522890
-0.0003514117
-0.0062509305
0.0019165226
0.0019005527
-0.0000115017
-0.0007025104
0.0001040995
-0.0043215246
-0.0018196810
-0.0028150132
-0.0035256156
0.0019049460
-0.0028360402
-0.0038354367
-0.0047677768
-0.0023046801
0.0009032674
-0.0070841941
0.0053923116
0.0045138478
-0.0003184880
-0.0041002375
-0.0006066696
-0.0004712866
0.0026178123
-0.0010542252
-0.0006715725
-0.0043266774
0.0008351433
-0.0025039309
-0.0031047339
-0.0004642769
0.0002758422
-0.0072708742
-0.0023989538
-0.0021521673
0.0045185325
-0.0052935153
0.0038443984
0.0055283179
0.0006048795
-0.0043227156
0.0037445614
0.0001987985
-0.0018746573
0.0019389389
-0.0004449163
-0.0087951673
-0.0017726410
-0.0031521332
-0.0011167017
0.0053650532
-0.0020725012
-0.0068279839
-0.0016314781
-0.0010806470
0.0070730907
-0.0053677379
0.0036241495
0.0062509772
-0.0006223227
-0.0064160987
0.0047050844
0.0015013437
-0.0005119478
0.0017726577
0.0002913280
-0.0072382005
-0.0012531185
-0.0017819499
-0.0058566981
0.0009569443
-0.0025172672
-0.0096234033
-0.0042753190
0.0003799149
0.0039119752
-0.0052518255
0.0017600617
0.0007448787
0.0011050102
-0.0083519834
0.0002398449
0.0072463003
-0.0028495710
0.0086826120
0.0070505604
-0.0165705579
-0.0006388920
-0.0032408448
-0.0133010464
-0.0048759625
-0.0035688017
-0.0151169018
-0.0068445903
0.0023285238
0.0107836426
0.0019941417
-0.0052011862
0.0019744267
0.0077230771
-0.0156562435
0.0001462124
0.0008278739
-0.0013141170
0.0003070178
0.0030505541
-0.0131843667
-0.0019629572
-0.0018236114
0.0002753771
-0.0012262772
0.0023480371
-0.0108970677
-0.0071612243
-0.0045620703
0.0040228359
-0.0117534392
0.0079933600
0.0117451341
-0.0043812142
-0.0062347405
0.0005937464
-0.0021954332
-0.0016993479
-0.0011575826
-0.0012853809
-0.0098659969
-0.0005606838
0.0013211216
-0.0035341983
-0.0003020158
-0.0013581428
-0.0089921593
-0.0056031075
-0.0029910394
0.0013721527
-0.0066319375
0.0065718513
0.0096734625
-0.0041007676
-0.0019257269
-0.0007454683
-0.0003028288
-0.0022298103
0.0075466131
-0.0006042284
-0.0147160094
-0.0019239235
-0.0023273565
-0.0042564556
0.0004908006
0.0002861099
-0.0136206016
0.0004759805
-0.0041031458
0.0042250099
-0.0109891604
0.0114447251
0.0140031456
-0.0051726845
-0.0079053523
0.0008069000
-0.0003280501
-0.0010133435
-0.0018202029
0.0000835314
-0.0042294110
-0.0010564419
-0.0007971992
-0.0009416480
-0.0007069666
-0.0012657604
-0.0061608905
-0.0044081822
-0.0021486641
0.0029270883
-0.0046261127
0.0085359364
0.0079705138
-0.0034657564
-0.0041025185
0.0017063784
-0.0011532363
-0.0014526600
-0.0017496040
-0.0013729967
-0.0073833845
-0.0022866611
0.0011303169
-0.0026698796
0.0003698618
-0.0001035870
-0.0102833724
-0.0062893613
-0.0048961387
-0.0008298231
-0.0104355362
0.0125298487
0.0085722271
-0.0029488558
-0.0057582023
0.0029179691
-0.0025227371
-0.0014921468
0.0010559522
0.0005458699
-0.0107742314
-0.0020009406
-0.0019539270
-0.0016527230
0.0097057602
0.0018617185
-0.0090848996
-0.0074488537
-0.0053062463
0.0040273073
-0.0108662231
0.0102724490
0.0116247895
-0.0054323314
-0.0053621069
-0.0013773742
-0.0024141607
-0.0015359855
-0.0021713503
-0.0035602382
-0.0097445163
-0.0003221332
0.0002609662
0.0012865968
0.0000308064
-0.0000076823
-0.0088296160
-0.0058474304
-0.0015114781
-0.0022893062
-0.0105628223
0.0109571543
0.0098324834
-0.0065278851
-0.0028508100
-0.0031019664
0.0039813601
0.0003272790
-0.0035399684
-0.0004832564
-0.0046577669
0.0045761078
-0.0006504242
0.0029629656
0.0017666807
-0.0008173402
-0.0027674764
-0.0021840634
-0.0040917813
-0.0041574792
-0.0044947825
0.0097832085
0.0081313314
-0.0062629512
0.0061563419
-0.0014721350
-0.0030643122
-0.0008163921
0.0001187487
-0.0036027716
-0.0018826991
-0.0001658112
0.0009166536
0.0018121820
0.0025653937
-0.0013228654
-0.0040970038
0.0001317375
0.0049830499
-0.0052660885
-0.0096069776
0.0099333271
0.0086985990
-0.0085003082
0.0010829340
-0.0003043345
0.0005465025
-0.0000702317
0.0023302941
0.0000765266
-0.0115927017
-0.0003443972
-0.0037050601
-0.0004959155
-0.0007922839
0.0001243197
-0.0083201490
-0.0062522119
-0.0035786784
0.0033895731
-0.0077026847
0.0053506385
0.0063197251
-0.0007598176
-0.0041344576
0.0001608599
0.0022643710
0.0010343320
0.0011504565
-0.0005965863
-0.0170039301
-0.0021121037
-0.0021489350
-0.0001441774
-0.0021221624
-0.0000936508
-0.0116698448
-0.0093257743
0.0005163082
0.0045279566
-0.0146074464
0.0104582022
0.0117313857
-0.0056027437
-0.0048839606
-0.0029467478
-0.0004205015
-0.0006014201
0.0018591149
0.0010352458
-0.0081290540
-0.0011264090
-0.0029011054
-0.0055409724
0.0095564263
0.0001113465
-0.0109988978
-0.0074558229
-0.0026163944
0.0046966777
-0.0096627907
0.0062810499
0.0072062950
0.0006827776
-0.0082078880
-0.0016463428
-0.0013868894
0.0021117262
-0.0048779742
-0.0021983384
-0.0018591129
-0.0005034579
-0.0004133448
0.0038878020
0.0017171440
0.0001716698
0.0008259563
0.0002175303
-0.0028597230
-0.0053508842
-0.0086987146
0.0092979400
0.0072960158
-0.0077935896
0.0003462030
-0.0010507963
0.0047829777
0.0011760119
-0.0008281855
0.0064745129
-0.0131534361
-0.0017214730
-0.0028112241
-0.0017814247
0.0008114684
0.0000977850
-0.0127302285
-0.0030186847
-0.0052232641
0.0030539626
-0.0112905667
0.0129251612
0.0097194134
-0.0075432387
-0.0067070317
-0.0002675316
-0.0022596457
0.0007188556
0.0017845505
-0.0012838446
-0.0165508452
-0.0008238775
-0.0021160099
-0.0031847557
0.0047912953
-0.0010665603
-0.0116562899
-0.0079831186
-0.0041329968
0.0029667073
-0.0134808502
0.0109699253
0.0123588003
-0.0068973504
-0.0096383997
-0.0017471176
-0.0010099334
-0.0000266224
0.0044791414
0.0005431848
-0.0167621137
-0.0006472765
-0.0026681783
-0.0053134438
-0.0009662520
0.0004920172
-0.0128236191
-0.0087972516
-0.0045621168
0.0044045233
-0.0119385747
0.0091342558
0.0091761280
-0.0017080638
-0.0074266289
-0.0020594792
-0.0023438955
0.0034489888
-0.0024447024
-0.0026262016
-0.0054339237
-0.0002324148
0.0026755933
0.0002854456
0.0003278745
0.0005322472
-0.0040525663
0.0006039205
-0.0009172190
-0.0035760798
-0.0104849545
0.0115028662
0.0086309661
-0.0066379140
0.0062640891
-0.0031008583
-0.0029080089
0.0033904385
-0.0006242679
0.0003542374
-0.0064870238
-0.0010739935
0.0013086118
-0.0017146828
-0.0009306076
-0.0001781185
-0.0115692788
-0.0064762523
-0.0029972413
0.0000483678
-0.0099505711
0.0163439580
0.0084084981
-0.0040513032
-0.0014919215
-0.0028634550
-0.0037142679
-0.0009758700
-0.0012042689
-0.0021381603
-0.0008556161
-0.0011809575
-0.0013290161
0.0001451494
-0.0006395025
-0.0005289953
-0.0021581741
-0.0018141582
-0.0036563624
-0.0035407914
-0.0047441297
0.0089730277
0.0068070314
-0.0043403079
-0.0015486251
-0.0008895089
-0.0029800015
0.0012946881
-0.0021042789
-0.0026038015
-0.0122125236
0.0015797300
0.0000144809
0.0016185179
-0.0018298629
0.0027709040
-0.0142242385
-0.0058516027
-0.0006581183
-0.0007599062
-0.0139845592
0.0129817483
0.0130384512
-0.0056584648
-0.0053115554
-0.0039399219
0.0047955657
-0.0006983540
-0.0022156169
0.0019017634
-0.0090949186
0.0020285550
-0.0022818615
-0.0008309208
0.0008283317
0.0006021459
-0.0101029722
-0.0046777720
-0.0045899455
-0.0014277068
-0.0092884834
0.0092194233
0.0092238770
0.0006487632
-0.0024439363
-0.0001010689
-0.0026792286
0.0078392818
-0.0020666947
0.0038645028
-0.0049656554
-0.0016785068
-0.0004928214
0.0003740570
-0.0001462960
-0.0017793339
-0.0067427466
-0.0032133664
-0.0038581059
-0.0021093385
-0.0041155790
0.0094420793
0.0084591903
-0.0005368966
-0.0011488931
0.0074675368
-0.0030864354
0.0002883065
-0.0039592598
-0.0033938816
-0.0061461404
0.0066093843
-0.0017562867
0.0005391945
0.0012118019
0.0000523511
-0.0065657547
-0.0043830481
-0.0035540579
-0.0015643978
-0.0086181235
0.0089454345
0.0068189524
-0.0054225615
-0.0000602244
-0.0023762549
-0.0043827541
0.0018237810
-0.0056465824
-0.0050961677
0.0006300982
0.0010525453
0.0017582260
0.0031366580
0.0017291812
-0.0007521032
-0.0002980802
0.0018461483
-0.0037832329
-0.0058105008
-0.0063314463
0.0109860121
0.0123278562
-0.0065217408
0.0038240016
-0.0012819815
-0.0034420115
-0.0009658132
-0.0060766175
-0.0048578536
-0.0005400925
-0.0008997680
-0.0019023111
0.0044608942
0.0017254668
0.0012234474
-0.0001928543
-0.0014797267
-0.0031372997
-0.0049933856
-0.0052889693
0.0081891237
0.0058450854
-0.0063481117
0.0046086151
-0.0001912436
-0.0034155857
0.0003523744
-0.0036195728
-0.0030080734
-0.0061229561
-0.0018656993
0.0006206427
0.0001523172
0.0087816888
0.0011997546
-0.0054701224
-0.0025894569
-0.0037631296
-0.0019084850
-0.0059546180
0.0107614343
0.0100584878
-0.0054556424
-0.0026981608
-0.0014834359
-0.0037734944
0.0003090255
-0.0026866511
-0.0038851444
-0.0034646566
-0.0021793669
-0.0017882658
0.0014502023
0.0005112870
0.0032374363
-0.0042597489
-0.0017009984
-0.0032596890
-0.0031019132
-0.0067450995
0.0122033576
0.0100853757
-0.0057780528
0.0001606094
0.0007784775
-0.0028819115
0.0002261548
-0.0046165241
-0.0030750712
-0.0034516444
0.0047709773
-0.0010207955
-0.0000549072
0.0012495564
0.0019846136
-0.0055358989
-0.0041456026
-0.0038337734
-0.0034409047
-0.0090515339
0.0093062961
0.0113720109
-0.0051650511
-0.0021104994
-0.0001757256
-0.0007846153
-0.0010326676
0.0015244811
-0.0007343769
-0.0088124142
-0.0018807215
-0.0018158654
-0.0022458641
0.0007473247
0.0010904110
-0.0038496114
0.0008613146
-0.0037217903
0.0021043576
-0.0018800194
0.0055172897
0.0052678634
-0.0004772802
-0.0060458678
-0.0015273110
-0.0021255496
0.0006930648
-0.0001956052
-0.0008643876
-0.0103412957
0.0007020775
-0.0008953667
-0.0029222388
0.0017255023
0.0004682966
-0.0105752197
0.0029096925
-0.0031705239
0.0001708616
-0.0082565258
0.0104854903
0.0101210157
-0.0009268459
-0.0019558994
-0.0023274617
0.0069801087
-0.0005232724
-0.0024908109
-0.0018269195
-0.0054021163
-0.0007508164
-0.0002359710
0.0025460936
0.0010665569
-0.0014457545
-0.0032801683
0.0016106376
-0.0022192537
0.0032189812
-0.0040885935
0.0060805287
0.0068504704
-0.0033872274
-0.0019904450
-0.0007782518
0.0002898742
-0.0004945407
-0.0014000869
0.0014890761
-0.0064346047
0.0001568517
-0.0030843887
-0.0006944919
0.0006431738
-0.0007471666
-0.0073840315
-0.0021620756
0.0068008549
-0.0000226029
-0.0069339627
0.0084219855
0.0045168684
-0.0038177968
-0.0035909054
-0.0009011610
0.0023946345
-0.0017037037
0.0000789197
-0.0001622058
-0.0078056343
-0.0003877961
-0.0003019912
-0.0022202579
0.0012705816
-0.0008446966
-0.0086489753
-0.0047542568
-0.0015086473
0.0064674958
-0.0056124876
0.0059671356
0.0042741841
0.0042106614
-0.0074763302
-0.0011549168
0.0044878739
0.0006169094
0.0026431266
0.0018253167
-0.0175001949
-0.0013104432
-0.0006875230
-0.0065654981
0.0014608189
-0.0011474123
-0.0171925378
-0.0082146411
-0.0032797157
0.0047572787
-0.0100116548
0.0087129963
0.0126719864
-0.0012869668
-0.0112624833
-0.0002374867
-0.0003236511
-0.0024369165
0.0005239832
-0.0004807153
-0.0120870184
-0.0011453402
0.0011195009
-0.0052954351
-0.0017902348
-0.0009359616
-0.0104129302
-0.0063514681
-0.0020905337
0.0018241199
-0.0070245602
0.0108600386
0.0058631647
-0.0032488163
-0.0087769941
-0.0024810724
-0.0002438844
-0.0007242698
0.0021735177
-0.0018363291
-0.0092078109
-0.0009609382
-0.0026401268
-0.0037299502
-0.0020638614
0.0029320209
-0.0068050035
-0.0039687362
-0.0024430475
0.0021297764
-0.0062631975
0.0053466860
0.0073337256
-0.0029352049
-0.0066006651
0.0058487305
-0.0007963006
-0.0003489546
0.0012559009
-0.0016128687
-0.0085858892
-0.0007917545
-0.0034701073
0.0003387194
-0.0002747819
0.0004942763
-0.0075903791
-0.0034958870
-0.0033419711
0.0085864712
-0.0055028417
0.0060306944
0.0043620038
-0.0039100227
-0.0055332629
-0.0007459555
0.0019681991
-0.0000880515
-0.0006903638
-0.0014052242
-0.0034948371
0.0006661878
-0.0023485989
0.0024494314
0.0007773439
-0.0017720781
-0.0022508439
-0.0038664694
-0.0027921353
-0.0002074277
-0.0015431160
0.0046862512
0.0062938641
-0.0016462275
-0.0019602732
0.0026257868
0.0020184700
-0.0015818937
0.0005666226
0.0016879744
-0.0058282603
-0.0018241458
-0.0010736605
-0.0011765532
-0.0005961468
0.0002707073
-0.0068700699
-0.0035042765
0.0010151369
0.0029368563
-0.0010258248
0.0039442118
0.0057455362
0.0023674446
-0.0051239677
0.0018811931
-0.0002089463
-0.0003580235
-0.0020875256
0.0032008260
-0.0056438276
-0.0017754036
-0.0008881566
-0.0021756638
0.0000730077
-0.0020681509
-0.0027268598
-0.0034470723
-0.0008853287
0.0064739139
-0.0027725801
0.0045266075
0.0038827008
-0.0016205279
-0.0015434826
-0.0009656772
-0.0000675767
0.0041311638
0.0003144299
-0.0010869407
0.0017960172
-0.0020326993
0.0036619482
0.0008191396
0.0009108051
-0.0015449934
0.0011646680
0.0025366695
-0.0020859852
-0.0002544249
-0.0033621142
0.0125012981
0.0034535965
-0.0022159255
-0.0013196057
-0.0008634799
-0.0026489780
-0.0005306615
-0.0026129391
-0.0019520521
-0.0053059321
-0.0005556216
-0.0017459537
0.0006002461
-0.0002584803
-0.0006561834
-0.0041938393
0.0053638824
-0.0004732192
-0.0008077887
-0.0015042259
0.0113993556
0.0058547440
-0.0035510548
0.0024892822
0.0003233204
0.0025328879
-0.0009388790
-0.0015336319
-0.0016957366
-0.0039175620
-0.0021798273
-0.0030596564
-0.0026416486
0.0001888540
-0.0024239250
-0.0032117707
-0.0046275394
-0.0038211759
0.0007895993
-0.0061490817
0.0116882292
0.0050727549
-0.0036277594
-0.0026920642
-0.0003615841
0.0077905071
-0.0016226981
-0.0009236388
-0.0014594142
0.0002460803
0.0044862102
0.0007162825
-0.0013607373
0.0003405523
-0.0016741046
-0.0048236507
-0.0025937151
-0.0020282249
0.0004801237
-0.0026942074
0.0073598103
0.0036168463
-0.0005933806
-0.0021603847
0.0010961690
0.0010919056
-0.0006340580
-0.0019118039
-0.0023766891
-0.0050434384
-0.0016840901
-0.0015282304
-0.0016683453
0.0019398717
-0.0021351468
-0.0034590989
-0.0027782797
-0.0019552858
-0.0015891320
-0.0045239846
0.0067516126
0.0048270849
-0.0029981458
-0.0021987880
-0.0002707253
0.0003124061
-0.0004349118
-0.0001972353
0.0032256040
-0.0004709400
0.0030733948
-0.0032637116
-0.0039616766
-0.0002321609
0.0029039212
-0.0071352554
-0.0039946185
-0.0016636457
0.0008816425
-0.0061878361
0.0059242588
0.0056957114
-0.0009639164
-0.0063419362
0.0120409717
0.0083754638
0.0001792220
0.0054660527
0.0014670734
-0.0086532318
-0.0016186088
-0.0014207222
0.0047535086
-0.0004913000
-0.0009296459
-0.0066701191
-0.0032545677
0.0008961242
0.0061068732
-0.0034370118
0.0065777271
0.0063024403
-0.0003666676
-0.0028944847
0.0010335287
0.0024100430
0.0064295658
0.0023124723
0.0042977008
-0.0118250049
-0.0017000078
-0.0038402453
-0.0050708009
0.0112159462
-0.0003459765
-0.0111844492
-0.0026684603
-0.0015373698
0.0050223091
-0.0004532582
0.0037562011
0.0040768154
-0.0007844772
-0.0091263594
0.0034619085
-0.0000721405
-0.0001793364
0.0002091710
0.0012169524
-0.0084124976
0.0005528370
0.0022429687
-0.0040160618
-0.0005481792
-0.0018620474
-0.0053103007
-0.0038390297
-0.0032238442
0.0044112796
0.0034655212
0.0060345683
0.0075230291
-0.0019762184
-0.0057712075
0.0031344709
-0.0004754887
-0.0017494057
0.0045910729
-0.0003553827
-0.0095472017
-0.0016921274
-0.0012126416
-0.0019976307
0.0005333653
0.0005810048
-0.0079143277
-0.0028012957
-0.0015414555
0.0015407450
-0.0061377964
0.0048642129
0.0081094905
-0.0000164038
-0.0055502012
0.0015214037
0.0035978539
-0.0013621406
0.0046346193
0.0000373302
-0.0066599360
-0.0011376609
-0.0019639802
-0.0056142867
0.0021563279
-0.0028554493
-0.0102108096
-0.0024572455
0.0022206937
0.0062745735
-0.0047956655
0.0038347257
0.0027586768
-0.0003191145
-0.0067924773
-0.0006611205
0.0054539347
0.0039791969
0.0138078201
0.0009500008
-0.0109230391
-0.0013517397
-0.0028819285
-0.0055522012
-0.0034585633
0.0028228022
-0.0080177402
-0.0030837393
0.0078285263
0.0095161076
0.0036576877
-0.0001815406
-0.0025673721
0.0033265838
-0.0096959628
0.0005401170
0.0037202597
-0.0026121941
0.0051014178
0.0008629782
-0.0075373735
0.0030656352
-0.0031078412
-0.0076664845
-0.0005485586
-0.0020918458
-0.0060008265
-0.0042406032
-0.0002964281
0.0076761997
0.0005245306
-0.0021196015
0.0002352714
0.0051653002
-0.0105822293
0.0001714474
0.0017822587
-0.0015474614
0.0042308095
0.0040259465
-0.0068225249
-0.0008106903
0.0016452724
-0.0042375883
0.0007624135
0.0042936797
-0.0018287036
-0.0037189771
-0.0020575962
0.0015379802
-0.0041433532
0.0027463150
0.0032565240
-0.0014940236
-0.0058219884
0.0034389616
0.0025520122
-0.0017386279
0.0009540766
0.0002859544
-0.0090459717
0.0013106648
-0.0016504923
-0.0052664060
0.0000445746
-0.0027243632
-0.0028582385
-0.0029100162
-0.0022670814
0.0038916725
-0.0040729515
0.0021480651
0.0022345226
0.0024534628
-0.0057343178
0.0060053426
0.0044745687
-0.0015305409
0.0076650071
-0.0006260930
-0.0059505461
-0.0008455968
0.0012053335
-0.0049643568
0.0041137101
-0.0005461097
-0.0063713640
-0.0002370109
-0.0010329837
0.0029971287
-0.0003612110
0.0038087388
-0.0004128111
0.0002724393
-0.0011235202
0.0010663662
0.0016765899
-0.0010384343
0.0038179448
-0.0000038764
-0.0002181185
-0.0014340440
0.0011693884
-0.0057836394
-0.0030808288
-0.0023134378
-0.0079263149
-0.0029468959
0.0017868959
0.0085615194
0.0009508921
0.0007359416
0.0001665144
0.0017241375
-0.0006332158
0.0020236601
0.0007397276
0.0012540131
0.0017775193
-0.0010981348
-0.0078936350
0.0011859627
-0.0004477212
-0.0026058812
-0.0012752103
-0.0014553949
-0.0064125639
-0.0034885330
-0.0026426331
0.0021078005
-0.0045294222
0.0039264729
0.0018705566
-0.0012871104
-0.0037828826
0.0000585820
0.0029119497
-0.0030116125
0.0026745176
0.0019061583
0.0005721601
0.0011654532
0.0004146295
-0.0050118358
-0.0049119817
0.0011971908
-0.0038994869
0.0004107566
0.0061764830
0.0030542192
0.0069402535
-0.0051064219
-0.0039153380
0.0076973168
-0.0019373876
0.0031326889
0.0051172701
-0.0006569471
0.0028566666
0.0043592161
-0.0079732976
-0.0008436494
-0.0026455955
-0.0034047546
-0.0002513194
-0.0008269103
-0.0068480862
-0.0032036858
-0.0022049343
0.0027503542
-0.0037763622
0.0077133911
0.0023601331
-0.0000556088
-0.0071526033
0.0037466654
0.0023125635
-0.0006569768
0.0010081022
-0.0005905707
-0.0067668806
-0.0008698420
-0.0029754292
-0.0024850269
0.0014466770
0.0003141216
-0.0056590217
-0.0011569314
0.0014219168
0.0048995452
-0.0005961985
0.0035956408
-0.0005570495
0.0026197928
-0.0022150280
0.0004590142
0.0034164772
-0.0005999745
