300,1,15,8,0.100000,0.100000,1024,Hamming,50,20
0.5381095653
0.0211590024
0.1433047428
-0.5553859123
0.5762939444
-0.4091622878
-0.0570147244
1.1785298988
0.1810691576
0.6257168738
-3.5517476887
0.3507429447
0.8588285944
-0.1978659532
-0.6181204064
-0.0102837405
-0.0234179310
-0.0064702762
-0.0090042999
0.0562591838
-0.0083176434
0.0199893524
0.0352267269
0.0187536931
0.0512197762
0.0391002475
0.0066777870
0.0545978286
0.0097867159
0.0390242995
-0.0175757820
-0.0237594463
-0.0022479319
-0.0011455671
0.0536710047
-0.0072397780
0.0278426798
0.0372235641
0.0199982668
0.0514268534
0.0430851943
0.0027910076
0.0467819184
0.0180452555
0.0555939128
-0.0271111552
-0.0343047626
-0.0167624019
0.0078762656
0.0470272204
-0.0015548793
0.0372506990
0.0350674668
0.0211085232
0.0425376686
0.0417211662
-0.0056645702
0.0368758631
0.0343491336
0.0670844192
-0.0286870045
-0.0295499289
-0.0172339635
0.0105538990
0.0509744004
-0.0009985818
0.0384100778
0.0351028962
0.0267876957
0.0442877439
0.0397654631
-0.0065801409
0.0352565123
0.0374270210
0.0725534586
-0.0250583293
-0.0330199075
-0.0177010027
0.0073224287
0.0443374745
-0.0052355556
0.0381446536
0.0357636319
0.0238787918
0.0408027108
0.0381583696
-0.0075841004
0.0345169494
0.0381524764
0.0707470334
-0.0278987423
-0.0314629204
-0.0139889342
0.0089692859
0.0467259335
-0.0020776165
0.0421211222
0.0349123798
0.0228949193
0.0460203633
0.0419860288
-0.0054004141
0.0338666041
0.0336295138
0.0683040915
-0.0263469840
-0.0320047873
-0.0170178213
0.0096251178
0.0485180850
-0.0019570956
0.0379387241
0.0342797150
0.0224626955
0.0445669180
0.0418973695
-0.0050467672
0.0337443430
0.0372033587
0.0680151934
-0.0293135802
-0.0311599169
-0.0163740271
0.0102797544
0.0461383304
-0.0019309300
0.0373854765
0.0342765237
0.0205768135
0.0457940253
0.0389113076
-0.0058329430
0.0336336389
0.0355321050
0.0724861233
-0.0297948570
-0.0346407778
-0.0169530095
0.0088787610
0.0491431551
-0.0027355233
0.0373457171
0.0411853326
0.0219756468
0.0434710522
0.0448600653
-0.0042317627
0.0324787027
0.0343870293
0.0680227659
-0.0284937159
-0.0356826976
-0.0172562620
0.0078884795
0.0492382908
-0.0021136040
0.0419527155
0.0409694997
0.0219456279
0.0443568004
0.0433659541
-0.0055375028
0.0352517861
0.0341793315
0.0686909870
-0.0235924973
-0.0317698890
-0.0196267515
0.0011500374
0.0566485221
-0.0089408025
0.0392210592
0.0512842234
0.0286233764
0.0470006019
0.0479674367
-0.0008736390
0.0374743005
0.0348901987
0.0744452627
-0.0106174529
-0.0296627587
-0.0135675093
-0.0110972262
0.0637266744
-0.0120791812
0.0245846855
0.0666533060
0.0250075981
0.0430262058
0.0467118177
0.0015132004
0.0397526390
0.0179493991
0.0592456502
0.0420140066
0.0219009256
0.0161882816
-0.0440922704
-0.0022364837
-0.0179937134
-0.0454078495
0.0873586820
-0.0046849810
-0.0144991310
-0.0103768258
0.0253568913
0.0208274717
-0.0600644865
-0.0341242193
0.1171977006
0.1049687231
0.0360551935
-0.0856977838
-0.1117775197
-0.0370098112
-0.1202233408
0.1038957147
-0.0340602337
-0.1074478860
-0.1161268833
0.0457553473
-0.0258847702
-0.1361090980
-0.1489388976
-0.0290181056
-0.0546425289
0.1002098756
0.1004037659
-0.1612019151
0.0719337885
-0.1394935824
-0.0723334129
-0.1369345847
-0.1014215864
-0.1982585926
0.0286808878
0.0243077662
-0.1493706467
-0.1303894870
0.1862041634
0.2258499688
0.1295602384
0.0456811428
-0.5888732539
-0.0226295986
-0.3612884936
-0.1471861963
-0.1571857822
-0.3964068747
-0.6201028941
0.0865456956
-0.1186561691
-0.3823895998
-0.4335064238
0.6987418817
0.4150816043
0.4676598525
-0.3761528108
-0.5069490367
-0.1028419232
-0.9175028858
0.5448963017
-0.3366712308
-0.4646456887
0.3515791345
0.3143660842
0.1474337723
-1.0894016783
-1.4975603206
1.1216702378
0.8048389511
0.2781927276
-1.0263788272
-0.1107360911
-0.4294761731
-0.7804742301
1.2479201629
0.0483852142
-0.3437535897
1.0412102287
0.3258246050
0.0504770168
-0.9712724284
-1.3441485355
0.2608005111
0.0987051097
0.0343067041
-0.2990624596
0.0962885155
-0.1070961884
-0.1136266947
0.4613271422
0.0850898797
-0.0417672820
0.5148890473
0.0411869312
-0.0330730854
-0.1604994688
-0.2028472635
0.1850201964
0.0992988845
-0.0062672967
-0.2527096592
0.0573129005
-0.0720239820
-0.0590295848
0.3043296359
0.0370236087
-0.0609207553
0.1611422369
-0.0025603890
-0.0550545336
-0.0788534216
-0.1486894956
0.0919912012
0.0914885944
-0.0727929581
-0.1524507018
0.0819878514
-0.1089072988
0.0525782892
0.1521523442
0.1235017558
0.0337256156
0.0124445371
-0.0021981392
-0.0035577002
0.0366387129
0.0449622265
0.0216984763
-0.0502153257
0.0767105577
-0.0170757073
0.1123899421
0.0151556485
-0.0680489942
0.1418295057
-0.0605189268
0.0828156173
0.0891048909
0.0541778841
0.1511518611
-0.1043453737
-0.1000708755
0.0480836321
-0.0391535748
0.1777261153
0.0139649359
0.0252407122
0.0639980349
-0.2000754830
0.1283920383
-0.1839718410
0.0173379833
0.0237378721
0.0942755345
0.1720833227
-0.2394500417
-0.3063531875
0.0805724726
0.0287325826
0.0695272528
-0.0843005039
0.0880881595
-0.0261109678
-0.1053673675
0.1241820626
-0.0238789054
0.0359401421
0.0134340866
0.0649559982
0.1183988668
-0.1445226307
-0.1404860133
0.1102359268
0.0566859183
0.0345869226
-0.1380658550
0.1232862363
-0.0654456410
-0.0708235545
0.1854912566
0.0499199539
0.0444973496
0.0707381534
0.0590250131
0.1106075251
-0.1154399640
-0.0713524077
0.2977672307
0.2860282068
0.0498719781
-0.2871670883
-0.0745549929
-0.1492263925
-0.2076659471
0.2252814342
0.0445232046
-0.1117448787
-0.1338759684
0.1074743796
0.0085010975
-0.2550188696
-0.2797643524
0.3208350991
0.3613326006
-0.0136619293
-0.3131022086
-0.1676336856
-0.1799338456
-0.1759603422
0.2168837554
0.0913739347
-0.2013915032
-0.2346840941
0.0682263316
-0.1265122585
-0.1948343950
-0.2165338439
0.1258367005
0.1507578358
-0.0301541724
-0.1276174486
-0.0938293503
-0.0862658115
-0.0650467831
0.0998829849
0.0588791528
-0.1409935091
-0.1737282393
0.0115550243
-0.1082908167
-0.0647288022
-0.0095779841
-0.4438593823
-0.5302598773
0.3117829973
0.6201348824
-0.1524549465
0.3876261952
-0.1744428905
-0.4763170942
-0.4553305266
0.0010320927
-0.3411952363
0.0391780644
0.2245136877
-0.1555066428
0.1411366415
-0.6931290965
-0.7997000165
0.2108478736
0.7779022964
0.3833562630
0.3327328850
0.1305448020
-0.4926012514
-0.1238222711
0.4767959384
0.1759403732
0.0378466987
0.6236975900
0.0816560707
0.7782362358
-0.8105889797
-0.8285112902
0.0442623568
0.8745620322
0.3687794861
0.3223070725
0.3493218667
-0.6427595920
0.0180319688
0.4818172873
0.0157738319
-0.0762013816
0.4324903607
0.3460668336
1.1233767102
-0.6487934867
-0.4900524982
-0.2688145956
0.7082655765
0.0755564795
0.1169075257
0.5031439217
-0.8255865128
0.3166757886
0.1266799072
-0.4291067383
-0.2216890362
-0.0820129643
0.5680461987
1.2146998016
-0.5433221299
-0.4424904347
-0.1440431696
0.6175800726
0.0673057857
0.1776143125
0.3815319290
-0.6787632130
0.1295793157
0.1175082353
-0.0912705899
-0.1922306265
-0.1088527829
0.4643407291
0.8893290265
-0.3152788379
-0.1473443353
-0.1967781881
0.3414044444
0.0344408077
0.0680970298
0.3884480406
-0.4803226565
0.1600967743
0.0761288895
-0.1659264163
-0.1751602826
-0.2160630175
0.4850416424
0.7697763019
-0.1283156992
-0.2850642255
-0.0904138699
-0.0102949614
0.6050010169
0.0140843023
0.2942954848
0.3383496079
0.1574714895
0.2877404642
0.6221417753
-0.1091867774
0.0910281446
0.2679245138
0.5290380812
0.3234056246
0.0312653971
-0.2702336214
-0.6349596830
0.4631358163
-0.2787055865
0.1255920623
0.6366966637
0.3552955538
-0.1600830053
0.8999855411
-0.1391120779
-0.4713195596
0.1358080011
0.3133496443
-0.3616040387
-0.8646695017
0.1283883094
0.3197425007
0.2414940835
0.3508327569
0.0036097629
-0.1116106703
-0.1912458065
-0.1109577528
1.0773340754
-0.1206265375
-0.3902543408
0.0942363182
0.7036336377
-0.6338358187
-0.8265342414
0.0198322509
0.5562931689
-0.0099266846
0.4072991692
0.2518842532
-0.2858580259
0.0047397531
0.0079112961
0.8977825905
-0.1635789360
-0.1755736503
0.3867486499
1.0755882705
0.6188873511
0.0161413397
-0.0447623573
-1.2690154406
0.9811455819
-0.1651234518
-0.1367090687
2.0793753312
0.2478739378
-0.1213973461
1.5465932939
-0.1385001148
-0.1573615916
-0.2899780336
-0.4833541409
0.2027208171
-0.0223756756
0.0309055786
-0.4531277775
0.6270077557
-0.0657495031
-0.0771794871
0.9345897270
0.0039960785
0.0235129359
0.5725146884
-0.0142222732
-0.0028751485
-0.1590502648
-0.2897970104
0.1820524084
0.3966922560
-0.2688563736
-0.2896206049
0.1598243432
-0.2699016078
0.1234795954
0.1365786879
0.2160407450
-0.2265413753
-0.7325573741
-0.0537063606
-0.5812942542
0.2018333783
0.0170307051
-0.0751772790
0.1239691514
-0.2390559757
0.0420146071
0.1539835348
-0.0363884713
0.1877367995
-0.2819395424
0.0566632383
-0.2013453909
-0.2057266568
-0.1664746778
-0.6146670940
0.2994470218
0.2684794684
0.1612844203
0.0158523784
-0.3526048934
-0.3968866179
0.9641107317
-0.3213996759
0.4031363336
0.7412432128
0.4731918789
0.4148364898
1.3451456204
-0.1059439492
-0.0065374162
0.3539805865
0.8053858792
-0.3987622671
-0.6147458905
0.3158869820
0.5375618052
0.3898325464
0.4884319073
-0.1946785229
-0.2879532737
-0.6300168523
0.0440555703
0.5618637902
-0.0539620529
0.0660471785
-0.1843302063
-0.2754584798
-0.4068004969
-0.6650652411
0.7554953635
0.7305016067
-0.1605405091
0.6640446823
-0.6604185962
-0.3880692639
-1.0139110568
-0.0013603453
-0.3165960795
0.2211723675
0.5334587505
-0.7074758298
-0.8455987456
-0.4639369488
-0.4687741498
0.3680636753
0.6530089112
-0.2606432816
0.4719240029
-0.2401895163
-0.7457092021
-0.5449406540
-0.0344569606
-0.7040577804
0.0455608234
0.1709400871
-0.1983788607
-0.1197592745
-0.6273600407
-0.2520505963
-0.0763232323
0.7116004177
-0.3475896081
0.3114717954
0.2261054343
-1.5558201491
-0.0179656366
-0.1466284628
-1.5611127733
-0.1770124534
-0.3185049632
0.3789237221
0.6122482984
-0.9142049906
-0.4314584638
-0.2120133841
1.0008713234
-0.0511716873
0.2474216547
0.4907112643
-2.1373894645
0.3058971062
0.1664924981
-1.5707568646
-0.1856117090
-0.0791808170
0.6259033093
1.1569703954
-0.7071347885
-0.2633389470
-0.2731758881
0.7796183766
-0.1651434996
0.1490261431
0.4636909566
-2.0170250453
0.3375721045
0.0254479171
-1.6170747436
-0.2209628826
-0.2671711640
0.6078832049
1.0525818868
0.2649314734
0.4099604848
-0.0680665281
-0.2502081849
-0.0164889154
-0.2678883960
-0.1011767704
-0.8517569849
0.3418454743
0.0334620878
-0.7522461838
0.0859169791
0.0344677406
-0.1519763371
-0.1250332711
0.0579132741
0.6597743829
-0.2715163304
0.1144422416
-0.2718177173
-0.2961050511
0.1884440805
-1.9874097917
0.5739173939
0.0293225229
-2.2764853905
0.0056550548
-0.2562499269
0.2805555259
0.6884101535
0.3810365448
0.3416525429
0.3936867782
-0.2191687175
0.8249311576
-0.2522603647
-0.3876280044
-1.2064258346
0.2283791201
0.8592513404
-0.3730381239
0.4624073809
1.1195339208
-0.6699466625
-0.0663985906
-0.7803316984
-0.9593103701
0.5001327420
0.9417420482
0.6192896099
0.4748632942
-0.1224473802
-1.9673865871
-0.3193305571
0.7750860791
-0.1912045065
0.1761247753
0.9575145355
-0.2109310326
0.4744417433
0.2290577510
0.5983968104
0.1293049759
0.2794791060
-0.5208186818
-0.4380126008
-0.2972676321
-1.7252172068
0.4235420479
0.1075818600
-1.6260929815
0.4352299555
0.1945167188
-0.2906897399
0.1719867847
0.2876002416
-0.2610016304
-0.0833190123
-0.2652811596
0.0438853751
-0.0906814535
0.0292138565
-0.3706118604
0.0958985790
0.0345666777
1.5408721021
-0.0933866889
-0.4977306379
0.0242892698
-0.0007546214
-0.5762062373
-0.6858325582
-0.2445237964
0.6419158887
-0.2590517170
0.4748667762
0.4526226477
-0.7319508557
-0.2958809172
-0.1432975668
2.5809075638
-0.4463056316
-0.8690667885
0.7198794574
0.3907419799
0.2540233823
0.2446899043
-0.4460296358
-0.4318777721
-0.2448659353
-0.2340967137
0.2616809284
0.6772240893
0.2899262896
-0.1836982947
2.3533166283
-0.2036838523
-0.5395829211
0.3968973941
-0.1700409318
-0.3576627745
-0.1280135246
-0.1631432870
0.1032493937
-0.2310868837
0.2423417100
0.2612027546
0.2629486785
0.0873728872
-0.2432951707
-0.5199466684
-0.2708666540
-0.4783489289
0.4565214847
0.8302880996
-0.4511259872
-0.3665225193
0.4128421171
0.4980496718
0.0202691667
0.5518815454
-0.2742099150
-0.0236271544
-0.7188589772
-0.0659070065
0.5079354645
-0.0176270039
0.1727056047
-0.2413269153
-0.0855999669
0.0016005038
0.2444194820
0.1946245557
0.2208050938
-0.3438839638
0.1660148695
-0.3066191085
-0.1922686515
-0.4345458797
-0.3036050599
0.9547151016
0.0711772363
-0.1479308971
-0.1882381223
0.0140760822
0.1738345973
0.3230339467
-0.1976212610
-0.3161382390
-0.0316968391
-0.0815057479
0.0913349388
0.2249136835
-0.0967024765
-0.2326664962
2.3583643285
-0.1680282305
-0.5132309503
0.1735615497
0.5397237038
-0.6694732617
-0.5292075591
-0.1833778339
0.4944918930
0.0598285127
0.4059746441
0.4219338746
-0.4122293933
-0.2645096172
-0.0682704717
1.1803951279
-0.3945529401
-0.4457012622
0.5293338860
0.8597006864
0.2046119041
0.4784683000
0.1602118607
-0.1487082818
-0.6285306172
0.1148922055
-0.3788197150
-0.1101372061
-0.3431138139
-0.6530921895
1.6277649346
0.0674433061
-0.2201188848
-0.3322065749
-0.0582607930
-0.2993117948
-0.2066653807
-0.1609595795
-0.1297075432
0.5587485042
-0.0215266914
0.3305210421
-0.3466325864
0.4100213215
0.1150070230
0.7157655482
-0.0886639395
0.4281121919
0.3276776678
1.0150659355
0.0112416840
0.4692291213
0.0961568975
0.1678561055
-1.0974191605
0.3179926212
-0.4019901669
-0.8269904374
-0.6629360906
-1.1492828655
2.0658687904
-0.1597942904
-0.3387720680
-0.2496220425
-0.6917589217
-0.5738914124
-0.8212296926
0.1062150446
0.4458644978
0.5063900122
0.3549233020
0.1913279822
0.5731970033
-0.0033246316
-0.0327547932
-1.1640666760
-0.1661146302
0.6594657012
0.2405077343
0.5801613184
-0.0653356839
0.1496892883
-0.3462405153
0.0085022403
-0.1364748978
-0.1244038787
0.2482729134
1.4991628214
0.5942464008
-0.5898994968
1.5097256940
-0.2803870646
-0.9645909393
0.4449002578
-0.2387840841
-0.2293429411
-0.0835505493
0.1721033782
0.1898878868
-0.0952252198
0.1760405877
-0.1285250706
0.5115326690
0.1138773086
-0.1501899326
0.5132598303
0.0492600931
-0.0715908074
-0.0582637916
-0.7395886625
0.4533753875
0.6782321043
-0.1709723383
-0.5523325921
-0.1134359275
-0.4424796025
0.1006407545
-0.1249765048
0.7105511330
-0.0433389880
-0.8798617926
0.1560824893
0.3974996151
0.0892771974
0.7036958872
-0.3987930096
-0.4453436827
0.1081294923
0.3303094615
-0.1505943654
0.4253995172
0.0794465122
-1.2843502570
-0.3678192360
-0.1872942032
0.8924092122
-0.1910533367
0.1576794619
0.1751396001
0.3482544460
0.5778261523
0.0385498563
-0.0665263000
-0.9666619900
0.8169641017
-0.3153507536
0.0020359049
0.7902318215
0.2915416710
0.2268587036
2.6800806000
0.0079695157
0.9452930324
-0.1681747554
0.0358998898
-0.4936118022
-0.4094284587
-0.0106721016
0.5837096452
-0.1986125045
0.3802819118
0.1344960033
-0.6475954225
-0.0586522635
-0.2489464874
-1.1017758870
-0.1761682769
0.1559146942
0.3233752058
0.4743145102
0.1967700456
0.1560162600
0.1427433468
-0.0336998676
-0.3126935204
0.0769991683
-0.3053350792
0.5436445390
-0.0905031570
-0.3101264536
0.0424023968
0.0788558499
-0.1530563097
-0.2792494110
-0.6452129761
0.4110193146
0.4770175093
-0.1793422337
-0.5460754182
0.3452798202
-0.3116152985
0.0162807934
0.8346639506
0.3360951498
0.0394073080
1.5910799376
-0.0082407608
-0.0845165975
-0.0949990205
-0.6671749871
-0.0614106534
0.6186750892
-0.1701948669
0.2241620663
-0.1682320567
-0.1922256575
0.0766830263
-0.2544903209
0.1672782976
-0.0927168360
0.4837528222
0.0467506219
-0.1352477453
0.1452381097
-0.4650403410
-0.6821559829
-1.1273840182
0.4574706904
0.9575908919
-0.8708561970
0.7904065487
-0.3189785153
-1.5614021894
-1.1479546311
0.0040193883
0.8882532974
-0.0938500809
-0.1833884761
-0.1812035190
-1.1853383856
-0.0507073666
-0.8804619209
-0.3088969966
-0.3585723489
0.5198465630
-0.1072484559
0.6372802054
0.1175856039
0.4924213025
0.9052318306
1.3198355132
-0.1994705716
0.0562653016
0.6333524746
0.8034071306
0.3711342910
0.7700276424
0.3213258884
0.0972514377
-1.1943420988
0.1097799650
-0.6887154534
-0.7413941552
-0.5533830650
-0.7010266286
-0.1254104535
0.1993930491
-0.5919592936
-0.5791076442
-1.2718228713
0.6066425905
1.2250366639
-0.7690075934
-0.8175175230
0.6431736837
-0.9495867478
0.6374680801
0.2185123111
1.1754487711
0.3514388900
0.6312716748
-0.0513908103
-0.1558031181
0.5350932669
0.5770876607
0.1983241170
1.0727103300
-0.6775024306
-0.0841445046
0.3684567757
-0.6320946886
0.5345957487
-0.9787637060
0.6878920646
0.2164330665
0.7011797637
-0.1325851638
-0.4338818886
0.5632465400
0.0259689362
-0.5666187758
-0.6370416442
0.7619691905
1.1419753497
0.0418144307
0.5841031194
-0.6427611396
-1.4412003818
-1.2117120340
0.3569127970
0.4441308605
0.3057230643
0.8344988913
-0.7865719636
-1.4781087888
-1.6337945442
-2.8085671805
1.6771655553
2.1696437614
1.1420965535
1.5103867141
-0.8247278135
-1.2239252099
-2.1224721264
1.5234697994
2.0256192461
0.5321496126
2.3361870036
-1.2036800915
-1.5584054808
0.4997473413
1.2979206969
-0.6029903771
-0.4035361423
-0.9732605636
-0.6404326431
0.2491244339
-1.7282658766
0.6076016559
-0.4698099784
-0.5466561338
-0.0235468838
-1.0861966583
0.4061550852
0.4208212942
-0.0479371761
0.0282673705
-0.0546494543
0.1391576814
-0.0995929470
0.1442998485
0.0833982973
-1.0497154071
-0.3275419557
-0.1581794877
1.8213819187
-0.1256085149
-0.3584748808
0.1775742083
0.0519303899
0.1741275830
0.3544074759
-0.4411589091
-0.3723185571
0.4784831275
-0.2498241007
0.4980980965
-0.3144046574
0.6620490996
0.1749671474
1.3522918004
-0.1938911978
-0.3054918435
0.5502706618
1.3182843920
0.4317854010
0.7168528403
0.0462946674
-0.3026049695
0.0313342421
-0.0980119437
0.0336937566
0.3240860318
0.3071204530
0.0722284490
0.2839391400
0.0446445233
0.2348279190
0.0128030971
0.1342355676
0.4074097508
0.4366528927
0.4456817204
-0.0985541006
-0.2820828651
0.1020100958
-0.5540301959
0.6516587048
-0.4324958959
-0.1756256395
-0.1950805724
0.2656434391
0.3173444722
-0.6315185494
-1.0688965785
-0.6442116558
-0.5629019324
0.0640774514
0.6752231263
-0.0983806044
0.6284127177
0.1687486472
-0.1938833431
-0.3820913117
-0.2295078213
-0.8432551186
-0.3065040151
-0.4666095940
0.3093098525
0.3184031152
0.0413136448
0.3675655679
-0.5874136501
-0.3012056963
0.4262046452
-0.2579017241
0.6020095494
0.8191076376
0.7117361646
-0.0465589683
-0.7871504514
-0.2188738055
-0.2426457107
0.6537954441
1.5258441263
0.1424781440
0.0234454570
0.5213320211
-0.0142872096
-0.0513183185
0.3122420590
-0.6529922637
0.4142777029
-0.7119335573
-0.3202984273
-0.4743390606
0.1732791660
0.4497603448
-0.7531612158
-0.1307090240
-0.0665705304
0.2088462171
0.1021166288
0.1943346932
-0.5785471126
0.0697991543
-0.1273437391
-0.4642819711
-0.2229704098
-0.4860307178
-0.6513109400
-0.0209113121
-0.2831340701
-0.0089283776
0.8769501054
0.1098386935
-0.1411773864
0.0916996609
-0.3846407197
0.7078013274
-0.1555315878
0.0078951704
0.9732172409
0.3601042581
0.2008681531
1.5786146603
0.1187443480
0.5858849528
-0.0915446315
1.1935841372
-0.4976760884
-0.3415561785
-0.0407259454
0.3257455886
-0.0390197044
0.3347762022
0.1819844663
-0.1862354627
0.0839943204
-0.2887619834
-0.2143432217
-0.1945916888
-0.1796852841
0.3220817459
1.6841699899
-0.0160502474
0.2534520555
-0.2432888615
-0.1489485995
-0.0963799435
-0.1642318358
0.2250133490
0.2277492359
0.4929278569
-0.1090902436
0.1920125491
-0.0636917842
-0.1666567354
0.2392040037
0.6623102995
-0.5315195726
-0.6067169985
0.3788678249
0.5750696544
-0.1889928158
0.5833505966
-0.2106640177
-0.4360192102
-0.4421868446
-0.1186930429
-0.3147430325
-0.0472148193
0.0605739324
-0.2133370125
-0.2454883217
-0.1775280045
0.0995810492
-0.2482734436
0.0260739578
-0.3774657281
0.0170916485
0.2979019782
-0.2509985363
0.4300649310
-0.3016393420
-0.8358709429
-0.2273847906
-0.5118937740
0.4207461261
1.0438210328
0.2238276832
-0.1448809372
0.4495326275
-0.1891756318
-0.1600671461
0.1467887514
-0.5691964606
0.5651939112
-0.1354436629
-0.1886510892
-0.0288569846
0.1827033495
0.3158413700
-0.6924839353
-0.3428123762
0.0020189704
-0.1251145321
0.2544223358
0.0200674158
-0.0534149650
0.0422736556
-0.2961517668
0.0279485270
0.0261887025
0.0433018962
0.1475746032
0.1659418017
0.3472664980
-0.3734864417
0.1164267996
0.2261537100
0.1083457619
0.0788650801
-0.3472588196
0.0187260460
-0.1579202493
-0.1624258408
-0.0536854709
0.1690063125
-0.0138504441
0.6147848883
0.0776972628
0.1250271634
-0.2526564815
-0.1548989972
0.0283383807
-0.2185085709
0.0563390858
-0.1631048641
0.3345700252
0.0698706953
0.0436429196
-0.1037861809
-0.0793855053
0.1259172398
0.9184859424
-0.0605070609
0.1204696315
-0.0315173484
-0.0048821050
-0.9314869949
-0.7611906426
-0.2634700455
0.7602481117
0.6007027220
0.1909348341
0.7742409561
-0.8057876459
0.3581330332
0.6490024894
0.5677885561
-0.1953730673
0.2054936714
0.8240806813
1.3821810578
1.3983817558
2.0794226828
-0.4385493585
-1.1911074990
-0.8562812285
-1.1156902803
-0.3644242454
0.5474732195
0.8869104059
-0.7218311778
0.2681188260
0.3448322756
-0.7687650493
-0.3690285201
-0.6162584270
-1.6082964959
-1.6879883305
0.1581834841
1.5298917401
0.4252360463
1.0442586375
0.5264802217
-1.3402609767
-0.6819588240
0.3720114366
1.7306592194
-0.3938437504
-0.0169501025
0.6747779469
0.9305229689
0.7137268664
0.8502325035
-0.2702454638
-0.8531129693
-0.1385391643
-0.4870640978
-0.0407356609
0.9690484062
0.4328784093
-0.2660929724
1.1740817116
-0.0000089025
-0.4296304376
-0.0914049865
-0.3220720244
0.2295911490
0.2342597781
0.0575920620
-0.1982410953
-0.1474528387
-0.0629550906
-0.1922476201
0.3196084882
-0.0261008762
-0.1744862453
0.0638072420
0.0605855688
-0.0861148396
-0.2178519203
-0.2934674732
0.2441796517
0.1602853766
0.0530656211
-0.2854417735
0.0866672997
-0.0871967662
-0.1668802454
0.4444607186
0.0606414556
-0.0556866525
0.2693834597
0.0587563820
0.0234341678
-0.2369177883
-0.3001891492
0.4034565206
0.1720151746
0.2260479151
-0.4337277483
0.2287597369
-0.0948976179
-0.3853916794
0.7862960815
0.0161533617
0.0574114297
0.4429326688
0.1876694184
0.2828387338
-0.5594424758
-0.7622268210
0.1604417180
0.0292791738
0.0285270620
-0.2187986610
0.2648241105
-0.1016506697
-0.0655348162
0.4573585898
0.1522645210
0.1256752518
0.3684670239
0.0646693119
0.1745008728
-0.1641183455
-0.1029593809
-0.2257794882
-0.3229695233
0.0420354469
0.2426626977
0.1982823727
0.1183143261
0.0857272832
-0.0696475372
-0.0331305423
0.2243548779
0.1799666079
-0.0167051367
0.1989964229
0.0516834988
0.1400856175
-0.5085059036
-0.6634840316
0.1755314454
0.5311834921
0.2368064552
0.3682829006
0.0848110957
-0.2741107233
-0.2271287904
0.3055063908
0.0957034251
-0.0417043086
0.2990849747
0.0536019907
0.0696312562
-0.4436338453
-0.8042923573
0.7213898703
0.6864411814
0.1284409596
0.6475738119
-0.5335435336
-0.0923029829
-0.8641342781
0.2495477048
0.1604559406
0.2033382619
0.7891457420
-0.6698530947
-0.6437192400
-0.1104467888
-0.3330627880
0.5383116975
0.3945068286
-0.1367850161
0.3686366580
-0.4702940484
0.0359132007
-0.6285436358
0.0368756884
-0.1205037377
0.2001544724
0.4825451304
-0.5523446267
-0.5301150514
0.9772295693
0.8005054115
-0.0405867660
-0.9900906177
-0.2907109858
-0.4152216641
-0.1903737950
0.9419710556
0.2254557037
-0.2906535202
-0.5979091290
0.0775429849
-0.3109406448
-0.2102609242
-0.4923636893
0.7258555052
0.4359563459
-0.0849943873
-0.8581183021
0.0142851296
-0.3008476524
0.0040869407
0.8899117593
0.2484788274
-0.0787400033
-0.3556975099
-0.0156090888
-0.2077742167
-0.0185133010
-0.2404809682
0.3281048920
0.0445027208
-0.1175604316
-0.5333772092
0.2949690297
-0.1455430666
0.2270839051
0.6493320221
0.2550771793
0.1595781015
-0.2183958568
-0.0954811223
-0.0480782188
0.2115018923
0.1122489096
0.5544785527
0.2093854467
-0.0348715294
-0.7517825907
0.4928280877
-0.2851267602
0.0936431539
1.1323308281
0.2866084475
0.2831754248
0.2498565731
0.0443090482
0.2614777717
-0.0295204908
-0.0767391989
0.5403325392
0.2065258769
0.0136051368
-0.7248611321
0.6971174538
-0.3700631877
0.0012651256
1.3236869969
0.3230434741
0.4485229797
0.7961870872
0.1737124285
0.5927622101
-0.1997089918
-0.0451232772
0.0180589041
-0.0004281188
-0.0659450999
-0.0407963722
0.1851692248
-0.0464845784
0.1837957150
0.1066353370
0.0985326514
0.1544313600
0.2464790881
-0.0331294803
0.0950583658
0.1683175563
0.3286396621
-0.0117906162
-0.0214415904
-0.1037416886
-0.0109574848
0.0400406327
0.0035033919
0.2304894470
-0.0315500888
0.0999714171
0.0648791191
-0.1057153588
-0.0902831809
-0.0964158772
0.2739115401
0.3609901669
0.2624596925
0.2934580027
-0.2340197473
-0.3405694486
-0.0362441243
-0.2119575025
0.2185015266
0.2132284447
0.3011955317
-0.0628800397
-0.2619664122
-0.0920241988
-0.2890364081
0.2767103692
0.2447872963
0.1718278555
0.0928154087
-0.0537166425
-0.2379647166
0.2018491371
-0.1482801905
0.0573348714
0.4336222068
0.1676948626
0.1428096518
0.1272339233
0.0448576437
0.1227583546
0.0176216833
0.0757096680
0.2557921337
0.1022866797
0.0483150015
-0.2906835749
0.1998082699
-0.1235393293
-0.0883981158
0.5194451561
0.0517569937
0.0997096889
0.1135959369
0.0953319214
0.1889582052
-0.1618923672
-0.1307296895
0.1939856290
0.0605499616
0.0419202141
-0.2295888622
0.1409331302
-0.0753412140
-0.0580905258
0.3848161818
0.0130296446
0.0639692664
0.0637852592
0.0541870549
0.1179268023
-0.1017783680
-0.1243457222
0.0988397430
0.0553818010
-0.0459272113
-0.1248730866
0.0001616120
-0.0385305029
0.0628438512
0.1347662436
0.0484244939
-0.0121627496
-0.2159304755
-0.0243430781
-0.0706582510
0.0779440191
0.0417624033
0.1552625480
0.1478367890
-0.1154698574
-0.2126585604
0.0455286085
-0.1334834736
0.1024169746
0.1823674409
0.1689165054
0.0036420376
-0.1173480441
-0.0230399657
-0.0724525942
0.1056715301
0.1572404285
0.0814378671
0.1329539195
-0.0181241268
-0.0486342161
-0.1374202030
-0.0325023283
-0.0124874262
0.0111915846
0.0013488272
-0.0789548873
-0.2119251122
0.0063212147
-0.0844255612
0.0104661906
-0.0236339871
0.1777927590
0.2424577995
-0.0824536558
-0.1985226572
0.0187230184
-0.1719478625
0.0529662523
0.2635734329
0.1811066718
0.0338783808
-0.1465569623
0.0396299827
0.0111404688
0.0342002544
0.0410641056
0.2402303032
0.2818057392
-0.0057321132
-0.2389482089
-0.0477387118
-0.1524524235
-0.0851379251
0.2327567307
0.0796123578
-0.0579302118
-0.0584871348
0.0748173140
0.0135865170
-0.1187290411
-0.0908950560
0.2801145625
0.2777653037
0.1182118266
-0.2031615271
-0.1939448230
-0.0669392023
-0.2533091639
0.2308732504
-0.1058855685
-0.1483134025
-0.1016361604
0.1161652364
0.0308047821
-0.2843192109
-0.3838283302
0.2483299213
0.2683014248
0.0797189823
-0.1804996663
-0.1981815507
-0.0566557072
-0.1938487184
0.1749620111
-0.0881658529
-0.1522884744
-0.1902944688
0.0850963852
-0.0394812860
-0.2076116248
-0.3154241711
0.2875451903
0.5039386618
-0.0935381131
-0.2165765272
-0.4695569307
-0.1503937921
-0.0996806128
-0.1073489424
0.0374090647
-0.3616850541
-0.4966311524
0.0099076136
-0.3797658420
-0.0382199615
-0.1452440910
0.6700205620
1.0629786383
-0.1705226199
-0.5554112052
-0.9215460829
-0.3379836188
-0.2497674012
-0.0937630656
0.1108276901
-0.7188606297
-1.0160672745
0.0356057275
-0.7265160480
-0.1461652503
-0.4522619361
0.3575471930
0.5629791097
0.1535395874
-0.1449402534
-0.8312209204
-0.0010030711
-0.4360273925
-0.2148161006
-0.3092583707
-0.5768847233
-0.7932832601
0.1036626229
-0.3700458637
-0.3671807990
-0.6892035148
0.1428925830
0.1866044624
0.0674269115
-0.0566580399
-0.2569628423
-0.0173860757
-0.1451684935
0.0558460035
-0.0852296059
-0.1311358386
-0.2211822906
0.0700618121
-0.0405106532
-0.1358230369
-0.1512610436
0.0266625069
0.0897998890
0.0096923105
0.0322107812
-0.1642270486
0.0047404371
-0.0070029671
-0.0431683512
-0.0166691510
-0.0450720741
-0.1855712938
0.0197395175
-0.0332384575
0.0232123287
0.1333831986
0.0904897409
0.1310248792
-0.0287585804
-0.0909737709
0.0685714848
-0.1042800118
0.0486949994
0.2322719326
0.1313734521
0.1132985502
0.0056670629
0.0590399837
0.1312209677
0.0260906024
0.2092883317
-0.1076647047
-0.0208298663
0.0059414661
0.1491396020
-0.0733000304
0.0440876261
0.0707794898
-0.1928142081
-0.0405860605
0.0282245136
-0.0905071558
0.0024209895
0.0623631947
0.0861954221
0.2531031563
-0.2563077320
-0.2516090638
0.5928166487
0.6411082258
-0.7592289119
0.5535121472
-0.6073829633
-0.7112935712
-0.9657967836
-0.3632867877
-0.5438552792
0.1632899256
0.1126373292
-0.5674175474
-0.7867365069
-0.0511508724
-0.1349756881
0.7397045828
0.4789319074
-0.7936260237
0.5171124264
-0.8554801598
-0.3458726613
-1.0600266893
-0.3951594255
-0.5552274630
0.2835420097
0.2325997103
-0.8616252680
-1.2386655112
-0.0697990006
-0.0085044637
0.0333984399
0.1257279542
-0.1179910156
0.0755534568
-0.0068593906
-0.1560891216
-0.0968073554
-0.0317741957
-0.1793644911
0.0033385587
-0.0133501349
0.0208042633
0.0447520168
0.0383320530
0.1311157533
-0.0717159409
-0.0355753560
-0.0214517685
-0.0832496397
0.0781041394
-0.0132340044
0.1024059847
-0.0102551645
-0.1766330861
-0.0029921112
-0.0574389361
0.0924246190
0.1940215105
0.1690854675
0.3838852697
-0.3223810181
-0.2395728312
0.0631136062
-0.3347068514
0.2918619707
0.1618251859
0.4704825239
0.0610390016
-0.2794092342
-0.0124572153
-0.1066436246
0.3100003817
0.5002607823
0.0113156565
0.2152379355
-0.2530111052
-0.0434321394
-0.0011148357
-0.1861463549
0.2785293083
-0.0436429482
0.3280391104
0.0442975860
-0.3774724438
-0.0404190794
-0.1151791107
0.3219594454
0.4706720816
-0.1259084511
-0.0379547078
-0.0949734033
0.1144519598
-0.0179415993
0.0225060783
0.1537224636
-0.2136478415
0.0692481321
0.0069236030
-0.2444870365
-0.0623479421
-0.0895822726
0.1947606131
0.2976457540
-0.1254250228
-0.1258151341
0.0593949312
0.1584872911
-0.0217762645
0.0970244432
0.0003344935
-0.1604401418
-0.1067626641
0.0175822493
-0.0883138784
-0.0016231511
0.0429579509
0.0083178913
0.0913747364
-0.0630011776
-0.0968873428
0.0326438846
0.0771405132
0.0143577017
0.0653145236
0.0089073030
-0.0623130069
-0.0633498784
0.0209043923
-0.0183237203
-0.0061212387
0.0273096773
0.0190971952
0.1077769091
-0.0955420078
-0.1512710715
0.1959150060
0.2048649370
-0.2300741818
0.2292295898
-0.1784533153
-0.2467778653
-0.3242192379
-0.1572068981
-0.3673478578
0.0122614842
-0.0513872165
-0.1364309340
-0.1506103789
-0.2359913854
-0.2862255874
0.1707442608
0.3081059624
-0.0915776946
0.2725115478
-0.0870379584
-0.2907299164
-0.2659947682
-0.0547061922
-0.1866826999
-0.0105290268
0.0113585452
-0.0416747494
0.0644109158
0.0081591391
-0.0103556088
0.0755137459
0.0367850900
-0.0621292951
0.0488544222
-0.0894215575
0.0107196608
-0.0909185648
-0.0410510818
-0.0621233408
0.0380945616
0.0116554627
-0.0807657236
-0.0983291452
-0.0068256700
-0.0069813402
0.0457524714
0.0372062721
0.0014152549
0.0053928567
-0.0303188049
0.0393398378
-0.0445228705
0.0394070526
0.0381593225
0.0470540119
0.0879422708
-0.0324689977
-0.0361196427
-0.0974062349
-0.1590831889
0.0684131145
0.0988136929
0.0964300093
0.0848418466
-0.0122079316
-0.0247683119
-0.0794667322
0.0598062304
0.0907184539
0.0131163761
0.0982856525
-0.0128482107
0.1070053342
-0.2225872168
-0.2995919575
-0.0238885466
0.1704191844
0.2347055035
0.0990220342
0.1740547600
-0.0664665959
0.0143957239
0.1709937610
0.0360192489
-0.0594363977
0.0812520259
0.1861854437
0.3268826395
-0.3256166906
-0.4212227823
-0.0215663946
0.2577626252
0.3492874966
0.1446129879
0.2330806717
-0.1412205523
0.0086706379
0.2655681647
0.1136436313
-0.0814211503
0.1495203085
0.2417833296
0.4315111217
-0.2166318856
-0.3597686786
0.0166156155
0.1339911650
0.4200516250
0.0980922270
0.1411397312
-0.0092378035
0.0149158360
0.2353145873
0.3515462763
-0.0391522248
0.1881278999
0.1169190643
0.4504475903
-0.2574581594
-0.3348794971
-0.1621493349
0.0889532757
0.5084142218
-0.0052844209
0.3681091596
0.0355249525
0.2395642225
0.3503018643
0.5537941683
-0.1004804903
0.1687461406
0.3591763293
0.7124471125
-0.1078257037
-0.1287888464
-0.1655187294
-0.0203018584
0.3575067116
-0.0700900369
0.2841743028
0.0992270543
0.2431461187
0.2345268577
0.3889265475
-0.0744911681
0.0786870718
0.2753252029
0.5049442626
-0.2040768993
-0.2809220230
0.0791554588
0.2090545878
0.1692870707
0.1468532468
0.0358701196
-0.1194536764
-0.1140388714
0.1172308134
0.0909058682
-0.0146551411
0.1215081010
0.0298463957
0.1691890313
-0.3283198753
-0.4682938101
0.1661627657
0.3485874035
0.1618343776
0.2686778708
-0.0187279559
-0.2416071693
-0.2706312538
0.1333727792
-0.0506299402
-0.0117636135
0.1727934257
-0.0222129020
0.0981695095
-0.0219929916
-0.1219332021
0.0032284438
-0.0245525183
0.2277527841
0.0014763592
0.0372269226
0.1091761973
0.0136331675
0.1156259678
0.1517099200
-0.0022965079
0.0968502290
0.0140659950
0.0882762189
0.2722148277
0.2413144330
-0.1460570519
-0.3526749784
0.2499161929
-0.2205893289
0.0706798463
0.3320967542
0.2443636121
0.0264156922
0.2552064903
-0.0095302350
-0.0721124961
0.0362000530
0.0981112847
0.0957219310
0.1153599507
-0.1502501784
-0.1827405021
0.1334095535
-0.1467078160
0.1287107711
0.0886527549
0.2091024614
0.0107105748
-0.0752556425
-0.0369820846
-0.1236440128
0.1351757161
0.2637503941
-0.1720272578
-0.2181478760
-0.0337322730
0.1185977376
0.1905986463
0.0658427561
0.1401556282
-0.1128686327
0.0216427582
0.1252735955
-0.0711149578
-0.0537385483
0.0308275734
0.1506711497
0.2837498119
-0.1487977517
-0.2429546060
0.0069578681
0.1070187711
0.2322591355
0.0791743470
0.0801010848
-0.0576745726
-0.0363500503
0.1450370886
0.0509357441
-0.0317721944
0.0526602599
0.0726748687
0.1258942192
-0.0669894055
-0.1471307754
-0.0223918697
0.0393161438
0.1178768576
0.0239642818
0.0659061452
-0.0452695529
0.0138084121
0.0921100977
0.1182779843
-0.0183533315
-0.0014655505
0.0670607968
0.1061581614
0.0177488404
-0.0114947261
-0.0484975556
-0.0522564296
0.1299169773
-0.0466778444
0.0550058758
0.0369068980
0.0754211332
0.0602021973
0.1877904855
-0.0109341938
-0.0020663839
0.0445561538
0.1734315982
0.0904513121
0.0631246775
-0.0553691444
-0.1138553567
0.0888725678
-0.0701827909
0.0264770628
0.0783289258
0.0818143908
0.0013202684
0.1591499578
-0.0090337342
-0.0394818577
0.0155982283
0.0976730358
0.0817203479
0.0518533271
-0.0443807452
-0.1028406167
-0.0112847916
-0.0257563295
0.0018201974
0.0018238014
0.0250349163
-0.0670439550
0.0579208918
-0.0333088528
-0.1238460312
0.0094961623
0.0134241737
-0.0964925481
-0.0980926083
-0.0706787505
0.0714163225
0.1585516162
0.0364505677
0.1293329090
-0.1025953874
0.0347681214
0.0357245523
0.1071105995
-0.0753256139
-0.0953737276
0.1487129211
0.2119517864
0.0923867455
-0.0166655618
0.0254649642
-0.1144266255
0.0458360103
-0.0179978084
-0.0661452276
0.0810821634
-0.0311016647
-0.0117572952
0.1401461846
0.0144366701
-0.0020318873
-0.0914357367
-0.0638822279
0.0797808539
0.0190699973
-0.0501246266
-0.1238867226
0.0036384011
-0.0504490737
0.0198893265
0.0419004881
0.0392821798
-0.0225568143
0.1117050805
-0.0243804728
-0.0821357617
0.0149134558
0.0063401520
0.0096717441
0.0680656815
-0.1978223168
-0.0674659497
0.0334628646
-0.0863017997
0.2036963280
-0.1091846288
0.1718237137
-0.0240438699
0.0657415979
-0.1116533154
-0.2379110017
0.2497434781
0.2943673556
-0.0411937540
-0.0043523500
-0.2034504514
-0.0517815970
0.1570734751
-0.0704437168
0.2620462811
-0.0588596484
0.2021427353
0.0616718347
0.0819302274
-0.1218089429
-0.1628328386
0.2988674484
0.3915584409
-0.1353427159
-0.1193489903
-0.1241449864
0.0730478539
0.0882956976
0.0013881594
0.2057669464
-0.1614736006
0.0936216929
0.0574712634
-0.0268784932
-0.0971465602
-0.1060126981
0.2450723823
0.3554608348
-0.2429230107
-0.1978143460
-0.0973386970
0.1995828166
0.0491802681
0.0767485187
0.2000571623
-0.2855013770
0.0251134330
0.0520825051
-0.0216621451
-0.1039463752
-0.0947043204
0.2502260541
0.3561862120
-0.0630209142
0.0102297917
-0.1677706149
-0.0046340792
0.0539057544
-0.0766524924
0.2019367433
-0.1219581697
0.1679709017
0.0189058532
-0.0145344694
-0.0793791815
-0.1365880073
0.2354935325
0.3640286478
0.0109124709
0.0759596773
-0.2154909212
-0.1188086984
0.1314393974
-0.1700280869
0.2478402324
0.0326322702
0.2946980445
0.0902428814
0.0199654698
-0.0665815140
-0.0868891377
0.2633767460
0.4083786869
-0.1259072000
-0.1345519995
-0.0235732750
0.1064847972
0.0485309307
0.0496162222
0.0863441041
-0.1427669400
-0.0025465962
0.0478829524
-0.0787987236
-0.0393217733
0.0001409164
0.1027126462
0.2197722869
-0.0367630344
0.0377685871
-0.1455024635
-0.0196119848
0.0107477985
-0.0854137510
0.1619203463
-0.1266999166
0.1580079608
0.0059515074
-0.1588718251
-0.0546234223
-0.1100283359
0.1900987229
0.3372052549
-0.0156255323
0.0591751249
-0.1442898528
-0.0464561834
0.0333237647
-0.1088958219
0.1530065502
-0.0664915591
0.1783352352
0.0231871217
-0.1124094438
-0.0371324250
-0.0811379584
0.1701184190
0.3132261618
-0.0561777424
-0.0028810142
-0.1347129450
-0.0045935152
0.0690179400
-0.0862925357
0.1698272888
-0.0632491668
0.1726230380
0.0683435669
-0.0651530552
-0.0388746853
-0.0399237728
0.1856998532
0.3462725818
-0.0916452735
-0.0625746556
-0.0457728965
0.0779882097
-0.0250684973
0.0016529199
0.0694242940
-0.2243862322
0.0218782770
-0.0141155691
-0.2132397559
-0.0233571000
-0.0766474271
0.0955257833
0.3172352101
-0.1696117811
-0.1568745140
0.0427888588
0.2105541999
-0.0796331712
0.1209695112
-0.0095098434
-0.3677900767
-0.1339712600
-0.0594215412
-0.2306369337
-0.0222665337
-0.0752707674
0.0266806646
0.2109173911
0.0020835897
0.0766136819
-0.1128033608
-0.0291669850
-0.0070057334
-0.0859589507
0.1031584685
-0.0721360950
0.1312896943
-0.0106280565
-0.1594890699
-0.0249041243
-0.1137514393
0.1288642774
0.2275988269
-0.1174227252
-0.0368167825
-0.0609427705
0.1140666495
-0.0466630696
0.0067945158
0.0835688517
-0.2479652006
0.0312888060
-0.0292199024
-0.3289608878
-0.0302304346
-0.1106397303
0.1221256117
0.2882829261
-0.2687104601
-0.2492788294
0.0124065181
0.2794025444
0.0243310436
0.1345952783
0.1007343400
-0.3342751140
-0.0714868208
0.0550180737
-0.2740683621
-0.0383968712
-0.0014601429
0.1386802563
0.2985878235
-0.1155737755
-0.1165528525
0.0099590707
0.1214354749
0.0398067177
0.0515225673
0.0451177374
-0.1326688185
-0.0201070711
0.0510304017
-0.0686953067
-0.0103754836
0.0255758973
0.0512490233
0.1806711908
-0.1072205436
-0.1140724910
-0.0048946961
0.1007130529
0.0892524807
0.0440880167
0.0754291171
-0.0726871458
0.0077352223
0.0853168147
0.0395547870
-0.0122677664
0.0565028579
0.0707478982
0.1910693820
-0.1677795260
-0.1786724113
-0.0039924827
0.1508904300
0.1191195939
0.0740977374
0.1120807448
-0.1122557171
0.0009141469
0.1259170867
0.0066422241
-0.0326833382
0.0793493680
0.1153835827
0.2188017707
-0.2617390028
-0.3090042710
0.0796980643
0.2793331243
0.0974443973
0.1764003153
0.0371693823
-0.2661840902
-0.1466454679
0.0993308329
-0.0341279842
-0.0233904882
0.1127784082
0.0445906123
0.2105673525
-0.1303365734
-0.1648108038
0.0272570247
0.1275132391
0.0893056614
0.0781595561
0.0381624505
-0.1301866473
-0.0547789062
0.0652935956
0.0151963186
-0.0178472254
0.0604067204
0.0397882220
0.1743725623
-0.2523749255
-0.2958519127
0.0871375149
0.2787506154
0.0035786156
0.2067003705
0.0136219726
-0.3447391591
-0.1905150331
0.0147155209
-0.1884461874
-0.0390058794
0.0180928329
0.0425986624
0.1886384234
-0.2121225655
-0.2362630843
0.0466193688
0.2275092222
0.0433883366
0.1548678323
0.0495550624
-0.2515748428
-0.1174304538
0.0477138397
-0.0502904317
-0.0423403523
0.0393118802
0.0699608747
0.1675584497
-0.1489575681
-0.1545855415
0.0095692663
0.1520126320
0.0365108659
0.0960391192
0.0597387284
-0.1504264553
-0.0594508040
0.0462266731
-0.0124720460
-0.0412262941
0.0098506902
0.0787354158
0.1404870657
-0.1354383294
-0.1791923386
0.0909399892
0.1599806219
0.0069598648
0.1249977463
-0.0482136878
-0.1723257416
-0.1473736293
0.0076440902
-0.0894549765
0.0060138020
0.0588062949
-0.0402476830
0.0886653043
-0.2409783244
-0.3224261742
0.2291174148
0.3312125861
-0.0963670704
0.2772865539
-0.1774722983
-0.4169202661
-0.3705614957
-0.0720938829
-0.2746934028
0.0311015058
0.0774075313
-0.1641996914
0.0480210989
-0.2466689663
-0.3247500173
0.2256811743
0.3451728633
-0.1059508587
0.2759552545
-0.1698556168
-0.4291371350
-0.3744622917
-0.0736928969
-0.2750900927
0.0228824942
0.0749417519
-0.1556114921
0.0274089026
-0.3125723622
-0.3809741660
0.1451850438
0.3608321175
0.0267920986
0.2519499483
-0.0134618447
-0.3461195735
-0.2471993234
0.0692431156
-0.1252693083
-0.0120447045
0.1224405764
-0.0026281689
0.1597183276
-0.2841253591
-0.4022642626
0.2123489992
0.3576135010
0.0061925837
0.2766525299
-0.0989427282
-0.3289162999
-0.3184448558
0.0467304517
-0.1828058600
0.0271505184
0.1553925574
-0.0937090701
0.1130396096
-0.2779517515
-0.4400770570
0.2923363265
0.3730571624
-0.0092713021
0.3142249769
-0.1990737705
-0.3493588297
-0.4201944468
0.0282025118
-0.2165281712
0.0775327804
0.2147726351
-0.2076126825
0.0523826458
-0.3501499809
-0.4793787217
0.2424184785
0.4260797589
0.0247665471
0.3263131907
-0.1046421535
-0.3903433642
-0.3595351901
0.0611168533
-0.2339279119
0.0183234534
0.1883251719
-0.1003708831
0.1205620671
-0.2158467285
-0.3268081248
0.1932243420
0.2793289248
-0.0405726605
0.2358150903
-0.1082358569
-0.2944028904
-0.2663882829
-0.0095438916
-0.3394745391
0.0193600703
0.0874241281
-0.0989057042
0.0833333039
-0.3547514399
-0.4846095357
0.2635153468
0.4552554667
-0.0517324237
0.3596707047
-0.1305457194
-0.4754427672
-0.4205382483
0.0116330201
-0.4961769733
0.0094007819
0.1375949879
-0.1111739181
0.1068314394
-0.4254852312
-0.5568449209
0.2761678395
0.5362628496
0.0333786950
0.3953049282
-0.0835428762
-0.4485207505
-0.4193078735
0.1088582399
-0.3165957995
0.0048748393
0.2265786694
-0.0727046566
0.0912346883
-0.1992909599
-0.2756933277
0.1393271709
0.2423036595
0.0556095435
0.1836515853
-0.0537068465
-0.1637712902
-0.2000786846
0.0718456536
-0.0799405800
0.0197286656
0.1562975180
-0.0594004468
0.0489746198
-0.4272071058
-0.4979676666
0.1631918395
0.4607063666
0.0622953326
0.3255185442
0.0477822096
-0.3998547874
-0.2760725966
0.1077957983
-0.2582535330
-0.0430092803
0.1131215392
0.0791778221
0.1681299713
-0.3859535947
-0.4364306792
0.0750401222
0.4037130857
0.0436535737
0.2737880428
0.1127882322
-0.3822721945
-0.2005320780
0.0950641606
-0.2622459242
-0.0810473101
0.0415719377
0.1598561037
0.2286269352
-0.1765972811
-0.2074316288
0.0314370895
0.1748365499
0.0235911174
0.1239893760
0.0621983528
-0.1708025509
-0.0860311035
0.0452111152
-0.1090885099
-0.0419461034
0.0155484535
0.0852914214
0.1346164436
-0.1847689560
-0.2298774996
0.0380714326
0.1866662379
0.0701649818
0.1252567798
0.0669008603
-0.1391591366
-0.0811358406
0.0848606542
-0.1059404184
-0.0335095844
0.0532896060
0.0804876970
0.1223366108
-0.0379795895
-0.0359840964
-0.0246900327
0.0233146673
0.0149164794
0.0086249684
0.0582344549
-0.0172450694
0.0197874322
0.0241140995
-0.0798575801
-0.0242670482
-0.0120226417
0.0691228018
0.0968241094
-0.0994167028
-0.1212612807
0.0081014411
0.0981779594
0.0077991166
0.0744520054
0.0514360001
-0.0796832749
-0.0464588590
0.0301219977
-0.0991516886
-0.0298342168
0.0016230769
0.0697514080
0.0884682215
-0.0291212805
-0.0354975830
0.0013006218
0.0326254955
-0.0341010091
0.0344099908
0.0161089644
-0.0384262095
-0.0333143178
-0.0138365546
-0.1415406748
-0.0219505150
-0.0328128687
0.0379066674
0.0171388374
0.1027198092
0.1251619706
-0.0124718955
-0.0821310727
-0.0758803973
-0.0523302785
-0.0418352989
0.0673829444
0.0245421960
-0.0642274899
-0.1312411884
0.0154102089
-0.0611995171
-0.0440919941
-0.0639538137
0.1060437491
0.1014658622
0.0531318326
-0.0949244339
-0.0619739843
-0.0107711458
-0.1166480357
0.1123421042
-0.0361325203
-0.0711102404
-0.1036008933
0.0387440507
-0.0098948983
-0.1398063011
-0.2107609823
-0.0368867883
-0.0434707780
0.0632711318
0.0729348837
-0.0624857642
0.0741201156
-0.0595671374
-0.0602241355
-0.0976844085
-0.0345748439
-0.0776042517
0.0035191692
-0.0016627374
-0.0543099361
-0.0846248772
-0.0896901545
-0.1203286240
0.0522135309
0.1022009967
-0.0107957830
0.1027353236
-0.0096330064
-0.0594471381
-0.0794802882
0.0153386663
-0.0888686357
-0.0144107911
0.0197189541
-0.0022570903
-0.0130053913
-0.0616862404
-0.0702517754
0.0004639630
0.0553631272
-0.0065956781
0.0627900496
0.0519230342
-0.0723791199
-0.0130260605
-0.0060627825
-0.1619382525
-0.0475354758
-0.0636432386
0.0745765646
0.0543567503
-0.1097412290
-0.1607799970
0.0961063650
0.1502433007
0.0603044554
0.1107178558
-0.0365947788
-0.0731730005
-0.1162073855
0.0655441296
0.0331862162
0.0194128348
0.1259196521
-0.0457490236
0.0061290605
-0.1022419472
-0.1397312071
0.1009901568
0.1436935558
0.0336893892
0.1112147230
-0.0601404772
-0.0977589270
-0.1266617365
0.0382725888
-0.0682088534
0.0201203418
0.1012153609
-0.0732556642
-0.0479764291
-0.2244433792
-0.2860718991
0.1156560395
0.2646774981
0.1304594093
0.1759773215
0.0077022308
-0.1607858563
-0.1417263792
0.1376789856
-0.0492765103
0.0061368359
0.1775021340
-0.0063493541
0.0917894068
-0.2855094482
-0.3585299454
0.1284588770
0.3208645660
0.1248761156
0.2110222508
0.0216060276
-0.1971510216
-0.1731613097
0.1597209047
-0.0940585465
0.0009074864
0.1993646458
0.0170225681
0.1108103600
-0.1119329615
-0.1779014369
0.1302726939
0.1576742243
0.0358318211
0.1321901319
-0.0617257836
-0.0497091975
-0.1660282272
0.0713935497
-0.0982974659
0.0256081756
0.1449531899
-0.0763226585
-0.0649085333
-0.0909810243
-0.2011881992
0.1728224181
0.1422063931
0.1108759348
0.1287945463
-0.0929421774
0.0795464375
-0.1808016289
0.1349368727
0.1669837540
0.0670808982
0.2563493792
-0.1342529510
-0.1081960340
-0.0769087470
-0.1611884250
0.0798204827
0.0972522980
0.0755990497
0.0891655184
-0.0024586122
0.0439393163
-0.0839809866
0.1010644066
0.0311043498
0.0144623872
0.1355643377
-0.0172530990
0.0005981288
0.0029760408
-0.0030448170
-0.0051720164
-0.0023959725
-0.0127190590
0.0009802213
0.0197133636
0.0341937286
0.0107867842
0.0132733535
-0.0764797409
-0.0036352556
-0.0088752301
0.0253384317
0.0083721810
-0.0741161476
-0.0648708525
0.0446374051
0.1096031000
-0.1071061491
0.0895919310
-0.0332992118
-0.1475113016
-0.1097924992
-0.0577236705
-0.2176916763
-0.0159117770
-0.0595197502
-0.0109263644
-0.0760890547
-0.0901354050
-0.1321278967
0.1492184753
0.1560523465
-0.1647568981
0.1881186244
-0.1490623303
-0.1865934138
-0.2435451074
-0.1139388286
-0.3245708555
-0.0020471543
-0.0521121945
-0.1298319640
-0.3051719335
0.0424569100
-0.0205557046
0.1280326470
0.0077603758
-0.1491270636
0.1092385960
-0.1639384523
0.0054927316
-0.1632869590
-0.1098846196
-0.2101130362
0.0168770999
-0.0545190387
-0.1627027061
-0.3677562777
-0.0454371007
-0.0320499860
0.0664002094
0.1020110127
-0.1960294901
0.1123692752
-0.0646221059
-0.1551052883
-0.1380408188
-0.1131364768
-0.3277356066
-0.0228682641
-0.1107582312
-0.0323671277
-0.1671956622
0.2333473702
0.2586819700
-0.0312526402
-0.1964497626
-0.2767961228
-0.0740759860
-0.0535747205
0.1009225582
0.0214057945
-0.1935339063
-0.3251188861
-0.0103841581
-0.2288910592
-0.0187477192
-0.1935319440
0.1651786080
0.1702029613
0.0411019272
-0.1135071973
-0.2301991553
-0.0119253794
-0.1209028745
0.0569509285
-0.0577348862
-0.1558556936
-0.1769657892
0.0156302371
-0.1228930266
-0.1015555499
-0.2594276726
0.0866656988
0.0482173678
0.0698335957
-0.0513608465
-0.1531193028
0.0448400978
-0.1097673216
0.0239127539
-0.0918143675
-0.1117260321
-0.2322098199
0.0109614741
-0.0695304860
-0.1028331353
-0.2377746715
0.1756098634
0.1397078419
0.0642079056
-0.1285532502
-0.1530642015
-0.0118997480
-0.1358037130
0.1130093470
-0.0632971873
-0.1147539219
-0.1140498190
0.0296702057
-0.0629343422
-0.1394237067
-0.2938255182
0.3447540213
0.3231769808
0.0538774477
-0.2998566174
-0.1330929397
-0.1434293689
-0.2029782986
0.3628478173
0.0232066169
-0.1106876029
0.1003593999
0.1005741253
-0.0003361101
-0.2470089203
-0.4008065517
0.1940741737
0.1514105162
0.1028109591
-0.1550211020
-0.0984089965
-0.0326368307
-0.2026890734
0.2227285334
-0.0593664472
-0.0697570389
0.0845651765
0.0848512602
0.0439155205
-0.2465870258
-0.3980311858
0.1242962729
0.1412864068
0.1129434226
-0.0323681115
-0.2453444063
0.0220661469
-0.1951514035
0.0132147209
-0.1300715773
-0.1455666067
-0.2109032628
0.0605183701
-0.0510333215
-0.2047703105
-0.3400023981
0.0222016123
-0.0098367117
0.0718823858
0.0230250856
0.0109528023
0.0236250533
-0.0591381157
0.0833884236
-0.0613133283
0.0513224066
0.2360493224
0.0507803182
0.1206054466
-0.0871760267
-0.0866491064
0.4369034296
0.3424935957
0.0863762935
-0.3930680291
0.1104920573
-0.2399738162
-0.2189513498
0.7047153697
0.1001133638
0.1035234455
0.8388977828
0.2074187907
0.3164643324
-0.3369782316
-0.3764381248
0.3796819128
0.3813926050
0.0217005535
-0.3067559960
-0.1892003273
-0.1606003249
-0.1411415937
0.3565753249
0.0387983144
-0.1239127514
-0.1207583644
0.0819519527
-0.0531540654
-0.1697526013
-0.2998124803
0.5121349229
0.5737145231
0.0674087296
-0.3746321120
-0.3783888918
-0.2143928057
-0.3028432086
0.4121834990
-0.0120857618
-0.2609977460
-0.2387380723
0.1437965883
-0.1138312956
-0.3344619597
-0.5316105536
0.2285480006
0.2544599715
0.1144122092
-0.1094832552
-0.3145641913
-0.0271038625
-0.2553361943
0.1168236847
-0.1580191852
-0.2122179785
-0.2925170363
0.0886324054
-0.0662095345
-0.2622742374
-0.4079993918
-0.1087678949
-0.1641352096
0.1162644528
0.1600801711
-0.0482197061
0.1582027934
-0.0707734692
-0.1184740416
-0.2053665831
-0.0175661279
-0.1317591863
-0.0015443353
0.0450819306
-0.0632905321
-0.1159707156
0.0429830213
0.0408887809
0.0658479590
0.0019818364
-0.1742856440
0.0532864799
-0.1085480079
-0.0367095885
-0.1247309320
-0.1324581756
-0.2415322495
0.0070611139
-0.0811229973
-0.0901019389
-0.2263127255
-0.0097615994
-0.0156036690
0.0662714595
0.0560622149
-0.1455949147
0.0775498248
-0.0767762200
-0.0812962062
-0.1295063101
-0.1043842237
-0.2425269559
-0.0047142133
-0.0628469213
-0.0566863832
-0.1620762297
-0.0020699688
-0.0014938995
0.0237717329
0.0234516038
-0.1016750283
0.0466194730
-0.0300689503
-0.0616734698
-0.0817324555
-0.0789034584
-0.2099786202
-0.0175921302
-0.0664720468
-0.0139476549
-0.0862968882
-0.1338818395
-0.1887412723
0.1113917580
0.1758768753
-0.0896889431
0.1874751016
-0.0632153363
-0.1818701440
-0.2152400230
-0.0612400548
-0.3105317569
-0.0296541476
-0.0293951212
-0.0398560649
-0.1450727905
-0.4930319541
-0.5780399625
0.2530857168
0.5961378209
-0.0826544595
0.4644488014
-0.0565661449
-0.5323849499
-0.4612259398
0.0256289133
-0.4258767124
-0.0455383411
0.0962910302
-0.0138421641
-0.0630485310
-0.0420992616
-0.0284426762
0.0957474383
0.1112410086
-0.1940491123
0.1045181732
-0.1018384496
-0.1302871938
-0.1737382971
-0.1052439460
-0.2872832618
0.0092270960
-0.0440778115
-0.0795766015
-0.1582337213
0.0474155182
0.0374341072
0.0767686179
-0.0044849777
-0.1062447595
0.0350658195
-0.1080033051
0.0384637923
-0.1021179576
-0.0765701771
-0.0852511769
0.0304617550
0.0028839082
-0.1132615657
-0.2157361661
0.1317603804
0.1160662279
0.0550597104
-0.1114059171
-0.1048508839
-0.0172175664
-0.1278520192
0.1267624570
-0.0493883862
-0.0949139265
-0.0877153752
0.0342748750
-0.0341689518
-0.1410185459
-0.2737230083
0.1894876068
0.2215990921
-0.0138242235
-0.1685313097
-0.1594317819
-0.0833361612
-0.0910274931
0.1101033232
0.0181493129
-0.1466955379
-0.1579078717
0.0239875230
-0.1168154588
-0.0915530494
-0.1899916788
0.1065657411
0.1068979850
-0.0116476652
-0.1042886317
-0.0219438395
-0.0609129382
-0.0335289686
0.1295278469
0.0317653575
-0.0288841971
0.0138328461
0.0199168444
-0.0104316545
-0.0451445322
-0.0737345415
0.1532962488
0.1516334777
-0.0184589195
-0.1551730245
-0.0180364482
-0.0963497297
-0.0412514859
0.2018513723
0.0636781700
-0.0328201401
0.1047672313
0.0337266816
0.0057981586
-0.0654945480
-0.0942699156
0.1484529213
0.1591366827
-0.0214972857
-0.1463685825
-0.0292920130
-0.0994188945
-0.0396504501
0.1936889265
0.0645019836
-0.0324949500
0.0660789805
0.0336621372
0.0060111606
-0.0575158804
-0.0872954054
0.1417960781
0.1569982577
-0.0168726647
-0.1333559167
-0.0463999472
-0.0947816682
-0.0428686081
0.1646533785
0.0609339894
-0.0314286768
0.0191186417
0.0373488503
-0.0014151193
-0.0594575758
-0.0737145002
0.1461643685
0.1333074318
-0.0328734274
-0.1335141577
-0.0234433543
-0.0801465852
-0.0089369762
0.1536558037
0.0655192443
-0.0335865681
-0.0188094033
0.0139517158
-0.0337378906
-0.0217190878
-0.0458056984
0.0902586090
0.0792720770
-0.0482442344
-0.1119217154
0.0676881730
-0.0795796070
0.0509951815
0.1764041236
0.0961976259
0.0412913576
0.0623084563
0.0015987953
0.0110907069
0.0361694053
0.0481324041
0.0202821807
0.0070251119
-0.0141096487
-0.0286576973
0.0456428193
-0.0106197545
0.0327819415
0.0937173229
0.0306997871
0.0372072438
0.0243881826
-0.0024091969
0.0186296318
0.0271088371
0.0306465009
-0.0484946476
-0.0624249395
0.0172701762
0.0470292430
0.0082824984
0.0431356898
0.0095575453
-0.0145194215
-0.0359013551
0.0147082466
-0.0556568366
-0.0106230146
0.0198864471
0.0165309602
0.0120807429
-0.0336297594
-0.0490807133
0.0189010560
0.0360360042
-0.0124339629
0.0417392815
-0.0078196812
-0.0213528606
-0.0499714617
0.0015482235
-0.0745768042
-0.0092761225
0.0099534635
-0.0020847520
-0.0165571277
-0.0153208407
-0.0187197142
0.0204326191
0.0218356340
-0.0223213354
0.0297630383
-0.0108715240
-0.0004124784
-0.0451455098
-0.0087110492
-0.0631450930
-0.0027181488
0.0107654906
-0.0091482626
-0.0254336611
0.0060544488
0.0242336985
0.0199907700
-0.0007682400
-0.0183927552
0.0116624744
-0.0244423825
0.0287358561
-0.0330337688
-0.0092491594
-0.0335104937
0.0062760865
0.0120677879
-0.0268722792
-0.0402484081
0.0362005401
0.0379975276
-0.0027398413
-0.0356879463
-0.0339965305
-0.0137493299
-0.0160016103
0.0434929398
0.0060700372
-0.0312645670
-0.0509231262
0.0015270877
-0.0212893286
-0.0040934316
-0.0415724858
0.0680240655
0.0671208942
-0.0030628823
-0.0626903897
-0.0307851251
-0.0347320244
-0.0202748696
0.0946862735
0.0122166564
-0.0358523554
-0.0135457591
0.0103168636
-0.0187138312
-0.0286662374
-0.0676806795
0.1257869156
0.1366986008
-0.0106009900
-0.1247570442
-0.0571554310
-0.0697949553
-0.0498510886
0.1372012437
0.0318623033
-0.0587754348
-0.0143373430
0.0217554368
-0.0345830456
-0.0574796618
-0.1167712584
0.1890194943
0.2095772768
0.0184046972
-0.1636047546
-0.1359984937
-0.0849453185
-0.1297460562
0.1648342090
0.0113187826
-0.1175218932
-0.0625102033
0.0506068641
-0.0503260869
-0.1449628414
-0.2425749600
0.0645921436
0.0588192898
0.0289772468
-0.0501706891
-0.0594395548
-0.0097593102
-0.0670936873
0.0785583872
-0.0282200548
-0.0497440790
-0.0433762119
0.0236967942
-0.0070212863
-0.0842889624
-0.1368279130
0.0675295638
0.0733893907
-0.0046642017
-0.0628205849
-0.0538538983
-0.0360885704
-0.0285657665
0.0706421985
0.0196585389
-0.0419379367
-0.0557768652
0.0159747262
-0.0218995046
-0.0388913926
-0.0640165111
0.0721716109
0.0771369299
-0.0065076795
-0.0601603432
-0.0408748962
-0.0483501930
-0.0251730474
0.0906123996
0.0235701261
-0.0203425299
-0.0080183792
0.0254496091
0.0093263668
-0.0384188216
-0.0385047006
0.0641609957
0.0693368098
-0.0090973249
-0.0637303400
-0.0217745597
-0.0463523017
-0.0196729728
0.0913530097
0.0314183370
-0.0112442814
0.0034214730
0.0195711284
0.0138234122
-0.0288142650
-0.0261704924
0.0940983632
0.1026457115
-0.0173172992
-0.0983883596
-0.0302385750
-0.0655080620
-0.0230120076
0.1285437272
0.0456364045
-0.0241883225
0.0262108553
0.0229783720
-0.0023148586
-0.0367540796
-0.0488332778
0.0327204903
0.0355781648
-0.0118626361
-0.0402151982
-0.0025920126
-0.0284036995
0.0043369897
0.0725860425
0.0237646757
-0.0038746044
0.0044681014
0.0047647196
-0.0015625932
-0.0081511163
-0.0071294138
0.0232847841
0.0169833018
-0.0160542898
-0.0353811765
0.0226575595
-0.0228788653
0.0154596682
0.0785135616
0.0268926005
0.0163639272
0.0284255211
0.0017171338
0.0130811057
0.0098356118
0.0220790798
0.0169500890
0.0017497269
-0.0095089428
-0.0285038591
0.0563645757
-0.0221072819
0.0160196047
0.0944372220
0.0332748838
0.0389108903
0.0808922491
0.0084209952
0.0413108333
0.0087578886
0.0222539258
0.0190289059
-0.0145218841
0.0266927292
-0.0274480669
0.0469557824
0.0001063953
-0.0249636848
0.1131096258
-0.0091342990
0.0372328451
0.1133595891
0.0217413712
0.0708471745
-0.0487566866
-0.0548593522
0.0102411518
-0.0202478880
0.0368817086
-0.0107289010
0.0285618959
0.0117847870
-0.0319611833
0.0674439622
-0.0256792659
0.0112289920
0.0425735243
0.0134282576
0.0422981520
-0.0445759305
-0.0618383914
0.0055922718
-0.0069592035
0.0140457207
0.0026026725
-0.0001913821
0.0103040303
-0.0180787129
0.0483196665
-0.0223933145
-0.0044083052
0.0003930561
0.0058428948
0.0125351689
-0.0251451423
-0.0349180049
0.0027640121
-0.0220330701
0.0589569847
0.0199396676
-0.0386077730
0.0398447561
-0.0684312942
0.0264566361
-0.0870671137
-0.0228186467
-0.0317567087
0.0181091918
0.0238055232
-0.0747588845
-0.1014557731
0.0028145831
-0.0029579183
0.0241602502
0.0062241265
-0.0278206105
0.0157920822
-0.0324553388
0.0353680493
-0.0418845478
-0.0098079722
-0.0179126661
0.0101301685
0.0166193131
-0.0342780219
-0.0414773904
0.0445980226
0.0604421197
0.0012756785
-0.0368065843
-0.0610568660
-0.0208789638
-0.0327254185
0.0499205000
-0.0090178882
-0.0349562407
-0.0653504045
0.0148117201
-0.0187019613
-0.0333221735
-0.0495087621
0.0633653730
0.0818431608
-0.0060151710
-0.0510715394
-0.0648563244
-0.0377991319
-0.0325682732
0.0706349623
0.0117863194
-0.0378500829
-0.0478612440
0.0175425889
-0.0172993723
-0.0328356399
-0.0573765194
0.0484034133
0.0513988737
-0.0043627973
-0.0383583171
-0.0254524830
-0.0279313795
-0.0229747247
0.0808425906
0.0121189932
-0.0207723263
0.0004477174
0.0128620288
0.0076890247
-0.0316055003
-0.0453626961
0.0664443062
0.0731585586
-0.0151356627
-0.0677742623
-0.0220123252
-0.0499373833
-0.0181518996
0.1056769539
0.0332832370
-0.0160592687
0.0221778253
0.0178471272
0.0047916030
-0.0262005536
-0.0329910373
0.0205748851
0.0210448169
0.0022200858
-0.0214244567
-0.0101644441
-0.0148820935
-0.0107399010
0.0575453613
0.0031774043
-0.0011613731
0.0149303849
0.0094749920
0.0212883822
-0.0103057045
-0.0048212500
0.0308446553
0.0239800308
0.0208709997
-0.0152917170
-0.0357086071
-0.0060481395
-0.0397013351
0.0589459243
-0.0220047920
-0.0194073720
-0.0147111533
0.0166472783
0.0109402844
-0.0452811721
-0.0634094016
0.0900271596
0.0803001688
-0.0029538306
-0.0974802989
0.0003649982
-0.0584570651
-0.0349174803
0.1553960816
0.0316085774
-0.0078489954
0.0991685956
0.0282978200
0.0288215576
-0.0546518305
-0.0745758751
-0.0090090554
-0.0102669959
-0.0203515219
-0.0012399300
0.0059657618
0.0016689594
0.0338888651
0.0224003123
0.0157642404
0.0079798752
-0.0215348205
-0.0091618183
0.0044642302
0.0306500450
0.0447569061
0.0092156428
0.0230167990
-0.0172901053
-0.0181958152
-0.0144859319
-0.0095008294
0.0182742713
0.0301122709
0.0133680863
-0.0121338851
-0.0306029997
-0.0015782907
-0.0154601269
0.0158918110
0.0163695648
-0.0688036118
-0.0868978439
0.0322892465
0.0730966004
0.0031575764
0.0595151467
0.0023564074
-0.0351910128
-0.0658795552
0.0127856576
-0.0313579711
-0.0046089387
0.0302380227
0.0012485827
0.0205986267
0.0270077363
0.0253765473
-0.0026662828
-0.0353180901
-0.0076330109
-0.0164517685
-0.0093368571
0.0734154330
0.0056332076
-0.0047506410
0.0318517828
0.0084631873
0.0024121336
-0.0086271888
-0.0103459936
0.0422405358
0.0355970336
-0.0165106790
-0.0500981584
0.0056220773
-0.0303540583
0.0006164698
0.0944840797
0.0248517916
-0.0035519856
0.0456461580
0.0109868851
0.0009167188
-0.0075990018
-0.0135301793
-0.0264099778
-0.0293337981
-0.0101789928
0.0108114243
0.0219100993
0.0133306435
0.0202831491
0.0269150130
-0.0003934521
0.0084656213
0.0252527504
-0.0124613532
-0.0009333765
0.0215108814
0.0321468940
-0.0490594563
-0.0554560517
-0.0038788188
0.0415674670
0.0116580912
0.0350840957
0.0236532567
-0.0090450029
-0.0109371792
0.0085303719
0.0101789468
-0.0138823604
-0.0051473273
0.0315845116
0.0435602173
-0.0139934588
-0.0075789537
-0.0063416676
0.0073410224
-0.0072902343
0.0087685087
0.0048466973
0.0231525008
-0.0055859188
-0.0052261046
-0.0024034614
-0.0016917048
-0.0081333759
0.0070815733
0.0070816822
-0.0044069253
-0.0135487938
0.0253114291
0.0002204322
-0.0068920156
0.0122821475
-0.0222377479
0.0430876626
-0.0177617737
-0.0005546691
-0.0013787469
0.0092640719
0.0201539195
-0.0294416788
-0.0425185729
-0.0531944138
-0.0688826186
0.0295363257
0.0623026292
-0.0172604978
0.0508744611
-0.0101931520
-0.0291901468
-0.0607988203
0.0028849293
-0.0494540038
-0.0050530272
0.0191598582
-0.0037272748
-0.0015471699
-0.0845371639
-0.0987206538
0.0281211784
0.0935339988
-0.0154639472
0.0745356168
0.0037161027
-0.0715232159
-0.0733183937
0.0087577024
-0.0616464041
-0.0139208395
0.0154878988
0.0118624938
0.0226709023
-0.0858736267
-0.0969999025
0.0247853762
0.0938422125
0.0034156089
0.0583469595
0.0110863351
-0.0509886838
-0.0593951103
0.0284329390
-0.0058970139
-0.0061607933
0.0431352027
0.0158522369
0.0361477008
-0.0449934568
-0.0464424956
-0.0006648153
0.0443095519
0.0053197882
0.0192974399
0.0215456030
-0.0008754909
-0.0145600232
0.0273476985
-0.0086810666
-0.0075237171
0.0179678980
0.0241577980
0.0483584212
0.0292582023
0.0423358990
-0.0188393578
-0.0325678240
-0.0419447889
-0.0223389645
-0.0026552898
0.0357432302
0.0106164003
-0.0276295990
-0.0604757213
-0.0004679390
-0.0269766344
0.0001558027
-0.0016284444
-0.0224262650
-0.0363687772
0.0050679611
0.0230278918
0.0072107635
0.0185526710
0.0107186193
0.0154416113
-0.0188025007
0.0142247106
0.0005105248
-0.0026091792
0.0194958628
0.0065975780
0.0191466949
0.0293507761
0.0241738278
-0.0116476228
-0.0397815990
0.0127798787
-0.0243268824
0.0028546989
0.0892941098
0.0189436892
0.0101117993
0.0655398476
0.0073653809
0.0221223816
-0.0058839184
-0.0011386723
0.0227665312
0.0089441665
0.0046161713
-0.0303108235
0.0161552630
-0.0148688856
-0.0029537245
0.0827822631
0.0027863578
0.0175992008
0.0624247319
0.0129707017
0.0335657637
-0.0138823042
-0.0109372914
-0.1241933608
-0.1437355315
0.0318701411
0.1250100907
0.0220174230
0.0877326511
0.0265227423
-0.0747206412
-0.0675632785
0.0379294512
-0.0515545722
-0.0182427210
0.0362032417
0.0329489862
0.0558781274
-0.1081139610
-0.1251543712
0.0298915168
0.1090271478
0.0228004321
0.0730688717
0.0231976390
-0.0582068652
-0.0641592941
0.0329024325
-0.0399250294
-0.0155482806
0.0338019771
0.0301820403
0.0558039599
-0.0036746826
-0.0249439476
0.0217242565
0.0050219360
0.0174785517
0.0169073701
-0.0159052760
0.0453754064
-0.0292111247
0.0105256176
0.0469459123
0.0069822000
0.0281108683
-0.0219164066
-0.0245889470
0.0334891195
0.0243711526
0.0104675683
-0.0297827974
-0.0183193696
-0.0043767326
-0.0301891505
0.0659041479
-0.0133016019
-0.0210774584
0.0016327638
0.0215227688
-0.0020606951
-0.0317654651
-0.0488732451
0.1010078848
0.1100659086
-0.0173054822
-0.1038045255
-0.0379357031
-0.0647523067
-0.0370501170
0.1319653118
0.0310881006
-0.0378902534
0.0239175169
0.0235270029
-0.0257422779
-0.0300510032
-0.0607894806
-0.0354586789
-0.0522457369
0.0211400080
0.0457234006
0.0053247533
0.0373354476
-0.0066489446
0.0097227806
-0.0426233742
0.0224738011
0.0248284125
0.0022439442
0.0340556317
-0.0087818983
-0.0007840416
-0.0689095084
-0.0850516902
0.0178979259
0.0614226713
0.0237138242
0.0514421148
0.0123263444
-0.0057470752
-0.0380215719
0.0232596808
0.0248803741
-0.0134143515
0.0306393243
0.0110372322
0.0237117170
-0.0155760442
-0.0228003769
0.0193414747
0.0243694275
-0.0277123440
0.0227824672
-0.0202990877
0.0061475933
-0.0385418859
-0.0073501559
-0.0292692837
0.0071016823
0.0152685981
-0.0184496139
-0.0135553436
-0.0950573669
-0.1165864113
0.0240180971
0.0938403409
0.0347862280
0.0726831504
0.0231082875
-0.0416343247
-0.0531867934
0.0466532872
0.0090817028
-0.0093939386
0.0560817078
0.0184932719
0.0522376849
-0.0362335862
-0.0447590432
0.0038742215
0.0308901781
0.0128674856
0.0230969725
0.0141191949
0.0051540728
-0.0202462106
0.0206067490
-0.0002631524
-0.0046332663
0.0232515021
0.0110042968
0.0325162865
-0.0464136281
-0.0635316874
0.0245093055
0.0533275277
0.0015302231
0.0448909951
-0.0058335088
-0.0130251438
-0.0551804311
0.0086332383
0.0097282621
-0.0010375235
0.0263440250
-0.0066374124
0.0120515497
-0.0727438114
-0.0931747086
0.0771681661
0.1025915608
-0.0359993630
0.0940088007
-0.0566582264
-0.0548234318
-0.1256109126
-0.0073815221
-0.0423179452
0.0104105998
0.0496229991
-0.0574481808
-0.0643255012
-0.1297437693
-0.1496031226
0.0718610978
0.1634058830
-0.0348983969
0.1217190509
-0.0266303260
-0.1279444365
-0.1378417710
0.0046200238
-0.0748130972
-0.0052903402
0.0384753318
-0.0185410068
-0.0122422542
-0.0253414461
-0.0187650825
0.0386518130
0.0523150682
-0.0659664377
0.0413335685
-0.0420551899
-0.0325826012
-0.0734786191
-0.0237523364
-0.0670109768
0.0105181085
0.0102282819
-0.0371763833
-0.0434572472
0.0697836731
0.0815599089
0.0019056379
-0.0562917352
-0.0534778352
-0.0334016747
-0.0403445299
0.0812482614
0.0068573651
-0.0348394853
-0.0141971770
0.0189702927
-0.0104013417
-0.0462411095
-0.0615023465
0.0053868292
-0.0097034801
0.0048466435
-0.0126033400
0.0375468991
-0.0041444171
-0.0042155627
0.0715216950
0.0003373462
0.0249992066
0.0798121927
0.0088091699
0.0433900284
-0.0158973720
0.0010301807
-0.0157627015
-0.0404000131
0.0321736299
0.0199979054
0.0209635532
0.0213406814
-0.0239729617
0.0542983484
-0.0308119480
0.0333551700
0.0651008090
0.0277834542
0.0635399305
-0.0346465351
-0.0300768016
-0.1162175704
-0.1372300185
0.0626562703
0.1386519468
-0.0017513189
0.1035622110
-0.0179558878
-0.0857888053
-0.1005146116
0.0247924588
-0.0533839719
-0.0014962100
0.0539272889
-0.0146527090
-0.0102351331
-0.0146834501
-0.0415317959
0.0592145215
0.0446666295
-0.0050670945
0.0367326797
-0.0491173768
0.0463670320
-0.0755250896
0.0208795208
0.0717942746
0.0308564530
0.0798884476
-0.0693841573
-0.0680644822
0.0201299060
0.0231325880
0.0144410551
-0.0094036883
-0.0227276941
-0.0066236848
-0.0246098993
0.0573983829
-0.0121747588
0.0033728811
0.0058192796
0.0168075749
0.0293039702
-0.0320850869
-0.0234958058
-0.0308919298
-0.0491598581
0.0225751170
0.0364809578
0.0479216029
0.0198132446
0.0111280773
0.0548579031
-0.0180503237
0.0576141426
0.0518386827
0.0125204091
0.0714428906
0.0006499077
0.0295841912
-0.1629643156
-0.2036876731
0.0632826071
0.1789318469
0.0740197646
0.1218629240
0.0259797778
-0.0726137199
-0.0993147884
0.0898207080
-0.0104709163
-0.0106192339
0.1020150827
0.0238718515
0.0620130018
-0.0980158970
-0.1216094022
0.0382300935
0.1047195808
0.0454240713
0.0773729188
0.0221794288
-0.0385081814
-0.0586067171
0.0535948287
-0.0173990367
-0.0098715817
0.0592646765
0.0191425921
0.0436543427
-0.0835247681
-0.0875984021
0.0168235217
0.0913381944
0.0196544870
0.0560062114
0.0288013130
-0.0477205014
-0.0422694322
0.0373229178
-0.0145617449
-0.0127356315
0.0349199030
0.0349660390
0.0703158052
-0.0579750654
-0.0611296616
0.0128457647
0.0608514964
0.0130214055
0.0381850659
0.0150849130
-0.0210482754
-0.0336143360
0.0285527610
-0.0178451277
-0.0056715319
0.0299192876
0.0156857602
0.0448512033
-0.1244563802
-0.1473563291
0.0355426618
0.1270916997
0.0536123378
0.0844202924
0.0326305434
-0.0507853885
-0.0668883288
0.0677959435
-0.0006763395
-0.0097021530
0.0767466892
0.0312638666
0.0643020488
-0.1144132834
-0.1394327554
0.0292817146
0.1154628604
0.0530633492
0.0750148829
0.0302574289
-0.0423187814
-0.0545513840
0.0657717641
0.0064338708
-0.0097606043
0.0705579965
0.0305951087
0.0743808046
-0.0456711316
-0.0533465059
0.0095820803
0.0477731577
0.0223554243
0.0285436498
0.0143586385
-0.0111868704
-0.0288145355
0.0239475805
0.0146218682
0.0008075055
0.0326348528
0.0132826367
0.0457253108
-0.0579048037
-0.0645030676
0.0130243017
0.0572139936
0.0097282385
0.0388757257
0.0196831600
-0.0248113476
-0.0317070861
0.0252805458
-0.0036928506
-0.0056367642
0.0302252183
0.0183596392
0.0476023216
-0.0632639141
-0.0860785673
0.0239027848
0.0644201879
0.0343262195
0.0460950249
0.0114334660
-0.0117185248
-0.0431263495
0.0425745397
0.0176103815
-0.0002252594
0.0571814431
0.0078709674
0.0331738370
-0.0803491221
-0.0990864828
0.0285540991
0.0878373640
0.0282044473
0.0600814536
0.0120090428
-0.0413365527
-0.0572368758
0.0463154321
0.0304010090
-0.0033078169
0.0616250675
0.0139208111
0.0394864108
-0.0914302841
-0.0875922244
0.0118482175
0.1010118781
-0.0125972565
0.0606114477
0.0264887511
-0.0915164104
-0.0509645675
0.0136514421
-0.0142668203
-0.0159164807
0.0218520930
0.0386336970
0.0603952243
-0.0814056244
-0.0877206872
0.0179579343
0.0867953659
0.0280225765
0.0529353299
0.0313426771
-0.0400698653
-0.0430871519
0.0445794045
0.0487150445
-0.0107627158
0.0485631890
0.0325541338
0.0682145479
-0.0596928959
-0.0754625174
0.0089727145
0.0598701781
0.0335291241
0.0367464780
0.0280626800
-0.0135610214
-0.0259714809
0.0423154303
0.0219065537
-0.0075055480
0.0437693429
0.0259978021
0.0584273512
-0.0877469793
-0.1126376767
0.0173886069
0.0864471417
0.0774051518
0.0511490863
0.0522607951
-0.0069370901
-0.0235486011
0.0776019202
0.0267161750
-0.0131200330
0.0653891986
0.0478482832
0.0924094573
-0.0671581858
-0.0852692536
0.0066692487
0.0633233849
0.0693157176
0.0332183491
0.0409684211
0.0055463286
-0.0096221738
0.0705797402
0.0330097224
-0.0047415595
0.0620795235
0.0367088875
0.0865117009
-0.0461458290
-0.0665786814
0.0041720333
0.0335426850
0.0730883907
0.0202025620
0.0382677071
0.0348133036
0.0012528662
0.0719082951
0.0570701094
-0.0050574882
0.0609816677
0.0329933764
0.0794754637
-0.0173808990
-0.0358312587
-0.0112928817
-0.0007837078
0.0904552413
-0.0062481246
0.0494417097
0.0871283912
0.0289853851
0.0761155329
0.0976036279
-0.0013486934
0.0746713425
0.0365972795
0.0743131329
-0.0059734327
-0.0187655913
-0.0090911719
-0.0046196059
0.0788039621
-0.0135321716
0.0393885939
0.0941765563
0.0311800086
0.0694653766
0.0878270562
0.0048504905
0.0646686151
0.0258501731
0.0620509140
-0.0064675569
-0.0143993853
-0.0128235254
-0.0055632143
0.0417852841
-0.0069234571
0.0271427146
0.0566232367
0.0187815231
0.0425159142
0.0402385503
-0.0021043333
0.0319589362
0.0246577534
0.0517946902
-0.0213273586
-0.0340235842
-0.0108669249
0.0042912655
0.0663987789
-0.0039228495
0.0461942231
0.0548676694
0.0230249888
0.0539766808
0.0587420566
-0.0068452916
0.0415037651
0.0363875378
0.0712561425
-0.0295609393
-0.0376024019
-0.0120108790
0.0145625936
0.0536316306
0.0055396974
0.0361987299
0.0380597740
0.0150833312
0.0456650534
0.0478305909
-0.0068294894
0.0384046169
0.0308559180
0.0658317892
-0.0334908436
-0.0440540038
-0.0075239251
0.0218696019
0.0472023580
0.0087449999
0.0323090932
0.0270221946
0.0066798176
0.0460456121
0.0396031292
-0.0057437456
0.0358169328
0.0278622509
0.0616736444
-0.0382659656
-0.0535125527
-0.0003430151
0.0288993282
0.0479953281
0.0151603496
0.0260973361
0.0260495794
-0.0025295435
0.0444768038
0.0380925769
-0.0033160908
0.0437432243
0.0238278244
0.0614934132
-0.0388270161
-0.0516331459
0.0011733217
0.0327950628
0.0402911965
0.0201457058
0.0260880665
0.0177961542
-0.0029499800
0.0456049180
0.0285887609
-0.0040951451
0.0392306682
0.0209437573
0.0569946765
-0.0879820293
-0.1079134113
0.0138194475
0.0824907394
0.0513824393
0.0516346071
0.0400687790
-0.0279345291
-0.0282015796
0.0524824304
0.0091406729
-0.0151082545
0.0510854890
0.0400879064
0.0798398056
-0.1143196238
-0.1338938010
0.0194040023
0.1116076806
0.0600857908
0.0681123474
0.0549228407
-0.0479509346
-0.0359627723
0.0635820284
0.0050649305
-0.0223423682
0.0545393402
0.0588427584
0.0958288454
-0.0191634316
-0.0179740643
-0.0176267923
0.0078645509
0.0197750777
0.0009170614
0.0269124213
0.0197427400
0.0126324005
0.0165265948
0.0121582430
0.0030196173
0.0147827319
0.0249034613
0.0493269807
-0.0052892397
-0.0059329012
-0.0198737775
-0.0085337409
0.0388624978
-0.0113516638
0.0267473729
0.0354810603
0.0203626811
0.0194933162
0.0330111827
-0.0054053568
0.0140540424
0.0242322668
0.0538385503
-0.0256522818
-0.0289130692
-0.0126694208
0.0122504269
0.0400350563
0.0111746944
0.0295199182
0.0238091425
0.0119489627
0.0300341562
0.0397678199
-0.0065124989
0.0268014212
0.0260646983
0.0530450787
-0.0252136828
-0.0287204087
-0.0132776655
0.0093809376
0.0401434121
0.0054716484
0.0407931275
0.0351986366
0.0159257189
0.0380314075
0.0381868295
-0.0057306741
0.0296917687
0.0340185998
0.0627229623
-0.0099441953
-0.0135339025
-0.0167019864
-0.0060795207
0.0330705816
-0.0085906988
0.0335926252
0.0367396083
0.0230484944
0.0285000832
0.0269933338
-0.0086018372
0.0134711598
0.0344992621
0.0544039088
0.0083068364
0.0066731972
-0.0203555980
-0.0212691635
0.0259181984
-0.0171246113
0.0239480866
0.0515587440
0.0255621682
0.0217483904
0.0270295589
-0.0048819008
0.0099987756
0.0216880450
0.0376849516
-0.0173701175
-0.0259188915
-0.0091055300
0.0056749697
0.0390996759
0.0006405976
0.0245131618
0.0359003031
0.0085592910
0.0305530762
0.0390191443
-0.0052702423
0.0243773722
0.0188918042
0.0443004800
0.0021000314
-0.0126380834
-0.0095370253
-0.0139916626
0.0444836736
-0.0047309683
0.0186803007
0.0489810490
0.0112972810
0.0258487870
0.0399460565
-0.0026819474
0.0223201273
0.0124311382
0.0399000969
-0.0020427341
-0.0091082900
-0.0244339800
-0.0167325468
0.0513408339
-0.0147605359
0.0402745263
0.0575141946
0.0318486591
0.0340794752
0.0414449557
-0.0053922292
0.0248482769
0.0345652545
0.0603737184
-0.0080036736
-0.0118490879
-0.0276381331
-0.0145567772
0.0441795719
-0.0154819520
0.0384647370
0.0515454248
0.0308561980
0.0284067394
0.0295897029
-0.0015228506
0.0121984120
0.0397042856
0.0636505068
0.0126375386
0.0137612618
-0.0377000536
-0.0344458251
0.0447546722
-0.0313386586
0.0427111300
0.0656029000
0.0508106252
0.0230763135
0.0353505819
-0.0088736782
-0.0000334929
0.0511661939
0.0649206785
0.0000355343
-0.0008808433
-0.0279295620
-0.0164159580
0.0463039418
-0.0185553776
0.0414970716
0.0568137680
0.0419530503
0.0281364100
0.0437219569
-0.0108886634
0.0137552272
0.0412773285
0.0668115946
-0.0109007375
-0.0200424999
-0.0230253034
-0.0070522699
0.0468073439
-0.0116199994
0.0384762518
0.0531929347
0.0381858375
0.0408750269
0.0464431095
-0.0078719294
0.0299281932
0.0350676142
0.0662669833
0.0037449988
0.0028810444
-0.0237009652
-0.0232797816
0.0297194665
-0.0187041051
0.0342695269
0.0492863321
0.0318767343
0.0191729819
0.0245714739
-0.0066308074
0.0062657480
0.0291880714
0.0490424919
0.0140971596
0.0129267231
-0.0306065343
-0.0308310077
0.0326930522
-0.0261125610
0.0328649928
0.0606641200
0.0415191353
0.0138131324
0.0369584547
-0.0055413102
-0.0004694615
0.0260444795
0.0449642023
-0.0175359386
-0.0202302155
-0.0212589293
0.0049076745
0.0428022901
-0.0049302852
0.0374522499
0.0303281802
0.0218228112
0.0266721883
0.0215409205
-0.0091908064
0.0126300765
0.0320533847
0.0623927102
0.0210929213
0.0212312582
-0.0272110737
-0.0341083359
0.0461337009
-0.0276543415
0.0293248465
0.0560633314
0.0352222895
0.0110407318
0.0385147134
-0.0065510322
0.0005176055
0.0210752465
0.0432968879
0.0308632366
0.0371634506
-0.0321090389
-0.0473391482
0.0452650221
-0.0341431580
0.0308781586
0.0767378583
0.0468622927
0.0158720526
0.0564104805
-0.0035657755
0.0053040546
0.0225381316
0.0410854460
-0.0141546318
-0.0144229512
-0.0217228126
-0.0021712103
0.0476112262
-0.0091216940
0.0361752973
0.0417376037
0.0272257192
0.0300826758
0.0404428249
-0.0069034493
0.0166719264
0.0341053947
0.0607991160
-0.0255831575
-0.0261440844
-0.0184428998
0.0088241856
0.0408633209
0.0070393115
0.0416052645
0.0202847391
0.0190702683
0.0273588290
0.0253136359
-0.0108003620
0.0136390453
0.0356262226
0.0670721070
-0.0051225604
0.0002821841
-0.0252453868
-0.0081541260
0.0421256088
-0.0043981747
0.0337403843
0.0328927442
0.0304200794
0.0179633766
0.0313352750
-0.0110412948
-0.0006013978
0.0352589300
0.0638162707
-0.0275895361
-0.0290074065
-0.0186688839
0.0112525360
0.0462787235
0.0024484027
0.0436055954
0.0234931306
0.0098746772
0.0261099443
0.0164972949
-0.0098170141
0.0085387690
0.0354028183
0.0634340882
-0.0203967185
-0.0270905106
-0.0155114749
0.0069752177
0.0439248437
-0.0021007179
0.0352257058
0.0390087538
0.0230852530
0.0367495669
0.0326418678
-0.0041026137
0.0251379225
0.0335878234
0.0574676075
-0.0243553292
-0.0293022037
-0.0193131606
0.0103365490
0.0459649958
-0.0024091959
0.0408445242
0.0324372912
0.0187795232
0.0352252937
0.0368913807
-0.0095868851
0.0281340492
0.0370302363
0.0744225918
0.0111555326
0.0109169309
-0.0259467008
-0.0239952377
0.0382019003
-0.0206123413
0.0295445634
0.0570090372
0.0316271182
0.0221890504
0.0468247780
-0.0051483026
0.0130528030
0.0257590517
0.0418575968
-0.0117899856
-0.0155952400
-0.0293084866
-0.0061563294
0.0471217291
-0.0134676752
0.0449565911
0.0465171479
0.0334392178
0.0337686700
0.0355316800
-0.0083429157
0.0155179371
0.0492196033
0.0721725124
-0.0172068441
-0.0211519266
-0.0180352382
0.0011207277
0.0375207110
-0.0016709074
0.0332911183
0.0410497585
0.0197604823
0.0299287665
0.0296547880
-0.0091299874
0.0156944914
0.0320502572
0.0570006634
-0.0252946427
-0.0305556788
-0.0205704932
0.0069775991
0.0343908714
0.0021829450
0.0356234821
0.0231876734
0.0138590150
0.0195869401
0.0123111455
-0.0145640520
0.0036534356
0.0374824814
0.0575441765
-0.0090213081
-0.0039541821
-0.0371278190
-0.0133195599
0.0437422169
-0.0119410403
0.0450265757
0.0373429676
0.0370783120
0.0201287435
0.0312825522
-0.0147277819
-0.0094598886
0.0469430329
0.0706689743
-0.0271576379
-0.0309638588
-0.0214146215
0.0059837608
0.0478808037
-0.0024849732
0.0416866933
0.0250823226
0.0185152291
0.0322338182
0.0235821633
-0.0123359998
0.0120328512
0.0394861556
0.0690748967
-0.0265337076
-0.0366522092
-0.0140906084
0.0100552328
0.0424085463
0.0022929539
0.0332408888
0.0302583438
0.0119010895
0.0306161271
0.0229027394
-0.0100238233
0.0162082446
0.0324621259
0.0570745799
-0.0307463212
-0.0371666099
-0.0185393606
0.0140772502
0.0412853530
0.0030879440
0.0362508571
0.0186461760
0.0167573117
0.0265284206
0.0098478930
-0.0072068832
0.0098588610
0.0377817264
0.0668566571
-0.0561618947
-0.0718986364
-0.0024622559
0.0429362042
0.0492825984
0.0304653829
0.0305766384
-0.0000556310
-0.0127204520
0.0326665456
0.0214408625
-0.0156053371
0.0290884973
0.0310664294
0.0621474982
-0.0708901445
-0.0813618162
-0.0051140824
0.0518523607
0.0525208746
0.0410209688
0.0374190938
-0.0138433664
-0.0124774408
0.0292524403
0.0095112813
-0.0216689058
0.0128965925
0.0401920817
0.0680024193
-0.0317562319
-0.0368174664
-0.0124406888
0.0177955889
0.0384524982
0.0147138228
0.0267157183
0.0138793358
0.0013797788
0.0236950149
0.0162715596
-0.0121243816
0.0129444943
0.0316693231
0.0521979970
-0.0731825693
-0.0811292533
-0.0008424383
0.0591044114
0.0378800385
0.0434087536
0.0324953295
-0.0269394444
-0.0193383963
0.0259553779
-0.0114467389
-0.0175744309
0.0115450017
0.0438277481
0.0714951156
-0.1101414760
-0.1170145737
0.0029615575
0.0958369142
0.0459246610
0.0624439326
0.0460686386
-0.0547586965
-0.0309498603
0.0365456775
-0.0187406086
-0.0259922164
0.0177097123
0.0553799606
0.0949682534
-0.0784360851
-0.0848627412
-0.0067036760
0.0637667278
0.0503887792
0.0411570266
0.0485682235
-0.0289932672
-0.0084358354
0.0337544337
0.0066914523
-0.0243430016
0.0147350820
0.0528338813
0.0947131565
-0.0882600568
-0.0971781569
0.0028363408
0.0712389852
0.0586720779
0.0384828227
0.0539519056
-0.0298157960
-0.0075025555
0.0547427708
0.0280621990
-0.0201467831
0.0379226089
0.0553169439
0.1023605437
-0.1290052298
-0.1414879541
0.0198310965
0.1214228169
0.0382456565
0.0790423190
0.0446814158
-0.0848191349
-0.0533141998
0.0486174171
-0.0168276072
-0.0238773203
0.0332241900
0.0527306295
0.0945713884
-0.1040758766
-0.1130917097
0.0118742422
0.0964167382
0.0322391690
0.0660717675
0.0339883082
-0.0626771989
-0.0429411486
0.0400656371
-0.0101430557
-0.0218380115
0.0300390039
0.0412472949
0.0743063632
-0.1288875195
-0.1385306334
0.0156425770
0.1176462848
0.0480981012
0.0763209202
0.0472040709
-0.0734302522
-0.0443459858
0.0513536893
-0.0172562964
-0.0258685352
0.0362660066
0.0557525647
0.0972809717
-0.0943048538
-0.1001316414
-0.0010276605
0.0808426994
0.0444053970
0.0458732994
0.0454568991
-0.0440451664
-0.0183780679
0.0490387654
-0.0089750352
-0.0178873644
0.0343396797
0.0520370171
0.0877189219
-0.0171317324
-0.0194649450
-0.0189126206
0.0009950032
0.0301086377
-0.0011527976
0.0272841825
0.0327624902
0.0173266620
0.0197966170
0.0292620163
-0.0093929560
0.0090944996
0.0275274077
0.0464312936
-0.0587850598
-0.0697725581
-0.0049375421
0.0442898763
0.0448999584
0.0245561046
0.0371549030
0.0013181738
-0.0057603754
0.0405789538
0.0131606840
-0.0132425462
0.0285051134
0.0389952065
0.0684840115
-0.0498501693
-0.0519103050
-0.0243517204
0.0270478745
0.0345276294
0.0158130195
0.0452981804
-0.0026756174
0.0075592864
0.0111036754
-0.0059364429
-0.0243657058
-0.0138924553
0.0586101376
0.0764759134
-0.0866041856
-0.0885277640
-0.0270479285
0.0587646063
0.0347552472
0.0378129786
0.0613485213
-0.0443463353
-0.0053087195
0.0102972426
-0.0348510197
-0.0408084283
-0.0345597477
0.0775027418
0.0948856549
-0.0922632297
-0.0970981107
-0.0108161207
0.0720767176
0.0422951659
0.0458295319
0.0528264868
-0.0417761432
-0.0138528770
0.0322207801
-0.0172753323
-0.0220948814
-0.0029008872
0.0682257489
0.0945744905
-0.0348118881
-0.0406203233
-0.0091997681
0.0133279131
0.0381394008
0.0046290373
0.0430453448
0.0143304825
0.0152618215
0.0193597807
0.0087800620
-0.0172758659
-0.0020804054
0.0461904863
0.0704418814
-0.0346007751
-0.0491586415
-0.0093242410
0.0215565416
0.0445396785
0.0113739218
0.0350435989
0.0200050375
0.0054605732
0.0375441203
0.0226540791
-0.0053872824
0.0240242823
0.0381798672
0.0602361020
-0.0275209811
-0.0391664473
-0.0080258172
0.0105580449
0.0442805010
0.0064575463
0.0285250721
0.0358201156
0.0060464061
0.0390074716
0.0385253907
-0.0072856079
0.0264193344
0.0281493746
0.0456814326
-0.0488673688
-0.0552085824
-0.0074322182
0.0317137609
0.0339666821
0.0197275744
0.0358997469
0.0034209364
-0.0029168462
0.0231543138
0.0018512172
-0.0156691553
0.0085374149
0.0396891652
0.0557953380
-0.0073125751
-0.0127267246
-0.0114618215
-0.0068281647
0.0225123406
0.0004513410
0.0150962868
0.0418819660
0.0136619433
0.0138678932
0.0273877883
0.0011001100
0.0077815755
0.0135878133
0.0196576713
-0.0499644795
-0.0633244632
0.0010557771
0.0400184507
0.0467930307
0.0203072397
0.0286930215
0.0080245001
-0.0043484907
0.0507042630
0.0333429337
0.0000909293
0.0468563480
0.0250651802
0.0619503350
-0.0760373154
-0.0868174807
0.0059649814
0.0648998528
0.0427804831
0.0390557247
0.0339525994
-0.0243283810
-0.0223924742
0.0430628762
0.0068255160
-0.0124011255
0.0364646991
0.0367769424
0.0770991500
-0.0823461688
-0.0844391380
-0.0128521941
0.0649660311
0.0454288646
0.0325629173
0.0540151410
-0.0277990198
-0.0040078910
0.0437752774
0.0003607704
-0.0184042979
0.0206459345
0.0662576346
0.1039050266
-0.1501133812
-0.1593049991
0.0148601502
0.1474352745
0.0422143461
0.0883464541
0.0541413235
-0.1102432720
-0.0591372883
0.0461826407
-0.0667192670
-0.0272049126
0.0215620059
0.0670873569
0.1071214438
-0.1292782952
-0.1335289005
0.0235067142
0.1342849623
0.0202442235
0.0858783778
0.0293761372
-0.1078504262
-0.0689265472
0.0282813385
-0.0766730743
-0.0208768575
0.0223701458
0.0425539611
0.0758687234
-0.0642848921
-0.0712871973
0.0053118197
0.0620834467
0.0254629450
0.0352393414
0.0370810617
-0.0346793621
-0.0190740903
0.0311934779
-0.0056325934
-0.0131591686
0.0170477607
0.0444051959
0.0721038583
-0.0798924053
-0.0851899333
0.0061136522
0.0735500213
0.0304181013
0.0430848866
0.0359997667
-0.0397526088
-0.0279501030
0.0345000287
-0.0070869742
-0.0179284656
0.0203878093
0.0440044817
0.0647229290
-0.0410315520
-0.0393289483
-0.0058174404
0.0329371085
0.0285278616
0.0181400425
0.0256222499
-0.0000394916
-0.0029435760
0.0259930778
-0.0067908035
-0.0069415196
0.0151239382
0.0280164312
0.0556254208
-0.1058230164
-0.1111036358
0.0052914624
0.0985955617
0.0412557937
0.0551546481
0.0456999367
-0.0631686184
-0.0289576681
0.0462671490
-0.0261281925
-0.0183424892
0.0319604492
0.0500521638
0.0866065762
-0.1163443958
-0.1243730775
0.0053377570
0.1173028039
0.0430137482
0.0626562782
0.0493839964
-0.0814524720
-0.0329887980
0.0540006403
-0.0271197409
-0.0159616476
0.0376157891
0.0574062045
0.1005586621
0.0238540383
0.0367689219
-0.0383327873
-0.0358533669
0.0173719599
-0.0406315201
0.0300907662
0.0512424522
0.0465891263
0.0073484285
0.0214977078
-0.0024173874
-0.0108637489
0.0297987969
0.0492996667
-0.0290692616
-0.0214407515
-0.0197204030
0.0182611779
0.0295747471
0.0043036935
0.0360989215
0.0058307624
0.0232734156
0.0211665765
0.0055960524
-0.0095150070
0.0038538286
0.0427296522
0.0714999829
-0.0592943897
-0.0661247481
-0.0099990895
0.0539011019
0.0361483357
0.0273728892
0.0442786330
-0.0209977074
-0.0061146844
0.0340776391
-0.0022036790
-0.0161414163
0.0159468184
0.0464763959
0.0758974882
-0.1412666354
-0.1419820788
0.0118786354
0.1436150000
0.0314410013
0.0829296155
0.0509534699
-0.1069593097
-0.0509403178
0.0483157180
-0.0577360270
-0.0226925057
0.0307217037
0.0660584252
0.0925767676
-0.2080741913
-0.2190584173
0.0356460030
0.2165519118
0.0377050564
0.1304174175
0.0598571412
-0.1736379251
-0.0932129303
0.0630574427
-0.0946117863
-0.0330166171
0.0481591997
0.0784495333
0.1186516255
-0.0832339967
-0.0890067432
0.0014329032
0.0761372689
0.0394966270
0.0403690356
0.0402008927
-0.0364916576
-0.0184731175
0.0487780540
-0.0119191520
-0.0149076855
0.0323792984
0.0455839852
0.0804677713
-0.0150729204
-0.0194806278
-0.0205726851
0.0071504840
0.0316000345
-0.0040060501
0.0343498273
0.0266037998
0.0194538025
0.0281190217
0.0180426415
0.0043882601
0.0236824428
0.0344603411
0.0664708182
-0.0635065240
-0.0680354691
-0.0050958694
0.0524939015
0.0358557288
0.0286870060
0.0369546084
-0.0121049858
-0.0111682959
0.0385647689
0.0005340085
-0.0089467814
0.0280936724
0.0380109547
0.0716493460
-0.0879932436
-0.0914464819
-0.0011340145
0.0788409877
0.0410058733
0.0442221806
0.0453972588
-0.0371654791
-0.0202505583
0.0553095243
0.0006560335
-0.0156436526
0.0315999726
0.0521190783
0.0842979912
-0.1308105439
-0.1378980501
0.0073436377
0.1254558742
0.0507537593
0.0746963290
0.0551689997
-0.0875702112
-0.0400177548
0.0575465486
-0.0224363287
-0.0249548496
0.0364984523
0.0654793418
0.1046971564
-0.1556663613
-0.1585161255
0.0102580616
0.1516577768
0.0577885336
0.0921255050
0.0631105860
-0.1111153582
-0.0480626603
0.0615247101
-0.0375319437
-0.0258909738
0.0398082992
0.0731541299
0.1170756087
-0.1450190635
-0.1481038359
0.0071152136
0.1394983042
0.0532876354
0.0763880826
0.0694625555
-0.0907657827
-0.0356125271
0.0628369571
-0.0394218898
-0.0251967541
0.0429110300
0.0755660602
0.1169127815
-0.0588232052
-0.0591056352
-0.0151328616
0.0468644181
0.0422215184
0.0194459457
0.0473082885
-0.0084569435
0.0044638489
0.0444132435
0.0087842448
-0.0142775971
0.0290151417
0.0532567070
0.0871164312
-0.0357388417
-0.0174595545
-0.0242453490
0.0264875689
0.0126099112
0.0019212016
0.0420394871
-0.0098767722
0.0138599350
0.0186276193
-0.0122947347
-0.0064620668
-0.0016322231
0.0468104503
0.0638771201
-0.0711889978
-0.0619240112
-0.0104690483
0.0620362657
0.0280978898
0.0261312600
0.0434283535
-0.0303026755
-0.0054445996
0.0341046318
-0.0090087364
-0.0156405733
0.0182970887
0.0498899689
0.0771690915
-0.0859348582
-0.0807630768
-0.0022722807
0.0827431512
0.0293786072
0.0382668816
0.0481832305
-0.0459698200
-0.0142733606
0.0439975659
-0.0109075799
-0.0095048161
0.0258262490
0.0589469067
0.0873586463
-0.0964868285
-0.0948243851
-0.0011420861
0.0908369942
0.0323614719
0.0476705258
0.0491692913
-0.0516842788
-0.0237433536
0.0464188611
-0.0217594743
-0.0150591548
0.0344981850
0.0539978280
0.0818237449
-0.0726706084
-0.0663545729
-0.0005446896
0.0628057406
0.0358077765
0.0255073656
0.0536174925
-0.0279424738
0.0011545285
0.0401354635
-0.0033271868
-0.0152484591
0.0198731489
0.0577053201
0.0820602042
-0.1498256630
-0.1379164160
0.0007779844
0.1481151531
0.0193297106
0.0780551172
0.0642536448
-0.1204297859
-0.0462063865
0.0453980692
-0.0782098679
-0.0287488117
0.0193416072
0.0830697104
0.1092336722
-0.0915358248
-0.0821749317
-0.0095082815
0.0838966940
0.0211832322
0.0399565459
0.0525207861
-0.0610095663
-0.0154289080
0.0321783449
-0.0485461414
-0.0237277443
0.0049578264
0.0648353652
0.1051525234
-0.0958467773
-0.0857584367
-0.0104125402
0.0863029742
0.0292886145
0.0386302210
0.0556619589
-0.0563686365
-0.0090129672
0.0354158526
-0.0419580319
-0.0218295638
0.0103953842
0.0665255777
0.0980484900
-0.0451572444
-0.0330679394
-0.0195608013
0.0353933770
0.0221049880
0.0068614778
0.0511369479
-0.0050859345
0.0139636505
0.0265638293
-0.0080120372
-0.0119619047
0.0089260975
0.0497661577
0.0871387324
-0.0638217591
-0.0585177719
-0.0156571022
0.0571341819
0.0464103415
0.0234724924
0.0483843085
-0.0156097522
0.0037983322
0.0404066667
0.0163129140
-0.0164247908
0.0261135717
0.0555761061
0.0903283751
-0.1281520961
-0.1330476419
0.0086175294
0.1275071963
0.0418419551
0.0744581559
0.0507848782
-0.0813746161
-0.0443503532
0.0515202707
-0.0301744471
-0.0249021883
0.0313279539
0.0651884901
0.0957589551
-0.0601060543
-0.0547042039
-0.0112817722
0.0475194052
0.0268899237
0.0249383057
0.0390278934
-0.0211835760
-0.0065201328
0.0319339931
-0.0045880045
-0.0165749704
0.0133093176
0.0442286005
0.0691761124
-0.0370942574
-0.0346775275
-0.0145915749
0.0188630263
0.0357554754
0.0056133045
0.0416865790
0.0136789407
0.0142219103
0.0321072226
0.0184072764
-0.0111915586
0.0170392493
0.0426265948
0.0692200451
-0.0384101395
-0.0389097898
-0.0071419655
0.0202371910
0.0405781915
0.0063344370
0.0452709002
0.0149276172
0.0178922904
0.0373705426
0.0145028901
-0.0120362625
0.0305084818
0.0462106379
0.0729574596
-0.0348474935
-0.0290479014
-0.0259426482
0.0153612762
0.0423899863
-0.0036282733
0.0487857336
0.0202700161
0.0282806166
0.0393793334
0.0054715578
-0.0113798382
0.0204259432
0.0504305430
0.0853241951
-0.0497736674
-0.0503668563
-0.0066554721
0.0449686668
0.0269531720
0.0182621222
0.0358295963
-0.0096002087
0.0013966644
0.0299676230
-0.0166069621
-0.0085117796
0.0186438471
0.0423329788
0.0725206012
-0.0915556502
-0.0931773327
0.0053919290
0.0940138590
0.0173575652
0.0529955830
0.0350976346
-0.0640298086
-0.0352955467
0.0308644099
-0.0470654674
-0.0172789578
0.0204162593
0.0465489709
0.0710049302
-0.0475422049
-0.0336237485
-0.0067115879
0.0465879828
-0.0111543997
0.0231035810
0.0220706020
-0.0367992199
-0.0163024950
0.0012041240
-0.0602096488
-0.0052731833
-0.0100809273
0.0321421420
0.0489527371
-0.0498620123
-0.0332737320
-0.0084088665
0.0584936912
-0.0200962119
0.0231249273
0.0234732972
-0.0414076075
-0.0133118296
0.0019320885
-0.0715374875
-0.0118525574
-0.0114316487
0.0330516777
0.0500976610
-0.0620291512
-0.0606368357
-0.0064022883
0.0524477532
0.0187401302
0.0355294440
0.0326412242
-0.0307778490
-0.0129268882
0.0260738692
-0.0200124349
-0.0130818330
0.0175963976
0.0369265075
0.0651191890
-0.0106230989
-0.0001320756
-0.0011575337
0.0085686835
-0.0183933906
0.0060867064
-0.0010296820
-0.0063631369
-0.0159567440
-0.0111947598
-0.0474500845
-0.0004036913
-0.0083138517
0.0000686378
0.0118827203
-0.0419035536
-0.0306672572
-0.0063243682
0.0378945145
-0.0008665573
0.0204014259
0.0233289280
-0.0268348763
-0.0127668493
0.0009785512
-0.0440398653
-0.0095596541
-0.0086271084
0.0279963421
0.0441293311
-0.0759799232
-0.0719666888
-0.0032171450
0.0667635547
0.0311380226
0.0361725584
0.0430296797
-0.0331017484
-0.0124555515
0.0348246608
-0.0205842084
-0.0168928768
0.0168832193
0.0581318889
0.0853791119
-0.0171540972
0.0080739256
-0.0277524930
0.0039144599
-0.0129254972
-0.0025988552
0.0313855234
-0.0304896301
0.0159983195
-0.0135782420
-0.0716706903
-0.0146170560
-0.0429883359
0.0478073875
0.0643639588
-0.0070480764
0.0088376099
-0.0273602216
-0.0052674746
-0.0062081373
-0.0038342349
0.0229674263
-0.0083503323
0.0129064243
-0.0145839953
-0.0487273594
-0.0131708620
-0.0315773763
0.0368081450
0.0489179378
-0.0425260707
-0.0447485153
-0.0103028661
0.0335034391
0.0276715823
0.0176355064
0.0244314213
-0.0204560003
-0.0119294791
0.0036147509
-0.0282500040
-0.0131098244
-0.0032886350
0.0288374228
0.0634224930
-0.1295753165
-0.1341479771
0.0117308449
0.1266411072
0.0340931737
0.0807969502
0.0424205668
-0.1111621162
-0.0587989349
0.0322120895
-0.0559407660
-0.0272363790
0.0189100085
0.0612242203
0.0940191210
-0.0524478176
-0.0551888163
0.0027975837
0.0520069207
0.0251957474
0.0303721560
0.0196358149
-0.0304723249
-0.0239418648
0.0228475797
-0.0097941553
-0.0092284766
0.0204769620
0.0222753752
0.0512868487
-0.0287430071
-0.0213780539
-0.0080896920
0.0221548822
0.0218089935
0.0127739830
0.0196176975
-0.0115880130
-0.0062496122
0.0150798835
-0.0002882818
-0.0081627039
0.0075218571
0.0193228351
0.0390783084
0.0123221910
0.0130629249
-0.0167482288
-0.0206324041
0.0363846203
-0.0219066658
0.0148053380
0.0501864164
0.0232277366
0.0178218216
0.0552656726
0.0008104114
0.0184766268
0.0109874306
0.0340558406
0.0006227246
0.0072785111
-0.0167711239
-0.0030998265
0.0383818879
-0.0106140458
0.0180860563
0.0125729219
0.0161167764
0.0086979224
0.0100182483
-0.0016819898
0.0026398412
0.0173544377
0.0491364145
0.0122821253
0.0352829201
-0.0294510757
-0.0200405882
0.0102958597
-0.0227124663
0.0218872763
0.0006032696
0.0314613066
-0.0062518425
-0.0308448496
-0.0082526866
-0.0207155985
0.0263938370
0.0564276719
0.0144297232
0.0322389873
-0.0310184914
-0.0226576429
0.0058706793
-0.0224584714
0.0242971398
0.0152977933
0.0265998650
-0.0083931734
-0.0210230827
-0.0084663489
-0.0261628005
0.0274650481
0.0415942046
-0.0149086219
-0.0095418102
-0.0146694798
0.0063926181
0.0082019724
0.0027196597
0.0196908936
0.0086743475
0.0078998006
0.0090190630
-0.0080991033
-0.0053909407
-0.0001754600
0.0225209654
0.0439394504
-0.0371222723
-0.0418395330
0.0096545316
0.0342039541
0.0113478388
0.0268681487
0.0101713435
-0.0096257252
-0.0266069587
0.0198652548
-0.0081923163
-0.0011496450
0.0312889161
0.0025258416
0.0351969243
-0.0657244834
-0.0903794434
0.0343577038
0.0687422128
0.0276392220
0.0608014535
-0.0042128306
-0.0164704628
-0.0584488123
0.0305317295
0.0022385241
0.0015605750
0.0547989853
-0.0115145681
0.0215657741
-0.0872244914
-0.1246425724
0.0528787951
0.1078550061
0.0250793903
0.0838032898
-0.0007590840
-0.0662316008
-0.0834899682
0.0313719017
-0.0236828800
0.0001903951
0.0571648336
-0.0077280588
0.0346348557
-0.0827792426
-0.1103450670
0.0385381793
0.0896945066
0.0380677069
0.0708038907
-0.0022422534
-0.0282047239
-0.0592065801
0.0398983070
0.0085034313
0.0013321289
0.0595894484
-0.0062312583
0.0346301380
-0.0439984457
-0.0661723298
0.0206475062
0.0492428446
0.0364277757
0.0300069434
-0.0001982430
-0.0051308211
-0.0361927504
0.0290689093
0.0223326185
0.0049390259
0.0411506365
-0.0075475654
0.0461090643
-0.0396893336
-0.0415682893
0.0097814357
0.0388297173
-0.0019898353
0.0267786223
0.0005359858
-0.0352755502
-0.0307406269
-0.0048635389
-0.0405709325
0.0007559779
0.0061934312
0.0075161762
0.0373603050
-0.0074664936
-0.0077042969
-0.0021244304
0.0051513566
0.0028287392
0.0041153602
0.0060395626
0.0125773418
-0.0081958774
0.0013425080
-0.0000736648
0.0013478541
0.0030703609
0.0049104768
0.0152955547
-0.0753972904
-0.0810708341
0.0074424950
0.0730218848
0.0140723646
0.0477112509
0.0203306368
-0.0564185329
-0.0377416647
0.0095116501
-0.0577121753
-0.0148628172
0.0006873943
0.0274356338
0.0548578721
-0.1621191021
-0.1836797679
0.0388328904
0.1706052314
0.0390181774
0.1099027829
0.0322127189
-0.1302805018
-0.0887653765
0.0458127620
-0.0700104433
-0.0236832526
0.0373818675
0.0452481557
0.0864072714
-0.0301055579
-0.0298805393
-0.0237648470
0.0143408407
0.0165431032
0.0020821059
0.0341049844
-0.0115240093
0.0077475680
-0.0116282933
-0.0528316156
-0.0159228785
-0.0374462841
0.0380118192
0.0654590678
0.0248405936
0.0234639428
-0.0212159968
-0.0336863990
0.0226007347
-0.0232279391
0.0028741433
0.0495700599
0.0191714908
-0.0215084707
0.0020327351
-0.0046325763
-0.0300820513
0.0054845333
0.0102131241
-0.0739192846
-0.0923754933
0.0208952451
0.0747499949
0.0488781619
0.0550368221
0.0124066678
-0.0307112840
-0.0435099982
0.0344064224
0.0064995014
-0.0074959704
0.0407723598
0.0095299303
0.0347868604
-0.2439974897
-0.2745711253
0.0637074258
0.2554921781
0.0580856538
0.1703505053
0.0412476286
-0.1907089216
-0.1337977917
0.0784238397
-0.0804364690
-0.0269998455
0.0764622940
0.0570253110
0.1085406662
-0.1431176252
-0.1517703265
0.0157850090
0.1461734407
0.0395886220
0.0854040051
0.0417085141
-0.1107160865
-0.0589744097
0.0378994216
-0.0648041564
-0.0259148450
0.0263503314
0.0548464637
0.0992060246
-0.0995578449
-0.1265409425
0.0001452763
0.0975122038
0.0592765715
0.0544161341
0.0445562381
-0.0600778425
-0.0316675814
0.0332407388
-0.0250939443
-0.0219570328
0.0119548788
0.0531312795
0.0951625661
-0.0442973385
-0.0643210978
-0.0039079098
0.0350045841
0.0504978096
0.0195486839
0.0285827482
0.0143641096
-0.0036807332
0.0286617978
0.0315876171
-0.0079486147
0.0242846341
0.0241004277
0.0570376815
-0.0161902858
-0.0274337287
0.0056641270
0.0239185785
0.0175806719
0.0158646188
0.0028489642
0.0076923740
-0.0188925440
0.0073235934
0.0072310662
-0.0015567752
0.0145021603
0.0023130725
0.0291321627
-0.1115332271
-0.1360637804
0.0401726877
0.1225587952
0.0297752443
0.0861989125
0.0116280067
-0.0650566807
-0.0729922431
0.0384848387
-0.0222114406
-0.0093832187
0.0540686669
0.0115685456
0.0503185672
-0.0603635219
-0.0794693636
0.0187353434
0.0710745292
0.0335544269
0.0430811239
0.0081349183
-0.0140468437
-0.0391866887
0.0285452405
0.0086619129
-0.0052629303
0.0371632264
0.0136457493
0.0352887805
-0.0130111277
-0.0217453642
0.0057929219
0.0102044862
0.0413540504
0.0155341258
-0.0002721916
0.0106965093
-0.0231592066
0.0111638480
0.0354221172
-0.0042865907
0.0177037432
-0.0010060974
0.0180569014
0.0422822114
0.0421711160
-0.0046080676
-0.0442943081
0.0375335480
-0.0193975855
-0.0151235414
0.0530742283
0.0016324231
-0.0121370631
0.0453786648
0.0021815281
-0.0029488241
-0.0220270924
-0.0020918431
-0.0082977639
-0.0071334808
-0.0126166007
-0.0005274718
0.0448709285
-0.0014183301
0.0169953904
0.0160229410
0.0080756083
0.0099838185
0.0305318798
-0.0038832926
0.0033016235
0.0150017629
0.0446963047
-0.0110006826
-0.0122869627
-0.0293148230
-0.0014319183
0.0422145051
-0.0068037940
0.0333131188
0.0214058744
0.0220024306
0.0048071068
0.0131742002
-0.0167194805
-0.0189972152
0.0418966945
0.0575903547
0.0233157986
0.0311441337
-0.0560828902
-0.0447324524
0.0271141251
-0.0428064229
0.0388241092
0.0492386214
0.0518547835
-0.0254996751
-0.0096078737
-0.0195265713
-0.0625014225
0.0491639326
0.0583733013
-0.0389881294
-0.0479328127
-0.0081293449
0.0241080108
0.0442785394
0.0125492749
0.0319256361
0.0134522283
0.0076690250
0.0261441491
0.0156123108
-0.0120995019
0.0114371473
0.0332381545
0.0655876271
-0.0329632474
-0.0413046019
-0.0171419329
0.0195101551
0.0464279360
0.0067432903
0.0325517303
0.0194320353
0.0155996491
0.0255983373
0.0189035001
-0.0123581315
0.0125416300
0.0355463961
0.0665102628
-0.0085972898
-0.0080859485
-0.0280436623
-0.0099512157
0.0420258301
-0.0158650753
0.0342941765
0.0434510997
0.0283093729
0.0171665790
0.0226695729
-0.0087943769
-0.0016030866
0.0329454341
0.0564408733
-0.0362943824
-0.0394429088
-0.0170475690
0.0198845621
0.0435360378
0.0041360161
0.0364076188
0.0204580889
0.0108109086
0.0312422860
0.0226730489
-0.0098459525
0.0212952218
0.0376059300
0.0669644986
-0.0398835469
-0.0463215890
-0.0142795300
0.0210858939
0.0466458516
0.0133085250
0.0371355542
0.0158902007
0.0106592294
0.0378664770
0.0249124400
-0.0098928549
0.0269977265
0.0350186150
0.0715807702
-0.0425617809
-0.0482569864
-0.0157977936
0.0251866940
0.0430935693
0.0098285358
0.0433588139
0.0112374554
0.0122941022
0.0393288021
0.0251042295
-0.0084650036
0.0277937063
0.0397658674
0.0777085508
-0.0340528554
-0.0356554048
-0.0178785893
0.0132989477
0.0491839470
0.0019134845
0.0383347119
0.0253001659
0.0179496708
0.0406147645
0.0356182464
-0.0083115175
0.0249321540
0.0377288784
0.0701106029
-0.0244465528
-0.0273200855
-0.0198580117
0.0063877918
0.0458787255
-0.0033860111
0.0400778898
0.0352159559
0.0219134954
0.0381977614
0.0363012592
-0.0079204247
0.0286855827
0.0326848531
0.0671825504
-0.0372881970
-0.0470393614
-0.0148310215
0.0234533710
0.0496164925
0.0057827173
0.0383826388
0.0225468658
0.0127609190
0.0431446262
0.0311160684
-0.0058057437
0.0325624011
0.0353968428
0.0713212696
-0.0395302861
-0.0404493616
-0.0139403319
0.0201673060
0.0469255287
0.0118564716
0.0384814320
0.0245658674
0.0142483010
0.0436028963
0.0332192269
-0.0070778480
0.0338304614
0.0351752051
0.0697016177
-0.0319968265
-0.0362415464
-0.0159235732
0.0140081358
0.0516350022
0.0003755688
0.0447846500
0.0327480453
0.0184189392
0.0441414225
0.0400363043
-0.0038208587
0.0366194360
0.0336044974
0.0701643519
-0.0282378644
-0.0346964773
-0.0179255274
0.0098357246
