300,2,20,8,0.001000,0.001000,50,20,256,Hamming
0.0004217141
-0.0000853646
0.0004702955
0.0001901479
0.0000778980
0.0002682541
0.0001484218
0.0005298178
0.0012554321
0.0001374897
0.0004940773
0.0004336444
0.0005735961
0.0008103618
0.0001011131
0.0000767009
-0.0002676605
0.0000183376
0.0003791809
0.0010404777
-0.0005233806
-0.0000045428
-0.0001886403
-0.0001289125
-0.0001641192
0.0002463101
-0.0002621495
-0.0001686855
-0.0002365574
0.0002657034
-0.0004337145
-0.0000713853
-0.0000812296
-0.0000657611
0.0001569218
-0.0001112542
0.0002774135
0.0001890571
-0.0004362920
-0.0000252444
-0.0004616586
-0.0000569166
-0.0000856559
-0.0002048156
0.0004798790
0.0004769443
-0.0000874555
-0.0003255598
-0.0001762362
0.0003670567
-0.0003407110
-0.0002888503
-0.0001978400
-0.0002086582
0.0000276934
-0.0000412133
0.0001281432
0.0000369703
-0.0001999267
-0.0001942917
-0.0003663684
-0.0000267571
-0.0004751675
-0.0001708218
-0.0002347681
0.0002472986
-0.0002555117
-0.0001553791
-0.0003741051
0.0002455928
-0.0004348798
-0.0002880585
0.0000457090
-0.0002812484
-0.0002217572
-0.0000332091
0.0005198358
0.0001097146
-0.0003414155
-0.0002351573
0.0025733782
-0.0033050296
0.0033258851
-0.0012882463
0.0024100610
-0.0049978055
0.0036321865
0.0029527221
0.0022185630
-0.0021524123
0.0041948106
0.0008164284
-0.0000925391
0.0026812847
0.0036968559
0.0020968968
-0.0036181206
-0.0043193422
0.0070661278
0.0039429886
0.0091724642
-0.0009031987
0.0190563651
0.0021326916
0.0073758812
-0.0140138757
0.0106364991
0.0153010954
0.0103486030
0.0011653045
0.0148584440
0.0115571749
-0.0001554841
0.0005745529
0.0118407187
-0.0006460932
-0.0133772065
-0.0090738377
0.0160953926
0.0117958595
0.0028686518
0.0084625310
0.0166346752
0.0082708206
0.0032585684
-0.0033582939
0.0025343121
0.0152713782
0.0075798565
0.0099707762
0.0069306653
0.0155117746
-0.0010369767
-0.0080039130
0.0053470788
-0.0071283166
-0.0047984487
0.0017916921
0.0016671146
0.0059791635
-0.0005073900
0.0060105304
0.0129577468
0.0042297367
-0.0064510089
0.0044987544
-0.0080422885
0.0071474658
0.0026270935
0.0082272140
-0.0003799902
0.0051439348
0.0006471679
-0.0070279817
-0.0023870880
-0.0039162017
0.0001488791
0.0067001463
-0.0080029673
-0.0059947952
0.0063932084
0.0034802317
0.0164583540
0.0010464759
-0.0031141360
-0.0049733289
-0.0022463706
0.0111302326
0.0063643772
0.0007748668
0.0068959158
0.0051109456
0.0024419670
-0.0048940789
0.0021980079
-0.0019218204
-0.0089619952
0.0003636835
0.0043448656
-0.0013037924
0.0143710221
-0.0132925536
0.0173010103
-0.0082739926
0.0068358794
-0.0216845679
0.0127051705
0.0106224365
0.0100931308
-0.0117992826
0.0182892543
0.0005273551
0.0030557548
0.0105248917
0.0133721436
0.0094209440
-0.0194664906
-0.0174275233
0.0275185921
0.0117981667
0.0122919358
-0.0129231345
0.0162862059
-0.0030477625
0.0161257731
-0.0240416004
0.0224371795
0.0163049909
0.0124760948
-0.0048460177
0.0217168702
0.0103675871
-0.0012184045
0.0096320247
0.0196473441
0.0077385726
-0.0166131596
-0.0203302050
0.0313954363
0.0234854542
-0.0068743662
-0.0016981914
-0.0090537416
0.0011000205
0.0069583434
0.0003339604
0.0054606769
-0.0016009884
-0.0026321025
0.0025759317
-0.0010674713
0.0036094523
-0.0030004964
0.0014636892
0.0023706148
0.0017346243
0.0073253353
-0.0007616246
0.0012232361
0.0060964430
-0.0101230264
-0.0060720156
-0.0088835572
0.0001054621
0.0016010608
0.0049128420
-0.0004679650
-0.0038417816
-0.0054454925
0.0060141259
-0.0040440235
0.0003629477
-0.0029373385
0.0052247495
-0.0009907132
0.0035763578
0.0103486917
0.0018847889
-0.0044428663
-0.0006458745
0.0031944612
-0.0299426798
-0.0031676629
-0.0133814812
0.0063159480
-0.0130895865
0.0118633396
-0.0055637066
-0.0005003775
-0.0109310580
0.0090279655
-0.0112504959
-0.0022228314
0.0258032750
0.0093737344
0.0201795156
-0.0044247067
-0.0185822137
0.0202001352
0.0085171013
0.0043571101
-0.0143369333
-0.0059956317
-0.0095958172
0.0044326794
-0.0040469512
0.0053424451
-0.0093234421
-0.0043238147
-0.0079284282
0.0001243975
-0.0099524501
0.0007668044
0.0120489885
0.0007092007
0.0118803027
-0.0036156644
-0.0080896796
0.0086008007
0.0050257116
0.0073151548
-0.0226008601
-0.0071143677
-0.0131457464
0.0082456763
-0.0120735023
0.0118424251
-0.0046918892
-0.0014777735
-0.0138085454
0.0072716709
-0.0124531936
-0.0012076921
0.0201919790
0.0078308880
0.0160260865
-0.0063538198
-0.0165129018
0.0198377087
0.0103532931
-0.0084486532
0.0051522950
-0.0116691811
0.0021622110
0.0025813063
0.0072091484
-0.0004256561
-0.0073983657
-0.0061167117
0.0038012782
-0.0075245934
-0.0010402595
-0.0031129438
-0.0028753948
-0.0037519874
-0.0032037576
0.0102552169
0.0057118333
-0.0078852463
-0.0011204460
-0.0027974100
0.0079669044
-0.0053734600
0.0002848592
-0.0103737173
0.0120227154
-0.0147073049
-0.0071554976
-0.0052837944
-0.0022652650
-0.0109728037
-0.0070647470
0.0039707593
-0.0103156010
-0.0133674790
-0.0035468433
0.0039796070
0.0119604887
-0.0159066202
-0.0156500955
0.0132862997
0.0115841472
0.0296370841
-0.0009307803
-0.0257133214
0.0017530885
-0.0243685546
0.0108318192
0.0077584279
-0.0062065021
0.0035511832
-0.0066502953
0.0111752556
-0.0159892293
-0.0091914326
-0.0060247844
-0.0173382904
0.0117350918
-0.0075001846
-0.0239375683
0.0138217327
-0.0177388195
0.0092327914
-0.0230816014
-0.0197085990
-0.0068315205
-0.0137244154
-0.0116371123
-0.0015035418
-0.0301077193
0.0048643014
-0.0350281678
0.0100653298
0.0111229074
-0.0051100445
0.0145444240
-0.0143329099
-0.0067773180
0.0117996894
-0.0178271069
0.0052913102
-0.0251337325
-0.0133892302
-0.0263693603
-0.0090468750
-0.0040503832
-0.0037425970
-0.0258540720
-0.0099125785
-0.0304553540
-0.0040135262
-0.0387315664
0.0052816401
0.0206069510
-0.0053514560
0.0200708095
-0.0037123009
-0.0113092529
0.0115995260
-0.0102554585
0.0041403842
0.0139265517
0.0085602419
-0.0015939663
-0.0186825373
0.0099235515
-0.0197282038
-0.0048032171
-0.0020313068
-0.0095193210
-0.0079832064
-0.0120701429
0.0082839013
-0.0146941789
-0.0143552163
-0.0076828666
-0.0052622150
0.0139848667
-0.0156352479
-0.0218994246
0.0089033107
0.0206499206
0.0192485028
0.0031608025
-0.0209543934
0.0069154966
-0.0218154402
0.0058628622
0.0036302790
-0.0047322025
-0.0026457957
-0.0013885446
0.0095519357
-0.0220595129
-0.0119004238
-0.0130168111
-0.0105828040
0.0157505258
-0.0139236338
-0.0216644999
0.0104787243
0.0064529453
0.0163634357
-0.0075358609
-0.0191880689
-0.0004021966
-0.0166974191
0.0010608977
0.0024880536
-0.0124598948
0.0013191271
-0.0111404929
0.0092198536
-0.0096534600
-0.0081540117
-0.0023290431
-0.0137333095
0.0054781310
-0.0004168386
-0.0177522783
0.0044352185
-0.0077175324
-0.0001870823
-0.0102261659
-0.0022709889
-0.0040216283
0.0004736932
-0.0062863870
-0.0021476862
-0.0107551953
0.0004394689
-0.0116206373
0.0020235659
0.0065044080
-0.0007573891
0.0061307831
-0.0050519359
-0.0056620049
0.0075499612
-0.0011110785
0.0037944619
0.0054314727
0.0056042371
-0.0033420478
-0.0117025700
0.0031896726
-0.0116469402
-0.0013358590
-0.0004899430
-0.0072720778
-0.0027938657
-0.0074380961
0.0054793766
-0.0068341777
-0.0071365691
-0.0024234746
-0.0049841547
0.0063648223
-0.0053097630
-0.0125812444
0.0020552347
0.0016729552
0.0038095765
-0.0011657989
-0.0054521079
0.0005130143
-0.0052325548
0.0003641560
0.0005864794
-0.0034210764
0.0001261291
-0.0027716829
0.0026082461
-0.0029650128
-0.0028413058
-0.0008324575
-0.0029207139
0.0021879675
-0.0018355920
-0.0053590718
-0.0001321836
0.0004365917
0.0002516754
0.0005602995
0.0008798374
-0.0005693614
0.0008351267
0.0010907477
0.0008835666
0.0011973439
0.0006759383
0.0012496390
-0.0006159305
-0.0001863707
0.0009890619
-0.0004082417
-0.0002937992
-0.0003340829
0.0003088615
0.0012846729
0.0005676390
0.0003722745
0.0017183261
0.0009722251
0.0016846575
-0.0015011643
0.0017005241
0.0020293411
0.0011910064
0.0010524455
0.0014457020
0.0024924038
-0.0006374259
-0.0003309821
0.0017248429
-0.0004450514
-0.0005529106
-0.0009574607
0.0016963573
0.0023617122
-0.0002923021
-0.0000784415
-0.0005069033
-0.0001742079
0.0001813661
0.0002686070
0.0000521181
-0.0004352188
-0.0003747523
-0.0001138735
-0.0002950106
-0.0001296406
-0.0001239059
-0.0002432120
0.0000007712
-0.0001135300
0.0003363014
0.0001007714
-0.0004767644
0.0002723778
-0.0001676419
-0.0000267812
-0.0005042008
-0.0001818670
-0.0001657817
0.0001006484
-0.0002325357
-0.0004150434
-0.0001748620
0.0003793584
-0.0004614790
-0.0000624983
0.0002490567
-0.0002142012
-0.0002412826
0.0002728731
0.0001795538
0.0001134529
-0.0004739928
-0.0000781696
0.0012303825
0.0040589355
0.0047001300
-0.0006462489
-0.0069020499
0.0015871380
-0.0067402271
-0.0001688179
0.0003132925
-0.0021367989
-0.0009811735
-0.0022509987
0.0024568039
-0.0046760779
-0.0036806702
-0.0023870904
-0.0023069310
0.0038907828
-0.0031569075
-0.0068923174
0.0012177601
0.0040693902
0.0044137227
-0.0006490051
-0.0062316410
0.0015859874
-0.0068130167
-0.0001146129
0.0002154729
-0.0021613632
-0.0011014288
-0.0021299033
0.0024336117
-0.0047711698
-0.0035398405
-0.0021764646
-0.0023336691
0.0041509906
-0.0033549199
-0.0067500689
-0.0011241828
0.0082266449
0.0035706373
0.0039541014
-0.0028559839
0.0039203466
-0.0050948825
0.0034299135
0.0008687133
0.0043933827
-0.0021172708
0.0036031531
0.0007715360
-0.0073486242
-0.0032324111
-0.0047821765
0.0010754236
0.0060403001
-0.0067991019
-0.0038128654
0.0005198970
0.0030939584
0.0014644523
-0.0009180854
-0.0051326811
0.0030117687
-0.0054358045
-0.0014200338
-0.0010523947
-0.0017627155
-0.0027320406
-0.0034070697
0.0020187570
-0.0038771933
-0.0045157376
-0.0012372266
-0.0004856203
0.0042637348
-0.0045329037
-0.0059396906
0.0020891704
0.0042576409
0.0054725717
-0.0025924186
-0.0100941315
0.0022729818
-0.0098758132
-0.0019460032
-0.0000770725
-0.0042535938
-0.0019319500
-0.0045049525
0.0039592939
-0.0053871012
-0.0056903320
-0.0024102404
-0.0034761829
0.0051337991
-0.0041824905
-0.0101035266
0.0036080566
0.0080966057
0.0096991098
-0.0003747217
-0.0131126616
0.0022757488
-0.0129535387
0.0014217850
0.0017921507
-0.0036883245
-0.0005818336
-0.0034875580
0.0049893698
-0.0094847939
-0.0061397885
-0.0049872210
-0.0055196150
0.0073646329
-0.0049334428
-0.0123210793
0.0022657165
0.0087419333
0.0061687181
0.0007324443
-0.0106038241
0.0044730981
-0.0109051691
0.0001228543
0.0000556167
-0.0033145675
-0.0026264044
-0.0035648590
0.0043670154
-0.0090293836
-0.0067198447
-0.0049873047
-0.0033089081
0.0079285344
-0.0077398197
-0.0112070805
0.0006783899
0.0060268727
0.0028503015
-0.0010678731
-0.0086424112
0.0049652926
-0.0096136922
-0.0029281865
-0.0019354373
-0.0037644174
-0.0045207291
-0.0053772446
0.0034932455
-0.0056706059
-0.0068096353
-0.0028168863
-0.0008909648
0.0065201575
-0.0075218673
-0.0104117943
0.0001384461
0.0007824016
0.0008602861
-0.0051591007
-0.0084709076
0.0025211780
-0.0084240687
-0.0052361692
-0.0021897963
-0.0057053831
-0.0031417415
-0.0089711975
0.0028962581
-0.0012096446
-0.0056776839
0.0004283547
-0.0009357935
0.0039859556
-0.0031760836
-0.0096030290
0.0011026058
0.0029586450
0.0026304383
-0.0032200206
-0.0086700043
0.0024292452
-0.0089278119
-0.0027465612
-0.0006124135
-0.0042409995
-0.0022338589
-0.0060170216
0.0030851840
-0.0035115850
-0.0052733444
-0.0014382379
-0.0011498323
0.0041854243
-0.0035285838
-0.0091739740
0.0007180780
0.0030745395
0.0026134337
0.0001955338
-0.0030855755
0.0009095297
-0.0038434457
0.0006179146
0.0003350045
-0.0007651003
-0.0003363167
-0.0007789042
0.0017012202
-0.0035186789
-0.0021365648
-0.0019248175
-0.0014090802
0.0023130071
-0.0020179730
-0.0038587232
0.0004348215
0.0033083141
0.0013585495
-0.0001856964
-0.0048011552
0.0023924238
-0.0053377272
-0.0010368804
-0.0004244224
-0.0012934721
-0.0021778822
-0.0017784668
0.0014764639
-0.0035813056
-0.0033544454
-0.0008452164
-0.0008098085
0.0037037064
-0.0039844266
-0.0052845579
-0.0005561879
-0.0007142210
-0.0014496716
-0.0003104144
0.0007832349
0.0002793929
0.0007602972
-0.0012954061
-0.0006260185
-0.0005345132
-0.0006112655
-0.0007085159
-0.0004655859
0.0008667274
0.0001186761
0.0010410633
0.0006314617
-0.0005637156
0.0004393038
0.0002943369
0.0007147460
-0.0000656186
-0.0002280434
-0.0002005871
-0.0001603258
0.0000583169
-0.0001168568
-0.0002080676
-0.0003664227
-0.0000048764
-0.0002551537
-0.0002685113
-0.0002690463
-0.0001538645
-0.0001186206
-0.0000995300
0.0003022642
0.0005853561
-0.0003604936
0.0004456969
-0.0002273293
0.0010226633
-0.0000077476
-0.0000814052
-0.0020505612
0.0013290974
-0.0018774742
-0.0007231755
-0.0004457991
-0.0001050343
-0.0007497650
-0.0009349373
0.0006079723
-0.0014379533
-0.0015620131
-0.0003712861
0.0001820794
0.0014267826
-0.0020020663
-0.0023988564
-0.0005085479
0.0017804437
-0.0017087700
-0.0017169928
-0.0047829928
0.0038286090
-0.0052446202
-0.0040125190
-0.0025633855
-0.0023179982
-0.0040817005
-0.0047445017
0.0019963786
-0.0019011035
-0.0040510283
-0.0007045829
0.0012177863
0.0034982091
-0.0045427281
-0.0058036987
-0.0002851127
0.0010000615
-0.0007427822
-0.0009647670
-0.0035022935
0.0022459101
-0.0037401694
-0.0024165975
-0.0014478557
-0.0009369614
-0.0024404952
-0.0029297913
0.0010489578
-0.0016385924
-0.0026474654
-0.0003685569
0.0000312703
0.0021117580
-0.0029386913
-0.0040939442
-0.0006805739
-0.0016275893
-0.0011267234
0.0001359350
0.0015296724
-0.0006828517
0.0014825292
-0.0007767973
-0.0005939996
-0.0001506235
-0.0000469828
-0.0001053363
-0.0009526163
0.0013417220
0.0009542607
0.0021051735
0.0014940985
-0.0009908435
0.0011457915
0.0015313042
0.0007264079
-0.0016526815
0.0014954051
-0.0006971266
0.0000394975
-0.0019236502
0.0009474290
0.0011245384
0.0010078787
-0.0005293009
0.0016470328
0.0001624202
0.0001314881
0.0012994706
0.0012265609
0.0009023748
-0.0009664244
-0.0012485879
0.0024535220
0.0009484112
0.0006153238
-0.0016196357
0.0010494207
-0.0006794252
0.0000235945
-0.0017405656
0.0006085381
0.0010051347
0.0009196558
-0.0006051030
0.0016606386
-0.0000828562
-0.0001172721
0.0008697646
0.0011732772
0.0008924249
-0.0010933939
-0.0014809558
0.0021070735
0.0005814067
-0.0000944895
-0.0007289651
-0.0000363821
0.0006555190
0.0016191090
-0.0012172270
0.0017997974
0.0009327625
0.0008500066
0.0005468180
0.0011437291
0.0016527621
-0.0002737362
0.0008280910
0.0017194591
0.0005033065
-0.0002616836
-0.0014096066
0.0016917063
0.0022162836
0.0001223009
0.0010186414
0.0009927656
0.0013220206
0.0015940194
-0.0009322733
0.0016995062
0.0016126752
0.0007621363
0.0017499699
0.0011132189
0.0028011037
-0.0007015341
-0.0008784523
0.0014593834
-0.0006458248
-0.0005823905
-0.0004629711
0.0011824102
0.0020582599
0.0013355733
0.0016015256
0.0033783587
0.0023164316
0.0035918520
-0.0026797371
0.0037483073
0.0040476275
0.0023176809
0.0027389775
0.0028814397
0.0051314675
-0.0010092690
-0.0013555670
0.0031195170
-0.0014370187
-0.0020209149
-0.0016657271
0.0028989505
0.0044480693
0.0013855868
-0.0005960133
0.0027459147
0.0003634993
0.0013043450
-0.0028307814
0.0021256839
0.0027031503
0.0021708061
0.0005401476
0.0030284166
0.0021909789
-0.0002686480
0.0000933199
0.0023826935
0.0002333647
-0.0018239203
-0.0019734171
0.0030969370
0.0023315102
0.0025474464
-0.0036452362
0.0036167768
-0.0021166070
-0.0000349389
-0.0044248667
0.0017057153
0.0024258788
0.0026352993
-0.0023772607
0.0041677755
-0.0003457489
0.0003794628
0.0024425318
0.0026533790
0.0023678607
-0.0034414837
-0.0035715597
0.0056601220
0.0025240272
0.0043751243
-0.0043634520
0.0057391056
-0.0029572015
0.0002420758
-0.0069342987
0.0029291071
0.0041015859
0.0038577879
-0.0031571832
0.0066860104
-0.0001903236
0.0008464633
0.0032620419
0.0042778792
0.0035480875
-0.0053429624
-0.0053051697
0.0085923318
0.0031117033
0.0028600639
-0.0013083771
0.0049150060
0.0000723715
0.0014876181
-0.0039594583
0.0031814971
0.0044588569
0.0031936769
0.0003433990
0.0051616764
0.0025577558
-0.0000775852
0.0008806473
0.0032872112
0.0009170176
-0.0039630253
-0.0031066722
0.0056991300
0.0035119364
0.0022004898
0.0038790235
0.0059446285
0.0052871530
0.0053449536
-0.0037838192
0.0059691007
0.0071653885
0.0040447381
0.0054208093
0.0052716108
0.0087671005
-0.0009619936
-0.0036681014
0.0045999686
-0.0026938045
-0.0035025534
-0.0018024289
0.0046234649
0.0072206819
0.0004270014
0.0012048917
0.0017243286
0.0017107565
0.0022795196
-0.0011451677
0.0022035226
0.0025901054
0.0014311678
0.0020081854
0.0015950969
0.0036068308
-0.0007106092
-0.0012033603
0.0024807747
-0.0009533884
-0.0008710148
-0.0007754944
0.0015393836
0.0027774950
0.0015298864
-0.0000669513
0.0036534706
0.0004556394
0.0015583980
-0.0029837604
0.0023885629
0.0037576965
0.0024820182
0.0000476737
0.0033496352
0.0027006943
-0.0000991591
-0.0000623192
0.0026670132
-0.0002768617
-0.0023762639
-0.0018995822
0.0034233993
0.0027941377
-0.0000121255
-0.0001290989
0.0005670686
0.0004790809
0.0005943491
-0.0008403333
0.0006636988
0.0007284978
0.0006985692
0.0003121292
0.0006038498
0.0007408514
-0.0003449943
-0.0001787980
0.0010983356
-0.0001113981
-0.0005276229
-0.0006778045
0.0006557346
0.0008514597
-0.0000091945
0.0004244069
0.0004580554
0.0008948280
0.0008236220
-0.0006674470
0.0009051541
0.0020603740
0.0011840643
0.0009190252
0.0004159669
0.0012814924
-0.0005380859
-0.0003211671
0.0007863207
-0.0003264992
-0.0002185429
-0.0003914981
0.0003716375
0.0010677664
-0.0007700413
0.0007748247
0.0007832055
0.0012354034
-0.0000710240
0.0007148369
-0.0003435884
0.0002172684
-0.0001549930
0.0007752185
0.0000029568
0.0006065360
-0.0001969790
-0.0008418001
-0.0002627448
-0.0006252977
0.0006517662
0.0005148609
-0.0009358642
-0.0001384203
-0.0010361029
0.0016678652
0.0005295511
0.0012265545
0.0002155047
0.0007308793
-0.0002652434
0.0008434624
0.0004711278
0.0019778425
-0.0005982603
0.0013631731
-0.0001479884
-0.0017178036
-0.0001066501
-0.0011514143
0.0008231361
0.0009472835
-0.0014777375
0.0001881182
-0.0006039657
0.0008176619
-0.0000025460
0.0006097922
-0.0000195701
0.0003989655
-0.0002308720
0.0002030475
-0.0001605010
0.0012175294
0.0001868375
0.0006784330
-0.0003760014
0.0001657406
-0.0002806760
-0.0005379242
0.0003728158
0.0005780786
-0.0009101741
0.0000910970
-0.0000830864
-0.0000355891
-0.0003504450
-0.0000473497
-0.0002593974
0.0002325383
-0.0000996697
-0.0004467844
-0.0003773671
0.0001251014
-0.0001945696
-0.0002178018
-0.0003488533
-0.0002567871
-0.0002403345
0.0000724369
0.0002531768
0.0000533162
-0.0004931929
-0.0002163513
-0.0004940476
0.0000668399
-0.0004677237
-0.0001088183
-0.0000629972
0.0003546806
-0.0003117360
-0.0004148444
0.0007072864
0.0002085367
-0.0004265578
0.0001611784
-0.0001339656
0.0000086348
-0.0001563188
0.0002831895
0.0005289867
0.0000209708
-0.0003352514
-0.0000300174
-0.0002688901
-0.0000012417
-0.0000844019
-0.0001991773
-0.0002544049
0.0000585116
-0.0002968231
-0.0004545209
-0.0003159130
0.0000054289
-0.0004473014
-0.0001836923
-0.0000237824
-0.0002201455
-0.0000494840
0.0001503471
0.0002035751
0.0009237175
-0.0003377012
-0.0001135050
-0.0005365375
0.0004808104
-0.0004190523
0.0000412961
-0.0001467136
0.0000963620
-0.0001795171
0.0005228629
-0.0003638339
0.0001255241
-0.0003554320
-0.0002907729
-0.0003028348
-0.0002380285
-0.0001313197
-0.0000881091
0.0001590086
0.0000845934
-0.0001464984
-0.0000917989
0.0001572954
-0.0006948990
0.0001673432
-0.0011112596
-0.0016994537
-0.0001801700
-0.0016669801
-0.0010509842
-0.0005463099
-0.0004809504
-0.0003043382
-0.0018169406
0.0005331601
0.0002892986
-0.0001669653
0.0005193683
-0.0002928525
-0.0001297376
0.0004421547
-0.0018158736
-0.0003812925
0.0002402489
-0.0004344252
-0.0001181680
0.0001963547
0.0001201397
0.0000121814
-0.0000571981
-0.0003739250
0.0003011558
-0.0004772200
-0.0001800526
0.0004563035
-0.0002583182
-0.0002202029
-0.0000801246
0.0003842067
0.0003788627
0.0001263962
-0.0002527228
-0.0003923994
0.0000061389
-0.0003971173
-0.0001555005
-0.0000831315
0.0001666156
-0.0000487999
-0.0004456746
-0.0001773979
-0.0000704981
-0.0004222940
-0.0001253699
-0.0003105014
-0.0002332493
-0.0002706608
0.0002451306
0.0002711959
0.0006542719
-0.0003363129
-0.0002614453
-0.0006432455
0.0042024149
0.0014367766
0.0032359430
0.0006606868
0.0017390927
-0.0010292694
0.0027255679
0.0019157608
0.0042224177
-0.0008056870
0.0039922520
-0.0005961246
-0.0037646760
-0.0003245820
-0.0030694856
0.0013016301
0.0026408383
-0.0029804412
-0.0002970383
-0.0015909379
0.0043380307
0.0011876554
0.0030834880
-0.0001210392
0.0018597621
-0.0011705727
0.0026574340
0.0006960189
0.0038782208
-0.0007084061
0.0039404906
-0.0007662846
-0.0040586582
-0.0003047321
-0.0030402008
0.0012363320
0.0026538567
-0.0033118987
-0.0002510324
-0.0004854845
-0.0000820567
-0.0004725288
-0.0000690139
0.0000970913
0.0001633159
-0.0002958859
-0.0002379336
-0.0003548966
0.0004483034
-0.0002346644
-0.0000118215
-0.0002611867
-0.0002691971
-0.0001915365
0.0002521563
0.0002779096
0.0001845259
-0.0003319337
-0.0002387929
-0.0010273217
0.0020631330
0.0006654115
0.0014285081
-0.0000092280
0.0009899621
-0.0004947255
0.0011688029
0.0001423371
0.0019553198
-0.0004263093
0.0017528866
-0.0001517977
-0.0020793496
-0.0003348551
-0.0013352945
0.0011937285
0.0013422786
-0.0019016545
-0.0001997342
-0.0009883513
0.0028383093
0.0004590984
0.0014314579
-0.0001872215
0.0009705271
0.0001196186
0.0016049567
0.0002234260
0.0019498896
-0.0005988101
0.0017689862
-0.0003941270
-0.0022179102
-0.0001165196
-0.0013736019
0.0007203299
0.0014575435
-0.0016227126
-0.0002036763
-0.0003868941
0.0023520587
0.0009331645
0.0019779862
-0.0001672273
0.0014892321
-0.0002599505
0.0011544041
0.0001555039
0.0019562029
-0.0006757920
0.0020227522
-0.0003962281
-0.0016917329
-0.0001498707
-0.0015116549
0.0013966038
0.0013931917
-0.0018404852
-0.0001231585
-0.0007698724
0.0020721067
0.0002314240
0.0014197357
-0.0001060141
0.0010458069
-0.0007226476
0.0011109153
0.0005743174
0.0023111263
-0.0005136965
0.0021518399
-0.0005292954
-0.0021579655
-0.0004029533
-0.0015983381
0.0012300166
0.0018398832
-0.0015973965
0.0001517840
-0.0003353051
0.0015747366
0.0010213631
0.0004836335
-0.0015321273
0.0010427878
-0.0021135533
0.0005878764
-0.0000419233
0.0006207556
-0.0003909700
0.0002466598
0.0002476317
-0.0013484170
-0.0009929014
-0.0009177486
-0.0000001622
0.0013291341
-0.0014818045
-0.0018056641
-0.0005813542
0.0020689515
0.0015674696
0.0009742522
-0.0013254741
0.0011418030
-0.0021512990
0.0010604074
0.0002041317
0.0017836573
-0.0004181316
0.0010781234
-0.0000572225
-0.0023487737
-0.0010278226
-0.0014542901
0.0004092582
0.0018992584
-0.0016608136
-0.0013936784
0.0005170165
-0.0006617901
0.0001803350
-0.0013273885
-0.0013108592
-0.0001357087
-0.0014987540
-0.0011325419
-0.0004412059
-0.0005855138
0.0002316121
-0.0017343203
0.0002648299
0.0003030195
-0.0007881046
0.0007325540
0.0000810843
-0.0001077029
0.0002224010
-0.0015555963
0.0009982683
-0.0015390207
0.0004839987
-0.0023166516
-0.0032357736
-0.0001883244
-0.0029909561
-0.0017957766
-0.0005202045
-0.0024635836
0.0003209342
-0.0026403932
0.0008361247
0.0006966474
-0.0014980557
0.0011405239
-0.0003956947
-0.0002872540
0.0007655669
-0.0033572522
-0.0005136440
0.0001345141
-0.0001823577
-0.0000582724
0.0002542441
0.0003734610
-0.0002897200
-0.0001770064
-0.0002692568
0.0000276732
-0.0004230610
0.0000121669
-0.0002070069
-0.0002563672
-0.0002937990
-0.0000112123
0.0002590270
0.0004574915
-0.0004201488
-0.0001393773
0.0001176485
-0.0005459129
-0.0000637123
-0.0012741813
-0.0014604253
-0.0000331173
-0.0016710591
-0.0010696681
0.0000503065
-0.0012579396
-0.0000332241
-0.0015678941
0.0005664567
0.0006627574
-0.0007824155
0.0005839228
-0.0003415230
-0.0000449686
0.0000710572
-0.0018625057
0.0008797158
-0.0008754135
0.0008499699
-0.0012914435
-0.0021111166
-0.0004249232
-0.0020931307
-0.0002285596
-0.0001828989
-0.0012174868
0.0000689268
-0.0019665053
0.0006642173
0.0002759839
-0.0009150435
0.0009289513
-0.0008898809
-0.0001610166
0.0003663370
-0.0019503133
0.0001867218
-0.0002013479
0.0003502099
-0.0003420946
-0.0006249760
-0.0001786534
-0.0006767943
0.0002924296
0.0007037608
0.0002997853
-0.0001126583
-0.0005530672
0.0000769532
-0.0002399290
-0.0000773284
0.0000068465
-0.0002724333
0.0000812999
-0.0000910044
-0.0003992253
0.0008419019
-0.0010763057
0.0008591829
-0.0014719439
-0.0021694347
-0.0003510075
-0.0020993446
-0.0000242210
-0.0003030852
-0.0017781860
0.0003458593
-0.0021219231
0.0009120977
0.0002693107
-0.0008802125
0.0004662791
-0.0007759264
-0.0000678986
0.0004039923
-0.0017936731
-0.0000876154
0.0019419459
0.0024796979
0.0007686347
-0.0020594046
0.0011621342
-0.0023439229
0.0015783311
0.0004710632
0.0015009800
0.0000819786
0.0006966962
0.0002238046
-0.0024241880
-0.0010273365
-0.0014527877
-0.0001663406
0.0016534831
-0.0016661074
-0.0017568952
-0.0017815448
0.0052987272
0.0020817654
0.0040929765
0.0000952841
0.0021163060
-0.0011247960
0.0038674747
0.0009226266
0.0048963947
-0.0004405939
0.0046429345
-0.0003905329
-0.0046264379
-0.0003159236
-0.0035931859
0.0015861486
0.0032780537
-0.0039668901
0.0000789188
0.0011844361
-0.0003263430
0.0022323426
-0.0022755601
-0.0045929027
0.0002769153
-0.0043767717
-0.0015303186
-0.0006654601
-0.0024032937
-0.0000855536
-0.0032064671
0.0011334056
-0.0001228123
-0.0023642748
0.0008222847
-0.0014835411
0.0004815619
-0.0000444787
-0.0048174655
0.0011525321
0.0003525373
0.0029110326
-0.0009359761
-0.0036840689
-0.0003784791
-0.0035534698
0.0004001684
0.0006251082
-0.0008425909
0.0008292082
-0.0014473987
0.0010153689
-0.0009122087
-0.0011400218
0.0007758065
-0.0017881393
0.0004794938
0.0006994533
-0.0035636796
0.0014694114
-0.0009305747
0.0022989523
-0.0009092329
-0.0010819345
-0.0017771248
0.0002354547
0.0008304173
0.0008175631
-0.0009730361
0.0017197596
-0.0002620562
0.0002829014
0.0007291885
0.0007379842
0.0005565796
-0.0021245886
-0.0013952131
0.0022606860
-0.0007576882
0.0002015581
0.0027811267
0.0032231816
0.0026341026
-0.0020843250
0.0006123159
-0.0026148972
0.0030268680
0.0012086515
0.0021759743
0.0006228272
0.0022533252
0.0000742625
-0.0029861632
-0.0007903541
-0.0020618495
-0.0004549230
0.0024906828
-0.0014760500
-0.0017862342
-0.0008235168
0.0037339909
0.0018161872
0.0023436662
-0.0015940410
0.0014692084
-0.0024459281
0.0025431385
0.0007125329
0.0025552393
-0.0000973738
0.0024584230
-0.0002303542
-0.0036412349
-0.0010212147
-0.0021767911
0.0006070957
0.0024716845
-0.0029531939
-0.0018110678
-0.0000115812
0.0003149796
0.0004196310
-0.0003576735
-0.0003663720
-0.0001484449
-0.0006644496
0.0000876060
0.0003712918
-0.0005903133
0.0002958287
-0.0004925839
0.0000146977
-0.0002283695
-0.0003478294
0.0004847295
0.0002335356
0.0000358087
0.0004158456
-0.0006527985
0.0006612332
-0.0004757031
0.0008447650
-0.0010541924
-0.0022158705
-0.0004265539
-0.0021031777
-0.0005614435
-0.0001724594
-0.0018969928
0.0003229911
-0.0020326595
0.0005181191
0.0004302589
-0.0005156012
0.0004633308
-0.0010610521
-0.0002092523
0.0003563776
-0.0019705012
-0.0007049849
0.0007805178
0.0001860177
0.0006655633
-0.0000183686
0.0004868115
-0.0001875200
0.0009031003
-0.0001819524
0.0007352969
-0.0005053706
0.0005888714
-0.0000272847
-0.0007105615
-0.0001259330
-0.0006695067
0.0005000561
0.0008559871
-0.0010668600
-0.0000243805
-0.0007739027
0.0010453484
-0.0000452138
0.0004830100
0.0004108205
0.0006782882
-0.0003741557
0.0003063337
-0.0001807456
0.0008507412
-0.0004923648
0.0007409944
-0.0002751195
-0.0010293974
-0.0003058082
-0.0005194408
0.0004948491
0.0005118781
-0.0008381996
0.0000506905
-0.0007034761
0.0007934828
-0.0000207652
0.0005619601
0.0000610291
0.0004304163
0.0000939439
0.0004736724
0.0000529289
0.0010018613
-0.0004322181
0.0005440059
-0.0000661173
-0.0008674252
0.0000502064
-0.0002333394
0.0004800864
0.0004996973
-0.0010070277
0.0000523189
-0.0004064853
0.0003126668
-0.0004765546
0.0000537116
-0.0000560096
0.0002623311
-0.0002955232
0.0000221535
-0.0001266398
0.0000753335
-0.0004696892
-0.0002981640
-0.0003075354
-0.0002382884
-0.0001003414
-0.0000938347
0.0007196445
0.0000483796
-0.0001192450
-0.0001545698
-0.0003233663
-0.0000076663
-0.0005397922
-0.0002069869
-0.0002165856
0.0001769973
-0.0003309540
-0.0001238544
0.0004559342
0.0000253967
-0.0003693344
-0.0002825530
0.0000426381
-0.0002778286
0.0001116594
-0.0000684468
0.0003089216
0.0004523795
-0.0001839738
-0.0000422085
-0.0001367627
0.0002035868
-0.0004149603
-0.0000250363
-0.0002160057
0.0000997003
-0.0002056179
-0.0003784569
-0.0003974570
0.0000184596
-0.0004281630
-0.0001705897
-0.0002701647
-0.0003144879
-0.0002991644
0.0003530275
0.0004286183
0.0001838753
0.0000705152
-0.0001819491
-0.0005248712
0.0001567690
-0.0004995692
0.0001206688
-0.0001854051
0.0000802191
-0.0003350106
0.0006810284
-0.0001568115
0.0005747757
-0.0002133369
0.0000277854
-0.0000822139
0.0001010539
-0.0000487298
-0.0000286814
0.0001322946
0.0000632284
-0.0005030587
-0.0003179929
-0.0007545253
0.0007618009
0.0000595480
0.0005705021
0.0004724497
0.0006719846
-0.0003933348
0.0001511468
-0.0001684395
0.0011572839
-0.0001665585
0.0005974246
0.0004835289
-0.0007373773
-0.0001014600
-0.0005590186
0.0003593236
0.0004917447
0.0001242360
-0.0001306955
-0.0004872005
0.0000710586
-0.0003220930
0.0000345071
-0.0000033200
0.0004259295
-0.0000161893
-0.0003927476
-0.0003059375
0.0000062117
-0.0004572542
-0.0002405282
0.0002897572
-0.0001209249
-0.0001552210
-0.0000557846
0.0002592592
0.0003046237
-0.0004727636
0.0000915156
-0.0002540072
0.0004881888
-0.0004012485
-0.0001727061
-0.0000005040
0.0001702494
-0.0002496422
-0.0002345655
-0.0000439775
0.0002864007
-0.0002427121
-0.0000380400
-0.0001922513
-0.0002983793
-0.0002467094
-0.0001076469
0.0002391266
0.0006672994
-0.0002185800
0.0000532191
-0.0002343289
0.0000693256
-0.0004619607
-0.0002008318
-0.0001424534
0.0008064983
-0.0003145274
0.0000554897
-0.0001665751
0.0004297619
-0.0000909234
-0.0000672074
-0.0000586972
-0.0001740467
0.0002285108
-0.0001261041
0.0002622522
0.0001322384
-0.0002631060
-0.0002803432
-0.0004309589
0.0021192741
0.0003645614
0.0015037308
-0.0000809916
0.0010125639
-0.0006977574
0.0011946645
0.0003129532
0.0023318136
-0.0006203150
0.0018597132
-0.0003897258
-0.0013971790
-0.0003481381
-0.0015378264
0.0011711184
0.0014489655
-0.0016876024
-0.0003062460
-0.0006502262
0.0021922178
0.0004483932
0.0015376137
-0.0001276883
0.0010370382
-0.0006079179
0.0010993082
0.0004046283
0.0018783685
-0.0006462444
0.0021133325
-0.0005318611
-0.0021533550
0.0001022249
-0.0015862135
0.0006671340
0.0015024590
-0.0017990519
-0.0002987125
-0.0012702479
0.0029091048
0.0010314914
0.0023975580
-0.0000202846
0.0012074904
0.0000428935
0.0017645383
0.0010439341
0.0028516779
-0.0006669161
0.0026009368
-0.0006350504
-0.0027061981
-0.0000729570
-0.0019479886
0.0008918729
0.0018021120
-0.0025716998
0.0000134794
-0.0011665473
0.0042560368
0.0023342817
0.0027712611
-0.0015294261
0.0018677089
-0.0025272081
0.0028147627
0.0008554150
0.0033897045
-0.0005609790
0.0030464604
0.0001252516
-0.0042808931
-0.0007899015
-0.0026738466
0.0009565071
0.0031027155
-0.0030296718
-0.0015870073
-0.0013568632
0.0064606518
0.0028050251
0.0044508945
-0.0013938055
0.0034573052
-0.0029771388
0.0041488107
0.0014637370
0.0061499551
-0.0007563951
0.0051712264
-0.0005412118
-0.0059666348
-0.0012351213
-0.0046460934
0.0014555180
0.0045185670
-0.0050572280
-0.0016872849
-0.0014780552
0.0042673534
0.0010176345
0.0030804801
0.0002709054
0.0017330742
-0.0010910928
0.0026653563
0.0006619995
0.0038272509
-0.0006323916
0.0042006124
-0.0007557650
-0.0039204155
-0.0004514540
-0.0026134346
0.0014641813
0.0028940075
-0.0033518027
-0.0000439822
-0.0007039725
0.0010305932
0.0000647572
0.0004815772
0.0001975821
0.0005927959
-0.0003530390
0.0004376901
-0.0001645023
0.0007533355
-0.0005533044
0.0007166481
-0.0002730988
-0.0007229552
-0.0001978448
-0.0006712909
0.0005159551
0.0006224257
-0.0009415210
0.0001041751
-0.0004983077
0.0001003692
-0.0005645925
0.0000762753
-0.0000744273
0.0003873944
0.0001277985
-0.0004253492
-0.0001427640
0.0000864567
-0.0004839485
0.0000375412
-0.0001765176
0.0000099580
-0.0002758900
0.0001642247
0.0002810480
0.0000671045
0.0003467638
0.0000254765
-0.0009786525
0.0020626115
0.0002577452
0.0014438635
-0.0001325553
0.0009126887
-0.0004853256
0.0011447440
0.0002405507
0.0022643777
-0.0006481512
0.0019484584
-0.0004549514
-0.0022149964
-0.0003793903
-0.0013599221
0.0008586716
0.0014621144
-0.0018856347
-0.0001957829
-0.0001798272
0.0003312772
-0.0003786949
-0.0002017484
-0.0000645532
0.0003755893
-0.0000788615
-0.0004353004
0.0000171836
-0.0000719338
-0.0004650849
-0.0002901478
-0.0000836482
-0.0002842935
0.0000554214
-0.0001318330
0.0001459507
0.0000449434
-0.0004943635
-0.0000338618
-0.0005291533
0.0001195379
-0.0003937770
-0.0002117047
0.0000790358
0.0001116977
-0.0003219360
-0.0003920256
-0.0003189533
0.0001061963
-0.0001236348
-0.0002855889
-0.0002869898
-0.0001723031
-0.0000023541
0.0000351113
0.0001851917
0.0000350036
-0.0004467966
-0.0003181709
0.0015453961
-0.0000614298
0.0005946754
-0.0005119042
-0.0010994651
0.0003066488
-0.0016060393
-0.0001612482
-0.0000109143
-0.0005743506
-0.0002628274
-0.0006264287
0.0001185838
-0.0004021200
-0.0009431612
0.0005927069
-0.0002837340
0.0004370798
-0.0004309604
-0.0014833615
0.0000130015
-0.0000299777
0.0003790661
-0.0004330638
-0.0006214918
-0.0000675927
0.0000387232
0.0002162451
-0.0000645742
-0.0004353971
0.0001003935
-0.0004583890
0.0002920591
-0.0000930511
-0.0003613045
0.0000205335
-0.0000660632
-0.0000356418
0.0002776749
-0.0004838029
-0.0009233603
0.0016226390
0.0004227077
0.0016352291
0.0000771495
0.0010666746
-0.0004437651
0.0014151431
0.0006123495
0.0018227978
-0.0004824853
0.0013849327
-0.0004683582
-0.0017418130
-0.0002918722
-0.0012474845
0.0012715321
0.0011682912
-0.0010483458
0.0000367123
-0.0004712625
0.0008536855
0.0002195993
0.0006263963
-0.0000164633
0.0005912305
-0.0003270798
0.0001700102
0.0006375677
0.0007394737
-0.0005224214
0.0005361916
-0.0002796366
-0.0006265933
-0.0000345181
-0.0006991772
0.0007729218
0.0004842682
-0.0009572623
0.0000763407
-0.0004386794
0.0002480170
-0.0001727928
0.0000784675
-0.0000375308
0.0000769566
0.0003472831
-0.0002887082
-0.0000650402
-0.0000867703
-0.0003532343
0.0001066667
0.0000106539
0.0000686563
-0.0002908680
-0.0000904815
0.0002754942
0.0003731797
-0.0003320922
-0.0000184440
-0.0002289452
-0.0000436785
-0.0004317355
-0.0002062356
-0.0001502797
0.0003669832
0.0001876079
0.0000416792
-0.0003479170
-0.0000819274
-0.0003646767
-0.0002282730
0.0005427886
-0.0002522881
-0.0000524314
0.0001479194
0.0001474876
0.0000376386
-0.0004919997
-0.0002642528
-0.0005187149
-0.0000071520
-0.0005619993
-0.0001744318
-0.0001888498
0.0001776146
-0.0001752646
-0.0001941966
-0.0002572854
-0.0000215087
-0.0001526726
0.0002032482
-0.0001674495
-0.0001809242
-0.0002973468
-0.0000872868
0.0002380370
0.0000931772
-0.0004321371
-0.0000401154
-0.0005148792
-0.0000121174
-0.0003636868
0.0003818513
-0.0001936327
0.0003021453
-0.0002625674
-0.0004064344
-0.0003267488
-0.0001196648
-0.0004259038
-0.0002823716
-0.0001590940
-0.0001620853
-0.0002505295
0.0001016238
0.0001570010
0.0003095169
-0.0004533103
-0.0000273906
-0.0001783131
0.0001210212
-0.0005540811
-0.0001494179
-0.0002475392
0.0000858710
-0.0002314546
-0.0004087518
-0.0001770497
-0.0000690949
-0.0003975577
-0.0001612446
-0.0003228217
-0.0000169148
0.0000820621
-0.0001305803
0.0007987062
0.0000853247
-0.0001427978
-0.0002574506
-0.0004517547
-0.0000244128
0.0000401858
-0.0001868936
-0.0002432285
0.0003794675
-0.0001511657
-0.0003421579
-0.0003582918
0.0004860725
-0.0004366977
-0.0002513335
-0.0003354017
-0.0002941861
0.0002707030
-0.0000049060
0.0001114882
0.0003464887
-0.0004373296
0.0000165262
-0.0004023142
0.0001247281
-0.0003444587
0.0002712925
-0.0001140671
0.0003844376
-0.0003064208
-0.0004376722
-0.0001690256
-0.0000746080
-0.0000205236
-0.0001102099
-0.0003208527
-0.0002128883
-0.0002438093
0.0000256735
0.0001133771
0.0002281981
-0.0004531229
-0.0000207473
-0.0004092157
0.0002407220
-0.0000224865
0.0006662135
0.0002379989
0.0003948742
0.0002456953
-0.0004460962
-0.0002555067
0.0002472472
0.0000139821
-0.0002873858
-0.0001530325
-0.0002234337
-0.0002205252
0.0002072081
0.0002420747
0.0000432139
-0.0002673253
-0.0002686394
0.0002175539
0.0003060740
0.0027962738
0.0013019233
0.0022464408
-0.0014470131
0.0023958249
0.0022842317
0.0016752275
0.0013782023
0.0016519641
0.0030510126
-0.0007628976
-0.0000646825
0.0022021770
-0.0003126112
-0.0007052126
-0.0013695432
0.0016238858
0.0028854134
0.0115302806
0.0000256263
0.0222363690
0.0006535197
0.0033983582
-0.0149406717
0.0069691332
0.0175323743
0.0121643929
-0.0021500169
0.0168374640
0.0098115733
0.0024281718
-0.0014955472
0.0101682972
-0.0018795554
-0.0155803344
-0.0089608842
0.0170682242
0.0085733557
0.0116591994
0.0017525361
0.0248615077
0.0016915506
-0.0006324859
-0.0126546750
0.0021541922
0.0186158520
0.0123593962
-0.0006998064
0.0160472654
0.0090292494
0.0027130552
-0.0037925909
0.0069538469
-0.0035052673
-0.0154329257
-0.0057122682
0.0129367835
0.0049210289
0.0053797352
-0.0011005203
0.0146412953
-0.0017174931
-0.0076284829
-0.0035939425
-0.0062416618
0.0087803187
0.0059225966
-0.0009834004
0.0073874431
-0.0006331026
0.0029076607
-0.0014694379
0.0013807975
-0.0004186536
-0.0067038750
0.0004725731
0.0015712050
-0.0048952058
-0.0009496055
0.0088117313
0.0066367104
0.0050793153
-0.0021707656
0.0026833914
-0.0034072584
0.0063447752
0.0024487517
0.0068195944
-0.0003565015
0.0066660539
-0.0001064254
-0.0081987632
-0.0008766909
-0.0061232937
0.0003882624
0.0056221859
-0.0060932542
-0.0019951139
0.0097104193
0.0028294603
0.0169259347
0.0028415491
0.0045934046
-0.0120447781
0.0076770732
0.0152148794
0.0101845592
0.0005258706
0.0128878403
0.0109579212
0.0011173993
-0.0031104516
0.0094851703
-0.0023863632
-0.0121797863
-0.0067219184
0.0131412601
0.0088624556
0.0118522344
-0.0002651171
0.0218467306
0.0061394656
0.0148292064
-0.0209970144
0.0196089808
0.0241736528
0.0161908975
0.0040911069
0.0219095456
0.0211905533
-0.0013712079
-0.0010426501
0.0186316204
-0.0018204112
-0.0165109203
-0.0136447081
0.0244919442
0.0230901238
-0.0030009183
-0.0055212732
-0.0081740648
0.0021907493
0.0124554372
-0.0037293779
0.0121457423
-0.0012511678
-0.0013701785
0.0040760957
0.0027291835
0.0062044619
-0.0051967527
0.0069942847
0.0067477035
0.0023237355
0.0046675771
-0.0066937621
0.0069952158
0.0127299236
-0.0032343790
-0.0084114395
-0.0031559684
0.0012842630
0.0060132316
-0.0048013126
0.0045503878
0.0057741735
0.0010899045
0.0057416807
0.0055045582
0.0064843036
-0.0036122067
0.0054082653
0.0047953927
0.0026578564
0.0031674358
-0.0031738817
0.0067502827
0.0053125619
-0.0007509537
-0.0145308210
0.0039076330
-0.0050172526
-0.0022137252
-0.0055606943
0.0001730638
0.0037025450
0.0026652150
0.0002036180
0.0059979173
-0.0019389875
-0.0010661543
0.0105662553
0.0034984233
0.0090437062
-0.0008908532
-0.0074640888
0.0084650743
-0.0004714373
-0.0053300203
0.0022834616
-0.0065524669
0.0053043110
0.0096138588
0.0046382482
0.0079508229
-0.0004510228
-0.0026045458
0.0114598537
-0.0052921844
0.0089223899
-0.0044348522
-0.0020950442
0.0021562545
0.0009721828
0.0064093978
0.0016652767
-0.0040621129
0.0098801718
-0.0014077489
-0.0084912053
-0.0155698487
-0.0024927583
0.0080143403
0.0001184564
0.0069006375
-0.0095450788
-0.0052554538
0.0003626703
-0.0039267250
-0.0034883509
-0.0026034541
0.0083282156
0.0009468561
0.0061372082
0.0034844424
-0.0047647430
0.0026453754
0.0060969241
-0.0098696169
-0.0052873855
-0.0188245810
-0.0065208155
-0.0009558913
0.0061958670
-0.0008775311
-0.0194719714
-0.0114066308
-0.0045288526
-0.0102711639
-0.0141334609
-0.0031756276
0.0096858920
-0.0052722523
0.0058150439
0.0108803106
-0.0004389009
-0.0042550718
-0.0039018188
0.0034900619
-0.0025818838
-0.0026120277
-0.0073954986
-0.0048405021
-0.0002377044
-0.0029851266
-0.0079127892
-0.0031272865
-0.0101052804
-0.0017239051
-0.0101601604
0.0034689267
0.0049064122
-0.0046260664
0.0035411241
-0.0032146195
-0.0018617161
0.0019523113
-0.0060630313
0.0121719201
0.0012022678
0.0161057162
-0.0049937843
-0.0133019011
-0.0029452486
-0.0114249289
0.0054867749
0.0040078751
-0.0095920163
0.0043572397
-0.0065365446
0.0080330957
-0.0060351253
-0.0047798507
0.0003948905
-0.0134875588
0.0027933797
0.0038337447
-0.0120587244
0.0093625864
-0.0140336685
0.0030118638
-0.0145780755
-0.0079864418
-0.0055779069
-0.0028636644
-0.0069659192
-0.0009966235
-0.0200238860
0.0024537216
-0.0223078411
0.0040762422
0.0099614121
0.0000067043
0.0106296525
-0.0083433909
-0.0080051153
0.0112481853
-0.0048102350
0.0043149070
-0.0141584668
-0.0084668172
-0.0176281437
-0.0062002170
0.0000045100
-0.0028226811
-0.0220616947
-0.0087512276
-0.0227061100
-0.0061660491
-0.0311770456
0.0038239422
0.0128412697
-0.0060176084
0.0113371301
-0.0028624038
-0.0057521337
0.0045561365
-0.0076381489
0.0053392416
0.0062166417
0.0056318546
-0.0089904388
-0.0185423386
0.0078542335
-0.0185690177
-0.0126217434
-0.0050398243
-0.0145324208
-0.0086016844
-0.0206037119
0.0088948257
-0.0075703559
-0.0148473842
-0.0020029855
-0.0062647453
0.0094059051
-0.0099011613
-0.0220244758
0.0064577245
0.0192011738
0.0172152662
0.0049314205
-0.0148304737
0.0057916135
-0.0157349173
0.0069858437
0.0037045988
-0.0001221407
-0.0015140691
0.0020925677
0.0071706191
-0.0204331131
-0.0087254700
-0.0116390935
-0.0089282955
0.0132610022
-0.0107288870
-0.0143974090
0.0084774447
0.0146083625
0.0197225393
0.0039460304
-0.0093051641
-0.0023981973
-0.0071036486
0.0111096817
0.0074282787
0.0003407988
0.0054571557
0.0061529471
0.0065985803
-0.0152149104
-0.0015905212
-0.0097436733
-0.0118993171
0.0056677354
-0.0004291654
-0.0063879182
0.0060750418
-0.0011097221
0.0072729863
-0.0037064886
0.0017951010
-0.0063826263
0.0043772123
0.0032093694
0.0033043547
-0.0045288132
0.0053796635
-0.0009346589
0.0009972313
0.0012183522
0.0037077700
0.0006492105
-0.0076176359
-0.0057429847
0.0091603501
0.0042674296
0.0035933620
0.0041926111
0.0039618570
-0.0021982102
-0.0053366361
0.0018377757
-0.0050625101
-0.0025766987
-0.0010544076
-0.0046578670
-0.0022451489
-0.0052440506
0.0034468603
-0.0043841393
-0.0044187179
-0.0016487860
-0.0042818792
0.0030509000
-0.0028079855
-0.0055676664
0.0013330939
0.0055634764
0.0040025211
0.0019150387
-0.0030185920
0.0016155422
-0.0033782498
0.0017848186
0.0010547842
0.0000687422
-0.0007008388
0.0010222819
0.0014586961
-0.0054604494
-0.0020550174
-0.0033417666
-0.0023848099
0.0035083607
-0.0028173494
-0.0028881870
0.0001848205
0.0018984470
0.0015469824
-0.0000640089
-0.0029132115
0.0008227193
-0.0029659449
0.0004003848
0.0002951529
-0.0002466126
-0.0005367825
-0.0006083956
0.0007718395
-0.0022884954
-0.0012764026
-0.0011334781
-0.0009388817
0.0028574889
-0.0011620496
-0.0028404449
0.0019034740
0.0005065969
0.0029060133
-0.0000934672
0.0003200556
-0.0022844626
0.0008855714
0.0022270612
0.0019796738
-0.0001970951
0.0022036722
0.0012091200
0.0000481787
0.0001062809
0.0016130800
-0.0004444136
-0.0022625357
-0.0014255476
0.0023513078
0.0010393103
0.0010810112
0.0015076425
0.0033357082
0.0028152075
0.0039055499
-0.0024775324
0.0040681961
0.0043267677
0.0022921539
0.0030473087
0.0030586584
0.0057514688
-0.0013498717
-0.0010309849
0.0035463952
-0.0013204508
-0.0016740449
-0.0019055405
0.0028382784
0.0050563681
0.0004802963
0.0023510707
0.0029206412
0.0012203513
-0.0014611941
-0.0000113467
-0.0014170269
0.0019760752
0.0009348995
0.0005738012
0.0006116838
0.0014073590
0.0002639678
-0.0020681503
-0.0001759857
-0.0016840937
-0.0008471902
0.0011085110
-0.0005052840
-0.0005226237
0.0023250917
0.0075342816
0.0079503543
0.0002441983
-0.0107589739
0.0026462025
-0.0111449007
0.0019320676
0.0017684420
-0.0022511053
-0.0006516488
-0.0018485764
0.0039233252
-0.0085291579
-0.0050572622
-0.0047352871
-0.0040229179
0.0065972415
-0.0049066675
-0.0104095968
0.0019942551
0.0056291479
0.0060244672
-0.0012440378
-0.0097412417
0.0023138281
-0.0099428242
-0.0002446547
0.0004415339
-0.0032717615
-0.0012732044
-0.0037986682
0.0039096134
-0.0063702250
-0.0053697993
-0.0031595077
-0.0032499899
0.0053135077
-0.0044584976
-0.0099221477
0.0002425248
0.0002214797
-0.0000974553
-0.0008281976
-0.0014439441
0.0008242516
-0.0014316484
-0.0011728396
-0.0007439884
-0.0008105363
-0.0009245743
-0.0015465606
0.0004799312
-0.0006158899
-0.0004990408
-0.0000754258
-0.0002800510
0.0011723946
-0.0011103814
-0.0017629114
0.0002194992
0.0006998424
0.0005376349
0.0009263666
0.0013362311
-0.0006379098
0.0013692200
0.0012988716
0.0006584413
0.0011485552
0.0006259987
0.0016832640
-0.0002602336
-0.0005938674
0.0011329447
-0.0006014492
0.0003605532
-0.0004699934
0.0003561261
0.0015162598
0.0034803374
0.0079811462
0.0087502998
0.0004260518
-0.0104449453
0.0022229600
-0.0105035425
0.0017820928
0.0015034035
-0.0024907152
-0.0007159970
-0.0016526846
0.0046432803
-0.0089470352
-0.0054516164
-0.0048984811
-0.0045778437
0.0065196783
-0.0052811303
-0.0101993200
0.0040852186
0.0115882703
0.0117096250
-0.0008217769
-0.0171710951
0.0047242495
-0.0175172607
0.0006069034
0.0011777416
-0.0052635982
-0.0024348975
-0.0057175388
0.0073789137
-0.0126929565
-0.0096081544
-0.0064961831
-0.0056145281
0.0113459628
-0.0088231643
-0.0173256390
0.0025797704
0.0089967355
0.0077226633
0.0021329783
-0.0060553146
0.0029574179
-0.0068457436
0.0029237792
0.0012684913
-0.0009714393
-0.0013754919
0.0002684758
0.0033803135
-0.0089112732
-0.0046436225
-0.0054279984
-0.0037903117
0.0058433127
-0.0057889808
-0.0065777126
0.0013972900
0.0055566592
0.0037087436
0.0019323150
-0.0020120608
0.0016469515
-0.0024266986
0.0019600234
0.0009422303
-0.0000235062
-0.0007023006
0.0011054325
0.0013963281
-0.0054482705
-0.0018303299
-0.0031173584
-0.0020223323
0.0029731554
-0.0032816620
-0.0023929388
0.0004718774
0.0014019810
0.0017731780
0.0002196163
-0.0007354523
-0.0002077366
-0.0009883622
0.0009418052
0.0006018081
-0.0000140920
0.0002552797
0.0004536113
0.0002869578
-0.0017337438
-0.0000103932
-0.0007855606
-0.0011888815
0.0006076136
0.0001741582
-0.0004635663
0.0021360210
0.0047113554
0.0060598181
-0.0032193479
-0.0107139292
0.0018805512
-0.0101489234
-0.0012120406
0.0000533157
-0.0040450999
-0.0011272309
-0.0053601895
0.0038047872
-0.0055510302
-0.0053370093
-0.0021099656
-0.0037847099
0.0048146382
-0.0032137563
-0.0104253231
0.0019313712
0.0050427778
0.0056813470
0.0001414957
-0.0033442403
0.0004769246
-0.0039453366
0.0020231753
0.0013318183
-0.0010125553
0.0003865240
-0.0003909569
0.0017146238
-0.0046883642
-0.0013561901
-0.0028333704
-0.0027379637
0.0028659011
-0.0016173316
-0.0035732420
0.0004519911
0.0029714254
0.0018942968
0.0015861632
0.0012992843
0.0000226235
0.0005928957
0.0020383432
0.0014830352
0.0013012054
0.0008051108
0.0019593405
-0.0000830431
-0.0025896748
0.0002057802
-0.0019386966
-0.0009413021
0.0004874046
-0.0005841514
0.0009546902
-0.0002949586
-0.0039803796
-0.0036113089
-0.0025036876
0.0017745965
-0.0001757749
0.0021433372
-0.0039256563
-0.0021049932
-0.0012210880
-0.0014033363
-0.0030952133
-0.0010101373
0.0034959671
0.0003931104
0.0028733371
0.0012603463
-0.0021464097
0.0013943850
0.0013824004
-0.0000628230
-0.0021322409
-0.0015898917
-0.0027946292
-0.0011219330
-0.0001017313
-0.0010109824
-0.0027796420
-0.0012961056
-0.0020102996
-0.0010464516
-0.0035455739
0.0002155405
0.0014462217
-0.0006713131
0.0023276297
-0.0001986587
-0.0006840319
0.0003387154
-0.0014850170
-0.0000086870
0.0003205727
0.0002792512
-0.0013936364
-0.0018356990
0.0002955740
-0.0020590237
-0.0012109447
-0.0006388007
-0.0014430145
-0.0007500607
-0.0020577521
0.0004450876
-0.0001868946
-0.0007089424
0.0000743351
-0.0005812051
0.0009672687
-0.0006742297
-0.0022245240
0.0004482678
0.0004699377
-0.0007755711
-0.0030320296
-0.0047766768
0.0019896634
-0.0046314412
-0.0042149383
-0.0015304928
-0.0034929847
-0.0024882817
-0.0053918678
0.0017149806
-0.0001095747
-0.0035798597
0.0000296548
-0.0009087299
0.0022536237
-0.0022815532
-0.0056205181
-0.0002605422
-0.0023516424
-0.0048213643
-0.0039458532
-0.0025434628
0.0026135740
-0.0020391405
-0.0067026458
-0.0031921067
-0.0042614148
-0.0038033236
-0.0065464527
0.0009185814
0.0019674471
-0.0032558285
0.0020594019
0.0004793765
0.0000863892
-0.0010885596
-0.0038191990
0.0006172658
0.0009823046
0.0019241152
0.0005003336
0.0003993103
-0.0010542425
0.0008439326
0.0018392652
0.0009430700
0.0008946209
0.0013421185
0.0014510307
0.0002370191
-0.0009701567
0.0012066296
-0.0008825997
-0.0012242219
-0.0004715201
0.0011305745
0.0012855576
0.0001367373
-0.0000435517
-0.0003690529
0.0000753073
0.0016843376
-0.0012314714
0.0019063234
-0.0000119856
0.0002766679
0.0004222320
0.0009347704
0.0008724267
-0.0004926426
0.0015207774
0.0013163300
-0.0001420330
-0.0006420076
-0.0007897965
0.0012565458
0.0017659134
-0.0001869182
0.0002648497
0.0001280013
0.0004500808
0.0014534931
-0.0007793532
0.0014839043
0.0005060465
0.0006493262
0.0018869130
0.0006269397
0.0011479616
-0.0005685267
0.0002333690
0.0011157754
-0.0000919883
-0.0005430276
-0.0009208868
0.0009186551
0.0016090826
-0.0000731462
0.0016666983
0.0008405483
0.0005791848
-0.0006633924
0.0004610085
-0.0007983870
0.0007827948
0.0000597105
0.0004890498
-0.0000704239
0.0007169871
0.0000459065
-0.0016162613
-0.0003194936
-0.0010172524
-0.0004337983
0.0010870321
-0.0011179747
-0.0005320908
0.0006102174
0.0024476750
0.0024203073
0.0023558403
0.0017676595
-0.0011136879
0.0015131113
0.0033655125
0.0016159307
0.0022135463
0.0013213754
0.0041838660
-0.0005819276
-0.0019346059
0.0018141499
-0.0017956979
-0.0013097707
-0.0002342366
0.0006755254
0.0018826985
0.0009545775
0.0017340351
0.0027837795
0.0027642247
0.0035643115
-0.0023729529
0.0038018924
0.0043799594
0.0021779940
0.0033140143
0.0025023399
0.0052767555
-0.0011471793
-0.0016037806
0.0034112193
-0.0009355634
-0.0015790591
-0.0015039331
0.0022033831
0.0044963396
-0.0005331866
0.0001359516
-0.0002379041
0.0000179324
-0.0001417190
0.0004423978
-0.0003385249
0.0003114187
-0.0003447644
-0.0000543975
0.0001634903
-0.0002370180
-0.0002447083
-0.0000533702
-0.0002639800
0.0001027209
0.0002852129
0.0001296094
0.0000292744
-0.0002284751
0.0010291282
0.0003949676
0.0021355866
0.0005707065
0.0016275845
-0.0020386067
0.0020356627
0.0022609606
0.0014149864
0.0005232415
0.0018911246
0.0022410012
-0.0004724999
-0.0002376663
0.0019404454
-0.0004780258
-0.0015181516
-0.0014952861
0.0021229666
0.0023344979
0.0017929591
0.0014426214
0.0041968193
0.0026165874
0.0043110008
-0.0036721183
0.0051375627
0.0052579449
0.0031595173
0.0028410478
0.0042638811
0.0059095876
-0.0006211141
-0.0004178373
0.0039077254
-0.0012623892
-0.0028699295
-0.0022986198
0.0041060760
0.0053214024
0.0006826276
0.0018458003
0.0026400000
0.0021816132
0.0023846418
-0.0017688068
0.0025564407
0.0031857296
0.0017864258
0.0024403050
0.0024167787
0.0047384139
-0.0007871818
-0.0016600585
0.0020115427
-0.0013863720
-0.0013190572
-0.0005773975
0.0017864484
0.0031511111
0.0005890396
0.0016222421
0.0019758739
0.0019287977
0.0019196834
-0.0010310558
0.0019265365
0.0021678250
0.0010456243
0.0020488602
0.0010133707
0.0028261944
-0.0005712852
-0.0017119686
0.0010774101
-0.0012162566
-0.0000943900
-0.0003326443
0.0008677003
0.0025155785
0.0005095861
0.0011989108
0.0024810181
0.0020344925
0.0033724924
-0.0022129716
0.0035534182
0.0042677766
0.0020101367
0.0024727581
0.0023871854
0.0044911225
-0.0012081905
-0.0006879533
0.0033295068
-0.0009521767
-0.0013724789
-0.0017933309
0.0024598440
0.0043663846
0.0014212761
-0.0012125253
0.0027304279
-0.0003170392
0.0015344133
-0.0029698532
0.0025133995
0.0019509370
0.0018048599
-0.0008351291
0.0027810832
0.0013039268
-0.0001461078
0.0012013592
0.0027316831
0.0009927414
-0.0023652153
-0.0027396210
0.0042399135
0.0025577352
0.0016249395
-0.0030817819
0.0024415016
-0.0013479999
0.0011713038
-0.0025891222
0.0017145627
0.0008048791
0.0012455524
-0.0016095588
0.0022714251
-0.0010440982
-0.0000713612
0.0026135171
0.0020937908
0.0023967237
-0.0017603336
-0.0026327049
0.0034367204
0.0015030503
-0.0000702775
-0.0006184335
-0.0000364996
-0.0004319417
-0.0001823314
-0.0002655661
-0.0001200990
0.0002009414
0.0003519876
-0.0005300773
0.0002186735
-0.0003863035
-0.0001650921
0.0004489684
0.0001696612
0.0002412435
-0.0003105128
-0.0004528158
0.0002336055
-0.0001307211
-0.0004016923
-0.0000579726
-0.0003194810
0.0001576170
-0.0002556404
0.0000923909
0.0000385978
-0.0001950690
-0.0001546767
-0.0000298723
-0.0004811596
0.0000495707
-0.0002088548
0.0000054892
-0.0001704917
-0.0000809399
0.0000992145
0.0000900184
-0.0001367484
0.0002904954
-0.0004430472
0.0002680923
-0.0003749846
0.0001494092
-0.0000016093
0.0001998992
-0.0003204995
-0.0002726185
-0.0003860811
0.0002487697
-0.0004720638
-0.0002294366
0.0000938063
-0.0001862832
-0.0001983623
-0.0000868705
0.0002769219
0.0000331581
-0.0004619786
-0.0002202100
-0.0002861468
0.0002438335
-0.0005369093
0.0000162819
-0.0001045178
0.0004020526
-0.0002354856
-0.0004345737
-0.0003548874
-0.0000290053
-0.0001551164
-0.0002395185
-0.0002195886
0.0001232213
-0.0000988061
-0.0000776702
0.0001648267
0.0000436522
-0.0003036688
-0.0003119786
-0.0002745816
0.0002838921
-0.0005017807
-0.0000420942
-0.0000879604
0.0001632881
-0.0002846312
-0.0003275981
-0.0003545461
0.0001905678
0.0002069972
-0.0002624561
-0.0002737985
-0.0000899851
0.0001327343
0.0000573379
0.0002732241
0.0000155944
-0.0004959505
0.0001308420
-0.0002668586
-0.0000853520
-0.0005096980
-0.0002019762
-0.0002419882
0.0000678489
0.0000911215
-0.0002282357
-0.0001912516
0.0000893437
-0.0003912664
-0.0001882709
-0.0003408469
0.0002128327
0.0002993329
0.0001280809
0.0004460594
0.0000484528
-0.0004976193
-0.0002023394
-0.0004465625
0.0001997245
-0.0003292893
-0.0001099777
-0.0001062575
0.0001431726
0.0006209746
-0.0003613349
-0.0000409087
0.0007519470
0.0004087949
-0.0002516090
0.0003897544
0.0000301574
-0.0000129933
-0.0001242377
0.0001598999
0.0001651899
-0.0000240804
-0.0002688925
-0.0005103386
0.0000382894
0.0011065168
-0.0001430030
0.0000662602
0.0006869208
-0.0003024983
-0.0004414485
-0.0003562160
-0.0000294061
-0.0004293575
0.0001493616
-0.0002570826
-0.0000770395
0.0002768054
0.0003248801
0.0004155263
0.0000352810
-0.0004064579
-0.0002065094
-0.0004455848
0.0007908951
-0.0002715449
-0.0000664844
-0.0002363512
0.0000738704
-0.0003285734
-0.0003922794
-0.0003783392
-0.0001093361
-0.0003882367
-0.0000582189
-0.0003384710
-0.0002769289
-0.0001272618
-0.0001210598
0.0001384996
0.0002364956
-0.0000524450
-0.0002006853
-0.0004446173
0.0006273291
-0.0003617020
0.0006545254
-0.0000887022
0.0002743059
-0.0002140623
-0.0001036464
-0.0002074791
-0.0000149337
-0.0002941043
0.0006655154
-0.0001501503
-0.0002502106
0.0000327471
-0.0001077592
0.0003055173
0.0000894384
-0.0002007669
-0.0002259038
-0.0003249027
0.0001661214
-0.0004749671
0.0001129476
-0.0002472692
0.0000722070
-0.0000966862
-0.0002363737
-0.0001620437
-0.0001031488
-0.0002095584
-0.0000582853
-0.0002696449
-0.0003007866
-0.0000801442
0.0000356674
0.0002018899
0.0000680774
-0.0002843016
0.0002524629
-0.0004782809
0.0001257291
-0.0005595114
0.0005791969
-0.0001411718
0.0004888083
-0.0003367381
-0.0004329558
-0.0002885999
0.0002104488
-0.0000779988
-0.0002722049
-0.0001424378
-0.0002078837
-0.0002859918
0.0001290572
0.0001315939
0.0001801676
-0.0004647405
-0.0002993170
-0.0004611464
0.0000077346
-0.0003957028
0.0000433534
-0.0001598496
0.0008895725
0.0000945158
-0.0004586435
-0.0003813551
-0.0000070490
-0.0002849923
-0.0002073089
-0.0002424531
-0.0002659976
-0.0002807534
0.0002067770
0.0000967664
0.0000163853
-0.0003574552
-0.0001281191
-0.0005487445
0.0000549489
-0.0004045866
-0.0001663874
-0.0002081635
0.0001180755
-0.0001755427
-0.0004311623
-0.0001961733
-0.0000643633
-0.0003643430
-0.0000637412
-0.0002727572
-0.0002712585
-0.0000109168
0.0001164393
0.0004916530
0.0000988267
-0.0004689808
-0.0002285334
-0.0004423900
0.0000689335
-0.0003604651
0.0000152797
0.0001095881
0.0001750663
0.0000020223
-0.0004481153
-0.0003061484
-0.0000079163
-0.0003779472
-0.0001786407
0.0002183593
-0.0000225691
-0.0002909858
-0.0000518819
0.0001772061
0.0000203421
-0.0002990434
-0.0000458583
0.0004089403
0.0001798605
-0.0005337990
0.0000967257
-0.0001712718
0.0005331693
0.0002150618
-0.0002726026
-0.0002876129
-0.0000951025
-0.0002835889
-0.0002183863
0.0000744215
-0.0003052697
-0.0000559915
-0.0000721614
0.0002599116
0.0002881139
-0.0004992020
0.0001984583
-0.0005199028
0.0005975826
-0.0003357039
-0.0000301501
-0.0001743147
0.0003900529
-0.0002077379
0.0004485808
-0.0003905951
0.0002521611
0.0000653895
-0.0002611411
-0.0000315425
-0.0002328095
-0.0002647217
0.0006356415
0.0003254963
0.0000507119
-0.0002708227
-0.0002786207
-0.0003361828
0.0000830210
-0.0005571643
-0.0000104403
-0.0002070511
0.0007564667
-0.0001717520
-0.0003217589
-0.0002912407
0.0001169925
-0.0003027412
-0.0002966254
-0.0002785058
-0.0003164829
-0.0002872525
-0.0000763043
0.0004736805
0.0001342249
-0.0004396560
-0.0001610588
-0.0005465219
0.0002952219
-0.0004816648
-0.0001569398
0.0000332832
0.0003608906
-0.0002852571
-0.0002004391
-0.0001410330
0.0002270537
-0.0004038209
0.0001174824
-0.0002336853
0.0000369321
-0.0001659052
-0.0000038461
0.0002931451
0.0001199597
-0.0001884829
-0.0000504413
-0.0004384755
0.0003023203
-0.0005567329
0.0002019753
-0.0000864408
0.0000934626
-0.0001935930
-0.0000870749
-0.0000223662
0.0002523813
-0.0004745058
-0.0000355795
0.0004399257
0.0003710952
-0.0002648075
0.0001774960
0.0002256747
0.0004972241
-0.0002479051
-0.0002880366
-0.0002393550
0.0000249275
-0.0003287397
-0.0001210096
-0.0002556904
0.0001299453
0.0000350969
0.0001299534
-0.0001386785
-0.0000296673
-0.0000881329
-0.0000998259
0.0000610031
-0.0003061563
-0.0002706924
-0.0000233079
0.0002557199
0.0003317831
-0.0004483867
-0.0002570908
-0.0005681575
0.0003050304
-0.0000986935
-0.0000655170
-0.0002313614
0.0001091773
-0.0001909620
-0.0003939689
-0.0002407903
0.0000622705
-0.0004692650
-0.0002770745
-0.0003503202
-0.0000928335
-0.0002449602
-0.0000145634
0.0001217154
0.0003485518
-0.0003264694
-0.0002885809
-0.0002083594
-0.0000311043
-0.0003673251
0.0002566644
-0.0002031993
0.0002630160
-0.0001380964
-0.0004061946
-0.0003557639
-0.0000379744
-0.0004496553
-0.0002742677
-0.0003382641
-0.0002120821
-0.0001381087
0.0001784493
0.0003572398
0.0000877490
-0.0002125395
-0.0002229743
-0.0005122759
-0.0000194288
-0.0000401218
-0.0000373981
0.0003454473
0.0000998546
-0.0001033437
-0.0001528402
-0.0001565544
0.0001009962
-0.0002936290
-0.0000099301
-0.0003330425
-0.0002410604
0.0001254830
-0.0000695705
0.0003340408
0.0001704829
-0.0000794165
-0.0002503229
0.0000345087
0.0005634821
0.0006292179
0.0008086540
0.0011889674
-0.0002486089
0.0012517900
0.0011718961
0.0005028545
0.0014309862
0.0004675708
0.0016719969
-0.0006968456
-0.0005513224
0.0013943210
-0.0005767415
-0.0002881616
-0.0003312568
0.0005180635
0.0014722030
0.0004508872
0.0024660900
0.0028571734
0.0010258275
-0.0010429165
0.0006670451
-0.0015212606
0.0018254326
0.0011074941
0.0008499340
0.0004309482
0.0014580430
0.0002673575
-0.0026979263
0.0007999800
-0.0017059400
-0.0013449229
0.0013714099
-0.0007688243
-0.0007717163
0.0001543519
0.0006155478
0.0006976789
0.0010143488
0.0015850000
-0.0005981358
0.0013564365
0.0012657993
0.0004552488
0.0011616459
0.0005684212
0.0019602049
-0.0007415160
-0.0003956115
0.0014263810
-0.0005179361
0.0001483751
-0.0003669979
0.0004341606
0.0017854183
-0.0004663684
-0.0000803121
-0.0005341462
-0.0001185562
-0.0002067875
0.0001442301
-0.0002755449
-0.0003610072
0.0003550504
-0.0001085398
-0.0004306666
-0.0000657209
-0.0002546494
-0.0002424591
-0.0001845037
0.0000069715
0.0003140007
0.0001071436
-0.0003553192
0.0002696140
-0.0001817045
0.0002841675
0.0004294765
0.0005560949
0.0010088020
-0.0004356040
0.0008536224
0.0014304199
0.0005864406
0.0008564945
0.0005509432
0.0015374906
-0.0004082018
-0.0003977133
0.0007547748
0.0000090295
-0.0001399196
-0.0004565377
0.0003342560
0.0012151516
0.0005026674
0.0015239732
0.0021956138
0.0025227523
0.0042095588
-0.0020846774
0.0034353676
0.0038939639
0.0026854405
0.0028148938
0.0023618978
0.0047435850
-0.0008292092
-0.0009075555
0.0031160550
-0.0009932875
-0.0009909062
-0.0009804306
0.0021192306
0.0042509847
0.0002238005
0.0010035454
0.0018803343
0.0016189662
0.0026048146
-0.0011332441
0.0023805519
0.0025445469
0.0013066032
0.0025648388
0.0013374459
0.0032647522
-0.0007473470
-0.0006171762
0.0023842027
-0.0006407423
-0.0006241939
-0.0010367964
0.0011662801
0.0027251852
0.0002822759
0.0003374611
0.0004538053
0.0005908322
0.0009043174
-0.0005595728
0.0011747034
0.0010416611
0.0007376851
0.0009880399
0.0006043459
0.0014902758
-0.0003240092
-0.0005042955
0.0013100602
-0.0003959061
-0.0003393507
-0.0004837588
0.0005811678
0.0010575468
-0.0004585134
-0.0000210417
-0.0003682008
-0.0001469170
-0.0002127184
0.0001825136
-0.0001680584
-0.0003155529
0.0004133661
0.0000533689
-0.0002104427
-0.0002863658
-0.0003074041
-0.0001522959
-0.0002948996
-0.0000800909
0.0001191824
0.0001963789
-0.0004240059
-0.0001292653
-0.0005269424
0.0002180698
-0.0002661778
-0.0001920632
-0.0001447987
0.0001132781
0.0002309408
-0.0003011792
-0.0003408395
0.0002384070
-0.0000670590
-0.0000543334
0.0004384375
0.0001736999
0.0000243890
0.0001138442
0.0001795731
0.0000790813
0.0000324405
-0.0001533521
-0.0004673879
-0.0000628057
-0.0005430080
-0.0000890890
-0.0001209679
0.0002395646
-0.0000773168
-0.0002236988
-0.0003781437
0.0000832577
-0.0003174355
0.0005357645
-0.0003017316
-0.0002593050
-0.0000115184
0.0003512030
0.0000966996
0.0000873719
-0.0004681643
-0.0002964961
-0.0002960306
0.0003410483
-0.0003965269
0.0000721610
-0.0001110271
0.0001955904
-0.0002949571
-0.0004180757
-0.0003387192
-0.0000673264
-0.0003846742
-0.0002998460
-0.0000656078
-0.0003029847
-0.0002827160
-0.0000452952
0.0004146475
0.0014619558
-0.0004650688
-0.0001542073
-0.0005506907
0.0004746215
-0.0004840024
-0.0001459182
-0.0001951474
0.0000700587
-0.0003381190
-0.0002147739
-0.0003675496
0.0001703130
-0.0000498548
-0.0002691214
-0.0003114856
-0.0002042830
-0.0000906159
0.0002876027
0.0004222154
0.0001175478
-0.0004797954
-0.0002593046
-0.0004560097
-0.0000716154
-0.0004326976
0.0000873164
-0.0000901580
0.0014142935
0.0000824769
-0.0001158815
-0.0000674861
0.0000824405
-0.0004279492
0.0002363369
-0.0002389745
-0.0000606277
-0.0002695623
-0.0000763443
0.0003153766
0.0001488908
-0.0000051844
-0.0003038134
-0.0000244476
-0.0000679486
-0.0004781165
-0.0001230315
-0.0002581825
0.0011028355
0.0006626684
-0.0003853880
-0.0000457407
-0.0000180546
-0.0004723360
-0.0002830965
-0.0002736683
-0.0001385774
-0.0000685582
0.0000755289
0.0001031636
0.0001342528
-0.0004593677
-0.0001498316
-0.0005663831
0.0003658335
-0.0001966516
-0.0001712524
-0.0001051407
0.0003160840
-0.0002469102
-0.0003746898
-0.0003746692
-0.0000458596
-0.0002635614
-0.0001459238
-0.0001122162
-0.0002871790
-0.0000852754
-0.0000140103
0.0001236469
0.0002720063
0.0001512870
-0.0000236567
-0.0002666888
0.0004679925
0.0004901600
0.0010887037
0.0012388804
-0.0004702298
0.0013448686
0.0012088624
0.0007105245
0.0011138640
0.0008651816
0.0018021238
-0.0007766955
-0.0005469618
0.0009886509
-0.0005417749
-0.0002629435
-0.0004072989
0.0003488213
0.0016956476
-0.0005120851
-0.0000007540
-0.0002925836
-0.0000570913
-0.0001985362
0.0002615642
-0.0003286606
-0.0001969032
-0.0003999882
0.0003751385
0.0001151670
-0.0002630919
-0.0003517801
-0.0003103826
-0.0001933111
-0.0000413116
0.0002533125
0.0000632456
0.0000842868
-0.0001556036
-0.0004396235
-0.0000420870
-0.0004349401
0.0001380001
0.0000544118
0.0004418933
-0.0000873883
-0.0003382552
-0.0003521490
0.0002042586
0.0001803324
-0.0002147455
-0.0000282103
-0.0003066873
-0.0002135668
-0.0000747287
0.0004491924
0.0001139797
-0.0004501245
-0.0002295497
0.0000999006
0.0000678546
0.0006332014
-0.0014086469
-0.0019912130
0.0005393369
-0.0021357275
-0.0006427673
-0.0004884378
-0.0012629237
-0.0007343782
-0.0020924215
0.0005543951
-0.0005635222
-0.0012392336
-0.0000880019
-0.0004297835
0.0005863835
-0.0006238277
-0.0018170880
-0.0002191897
0.0001330704
0.0000321889
-0.0001534320
-0.0002494344
0.0001754084
-0.0002121940
-0.0001800200
-0.0002527407
0.0000309492
-0.0004264021
-0.0001264760
-0.0003373044
-0.0002919585
-0.0002850156
-0.0000070349
0.0002102189
0.0000630722
-0.0004952347
-0.0003141032
-0.0003295428
0.0001627695
-0.0001610284
-0.0001877446
-0.0000231715
0.0002997988
-0.0003028024
-0.0003874663
-0.0001857329
-0.0001024174
-0.0001793746
-0.0000288892
0.0000259483
-0.0002750696
0.0000359898
-0.0001167516
0.0002263281
0.0003397291
-0.0000186256
-0.0000731582
-0.0005337845
0.0001011153
-0.0005635243
-0.0000523855
0.0000924606
0.0001811029
-0.0002911933
-0.0004390381
-0.0003660288
-0.0000588797
0.0004652892
0.0005499740
0.0000554153
-0.0002037716
-0.0002567101
0.0001385181
0.0002135115
0.0001488297
0.0000653500
-0.0002416950
-0.0005617715
0.0001155465
-0.0002452380
-0.0001131916
-0.0001632591
0.0002227488
-0.0002902376
-0.0004325491
-0.0002007864
0.0001095421
-0.0003829176
-0.0002447860
0.0002455310
-0.0002677434
0.0000029271
0.0000730718
0.0001535110
0.0000251122
-0.0001531040
0.0000741411
0.0002783387
0.0007207726
-0.0004851806
-0.0000685306
0.0000387296
0.0005209634
-0.0002478613
-0.0001517144
-0.0001486174
0.0004604780
-0.0002680602
-0.0000103335
-0.0000413032
-0.0002029911
0.0000919413
-0.0000564045
0.0005519301
0.0000351115
-0.0001856918
-0.0003111194
-0.0005041699
0.0000124209
-0.0004057863
0.0003404665
-0.0001120720
0.0000772799
-0.0001975161
-0.0004481312
-0.0003818086
-0.0001050446
-0.0003126984
-0.0000193835
-0.0003196374
-0.0000961219
-0.0001698308
0.0000189675
0.0001743672
0.0001274842
-0.0003723011
0.0003682805
-0.0005126575
-0.0000778208
-0.0001310120
-0.0001530625
0.0000685261
0.0002293133
-0.0002318559
-0.0001211508
-0.0003524262
0.0000135357
-0.0002233113
-0.0001575775
0.0004623939
-0.0000809247
-0.0002854376
0.0002799091
0.0003999771
0.0002088329
-0.0002988645
-0.0002956334
0.0001364348
-0.0000877994
-0.0005169968
-0.0001383948
-0.0002424161
0.0000800499
-0.0000566486
-0.0002030608
0.0000638774
0.0000676359
0.0000854443
-0.0000607880
-0.0003465326
0.0000615453
-0.0002345495
0.0000707997
0.0001224618
0.0000567744
-0.0004457324
-0.0002732256
-0.0003861841
0.0000492167
-0.0004836594
-0.0000649443
-0.0001011587
0.0008602537
-0.0002267338
-0.0002989941
-0.0001662240
0.0001983200
-0.0004522349
-0.0000254664
-0.0002672330
-0.0003165236
-0.0002980230
0.0000930863
0.0004226685
0.0002801408
-0.0004989115
0.0001482940
-0.0002568537
0.0000221818
-0.0001858659
-0.0001794841
-0.0001344342
0.0001480960
-0.0000817869
-0.0003874856
-0.0001852169
-0.0001155816
-0.0004651369
-0.0000358014
-0.0002211137
-0.0002352281
0.0002669875
0.0002568747
0.0004973197
0.0001051658
-0.0000806459
-0.0001272895
-0.0003928449
0.0002499222
-0.0002070633
0.0000000601
-0.0001416954
0.0005569763
-0.0001250717
-0.0004539764
-0.0003697717
-0.0000112496
-0.0002844121
-0.0001530057
0.0002489656
-0.0000187376
-0.0002013541
-0.0001242278
0.0003932486
0.0002996149
-0.0004522977
0.0001188325
-0.0004506624
0.0003077831
-0.0003319453
0.0002714070
-0.0001666854
0.0001778376
-0.0002281235
-0.0003114223
-0.0001551108
-0.0000403771
-0.0004728873
-0.0002605298
-0.0001988633
-0.0002501135
-0.0002337189
0.0001790019
0.0000978027
0.0005423812
-0.0001769795
-0.0002381855
-0.0004118057
-0.0000737986
-0.0005265290
0.0001056806
0.0000144471
0.0001674083
-0.0002333726
-0.0004361743
-0.0003090025
0.0001831344
-0.0000158237
-0.0001279327
-0.0000701926
-0.0000575812
-0.0002648003
0.0000741873
0.0002250822
0.0004942079
-0.0000368492
-0.0002943726
-0.0004279276
-0.0000104579
-0.0003901959
-0.0001644319
0.0000848653
0.0001991091
-0.0001267018
-0.0001611338
-0.0002326254
-0.0000214706
-0.0004812751
-0.0001595063
-0.0002032760
-0.0000750593
-0.0002087561
0.0007188439
0.0005302242
0.0002967449
-0.0004188538
-0.0000864529
-0.0004248967
0.0000500567
-0.0000231564
-0.0001058511
-0.0002070969
0.0001881254
-0.0003412998
-0.0002857951
-0.0002669775
-0.0000306556
-0.0003608672
-0.0001527327
-0.0002887242
-0.0001341021
0.0002405529
-0.0000223557
0.0002574968
0.0001037270
-0.0002102067
0.0000004628
-0.0004416583
0.0011367743
0.0007914194
0.0014946737
0.0011905699
-0.0002441647
0.0007640205
0.0023702948
0.0008227188
0.0015407096
0.0003268487
0.0020442653
-0.0002335428
-0.0010998350
0.0009043274
-0.0007615095
-0.0000524950
0.0000326019
-0.0001770258
0.0012857835
-0.0007600187
0.0012636331
-0.0000194880
0.0006468448
0.0002809447
0.0009882395
-0.0001573192
0.0001999138
-0.0001370377
0.0007135260
-0.0002785812
0.0006477250
0.0002662170
-0.0007801599
-0.0001741795
-0.0004007445
0.0005274028
0.0006456207
-0.0010489078
-0.0000397163
-0.0005444949
0.0003143916
-0.0005271636
-0.0000897199
-0.0002362222
0.0001912268
-0.0001026514
-0.0000880316
-0.0000006285
-0.0000951713
-0.0000764131
-0.0000674801
-0.0002314945
0.0003401802
-0.0002271242
0.0001053671
0.0006107618
0.0002121887
-0.0003977413
-0.0001147572
-0.0005353213
-0.0000127473
-0.0005467612
0.0001251784
0.0001140594
0.0001057273
-0.0003173335
-0.0003785643
0.0003888389
-0.0000377149
-0.0003345884
-0.0002467264
0.0000164390
-0.0002010956
-0.0001729019
0.0000607479
0.0009086208
0.0007147376
-0.0004380363
-0.0001410840
-0.0003482318
0.0000167706
-0.0004528740
-0.0000973717
0.0001317256
0.0001337027
-0.0002681270
-0.0001551462
-0.0003895010
0.0000950771
-0.0003435262
-0.0002776490
-0.0002016054
-0.0002995811
-0.0001762685
0.0000000729
0.0001622663
0.0002180631
-0.0004010666
-0.0002860305
-0.0005262923
-0.0000637408
-0.0003402422
0.0001923084
-0.0001838768
0.0004767200
-0.0002891793
-0.0000300283
-0.0002987191
-0.0001024306
-0.0004580952
-0.0002333794
0.0000703437
-0.0001058579
-0.0002669209
0.0006725927
0.0004065223
0.0001321715
-0.0003407305
-0.0000907879
-0.0005298150
-0.0000059455
-0.0004991530
0.0001451029
-0.0002003458
0.0003755124
-0.0000329155
-0.0002339004
-0.0000031203
-0.0000696276
0.0000331898
-0.0000833596
-0.0001317868
-0.0002696876
0.0002208332
-0.0000723186
0.0002216543
0.0003037047
-0.0004064783
-0.0002587231
-0.0005349211
-0.0000471760
-0.0005150945
-0.0000167324
-0.0000774048
0.0003327244
-0.0002170526
-0.0002683486
-0.0001920611
-0.0000947034
-0.0004271171
-0.0000765016
0.0005768708
-0.0003210671
0.0001170358
0.0001311597
0.0003081803
0.0005341684
-0.0001169045
-0.0002557706
0.0004099685
-0.0000695871
-0.0004903017
-0.0001070898
-0.0002582521
0.0001672866
-0.0001796762
-0.0001386266
0.0004094487
0.0005259002
-0.0003442169
-0.0001600619
-0.0000925079
-0.0002444350
-0.0002340931
-0.0000067150
0.0003233447
0.0000447642
0.0002300070
-0.0001158329
-0.0003861522
-0.0000632687
-0.0005420415
0.0001402320
-0.0001421137
0.0002515625
-0.0001173897
-0.0002005717
-0.0003960196
-0.0000148172
-0.0002886373
0.0003753997
-0.0003183699
-0.0001769733
-0.0001613786
-0.0000189127
0.0003215460
0.0003161692
-0.0004413500
-0.0001408379
-0.0004655350
0.0000925913
-0.0005535270
-0.0001714985
-0.0002307322
0.0000922005
-0.0002558535
-0.0003510283
-0.0003990479
0.0001465025
-0.0004467571
-0.0002781789
-0.0003234529
-0.0002099167
-0.0002920670
0.0001154139
0.0003291037
0.0001497687
-0.0002058855
0.0000345743
0.0019338314
0.0006116380
0.0045466201
0.0008630796
0.0012918849
-0.0032923724
0.0023205204
0.0046368654
0.0029237647
0.0002109373
0.0036466801
0.0031875609
0.0000696293
-0.0011347365
0.0028432573
-0.0008715180
-0.0031179835
-0.0016593637
0.0034063251
0.0024564930
0.0088216873
0.0043267361
0.0192868428
0.0059091343
0.0082015547
-0.0125101038
0.0108773429
0.0180792914
0.0114908160
0.0036278514
0.0144180289
0.0152514303
-0.0000122043
-0.0044975556
0.0102218650
-0.0045154890
-0.0121441647
-0.0065316441
0.0133879538
0.0128216699
0.0068870601
-0.0012162237
0.0137616437
0.0018096975
0.0042801907
-0.0110013027
0.0065745069
0.0142159699
0.0092317548
0.0003023164
0.0126982339
0.0083507166
0.0002061240
0.0001750031
0.0086545276
-0.0009883626
-0.0095394027
-0.0069181665
0.0121229737
0.0078615651
0.0052095602
-0.0086976792
0.0085000552
-0.0040293134
-0.0009894968
-0.0087192612
0.0016809340
0.0081264749
0.0060004945
-0.0035574672
0.0096383054
-0.0003290800
0.0010648456
0.0061174107
0.0053335877
0.0046035069
-0.0064182096
-0.0066639229
0.0094730989
0.0018188305
-0.0033113159
0.0048555554
0.0015660248
0.0039214173
0.0004443206
0.0036067385
-0.0007936823
0.0029839822
0.0004136190
0.0067942646
-0.0016831646
0.0049493420
-0.0013195854
-0.0045449660
-0.0007160396
-0.0032759440
0.0035118668
0.0036979554
-0.0046796043
0.0004879673
0.0002299461
0.0031766156
0.0035021986
0.0019194943
0.0003947446
-0.0004772459
0.0007128236
0.0032281617
0.0018532260
0.0009668132
0.0009370623
0.0026293642
0.0004124810
-0.0028470175
0.0008951329
-0.0018850674
-0.0009354264
0.0003300338
-0.0001655726
0.0008705517
0.0058103059
-0.0040482883
0.0094649428
0.0005006220
0.0072706300
-0.0128083263
0.0107204202
0.0116584627
0.0079702099
-0.0007392871
0.0128249968
0.0087272219
-0.0010508027
0.0033316632
0.0109598012
0.0007649200
-0.0085844936
-0.0103360405
0.0164208626
0.0107279447
0.0061546082
-0.0134464014
0.0050222362
-0.0038515846
0.0056654144
-0.0127181893
0.0087674628
0.0035997333
0.0040148843
-0.0043325825
0.0108048957
0.0000695063
-0.0012101152
0.0113598001
0.0090650150
0.0069012646
-0.0072563525
-0.0125520372
0.0177911000
0.0078297170
0.0014067861
-0.0042226179
0.0086010886
0.0059388322
0.0059214991
-0.0097135881
0.0047575181
0.0150428307
0.0075269761
0.0090281631
0.0132499536
0.0138660856
-0.0030039570
0.0026467917
0.0079084895
-0.0002615420
-0.0027731499
-0.0042331152
0.0106224298
0.0067930823
-0.0008028576
-0.0073749039
0.0076695384
0.0016858469
0.0031740296
-0.0087106713
0.0035752343
0.0136195121
0.0069481589
0.0056642710
0.0115615325
0.0096360879
-0.0015161415
0.0034065700
0.0058561555
0.0030451938
-0.0025028530
-0.0044011762
0.0086838471
0.0049787009
-0.0138882201
0.0168827359
-0.0109707747
0.0109775074
0.0023971209
0.0161638164
-0.0010363522
-0.0024571350
-0.0059532895
0.0155335215
-0.0131685008
0.0092677847
-0.0048567800
-0.0117918339
-0.0056352535
-0.0094686479
0.0159239974
0.0129002708
-0.0221056012
0.0008973387
-0.0137304971
0.0138399731
-0.0162793168
0.0123357213
0.0077728146
0.0131979016
0.0030783088
-0.0049917965
-0.0058947153
0.0184761073
-0.0124020293
0.0127434495
-0.0064338454
-0.0089733348
-0.0022995547
-0.0088414301
0.0158277007
0.0103031728
-0.0176979379
0.0050914824
-0.0014089080
-0.0038432541
-0.0094039133
-0.0004602566
0.0037537824
-0.0020949524
0.0043070349
-0.0073276292
-0.0017073451
-0.0018155343
-0.0002021630
-0.0013039111
-0.0012146324
0.0076153796
0.0018411081
0.0027160730
0.0017958246
-0.0054497155
0.0039219080
0.0029955482
0.0100574659
-0.0050714551
0.0056231269
-0.0087786459
-0.0061227926
-0.0043466461
-0.0041029973
-0.0031782085
0.0006415283
-0.0121609514
0.0023324219
-0.0127086582
0.0061251087
0.0054466840
-0.0034764574
0.0056553707
-0.0102883383
-0.0044537516
0.0064996397
-0.0071626278
0.0085387883
-0.0032565983
0.0088479629
-0.0046398454
-0.0039821110
-0.0051156674
-0.0021633315
0.0059864867
0.0036393123
-0.0068684010
0.0053206925
-0.0043116752
0.0034145945
0.0013332909
0.0007724218
0.0032071528
-0.0098743500
-0.0023127431
0.0058625744
-0.0040380276
0.0036060008
-0.0100926827
-0.0053820419
-0.0161275831
-0.0121549785
0.0032287432
-0.0101292150
-0.0138018506
-0.0069996924
-0.0212421242
-0.0073664221
-0.0275905065
0.0046421306
0.0068376125
-0.0076657811
0.0086499212
-0.0021365016
-0.0011508231
0.0000560126
-0.0131616022
0.0025763577
-0.0137497481
-0.0105255729
-0.0134603021
-0.0018473744
0.0007199730
0.0007856214
-0.0165232904
-0.0076088432
-0.0183240381
-0.0063818727
-0.0241852250
0.0017674898
0.0126629908
-0.0032221621
0.0096440658
-0.0014078276
-0.0067133908
0.0043810225
-0.0043205665
0.0079778650
0.0043452206
0.0114223099
-0.0035914004
-0.0072970484
-0.0013295315
-0.0046664326
-0.0005660299
0.0022252075
-0.0084910801
0.0015193035
-0.0079104047
0.0051833552
-0.0042209603
-0.0020197803
-0.0018719492
-0.0101126772
0.0009864536
0.0007728611
-0.0067100816
0.0108418255
0.0139221448
0.0238049922
0.0006782961
-0.0148979095
0.0001532045
-0.0136407634
0.0074981092
0.0055472091
-0.0044508665
0.0029290540
-0.0008172271
0.0077588931
-0.0150886196
-0.0052174697
-0.0082220550
-0.0145394069
0.0078213720
-0.0041686342
-0.0133246090
0.0074368941
0.0104980351
0.0174153291
0.0011887976
-0.0079709244
-0.0021934999
-0.0068706675
0.0077504244
0.0056833583
-0.0031547432
0.0043078722
0.0015168185
0.0041262098
-0.0110361388
-0.0005895453
-0.0068373101
-0.0098961982
0.0039797475
0.0003266386
-0.0051682590
0.0009229433
-0.0004449463
-0.0016212962
-0.0024914694
0.0026162150
-0.0004622100
0.0030935263
-0.0029223484
-0.0013118000
-0.0052865474
-0.0017222975
-0.0055349052
-0.0007046944
0.0008672046
0.0012393101
0.0012668666
0.0002935263
-0.0018989591
0.0018372408
0.0033094042
0.0025057935
-0.0032454482
-0.0009045383
-0.0059094030
-0.0031543737
-0.0009034458
-0.0017801636
-0.0052754057
-0.0018138718
-0.0075598339
-0.0001319593
-0.0090249501
0.0021727872
0.0031062692
-0.0023190497
0.0027411556
-0.0031644209
-0.0015740266
0.0023917426
-0.0038568662
0.0032291320
0.0056501757
0.0058327157
0.0006656682
-0.0049611281
0.0010162559
-0.0056493827
0.0013273644
0.0013511154
-0.0025281044
-0.0001351803
-0.0020990858
0.0032100001
-0.0058066408
-0.0035036010
-0.0033417501
-0.0047166090
0.0034545856
-0.0030058087
-0.0063412859
0.0014019902
0.0022696875
0.0033096965
0.0009306780
-0.0011965430
-0.0007189394
-0.0010276404
0.0025775003
0.0015702753
0.0009637053
0.0013713026
0.0017374498
0.0004010215
-0.0025199637
0.0004452358
-0.0014091669
-0.0020049005
0.0004285740
0.0002772902
-0.0005834596
0.0015507787
0.0016227801
0.0049209608
0.0034592522
0.0059031014
-0.0040389098
0.0060027550
0.0065089477
0.0038209732
0.0038411545
0.0043615181
0.0074359883
-0.0013259718
-0.0006579056
0.0054124358
-0.0016003790
-0.0022896602
-0.0030431045
0.0044267324
0.0074883099
-0.0001883585
0.0005042755
0.0004537884
0.0006217214
0.0002624990
-0.0000203218
0.0001538456
0.0003466854
-0.0000215026
0.0002616406
0.0002333178
0.0003881498
-0.0001679159
-0.0000284287
0.0001519356
-0.0001053447
-0.0002530800
0.0004921324
-0.0001547310
0.0004278629
0.0002700736
0.0012791117
0.0022231448
0.0021714416
0.0030957894
-0.0015573797
0.0032216855
0.0032195785
0.0019240665
0.0028516187
0.0019316349
0.0042012446
-0.0008590397
-0.0010913927
0.0025885466
-0.0012422569
-0.0009623857
-0.0011980427
0.0014579516
0.0043060498
0.0015083886
0.0047356665
0.0056272031
0.0023384876
-0.0020835099
-0.0004556623
-0.0021432070
0.0045229831
0.0023811705
0.0012139496
0.0012947882
0.0028614462
0.0011200354
-0.0049992041
-0.0001230576
-0.0032389665
-0.0025153454
0.0022437546
-0.0011528739
-0.0017157348
0.0016574251
0.0046508699
0.0049353773
0.0003177833
-0.0054048852
0.0007799152
-0.0054868876
0.0014720954
0.0012461211
-0.0008107423
-0.0001995867
-0.0002845688
0.0019237295
-0.0048087351
-0.0025157301
-0.0029447031
-0.0026878682
0.0039346812
-0.0020769994
-0.0050483133
-0.0004592928
-0.0000837802
-0.0000195244
-0.0001434764
-0.0000884536
0.0003629027
-0.0003187155
0.0000380576
-0.0001518173
-0.0000214070
-0.0003227867
-0.0001851132
-0.0002037112
-0.0000209236
-0.0002990437
0.0000110732
0.0001639018
0.0000907439
0.0001533722
-0.0001862720
0.0003516285
0.0015845080
0.0019356923
0.0010757048
0.0003770736
-0.0005619636
0.0001981282
0.0020194436
0.0010203977
0.0008760371
0.0006581605
0.0018380222
-0.0002113423
-0.0017124788
0.0008419244
-0.0012549609
-0.0008879533
0.0003208509
0.0005240460
0.0004798097
0.0023128313
0.0070836523
0.0070242883
0.0003653628
-0.0102035556
0.0029904243
-0.0100640911
0.0005966731
0.0006653489
-0.0026807155
-0.0010945127
-0.0031367113
0.0041715366
-0.0078849974
-0.0059115391
-0.0034497583
-0.0031127466
0.0067256609
-0.0057918616
-0.0103392188
0.0040474125
0.0111658791
0.0110725758
-0.0004428269
-0.0161793726
0.0043645668
-0.0169939648
0.0006291285
0.0015438266
-0.0048646225
-0.0024005068
-0.0051380173
0.0071655649
-0.0123513768
-0.0095284749
-0.0061982232
-0.0056643510
0.0102377629
-0.0086316737
-0.0171261033
0.0015312820
0.0044153662
0.0043515066
0.0020313304
-0.0031525338
0.0010712106
-0.0032571285
0.0021400899
0.0013706962
0.0002192984
-0.0002498213
0.0010542396
0.0012693734
-0.0047515527
-0.0016094460
-0.0023615746
-0.0019916548
0.0030762990
-0.0021948136
-0.0030526190
0.0018938032
0.0064170392
0.0035281493
0.0008454547
-0.0041226669
0.0031671469
-0.0043656600
-0.0004472331
-0.0002556910
-0.0023824867
-0.0024048884
-0.0021752758
0.0025551382
-0.0062670344
-0.0043991526
-0.0034263687
-0.0024742313
0.0050877079
-0.0052087820
-0.0052878107
0.0006915065
0.0010819865
-0.0001092700
-0.0011530131
-0.0036752163
0.0020338036
-0.0035045233
-0.0032619333
-0.0017061743
-0.0035532190
-0.0025962831
-0.0045754088
0.0018532819
-0.0015378356
-0.0033117330
0.0002264558
-0.0008721238
0.0021218985
-0.0028357643
-0.0048103158
0.0004641485
0.0009130692
0.0013303232
-0.0012589658
-0.0035077143
0.0012557464
-0.0036213395
-0.0016313590
-0.0006449696
-0.0021311100
-0.0011446182
-0.0027804925
0.0015239058
-0.0007351788
-0.0022980463
0.0000735302
-0.0008027118
0.0018061275
-0.0014708532
-0.0038164829
-0.0004125394
-0.0000868935
-0.0004344444
0.0003649872
-0.0002451966
0.0002617398
0.0002247295
-0.0003194539
0.0000401619
-0.0001086170
-0.0002771679
-0.0001602730
0.0004444428
-0.0001687836
-0.0002549276
0.0002202393
0.0001194864
0.0001281826
0.0002500617
-0.0002620354
-0.0001067048
-0.0000242340
-0.0012762925
-0.0003759777
0.0011464613
-0.0000179628
0.0011491078
-0.0010366215
-0.0007166206
-0.0009653610
-0.0008058102
-0.0010854339
-0.0004124286
0.0005101282
-0.0002615362
0.0010272469
0.0005453829
-0.0006025887
0.0006503094
0.0006910251
0.0004030834
-0.0015602024
-0.0026757328
-0.0026837527
-0.0013854219
0.0005310432
-0.0010549987
-0.0042393300
-0.0019064253
-0.0045757954
-0.0017531650
-0.0057227141
0.0011234060
0.0015800926
-0.0026487351
0.0016463274
-0.0001187497
-0.0004132163
0.0002253486
-0.0027299774
0.0002450467
-0.0016794259
-0.0006011290
-0.0002049724
0.0014897028
-0.0009837739
0.0020332454
-0.0009788645
-0.0001769728
-0.0010416456
0.0007912951
-0.0009592744
-0.0004497557
0.0014710491
0.0011221988
0.0008411171
-0.0008762247
-0.0014913132
0.0017829910
0.0017458307
-0.0002108935
-0.0010752046
-0.0011499305
-0.0009167964
0.0001723675
-0.0004200291
0.0004200674
-0.0018232603
-0.0005420013
-0.0006946548
0.0000835906
-0.0011779305
-0.0000536890
0.0010576329
-0.0000089015
0.0003962948
-0.0003519726
-0.0003807157
0.0011264996
-0.0000060675
0.0009753217
0.0009289861
0.0017887280
-0.0017483614
-0.0027392579
-0.0003195395
-0.0023494491
-0.0006239027
-0.0000027497
-0.0015868555
0.0002282273
-0.0018700732
0.0007636247
-0.0010488402
-0.0009282629
-0.0005385828
-0.0016239032
0.0006261399
0.0000489179
-0.0023630636
0.0005948366
-0.0007280954
-0.0008071120
-0.0017776482
-0.0022719578
0.0004076071
-0.0017202803
-0.0024896793
-0.0010960666
-0.0020667380
-0.0010679535
-0.0032525477
0.0005862243
0.0004062027
-0.0015021001
0.0008561354
-0.0003843104
0.0001161075
-0.0002017784
-0.0024578823
-0.0004453091
-0.0010522885
-0.0014668637
-0.0008337642
-0.0002526563
0.0001494758
-0.0001873032
-0.0016233211
-0.0008221243
-0.0004784855
-0.0008665085
-0.0010552571
0.0000371544
0.0007478080
-0.0004173554
0.0006528092
0.0003433015
0.0000111256
0.0001670510
-0.0006018151
-0.0006141571
-0.0014984679
-0.0027373355
-0.0011684131
0.0013650745
-0.0002518756
0.0018551624
-0.0027579042
-0.0011837952
-0.0010530143
-0.0006838978
-0.0017885690
-0.0006596968
0.0018411889
0.0003501504
0.0011357483
0.0006695302
-0.0010434577
0.0010445941
0.0008666457
0.0005178389
-0.0004589303
-0.0003909436
-0.0000024568
0.0032180090
-0.0015663821
0.0034791202
-0.0002940892
0.0005273125
0.0003074881
0.0011331767
0.0003708766
-0.0013234696
0.0012658663
0.0023473107
0.0003092436
-0.0007110776
-0.0021823488
0.0025061578
0.0037355073
0.0004242141
0.0014269622
0.0022824916
0.0028826498
0.0038259014
-0.0020911372
0.0037590675
0.0040634530
0.0022113331
0.0031780464
0.0027228635
0.0054629386
-0.0014165324
-0.0009936149
0.0035171342
-0.0010510726
-0.0011080851
-0.0016470372
0.0021698143
0.0045782082
-0.0002269516
0.0000241361
0.0003025480
0.0000258112
0.0001687555
0.0001057744
-0.0000108501
-0.0004184765
-0.0001521507
0.0000262172
-0.0003933150
-0.0002148854
-0.0001311301
-0.0002516673
-0.0002088021
0.0000268909
0.0001001380
0.0000268393
-0.0004508829
-0.0002045646
0.0000433127
0.0012768772
0.0016559982
0.0019023966
0.0030481209
-0.0013060793
0.0028245619
0.0027895488
0.0014624241
0.0022758773
0.0014263962
0.0039095108
-0.0011939692
-0.0008691818
0.0023974818
-0.0007856851
-0.0003483905
-0.0008824447
0.0011980368
0.0036127990
0.0009903068
0.0020668860
0.0037792085
0.0014100014
-0.0004658138
-0.0013209389
-0.0000397903
0.0037918736
0.0017549144
0.0005640365
0.0016147328
0.0020802595
0.0003506760
-0.0021233504
0.0009606622
-0.0015161701
-0.0019995321
0.0006081993
0.0008003440
0.0002515446
0.0016713216
0.0025478979
0.0050699379
0.0045515607
0.0072555608
-0.0044733775
0.0075818103
0.0084456708
0.0045128643
0.0052618365
0.0051192568
0.0095435043
-0.0022783347
-0.0007196177
0.0067424519
-0.0021578266
-0.0027348726
-0.0034576020
0.0047158187
0.0085471502
0.0013999818
0.0005955305
0.0039470539
0.0030974592
0.0044747596
-0.0033349545
0.0043416766
0.0056585514
0.0030322294
0.0029961373
0.0034908363
0.0056961391
-0.0014077463
-0.0005207065
0.0050204511
-0.0011594628
-0.0023440026
-0.0026697546
0.0035751155
0.0054331965
0.0007887146
0.0009103926
0.0020724133
0.0014271402
0.0014271031
-0.0015469457
0.0020691616
0.0027103679
0.0013883312
0.0010266793
0.0017926906
0.0019363416
-0.0002074496
-0.0000532808
0.0019981717
-0.0001232835
-0.0015409177
-0.0012385742
0.0018160098
0.0023466343
0.0004854797
0.0012750455
0.0028313385
0.0024102381
0.0035260038
-0.0024015049
0.0035703012
0.0042503539
0.0020587333
0.0024222427
0.0027881121
0.0048393916
-0.0013389485
-0.0002406382
0.0031786592
-0.0006187922
-0.0012277201
-0.0018367699
0.0023487193
0.0044011251
0.0015649596
0.0020986672
0.0053901030
0.0042722798
0.0071043671
-0.0047309636
0.0074753334
0.0081856873
0.0045070217
0.0048343114
0.0052561544
0.0093967810
-0.0023362907
-0.0004860277
0.0068712423
-0.0021238408
-0.0024274727
-0.0035473142
0.0050680960
0.0088802134
0.0004077629
-0.0012493791
0.0006610655
-0.0012999330
-0.0009215363
-0.0008208876
-0.0004419175
-0.0002892411
0.0004329048
-0.0012966923
0.0004579197
-0.0012582267
0.0004536865
0.0006995931
0.0001034676
0.0014515552
-0.0001894845
-0.0006741899
0.0007516487
-0.0008150731
-0.0007251444
0.0008868935
0.0005726989
0.0008175220
-0.0000010626
0.0011273230
-0.0002694401
0.0003514552
0.0000736330
0.0009597801
0.0001826072
0.0006897641
-0.0004135650
-0.0009940389
-0.0001940944
-0.0005586630
0.0004469807
0.0005686862
-0.0010377335
0.0008622928
-0.0005630595
0.0003700681
-0.0003372845
-0.0001406614
-0.0001010526
0.0000678729
-0.0003152736
-0.0001011440
0.0002382534
-0.0001187229
-0.0004231522
-0.0001714924
-0.0002448938
-0.0003016982
-0.0000003100
-0.0000920120
0.0002866291
0.0003550974
-0.0004662025
-0.0001335892
-0.0001711517
-0.0005885697
-0.0000249108
-0.0002551544
-0.0002606071
-0.0001157974
-0.0002028299
0.0001072580
-0.0000098123
-0.0005166562
0.0002971090
-0.0002735819
-0.0002145997
0.0003756457
0.0008878696
0.0007144859
0.0000304234
-0.0003895125
0.0002417753
-0.0000681063
-0.0002629119
0.0005115571
-0.0002449610
-0.0001620765
0.0000647894
0.0004112216
-0.0002147533
-0.0002489444
-0.0003806851
0.0000535801
-0.0004848467
-0.0002608605
0.0004140549
-0.0002170178
-0.0001338203
0.0000969091
0.0004709778
0.0001096205
-0.0003315835
0.0005532174
-0.0007206284
0.0010207615
-0.0000634758
0.0008627072
0.0000339744
0.0003982196
0.0000383710
0.0001665294
-0.0000588902
0.0008644573
-0.0004873557
0.0010777416
-0.0003915600
-0.0008342790
-0.0000907169
-0.0003687881
0.0006031504
0.0011404858
-0.0010646693
-0.0001367363
-0.0004675043
0.0000563758
-0.0005668414
0.0000164835
-0.0002074206
0.0004111427
-0.0003211703
-0.0003323507
0.0000552563
-0.0000457938
-0.0001872604
-0.0002634603
-0.0002812210
-0.0000738449
-0.0002609528
-0.0000302885
0.0001178334
0.0000693244
-0.0004267357
-0.0002364328
0.0003812190
-0.0000622590
-0.0005409866
0.0004176431
0.0000349637
0.0002934435
-0.0002810983
-0.0000460332
-0.0003326476
-0.0000705296
-0.0003629946
0.0001184863
-0.0001431592
-0.0002468942
-0.0002280961
-0.0000244407
0.0001516138
0.0001553795
-0.0004448316
-0.0002785001
-0.0004801033
0.0008047581
-0.0003891257
-0.0002056090
0.0004619036
0.0000624040
-0.0003205789
-0.0004308421
-0.0001674527
0.0002878677
-0.0002060260
-0.0000605299
-0.0002449579
-0.0001193564
0.0001135373
-0.0000013879
0.0000982248
0.0000447598
0.0002259920
-0.0003096525
-0.0004228847
0.0000742271
-0.0005222407
0.0005083243
-0.0002197360
0.0000924542
-0.0003345301
-0.0003601557
-0.0001445080
-0.0000021799
-0.0003267116
-0.0001270167
-0.0003530816
-0.0001158257
-0.0002806334
0.0010024146
0.0000950785
0.0000895221
-0.0002030893
-0.0000178597
-0.0004885503
0.0002228481
-0.0004946059
-0.0001864266
-0.0002615862
0.0001687813
-0.0002729833
-0.0004006837
-0.0003814771
-0.0000716809
-0.0004085910
0.0004252587
-0.0003486002
-0.0001756221
0.0003062220
0.0000719494
0.0002306846
0.0000507228
-0.0004861124
-0.0001580760
-0.0003274901
-0.0000765286
-0.0004998630
-0.0001949707
-0.0001218264
0.0000678754
-0.0002491185
-0.0003801689
-0.0001668957
0.0000039563
-0.0004279366
-0.0001865628
-0.0002440046
-0.0002843869
-0.0002532219
-0.0000772648
0.0005258604
0.0002038727
-0.0002851610
-0.0000812113
-0.0004116968
0.0001833156
-0.0004247624
-0.0000072734
-0.0000638676
0.0003780504
0.0000548024
-0.0004011192
-0.0002875911
0.0005617983
-0.0004829905
-0.0001430512
-0.0001038893
-0.0002739222
-0.0001232065
-0.0001208022
0.0001851918
0.0000713708
-0.0003954941
-0.0002740932
-0.0003453508
-0.0000755367
-0.0001440732
-0.0002139598
-0.0002195799
0.0000618485
-0.0001437619
-0.0001766561
-0.0000718853
0.0001072730
-0.0004823211
-0.0000975967
-0.0002253822
0.0001160988
-0.0000959616
-0.0001307366
0.0002635226
0.0000376373
-0.0003404100
-0.0001860676
-0.0003043825
-0.0000862592
-0.0002666507
-0.0000265536
-0.0001485116
0.0003709833
-0.0003143329
-0.0002207825
-0.0003964478
0.0001724550
0.0007536988
-0.0002228072
0.0004659769
-0.0002429994
-0.0001568992
-0.0000290135
0.0001017647
0.0003075835
-0.0003592419
-0.0002375335
-0.0005612160
-0.0000694273
-0.0002655685
-0.0001368566
-0.0001998392
0.0009069036
0.0000643586
-0.0003998483
-0.0001960473
0.0001413706
0.0000740275
-0.0000318002
-0.0001981785
-0.0002291564
0.0001771801
-0.0000312461
0.0005006848
0.0004013670
-0.0001725840
0.0000600235
-0.0004250784
0.0002823100
-0.0003703286
0.0000666721
-0.0002510313
0.0002577029
-0.0001295724
-0.0004464165
-0.0003731177
0.0002725615
-0.0003251312
0.0001560803
-0.0003211441
-0.0003204397
-0.0002090256
-0.0000847656
0.0001912547
0.0000404479
-0.0001347976
-0.0001420961
-0.0003928886
-0.0000592215
-0.0003677208
-0.0001842042
-0.0001592934
0.0005304052
-0.0001577193
-0.0004425862
-0.0003542551
-0.0000085185
-0.0004844710
-0.0001678411
-0.0001674548
0.0000123527
-0.0002902966
0.0000219273
0.0001224529
0.0001592600
-0.0004012690
-0.0001894937
-0.0005296594
0.0000698983
-0.0004007631
-0.0001069127
0.0000210368
0.0000796654
-0.0003431137
-0.0003732760
-0.0003711153
0.0000192762
0.0001250934
-0.0001779891
-0.0000254149
-0.0001166566
0.0000916564
0.0005299524
0.0005216712
0.0001176938
-0.0004909001
-0.0002891187
-0.0002632013
0.0003746790
-0.0005011967
0.0001505065
-0.0000311429
0.0000615337
-0.0003049224
-0.0003059853
-0.0003821406
-0.0001037394
-0.0003839384
-0.0001429041
-0.0001842993
-0.0000737947
-0.0000970685
-0.0000695421
0.0003191415
0.0000409031
-0.0004872562
-0.0002797119
-0.0006874659
0.0008068874
0.0000178142
0.0005269687
0.0001100278
0.0007231974
-0.0003537168
0.0002749439
-0.0001552372
0.0011240979
-0.0005650802
0.0005855240
-0.0003977442
-0.0008657861
-0.0000574825
-0.0004700764
0.0004565750
0.0006874038
-0.0010014770
-0.0001271177
0.0001360683
0.0003829455
-0.0005646363
-0.0001156243
-0.0001910644
0.0002755166
-0.0000441719
-0.0000859293
-0.0002973874
0.0000662403
-0.0004655742
0.0002654516
-0.0003489476
0.0000787613
0.0001111931
-0.0000244670
0.0004452372
0.0001315041
-0.0003424744
-0.0001814486
-0.0004357103
-0.0000618330
-0.0005116264
0.0002729770
-0.0000898125
0.0002421543
-0.0001072031
-0.0001320385
-0.0003265337
-0.0000844744
-0.0001335300
-0.0001931761
0.0001065393
-0.0003125041
0.0000800017
-0.0001319585
0.0000994051
0.0001881683
-0.0004213413
0.0000519259
-0.0005741859
0.0008468077
0.0001206819
0.0005450396
0.0000126212
0.0005526997
-0.0000652132
0.0002003676
-0.0000496271
0.0008945778
-0.0001364238
0.0010049525
-0.0001570398
-0.0008108717
-0.0000271560
-0.0007706661
0.0009459565
0.0004880904
-0.0010753240
-0.0001520902
-0.0001545532
0.0000362645
-0.0003358986
-0.0000910335
0.0000965034
0.0005103457
-0.0003218981
0.0001053694
-0.0003443257
0.0000171978
-0.0003166828
-0.0002658693
-0.0002034236
-0.0002592441
-0.0002072560
-0.0000395137
0.0012055817
0.0001167995
-0.0002544415
0.0004210325
-0.0000013361
0.0000750189
0.0000550063
0.0012982201
0.0022221821
-0.0009693043
0.0021800182
0.0013752530
0.0005097479
0.0017524574
0.0013877395
0.0023564819
-0.0011993595
0.0000757348
0.0016788639
0.0001517597
0.0002644607
-0.0009782758
0.0010915807
0.0025598683
-0.0001179199
-0.0004215426
-0.0009019774
0.0001280586
0.0007433726
-0.0003433911
0.0006991788
-0.0000788641
0.0000442027
0.0004488710
-0.0000779873
0.0004447883
-0.0004235471
0.0004475023
0.0003653615
0.0002030408
0.0006313809
-0.0005824381
0.0002336754
0.0010717500
-0.0005281982
0.0004577167
-0.0004879036
-0.0001419252
0.0000634095
0.0002116413
-0.0002206464
-0.0001511981
0.0004133702
0.0003790655
-0.0002356440
0.0004651059
-0.0002965301
-0.0002486633
0.0000191266
-0.0000177004
0.0006190138
0.0000413483
-0.0000255584
0.0002567689
-0.0001689172
0.0001521357
0.0001415678
0.0005416597
0.0021100958
-0.0008551541
0.0018097747
0.0011204694
0.0003062345
0.0007331998
0.0006329380
0.0010730713
-0.0007353766
0.0001064576
0.0013356196
0.0000062025
0.0004061905
-0.0008255647
0.0010202559
0.0016267811
-0.0006367810
0.0009490301
0.0000520182
0.0007782212
-0.0000863959
0.0007325867
-0.0003537227
0.0001935716
-0.0001868561
0.0007924303
0.0000458127
0.0006701169
-0.0003865912
-0.0008916142
-0.0001454913
-0.0008050274
0.0003692364
0.0007223591
-0.0007423788
0.0003157103
-0.0004033135
0.0002628098
-0.0004280167
-0.0001898529
0.0000055818
0.0005952982
-0.0001282964
0.0000327867
0.0004036567
0.0001851421
-0.0004609749
-0.0001260987
0.0003809439
-0.0000218285
-0.0000489239
0.0003302552
0.0000921835
0.0002611946
-0.0003958188
-0.0000020186
-0.0001959365
-0.0000549595
-0.0004656871
-0.0000769973
-0.0001472853
0.0000609810
-0.0003403545
-0.0004241381
-0.0002200880
0.0006438873
-0.0003132931
-0.0002091079
-0.0001256149
-0.0002074337
-0.0000460961
0.0000546194
0.0001881595
0.0001103837
-0.0003310693
-0.0000286608
0.0001887972
0.0006731411
0.0004874163
0.0009423251
0.0012730996
-0.0006890573
0.0011469687
0.0011498242
0.0007389608
0.0017302596
0.0004812397
0.0018827103
-0.0004303040
-0.0005574675
0.0016601691
-0.0003202998
-0.0003018625
-0.0001447998
0.0006190064
0.0026530403
-0.0004711432
0.0017772269
0.0009329799
0.0017904829
0.0014072322
-0.0003481784
0.0011009844
0.0017380531
0.0007533409
0.0018778523
0.0008391045
0.0026112888
-0.0008385131
-0.0009848780
0.0009768309
-0.0012362681
0.0000068685
0.0000121254
-0.0001420687
0.0018226739
-0.0008541047
0.0016186007
0.0004276370
0.0012372778
0.0001453448
0.0006902921
-0.0004408015
0.0008933412
0.0000895728
0.0016673796
-0.0004863002
0.0015934189
-0.0004088301
-0.0006589084
-0.0002163100
-0.0004927339
0.0006398202
0.0010181531
-0.0013286635
0.0006153315
-0.0009681893
0.0017394159
0.0004206761
0.0012734979
0.0004898646
0.0009994116
-0.0003472353
0.0008421069
0.0001000192
0.0017624443
0.0000357754
0.0016098236
-0.0002251038
-0.0014203372
-0.0002892098
-0.0012486397
0.0006994079
0.0009633419
-0.0014983905
0.0000476474
-0.0006680593
0.0038577580
0.0019016921
0.0033459422
0.0018345319
0.0002966284
0.0011997288
0.0030104803
0.0011509003
0.0035499017
0.0004731492
0.0043104105
-0.0008631814
-0.0022764788
0.0012772050
-0.0025084577
0.0008305201
0.0012388251
-0.0012123272
0.0024135508
-0.0010613748
0.0043125031
0.0029779719
0.0037845045
0.0021516404
0.0011794390
0.0009485934
0.0035848906
0.0014111698
0.0045429236
0.0003108907
0.0055458113
-0.0011912976
-0.0034284291
0.0009856536
-0.0030502536
0.0009433188
0.0014095165
-0.0018565795
0.0021284237
-0.0009909593
0.0016973820
0.0002095816
0.0010860301
0.0011497148
0.0011174415
0.0005906276
0.0000703200
-0.0000367716
0.0016500007
-0.0001655987
0.0011816434
-0.0006490830
-0.0008363545
-0.0000539602
-0.0017310069
0.0005666578
0.0017591907
-0.0013210478
0.0006849500
-0.0012877273
0.0025713102
0.0013629727
0.0019892488
0.0002547457
0.0015957654
-0.0003003231
0.0018349867
0.0002672943
0.0023467362
-0.0007061834
0.0022548430
-0.0006817261
-0.0022696359
-0.0002470082
-0.0021555261
0.0016568525
0.0015714016
-0.0019272052
0.0002329632
-0.0004379838
0.0033666598
0.0024069054
0.0031350443
0.0030336289
-0.0006988375
0.0025201614
0.0042361388
0.0019878369
0.0041431662
0.0012169162
0.0059519522
-0.0012283730
-0.0016958841
0.0023198462
-0.0022875049
0.0000134486
-0.0001152859
0.0001247463
0.0037942189
-0.0002239832
0.0018444359
0.0019476143
0.0029050174
0.0029093773
-0.0004772602
0.0028161022
0.0035894879
0.0031162684
0.0032847012
0.0014087772
0.0044924179
-0.0010915333
-0.0015805844
0.0029686263
-0.0015764279
-0.0004992113
-0.0005646040
0.0008770404
0.0037639251
-0.0004449440
-0.0002492913
-0.0008836939
-0.0004283252
0.0000092612
0.0011450899
0.0000450302
-0.0009637204
-0.0005228963
-0.0005222356
-0.0001774978
-0.0007237127
-0.0003175386
0.0005357867
-0.0001009111
0.0000583183
0.0003516582
-0.0000702923
0.0003415641
-0.0001335000
-0.0000126319
-0.0011449944
-0.0011875709
-0.0009212739
0.0003065120
-0.0004644144
0.0003297149
-0.0013657774
-0.0005458079
-0.0004414280
-0.0002559205
-0.0013032833
-0.0000082434
0.0013729476
-0.0000973337
0.0004051154
-0.0003148213
-0.0007310405
0.0005116071
-0.0001233233
-0.0005322005
0.0000785856
-0.0004748382
-0.0000785937
-0.0001993100
0.0001267951
0.0001022511
-0.0002117076
-0.0002166480
0.0000277640
-0.0003789512
-0.0000335699
-0.0002423298
-0.0002068068
-0.0001311622
0.0001275767
0.0001148467
0.0000150909
-0.0004572289
-0.0000357948
-0.0002758740
0.0003033242
-0.0003142649
-0.0000918211
-0.0001886546
0.0000656099
-0.0002608989
-0.0003542519
-0.0003299680
-0.0001158113
-0.0002708278
-0.0001505050
-0.0002281835
0.0000808543
-0.0002326763
-0.0000668738
0.0004822267
0.0000998466
-0.0003941102
0.0000513872
-0.0001986442
0.0005908737
0.0015267947
0.0008406821
0.0015146600
-0.0002591258
0.0015481916
0.0017019458
0.0007438698
0.0013756764
0.0005557958
0.0017147028
-0.0008042460
-0.0001954721
0.0010711817
0.0000906234
-0.0001355523
-0.0004709781
0.0006848757
0.0029074298
-0.0005007124
-0.0000243087
-0.0000619930
0.0002653429
-0.0000988037
0.0001324945
-0.0003224211
-0.0004259750
-0.0001660893
0.0000742476
-0.0003727551
-0.0001235731
-0.0003476230
-0.0001906257
-0.0002373164
0.0002829610
0.0001710197
0.0005534541
-0.0003036307
-0.0002183510
-0.0004114053
-0.0000822169
-0.0004057680
-0.0000502949
0.0002586270
0.0002091637
-0.0002725393
-0.0003784206
-0.0001830801
0.0003371889
-0.0003709386
-0.0002626487
-0.0000514123
-0.0001499794
-0.0002736502
-0.0000495790
0.0004906231
0.0000111760
-0.0003701835
0.0000272079
-0.0003100337
0.0005332483
-0.0004083991
0.0001524729
-0.0000190675
0.0001768377
0.0001360236
-0.0001005023
-0.0001694890
-0.0000950266
-0.0004430262
-0.0001696471
-0.0002000451
-0.0002118206
-0.0002382169
0.0001233154
0.0002157402
0.0002250607
-0.0004368777
-0.0000110736
0.0000349615
0.0023569524
0.0014179591
0.0021039723
0.0017457707
0.0002998057
0.0014828490
0.0024126977
0.0011031973
0.0027777631
0.0002902785
0.0034799841
-0.0007523399
-0.0017775029
0.0013402215
-0.0015932154
0.0001879933
0.0004857928
-0.0008113219
0.0018808000
-0.0003987686
0.0015333258
0.0009914509
0.0018965459
0.0017496645
-0.0002823239
0.0011926360
0.0018210768
0.0006681227
0.0023649334
0.0003462713
0.0024668620
-0.0008498055
-0.0009312597
0.0014376836
-0.0012247982
0.0003154252
0.0002091477
-0.0000050585
0.0019065430
-0.0002705447
0.0009402880
0.0000352164
0.0004923469
0.0002071081
0.0004757298
-0.0002079492
0.0004556178
-0.0001529800
0.0007146649
-0.0003846835
0.0005776563
-0.0001281074
-0.0009247022
-0.0002926492
-0.0005012988
0.0005503915
0.0004990465
-0.0001789169
0.0000654830
-0.0001870790
0.0005741321
0.0007624193
0.0009447599
0.0013140480
-0.0006592705
