200,1,10,8,0.010000,0.010000,8192,Rectangle
0.0068940200
0.0000695496
0.0142156089
0.0127791155
0.0002673693
-0.0038638507
-0.0045327205
0.0072153199
-0.0012319688
0.0066808366
0.0018545626
0.0008673967
-0.0020314893
-0.0017427787
0.0001824098
-0.0009029695
-0.0014682121
0.0008778843
-0.0006453692
0.0032644287
-0.0002422718
0.0081091257
0.0002945809
-0.0025518300
0.0111084941
-0.0099677118
-0.0079813839
0.0064762795
-0.0060981008
0.0132331697
-0.0008118496
0.0057952862
0.0010566624
-0.0007638532
0.0080697494
-0.0063344275
-0.0060841223
0.0040022752
-0.0038858130
0.0082044687
0.0009471651
0.0009910022
-0.0012756711
-0.0011633023
0.0007213254
-0.0011257253
-0.0014198251
0.0009232867
-0.0005699271
0.0023998647
0.0001358827
0.0010329884
-0.0003105016
-0.0001160103
0.0016737725
-0.0011399228
-0.0013798619
0.0011032630
-0.0005106671
0.0020649858
0.0003171262
0.0007315054
-0.0004081342
-0.0002494674
0.0005725305
-0.0006477467
0.0003532568
0.0004310367
-0.0004817079
0.0012032709
0.0001748580
0.0002888180
-0.0007958231
-0.0007282452
-0.0000930094
-0.0002056944
0.0005420402
0.0002494497
0.0008438426
0.0003885361
0.0003410551
-0.0000367776
-0.0005974525
-0.0002559159
-0.0000928339
-0.0002060091
0.0001959748
0.0004932481
-0.0000219629
0.0005335681
0.0008652655
0.0005663109
-0.0007986432
-0.0006372892
-0.0001310434
0.0000496429
0.0001660253
-0.0001774829
0.0002227965
0.0009358374
0.0006928049
0.0004841133
-0.0009773456
-0.0007128996
-0.0005155770
0.0003989323
0.0002216453
-0.0001584186
0.0001932050
0.0002397294
0.0004975048
-0.0001713249
-0.0009554012
-0.0006045304
-0.0004318287
0.0007496720
0.0002959820
-0.0001512117
0.0000928199
0.0003003247
0.0008413179
-0.0003600912
-0.0010037051
-0.0002670342
-0.0008727028
0.0003750507
0.0001758842
-0.0000369896
0.0001255450
0.0000974294
0.0008344410
-0.0000496007
-0.0009074075
-0.0004768085
-0.0008590327
0.0003219792
0.0010193377
0.0001785045
0.0002331160
0.0002189250
0.0003624458
-0.0004912341
-0.0010325581
-0.0006247564
-0.0010524212
0.0005099121
0.0004582722
-0.0002969308
0.0003209550
-0.0001010529
0.0004482210
-0.0002292850
-0.0010031425
-0.0007143890
-0.0008392523
0.0012800487
0.0004211827
-0.0004047284
0.0003453467
-0.0002813882
0.0006518699
-0.0003228905
-0.0008597559
-0.0007282912
-0.0009100603
0.0004848034
0.0002656232
-0.0000848477
0.0003963371
0.0018335907
0.0009806943
-0.0003397642
-0.0008231123
-0.0004638876
-0.0006430919
0.0003448298
0.0000854107
-0.0001923061
0.0007466662
0.0002782036
0.0005945780
-0.0003783752
-0.0011133874
-0.0005615725
-0.0008219157
0.0004788929
0.0004504673
-0.0002331432
0.0001572841
-0.0001126601
-0.0000014700
0.0000131277
-0.0006507225
-0.0004801210
0.0002606384
-0.0000664318
-0.0002235022
0.0004832368
0.0003383381
0.0005654544
0.0011161545
0.0000871616
-0.0008203483
-0.0004026542
-0.0000132688
-0.0002535280
-0.0001957848
0.0001342226
-0.0001809452
0.0015545549
0.0012075403
-0.0001432062
-0.0007143936
-0.0006801894
-0.0005190158
0.0001546099
0.0008659045
0.0000748507
0.0002320933
0.0003863768
0.0003661998
-0.0003032550
-0.0001308106
-0.0002177145
-0.0002792662
0.0006759968
0.0005241622
-0.0003783451
0.0002598513
-0.0001079717
0.0005004676
-0.0004630855
-0.0008444575
-0.0003414639
-0.0007587287
0.0005564465
0.0007251942
0.0003867502
0.0004722008
-0.0002763909
0.0011486529
-0.0005538982
-0.0006114800
-0.0007215943
-0.0007864933
0.0004253396
0.0003764364
-0.0002388949
0.0003487462
0.0005288723
0.0005650380
-0.0004474065
-0.0009767896
-0.0004521377
-0.0006464665
0.0008341079
0.0004870874
-0.0004115039
0.0005287469
-0.0001853379
0.0004695657
-0.0004782161
0.0001518128
-0.0006852415
-0.0008323964
0.0004307851
0.0002303088
-0.0002640397
0.0004236130
-0.0001911847
0.0007107089
-0.0005344635
-0.0008844766
-0.0005472212
-0.0005299807
0.0010486188
0.0003954199
-0.0003844181
0.0011225223
0.0003142142
0.0004945274
-0.0001904547
-0.0003913147
-0.0006979075
-0.0010887474
0.0009277737
0.0005281790
-0.0003903399
0.0005759393
0.0003862867
0.0004831161
-0.0005209226
-0.0004370846
-0.0006446424
-0.0009670058
0.0009730585
0.0011635086
-0.0003945256
0.0003961128
-0.0000558095
0.0007288577
-0.0002799535
-0.0005808439
-0.0004729126
-0.0008193461
0.0003946286
0.0002081210
0.0000032559
0.0003078347
0.0000144221
0.0009375070
-0.0000550150
-0.0006548010
-0.0000616515
-0.0007022731
0.0006410237
0.0001587955
-0.0002005023
0.0001167263
0.0000424745
0.0031543162
0.0005848099
-0.0012992317
-0.0006025717
0.0003011061
-0.0017263586
-0.0020803275
0.0017490080
-0.0008546140
0.0037481608
0.0020042690
-0.0004984063
-0.0006328034
-0.0004110993
-0.0010965517
0.0005132220
0.0003448146
0.0002013414
0.0003608899
0.0002898974
0.0005779626
-0.0000541313
-0.0011153905
-0.0006238133
-0.0005160934
0.0010214976
0.0002235553
0.0000734119
0.0001182908
-0.0000086445
0.0009232365
-0.0006360525
-0.0007139597
-0.0007301876
-0.0009804857
0.0007076349
0.0003993126
0.0001218872
0.0003279113
-0.0000396411
0.0005778218
-0.0002304115
-0.0009850990
-0.0007310640
-0.0009390133
0.0006257638
0.0002118972
-0.0002168969
0.0005072515
-0.0001298529
0.0006524067
-0.0003582443
-0.0010186499
-0.0006484951
-0.0009343990
0.0004171378
0.0002482774
-0.0002110229
0.0002310443
0.0001895395
0.0005070365
-0.0005632847
-0.0009760081
0.0015562881
-0.0005432727
0.0005391953
0.0003414110
0.0000131716
0.0002733421
-0.0000341652
0.0017061634
-0.0006366536
-0.0010751585
-0.0003562365
-0.0011514469
0.0007032806
0.0007371389
-0.0004078880
0.0007388736
-0.0002765455
0.0009686035
-0.0003472531
-0.0008862529
-0.0005441793
-0.0009624501
0.0008150538
0.0007243675
-0.0001584874
0.0003778588
0.0000527856
0.0004353437
-0.0005693856
-0.0011173530
-0.0007095699
-0.0011112741
0.0017028683
0.0003272989
0.0000356844
0.0002477478
-0.0003711710
0.0004199898
-0.0003170319
-0.0005834446
0.0004262962
-0.0010617993
0.0005343424
0.0003723982
0.0008876910
0.0003391853
0.0000843179
0.0004172399
-0.0005288594
-0.0010128649
-0.0006833003
-0.0011724998
0.0015665841
0.0004952439
-0.0000682220
0.0003404525
-0.0001994614
0.0005042299
-0.0004495571
-0.0011221180
-0.0006785306
-0.0010279489
0.0008670976
0.0003655641
-0.0003959886
0.0006092734
-0.0004068770
0.0012061364
-0.0005302075
-0.0010911236
-0.0007067112
-0.0004902705
0.0008709357
0.0008880072
-0.0004037143
0.0005026809
0.0002758929
0.0004211323
-0.0006353568
-0.0010064785
-0.0005258386
-0.0007339378
0.0008353940
0.0008235024
-0.0004007041
0.0010327736
-0.0000551855
0.0008293071
-0.0005869523
-0.0009313077
-0.0001307088
-0.0008087787
0.0010457560
0.0004557421
0.0002327124
0.0003341034
0.0000583952
0.0006488644
-0.0001048020
-0.0006359625
-0.0002382292
-0.0011002558
0.0006461976
0.0014134430
0.0000366300
0.0004554467
-0.0003389530
0.0006463320
-0.0005341910
-0.0010248917
-0.0007353705
-0.0003559086
0.0005427866
0.0007263106
-0.0004457564
0.0003897881
-0.0003989503
0.0005923458
-0.0001589860
-0.0011381954
-0.0004408492
-0.0008743694
0.0005434559
0.0003463129
0.0001356032
0.0002985939
-0.0003864861
0.0006480512
-0.0002898102
-0.0010253996
-0.0006653727
-0.0012246498
0.0012809201
0.0009470897
0.0001334356
0.0004046582
-0.0001830919
0.0007593068
-0.0006183496
-0.0010950894
-0.0000910050
-0.0009114371
0.0010169074
0.0005477667
-0.0003260304
0.0005082757
-0.0000253246
0.0005373921
-0.0005174685
-0.0009698333
-0.0007472729
-0.0011928296
0.0005449049
0.0006495123
0.0000061898
0.0010305106
-0.0001909525
0.0009612728
-0.0004320054
-0.0010988755
-0.0007302497
-0.0007971404
0.0005570252
0.0003613276
-0.0003086262
0.0007132855
-0.0000431476
0.0005047550
-0.0003991913
-0.0003530316
-0.0007990811
-0.0010497905
0.0004093723
0.0004975959
0.0003414483
0.0003063052
-0.0000967720
0.0004961371
-0.0004551715
-0.0009940563
-0.0005011276
-0.0008746415
0.0006159878
0.0010210105
-0.0001015688
0.0005652138
-0.0001315736
0.0005905426
-0.0004579274
-0.0010484089
-0.0005822334
-0.0004731911
0.0011264627
0.0006310341
0.0002633470
0.0007773400
0.0000931952
0.0005540778
-0.0002175551
-0.0008768013
-0.0002150808
-0.0012236353
0.0005368964
0.0008532463
-0.0003068279
0.0003321182
-0.0002865352
0.0005990884
-0.0005841038
-0.0006541756
-0.0004945957
-0.0009562552
0.0005993149
0.0005730692
-0.0004467868
0.0005591404
-0.0000350698
0.0004642106
-0.0004190016
-0.0010863098
-0.0003943631
-0.0009067192
0.0005449817
0.0006195966
-0.0000769407
0.0008424501
-0.0001075888
0.0005322266
-0.0002993906
-0.0010315092
0.0004827462
-0.0011769217
0.0006950648
0.0003423387
0.0000157360
0.0009270766
-0.0001164420
0.0007255369
-0.0000441692
-0.0006776760
-0.0006722973
-0.0008594143
0.0005582142
0.0012789427
-0.0004697292
0.0003373730
0.0000037886
0.0005731234
-0.0005706538
-0.0007101886
-0.0006573995
-0.0008260485
0.0005446446
0.0005345462
-0.0001939799
0.0003161543
-0.0004287913
0.0007328348
-0.0004007215
-0.0011187483
-0.0005658993
-0.0011231979
0.0005613996
0.0004122678
0.0001055822
0.0004361664
-0.0002005959
0.0004268368
-0.0005566916
-0.0010295621
-0.0003614257
-0.0006302007
0.0006330566
0.0005262483
-0.0003419439
0.0003203179
-0.0004021075
0.0011166095
-0.0006085045
-0.0008483311
-0.0002443949
-0.0010608586
0.0005138645
0.0005570308
-0.0004371675
0.0003727868
-0.0003860130
0.0005674204
-0.0005100350
-0.0009362062
-0.0007372086
-0.0009317106
0.0008274065
0.0005342987
-0.0002632029
0.0004081465
-0.0000850020
0.0004546719
-0.0006066678
-0.0008529613
-0.0006970969
-0.0012387513
0.0005929399
0.0004530705
-0.0002533406
0.0006032414
-0.0002673159
0.0004665177
-0.0002094111
-0.0004288302
-0.0007212290
-0.0009938857
0.0008091772
0.0006457994
-0.0004342477
0.0009760416
0.0007306841
0.0004697755
-0.0006386805
-0.0006582027
-0.0007195658
-0.0011734282
0.0005854419
0.0003707219
-0.0004487505
0.0003602886
-0.0002875910
0.0005098809
-0.0002386784
-0.0010499013
-0.0007497080
-0.0000908206
0.0005920171
0.0003582610
-0.0002594122
0.0013124957
-0.0000324236
0.0004160623
-0.0004459380
-0.0010363771
0.0000847612
-0.0011438929
0.0005399742
0.0003560969
0.0006047398
0.0003697764
-0.0001979248
0.0005408878
-0.0004873859
-0.0009589616
-0.0006575128
-0.0009338412
0.0007647139
0.0020071253
-0.0001001283
0.0003373191
-0.0002207520
0.0003868285
-0.0000803576
-0.0009647484
-0.0005827365
-0.0005888101
0.0005859092
0.0003685759
-0.0004554608
0.0003618948
-0.0003870689
0.0004300775
-0.0006405849
-0.0009631003
-0.0007360168
-0.0012310284
0.0008638811
0.0004871255
-0.0001845525
0.0004122964
-0.0001514406
0.0015794719
-0.0005060884
-0.0006105319
-0.0005940626
-0.0011907761
0.0007510803
0.0004957275
-0.0003469268
0.0004078297
-0.0002228779
0.0004637573
-0.0005939391
-0.0009762851
-0.0007309642
-0.0011442887
0.0005473441
0.0011507037
-0.0003412127
0.0003900426
-0.0003017238
0.0006590246
0.0003278131
-0.0010078571
0.0000396561
-0.0008106544
0.0008053135
0.0004050312
-0.0003872458
0.0005502048
-0.0002671609
0.0005870453
-0.0005273400
-0.0011473062
-0.0004697439
-0.0011076487
0.0005744982
0.0009095202
-0.0000751226
0.0002816276
-0.0002487503
0.0005428698
-0.0005676422
-0.0011210211
-0.0000540627
-0.0011379361
0.0006115147
0.0007192517
-0.0003919851
0.0004954286
-0.0002894917
0.0004406287
-0.0005689106
-0.0007971602
-0.0007106657
-0.0005945700
0.0005384414
0.0006349064
-0.0002774511
0.0003598055
0.0001685123
0.0006756489
-0.0005068596
-0.0008874365
-0.0003796434
-0.0007935968
0.0008819681
0.0006690296
-0.0002783132
0.0004802287
-0.0002417866
0.0005870904
-0.0005083763
-0.0008037660
-0.0003350009
-0.0011943750
0.0006405386
0.0003602947
-0.0003158261
0.0004769444
-0.0001272860
0.0004646208
-0.0005277861
-0.0011670732
-0.0008049782
-0.0011116337
0.0006817062
0.0004535780
-0.0002385450
0.0004384669
-0.0003295730
0.0008830434
-0.0000655193
-0.0003412219
-0.0005294427
-0.0007472411
0.0005634403
0.0004167175
-0.0002331298
0.0003506945
-0.0003321138
0.0006344756
-0.0005155422
-0.0011088214
-0.0007073731
-0.0012049436
0.0006182139
0.0004027395
-0.0003873163
0.0004088128
-0.0001876640
0.0007840738
0.0000316856
-0.0010106822
-0.0002961075
-0.0012305018
0.0005273503
0.0003343858
-0.0003334459
0.0003606499
0.0002144508
0.0008585752
-0.0001568177
-0.0009418393
0.0010494084
-0.0012274763
0.0009489283
0.0003328757
-0.0003068207
0.0006279490
-0.0002189868
0.0006900781
-0.0007014936
-0.0007073518
-0.0006234792
-0.0008731765
0.0010205138
0.0006126827
-0.0003046662
0.0004172824
-0.0002711865
0.0008989951
-0.0002345879
-0.0011923179
-0.0004589159
-0.0010593915
0.0005745282
0.0005395877
-0.0000721996
0.0009011936
0.0000971112
0.0006479999
-0.0005214212
-0.0012886016
-0.0008474061
-0.0010584248
0.0006824838
0.0005092934
-0.0002785487
0.0003430457
0.0001066256
0.0005656360
-0.0003029095
-0.0013022452
-0.0011206647
-0.0013526231
0.0007349311
0.0003806624
-0.0002090115
0.0003891987
0.0003641206
0.0008654781
-0.0006100126
-0.0006104232
-0.0006630943
-0.0015020093
0.0005124561
0.0010906081
-0.0001790258
0.0003260765
0.0001958233
0.0009191263
-0.0004072257
-0.0016953073
-0.0010680234
-0.0015514518
0.0005841520
0.0006750961
-0.0001555701
0.0003020304
0.0006220352
0.0006571142
-0.0003343218
-0.0010365821
-0.0012660817
-0.0012638805
0.0005243401
0.0000879386
-0.0000027729
0.0001515560
0.0005105824
0.0011418695
-0.0004978302
-0.0011790265
-0.0008850240
-0.0013272513
0.0006803511
0.0000778561
0.0001649604
0.0004231337
0.0003769589
0.0010774655
-0.0003827705
-0.0014953218
-0.0006734828
-0.0012837863
0.0004505539
0.0007103896
-0.0001738926
0.0005759086
0.0001791053
0.0009775788
-0.0003529833
-0.0012695416
-0.0008632440
-0.0008165633
0.0002160934
-0.0000682333
-0.0001368730
0.0003672044
0.0003652756
0.0005478063
-0.0002484584
-0.0011734563
-0.0007519957
-0.0005667734
0.0005996459
0.0006204614
-0.0001711119
0.0017405280
0.0002060688
0.0012833889
-0.0006102361
-0.0012311985
-0.0006486310
-0.0012839298
0.0004125404
0.0003698326
-0.0001187147
0.0007421737
-0.0001287116
0.0006188740
-0.0005065931
-0.0010737237
-0.0009840693
-0.0012458179
0.0008909385
0.0014953001
-0.0002692249
0.0005916752
0.0006255792
0.0009862198
-0.0001887870
-0.0007907938
-0.0004264526
-0.0013946331
0.0009998268
0.0005006159
-0.0003480952
0.0007622292
-0.0000326580
0.0004355164
-0.0006504888
-0.0007974723
-0.0006839482
-0.0007282083
0.0011421976
0.0008333290
-0.0003744017
0.0006407258
0.0011139818
0.0012058539
-0.0007968041
-0.0004580774
-0.0002724062
-0.0014126057
0.0006777452
0.0004661297
-0.0001252847
0.0007853314
-0.0003728661
0.0012076155
-0.0007752979
-0.0008842463
-0.0002871984
-0.0013749725
0.0007072582
0.0005008612
-0.0001368719
0.0004295947
-0.0002042968
0.0010262026
-0.0009576201
-0.0010933622
0.0004503456
-0.0016873065
0.0008867304
0.0008183049
-0.0004795405
0.0004691071
-0.0004811153
0.0008602244
-0.0005663646
-0.0013343400
-0.0005442502
-0.0014873854
0.0006060375
0.0003112704
-0.0002117117
0.0003332931
-0.0001423652
0.0009293672
-0.0003862393
-0.0006998437
-0.0002898477
-0.0008731097
0.0005918458
0.0003046141
-0.0001473405
0.0005390085
-0.0002157140
0.0013977112
-0.0005084011
-0.0010909625
-0.0006811087
-0.0010230524
0.0004567615
0.0002631638
-0.0002545127
0.0001687274
0.0000086005
0.0007371573
-0.0006123506
-0.0011233300
-0.0003402301
-0.0005516863
0.0004135355
0.0008594050
-0.0003516372
0.0003558040
-0.0002302622
0.0018639270
-0.0006867923
-0.0009119682
-0.0005195507
-0.0011750884
0.0007384948
0.0003946388
-0.0003890745
0.0003303592
-0.0003860580
0.0008226357
-0.0003765297
-0.0011073859
-0.0006083169
-0.0007483282
0.0008014762
0.0004919622
0.0002643485
0.0004287012
-0.0002659766
0.0018540566
-0.0004585423
-0.0010356986
-0.0004764541
-0.0009673421
0.0002505117
0.0000293121
-0.0001803385
0.0006933843
0.0002419731
0.0009387486
-0.0002253651
-0.0010302285
-0.0000587561
-0.0008905476
0.0002883470
0.0000551564
-0.0000116645
0.0001148300
0.0002288806
0.0009229524
-0.0005608071
-0.0011421200
-0.0004772710
-0.0005495744
0.0013124015
0.0004779406
-0.0003634936
0.0009559075
-0.0000066608
0.0013065108
0.0001022865
-0.0009949055
-0.0007926268
-0.0012685971
0.0004618204
0.0005634214
-0.0001275267
0.0006020428
0.0003770512
0.0012095220
-0.0007223011
-0.0009970513
-0.0003260355
-0.0013083939
0.0005457030
0.0003894061
-0.0001874207
0.0003636257
0.0004889246
0.0013518632
-0.0002731544
-0.0008922586
-0.0006290354
-0.0005078241
0.0003603932
-0.0001170167
0.0000690395
0.0000677044
0.0006912043
0.0018651495
-0.0001056032
-0.0007500207
0.0002277713
-0.0008137268
0.0010459475
0.0003058607
0.0000939916
0.0004601161
-0.0003161390
0.0011821561
-0.0005293335
-0.0004703594
0.0000115794
-0.0011764793
0.0005430195
0.0004967968
-0.0002048546
0.0002854899
-0.0002599093
0.0005802589
-0.0004421553
-0.0010231141
-0.0009759755
-0.0010158953
0.0006735793
0.0001810080
-0.0002889674
0.0003497725
0.0003230316
0.0005944580
-0.0003467734
-0.0014743209
-0.0012111080
-0.0015474161
0.0009911356
0.0005003285
-0.0004691387
0.0006988997
-0.0003474739
0.0011026622
-0.0007287237
-0.0005965303
-0.0001377963
-0.0012421498
0.0004277647
0.0003772220
-0.0001452129
0.0005355247
-0.0001652866
0.0037102423
0.0012062043
-0.0005831109
0.0005281184
-0.0001175471
-0.0015690964
-0.0014027258
0.0015633514
-0.0002147320
0.0029997073
0.0007137252
-0.0003718931
0.0001770566
0.0000335341
-0.0005803400
0.0000803646
0.0004149074
-0.0000146730
0.0004152389
-0.0000293391
0.0015170930
-0.0004269694
-0.0009955450
0.0001442842
-0.0013064178
0.0010779212
0.0001698104
-0.0000367532
0.0004563323
0.0007308142
0.0010412198
-0.0005844206
-0.0010858085
-0.0005962580
-0.0010879010
0.0003719058
0.0004404472
0.0000838109
0.0005381919
0.0004565440
0.0012624060
-0.0001299525
0.0002342804
-0.0005503059
0.0005411201
-0.0002449557
0.0000381976
0.0001947111
-0.0001166673
0.0004566644
0.0014315212
0.0000568531
-0.0011433350
-0.0005582405
-0.0008213435
0.0002078413
-0.0003980497
0.0008703066
-0.0000083885
0.0007919542
0.0011583164
0.0003152437
-0.0009202794
-0.0005444467
-0.0002503446
0.0001886188
-0.0000393289
0.0001351631
0.0001581154
0.0007638621
0.0007270212
0.0005169968
-0.0014241199
-0.0015180779
-0.0004022181
-0.0000668915
-0.0005424577
0.0004293093
0.0001609687
0.0016312877
-0.0003557090
0.0013026918
-0.0005406442
-0.0012879451
0.0004380255
-0.0001464900
-0.0001328034
-0.0000446191
-0.0000144172
0.0004885057
0.0002453452
-0.0002840500
-0.0001318792
-0.0000585621
-0.0002695772
0.0002790870
0.0001359310
-0.0002414600
0.0003435001
-0.0003295438
0.0006898981
0.0005174170
-0.0013811037
-0.0010507223
-0.0000955428
-0.0003491529
-0.0003874862
0.0003066324
-0.0002182677
0.0011031067
-0.0003702957
0.0004609724
-0.0024229104
-0.0026258768
-0.0000682328
-0.0000523782
0.0000607035
-0.0000603039
-0.0002417615
0.0011824642
-0.0024433199
0.0003602746
-0.0005770906
-0.0021350956
0.0003852293
0.0012264239
0.0010370771
-0.0013242621
0.0001606187
-0.0020358954
-0.0013358941
-0.0004651106
0.0005749332
-0.0004148236
-0.0002596388
0.0011413744
0.0013484089
-0.0009300249
0.0009556000
-0.0016408068
0.0008774837
0.0021445796
-0.0003184235
-0.0005861025
0.0025618638
-0.0019497048
-0.0019519394
0.0017476187
-0.0014185183
0.0039732770
-0.0016713459
0.0020814501
0.0012272060
0.0005296156
0.0035359370
-0.0020118376
-0.0019206320
0.0009134180
-0.0010871943
0.0020810148
-0.0025278543
0.0013240034
-0.0000191888
-0.0015939986
0.0020032475
-0.0003915736
0.0006326719
-0.0004270500
-0.0002533302
-0.0004322569
-0.0015941974
0.0009255288
-0.0008392055
-0.0014647825
0.0004750671
0.0009728289
0.0006480570
-0.0007018028
-0.0000081427
-0.0012082952
0.0002095769
0.0025536805
-0.0012732276
-0.0019402854
0.0017299020
-0.0016594081
-0.0016594113
0.0014895777
-0.0011841567
0.0025457308
-0.0003519480
0.0021810126
-0.0000136238
-0.0001473336
0.0023173166
-0.0021249272
-0.0018437189
0.0010769762
-0.0002473367
0.0029912864
-0.0008634161
0.0019788195
-0.0004717439
-0.0013175675
0.0027805032
-0.0020771789
-0.0021357302
0.0016426952
-0.0012442303
0.0028677464
-0.0007794158
0.0020232256
-0.0022796783
-0.0032574465
0.0020120449
-0.0010667895
-0.0013202540
0.0006414366
-0.0010866761
0.0030118871
-0.0017433564
0.0018020874
-0.0015065072
-0.0026809865
0.0016318791
-0.0009677382
-0.0009411169
0.0001456260
-0.0008281398
0.0015205343
-0.0027997648
0.0020588203
0.0002196193
-0.0012344094
0.0030972715
-0.0013353966
-0.0010816231
0.0003563035
-0.0009661255
0.0010478438
-0.0009767989
0.0022223902
-0.0000264581
-0.0010850157
0.0033308667
-0.0015690694
-0.0018104401
0.0009501989
-0.0013341282
0.0025189441
0.0000798443
0.0017312988
-0.0003022531
-0.0012194802
0.0021681758
-0.0021330209
-0.0021014524
0.0013058928
-0.0009727368
0.0033265227
0.0001130797
0.0006750757
-0.0005685011
-0.0006879321
0.0004405918
-0.0005089915
-0.0005032707
0.0001959295
-0.0003781857
0.0010712097
0.0010030646
-0.0004680704
-0.0010559414
-0.0005585408
-0.0016602425
0.0021079346
0.0007456835
-0.0005100537
0.0010525862
-0.0006705099
0.0014030068
-0.0004591526
-0.0016438769
-0.0011949277
-0.0013028500
0.0002512562
-0.0000141385
0.0000596882
0.0002912801
0.0003901151
0.0015527979
0.0004247563
-0.0013586918
-0.0020851357
-0.0000695226
-0.0004314647
-0.0007921193
0.0004968860
0.0000556425
0.0018828218
0.0015116661
-0.0001068937
-0.0020592551
-0.0019733631
-0.0011809399
0.0000613853
-0.0003024922
-0.0000195386
0.0002734741
0.0014144707
0.0000730631
0.0006494715
-0.0007689416
-0.0001020658
-0.0000447505
0.0001748731
-0.0002649323
0.0001017666
-0.0001456851
0.0009665743
0.0017356760
0.0008273931
-0.0013715539
-0.0015897060
0.0004433070
-0.0008681606
-0.0017119853
0.0010317749
-0.0008176335
0.0029466406
0.0020016347
0.0010942335
-0.0007675708
-0.0009013683
0.0011164469
-0.0019817669
-0.0021841760
0.0013462830
-0.0008245611
0.0034388800
0.0013167234
-0.0009432410
0.0008949260
0.0010341834
-0.0008586382
0.0009567698
0.0004549121
-0.0002004053
0.0006767302
-0.0007864463
0.0018629596
-0.0002454121
-0.0005769497
0.0000128402
0.0005414176
-0.0000334880
-0.0005035253
0.0003161152
-0.0001549198
0.0009580313
0.0027226747
0.0006755210
-0.0003489100
-0.0003337647
0.0006338709
-0.0015797607
-0.0015414933
0.0011950483
-0.0005735923
0.0025156956
0.0025414360
0.0012151221
-0.0004815806
0.0000254485
0.0006699155
-0.0011567275
-0.0014024184
0.0014438437
-0.0006789526
0.0035057652
0.0012245089
0.0007808395
0.0012011721
0.0004925626
0.0007642528
-0.0003524140
-0.0007214539
0.0008553019
0.0001818926
0.0012187975
0.0005038741
0.0008076854
0.0017744911
0.0007848283
0.0011944186
-0.0011590373
-0.0010678948
0.0006381416
-0.0006093602
0.0017390234
0.0020678982
0.0027867359
-0.0006911506
-0.0009876287
0.0035091370
-0.0041409083
-0.0041369061
0.0027509726
-0.0023542421
0.0061567655
0.0021742788
0.0030955190
-0.0009256123
-0.0016083108
0.0039080754
-0.0044256266
-0.0043836467
0.0030246900
-0.0024436322
0.0061818666
0.0011880021
0.0014239326
0.0003750355
0.0006829451
0.0023008220
-0.0012957557
-0.0019247521
0.0018478496
-0.0011160458
0.0031277705
0.0006372401
0.0008532932
0.0000666671
0.0000883686
0.0013825086
-0.0010114804
-0.0007878756
0.0006051307
-0.0005690296
0.0013280985
0.0025574028
0.0016391204
-0.0013468341
-0.0014796430
0.0017629018
-0.0024215337
-0.0030656462
0.0019374389
-0.0016145335
0.0050614322
0.0027967395
0.0016602154
-0.0015791861
-0.0014050673
0.0015000857
-0.0026884392
-0.0030762201
0.0022802744
-0.0015265199
0.0051830267
0.0017368662
0.0016955020
-0.0010640583
-0.0010865307
0.0011481672
-0.0015146210
-0.0008819506
0.0012932829
-0.0001699232
0.0027294853
0.0009976895
-0.0001421776
-0.0008577296
-0.0006905180
0.0001847229
0.0001618545
-0.0001849408
-0.0000475324
-0.0000146171
0.0008839893
0.0012974229
0.0000740344
-0.0009788261
-0.0004935724
-0.0003355346
-0.0000330374
-0.0003772092
0.0002983231
-0.0001983676
0.0007847033
0.0037352721
0.0019467974
-0.0019857184
-0.0018684947
0.0014431603
-0.0023452793
-0.0036949881
0.0024334068
-0.0016680070
0.0058621320
0.0045266739
0.0020948266
-0.0029326388
-0.0028332003
0.0017892283
-0.0030598231
-0.0042478437
0.0030022038
-0.0017586781
0.0071217899
0.0019873782
0.0002535365
-0.0006016939
-0.0011927360
-0.0003197542
-0.0008491938
-0.0009930264
0.0008548119
-0.0001350997
0.0022318867
0.0012892283
-0.0005941409
-0.0008682610
-0.0003367804
-0.0012252142
0.0004832089
0.0008090436
-0.0001355666
0.0003182914
-0.0001190911
0.0022105722
0.0009082362
-0.0020146905
-0.0010366674
0.0002187075
-0.0013952492
-0.0014473922
0.0011696146
-0.0008146757
0.0035292947
0.0056038742
0.0019151755
-0.0029058756
-0.0019454127
0.0011078555
-0.0037353883
-0.0041094594
0.0032298083
-0.0019752454
0.0074682592
0.0053643140
0.0027655331
-0.0032150341
-0.0037148021
0.0019197875
-0.0045059048
-0.0047095474
0.0035336575
-0.0025154036
0.0084254966
0.0024946065
0.0016466264
-0.0020227268
-0.0027783852
0.0009919606
-0.0017819993
-0.0025177574
0.0018481928
-0.0013392230
0.0046494646
0.0008656974
-0.0002014742
-0.0011549753
-0.0006287488
-0.0009254451
0.0005988412
0.0006053101
0.0000565626
0.0001264422
0.0001818477
0.0027074256
-0.0003526281
-0.0011114155
-0.0003847347
-0.0013158561
-0.0000863208
-0.0007576537
0.0005484150
0.0003242477
0.0015676946
0.0053150802
0.0022211251
-0.0032830436
-0.0030635893
0.0012994729
-0.0040590689
-0.0048078330
0.0034320408
-0.0018962874
0.0079687775
0.0048979209
0.0028803219
-0.0031042552
-0.0040588065
0.0025430851
-0.0045136752
-0.0051071851
0.0037802261
-0.0015505253
0.0084082962
0.0035659774
0.0024576043
-0.0036487365
-0.0044415667
0.0018465643
-0.0034756803
-0.0039769780
0.0028595878
-0.0021432864
0.0066664299
0.0015252320
0.0012708959
-0.0024211024
-0.0023976564
-0.0001085852
-0.0010072539
-0.0013920223
0.0007296466
-0.0005823103
0.0026616727
0.0025726921
-0.0011093127
-0.0002863692
0.0006338294
-0.0020685205
0.0010169879
0.0003137022
-0.0001132251
0.0008043289
0.0008155032
0.0032895842
-0.0009713590
-0.0008106954
0.0006880895
-0.0020686806
0.0003297244
-0.0001398002
0.0004120251
0.0004424348
0.0014339398
0.0025864358
0.0010374868
-0.0024323739
-0.0019723277
0.0003656084
-0.0015462152
-0.0021093027
0.0025652028
-0.0006084739
0.0040533534
0.0033340473
0.0023271230
-0.0034750182
-0.0042114309
0.0014086309
-0.0033692976
-0.0030995188
0.0023230704
-0.0019598122
0.0064113616
0.0025155085
0.0026240133
-0.0032372917
-0.0032740548
0.0012520528
-0.0027464545
-0.0030852897
0.0018694522
-0.0014649724
0.0054084583
0.0043580938
0.0001239791
-0.0018388561
-0.0005892890
-0.0005852988
-0.0015245917
-0.0017721780
0.0017841749
-0.0006759851
0.0037784109
0.0050558549
0.0000252650
-0.0015860173
-0.0002201577
-0.0005528434
-0.0016097746
-0.0022657698
0.0022262779
-0.0007074483
0.0045855716
0.0033629330
0.0000153186
-0.0012322321
-0.0000758558
-0.0006956037
-0.0010793456
-0.0011590872
0.0011436801
-0.0001529404
0.0027362857
0.0011985845
-0.0002062998
-0.0011497274
-0.0007469391
-0.0001354189
0.0001187881
-0.0002494019
0.0000842239
-0.0000088153
0.0005543093
0.0006561533
-0.0003140358
-0.0013497182
-0.0012782457
-0.0005512840
0.0003820570
0.0002859985
-0.0002223007
0.0001039482
0.0001422611
0.0018866189
-0.0006666798
-0.0009190022
-0.0001507003
-0.0014733709
0.0003431296
0.0004972102
0.0005177166
0.0002164289
0.0004811224
0.0056194649
-0.0023083791
0.0006745700
0.0029662778
-0.0026986135
0.0005356264
0.0003334736
0.0008332736
0.0013757194
0.0015963306
0.0074931712
-0.0013841804
-0.0002504339
0.0021975011
-0.0025267141
-0.0007895782
-0.0016979678
0.0023210592
-0.0000276757
0.0037954041
0.0057070797
0.0015490934
-0.0025713829
-0.0019079421
0.0002493732
-0.0031343426
-0.0039457300
0.0029579378
-0.0016444178
0.0066814572
0.0036788955
0.0025443806
-0.0025879629
-0.0027919849
0.0009987906
-0.0028042510
-0.0032308760
0.0028569490
-0.0011528885
0.0058201057
0.0024562430
0.0018174831
-0.0031352367
-0.0036141965
0.0011751568
-0.0024093229
-0.0028968355
0.0017459688
-0.0015170095
0.0050000051
0.0038986541
0.0016855741
-0.0028102206
-0.0028261702
0.0004757727
-0.0026446795
-0.0027774610
0.0024376120
-0.0012521821
0.0056839117
0.0062856230
0.0009528131
-0.0020439669
-0.0012921917
0.0006472718
-0.0031125776
-0.0032330658
0.0028695619
-0.0014936048
0.0065467185
0.0056670835
-0.0002714166
-0.0015694115
0.0009009358
-0.0005972560
-0.0015743490
-0.0022710400
0.0019969945
-0.0004704473
0.0048694079
0.0050060234
-0.0001376425
-0.0013022869
0.0001933993
-0.0010719496
-0.0008316449
-0.0015843535
0.0022410823
-0.0001466491
0.0032764781
0.0038813647
-0.0010362873
-0.0001409729
0.0005374929
-0.0017450172
-0.0002465963
-0.0006708641
0.0008564680
0.0001409480
0.0018744159
0.0033259647
0.0004110908
-0.0006969485
0.0005455325
-0.0005148555
-0.0004315667
-0.0009752037
0.0018693659
-0.0000499773
0.0020314018
0.0015872273
0.0001706936
-0.0013225806
-0.0009734368
-0.0003197777
-0.0005035647
0.0009069940
0.0003945209
-0.0002090924
0.0014363499
0.0006839829
-0.0001326399
-0.0012707642
-0.0010663120
-0.0004311714
0.0000219627
0.0003647950
-0.0000920720
-0.0000249242
0.0003221407
0.0006228213
-0.0002218039
-0.0010170221
-0.0002324868
-0.0005310967
0.0007320976
0.0006308998
-0.0002073395
0.0004097156
0.0002874120
0.0012539299
-0.0001893225
-0.0013460511
-0.0008142272
-0.0004642911
-0.0000479347
0.0000457437
0.0003817168
0.0000198073
0.0008835236
0.0007446066
0.0002977183
-0.0013972501
-0.0009931716
-0.0006107940
0.0007550449
0.0010725232
0.0001852801
0.0000557241
0.0003243451
0.0001803670
-0.0004114127
-0.0001002650
-0.0004551856
-0.0009310383
0.0008476861
0.0007117302
-0.0004174146
0.0004011341
-0.0006784294
0.0008218428
-0.0004880056
-0.0002687906
0.0001582426
-0.0007667977
0.0008215146
0.0003662203
-0.0002509205
0.0004612852
-0.0006109203
0.0006331676
-0.0004851470
-0.0005972753
-0.0002294574
-0.0007415383
0.0007022865
0.0006216902
0.0005607695
0.0003037247
-0.0001716751
0.0005639629
-0.0006332467
-0.0005082132
-0.0002264656
-0.0007776926
0.0007567312
0.0011826723
-0.0003945441
0.0003310440
-0.0004128329
0.0015170732
-0.0009609446
-0.0005430253
0.0000417572
-0.0014275349
0.0007982433
0.0006344966
-0.0002299284
0.0006429990
-0.0003005630
0.0005947846
-0.0007214355
-0.0008841020
-0.0005069402
-0.0011677116
0.0008621059
0.0006619045
-0.0005434675
0.0003508002
-0.0006540307
0.0011393783
-0.0007296593
-0.0007805122
-0.0002653535
-0.0014625889
0.0006418100
0.0004238761
-0.0002792002
0.0005207215
0.0001896085
0.0031795993
-0.0014094927
-0.0004842725
0.0010221262
-0.0021275580
0.0007276554
0.0001576625
0.0003365775
0.0006143022
0.0004274213
0.0026276003
-0.0006052783
-0.0005465609
0.0012366699
-0.0015162530
0.0005739578
0.0007365154
0.0000385295
0.0004615907
0.0000204927
0.0010413623
-0.0002422200
-0.0006791477
-0.0000814564
-0.0012618385
0.0008286428
0.0006060597
-0.0003808998
0.0006176975
-0.0005532959
0.0027478102
-0.0012035073
-0.0002306324
0.0010384305
-0.0015257140
0.0004616805
0.0000928673
0.0001799860
0.0005338413
0.0001296716
0.0032809196
-0.0011074585
-0.0003815470
0.0015481342
-0.0020530351
0.0010895949
0.0002638974
0.0003744535
0.0009050229
0.0003483835
0.0011337462
-0.0007418445
-0.0002182610
0.0005901324
-0.0010735317
0.0004732817
0.0002645097
-0.0002864331
0.0004746125
-0.0000265966
0.0006909982
0.0000166779
-0.0003272262
-0.0003577623
-0.0009411098
0.0007047215
0.0004272856
-0.0001868268
0.0004312657
-0.0002704669
0.0019156883
-0.0008490549
-0.0007527687
0.0000965055
-0.0014966210
0.0004701768
0.0007165765
-0.0000041478
0.0004183498
-0.0000559472
0.0012490795
-0.0005892434
-0.0004892142
0.0006177559
-0.0012431796
0.0005559781
0.0004080470
-0.0000907827
0.0003577989
-0.0002011750
0.0003604037
0.0003044911
-0.0002943045
0.0002192060
-0.0004917945
0.0006098849
0.0003048867
-0.0001595271
0.0008082917
-0.0004791260
-0.0000205701
-0.0000578755
-0.0009938534
-0.0010711156
0.0000658472
0.0002620412
0.0004356915
-0.0002332467
0.0015639754
-0.0000491943
0.0006278822
-0.0004322184
-0.0004673990
-0.0001285221
-0.0010678666
0.0005200236
0.0003207007
-0.0001287505
0.0003659928
0.0001113264
0.0010192279
-0.0009288630
-0.0004084824
0.0002139859
-0.0012936762
0.0005772261
0.0010272424
-0.0001201266
0.0004478655
-0.0005990753
0.0007056191
-0.0001298373
-0.0008345952
-0.0003603998
-0.0008438244
0.0009140673
0.0002335246
-0.0003141233
0.0003966195
0.0006848901
0.0004709683
-0.0003643070
-0.0005632387
-0.0003534217
-0.0005148792
0.0005127211
0.0005031400
0.0000369417
0.0003076036
-0.0001165804
0.0007191176
-0.0002561467
-0.0004652526
-0.0001441685
-0.0007863617
0.0008040093
0.0008974818
-0.0002114035
0.0004488665
-0.0005360212
0.0003828214
-0.0006819673
-0.0002049586
0.0000475612
-0.0005482489
0.0007550259
0.0006364251
-0.0003830421
0.0003659729
-0.0003009091
-0.0004512787
-0.0000668023
-0.0003674538
-0.0006701660
0.0001684905
0.0004018307
0.0004181879
0.0000484593
0.0004301626
-0.0001033983
-0.0000785966
-0.0004024594
-0.0002848721
0.0001589785
-0.0002171306
0.0005217531
0.0006870784
-0.0001748605
0.0006383599
-0.0011255636
-0.0000299149
-0.0001549966
-0.0006793651
-0.0005164115
-0.0002731081
0.0007165376
0.0006958169
-0.0005418650
0.0002177783
-0.0004273390
0.0002749052
-0.0003867698
-0.0001724947
-0.0003764644
-0.0007856644
0.0006714682
0.0003162473
-0.0002318125
0.0001637324
-0.0004468120
0.0004322263
0.0000785946
-0.0000884597
-0.0002202387
-0.0007129488
0.0004594673
0.0006920935
0.0000016302
0.0003499204
-0.0004409673
0.0000994266
-0.0000802153
-0.0009776307
-0.0009192928
-0.0007690411
0.0004433139
0.0003901294
-0.0004671683
0.0002336949
-0.0003745236
0.0002234512
-0.0001394339
-0.0010145030
-0.0013422168
-0.0009332921
0.0005519066
0.0004854635
-0.0004620476
0.0006378061
-0.0001554503
0.0000376334
-0.0002764628
-0.0011251589
-0.0008297808
-0.0010619747
0.0007766985
0.0004856638
-0.0004079793
0.0003988410
-0.0003219871
-0.0006777406
-0.0002096995
-0.0002941973
-0.0004660362
-0.0003754326
0.0009251725
0.0014515159
-0.0008611130
0.0007686906
-0.0016166458
-0.0011340717
-0.0001432262
-0.0001425376
-0.0006359139
0.0004470478
0.0008836660
0.0007085291
-0.0001581692
0.0002305118
-0.0013985646
-0.0005022022
-0.0000544820
-0.0005348038
-0.0010898758
-0.0004243762
0.0006940586
0.0006725127
-0.0006583211
0.0001425485
-0.0006325050
-0.0008471695
-0.0001231325
-0.0001034452
-0.0006873873
-0.0003474754
0.0007690401
0.0006470599
-0.0001817719
0.0001740677
-0.0006167925
-0.0012807539
-0.0002019082
0.0003945990
-0.0004385915
0.0001764515
0.0006213708
0.0007750948
-0.0008422437
0.0002977632
-0.0016581660
-0.0007767338
0.0003304953
-0.0000660340
-0.0007155280
0.0001439388
0.0011391454
0.0006780201
-0.0007266025
0.0002292533
-0.0008412140
-0.0001711661
-0.0001455837
-0.0004065225
-0.0011069471
-0.0002153037
0.0005806377
0.0006581946
-0.0002848290
0.0002530673
-0.0007490668
-0.0002425621
-0.0000453339
-0.0010211068
0.0000582854
-0.0003894511
0.0004390766
0.0004175222
-0.0000342354
0.0002484290
-0.0007515973
0.0000540300
-0.0001070587
-0.0003635722
-0.0002238019
-0.0004482787
0.0005401425
0.0010192349
-0.0000082173
0.0006529019
-0.0005212841
-0.0002848513
-0.0001818744
0.0001338836
0.0000369920
-0.0002412585
0.0005840300
0.0014454537
-0.0003953870
0.0002597513
-0.0012622447
-0.0012635081
-0.0000688408
-0.0005269515
-0.0008629968
0.0001127828
0.0007327917
0.0006797545
-0.0008734912
0.0006014997
-0.0012077009
-0.0015351134
0.0002649495
-0.0011264215
-0.0019447993
0.0004244576
0.0007391189
0.0006287796
-0.0008919736
0.0006752144
-0.0006967962
-0.0007998471
-0.0001738220
-0.0008978942
-0.0012104167
-0.0003940747
0.0007398742
0.0007106428
0.0000438788
0.0003038551
-0.0006124436
-0.0008283617
-0.0002099113
-0.0001130990
-0.0001824970
-0.0001596996
0.0006250896
0.0008213732
-0.0003522681
0.0003175565
-0.0011607649
-0.0009683268
-0.0002902527
0.0004940144
-0.0001567210
-0.0000922349
0.0006817782
0.0007023779
-0.0006311377
0.0002889643
-0.0012490042
-0.0005420824
-0.0002991418
-0.0005873143
-0.0005630178
-0.0004532881
0.0009726740
0.0005418075
-0.0000134433
0.0003045443
-0.0008189800
0.0003372444
0.0003128948
-0.0007719202
-0.0006920504
-0.0008967457
0.0010704290
0.0002549846
-0.0003214446
0.0004741741
-0.0003472265
0.0004472197
-0.0004468632
-0.0005656500
-0.0006777077
-0.0007868622
0.0004780272
0.0003030636
-0.0001767452
0.0001622086
-0.0001349823
0.0010760059
-0.0005532857
-0.0009036714
-0.0005138872
-0.0005222647
0.0004972347
0.0004625050
-0.0000861556
0.0004396031
-0.0003355657
0.0007663026
-0.0002573138
-0.0010057579
-0.0005934818
-0.0010897427
0.0016603715
0.0003717451
-0.0002168109
0.0001931867
0.0002538545
0.0004605325
-0.0004192050
-0.0009712914
-0.0005912890
-0.0009729301
0.0007783102
0.0003110002
-0.0003704576
0.0003037224
0.0000426740
0.0004725679
-0.0004583843
-0.0010386843
-0.0006140288
-0.0002482929
0.0015605445
0.0003069423
-0.0003151188
0.0005536783
-0.0000725536
0.0009329476
-0.0004854251
-0.0011431348
-0.0007722719
-0.0010007010
0.0003643140
0.0003062343
0.0000305064
0.0009813281
0.0008511805
0.0010734482
-0.0006154705
-0.0010502013
-0.0009127802
-0.0011528583
0.0010665083
0.0003971880
-0.0003686968
0.0015485225
0.0004269756
0.0003627791
-0.0005411454
-0.0007339529
-0.0005771052
-0.0006304419
0.0010190325
0.0006327158
-0.0001006511
0.0004632211
-0.0006479544
0.0000061577
-0.0004590173
-0.0006482386
-0.0008584695
-0.0009743406
0.0007179897
0.0006116591
-0.0003842121
0.0006748535
-0.0000312876
0.0001796012
0.0001651272
-0.0001482918
-0.0005842469
-0.0007942231
0.0008150532
0.0003895389
0.0000931056
0.0006082915
-0.0006020407
0.0007512487
-0.0001774448
-0.0009791306
-0.0006026906
-0.0006234876
0.0002646601
0.0001212838
0.0000090985
0.0001564690
0.0002209671
0.0007153330
-0.0002329231
0.0000793853
-0.0006815451
-0.0006001524
0.0008330811
0.0001792677
0.0003346163
0.0001242352
-0.0000189685
-0.0018482876
0.0014274060
-0.0003150747
-0.0008927912
0.0007116239
0.0001757840
0.0005539367
-0.0007660050
0.0001846454
-0.0011473451
-0.0028855794
0.0009997031
-0.0002958316
-0.0016413749
0.0023117994
0.0003370763
0.0006165000
-0.0010120920
-0.0000671198
-0.0012656020
-0.0005147935
-0.0000423892
-0.0010366108
-0.0016245604
-0.0002872763
0.0008855355
0.0005127064
-0.0005307090
0.0002952983
-0.0006579832
0.0012136880
-0.0005090496
-0.0019753049
-0.0010146864
-0.0017238367
0.0008515526
0.0005080375
-0.0004552619
0.0007224409
0.0010046512
0.0006269253
-0.0006784034
-0.0015372622
-0.0016168790
-0.0015566920
0.0010320586
0.0007467370
-0.0007830475
0.0013349016
-0.0006292950
-0.0036477042
0.0007252418
-0.0010768375
-0.0026373026
0.0013819308
0.0005600851
0.0009400067
-0.0013949946
0.0005193757
-0.0019501972
-0.0051031327
0.0019597789
-0.0005056241
-0.0033156301
0.0024235091
0.0001862482
0.0016022257
-0.0013213867
0.0000702155
-0.0022553843
-0.0025010272
0.0012773733
-0.0012453579
-0.0026448096
0.0011491712
0.0000618726
0.0006825194
-0.0002970863
-0.0002459395
0.0000801935
0.0005739427
0.0005394763
-0.0016483754
-0.0012715181
-0.0006507083
-0.0000695389
0.0005474651
-0.0000727636
0.0001339495
0.0008525797
0.0005988160
-0.0000572285
-0.0017116606
-0.0019319070
-0.0010671071
0.0008126599
0.0002986324
-0.0004732834
0.0001775745
0.0001706378
-0.0012649774
0.0002662798
-0.0012791065
-0.0021054085
-0.0001771121
0.0010752937
0.0010241209
-0.0010367957
0.0001111943
-0.0010190500
-0.0033788334
0.0008254158
-0.0032250258
-0.0054072261
-0.0002098017
0.0016150517
0.0010522636
-0.0010319743
0.0001731410
-0.0009414653
-0.0056465852
0.0013907091
-0.0063416186
-0.0099300166
-0.0013389789
0.0021678398
0.0017290429
-0.0027059357
0.0004753889
-0.0018802260
-0.0055153881
0.0002916852
-0.0058696553
-0.0093797834
-0.0024042884
0.0031825416
0.0033451065
-0.0030770372
0.0010555141
-0.0033007748
-0.0005480163
-0.0010246903
-0.0031441878
-0.0041394277
-0.0029165299
0.0026072735
0.0023904609
-0.0020866793
0.0012934045
-0.0028710926
0.0011824453
-0.0004357564
-0.0042205368
-0.0039984616
-0.0023120792
0.0008245101
0.0003986398
-0.0004286317
0.0002901318
0.0010327392
0.0003641469
0.0014597064
-0.0061073104
-0.0068592332
-0.0015867648
0.0006665092
-0.0010001074
-0.0000996641
-0.0005817187
0.0032652222
-0.0035812002
0.0037631192
-0.0127976833
-0.0160341112
-0.0023900358
-0.0004128585
-0.0021525249
-0.0005901174
-0.0012648250
0.0066699282
-0.0100107844
0.0084825016
-0.0279084360
-0.0362021333
-0.0042917219
-0.0008711168
-0.0040439649
-0.0017399248
-0.0026851168
0.0142150969
-0.0204984224
0.0135962129
-0.0372721466
-0.0519513999
-0.0022745000
-0.0002606295
-0.0037098861
-0.0040997761
-0.0033677512
0.0152360013
-0.0263066992
0.0119102520
-0.0246769593
-0.0407189135
0.0026896387
0.0012357295
0.0001636676
-0.0066394044
-0.0020170037
0.0031559546
-0.0192584824
0.0069591147
-0.0095784306
-0.0202055929
0.0038526038
0.0024247116
0.0030827351
-0.0059627184
-0.0006735928
-0.0049801775
-0.0105802692
0.0028821342
-0.0054979329
-0.0114468920
0.0012888893
0.0021240760
0.0027977752
-0.0030104285
0.0000108398
-0.0042074039
-0.0064150111
0.0015675299
-0.0037831271
-0.0075796026
0.0005069814
0.0017249089
0.0022803341
-0.0027727316
0.0001970361
-0.0025749148
-0.0038138733
0.0009881328
-0.0001605217
-0.0025977023
0.0008671550
0.0013959546
0.0027948167
-0.0018663323
0.0006706221
-0.0028697064
-0.0019131130
0.0001638390
0.0005392170
-0.0010496012
0.0008903557
0.0007704534
0.0012076832
-0.0013093286
0.0005782293
-0.0027413087
-0.0004048124
0.0005465549
-0.0012912469
-0.0021411367
0.0005842642
0.0000286042
0.0002677331
-0.0000891161
-0.0002495165
-0.0000581335
0.0016908065
0.0004826256
-0.0013115726
-0.0015754640
0.0002824747
-0.0004091372
-0.0005978445
0.0002769887
0.0002297043
0.0011247962
0.0009519311
-0.0000858202
0.0002482386
0.0004142727
0.0001058432
0.0000590105
0.0003540404
0.0006152718
-0.0000204292
-0.0001244054
-0.0004798082
0.0010499721
-0.0001119563
-0.0003243420
0.0008688279
-0.0001698507
-0.0000344856
0.0000296406
-0.0000952700
-0.0002665452
-0.0008155103
0.0001775399
-0.0008093354
-0.0010767781
0.0001959940
0.0001766244
0.0008221386
-0.0001111790
0.0001568132
-0.0005718569
0.0015544391
-0.0017717910
0.0013826993
0.0023286186
-0.0010614555
0.0019645552
0.0015609288
-0.0008705649
0.0014061472
-0.0026547118
0.0042581392
-0.0037591244
0.0047414937
0.0070568871
-0.0021146236
0.0025492183
0.0028322437
-0.0007859125
0.0018572349
-0.0052547395
0.0051495966
-0.0037280673
0.0056388937
0.0085314613
-0.0011008745
0.0018872911
0.0024398000
-0.0002693054
0.0017692362
-0.0054581739
0.0046796699
-0.0027282944
0.0050892087
0.0072829264
-0.0002092586
0.0006110743
0.0013278621
0.0001900645
0.0009741178
-0.0030375318
0.0023012281
-0.0013144998
0.0022700827
0.0033501043
-0.0003372034
0.0007599061
0.0010605374
-0.0001952267
0.0009854870
-0.0023341594
-0.0000078253
-0.0008476026
-0.0007831983
-0.0006694733
-0.0014872736
0.0014379756
0.0018150324
-0.0009898757
0.0008490975
-0.0018017119
0.0006959973
-0.0006057382
-0.0025114091
-0.0028276195
-0.0021668990
0.0014193289
0.0008529017
-0.0008809790
0.0007039909
-0.0000805956
0.0016104581
-0.0005524337
-0.0035706979
-0.0037657510
-0.0027658306
0.0010633439
0.0006263007
-0.0004499937
0.0005051946
0.0008962240
0.0021278776
-0.0014971878
-0.0032509554
-0.0031161155
-0.0031878552
0.0018872258
0.0018327249
-0.0010771051
0.0011847521
-0.0008773197
0.0026724009
-0.0019145253
-0.0032484063
-0.0025663698
-0.0030814433
0.0025561979
0.0018327594
-0.0011925692
0.0014554729
-0.0011472440
0.0027999399
-0.0015389837
-0.0012506546
-0.0008120440
-0.0027101811
0.0021426595
0.0006500697
-0.0000846976
0.0008494285
-0.0002301081
0.0037454191
-0.0005493625
-0.0003363707
0.0007065575
-0.0008133131
0.0001167925
0.0005580223
0.0005682987
0.0008136857
0.0002016361
0.0021340162
-0.0010561673
0.0035881199
0.0047169070
0.0006979740
0.0001456322
0.0010352200
0.0001133613
0.0008668462
-0.0020930209
0.0006878022
-0.0009376533
0.0062612396
0.0079077718
0.0028855934
0.0003249375
0.0011976710
0.0000466708
0.0004980216
-0.0036967329
0.0017949784
-0.0006904677
0.0080385552
0.0093050599
0.0038505616
-0.0011494031
0.0001048878
0.0011455851
-0.0000133338
-0.0031533341
0.0040809808
-0.0008758597
0.0089683632
0.0109985303
0.0043847493
-0.0020132952
-0.0006365533
0.0018133395
-0.0006158084
-0.0016581327
0.0039690404
-0.0016788346
0.0092546943
0.0116973216
0.0029232660
0.0005277359
0.0012147611
0.0010593893
0.0003651985
-0.0036400928
0.0035204341
-0.0020510636
0.0080634085
0.0101005373
0.0018732503
0.0003478284
0.0015893794
0.0002306597
0.0006309669
-0.0043535401
0.0037484025
-0.0009359305
0.0040299979
0.0063843800
0.0011169507
-0.0006212336
0.0000195804
0.0009225133
0.0001033003
-0.0011561977
0.0049477028
0.0000547448
0.0012273460
0.0023631681
0.0009893281
-0.0015972598
-0.0014577901
0.0019223972
-0.0007192515
0.0019086791
0.0020871982
0.0000112263
0.0001696710
0.0006655691
-0.0000731935
-0.0006212388
0.0001511495
0.0007231886
0.0007323248
0.0008464970
0.0002477324
-0.0010103734
0.0008605539
0.0014853297
-0.0007821357
0.0011397090
0.0022735879
-0.0003866388
0.0005966424
-0.0019481909
0.0008803347
0.0001663118
0.0003124175
0.0007719809
0.0002210164
-0.0003984087
-0.0001359748
0.0003278721
0.0002405951
0.0003059490
0.0026526191
0.0018403081
0.0005028139
-0.0014788221
0.0020565361
-0.0025677809
-0.0025653410
0.0019406881
-0.0013492790
0.0045279433
0.0016686727
0.0013714542
-0.0002687996
-0.0009135427
0.0018346502
-0.0021048072
-0.0022550999
0.0017390369
-0.0012622521
0.0035780030
0.0002318057
0.0002338222
0.0010496954
0.0018066437
0.0014877069
-0.0007257613
-0.0003876289
0.0003395772
-0.0004222352
0.0011519123
0.0009145024
0.0012892945
0.0015877953
0.0015576692
0.0027657499
-0.0019246997
-0.0011697724
0.0010243322
-0.0010644592
0.0017904586
0.0023417880
0.0029692310
0.0004838550
0.0000636456
0.0045011209
-0.0045898199
-0.0041627862
0.0032354929
-0.0026137631
0.0056598874
0.0028079152
0.0029790509
0.0004258963
0.0001368777
0.0054191940
-0.0044348238
-0.0045294849
0.0035988571
-0.0017652741
0.0061773869
0.0002655563
0.0005497814
0.0020234551
0.0017426215
0.0023266830
-0.0012501470
-0.0008423276
0.0007675257
-0.0003392627
0.0003187308
-0.0016144164
0.0002250430
0.0003591926
0.0001958748
0.0008435710
0.0003826601
0.0006072637
-0.0004708709
0.0002266704
-0.0012296409
0.0001970106
0.0025447185
-0.0023805185
-0.0033627912
0.0024889285
-0.0027951707
-0.0020501898
0.0014791660
-0.0018052559
0.0043643848
0.0022932471
0.0035908527
-0.0028079383
-0.0034467641
0.0039147005
-0.0047080591
-0.0049311562
0.0032347686
-0.0029033336
0.0078775418
0.0008653920
0.0014985410
-0.0002408209
-0.0009825585
0.0024135609
-0.0011686276
-0.0019001809
0.0012780214
-0.0008459735
0.0030485349
-0.0012578178
-0.0007157454
0.0010058423
0.0011249386
-0.0002478992
0.0013745721
0.0012599260
-0.0005735006
0.0006312438
-0.0023996514
-0.0008222619
0.0006286205
0.0008353492
0.0000116194
0.0007772719
-0.0003168936
0.0000638069
0.0002611293
0.0003838565
-0.0001271441
0.0010308263
0.0035553391
-0.0024168180
-0.0034629420
0.0030363686
-0.0033761102
-0.0035434468
0.0019917880
-0.0020656853
0.0052657677
0.0012148775
0.0039386984
-0.0023778882
-0.0036911406
0.0028331338
-0.0025107963
-0.0030060422
0.0014967551
-0.0018379823
0.0046066391
-0.0004754671
0.0004913293
-0.0011344529
-0.0012746509
0.0000553984
0.0002771385
0.0006440644
-0.0006285242
0.0000588197
-0.0005037760
0.0002011869
-0.0005555655
-0.0009197370
-0.0003217198
-0.0006242431
0.0007613307
0.0005599307
-0.0005636104
0.0005818050
-0.0003384707
0.0031255239
0.0018698572
-0.0029361651
-0.0030882734
0.0014513042
-0.0028037531
-0.0032875151
0.0023117019
-0.0016923861
0.0056069544
0.0039557657
0.0043252490
-0.0043596243
-0.0056445643
0.0037151624
-0.0050461599
-0.0059219947
0.0038977273
-0.0032570068
0.0098183950
0.0028197416
0.0028715297
-0.0031012984
-0.0039010131
0.0024332604
-0.0029980098
-0.0038685665
0.0029266976
-0.0019450025
0.0066369220
0.0004271963
-0.0004798973
-0.0007098148
-0.0006493814
-0.0006313205
0.0004362728
0.0003117628
0.0001800309
0.0002964239
-0.0000972759
0.0014452133
-0.0001444239
-0.0006978106
-0.0006587377
-0.0008438911
0.0001625852
-0.0000016543
0.0001023778
0.0000704035
0.0006816311
0.0060205931
0.0035253793
-0.0041730739
-0.0047687699
0.0033721753
-0.0052899761
-0.0060198800
0.0041487744
-0.0025532770
0.0106360552
0.0076728654
0.0055685176
-0.0053274473
-0.0068659142
0.0047201872
-0.0066020200
-0.0089685377
0.0061651185
-0.0046950376
0.0148821091
0.0047454613
0.0032122142
-0.0039389627
-0.0044771696
0.0022731660
-0.0045928474
-0.0053564978
0.0043291102
-0.0025310440
0.0086517021
0.0010052173
-0.0003492579
-0.0007248249
-0.0001969300
-0.0004945692
0.0002409972
0.0001565474
-0.0000305772
0.0004368610
0.0000658367
0.0017688430
-0.0001521542
-0.0011630705
-0.0005706698
-0.0008219637
-0.0002040555
0.0000867796
0.0002318879
0.0000743479
0.0022178762
0.0053397194
0.0034874188
-0.0041703929
-0.0040430862
0.0026602913
-0.0046183662
-0.0053133978
0.0040104259
-0.0026756651
0.0098553448
0.0076303408
0.0061412930
-0.0060207686
-0.0074975830
0.0053367221
-0.0088576455
-0.0098477368
0.0068422150
-0.0049048013
0.0156796800
0.0056691089
0.0055395102
-0.0050990795
-0.0054053796
0.0044683912
-0.0061832935
-0.0071759264
0.0049490311
-0.0040335398
0.0126197527
0.0018882640
0.0009825703
-0.0018660030
-0.0018276846
0.0005256991
-0.0011235176
-0.0016461346
0.0010623690
-0.0005237666
0.0028259894
0.0019927522
-0.0007695984
-0.0000974576
0.0004219114
-0.0011207570
0.0010634114
0.0006131076
0.0000525362
0.0005259209
-0.0001547192
0.0051645484
0.0019599567
-0.0029269780
-0.0026780450
0.0018321087
-0.0037952882
-0.0044455715
0.0032155501
-0.0019765561
0.0073107729
0.0084251968
0.0057261165
-0.0057606323
-0.0067367346
0.0052734944
-0.0083886839
-0.0097202414
0.0066306495
-0.0049402476
0.0157266148
0.0071368443
0.0063077162
-0.0068568836
-0.0083353558
0.0056020559
-0.0089147030
-0.0098662088
0.0063907757
-0.0048503975
0.0157451520
0.0043610523
0.0029225547
-0.0043787424
-0.0048387780
0.0025768236
-0.0038009957
-0.0045223221
0.0031243352
-0.0018914017
0.0077347293
0.0029235222
-0.0010279420
-0.0015082076
-0.0003511519
-0.0019323794
0.0005807754
-0.0000285229
0.0002365491
0.0003228056
0.0009022558
0.0030132230
-0.0010631074
-0.0011577463
0.0006699339
-0.0019120882
0.0003914919
-0.0003228286
0.0003672118
0.0004156730
0.0010949067
0.0039938515
0.0024637864
-0.0035740738
-0.0039205388
0.0017710237
-0.0038403478
-0.0038888223
0.0029058145
-0.0021832961
0.0072404758
0.0060143744
0.0054265939
-0.0056395022
-0.0072442988
0.0049536879
-0.0076324625
-0.0084164350
0.0054256427
-0.0044504321
0.0136173062
0.0073580617
0.0064392526
-0.0063009636
-0.0072168144
0.0054711954
-0.0087013298
-0.0093042698
0.0063546857
-0.0049737516
0.0152940738
0.0070792788
0.0039035251
-0.0042508913
-0.0038019074
0.0027412877
-0.0059474234
-0.0067192421
0.0054168648
-0.0032283196
0.0113373954
0.0062577567
-0.0009002638
-0.0005075461
0.0015541075
-0.0010737956
-0.0005860241
-0.0017819726
0.0018477099
0.0000064065
0.0034772961
0.0038809311
-0.0016751761
-0.0006756069
0.0010332003
-0.0026748349
0.0006288068
-0.0000345518
0.0003043406
0.0006021576
0.0010004862
0.0028733428
0.0018202187
-0.0034375094
-0.0036690833
0.0009747005
-0.0026951135
-0.0031326045
0.0022546548
-0.0016220898
0.0060363015
0.0064002750
0.0056497455
-0.0059353882
-0.0069665657
0.0048160031
-0.0071867766
-0.0087930651
0.0057635487
-0.0046098777
0.0139689910
0.0136765807
0.0062235297
-0.0071563465
-0.0069758877
0.0046443816
-0.0108158989
-0.0125859728
0.0094334531
-0.0059122996
0.0205237874
0.0151750905
0.0049061520
-0.0064097864
-0.0050957666
0.0030914816
-0.0102158437
-0.0114589235
0.0091921856
-0.0053411224
0.0201772097
0.0095071496
0.0039081830
-0.0043715119
-0.0040053772
0.0032015831
-0.0066146235
-0.0076706959
0.0065186690
-0.0037112681
0.0135228970
0.0049998989
0.0009253139
-0.0013515191
-0.0009225288
0.0004515717
-0.0021810720
-0.0032277844
0.0024862870
-0.0012666002
0.0051726457
0.0021650246
-0.0007310922
-0.0005500967
0.0001321326
-0.0010286404
0.0006392644
-0.0001887440
0.0003180793
0.0014154114
0.0006390103
0.0059511193
0.0007159887
-0.0013608896
0.0002276468
-0.0010860467
-0.0017622997
-0.0024822637
0.0023983446
-0.0005914477
0.0044746959
0.0159659389
0.0025206566
-0.0031867359
-0.0002677430
0.0008260071
-0.0078859335
-0.0084645811
0.0077513839
-0.0032949608
0.0157059371
0.0208514099
0.0064715076
-0.0069622062
-0.0049376563
0.0047582777
-0.0140522694
-0.0161789205
0.0131043349
-0.0068658603
0.0265458570
0.0177787768
0.0102709442
-0.0097821175
-0.0106991074
0.0087286030
-0.0162359428
-0.0184991766
0.0133424228
-0.0090527967
0.0299545273
0.0113306180
0.0110879762
-0.0105738932
-0.0133961681
0.0098285311
-0.0152110784
-0.0166492365
0.0109811073
-0.0083543618
0.0273944884
0.0149353168
0.0052611333
-0.0056060009
-0.0048810129
0.0044055244
-0.0105151523
-0.0121501684
0.0090505191
-0.0053921428
0.0204054101
0.0182677369
-0.0003882988
-0.0017128993
0.0037253193
-0.0022463117
-0.0054901566
-0.0071120153
0.0069999622
-0.0019339401
0.0132133226
0.0158536625
-0.0029489136
-0.0002617157
0.0050627444
-0.0052289374
-0.0014639078
-0.0032022022
0.0040634752
0.0003345768
0.0069949675
0.0134749487
-0.0017077237
-0.0004911060
0.0035462018
-0.0050601496
-0.0008186706
-0.0023754342
0.0035873515
0.0004342342
0.0061321137
0.0105606096
0.0028112574
-0.0041799878
-0.0031864398
0.0021451198
-0.0060656371
-0.0076754394
0.0060424108
-0.0032280753
0.0128528208
0.0119647751
0.0094828348
-0.0085865989
-0.0108498785
0.0089931620
-0.0130910144
-0.0149726302
0.0108315484
-0.0079939983
0.0245116758
0.0279465221
0.0096844056
-0.0096164621
-0.0070813737
0.0072853228
-0.0193524456
-0.0222593071
0.0174926325
-0.0099393260
0.0367108326
0.0519473045
0.0053911615
-0.0075670752
0.0030459296
0.0016236520
-0.0240586598
-0.0293148547
0.0252539194
-0.0108000589
0.0495505397
0.0569156013
0.0093513701
-0.0112661971
-0.0013328430
0.0045192206
-0.0295677300
-0.0357295672
0.0297354586
-0.0137877459
0.0600557491
0.0376372830
0.0209716601
-0.0196419853
-0.0208987819
0.0184113821
-0.0348820880
-0.0391094977
0.0285178934
-0.0190988050
0.0632532579
0.0232452294
0.0233453145
-0.0200252184
-0.0256049556
0.0215055326
-0.0318491780
-0.0346527854
0.0233213000
-0.0184402712
0.0549466867
0.0235456498
0.0113327962
-0.0110312825
-0.0109735104
0.0095913457
-0.0201129820
-0.0225744286
0.0172600061
-0.0107061217
0.0366137077
0.0309941175
-0.0038246917
-0.0003289871
0.0096245146
-0.0069341927
-0.0067466695
-0.0101319599
0.0108581807
-0.0016056305
0.0194423356
0.0532804973
-0.0197671003
0.0111065090
0.0349965257
-0.0261160166
0.0018224164
-0.0027358253
0.0107890507
0.0062364454
0.0105543791
0.0706152988
-0.0293827134
0.0179532996
0.0505611074
-0.0367964067
0.0052047733
-0.0008812063
0.0128039566
0.0103551461
0.0094925021
0.0563412238
-0.0195021770
0.0108152725
0.0353579683
-0.0255068184
0.0001624228
-0.0045296682
0.0124319964
0.0059384722
0.0135730221
0.0268471434
0.0019799308
-0.0044017165
0.0018077530
-0.0006073192
-0.0116453463
-0.0139760377
0.0124149485
-0.0049872704
0.0243718406
0.0224057548
0.0135363753
-0.0126339776
-0.0138454366
0.0118416964
-0.0216499837
-0.0242398427
0.0171744373
-0.0119581013
0.0386520748
0.0442949905
0.0082134036
-0.0084823653
-0.0020197277
0.0046471308
-0.0241270636
-0.0282765605
0.0233082249
-0.0110386393
0.0476974251
0.0618786938
0.0011134998
-0.0034642431
0.0118581691
-0.0038746573
-0.0228623382
-0.0286738339
0.0276767009
-0.0090488632
0.0495107120
0.0849376344
-0.0049978051
0.0000940283
0.0243575364
-0.0115462674
-0.0252860204
-0.0325602187
0.0337319407
-0.0081907969
0.0590807045
0.1137124485
-0.0064533165
-0.0018536791
0.0305590225
-0.0164348702
-0.0341116323
-0.0440139533
0.0448515139
-0.0110902436
0.0798453747
0.1113270556
0.0050005853
-0.0130912885
0.0117013060
-0.0056397651
-0.0447074258
-0.0544338683
0.0500309401
-0.0183494489
0.0966044207
0.0753686434
0.0226223939
-0.0250830511
-0.0187812668
0.0147692618
-0.0492713427
-0.0573530117
0.0446769773
-0.0244854815
0.0950151748
0.0415135006
0.0315897698
-0.0287550428
-0.0354297880
0.0288485414
-0.0466575191
-0.0514685164
0.0357507582
-0.0262267128
0.0822431197
0.0324536950
0.0330981222
-0.0285663430
-0.0374168867
0.0309855126
-0.0456685192
-0.0495547740
0.0340231916
-0.0263812162
0.0780776188
0.0334994860
0.0373072895
-0.0295595878
-0.0398330600
0.0365592460
-0.0503041849
-0.0539099991
0.0360814730
-0.0291273263
0.0845918828
0.0387633266
0.0387242923
-0.0290147294
-0.0391124823
0.0387583747
-0.0542450627
-0.0579899307
0.0397534841
-0.0313055618
0.0904356837
0.0505704716
0.0270376110
-0.0219368604
-0.0230061992
0.0238062642
-0.0451455239
-0.0499793217
0.0367274850
-0.0243034357
0.0797546548
0.0498385275
0.0083881357
-0.0103650751
-0.0032538893
0.0042070470
-0.0258518017
-0.0305122213
0.0261770867
-0.0121531680
0.0517840663
0.0340631701
0.0035695742
-0.0052029819
0.0002702891
0.0009515985
-0.0152479844
-0.0174744348
0.0160095055
-0.0066892267
0.0317981766
0.0229782236
0.0094169726
-0.0075625165
-0.0081889972
0.0091116150
-0.0171062066
-0.0192183162
0.0151649913
-0.0092638670
0.0303359975
0.0218165154
0.0121502089
-0.0079280632
-0.0101250090
0.0126040592
-0.0202928328
-0.0220924681
0.0162048442
-0.0110568201
0.0336675980
0.0270772145
0.0069439120
-0.0050490970
-0.0031314061
0.0058898961
-0.0167548317
-0.0183279805
0.0154060249
-0.0079159378
0.0301890665
0.0231077957
0.0006844237
-0.0005395613
0.0044652939
-0.0005205403
-0.0091675036
-0.0105656782
0.0108846525
-0.0037327487
0.0187712541
0.0084803049
0.0018524391
0.0007551775
0.0011022602
0.0023948869
-0.0053418439
-0.0059181225
0.0049836610
-0.0026413396
0.0086806400
0.0003830851
0.0062463593
-0.0040959530
-0.0087143161
0.0069069668
-0.0059999610
-0.0060988740
0.0041612278
-0.0041145196
0.0087389569
0.0026018988
0.0082044929
-0.0095321301
-0.0151915942
0.0069307047
-0.0079992817
-0.0087670798
0.0048440720
-0.0054108597
0.0134805017
0.0037332702
0.0053653167
-0.0114853048
-0.0151619677
0.0027413013
-0.0050178817
-0.0059089377
0.0033314502
-0.0033715734
0.0104208374
-0.0008949055
0.0013692803
-0.0093605671
-0.0126724766
-0.0022755439
0.0024040610
0.0003890318
-0.0015299079
0.0000765543
0.0011358086
-0.0040337821
-0.0012963260
-0.0050393892
-0.0070958109
-0.0045279689
0.0053128865
0.0045677698
-0.0026441166
0.0027211767
-0.0057457083
0.0007081239
-0.0014357940
-0.0007870111
-0.0023965490
-0.0025830751
0.0019612544
0.0019636558
-0.0010932146
0.0015256577
-0.0023012334
0.0056438883
0.0004624297
-0.0018168959
-0.0013234642
-0.0015002130
-0.0013659795
-0.0020375718
0.0024618250
-0.0005090635
0.0037454250
0.0063487775
0.0002199616
-0.0046654191
-0.0042411421
-0.0025136788
-0.0013305594
-0.0020752577
0.0017733372
-0.0006417729
0.0053660446
0.0086166384
-0.0033000273
-0.0077446693
-0.0045585990
-0.0100116268
0.0033442856
0.0006488363
0.0002042237
0.0022239770
0.0035540612
0.0185388919
-0.0129374721
-0.0037946576
0.0061639364
-0.0203589302
0.0094762636
0.0064980258
-0.0018271996
0.0069033596
-0.0042308367
0.0300362202
-0.0204341300
-0.0018276674
0.0129633604
-0.0306823685
0.0139585956
0.0103690699
-0.0017894461
0.0107022272
-0.0075798773
0.0334778038
-0.0200294288
-0.0042727077
0.0117795164
-0.0308749922
0.0129380723
0.0082924826
-0.0010232228
0.0107892153
-0.0045734044
0.0190355919
-0.0112305788
-0.0038017344
0.0032166080
-0.0179027271
0.0080848577
0.0053102651
-0.0011393089
0.0060879326
-0.0033728480
0.0068851154
-0.0073946731
0.0028031969
0.0059370083
-0.0089059322
0.0067299580
0.0055296026
-0.0024157048
0.0043187175
-0.0079502795
0.0051485692
-0.0086994339
0.0088566832
0.0117008771
-0.0093185376
0.0078113493
0.0078402873
-0.0024560269
0.0056781883
-0.0124937125
-0.0003684060
-0.0077267541
0.0112517314
0.0125478661
-0.0066119448
0.0091722258
0.0103041099
-0.0049618068
0.0058155092
-0.0182310310
-0.0074148684
-0.0045923321
0.0038240351
0.0013234541
-0.0042284352
0.0084663497
0.0095075168
-0.0067282289
0.0047888298
-0.0163054473
-0.0121099179
0.0010287356
-0.0127870149
-0.0200760967
-0.0056188746
0.0068898748
0.0061305620
-0.0067291088
0.0022750267
-0.0054604937
-0.0098356191
0.0046651843
-0.0380949498
-0.0469227420
-0.0158900006
0.0062084579
0.0010349060
-0.0058225939
0.0009483940
0.0112992682
-0.0073318439
0.0082121891
-0.0703988482
-0.0798263967
-0.0317552594
0.0079190180
-0.0029123771
-0.0065473482
0.0008022762
0.0280904316
-0.0107869168
0.0083238188
-0.0817261133
-0.0951975671
-0.0363534548
0.0106412800
-0.0013342841
-0.0085275513
0.0013628909
0.0293067698
-0.0082935576
0.0064256171
-0.0869588732
-0.0988638960
-0.0416237686
0.0130853474
0.0002956488
-0.0098065492
0.0029869520
0.0290532545
-0.0007266889
0.0066343862
-0.0975200601
-0.1069925111
-0.0478687240
0.0116249149
-0.0042709388
-0.0073272866
0.0020496627
0.0413541191
0.0037318434
0.0065059252
-0.0807518398
-0.0872412971
-0.0399709663
0.0064059722
-0.0072785260
-0.0032317441
0.0002267187
0.0412579714
-0.0020394979
0.0037665004
-0.0371728987
-0.0418601734
-0.0177130903
0.0041169388
-0.0022616447
-0.0027364467
0.0007464630
0.0167302142
-0.0079424913
0.0031569386
-0.0195433438
-0.0245228529
-0.0075945824
0.0033947542
0.0008651492
-0.0034593623
0.0006187098
0.0048973140
0.0025670509
0.0008081139
-0.0306313788
-0.0324096640
-0.0187865799
0.0046923677
-0.0011450679
-0.0016861577
0.0011941906
0.0145221113
0.0136811712
-0.0076052221
-0.0200165971
-0.0151905465
-0.0252100599
0.0091683282
0.0043745864
-0.0020580628
0.0057721039
0.0051968360
0.0090720483
-0.0114424281
-0.0212228187
-0.0168334802
-0.0296204767
0.0147113382
0.0100317627
-0.0065851544
0.0086030083
-0.0026028342
0.0128460941
-0.0131373669
-0.0252004526
-0.0187382727
-0.0348871808
0.0164134374
0.0101286184
-0.0064774214
0.0101182931
-0.0007656799
0.0214795670
-0.0131400173
-0.0264727972
-0.0160159976
-0.0352341633
0.0127629575
0.0055970467
-0.0028533215
0.0082038583
0.0072162473
0.0292335954
-0.0112061473
-0.0350903069
-0.0244246736
-0.0395888240
0.0094900636
0.0000399218
0.0008249280
0.0063882908
0.0198528272
0.0449809041
-0.0189761658
-0.0259253666
-0.0073340983
-0.0453235324
0.0111382763
0.0012735633
0.0031053587
0.0090470447
0.0169829646
0.0513732706
-0.0272312352
-0.0102295359
0.0131216417
-0.0472003545
0.0157803575
0.0074874427
0.0018951581
0.0131767024
0.0035045932
0.0373860567
-0.0201094687
-0.0322002491
-0.0168075437
-0.0493573018
0.0165445446
0.0066119154
-0.0020720396
0.0116351969
0.0096754323
0.0236548722
-0.0129786300
-0.0383759286
-0.0295973206
-0.0421494605
0.0152839131
0.0058188238
-0.0039641267
0.0090066186
0.0101190758
0.0249665151
-0.0178310472
-0.0131563952
-0.0010385322
-0.0338938908
0.0146240236
0.0091280804
-0.0023964123
0.0105213744
-0.0032285960
0.0266019248
-0.0216486808
-0.0026619852
0.0138784626
-0.0343603870
0.0160478063
0.0121201238
-0.0029999826
0.0121055346
-0.0076972481
0.0211977350
-0.0149554960
-0.0079108194
0.0051938311
-0.0289210456
0.0110253181
0.0061020326
-0.0011510895
0.0081057671
0.0014533463
0.0160561071
-0.0077673253
-0.0046595261
0.0033382669
-0.0151681116
0.0041128327
0.0006314169
0.0016548167
0.0035556639
0.0051551764
0.0063637423
-0.0029312597
-0.0125387221
-0.0092402399
-0.0124947523
0.0033999393
0.0002322755
-0.0004535009
0.0020784765
0.0061937818
0.0067396902
-0.0096301901
-0.0064892192
-0.0014197249
-0.0181059654
0.0102153226
0.0075021875
-0.0039893692
0.0064160689
-0.0055847437
0.0190299578
-0.0174544265
-0.0058265283
0.0052720210
-0.0292186763
0.0155782151
0.0109623688
-0.0046453506
0.0104992062
-0.0084455026
0.0161514552
-0.0146447602
-0.0227635156
-0.0145135343
-0.0341113541
0.0158364781
0.0097901794
-0.0060634738
0.0097901503
-0.0014189932
0.0045591836
-0.0114821252
-0.0217881699
-0.0186868602
-0.0279278365
0.0164392716
0.0119294891
-0.0089524134
0.0099164908
-0.0076270474
0.0061770438
-0.0116553087
-0.0131612394
-0.0103422596
-0.0231006417
0.0149744716
0.0115537638
-0.0078477779
0.0085225300
-0.0107731513
0.0115796024
-0.0092221693
-0.0195848996
-0.0153174967
-0.0238575775
0.0109666688
0.0066600332
-0.0042627864
0.0064546367
-0.0006174808
0.0151125216
-0.0086640454
-0.0237896727
-0.0193045403
-0.0260475702
0.0096942643
0.0041208046
-0.0027333673
0.0060071489
0.0049603920
0.0149790662
-0.0130465215
-0.0073934852
-0.0014420588
-0.0229855773
0.0127552937
0.0096084486
-0.0049994454
0.0082700413
-0.0084129177
-0.0000822164
-0.0167428330
-0.0064505650
-0.0027118168
-0.0251179910
0.0221052260
0.0202479883
-0.0135730347
0.0128033676
-0.0258330978
-0.0293122571
-0.0184569807
-0.0094918933
-0.0118523061
-0.0276460436
0.0356042394
0.0351716635
-0.0272831668
0.0182604771
-0.0491041572
-0.0392389334
-0.0173786598
-0.0103056570
-0.0166030738
-0.0255237878
0.0380089690
0.0387820090
-0.0307825076
0.0191083279
-0.0557576103
-0.0178445668
-0.0136533327
-0.0201847079
-0.0233138242
-0.0276952430
0.0276349362
0.0255494579
-0.0201973747
0.0141020159
-0.0311962298
0.0056260780
-0.0124640599
-0.0223242058
-0.0192869412
-0.0287218663
0.0177188950
0.0133434088
-0.0098366096
0.0098447109
-0.0095815124
0.0118683289
-0.0111555940
-0.0125918587
-0.0076538508
-0.0219924178
0.0117295195
0.0081662380
-0.0045963085
0.0075988770
-0.0049304335
0.0041312269
-0.0042087221
-0.0106363282
-0.0089427816
-0.0118113517
0.0064844915
0.0043978255
-0.0032395799
0.0038769428
-0.0010738407
-0.0036923819
0.0006119392
-0.0104949424
-0.0123852992
-0.0051543687
0.0033776806
0.0016169208
-0.0022826763
0.0010580283
0.0006266935
-0.0124240361
-0.0038502670
0.0073653663
0.0069166758
0.0005697352
0.0075056550
0.0095417740
-0.0068359359
0.0042049191
-0.0174012662
-0.0131747495
-0.0077528658
0.0181699074
0.0199961549
0.0006208394
0.0114402541
0.0144495233
-0.0085959869
0.0063419058
-0.0269014214
-0.0016646582
-0.0071641372
0.0114524108
0.0143693688
-0.0033476852
0.0077030044
0.0088680578
-0.0047681692
0.0047405105
-0.0148848068
-0.0084281908
-0.0087947702
0.0148275259
0.0171293360
-0.0024820508
0.0109820908
0.0138086088
-0.0084153362
0.0069197193
-0.0253236849
-0.0190800984
-0.0101182972
0.0210322397
0.0216501850
0.0000973503
0.0156754056
0.0203106763
-0.0135227986
0.0088538553
-0.0381780282
-0.0125800872
-0.0086778247
0.0186561236
0.0193819387
0.0001124072
0.0122863346
0.0159454041
-0.0102091280
0.0071677418
-0.0308011954
-0.0028787975
-0.0058157535
0.0119403613
0.0137068432
-0.0009840386
0.0071852035
0.0089404119
-0.0050870437
0.0043297470
-0.0175554977
-0.0130807072
-0.0059660336
0.0162698342
0.0162285818
0.0026616783
0.0090424194
0.0126087374
-0.0080106558
0.0054792672
-0.0243564853
-0.0230129921
-0.0050822639
0.0194182533
0.0166472620
0.0053723961
0.0111964461
0.0156690656
-0.0112184374
0.0056709734
-0.0313081277
-0.0278894028
-0.0058917733
0.0253072167
0.0222311899
0.0074996086
0.0127272476
0.0190087996
-0.0129954402
0.0066973211
-0.0375303852
-0.0319135859
-0.0060956119
0.0284074922
0.0251539326
0.0093506921
0.0137805269
0.0203803197
-0.0144051919
0.0071725058
-0.0416180115
-0.0205983946
-0.0026945223
0.0181828198
0.0157528621
0.0077825944
0.0074926952
0.0117549435
-0.0083827944
0.0039481738
-0.0250795486
-0.0262222129
-0.0004322300
0.0050015192
-0.0006422528
0.0031015120
0.0095312257
0.0119539380
-0.0098991778
0.0042043165
-0.0208725175
-0.0238722127
-0.0027558085
0.0064984947
0.0026666147
0.0005206629
0.0113161622
0.0132262012
-0.0107989057
0.0050369263
-0.0230583278
-0.0065402269
-0.0034695293
0.0068449852
0.0075933051
0.0001359466
0.0052836899
0.0066855865
-0.0042682097
0.0029857831
-0.0116214424
-0.0036954973
-0.0015991843
-0.0007863322
-0.0011973958
-0.0023401128
0.0038533744
0.0035737456
-0.0029463923
0.0018269566
-0.0047384938
-0.0042925000
-0.0002319330
-0.0088480347
-0.0101795757
-0.0044400971
0.0035945430
0.0023536197
-0.0029947374
0.0014404559
-0.0002951475
-0.0054460488
-0.0029278128
-0.0039469797
-0.0042106606
-0.0069421453
0.0066425889
0.0057947802
-0.0047156258
0.0035362351
-0.0064258896
-0.0445432825
-0.0065610498
0.0123919489
0.0051319627
-0.0006144871
0.0221523495
0.0267825140
-0.0214512609
0.0102700754
-0.0459938507
-0.0828050750
-0.0056933660
0.0213713147
0.0057425397
0.0072422460
0.0335095843
0.0425502969
-0.0353523682
0.0148172181
-0.0756011581
-0.0541216356
-0.0024899113
0.0122039656
0.0021031003
0.0055857736
0.0205951428
0.0256727674
-0.0220991842
0.0085092701
-0.0455318384
-0.0283586850
-0.0022442003
0.0129022824
0.0086208281
0.0052178776
0.0110892396
0.0149940158
-0.0116001549
0.0049360943
-0.0283281097
-0.0388708174
-0.0023268925
0.0153621914
0.0089658651
0.0078037584
0.0137204882
0.0190800596
-0.0148380109
0.0058872935
-0.0352449309
-0.0293372586
0.0019788722
0.0061101379
-0.0008625328
0.0075257040
0.0071061933
0.0096674488
-0.0089824263
0.0021359011
-0.0185495955
-0.0119508702
0.0047969963
0.0026277819
-0.0006356594
0.0090171960
-0.0020491183
-0.0008931402
-0.0000703401
-0.0017702163
-0.0012538973
-0.0121369473
0.0048893543
0.0031745887
-0.0007273559
0.0089242283
-0.0021298048
-0.0003653124
-0.0004961196
-0.0019940539
-0.0003954964
-0.0123593746
0.0051422218
-0.0016298006
-0.0052587653
0.0061345624
-0.0018201488
-0.0001149485
-0.0008551499
-0.0016013693
0.0016032323
-0.0042412318
0.0055392485
-0.0031222078
-0.0054423325
0.0050437399
-0.0039880735
-0.0042817328
0.0020772418
-0.0032666238
0.0075112667
0.0017796969
0.0041935893
-0.0002076717
-0.0010974257
0.0055942816
-0.0058972359
-0.0058561847
0.0043673454
-0.0033143222
0.0084061317
-0.0076051075
0.0021118630
-0.0006317250
-0.0022535953
0.0027820125
0.0004914032
0.0007340901
-0.0011085309
-0.0001199747
-0.0016964570
-0.0460225174
-0.0043313337
0.0109141670
0.0031516591
0.0018624164
0.0199510692
0.0241749416
-0.0198690227
0.0088208942
-0.0409982367
-0.0865939496
-0.0071434052
0.0179748168
0.0022955275
0.0039346703
0.0376219858
0.0447692990
-0.0379463891
0.0160393634
-0.0770412118
-0.0710304368
-0.0046118927
0.0165212585
0.0029971576
0.0051058952
0.0286386803
0.0355396754
-0.0294950017
0.0129801866
-0.0624339544
-0.0250436944
-0.0009698419
0.0080097997
0.0039543310
0.0039615819
0.0086479646
0.0116441124
-0.0094600100
0.0038770696
-0.0210558450
-0.0276356036
-0.0015096294
0.0036593376
-0.0018186568
0.0009730765
0.0108263215
0.0130013708
-0.0113773030
0.0044297237
-0.0216242873
-0.0675585006
-0.0060548825
0.0084759848
-0.0042107077
0.0000099836
0.0296734129
0.0356255464
-0.0303850597
0.0129247146
-0.0586854806
-0.0707346022
-0.0068166675
0.0134844982
0.0005300497
0.0014557898
0.0313488303
0.0383005036
-0.0319513895
0.0138672972
-0.0652667377
-0.0537520990
-0.0034570648
0.0094084406
-0.0014690165
0.0034551641
0.0230963099
0.0271847625
-0.0218827009
0.0103071091
-0.0474394536
-0.0703959919
-0.0035079561
0.0116148021
-0.0031447218
0.0058087273
0.0275850609
0.0341829303
-0.0292765439
0.0113830411
-0.0597443369
-0.1011480788
-0.0069533767
0.0213959199
0.0004995176
0.0080009742
0.0410398510
0.0513018121
-0.0429095278
0.0174945366
-0.0889398368
-0.0954236066
-0.0069599738
0.0182750003
-0.0005613367
0.0060912812
0.0391136897
0.0487749300
-0.0415323826
0.0171001919
-0.0840647276
-0.0582702030
-0.0034721745
0.0105283886
-0.0022310964
0.0036792466
0.0240418640
0.0301953484
-0.0250302446
0.0101501164
-0.0503765583
-0.0284183457
-0.0010171712
0.0040845962
-0.0027364578
0.0030500621
0.0106186083
0.0133368709
-0.0118834371
0.0042516902
-0.0233084307
-0.0028740424
-0.0004071320
-0.0022741887
-0.0028313307
-0.0011986314
0.0020160731
0.0020885307
-0.0015919162
0.0008301715
-0.0019634932
0.0092729064
-0.0024568571
-0.0010782414
0.0025481439
-0.0052436249
0.0005620041
-0.0006478243
0.0017916585
0.0010358076
0.0027162986
-0.0193724070
-0.0068111029
0.0084010691
0.0076451303
-0.0037690165
0.0133333230
0.0158896756
-0.0111836840
0.0069061463
-0.0252364070
-0.0553213876
-0.0069664834
0.0102569887
0.0010847984
-0.0009973001
0.0263380281
0.0312003313
-0.0259219302
0.0119102814
-0.0522051992
-0.0538388433
-0.0055097791
0.0088671902
-0.0011207581
-0.0013654945
0.0248903484
0.0298422542
-0.0247243846
0.0111796222
-0.0490972788
-0.0168273928
-0.0054884214
0.0032482239
0.0009751195
-0.0045392369
0.0120191700
0.0134853701
-0.0103600712
0.0059871586
-0.0211905785
0.0096951882
-0.0043852963
-0.0068046472
-0.0029789276
-0.0099852738
0.0028946330
0.0005851926
0.0002164534
0.0025464381
0.0034611055
0.0101128195
-0.0030233879
-0.0101742823
-0.0068124859
-0.0110340302
0.0024112099
-0.0005801745
0.0007157830
0.0016067355
0.0065219162
0.0057778578
-0.0015979707
-0.0016927488
-0.0006036709
-0.0037929930
0.0003521148
-0.0008538557
0.0012487109
0.0005244532
0.0031127844
0.0053992827
0.0009663014
-0.0008919565
-0.0000364404
0.0014177651
-0.0029853743
-0.0028918060
0.0028809571
-0.0011671858
0.0054664725
-0.0017813489
0.0008550191
-0.0007826282
-0.0010911248
0.0012524466
-0.0001784320
-0.0002710246
-0.0002187590
-0.0003937834
0.0004424305
-0.0103048995
-0.0011164986
0.0005951211
-0.0014607310
-0.0003744159
0.0048973851
0.0058047747
-0.0050050441
0.0024382446
-0.0094714395
-0.0126327022
-0.0016991301
-0.0014122209
-0.0039657894
-0.0039535659
0.0079599917
0.0091715295
-0.0067322371
0.0037367600
-0.0123994234
-0.0097423390
-0.0017995730
-0.0034998593
-0.0055568832
-0.0048639148
0.0067382936
0.0065585276
-0.0055995148
0.0030553342
-0.0086445291
-0.0034448420
-0.0007902192
-0.0014022882
-0.0020863033
-0.0010223065
0.0026608494
0.0027434465
-0.0022978416
0.0011059371
-0.0023779054
-0.0053630692
-0.0001905213
0.0001311873
-0.0010146292
-0.0001645567
0.0025601791
0.0030956324
-0.0020964329
0.0010987694
-0.0042706045
-0.0102042249
-0.0034631405
0.0030279388
0.0030217804
-0.0031553043
0.0073326617
0.0082237208
-0.0055678891
0.0037773026
-0.0125172498
-0.0145831090
-0.0070735793
0.0078770174
0.0088103167
-0.0065348305
0.0130687023
0.0147166464
-0.0100814567
0.0073368971
-0.0231615570
-0.0129884848
-0.0085152377
0.0040542003
0.0043797494
-0.0098450423
0.0143425176
0.0147322720
-0.0101866175
0.0079498036
-0.0207186321
-0.0049954492
-0.0050286061
-0.0045547026
-0.0032291323
-0.0097491192
0.0085448651
0.0084659048
-0.0056713887
0.0046362674
-0.0082126968
0.0087693644
-0.0035093752
-0.0062790999
-0.0025856170
-0.0082815061
0.0022052565
-0.0000230487
0.0007418068
0.0019579580
0.0040846177
0.0148249127
-0.0033377244
-0.0032424115
0.0014314947
-0.0069056830
-0.0004509776
-0.0029521812
0.0036133970
0.0007446419
0.0080156482
0.0093657894
-0.0024896480
0.0010693536
0.0045567174
-0.0031931055
-0.0005482628
-0.0010887309
0.0021779486
0.0003330075
0.0030051790
0.0054434837
-0.0022699258
0.0022459268
0.0038169245
-0.0026146833
0.0013225447
0.0009045707
0.0005643296
0.0014947262
-0.0006665136
-0.0012978423
-0.0009153392
-0.0028999843
-0.0029180182
-0.0028726007
0.0020604516
0.0014990297
-0.0014136570
0.0014096500
-0.0010130710
-0.0092966554
0.0010567966
-0.0081745084
-0.0111759355
-0.0027940953
0.0039315954
0.0033274836
-0.0039159269
0.0010778626
-0.0024858965
-0.0141343539
-0.0006159921
-0.0083276670
-0.0120565160
-0.0035546519
0.0083693097
0.0073857687
-0.0073400633
0.0029970275
-0.0097675845
-0.0164081682
-0.0029157893
-0.0037368828
-0.0073669051
-0.0056152892
0.0111590795
0.0128892103
-0.0097742441
0.0052457697
-0.0166042871
-0.0192125421
-0.0043844197
0.0062734278
0.0032433006
-0.0025156281
0.0120068760
0.0143814414
-0.0106815896
0.0060096802
-0.0234029728
-0.0138097755
-0.0063434899
0.0117977249
0.0112910801
-0.0013824062
0.0105767467
0.0126987028
-0.0085613019
0.0056658707
-0.0226686689
-0.0046498987
-0.0067062485
0.0092839303
0.0119472873
-0.0051260216
0.0085163921
0.0100431234
-0.0052092020
0.0056860396
-0.0155418017
-0.0085376190
-0.0051403027
0.0034779488
0.0035748324
-0.0052629815
0.0085519171
0.0091988048
-0.0063486743
0.0049886946
-0.0141910243
-0.0156743719
-0.0039208320
0.0000826074
-0.0041210301
-0.0047078721
0.0110171305
0.0116563374
-0.0094227496
0.0051894986
-0.0180143671
-0.0130569521
-0.0058690100
0.0001685834
-0.0022161142
-0.0081692183
0.0127983909
0.0133921243
-0.0101957771
0.0066566914
-0.0200210565
-0.0075241900
-0.0086181703
0.0030934051
0.0037655561
-0.0097631617
0.0126142399
0.0128677895
-0.0086784918
0.0076324236
-0.0192567308
-0.0090450337
-0.0061056846
0.0074857148
0.0068441184
-0.0039480329
0.0093946275
0.0110935525
-0.0074112081
0.0051869365
-0.0187064511
-0.0072447783
-0.0025776736
0.0106086760
0.0080791281
0.0023545302
0.0048285507
0.0070583348
-0.0045326459
0.0025248946
-0.0148855756
-0.0048450549
0.0024518379
0.0081417895
0.0049812067
0.0072706573
-0.0006255224
0.0013974606
-0.0009858220
-0.0004882545
-0.0063713785
-0.0072325319
0.0066582814
0.0029528000
-0.0029728360
0.0102728785
-0.0038356051
-0.0033569304
0.0013315113
-0.0034939969
0.0018213329
-0.0175498209
0.0068482215
0.0008805940
-0.0086426516
0.0106219591
-0.0007346697
0.0009160253
-0.0030436187
-0.0019199385
-0.0050210683
-0.0291472971
0.0010023537
0.0013214564
-0.0079996626
0.0040185490
0.0099572828
0.0126330260
-0.0116218929
0.0035410344
-0.0227503062
-0.0369067114
-0.0048845084
0.0027995669
-0.0060093496
-0.0032673922
0.0198469954
0.0230686594
-0.0185866262
0.0092320341
-0.0383734017
-0.0482476159
-0.0060974877
0.0125688861
0.0004174769
0.0010299861
0.0239969423
0.0297564618
-0.0240362510
0.0115375024
-0.0529073141
-0.0376628607
-0.0081495468
0.0144442147
0.0053623286
-0.0012301144
0.0220578681
0.0268828277
-0.0201528961
0.0110104306
-0.0478669065
-0.0103964027
-0.0095271109
-0.0006584077
0.0001328084
-0.0132197774
0.0154486605
0.0151313710
-0.0101242982
0.0084243769
-0.0209291553
-0.0026154554
-0.0044516359
-0.0037325449
-0.0029860085
-0.0094459001
0.0076795206
0.0066426518
-0.0048387411
0.0045797135
-0.0074938437
-0.0083261042
-0.0005019775
0.0086272847
0.0062548497
0.0032424841
0.0022167197
0.0042250521
-0.0026488763
0.0011203226
-0.0092095930
-0.0037744516
-0.0015490923
0.0148429876
0.0146650151
0.0050263811
0.0006512652
0.0026838113
-0.0005661610
0.0007485776
-0.0083996660
-0.0050658306
-0.0067555103
0.0116453389
0.0137997319
-0.0033656476
0.0078473710
0.0092386929
-0.0046807972
0.0050885658
-0.0162184962
-0.0098505309
-0.0131067255
0.0036945231
0.0041905771
-0.0153749216
0.0189941469
0.0196123206
-0.0132783055
0.0109072391
-0.0294764481
-0.0042449162
-0.0163370211
-0.0103565241
-0.0081559317
-0.0279227078
0.0245956517
0.0224189269
-0.0156435118
0.0137418010
-0.0281545952
0.0051769170
-0.0119235760
-0.0226216978
-0.0202658188
-0.0295509333
0.0178744440
0.0132489268
-0.0098770921
0.0101495931
-0.0098062043
0.0015510656
0.0000324149
-0.0189608941
-0.0204447906
-0.0109975153
0.0028243133
-0.0003128455
-0.0013648500
0.0009325531
0.0073361446
-0.0052143401
0.0101760322
-0.0058023377
-0.0113694587
0.0098049110
-0.0087655779
-0.0096731131
0.0052226363
-0.0062227191
0.0150333103
-0.0090129072
0.0104960750
0.0047487870
-0.0008525355
0.0168765656
-0.0102358063
-0.0088728419
0.0049308750
-0.0068124865
0.0097885862
-0.0099578588
0.0053138252
0.0066915546
0.0028811498
0.0105140219
-0.0035772024
-0.0013241042
0.0006321044
-0.0019706851
-0.0011827639
-0.0139697953
0.0001420290
0.0050262668
0.0018155733
0.0036786713
0.0041693898
0.0054834696
-0.0041389248
0.0015571148
-0.0099066247
-0.0177963021
-0.0015251696
0.0057157991
0.0024553822
0.0003905602
0.0073650750
0.0090922620
-0.0066940268
0.0034982130
-0.0154307229
-0.0191510640
-0.0024736741
0.0043832364
0.0009770804
-0.0021557893
0.0086450784
0.0109502141
-0.0079460998
0.0043935483
-0.0150002852
-0.0113728253
-0.0029671691
-0.0032501210
-0.0039083399
-0.0084571691
0.0080880271
0.0071500351
-0.0056767692
0.0050616911
-0.0075013938
-0.0008218384
-0.0044647237
-0.0097322279
-0.0086628769
-0.0140214023
0.0072889280
0.0047787329
-0.0037911691
0.0038822225
-0.0005875814
-0.0017679500
-0.0025752000
0.0005093380
-0.0009236473
-0.0054527337
0.0055759643
0.0041835813
-0.0024927507
0.0031073974
-0.0048040993
-0.0143139987
0.0043045105
0.0154485147
0.0077836711
0.0139049508
-0.0018208803
0.0016939222
-0.0010533842
-0.0016386694
-0.0107476582
-0.0160643204
0.0111559773
0.0167018922
0.0059634524
0.0234855200
-0.0099372451
-0.0054377700
0.0031347986
-0.0066637561
-0.0009916708
-0.0000963380
0.0136210965
-0.0098588332
-0.0160321177
0.0108693689
-0.0140966650
-0.0157777363
0.0093388584
-0.0091760647
0.0263140789
0.0071380093
0.0142520507
-0.0356086934
-0.0403093219
-0.0040587696
-0.0130918881
-0.0194340078
0.0099496933
-0.0086200195
0.0420512996
0.0035773498
0.0111612591
-0.0413162850
-0.0463915873
-0.0113774943
-0.0060711193
-0.0128679939
0.0046666912
-0.0052043729
0.0344105818
0.0048197275
0.0021962324
-0.0317785720
-0.0333274504
-0.0165275986
0.0018125493
-0.0039044098
0.0002996914
-0.0001769060
0.0179550702
0.0098933887
-0.0045053137
-0.0253669538
-0.0227879510
-0.0229615173
0.0076385611
0.0014844762
-0.0018626186
0.0037664289
0.0101692992
0.0171840182
-0.0089510929
-0.0345394489
-0.0271876421
-0.0343462041
0.0112204833
0.0021631651
-0.0021220385
0.0062015842
0.0144163336
0.0282068755
-0.0173069850
-0.0259793892
-0.0117257660
-0.0433392716
0.0148206442
0.0059588769
-0.0020228386
0.0101118683
0.0088416538
0.0408987429
-0.0287369944
0.0036640205
0.0269306619
-0.0428994612
0.0180393476
0.0122617964
-0.0010247791
0.0150860213
-0.0070093479
0.0510797767
-0.0329358222
0.0261214140
0.0542217080
-0.0367580137
0.0154136265
0.0121454276
0.0027939838
0.0149037763
-0.0141016926
0.0582330022
-0.0269947383
0.0171562221
0.0448656406
-0.0340311818
0.0073266714
0.0023399475
0.0092346935
0.0102274687
0.0041413736
0.0613526955
-0.0202705264
0.0135069470
0.0390884863
-0.0290424079
-0.0008220117
-0.0068620386
0.0149612577
0.0054534406
0.0189839085
0.0615014143
-0.0199630445
0.0290222120
0.0556350939
-0.0180241252
-0.0044524524
-0.0080401544
0.0176262264
0.0039063696
0.0145152890
0.0604725895
-0.0178681084
0.0205284859
0.0453471545
-0.0193078692
-0.0053437136
-0.0087118679
0.0169453128
0.0029282345
0.0185299752
0.0551590338
-0.0119433497
-0.0122176382
0.0069888093
-0.0305600691
-0.0028212869
-0.0112670268
0.0140511254
0.0023751665
0.0307991035
0.0537120183
-0.0140378879
-0.0307640989
-0.0132346767
-0.0414722615
0.0031155092
-0.0075506106
0.0096097764
0.0049465026
0.0310225402
0.0604032591
-0.0245422651
-0.0162149469
0.0077089926
-0.0470596101
0.0103832709
0.0008455058
0.0073100747
0.0105141151
0.0153276906
0.0738120136
-0.0344150598
0.0024325664
0.0357536747
-0.0518520631
0.0132452954
0.0047069871
0.0081685089
0.0145376669
0.0075560305
0.0946285294
-0.0400048473
0.0024164762
0.0456095658
-0.0632168317
0.0111059328
-0.0006678786
0.0156122418
0.0150688258
0.0206650460
0.1219772573
-0.0488285140
0.0029043622
0.0588433557
-0.0791458275
0.0112542310
-0.0043450535
0.0211737216
0.0176686852
0.0322427173
0.1393255181
-0.0609833302
0.0185582785
0.0839497605
-0.0878825562
0.0162678839
0.0014164149
0.0221192788
0.0229053965
0.0219032686
0.1298114827
-0.0632219126
0.0227685823
0.0857397672
-0.0868504121
0.0226448398
0.0105232621
0.0157853594
0.0256830413
0.0072671236
0.0944658299
-0.0481024701
0.0043179146
0.0500480860
-0.0728792853
0.0208371650
0.0091449354
0.0085871273
0.0211453890
0.0063143245
0.0487183666
-0.0232461408
-0.0093973290
0.0136558155
-0.0423545028
0.0111322111
0.0039171812
0.0048806337
0.0103476437
0.0102624030
0.0142214505
-0.0044668387
-0.0035266509
0.0032510604
-0.0102584494
0.0002534368
-0.0025598648
0.0034722078
0.0012488434
0.0089667379
0.0071639340
0.0013427155
0.0012995704
0.0044721485
0.0005869377
-0.0050295189
-0.0064928262
0.0058843222
-0.0023041231
0.0114507877
0.0223006546
-0.0037390120
-0.0032335558
0.0057462649
-0.0098387064
-0.0040081094
-0.0073725029
0.0081727994
-0.0004133187
0.0171186244
0.0488570334
-0.0181268534
-0.0042578622
0.0163086182
-0.0318073723
0.0042408533
-0.0024265615
0.0084361662
0.0066282101
0.0154462417
0.0708752837
-0.0329063795
-0.0024488739
0.0274916879
-0.0517856941
0.0143906759
0.0056686833
0.0064770112
0.0148751640
0.0055828738
0.0702091703
-0.0364475068
-0.0111780528
0.0183985824
-0.0600504363
0.0208153782
0.0110552616
0.0018262386
0.0179038837
-0.0000517357
0.0461601740
-0.0251345934
-0.0282487206
-0.0119408743
-0.0511655757
0.0194450497
0.0104914730
-0.0028552597
0.0140376195
0.0014947785
0.0169757743
-0.0081200487
-0.0351428657
-0.0334378973
-0.0290277887
0.0110925326
0.0044076494
-0.0039525885
0.0062761120
0.0066795461
0.0025109315
0.0040814372
-0.0188991336
-0.0220780721
-0.0042329833
-0.0019060391
-0.0038106426
0.0013661660
-0.0017432901
0.0115514435
0.0084487628
0.0070245170
-0.0001296268
-0.0010253549
0.0082857259
-0.0120517354
-0.0127650407
0.0094719958
-0.0064361895
0.0201742236
0.0219891080
0.0046329598
0.0019553779
0.0076909625
0.0050961319
-0.0148892289
-0.0166821142
0.0148104360
-0.0066965484
0.0281665153
0.0290076422
0.0001041674
-0.0032318231
0.0054394824
-0.0052059516
-0.0110554241
-0.0144559004
0.0135009477
-0.0040083017
0.0279458805
0.0257314185
-0.0036510217
-0.0040401798
0.0044457707
-0.0094125357
-0.0043648743
-0.0074916257
0.0083437554
-0.0008949060
0.0173859417
0.0146296301
-0.0035528136
0.0003450691
0.0051645323
-0.0053192199
-0.0008850347
-0.0022922405
0.0037081966
0.0004227026
0.0056157842
0.0009225020
0.0018942602
0.0006309622
0.0002672467
0.0032369247
-0.0022886154
-0.0025534992
0.0022931812
-0.0015587464
0.0029790628
-0.0077032638
0.0066586906
-0.0000218507
-0.0035177018
0.0092872185
-0.0049944507
-0.0046153593
0.0019928645
-0.0039214609
0.0054359974
-0.0033037928
0.0064966115
0.0020651913
0.0007059249
0.0085796266
-0.0067957105
-0.0066334846
0.0041338548
-0.0043323005
0.0089954557
0.0106965772
-0.0002246559
0.0062361572
0.0105238661
0.0022530894
-0.0040189322
-0.0058483757
0.0058960460
-0.0019516799
0.0086400261
0.0186091704
-0.0065356553
0.0035937017
0.0108326464
-0.0086119696
-0.0000397270
-0.0013522958
0.0043372217
0.0017338513
0.0047962166
0.0173079450
-0.0103768603
-0.0089603031
-0.0026745909
-0.0208313043
0.0095492151
0.0057837114
-0.0018324981
0.0062410628
-0.0019080938
0.0116435261
-0.0145695415
-0.0255568950
-0.0221799384
-0.0335132625
0.0190851338
0.0139301068
-0.0094669119
0.0109901180
-0.0099323762
0.0088168895
-0.0211049927
-0.0358790465
-0.0330880196
-0.0464996268
0.0301474747
0.0238824466
-0.0173090475
0.0168737819
-0.0218798643
0.0128615839
-0.0315459841
-0.0428770205
-0.0374729604
-0.0642553299
0.0433982217
0.0353647516
-0.0252978195
0.0248889773
-0.0350631765
0.0223647421
-0.0444559126
-0.0530059865
-0.0428976698
-0.0868094400
0.0580298153
0.0471804462
-0.0324053934
0.0338214045
-0.0482429016
0.0294391964
-0.0536819700
-0.0635734165
-0.0504688505
-0.1049671127
0.0690192964
0.0554188728
-0.0373485084
0.0404640885
-0.0552351486
0.0289405953
-0.0533070603
-0.0666284134
-0.0546352144
-0.1062586407
0.0693963539
0.0560272951
-0.0379985918
0.0409211929
-0.0551320361
0.0207570176
-0.0462865174
-0.0626671795
-0.0544058089
-0.0944636165
0.0624500309
0.0505572136
-0.0355661299
0.0358753848
-0.0494960360
0.0132047260
-0.0374849507
-0.0596831511
-0.0549925212
-0.0820783563
0.0550722078
0.0444884105
-0.0319958841
0.0307341351
-0.0418785189
0.0096775517
-0.0309013055
-0.0519499176
-0.0493665123
-0.0680860489
0.0452396775
0.0362676570
-0.0264216717
0.0251839961
-0.0332738361
0.0116398796
-0.0257457427
-0.0375909020
-0.0325926063
-0.0545543046
0.0358834492
0.0287683610
-0.0204481205
0.0204109972
-0.0269451999
0.0177878730
-0.0260566478
-0.0206476883
-0.0114974565
-0.0453240961
0.0297989438
0.0244251751
-0.0151504927
0.0181797630
-0.0254739249
0.0207398561
-0.0255881191
-0.0082800804
0.0031045293
-0.0392825294
0.0256284304
0.0218256360
-0.0118842559
0.0165999374
-0.0249999421
0.0167523131
-0.0222256306
-0.0043309011
0.0060022403
-0.0323211056
0.0222934047
0.0200084249
-0.0106094455
0.0149524849
-0.0242012612
0.0108578567
-0.0190464336
-0.0061235354
0.0006877107
-0.0282976170
0.0212380334
0.0190749899
-0.0113326337
0.0131371272
-0.0243956470
0.0093653410
-0.0195236740
-0.0085988839
-0.0029446536
-0.0286260540
0.0229188697
0.0205044614
-0.0126260228
0.0137036968
-0.0259471780
0.0125612293
-0.0219298660
-0.0107340249
-0.0040940790
-0.0340310370
0.0249080434
0.0220084176
-0.0130680247
0.0151805516
-0.0269018203
0.0172493284
-0.0247337193
-0.0152461970
-0.0067201027
-0.0408722420
0.0278247668
0.0229247580
-0.0129276182
0.0169453550
-0.0255035744
0.0170760420
-0.0241956480
-0.0180253641
-0.0097997040
-0.0423525586
0.0276740099
0.0230023290
-0.0139827094
0.0172892424
-0.0247358878
0.0122237959
-0.0208812452
-0.0154475563
-0.0092753794
-0.0355142677
0.0246749651
0.0212373498
-0.0128470874
0.0149060342
-0.0232928229
0.0094201408
-0.0171497076
-0.0050458948
0.0004339308
-0.0243208196
0.0193829777
0.0176276648
-0.0103258043
0.0120063287
-0.0227656820
0.0073382446
-0.0125085072
0.0018798454
0.0065015925
-0.0151092177
0.0131063780
0.0129579989
-0.0070226954
0.0087284505
-0.0185709549
0.0053345113
-0.0078409688
0.0050990509
0.0081006234
-0.0083535446
0.0080990978
0.0082452558
-0.0040482135
0.0054517904
-0.0129939793
0.0043780088
-0.0046596194
0.0034666677
0.0069430126
-0.0056004615
0.0050820108
0.0052195777
-0.0023988415
0.0033612903
-0.0082179199
0.0041120195
-0.0037212838
0.0035469346
0.0068436009
-0.0030037266
0.0026237752
0.0028144298
-0.0005087320
0.0019329787
-0.0043266565
0.0032104156
-0.0014383061
0.0059158711
0.0084489029
0.0006887872
-0.0002292793
-0.0000590623
0.0014694803
0.0004251889
-0.0007812692
0.0014644728
0.0015878769
0.0074007877
0.0086526432
0.0053548801
-0.0044754537
-0.0036688323
0.0033065898
-0.0020938377
0.0037759096
-0.0024857264
0.0055088015
0.0103207651
0.0099791669
0.0123001033
-0.0081999988
-0.0070258167
0.0052902253
-0.0046114662
0.0069250472
-0.0073332467
0.0092156519
0.0135564295
0.0115451539
0.0189418216
-0.0110122864
-0.0081099241
0.0058757430
-0.0063696091
0.0066145782
-0.0078170616
0.0079939289
0.0159331119
0.0134292660
0.0194404818
-0.0102258016
-0.0071297603
0.0053884546
-0.0061791062
0.0045077402
-0.0009478732
0.0042961571
0.0149142389
0.0156323972
0.0133298570
-0.0080277318
-0.0060237794
0.0055437063
-0.0041743691
0.0039555885
0.0095682062
-0.0008364335
0.0121480376
0.0173353287
0.0042007517
-0.0052890441
-0.0036870219
0.0056317851
-0.0016759490
0.0049861410
0.0139343422
-0.0039177118
0.0092030460
0.0152520906
-0.0021156673
-0.0026753956
-0.0032494914
0.0050042976
0.0002620973
0.0058365428
0.0095871261
-0.0030974650
0.0072016714
0.0117616120
-0.0008864984
-0.0013555236
-0.0009209025
0.0036436412
0.0009160884
0.0014328025
0.0038223216
-0.0026908871
0.0078899465
0.0105545639
0.0006892321
0.0003115325
0.0013082138
0.0013497618
0.0011424166
-0.0038482743
0.0056929558
-0.0044835005
0.0063245289
0.0100148963
-0.0024755109
0.0027676953
0.0028745821
-0.0003640508
0.0026125155
-0.0057342728
0.0121901028
-0.0081033541
0.0020896503
0.0083921120
-0.0104148613
0.0055292179
0.0041553386
-0.0008090620
0.0040898820
-0.0044603591
0.0130377044
-0.0088562148
-0.0024754022
0.0043648316
-0.0142948558
0.0068490835
0.0045520254
-0.0008487782
0.0051663344
-0.0034961208
0.0073252815
-0.0055374939
-0.0019307367
0.0014748888
-0.0092084817
0.0042531756
0.0029140960
-0.0011619689
0.0031547968
-0.0020760116
-0.0014038570
0.0016275758
0.0027005111
0.0025659398
0.0038970412
-0.0021586907
-0.0018211806
0.0011663227
-0.0009932121
0.0015037469
-0.0103659273
0.0103444412
0.0081667703
0.0035087463
0.0186916548
-0.0108047080
-0.0083880333
0.0054051394
-0.0068323848
0.0087539526
-0.0189225059
0.0195539493
0.0137013243
0.0042068124
0.0333246743
-0.0203872480
-0.0165988890
0.0102062234
-0.0128340860
0.0176492300
-0.0257754996
0.0266502013
0.0167651035
0.0043866258
0.0447880286
-0.0278929568
-0.0228227217
0.0134864851
-0.0178180523
0.0244105389
-0.0275966228
0.0308465049
0.0192121790
0.0056869381
0.0511761201
-0.0322987696
-0.0266149322
0.0158663049
-0.0205118252
0.0289867410
-0.0269070497
0.0326259463
0.0226715329
0.0100137782
0.0557230132
-0.0358918998
-0.0295922215
0.0179595371
-0.0224451160
0.0321775737
-0.0267656294
0.0351126168
0.0281187640
0.0147755507
0.0618979856
-0.0403200653
-0.0336352226
0.0213312380
-0.0245634037
0.0365820667
-0.0256036779
0.0389208694
0.0336639027
0.0207614124
0.0693641839
-0.0465896776
-0.0392840630
0.0256110178
-0.0283190878
0.0443090657
-0.0326636203
0.0480622671
0.0411152301
0.0232019811
0.0839756855
-0.0570103525
-0.0473501865
0.0312569092
-0.0344655444
0.0534900323
-0.0457277086
0.0585277889
0.0458059945
0.0225963325
0.1020122106
-0.0666140285
-0.0547989425
0.0345967132
-0.0410617628
0.0603582712
-0.0498675391
0.0612886562
0.0463949721
0.0214981786
0.1064164807
-0.0679027520
-0.0561152680
0.0347884717
-0.0425322926
0.0612618874
-0.0392024393
0.0527438024
0.0434960346
0.0240488061
0.0927003201
-0.0611687511
-0.0508470876
0.0324095337
-0.0374687584
0.0555869075
-0.0193691174
0.0360853842
0.0358925009
0.0262402859
0.0651749140
-0.0464236069
-0.0395175413
0.0277215858
-0.0273873451
0.0444770695
-0.0051630939
0.0219907365
0.0238507456
0.0212558086
0.0391120229
-0.0313176221
-0.0276874944
0.0200704059
-0.0176843175
0.0340282567
-0.0068599764
0.0171967379
0.0128055500
0.0086868967
0.0273426433
-0.0216693058
-0.0196791879
0.0132355607
-0.0126143903
0.0246639288
-0.0164745964
0.0177983791
0.0068146612
-0.0015995792
0.0272521135
-0.0172128737
-0.0153026912
0.0084576675
-0.0108748953
0.0179469552
-0.0189573323
0.0177765523
0.0073446964
-0.0014697173
0.0276028925
-0.0167205305
-0.0134037753
0.0073034829
-0.0112157287
0.0154566186
-0.0158532087
0.0178964883
0.0142557826
0.0073089820
0.0299588360
-0.0190166367
-0.0158953711
0.0101054554
-0.0117431028
0.0171846728
-0.0144210304
0.0178861072
0.0212573554
0.0147800635
0.0343259631
-0.0218359424
-0.0173606452
0.0116851552
-0.0131392614
0.0172730459
-0.0131011197
0.0165646582
0.0212061155
0.0153899073
0.0331720326
-0.0200027541
-0.0156703918
0.0103384680
-0.0121182728
0.0142522412
-0.0111100026
0.0125982726
0.0158156703
0.0110269346
0.0254593322
-0.0146538965
-0.0105588588
0.0070409335
-0.0087709612
0.0094215691
-0.0094806448
0.0070934926
0.0095867237
0.0051775033
0.0152417589
-0.0071470049
-0.0047020776
0.0026759443
-0.0042212524
0.0017855266
-0.0096854120
0.0030214296
0.0053630256
0.0013375097
0.0072865541
-0.0003013688
0.0015838517
-0.0012827804
-0.0009937774
-0.0046206140
-0.0092477890
0.0011473685
0.0005929855
-0.0033124195
0.0023919976
0.0025061930
0.0043338269
-0.0032460669
0.0006544521
-0.0067226191
-0.0083644185
-0.0002418087
0.0003250398
-0.0039373852
0.0006505488
0.0041231760
0.0047410480
-0.0043445245
0.0016626199
-0.0084476187
-0.0023292641
-0.0024695855
0.0022000118
0.0016054813
-0.0020146073
0.0036968497
0.0041774735
-0.0029496682
0.0022393761
-0.0062684896
0.0030631646
-0.0031430335
0.0055077795
0.0079689603
-0.0016981638
0.0019581516
0.0026517356
0.0002090307
0.0015708467
-0.0042681325
-0.0068070346
0.0010905106
0.0099763063
0.0074996520
0.0066390331
-0.0000091066
0.0017150226
-0.0010120656
-0.0004262404
-0.0068507678
-0.0207904916
0.0042391742
0.0103415072
0.0019227157
0.0124786588
0.0012893257
0.0050414619
-0.0052500588
-0.0002649750
-0.0149789900
-0.0188447521
0.0013250590
0.0037428527
-0.0043261749
0.0047492959
0.0060469775
0.0094796504
-0.0079103282
0.0019028268
-0.0174726986
-0.0131653209
-0.0030827343
0.0009750726
-0.0057856196
-0.0027108881
0.0096071246
0.0108834725
-0.0088678525
0.0045779239
-0.0186111718
-0.0134066545
-0.0019707653
0.0028760491
-0.0036912741
-0.0025989956
0.0098708895
0.0110105621
-0.0087584087
0.0047841602
-0.0194291447
-0.0184267203
0.0007222760
0.0077484134
-0.0012326262
0.0047002442
0.0066929424
0.0094753695
-0.0074538624
0.0029356488
-0.0197608323
-0.0401593678
0.0073301168
0.0166765558
-0.0018065497
0.0207296683
0.0048299848
0.0115885820
-0.0113223548
0.0000606826
-0.0303195943
-0.0543628257
0.0113683892
0.0227773775
-0.0019217965
0.0302198895
0.0046978225
0.0140828455
-0.0149976850
-0.0006897872
-0.0392702367
-0.0421396557
0.0091402026
0.0187508449
-0.0001540084
0.0249598301
0.0027498552
0.0102191289
-0.0108429824
-0.0011922911
-0.0294763522
-0.0325028306
0.0100129996
0.0183055461
0.0030363571
0.0224837773
-0.0005786868
0.0056566685
-0.0067221777
-0.0018607537
-0.0200080108
-0.0333817201
0.0092293528
0.0172958125
0.0026490770
0.0236979689
-0.0008030990
0.0056309722
-0.0065697938
-0.0026423067
-0.0206030690
-0.0335488198
0.0076686053
0.0151686879
-0.0001611593
0.0204882826
0.0021119689
0.0077711752
-0.0085264318
-0.0010472091
-0.0228838163
-0.0339730947
0.0074364923
0.0134807802
-0.0022516921
0.0195538983
0.0031661414
0.0090291861
-0.0094868174
-0.0004942005
-0.0246713393
-0.0325948984
0.0098439821
0.0119639244
-0.0031837739
0.0214884873
-0.0008169749
0.0046758754
-0.0064903740
-0.0022805088
-0.0175529361
-0.0252724289
0.0113614137
0.0082032058
-0.0041211772
0.0205897513
-0.0054432937
-0.0009960870
-0.0016594485
-0.0046687882
-0.0054679062
-0.0187923050
0.0093221120
0.0032552025
-0.0053918781
0.0148606739
-0.0047993211
-0.0023355118
-0.0010552766
-0.0042634357
-0.0013457107
-0.0170819083
0.0058889550
0.0027898592
-0.0056160005
0.0102398578
-0.0001927396
0.0022904174
-0.0035583944
-0.0016910070
-0.0064803174
-0.0235053368
0.0058814697
0.0094552544
-0.0018659663
0.0144568156
0.0017250531
0.0050578472
-0.0058762313
-0.0010542330
-0.0152838895
-0.0314102433
0.0106431340
0.0192728311
0.0047986300
0.0259821109
-0.0034384886
0.0031671078
-0.0041305643
-0.0041183986
-0.0163292809
-0.0294327247
0.0129114488
0.0221244634
0.0086995400
0.0302057784
-0.0079260174
-0.0010587613
-0.0009978239
-0.0063934509
-0.0108307720
-0.0237557098
0.0104311778
0.0197127299
0.0088086154
0.0250564558
-0.0064384574
-0.0006968779
-0.0009331501
-0.0051476941
-0.0099328006
-0.0175851081
0.0043928941
0.0159181899
0.0079084032
0.0147419009
-0.0005664292
0.0039291980
-0.0036204260
-0.0008499599
-0.0143678121
-0.0147625514
0.0013704459
0.0147028225
0.0086461367
0.0109184597
0.0021125604
0.0062407654
-0.0047004930
0.0005139835
-0.0167953508
-0.0287599304
0.0079319177
0.0250896102
0.0123366775
0.0260764438
-0.0021641859
0.0046830808
-0.0049112858
-0.0027611871
-0.0212521440
-0.0515123274
0.0176143084
0.0376958839
0.0142710592
0.0467921860
-0.0073765359
0.0037042922
-0.0060741188
-0.0067330800
-0.0277721338
-0.0555331211
0.0190496995
0.0345176208
0.0097768381
0.0473124074
-0.0074277556
0.0046951712
-0.0070607251
-0.0076637932
-0.0269761684
-0.0436579028
0.0127025369
0.0209027968
0.0005172426
0.0302485583
-0.0010718670
0.0071867180
-0.0088664226
-0.0035106003
-0.0258797294
-0.0381344363
0.0090967071
0.0122858756
-0.0056077190
0.0196911219
0.0041309475
0.0103900270
-0.0112732735
-0.0004464168
-0.0268742836
-0.0363449967
0.0078230796
0.0122728357
-0.0044337469
0.0194609338
0.0032384280
0.0091083581
-0.0101368928
-0.0008486723
-0.0236431148
-0.0375110724
0.0124145348
0.0133363420
-0.0044741302
0.0257109268
-0.0022661737
0.0040826041
-0.0068460481
-0.0037282626
-0.0177810855
-0.0545878582
0.0202711518
0.0142059740
-0.0118779061
0.0369392023
-0.0053977298
0.0027428633
-0.0083441908
-0.0072828267
-0.0192772823
-0.0729128990
0.0245062031
0.0168339020
-0.0178166942
0.0445523786
-0.0029714580
0.0077173651
-0.0139620751
-0.0066551930
-0.0308765755
-0.0714982822
0.0200746539
0.0177073142
-0.0163260033
0.0394093856
0.0021231916
0.0131423886
-0.0170855603
-0.0039870185
-0.0390810393
-0.0631055565
0.0158344339
0.0196688005
-0.0099873373
0.0351673205
0.0033344504
0.0152273493
-0.0161018112
-0.0024071567
-0.0388531908
-0.0573681005
0.0172323111
0.0201693391
-0.0069829287
0.0369308297
-0.0001952346
0.0084054657
-0.0114511775
-0.0041983382
-0.0301744975
-0.0462346301
0.0186745605
0.0139871986
-0.0086436707
0.0335406312
-0.0063413194
0.0004969140
-0.0058037718
-0.0071860711
-0.0141991360
-0.0358608354
0.0168134718
0.0083300201
-0.0089758066
0.0277516697
-0.0077581307
-0.0027288316
-0.0021888669
-0.0073208802
-0.0053638505
-0.0337370618
0.0122140960
0.0096189991
-0.0065549843
0.0227542791
-0.0029855084
0.0018946871
-0.0048052625
-0.0038604299
-0.0120407599
-0.0358954130
0.0111091892
0.0048652514
-0.0121719754
0.0186086407
0.0009233151
0.0057137060
-0.0082269957
-0.0026373564
-0.0161874315
-0.0457315359
0.0206167548
-0.0163732135
-0.0417161975
0.0180622820
-0.0021563753
-0.0004815255
-0.0083340657
-0.0057734238
-0.0017193176
-0.0658492440
0.0420406468
-0.0633797858
-0.1034444901
0.0190566095
-0.0122156868
-0.0152257228
-0.0060998363
-0.0157444675
0.0333249622
-0.0788168288
0.0592323928
-0.1076568946
-0.1592765240
0.0157244156
-0.0191327756
-0.0288806647
-0.0032872273
-0.0240176009
0.0673761066
-0.0666861370
0.0540690969
-0.1077424093
-0.1534199635
0.0088485569
-0.0178150106
-0.0282422753
-0.0028669411
-0.0216511339
0.0680858404
-0.0484360916
0.0389124981
-0.0868973979
-0.1207894661
0.0001976612
-0.0105179704
-0.0195807616
-0.0031119355
-0.0142714590
0.0514872418
-0.0351394186
0.0307474184
-0.0849601369
-0.1109721678
-0.0088942812
-0.0064721726
-0.0161181461
-0.0033272910
-0.0111311270
0.0481133642
-0.0248661161
0.0323101152
-0.1038641161
-0.1266792530
-0.0188817191
-0.0093669703
-0.0235124423
0.0006455409
-0.0126736344
0.0679527332
-0.0212734302
0.0352202506
-0.1067578201
-0.1288448162
-0.0171070872
-0.0145537983
-0.0295972920
0.0049884068
-0.0153534152
0.0795252161
-0.0232606395
