300,1,15,8,0.100000,0.100000,512,Hamming
-0.2761860019
0.1959862765
-0.6485189328
0.1346761048
0.0271959244
0.2638651717
0.6921524235
0.4212729605
-0.6987606577
0.3660716181
-0.5640586569
0.2254225551
0.6786178991
0.7867923528
-0.1101886582
0.0106752021
0.0081981260
-0.0522456617
0.0006463259
0.0322665517
0.0498144388
0.0530169606
0.0308128331
-0.0446383973
0.0240323849
-0.0218107538
0.0217421965
-0.0796327027
0.0325269612
-0.0116675029
-0.0057136658
0.0158585055
-0.0472634209
0.0045997628
0.0346481111
0.0369510607
0.0557494975
0.0345136621
-0.0596559158
0.0282228633
-0.0318666376
0.0248515768
-0.0920960130
0.0401877596
-0.0109635307
-0.0113445287
0.0149841202
-0.0404752946
0.0130016057
0.0344321734
0.0350521598
0.0585432567
0.0431749464
-0.0624894743
0.0188821009
-0.0367477164
0.0252763723
-0.0795732325
0.0472141731
-0.0151311397
-0.0169584672
0.0146758883
-0.0410839897
0.0117760538
0.0380952971
0.0311692507
0.0602552509
0.0451940264
-0.0659614697
0.0153512959
-0.0405492026
0.0291341295
-0.0948156273
0.0564524026
-0.0154730034
-0.0150612912
0.0213562144
-0.0320782662
0.0100148176
0.0411121563
0.0257771365
0.0602294526
0.0421712561
-0.0684858830
0.0135878192
-0.0365121758
0.0243025289
-0.0863049948
0.0433494192
-0.0180746811
-0.0052388748
-0.0118539411
-0.0253960086
0.0123926272
0.0638943096
0.0144077577
0.0293073339
0.0332051018
-0.0407071207
-0.0040313549
-0.0160145816
0.0201514995
-0.0736782606
0.0225797862
-0.0133301642
-0.0053826053
-0.0230538288
-0.0337842969
0.0232743415
0.1007706682
0.0191010172
0.0428242564
0.0513052932
-0.0510271098
-0.0146779903
-0.0195436388
0.0257773496
-0.0731116000
0.0165710644
-0.0265555981
-0.1346201318
0.1103572629
0.0358202820
0.1608793247
0.2148225085
-0.0886578067
0.1539131167
0.2020721333
-0.2317140534
-0.1197190766
-0.1285430126
0.0582015620
-0.0214441191
0.1054702449
-0.0900142805
-0.1969306305
0.0145532654
-0.6032730333
0.1802806109
0.3469083117
0.4443434359
0.6375274028
0.5174616039
-0.6323532058
0.0778701837
-0.4158073321
0.2843646220
-1.1050536104
0.4698226493
-0.2322972467
0.1162344298
-0.3187342651
-0.6181471617
-0.1338351582
0.0153794832
0.6426949910
0.2731654461
0.1032728800
-0.1394587465
0.2886558995
-0.0852997236
0.1574896943
-1.0373292289
0.2068102376
-0.0734589376
0.0613753219
-0.1360838680
-0.0938293786
-0.0328167332
0.1176323987
0.1908820033
-0.0064371662
0.0051438156
0.0078257007
0.0203667200
0.0374667290
0.0184454261
-0.1028616095
-0.0323686285
-0.0166498086
0.0534833835
-0.0702735850
0.0296750210
-0.0459617686
-0.0102028844
0.1364786650
-0.0739251057
-0.0619108275
0.0813005449
0.0070731776
0.0763239555
-0.0239727994
0.0380739635
-0.0633678500
0.0285473764
0.0880059071
-0.0588584231
-0.0579203115
-0.1125921671
-0.2059876433
0.1352810364
-0.0720397714
-0.1466704125
0.1759019048
0.1151641852
0.0760172099
-0.0367343825
-0.1807324094
-0.0311332076
0.0759079759
0.0217572023
-0.0123575200
-0.0427790988
-0.0433156356
-0.0969840604
0.0417846981
0.0034291264
-0.0429321772
0.0456480658
0.0623256427
-0.0002851825
-0.0036069135
-0.1631822721
0.0210188323
0.0265127507
-0.1640496788
0.0993907252
0.3867163124
0.3068896587
0.6293775936
-0.2766756769
-0.0211041708
0.2656685161
-0.2023880265
-0.4330030859
-0.0160226117
0.0251728947
0.5671723230
-0.1306595876
-0.1602378580
-0.2638498887
0.3377786871
0.5039450560
0.2934317107
0.1627149060
-0.5624610881
0.0449619365
0.1951179268
-0.1994747746
-0.3300123564
-0.1267833455
-0.0253236430
0.5506629646
0.0097996443
-0.0648424064
-0.1797229518
0.3498342239
0.2605202124
0.0970420922
-0.2970820393
-0.2788888187
0.0831117934
0.0006056296
-0.0323369073
-0.0296143808
-0.1544784474
-0.0417329938
0.1614041281
0.1404061436
0.0606351697
0.3004751377
-0.2506520444
-0.2523791901
-0.4340207709
-0.8355536054
0.4188498530
-0.1673192958
-0.4637504981
0.4881360693
0.4873608810
0.1825006222
-0.0803276853
-0.7249751289
-0.0422404513
0.2337690734
0.4548234956
-0.4917954782
0.6152934249
-0.3546255189
-0.5363018801
-0.1320716195
-0.7650705549
-0.6531207190
0.8814923454
0.0068828804
0.6124582119
-0.2657981101
0.2709218820
-0.6727545707
0.2503268795
0.3914822445
-0.7559098751
-0.1692392432
-0.1816640345
0.7081251260
0.6940392447
-0.2247850798
-0.0821776904
0.2566312716
-0.0524975339
0.3522962849
0.0382708457
-0.1440644977
-0.3581881255
-0.0877141968
0.3635216092
-0.9374741203
-0.4917931165
-0.1650639869
0.8460367354
1.4496829084
-0.0509084194
0.1128973597
-0.0505066743
0.0425621464
0.2545839334
0.1339361571
-0.3452052525
-0.2417942153
-0.1531172607
0.4131355576
-0.7741288392
-0.4634873940
-0.3394126380
0.0327002648
1.4908740092
-0.1023724300
-0.1709092038
0.2397303025
0.3219361351
0.2503391878
0.0603268298
-0.7529172211
-0.1166927993
0.0222927437
-0.2204955597
0.0465333024
0.7757005360
0.3780022579
0.5226686258
-0.2731387136
-0.1374701632
0.2734529295
-0.2446749301
-0.5867466377
0.0190309603
-0.0558389997
1.3346077773
-0.2391551408
-0.1320214574
-0.3694485900
0.4913108290
0.7305019449
0.5449686963
0.5703702455
-1.3128960835
-0.0891339751
0.4123264095
-0.3379215425
-0.6826623646
-0.0388563065
-0.0177957243
1.3940366740
-0.2409119413
-0.1977415994
-0.0923013130
0.6362383776
0.8490843118
0.1672495579
-0.3260541390
-1.2142505970
-0.5732800560
-0.2949541037
0.5711417893
-0.4241857715
0.2969457312
-0.2586973129
1.5264853755
-0.5150543827
0.1538553264
0.4385735624
-0.2003076355
-0.5771205785
-0.3438289322
-0.2788598485
-0.1239612437
-0.3368663959
-0.3347803017
0.6152488704
0.2690236610
0.4055619953
-0.0185399008
-0.2791663424
-0.3548976503
0.0723267569
0.4121190979
-0.0982757033
-0.2821472762
-0.4551575673
-0.7658760830
-0.4248026129
-0.3777493191
-0.5722451727
0.8216817138
0.3641528783
0.3449380599
-0.0955492952
0.3828889040
-0.2450585428
0.2223915829
-0.1495803619
0.3944559037
0.6031944388
0.1835026150
-0.3486633950
-1.6915023764
0.1205951606
0.1127242976
0.0348571480
-0.2634580729
-0.1810680255
0.0726011190
2.4801769775
0.0982066041
-0.1213596058
0.5733824366
-0.6754514740
0.1399344015
-0.2124759318
0.6685837528
-0.4747866135
-0.4913476953
-0.1637382020
0.7816901817
-0.2964661284
0.5737786878
0.1269342045
2.6018350261
-0.8049319202
-0.2139306456
-0.2711813756
0.8258730452
-0.2194797741
0.0981073477
-1.0871704648
-2.0694544967
0.7260744058
0.3565225596
-0.3469714792
0.2777067836
-0.5662326894
0.2788740515
0.0288969895
0.6587964049
-0.1202609477
0.3194840829
-0.6667738016
0.0767573688
-0.2836859649
-0.2930189554
1.0316906153
-0.2792630140
-0.2450866075
0.2458670951
0.1111521965
0.2747744928
-0.0806615192
-0.6642508128
-0.2129006193
0.1025491728
0.3078897660
-0.3314863696
0.2996789524
-0.2140141823
-0.4460159271
-0.9484112966
-0.8116175019
-0.5721475900
0.9316722926
-0.0932040667
0.5858211022
-0.3132110001
-1.1320282656
-0.6783831884
0.2271512564
-0.2877355793
0.4619154857
0.2185687540
0.3124435428
0.3547767221
1.2959847947
0.0387264775
0.1627882848
-0.0376958889
-0.3565736098
-0.1349497672
-0.0749184462
0.4249233094
0.0492522418
-0.0168787707
-0.3470983818
-0.1093968492
-0.2580735485
0.3109983310
1.8762333672
2.9969428951
0.2777554995
0.3040769938
-0.0801546817
-0.3471527141
-0.3613579273
0.0238321756
0.2267809965
0.2478318708
-0.1119609759
0.3034470795
0.4114837583
-0.7827203406
-0.4950750580
-1.1701306482
-1.5819486777
-0.4900792849
-0.8286532347
1.3085418144
0.6035068673
0.3142241705
-0.1673672999
-1.3866575188
-0.2224756757
0.3425015925
0.6043515296
-0.8383746233
-1.4479719372
-0.4818409721
0.6943466354
-0.0796305105
-0.4384274610
-0.5058563484
1.0847025438
0.1948793389
0.4807735416
0.0348904195
-0.0896701990
-0.4929147410
0.0207660120
-0.3874945115
1.0664342989
-1.0608387301
0.2991497999
-0.1238324010
-1.4756993705
0.4959972195
0.3195626987
-0.3506658523
-0.0676858957
-0.4858819158
0.1906222915
0.9906394547
0.5042164142
-0.1104135484
0.2546425236
0.1908294489
-0.9945942645
-0.5791324283
-0.9648741724
-0.4027510424
0.1897147425
-0.4831076955
0.4721900195
0.9149165284
-0.1541288870
0.0605126730
-0.5953564572
0.5471377960
0.2534070180
-0.2801619615
0.0334349214
-0.2096406334
0.3987735263
2.1196860537
-0.1895853061
0.2458097792
0.5161676351
-0.4899137176
-0.5365992582
-0.2578852655
0.0751836192
1.9035829302
0.1958988593
-0.2448312781
-0.3932386738
0.5297653009
-0.1719379454
0.0933693913
-0.0782980077
-0.0613914984
0.2708365813
-0.0025831701
-0.2232011096
0.2446880489
-0.4813671364
-0.1531757411
0.7491333432
0.8325517313
0.2446396510
0.5410496235
-1.0452142560
-0.0256136960
-0.3557186839
1.4160805622
2.1469360069
-0.6395168740
-0.4420995280
0.7847534907
0.0894258394
0.5479871327
-0.1504236537
2.2958762605
-0.3203820259
0.0890071035
0.2972707356
-0.0381697277
0.3958667740
-0.2807963878
-0.7712538474
0.4841837333
-0.5928340744
-0.5421283433
0.8581474804
0.0656773152
0.4546833775
-0.1808068454
1.1102882425
-0.5264783888
0.1936123689
-0.0566812855
0.3088161589
0.1320839508
-0.1381255485
-2.2737726758
-0.3895011395
-0.0833741060
-0.1893156433
0.2219059555
0.3275774244
-0.0167420831
-0.0919033915
-0.7891895996
0.0360127650
0.1884105200
-0.1447341351
-1.0351692008
0.3743084215
0.6907571382
2.1019640715
0.4781659340
-0.1610537268
0.9528292034
-0.7698558805
-1.0876328753
0.1707979828
0.1884213324
0.7567975574
-0.5596335969
-0.6371443511
0.1782842465
-0.3106739755
0.7525730661
0.0004022158
0.0376222698
-0.2787334311
-0.8334241229
-0.3506938986
0.5864593335
-0.3584264186
0.5628677214
-0.2534839575
1.0781662038
-0.6990651951
0.0675478117
0.2645725696
-0.2139600091
0.5845326189
-0.1184495826
-0.4337630182
0.0263842049
-0.8681301250
-0.5472509422
0.8967119036
-0.1479647800
0.5798969897
-0.2123900140
0.6195994603
-0.5834259703
0.0804606519
0.4406756408
-0.8169160773
-0.9220157966
-0.4539473568
-0.6501625408
1.3281962119
-0.0843514998
-0.3141783046
0.4887710945
0.6533104888
0.1822359168
0.1646668679
-1.3355554976
0.1370983445
-0.0490914138
-0.2475497448
0.7997451520
0.0334555535
-0.0850998643
-1.5579656417
-0.6719137233
0.0600905866
-0.3191286891
0.1572974892
0.3713176675
-0.2410890473
-0.2055239890
-0.6238166649
0.4387316597
0.3427028037
-0.0241137211
0.4574204725
0.2720882879
-0.0612015833
-0.6323372283
-0.3368824782
-0.4017903741
-0.3980944454
0.4566634982
-0.0160074792
0.1965297878
-0.2621046185
-0.0811135299
-0.1876900180
0.2698558096
-0.0110149251
-0.6045305792
-0.4931437104
0.4359720486
2.0027474647
0.8710243918
0.2981708561
0.8381056968
-0.6664825795
-0.5936905783
-0.0104868083
0.3844370383
-0.6549913352
-0.2051637998
-0.6039463323
-0.6213957284
1.1025335423
0.3016282737
0.2887780650
-0.8290614770
-1.3691748365
0.7412687736
0.2959029760
-0.7348548298
0.1233992445
-0.7156645512
0.0687180311
-1.3223378712
0.7409240797
0.0615391630
0.6525521078
-0.6861704528
0.6258722252
-0.4834759873
-0.1860986813
0.3702869411
-1.1974554410
-0.8825195235
1.1479505295
0.0050725370
0.9985555833
-0.3472919562
-0.6842040254
-1.1666389723
0.2749035066
0.3332417987
-0.6201588434
-0.1556359173
-0.1679305431
0.3454952055
0.6771888576
-0.3269949939
-0.1469860143
0.3047082267
0.0071049955
0.3712470518
-0.0046791947
-0.2600661106
-0.4160239122
-0.0437230131
-0.0371891472
-0.3003069452
-0.6657051310
0.0621394456
0.3247997364
0.5478884573
0.5185413614
0.4066729544
-0.4781737360
0.1378043665
-0.2728437821
0.2555720418
-0.7740176347
0.3574099982
-0.2233528615
-0.0801033436
-0.1153007341
-0.0833326709
0.1327626451
0.2389245687
0.0589601456
0.1897012966
0.2454807917
-0.2751697391
-0.0881549906
-0.1219648926
0.0942841775
0.0187786651
0.0976999402
-0.1230423298
-0.0345091344
-0.1993503864
0.1527520963
0.1503776097
0.3641301145
-0.0597545421
-0.0323755350
0.1670065611
-0.1320725851
-0.2380020731
0.0404480649
0.0182932087
0.4247012104
-0.1195988285
-0.1198506474
0.1077974325
-0.1495409812
-0.2102371403
-0.2515194556
-0.6933359604
0.1384654078
-0.0096712475
-0.2895679592
0.2460181014
0.3783853962
0.0351177705
-0.1199710909
-0.5792348662
0.1455765495
0.2020534462
0.1998199560
-0.3066907669
-0.5416461839
-0.4024030028
-0.8721085150
0.4295518003
0.0613816475
-0.3688855034
0.2884751653
0.6048181735
0.0254018992
-0.0925007017
-1.0811700371
0.2415925502
0.2474475869
0.1982110376
-0.2274188895
-0.5569684098
-0.3419141607
-0.5834982832
0.5431422870
0.1103631455
-0.2528195887
0.2193588301
0.5155484130
0.0116754317
-0.0027564842
-1.0122475205
0.2078401117
0.1515232879
0.3488227263
-0.4338833030
-0.6127114708
-0.4271765540
-0.4766151659
0.7784965935
-0.0748894591
-0.3515283862
0.3926562138
0.5290630141
0.1797643871
-0.0261108898
-1.0484619281
0.0203847215
0.1680636779
0.3485088222
-0.4831305451
-0.6672157893
-0.3792507304
-0.2258985678
0.8262909761
-0.0418057635
-0.2632772366
0.2996293876
0.4745356654
0.1799384998
0.0143992712
-1.0604288660
-0.0062547594
0.0916914873
0.1579448561
-0.2382831643
-0.4048963990
-0.1883783333
-0.1089847760
0.4586065744
0.0515522534
-0.1005827351
0.0842933660
0.2757612034
0.0424022385
0.0286309951
-0.6434373260
0.0675082341
0.0448950196
-0.0141350048
0.1343281451
-0.0113363350
-0.0780004593
-0.4219936038
-0.0810975398
0.0405380061
-0.1146622262
0.0599018759
0.1664232556
-0.0543793452
-0.0389179894
-0.1795945773
0.1188707988
0.1153608043
-0.0850411635
0.3430162048
0.0885884793
-0.0706497658
-0.7178602660
-0.3560630254
0.0577821773
-0.1546188389
0.0532887825
0.2092851934
-0.1141858028
-0.0747200398
-0.2408618122
0.1992155587
0.1569344490
-0.0605706253
0.1335090397
-0.0377152181
-0.0140503846
-0.2557786003
-0.0217634447
0.1369306704
0.0039462544
-0.0849125820
0.1202025341
-0.1214375680
0.0120996551
-0.2326608719
0.1770984278
0.0386168706
-0.1229410160
0.2075178748
-0.0286420110
0.0248096626
-0.2719741133
-0.1121723460
0.2279267050
0.0607662564
-0.1747483612
0.1098162598
-0.1992634229
0.0268916951
-0.1871352986
0.2546128727
0.0314763230
-0.0116087689
0.0953366339
-0.0659804475
-0.0690210666
-0.2935359809
0.0150683246
0.0781409350
-0.0555004887
0.0089556337
0.1500809448
-0.0689164642
0.0020403061
-0.2413516271
0.1283755347
0.0669998991
0.0270781309
0.1820432594
0.0096069659
-0.1442630831
-0.5915647970
-0.0782071341
-0.0309643923
-0.2231096573
0.1930435649
0.2175564030
-0.0099842302
-0.0804354225
-0.1986013395
0.0894688071
0.1685148796
0.0253250917
0.1297561622
-0.0050348015
-0.1174721913
-0.4518070433
-0.1035143266
-0.0267685075
-0.1758593899
0.1480071789
0.1838505697
0.0106517088
-0.0592232093
-0.2274403960
0.0546301518
0.1184292614
-0.0056315170
0.1114457318
0.0113311484
-0.0620272899
-0.3234145563
-0.1281834800
0.0004498827
-0.0965133857
0.0550806459
0.1321283296
-0.0215558523
-0.0361240563
-0.1798308004
0.0643546766
0.0770176719
-0.0202050558
0.2930341690
0.1794223676
-0.1047677794
-0.7025587490
-0.3682941120
-0.0847717904
-0.2454703646
0.1908447299
0.1783423251
-0.0061898048
-0.1178888602
-0.1520397101
0.0783251770
0.1829882604
-0.0022107950
0.2253268400
0.1982457554
-0.0771990251
-0.4981617181
-0.3242756163
-0.1456915354
-0.2136897094
0.1962025674
0.0894028877
0.0564037285
-0.1144787842
-0.0244232060
-0.0280674189
0.1502330508
0.0313060327
0.0580604582
0.0852320541
-0.0691232299
-0.2429403951
-0.0419208376
-0.0759406420
-0.1396158164
0.1333957674
0.0663935016
0.0532428359
-0.0658484885
-0.0210114715
-0.0271667898
0.0911721125
0.0587887107
0.0488533404
0.1419839610
-0.1332528691
-0.4459162041
0.0007750084
-0.1589420665
-0.2701753503
0.2715763058
0.1245153450
0.0965190250
-0.1297821195
0.0219217124
-0.0526939729
0.1667424894
-0.0035529335
0.1550454019
0.1661627601
-0.0961367953
-0.5028641270
-0.1025475933
-0.1001654902
-0.2243461667
0.1982716203
0.1264371795
0.0178172448
-0.1021296614
-0.0019773602
0.0334543570
0.1656502917
-0.0448120707
0.1206859721
0.2190551321
-0.0146779620
-0.2965861732
-0.0960582479
-0.0707131181
-0.1097954975
0.0677818585
0.0158408288
-0.0010244918
-0.0878318268
0.1899496994
0.0070304367
0.0992111742
0.0455052961
-0.0154754332
0.3364743519
-0.0547433153
-0.2339739808
-0.0238663981
-0.2660604883
-0.2010648314
0.2454289085
-0.0290472283
0.1571989301
-0.1388043979
0.3650053368
-0.1807898083
0.1139490695
0.0394532907
0.0768794411
0.2547282648
-0.1032791883
-0.4686912414
-0.0467375080
-0.1987035039
-0.2517250300
0.2594324974
0.0855565204
0.0933553481
-0.1355906538
0.0976014898
-0.0726480222
0.1685862109
0.0598224513
-0.0347811633
0.2530905167
-0.0493280729
-0.1311382403
0.0346067646
-0.2212457402
-0.1636478153
0.2076835157
-0.0460129714
0.1393400574
-0.1019811185
0.3027620712
-0.1655759539
0.0838703812
0.0265517064
0.0695788740
0.3732324286
-0.0751182095
-0.4016766747
-0.0309189895
-0.2324965633
-0.2491721433
0.2749395729
-0.0018284155
0.1113057104
-0.1519086775
0.3971959609
-0.1126317074
0.1664229251
0.0704711645
0.0574887713
0.3045097163
-0.1322123799
-0.4941180312
0.0092912339
-0.2375793604
-0.3055237627
0.3284962182
0.0709633484
0.1285955173
-0.1520765631
0.2671735888
-0.1055153255
0.1907440852
0.0411606011
-0.0401124876
0.3141878295
-0.0053527185
-0.0090870924
0.0140116407
-0.2043108944
-0.1187218019
0.1567172098
-0.1101923375
0.1501607384
-0.0970988216
0.4697145521
-0.1973190293
0.0526009649
-0.0714330075
0.1962081835
0.4230578477
0.0199327074
-0.3646177046
-0.2150394517
-0.1149192076
-0.1429393075
0.1190201640
-0.0443865278
0.0035425100
-0.1250715901
0.4448064857
-0.0209492347
0.1230639476
-0.0512681384
0.1944478079
0.4834922597
-0.0156388124
-0.4662960942
-0.2339916012
-0.1718164705
-0.1980311705
0.1883992976
-0.0345218152
0.0378960331
-0.1533310030
0.5188374632
-0.0517668882
0.1587199164
-0.0770517486
0.1177378398
0.4464425673
0.0734693863
-0.1386000430
-0.1882831516
-0.1284592191
-0.0556925178
0.0430116733
-0.1453314986
0.0294708651
-0.0980336147
0.6002852558
-0.0799728744
0.0735841008
-0.0567103575
0.1841948122
0.4045031678
-0.0161217436
-0.4574396451
-0.2200143023
-0.1208316962
-0.1691652698
0.1433728212
-0.0095250075
0.0130437047
-0.1304874785
0.4116595461
-0.0145031923
0.1390233136
-0.0569995699
0.0666114022
0.3407337608
0.0513703358
-0.1107662450
-0.1357316542
-0.0978702547
-0.0458873884
0.0218466460
-0.0995895051
0.0214984547
-0.0794350963
0.4542496144
-0.0521592785
0.0485326736
-0.0452058759
0.1061374670
0.2744247635
0.0476036347
-0.1095610792
-0.1465003477
-0.0727404055
-0.0419764826
0.0343408457
-0.0772549338
0.0176757119
-0.0583353974
0.3410359341
-0.0417151384
0.0427246182
0.0188079222
0.0259895259
0.1212189680
-0.0270691011
-0.1065059445
-0.0195162881
-0.0832232556
-0.0863022811
0.0988630437
-0.0008474895
0.0481170366
-0.0443571955
0.1292872127
-0.0581835214
0.0447824089
0.0055473137
0.0420292105
0.0992646313
-0.0056738342
-0.0767632405
-0.0528730541
-0.0505344956
-0.0485110897
0.0531403314
-0.0087239184
0.0349144278
-0.0250781485
0.0835571168
-0.0388351538
0.0322337624
-0.0139239370
0.0434789205
0.1214478249
0.0229969256
-0.0033683554
-0.0884646359
-0.0381474513
-0.0154296421
0.0137655957
-0.0492331093
0.0183012428
-0.0251993731
0.1322857313
-0.0397648351
0.0183970652
0.0041953129
0.0201325828
0.0699964642
0.0004209605
-0.0158087193
-0.0215479469
-0.0303991684
-0.0248400239
0.0230062530
-0.0174968489
0.0268507433
-0.0135674650
0.0585554537
-0.0285277123
0.0143559168
0.0754658610
-0.1280910799
0.0458691250
0.0069862659
0.2605887275
0.0932783894
-0.1167288487
0.0039320764
0.0618098067
-0.1007704449
0.1221394697
-0.0025492681
0.1851111832
-0.1720659618
-0.0423149447
0.0279700366
-0.0265587312
0.0420181881
0.0029376567
0.0559654772
0.0197352026
-0.0448440518
-0.0029249968
0.0166398675
-0.0278613709
0.0453247981
-0.0062386499
0.0693611361
-0.0492986731
-0.0005861205
0.0703241729
-0.0741050882
0.0621343423
-0.0355240982
0.0333192191
0.0808487333
-0.1103692933
-0.0712847690
0.1123201414
-0.0144201698
0.1045451504
-0.0237944437
0.1044844938
-0.1228195306
0.0245432836
0.0706290809
-0.0552066758
0.0954057254
-0.0411379142
-0.0033423969
0.0529287037
-0.1386189115
-0.0904168441
0.1424081985
-0.0246242580
0.1173735098
-0.0424433848
0.1255181156
-0.1336629462
0.0452662221
0.0398336746
-0.0212683821
0.0907927205
-0.0287044809
-0.0298522660
0.0206832097
-0.0907973762
-0.0729478978
0.0967303907
-0.0108063998
0.0698657079
-0.0370317840
0.1105841383
-0.0803637023
0.0319557539
0.0477536685
-0.0618698785
0.0370939663
-0.0000860303
0.1158449732
0.0846978227
-0.0721873910
-0.0210903690
0.0525719044
-0.0391878534
0.0723492671
-0.0084664765
0.0843724291
-0.0886566165
-0.0057182967
0.0561539908
-0.1083732823
0.0341276141
0.0149867913
0.2303709528
0.0965325505
-0.0842718410
0.0095077927
0.0333879086
-0.0825710881
0.0975777159
0.0000298857
0.1181727078
-0.1348638259
-0.0330586148
0.0740825015
-0.1514820427
0.0743793244
0.0217991098
0.3059421504
0.1034295971
-0.1406213225
-0.0008696636
0.0608529849
-0.1316003519
0.1385194792
-0.0136165296
0.2016521752
-0.1951117294
-0.0387131396
0.0874247188
-0.1853526415
0.0849848688
0.0210507560
0.3182832687
0.0755170242
-0.1721052182
-0.0059481151
0.0735679155
-0.1428493139
0.1720973292
-0.0173734248
0.2360846904
-0.2366336560
-0.0405587716
0.1025713595
-0.1908871870
0.0364044334
-0.0077882871
0.3012544405
0.1178650705
-0.1645412581
-0.0231452673
0.0857519943
-0.1055221790
0.1722023268
0.0023383263
0.1606745565
-0.2182877834
-0.0307986420
0.2521009294
-0.4517898143
0.0523443651
-0.0409209886
0.6267981010
0.3543639885
-0.3794000880
-0.0756893566
0.2423946563
-0.2111896324
0.3830004447
-0.0345963597
0.3822138165
-0.4927569815
-0.0714242202
0.1827603069
-0.3114440895
0.0538598757
-0.0407825475
0.3879600967
0.2295829404
-0.2827277277
-0.0798710461
0.1918312274
-0.1351148966
0.2879379205
-0.0357249930
0.2717865970
-0.3520592474
-0.0325582652
0.0523846908
-0.0548393549
-0.0028548631
-0.0208400157
0.0792284589
0.0775323906
-0.0359651002
-0.0197756552
0.0331079714
0.0018927133
0.0574230348
-0.0102431336
-0.0275856316
-0.0627002597
0.0038236389
-0.0571200960
0.1001897547
-0.0346971008
0.0100814011
-0.1385011082
-0.0653326365
0.1164378515
0.0288393858
-0.0905187838
0.0816450549
-0.0959306877
0.0172667396
-0.1874385185
0.1367965190
0.0211337456
-0.1493417744
0.2016515337
-0.0210550741
0.0781338322
-0.1849189841
-0.1781843236
0.2427067685
0.1306504782
-0.2356877387
0.0553386012
-0.2166433207
0.0504651094
-0.1398096133
0.2501325467
-0.0112731027
-0.0917069970
0.1228291017
0.0225977909
0.0353291289
-0.1852053838
-0.1114999999
0.1324453122
0.0465287791
-0.1045463043
0.0410040393
-0.1219518174
0.0065527576
-0.0757129217
0.1476689149
0.0140865338
-0.0131270663
0.0156676001
0.0297501268
0.0050171975
-0.0627793936
-0.0044542492
0.0291816128
0.0020494953
-0.0190545001
0.0133079115
-0.0202221910
-0.0066852854
0.0070223788
0.0254401902
0.0106985435
0.0966105369
-0.1479198308
0.0588406572
-0.0174494657
0.1629334318
0.1211693775
-0.1457138032
-0.0458744758
0.1049006778
-0.0759690435
0.1419235150
-0.0223736819
0.1725005792
-0.1853333696
-0.0092685689
0.1375548523
-0.2441726951
0.0499609386
-0.0229524211
0.3240244811
0.1692474637
-0.2112422476
-0.0453356516
0.1340079771
-0.1223347718
0.2208176786
-0.0184863865
0.2355807430
-0.2781278997
-0.0302114354
0.1106757554
-0.2160063087
0.0141701411
-0.0155617797
0.3023729096
0.1649219176
-0.1602306482
-0.0180627788
0.0838251339
-0.1025276794
0.1762601272
-0.0086523162
0.1523201374
-0.2161976911
-0.0358676160
0.0138633799
-0.1055935713
-0.0902009455
0.0445720139
0.2510413906
0.1055572370
0.0571493542
0.1104714217
-0.1093103534
-0.0507628782
0.0019943396
0.0515192514
-0.0647229937
-0.0148048778
-0.0754240270
0.0056218267
-0.1791770453
-0.1706851520
0.0553349488
0.3042024771
0.1543949345
0.1031306328
0.1681486482
-0.1767896688
-0.0449098112
-0.0231853194
0.0738570553
-0.1203770180
0.0066462959
-0.1080622049
0.0679366781
-0.1716906300
-0.2147962063
-0.0417405709
0.0785947424
0.2146876823
0.0465640030
0.0295620796
-0.0367686758
0.0671732901
0.0205719114
0.0305085107
-0.3114156700
0.0239592335
-0.0258887145
-0.0464690255
-0.0597361696
-0.3567234218
0.0256200365
0.0576133136
0.2255248234
0.3064763701
0.1909367075
-0.2603143055
0.1221397054
-0.1585905319
0.1136297024
-0.6091353914
0.2457927043
-0.0706395648
-0.1063602963
0.0666353955
-0.2611275718
0.0472283980
-0.0562075806
0.0492412108
0.3169600324
0.1841836484
-0.2868385289
0.1178294591
-0.2282378349
0.0973389818
-0.4893773383
0.2899963929
-0.0534734427
-0.0871468586
0.0305794170
-0.1487549816
0.0963591854
0.1020730738
0.0093763093
0.2593002684
0.1996001026
-0.2653302843
0.0111727798
-0.1577454497
0.0896817697
-0.2334370668
0.1778571586
-0.0743915443
-0.0887026308
0.1053003316
-0.0822423006
0.0499011840
-0.0662217466
-0.0831404524
0.1857610868
0.1139388086
-0.1779774681
0.0547212594
-0.1383960586
0.0419382877
-0.2444447162
0.1738754762
-0.0160683350
-0.0866030763
0.1444732683
-0.0854557511
0.0203259959
-0.1543608996
-0.0995646903
0.1897002868
0.0625382071
-0.1587541626
0.0929628076
-0.1527946962
0.0317171809
-0.3229648965
0.2044264089
0.0101156867
0.0099848451
-0.0487038909
-0.0200855012
0.0196136016
0.1391951645
0.0422904090
0.0148118046
0.0487104098
-0.0510790903
-0.0370107864
0.0145420144
0.0150376262
-0.0220135282
-0.0286328745
-0.0279896297
0.0258650237
-0.0774678034
-0.0572053077
0.0115871201
0.1416806043
0.0914368446
0.0233792501
0.0472743972
-0.0484247029
-0.0097795535
0.0137314027
0.0239050106
-0.0735819194
-0.0207052927
-0.0340330216
0.1262065139
-0.2822202561
-0.0650935891
-0.0067086774
0.4421112242
0.2487421619
-0.1272787169
0.0414968888
0.0429804808
-0.1073639701
0.1713866219
0.0243219894
0.0797569114
-0.2172193578
-0.0781079778
0.2312922043
-0.4690872113
0.0218358641
-0.0013036608
0.7629209477
0.3704086695
-0.3283860635
0.0037292671
0.1679885934
-0.2552071364
0.3594300096
0.0021228222
0.3998140484
-0.4827616982
-0.1170980314
-0.0306774198
-0.0015830824
-0.1310540878
0.0463908763
0.0974984965
0.0491147907
0.1616640688
0.1281511800
-0.1781358304
0.0163997607
-0.1019483528
0.0661351845
-0.1989290459
0.1133541459
-0.0530949165
-0.0876935899
0.1331625103
-0.0992357159
0.0304789834
-0.1057321765
-0.0392419850
0.2056710531
0.0916085277
-0.1602811002
0.0871397226
-0.1555193571
0.0490753645
-0.2850371013
0.1998174896
0.0040254956
-0.0710222793
0.1123295957
-0.0928056378
0.0249999190
-0.0828371455
-0.0300162249
0.1818267542
0.0840050138
-0.1639772488
0.0714654282
-0.1439796172
0.0558680516
-0.2634942372
0.1839048990
-0.0075570175
-0.1123214648
0.1842754825
-0.1005936791
0.0236139940
-0.2017787655
-0.0894900388
0.2347293015
0.0849946913
-0.1847269321
0.1145466952
-0.1975797522
0.0490166084
-0.3434203339
0.2602467828
0.0147377784
-0.0663088066
0.1211524819
-0.0543770269
0.0191829513
-0.1149991948
-0.0595515164
0.1454612116
0.0517977704
-0.1210990441
0.0699613868
-0.1189174572
0.0294226734
-0.2113566658
0.1543666130
0.0081577167
-0.0256959664
0.0255893188
-0.0783791613
0.0227860121
0.0241193253
0.0371750374
0.0942676631
0.0578016643
-0.0847481144
0.0409583210
-0.0603421633
0.0343564499
-0.1733946804
0.0811092147
-0.0217615705
-0.0329731272
0.0458364023
-0.0845511826
0.0133499599
-0.0059015875
0.0218529744
0.1139612481
0.0676182380
-0.1059599013
0.0420910654
-0.0808504435
0.0377790251
-0.1914085233
0.1209914492
-0.0111006352
-0.0176159163
0.0216641879
-0.0782320366
0.0110844535
0.0069737168
0.0337978750
0.1123571007
0.0600122471
-0.0923554201
0.0415585060
-0.0641525074
0.0355208766
-0.1708104722
0.0954370353
-0.0175510203
-0.0370654975
0.0166749121
-0.1362474313
0.0396292420
0.0622641257
0.0651119761
0.1699835813
0.1152775246
-0.1672523249
0.0388578774
-0.1072320971
0.0657538554
-0.2368789936
0.1312229027
-0.0503372628
-0.0262774291
-0.0052486759
-0.0881532593
0.0254982284
0.0962053018
0.0636153646
0.1096823406
0.0968315143
-0.1139059923
0.0125257561
-0.0659640198
0.0576919267
-0.1567523406
0.0735639910
-0.0390521513
-0.0055934810
-0.0004129345
-0.0606779508
0.0135498726
0.0605453655
0.0442580526
0.0692835036
0.0557789985
-0.0814768043
0.0137427068
-0.0428436731
0.0323926032
-0.0857287719
0.0522553415
-0.0173520866
-0.0245807215
0.0348654131
-0.0497626178
0.0295557182
0.0002100619
0.0058790786
0.0958374234
0.0547538319
-0.0939889620
0.0441061810
-0.0582549323
0.0303112021
-0.1247527284
0.0799644025
-0.0162028923
-0.0343781099
0.0271277458
-0.0550154099
0.0266853157
0.0181490270
0.0156263617
0.1043140919
0.0696534368
-0.1097449085
0.0244216467
-0.0724064547
0.0366196999
-0.1339465334
0.0824279724
-0.0253261553
-0.0299479844
0.0097156767
-0.0970558192
0.0272922182
0.0416633598
0.0638741407
0.1276936166
0.0926083911
-0.1359099330
0.0301413538
-0.0781816628
0.0567285121
-0.1842690476
0.1099406002
-0.0376380456
-0.0228075289
0.0064706391
-0.0639595398
0.0207563069
0.0480035050
0.0433022731
0.0826376715
0.0705449127
-0.0962990604
0.0208710208
-0.0437904939
0.0358490052
-0.1148879172
0.0628267780
-0.0245438887
-0.0213542736
0.0249287270
-0.0489695963
0.0207411041
0.0444230084
0.0276445404
0.0914793757
0.0589214487
-0.0905400451
0.0125749988
-0.0484993782
0.0385014567
-0.1084622744
0.0579601439
-0.0220538351
-0.0144540708
-0.0095819388
-0.0592762917
0.0196804356
0.0916332754
0.0551815469
0.0695056845
0.0773367380
-0.0871743123
0.0015452514
-0.0371856659
0.0447894119
-0.0983697199
0.0428139987
-0.0339447896
-0.0191910255
0.0024979052
-0.0463649965
0.0291823547
0.0992865561
0.0489499952
0.0729119252
0.0723455049
-0.0911573999
-0.0092929274
-0.0402818524
0.0393650209
-0.0712829738
0.0401564196
-0.0328434046
-0.0075026565
-0.0249419933
-0.0382322335
0.0247509141
0.1034515817
0.0503587073
0.0466194618
0.0583390027
-0.0757702357
-0.0117102931
-0.0204027147
0.0281998841
-0.0497563119
0.0167711468
-0.0335918499
-0.0099285843
0.0058319173
-0.0134678640
0.0255331733
0.0772063297
0.0200485728
0.0404019680
0.0430298383
-0.0674041038
-0.0116304109
-0.0185885320
0.0210277399
-0.0456193640
0.0266803081
-0.0207372066
-0.0115164858
0.0079100279
-0.0293049135
0.0205787741
0.0627486652
0.0209197600
0.0506085480
0.0443470703
-0.0604905919
-0.0021895277
-0.0282675538
0.0220011766
-0.0652138113
0.0284893332
-0.0183525080
-0.0125801252
0.0144301670
-0.0335043512
0.0129564978
0.0282420861
0.0251291500
0.0617286563
0.0413204688
-0.0644796431
0.0164815657
-0.0390724746
0.0326896121
-0.0991214158
0.0475234354
-0.0149050665
-0.0084504070
-0.0194414731
-0.0333753452
0.0140516116
0.0841700615
0.0556801216
0.0521477936
0.0590620807
-0.0738480122
0.0062729847
-0.0246517226
0.0303913420
-0.0805629535
0.0268634955
-0.0196324070
-0.0278746130
0.0094651542
-0.0517308172
0.0293424281
0.0607789051
0.0288699602
0.0941120137
0.0758362956
-0.1068095735
0.0064648359
-0.0570565346
0.0424605427
-0.1027511998
0.0632522944
-0.0321778190
-0.0042063710
-0.0141035599
-0.0189759380
0.0398299131
0.0914449771
0.0368126631
0.0381137181
0.0431388887
-0.0554532417
-0.0138616853
-0.0121766976
0.0227380827
-0.0483210406
0.0111406177
-0.0129683111
-0.0374843530
0.0472299349
-0.0342952279
0.0223350888
0.0192467505
-0.0005685312
0.0832269743
0.0552640283
-0.0829031054
0.0198193535
-0.0616797470
0.0413988547
-0.1096511521
0.0772375904
-0.0171140767
-0.0083660246
-0.0038581270
-0.0350696512
0.0149189140
0.0633753477
0.0362205351
0.0560815438
0.0442729429
-0.0641109985
0.0117337309
-0.0236560828
0.0248294887
-0.0671774260
0.0260334333
-0.0171877054
0.0146537611
-0.0402831970
0.0003006734
0.0231467207
0.1514624366
0.0542234877
0.0048312285
0.0523212796
-0.0388875595
-0.0354114250
0.0231169280
0.0227374481
0.0136120930
-0.0385105995
-0.0349984670
0.0288354971
-0.0208052859
-0.0219646234
0.0030817872
0.0687991867
0.0558005355
0.0178407518
0.0379726542
-0.0329140725
0.0043290367
0.0024456069
0.0160321857
-0.0734310600
0.0002970813
-0.0120941938
0.0247340576
-0.0393541016
-0.0142938254
-0.0165028921
0.0299167147
0.0560116071
-0.0098158303
-0.0031928394
0.0108473172
0.0106080240
0.0216034902
0.0055289216
-0.0578667101
-0.0273959867
0.0025524298
0.0048640557
-0.0293682188
-0.0217166369
0.0117013490
0.0892040494
0.0584130342
0.0209319887
0.0344955361
-0.0464827354
-0.0112765367
0.0029060850
0.0311321194
-0.0318202008
-0.0051087843
-0.0234135173
-0.0094549536
-0.0064749885
-0.0469068284
0.0158604469
0.0741157126
0.0389570758
0.0579910486
0.0617385841
-0.0727018684
-0.0003772993
-0.0335650611
0.0280190404
-0.0819137500
0.0340177217
-0.0256776457
-0.0331068304
0.0320884969
-0.0447930540
0.0406413864
0.0700599814
0.0247164732
0.0994590852
0.0797200901
-0.1170624745
0.0005581177
-0.0645145475
0.0391370806
-0.1026184125
0.0704035583
-0.0355662708
-0.0079062820
-0.0374802637
-0.0298609141
0.0437141901
0.1828114813
0.0656711509
0.0432213259
0.0840779777
-0.0875382601
-0.0454316474
-0.0151463444
0.0356923210
-0.0207847776
-0.0006758973
-0.0499803930
-0.0349508393
0.0361925391
-0.0394454410
0.0252616566
0.0400088649
0.0034642704
0.0855419093
0.0625596735
-0.0993901301
0.0085201210
-0.0614116104
0.0323039847
-0.1032831122
0.0680731683
-0.0141098444
0.0003344367
-0.0263157395
-0.0568427054
0.0257479992
0.1469590489
0.0779115558
0.0502939584
0.0674412899
-0.0782552513
-0.0195212877
-0.0143044108
0.0421482575
-0.0668406154
0.0078517733
-0.0417926786
0.0479537880
-0.0875987005
-0.0166010430
0.0387273681
0.2119393401
0.1022638185
-0.0198954955
0.0439837901
-0.0281331006
-0.0551395863
0.0406706334
0.0235660355
0.0310492913
-0.0607563403
-0.0462246671
0.0253920771
-0.0671648967
0.0035873262
0.0213115423
0.1914698388
0.0721240928
-0.0178554164
0.0437781656
-0.0313005967
-0.0566767669
0.0411019827
0.0238957429
0.0467306003
-0.0637127403
-0.0387725270
0.0056222484
-0.0348389724
-0.0182209089
0.0292600299
0.1598504963
0.0661302597
0.0246489033
0.0558654450
-0.0621286016
-0.0411466624
0.0000329208
0.0298649005
0.0032071802
-0.0203711748
-0.0379559286
-0.0104069807
-0.0050031138
-0.0058901409
0.0224842779
0.0981764479
0.0314160366
0.0306740637
0.0474075872
-0.0595015850
-0.0177029461
-0.0174547165
0.0332483499
-0.0176011691
0.0077103561
-0.0266214899
0.0330974514
-0.0752243798
0.0014396698
0.0176519384
0.1998885811
0.0820187151
-0.0265340967
0.0347853535
-0.0183390107
-0.0581905336
0.0469284153
0.0156845894
0.0564366348
-0.0708916796
-0.0350558467
-0.0112223635
0.0091567837
-0.0280169162
0.0203710079
0.0765316844
0.0341329562
0.0562631911
0.0581393681
-0.0736554672
-0.0084151145
-0.0169670841
0.0301827852
-0.0651749870
0.0354128081
-0.0275316508
-0.0248575408
0.0126994601
-0.0481948847
0.0261553233
0.0785481038
0.0397130486
0.0845823072
0.0714852572
-0.0968653599
0.0010626061
-0.0484814933
0.0463283752
-0.1059790369
0.0578333214
-0.0321597307
-0.0202042647
0.0153888967
-0.0277493612
0.0243211895
0.0611459670
0.0217983545
0.0591653793
0.0516520777
-0.0757388134
-0.0014170472
-0.0399357793
0.0263102304
-0.0653418944
0.0448478715
-0.0239276302
0.0039043881
-0.0015664057
-0.0150391363
0.0151635655
0.0919231805
0.0398749265
0.0364519094
0.0414065857
-0.0523522093
-0.0003965609
-0.0120629423
0.0270148627
-0.0308266948
0.0074783012
-0.0159803966
-0.0024082044
-0.0068984068
-0.0286962038
0.0089834212
0.0633535327
0.0536195947
0.0360228826
0.0352383795
-0.0495740082
-0.0002031610
-0.0140977006
0.0485190459
-0.0525700685
0.0137225635
-0.0094821378
-0.0215210235
0.0310745460
-0.0279149557
0.0121390982
0.0186821804
0.0141048160
0.0655105073
0.0402394729
-0.0534727619
0.0144107396
-0.0449776290
0.0265994853
-0.0776492394
0.0605055044
-0.0121081579
-0.0296543004
0.0396435406
-0.0117704209
0.0197169372
0.0198806294
0.0011846168
0.0697214378
0.0445511359
-0.0698258794
0.0109116515
-0.0457351711
0.0240030929
-0.0668297849
0.0640836323
-0.0122571711
-0.0172493877
0.0228708472
-0.0152753427
0.0200900410
0.0388263454
0.0107138983
0.0584934027
0.0443194675
-0.0738481416
0.0038375439
-0.0358959775
0.0248553314
-0.0541687958
0.0464813959
-0.0186654405
-0.0006579742
-0.0007187784
0.0125864042
0.0221095894
0.0790342284
0.0290657673
0.0261345132
0.0393631019
-0.0540001892
-0.0225180392
-0.0113672982
0.0147927125
-0.0016931591
0.0045587723
-0.0197633764
0.0133994920
-0.0385629187
0.0021322084
0.0106848923
0.1206388902
0.0577809220
-0.0077599813
0.0261598841
-0.0250605503
-0.0293745928
0.0502678358
0.0168654488
0.0229157562
-0.0322047706
-0.0157446412
-0.0174363727
0.0317953463
-0.0121364745
0.0111789299
0.0025503316
0.0159971032
0.0574222066
0.0285042602
-0.0563200057
0.0126209785
-0.0372778542
0.0148647398
-0.0409728245
0.0520878131
-0.0075962196
-0.0167462844
0.0240730690
-0.0284073732
0.0102926276
0.0231064446
0.0162997658
0.0565483622
0.0441994488
-0.0628042157
0.0212301607
-0.0366888396
0.0200794906
-0.0820807220
0.0458823051
-0.0056959995
-0.0177458639
0.0469565016
-0.0338921524
0.0084244912
-0.0121205617
0.0142016458
0.0783921689
0.0309906521
-0.0615032695
0.0282484744
-0.0418150930
0.0212300198
-0.1078154382
0.0637719554
-0.0067876524
-0.0039533125
0.0207201600
-0.0270046025
0.0047767100
-0.0138036037
0.0238769914
0.0531674734
0.0282421704
-0.0459565926
0.0282511079
-0.0175419752
0.0133262551
-0.0845520986
0.0430072020
-0.0002421147
0.0052655188
0.0225701304
-0.0237975347
-0.0090135476
-0.0526355883
0.0225784629
0.0375121401
0.0022029786
-0.0213829507
0.0411226453
-0.0256560410
0.0133317793
-0.0944097943
0.0419441566
0.0182587569
-0.0137938745
0.0364684983
-0.0172613509
-0.0055882897
-0.0329650585
0.0186339827
0.0449742588
0.0135299832
-0.0323759460
0.0326742735
-0.0279669803
0.0189854755
-0.0774993011
0.0499901883
0.0043407091
-0.0027755760
0.0325371480
-0.0114575492
-0.0073126676
-0.0434306378
0.0166201966
0.0371917284
0.0243545470
-0.0294917487
0.0331892002
-0.0254423482
0.0057467946
-0.0771053478
0.0474145375
0.0131676928
-0.0012427840
0.0364344194
0.0163770565
-0.0143714673
-0.0662808185
0.0247675833
0.0274042454
-0.0112795979
-0.0034511542
0.0363012646
-0.0190376211
0.0118869276
-0.0674733734
0.0358572802
0.0150949657
-0.0103986126
0.0404818475
0.0087949783
-0.0123577053
-0.0707442174
0.0169909018
0.0382852209
-0.0091761623
-0.0127606950
0.0464127855
-0.0204386699
0.0029633221
-0.0583340867
0.0487082099
0.0138938116
0.0097408319
0.0158338375
0.0028766715
-0.0119248721
-0.0463137106
0.0233877429
0.0121528544
-0.0146141549
0.0031579522
0.0318040698
-0.0076752461
-0.0008651345
-0.0543369153
0.0183828852
0.0190401010
0.0167799085
0.0097866331
0.0168667681
-0.0158812520
-0.0598833547
0.0269027411
-0.0009695995
-0.0240922063
0.0175473273
0.0318717349
0.0071987877
-0.0076552240
-0.0428778729
0.0060792301
0.0176670506
-0.0032879740
0.0262525769
-0.0060091595
-0.0029266405
-0.0247549326
0.0240436521
0.0318035622
0.0034522131
-0.0246059702
0.0274152247
-0.0188508909
0.0079209160
-0.0648325895
0.0304558667
0.0027053987
0.0010540014
0.0107520119
-0.0105905200
-0.0031208364
-0.0220179540
0.0326195280
0.0293058061
0.0031651182
-0.0194471401
0.0414040492
-0.0150929134
0.0130889923
-0.0564269583
0.0247107313
0.0087989226
0.0210346219
-0.0040183347
-0.0153042225
-0.0223076490
-0.0219672832
0.0416245705
0.0114402967
-0.0120101913
0.0016637223
0.0323683201
0.0076800901
0.0071593566
-0.0621958136
0.0013374555
0.0072265715
0.0288827745
-0.0184881269
-0.0133029682
-0.0187208332
-0.0063454074
0.0494488380
-0.0013672717
-0.0143913682
0.0123977051
0.0219700001
0.0190132154
0.0012194523
-0.0568170767
-0.0059193157
0.0070645719
0.0282844095
-0.0346932775
-0.0222778546
-0.0175190428
0.0501402609
0.0766933752
-0.0086414672
0.0017443141
0.0040011786
0.0134611673
0.0207385148
0.0196150050
-0.0555458503
-0.0194774697
0.0075127413
0.0203561730
-0.0228895857
-0.0259759267
-0.0189254039
0.0163613715
0.0650767411
0.0086889836
-0.0029631334
-0.0074505092
0.0239623776
0.0092892711
0.0140601297
-0.0735781320
0.0058079529
-0.0020162251
0.0360924339
-0.0418385434
-0.0102088504
-0.0303041118
0.0137326639
0.0793801974
-0.0272060127
-0.0252584417
0.0316860274
0.0169431982
0.0403969266
-0.0001413374
-0.0362522720
-0.0350557562
0.0108775701
0.0421320637
-0.0426697577
-0.0164967410
0.0015827308
0.0595458953
0.0716705405
-0.0180527366
-0.0002842466
0.0119890437
0.0004682856
0.0455599052
0.0062085240
-0.0310277027
-0.0331329482
-0.0065898863
0.0404689235
-0.0588884219
0.0037393269
-0.0003519108
0.1365065462
0.0796833705
-0.0288596126
0.0143190201
-0.0004871582
-0.0316035877
0.0494600993
0.0125805156
0.0174409525
-0.0555495884
-0.0233719821
0.0532212855
-0.0908553074
-0.0098238468
-0.0017781340
0.1583938752
0.1046735361
-0.0555607477
0.0058910297
0.0217132180
-0.0354280002
0.0729042545
0.0099569477
0.0308502316
-0.0889197942
-0.0235933037
0.0318426826
-0.0448438983
-0.0284940176
-0.0059812666
0.0673284072
0.0786829475
-0.0081528102
0.0039418460
-0.0059146205
0.0034565792
0.0371091305
0.0126992847
-0.0495794019
-0.0269869185
-0.0114561911
0.0505707273
-0.0578967968
-0.0170979785
-0.0363177635
0.0132707624
0.0907206065
-0.0443235027
-0.0375147049
0.0439894481
0.0211314966
0.0506716789
-0.0013706413
-0.0532012737
-0.0522796952
0.0093466385
0.0666201457
-0.0839760527
-0.0066553463
-0.0411973654
0.0613026664
0.1011905498
-0.0716062863
-0.0402924123
0.0647243154
0.0007445674
0.0847340005
-0.0090331706
-0.0130546844
-0.0886634005
0.0038208331
0.0324204826
-0.0524261157
-0.0203885937
-0.0175874348
0.0680742130
0.0711985426
-0.0169072664
-0.0035410385
0.0060232931
0.0044540103
0.0325228064
0.0071120571
-0.0356145259
-0.0365108899
-0.0075678546
0.0204684277
-0.0248462779
-0.0150817009
-0.0034580289
0.0861372607
0.0589778126
0.0164070705
0.0185930951
-0.0219399809
-0.0062894571
0.0143726592
0.0244488162
-0.0438951134
-0.0198666941
-0.0163917381
0.0161924452
-0.0246626001
-0.0163528869
0.0042129252
0.0840583760
0.0495200446
0.0002486826
0.0185104979
-0.0170269209
-0.0127390159
0.0135451876
0.0130364892
-0.0138291713
-0.0117611515
-0.0123459916
0.0572867154
-0.0960191590
0.0128407353
-0.0040414493
0.1530007687
0.0929238961
-0.0701761576
-0.0092726246
0.0380339406
-0.0383522491
0.0817208466
0.0030544035
0.0507927991
-0.0974420984
-0.0203504342
0.0607608925
-0.0976944723
0.0097550268
-0.0187154433
0.1592600515
0.0988871429
-0.0663270022
-0.0145854766
0.0389301692
-0.0315721505
0.0839757529
0.0062225443
0.0436380126
-0.0965877056
-0.0158449358
0.0330068893
-0.0529099968
-0.0079600788
-0.0104522945
0.1015903252
0.0830837758
-0.0216210812
-0.0025212276
0.0063732848
-0.0107793971
0.0386689826
0.0052995067
-0.0069586894
-0.0490468509
-0.0121238118
0.0584945742
-0.0943742423
0.0088237394
-0.0115032616
0.1500759710
0.1015820392
-0.0641206826
-0.0108939369
0.0412075802
-0.0402188416
0.0784795152
0.0002744504
0.0539790492
-0.1052788511
-0.0181433512
0.0338547903
-0.0315157065
0.0183141587
-0.0133742919
0.0310283373
0.0551556872
-0.0374096143
-0.0244875598
0.0280065127
0.0070594954
0.0389234767
-0.0014642744
0.0062665156
-0.0417414217
0.0027555793
0.0423562138
-0.0672394979
0.0135814271
-0.0038622857
0.1101652677
0.0769326690
-0.0511398883
-0.0102686619
0.0270697079
-0.0320747289
0.0585503505
0.0016123184
0.0472923098
-0.0766018103
-0.0135795309
0.0995111259
-0.1583737198
0.0258097658
-0.0144641476
0.2575367926
0.1466165417
-0.1380460430
-0.0222564768
0.0817110376
-0.0830284619
0.1422493423
-0.0078435736
0.1418946252
-0.1889627968
-0.0306757643
0.0362966189
-0.0466712801
-0.0138028955
0.0021191361
0.1102076944
0.0621542469
-0.0085944730
0.0180301522
-0.0160875488
-0.0176484857
0.0282258637
0.0142290267
-0.0075036558
-0.0295426839
-0.0222724660
0.0276122685
-0.0502401379
-0.0007190892
0.0042031702
0.1142455206
0.0630005377
-0.0220426343
0.0128674570
-0.0036451761
-0.0280890540
0.0446650994
0.0108979866
0.0205562584
-0.0507091853
-0.0187276920
0.0814520487
-0.1307472667
0.0419160883
-0.0105347812
0.2225718807
0.1189802462
-0.1080285338
-0.0205467723
0.0639306254
-0.0757094392
0.1197981431
-0.0079900447
0.1341063238
-0.1607140524
-0.0263839707
0.0263578453
-0.0422878289
-0.0020622536
0.0047160589
0.0974173921
0.0691188619
-0.0191032474
0.0187689234
-0.0043464600
-0.0204682760
0.0343257823
0.0104028635
0.0091833200
-0.0398758071
-0.0146317107
0.0222552769
-0.0135845617
-0.0086088561
0.0010703116
0.0584456231
0.0390660869
0.0072396379
0.0159384342
-0.0218873585
-0.0041813883
0.0181379400
0.0107240934
-0.0251281070
-0.0093460107
-0.0100774701
0.0401735433
-0.0685999132
0.0165542843
0.0125681731
0.1469107590
0.0885757671
-0.0510887204
0.0012445939
0.0147183468
-0.0397093286
0.0656798783
0.0045271679
0.0542086884
-0.0804638912
-0.0187642706
0.0846264189
-0.1429189489
0.0307988807
-0.0132378711
0.2233272078
0.1305932689
-0.1174958664
-0.0180086333
0.0690048164
-0.0658560922
0.1254080617
-0.0075171756
0.1349472664
-0.1601451426
-0.0255626522
0.0724781441
-0.1018445287
0.0319432834
-0.0224117641
0.1473677175
0.1010958508
-0.0995135925
-0.0288988444
0.0688149249
-0.0416135414
0.1010257099
-0.0088797553
0.0877742672
-0.1303440460
-0.0127188038
0.0371388880
-0.0458041497
0.0304567998
-0.0155748277
0.0658333844
0.0590489976
-0.0496433547
-0.0248327175
0.0355591889
-0.0155291095
0.0587792859
-0.0078731321
0.0532945281
-0.0662658041
0.0011133152
0.0262548250
-0.0397593617
0.0074685549
-0.0047571877
0.0891904922
0.0639738741
-0.0292955735
-0.0006281657
0.0101993248
-0.0225418351
0.0380489008
0.0042880717
0.0216981157
-0.0448382016
-0.0126162445
0.0078548738
-0.0020726490
-0.0125023851
0.0076038622
0.0640779612
0.0423776627
0.0200889219
0.0214973043
-0.0339884517
-0.0000548406
-0.0008253951
0.0154660528
-0.0391528296
0.0041125833
-0.0149207924
0.0217735892
-0.0331446245
-0.0105595377
-0.0006316027
0.0846749089
0.0565609042
-0.0053990566
0.0141164929
-0.0141081670
-0.0114021885
0.0219519893
0.0116267651
-0.0148620728
-0.0309941339
-0.0147555905
0.0296871732
-0.0452386437
0.0113208856
-0.0070733312
0.0963529018
0.0597860707
-0.0292568411
0.0022304943
0.0046093666
-0.0193732277
0.0360910018
0.0143059909
0.0217356214
-0.0401226548
-0.0072958148
0.0152626203
-0.0218502065
-0.0130613298
0.0053751659
0.0743353980
0.0568768504
0.0018082688
0.0170330879
-0.0201377156
-0.0088673014
0.0186040073
0.0200843654
-0.0275986820
-0.0177924244
-0.0135693921
0.0332911310
-0.0256028054
0.0082468747
-0.0066576716
0.0475390545
0.0541625076
-0.0155257368
-0.0063213056
0.0038475873
0.0004316488
0.0250380652
0.0061544663
-0.0074513017
-0.0286278199
-0.0051737968
0.0214156737
-0.0061836166
0.0196526967
-0.0259168533
-0.0278064436
0.0391138295
-0.0171535605
-0.0202443050
0.0362052347
0.0171959905
0.0224790884
-0.0077426358
-0.0225057072
-0.0181314257
0.0152545482
0.0670080408
-0.0533277655
0.0581292341
-0.0334147903
0.0036893201
0.0666074220
-0.0876079497
-0.0686136008
0.0897676785
-0.0027974400
0.0921816016
-0.0252878079
0.0668295193
-0.0953516800
0.0203405770
0.0406695907
-0.0199351884
0.0603053155
-0.0217642994
0.0210157637
0.0519644824
-0.0622049468
-0.0470907588
0.0622971694
-0.0138703986
0.0591255496
-0.0204540460
0.0748590920
-0.0726023324
0.0160556645
0.0005472812
0.0318030314
0.0254324055
-0.0188764963
-0.0722863796
0.0106149640
0.0131774125
-0.0262379056
0.0125191301
0.0272034752
-0.0060346222
-0.0089100577
-0.0219017019
0.0169557561
0.0211069057
0.0068998957
0.0341281490
0.0265649403
-0.0272106332
-0.0873589974
0.0083956579
0.0106967994
-0.0391023690
0.0249387583
0.0420061313
-0.0051627099
-0.0128020329
-0.0348569612
0.0217412321
0.0289189455
-0.0099963082
0.0259014423
-0.0099110508
-0.0019613531
-0.0122250599
0.0189157416
0.0392883652
0.0103216102
-0.0336966760
0.0195813787
-0.0142893719
0.0095596168
-0.0561562401
0.0303525571
0.0089786547
0.0023958213
-0.0207005181
-0.0386883300
0.0116663528
0.0869117613
0.0603180552
0.0379709243
0.0452640082
-0.0542496069
-0.0013938069
-0.0097617874
0.0284512689
-0.0664389919
0.0104166808
-0.0219083422
0.0169897461
-0.0245603940
-0.0170323327
-0.0010932513
0.0879341627
0.0692948900
0.0130710893
0.0211764821
-0.0213730088
-0.0078010772
0.0149705412
0.0188659184
-0.0345296557
-0.0180043205
-0.0180457015
0.0091309948
-0.0160252494
-0.0194199525
-0.0073940156
0.0287196979
0.0508917932
0.0156498563
0.0097650730
-0.0232046711
0.0300407993
0.0092692954
0.0222885508
-0.0633562881
0.0086391583
-0.0080915075
0.0446578677
-0.0689164328
-0.0178117608
-0.0127883462
0.0847808438
0.0996409740
-0.0321869777
-0.0048201669
0.0178846560
-0.0025552986
0.0453076430
0.0050794573
-0.0257843579
-0.0537205122
-0.0094557751
0.0744020254
-0.0671462040
-0.0117038013
-0.0582046461
-0.0380980581
0.1023542536
-0.0550872016
-0.0697597819
0.0852968700
0.0353816231
0.0712136875
-0.0108574389
-0.0690551785
-0.0681704518
0.0295834049
0.0700284385
-0.0954577462
0.0086788623
-0.0367345604
0.0814307973
0.1190605635
-0.0798345971
-0.0389499541
0.0670918277
-0.0068917652
0.0848024654
-0.0093118840
0.0196006496
-0.1056542827
0.0187759646
0.1133007701
-0.1540343965
0.0530323719
-0.0472850200
0.1318819372
0.1393200199
-0.1682184003
-0.0701349588
0.1437248651
-0.0483523854
0.1583050448
-0.0307618472
0.1258759257
-0.1973557047
0.0069638160
0.0425569428
-0.0325330183
0.0180429567
-0.0379665070
-0.0291727387
0.0642123843
-0.0419886522
-0.0499820747
0.0557072523
0.0215139476
0.0412500824
-0.0134436172
-0.0280981477
-0.0401020937
0.0192441148
0.0013585974
0.0015800741
0.0055729747
0.0047461105
0.0375468245
0.0393612194
0.0231200652
0.0183194392
-0.0247162120
0.0037327982
-0.0066717359
0.0113479856
-0.0292541033
0.0030717482
0.0014939798
-0.0123346610
0.0715448821
0.0530379922
-0.0193655580
-0.1433377915
-0.0129665658
0.0200691025
-0.0435514774
0.0213991631
0.0442012791
-0.0313859165
-0.0193156409
-0.0284303150
0.0548048239
0.0427993908
0.0172237745
0.0698037280
0.0728768122
-0.0546999460
-0.2537868409
-0.0171805093
-0.0232910722
-0.0949366663
0.0859085353
0.0770794177
0.0022993458
-0.0381084752
-0.0201648156
0.0264845199
0.0720644155
0.0486857534
0.0024466999
0.0054609591
-0.0767298213
-0.1766289858
0.0559906884
-0.0410299821
-0.0987602719
0.1039913139
0.0768319456
0.0383403265
-0.0203017531
-0.1051764001
-0.0223853943
0.0622836948
0.0248568765
-0.0126951549
-0.0330178795
-0.0438053632
-0.0804116359
0.0535574179
0.0124531510
-0.0345157101
0.0218761666
0.0606521007
0.0070255069
0.0068664065
-0.1326324605
0.0094073255
0.0250875763
0.0099454074
0.0080731008
-0.0280208250
-0.0200074193
-0.0243477347
0.0401805291
0.0265668035
-0.0027011843
-0.0195837068
0.0448772467
-0.0079153171
0.0112945817
-0.1025047913
0.0248136954
0.0100510285
-0.0035693869
-0.0011678526
-0.0232383451
-0.0010676930
0.0295215158
0.0383307371
0.0397697527
0.0238333043
-0.0476504504
0.0176485262
-0.0189839719
0.0197552545
-0.0793556086
0.0309490083
-0.0071122147
-0.0034926485
0.0120846024
-0.0355953031
0.0099788496
0.0189610118
0.0368354101
0.0505097227
0.0356881800
-0.0461623070
0.0201298564
-0.0251176567
0.0263077710
-0.0876862603
0.0439165330
-0.0005905807
-0.0085670985
0.0064621479
-0.0407420490
0.0095774674
0.0392995554
0.0387017971
0.0504376831
0.0427596686
-0.0581968501
0.0152571443
-0.0296829568
0.0278260817
-0.0836045286
0.0387052189
-0.0159538704
-0.0113043651
0.0153547533
-0.0320158624
0.0103509984
0.0359984772
0.0286616423
0.0580903678
0.0422414925
-0.0695592216
0.0170130907
-0.0343469064
0.0263741145
-0.0753998053
0.0432620200
-0.0174455796
-0.0171472661
0.0157812871
-0.0435977470
0.0109848634
0.0440983857
0.0458987679
0.0621309529
0.0432313958
-0.0718700435
0.0175073469
-0.0415604285
0.0336055382
-0.0944340749
0.0526884891
-0.0051080318
-0.0138872281
0.0154435479
-0.0358868277
0.0089649193
0.0364654062
0.0252778299
0.0677850040
0.0549455535
-0.0717126746
0.0183937607
-0.0379024804
0.0283658726
-0.0943107692
0.0468310124
-0.0164413200
-0.0164991780
0.0197440295
-0.0392546633
0.0094288642
0.0361249713
0.0259566509
0.0689147789
0.0482699739
-0.0664067024
0.0195297076
-0.0400209494
0.0349060600
-0.0918943432
0.0518780033
-0.0162226929
-0.0158021470
0.0168856741
-0.0387707876
0.0205923140
0.0426626576
0.0298521829
0.0640285471
0.0462593172
-0.0734602613
0.0205543445
-0.0391808903
0.0285531479
-0.0892358302
0.0589122630
-0.0120936180
-0.0148438527
0.0200230273
-0.0442358755
0.0104146701
0.0405052675
0.0270353633
0.0626262967
0.0443040283
-0.0744950396
0.0157817231
-0.0381244270
0.0281725411
-0.0830294975
0.0510062799
-0.0184671692
-0.0173398036
0.0268000849
-0.0412770470
0.0145227409
0.0351494372
0.0251300169
0.0648984484
0.0450100405
-0.0730829637
0.0143182782
-0.0412932775
0.0256675369
-0.0945059276
0.0487002297
-0.0074667345
-0.0148688662
0.0174566835
-0.0415244654
0.0142263495
0.0351757416
0.0359419003
0.0705427244
0.0430210782
-0.0702900194
0.0216028913
-0.0313017481
0.0250313475
-0.0930186703
0.0477399399
-0.0171764780
-0.0145830272
0.0165875493
-0.0427428276
0.0147280142
0.0360975271
0.0275699066
0.0766528784
0.0456875404
-0.0736406551
0.0170832655
-0.0321315223
0.0293975304
-0.0963568544
0.0493989655
-0.0167208988
0.8597506314,0.5775084244,-0.7471784216,-0.2828417856,0.0935470756,0.4287635354,-0.2925564153,-0.2913519302,-0.5545349363,0.3920371685,-1.0626516862,-0.7855133373,0.3584004378,0.0040242863,-0.1937317664,0.6429912992,0.2795857315,0.7741044127,-0.9723659953,0.1481432242,0.6716026535,-0.1590592955,0.5774950941,-0.2835545302,0.3526114310,0.4955808678,-0.0068374071,-0.8413822578,-0.7035169431,0.2331947446,-0.4395326860,0.3312670629,0.1108117917,0.0348739850,-0.2303162970,0.4680515141,-0.1629255305,0.4483417326,0.1366482782,0.9685767484,-0.9566954916,-0.0795217335,-0.1957332796,0.3920232621,-0.5522018753,-0.0343891039,-0.3920002074,-0.1515667099,
