200,1,20,8,0.001000,0.001000,50,20,50
-0.0012927181
-0.0013231385
0.0010143429
0.0010595153
-0.0003427587
0.0016443530
0.0010011836
-0.0005804796
0.0042503196
-0.0009248463
0.0007778135
0.0007197902
-0.0020357378
-0.0016010981
-0.0014741150
-0.0000289093
0.0013703767
0.0010833157
-0.0008514819
0.0007802670
0.0065912972
0.0122129457
-0.0101115067
0.0047013972
-0.0071758204
-0.0075065296
-0.0039199740
0.0095276895
-0.0238059860
0.0017710682
-0.0035020647
-0.0002579805
0.0038532912
-0.0012381245
0.0002196289
0.0096644904
-0.0043882905
-0.0024590910
0.0181442960
-0.0155158998
0.0045370369
0.0045158916
-0.0024723617
-0.0052476998
0.0038139637
-0.0052475597
-0.0030890395
0.0007210214
-0.0140156777
0.0039076301
-0.0029463578
-0.0014987430
0.0072666144
0.0068972537
0.0070971181
-0.0008242346
-0.0056250337
-0.0029588633
0.0001485845
-0.0001103034
0.0018634376
0.0125084805
0.0005061528
0.0043753025
0.0080056511
-0.0035124007
-0.0077370203
-0.0100711463
-0.0154347965
-0.0018356952
-0.0044116574
0.0068772375
-0.0072444461
0.0005136613
0.0166509797
0.0070657319
-0.0123649387
0.0072750146
0.0011800100
0.0002392800
-0.0043650205
-0.0102200989
0.0070641379
-0.0054435837
0.0051729355
0.0051428146
0.0037866074
-0.0051874345
0.0176004333
-0.0002353911
0.0031122935
-0.0011746743
-0.0000270629
0.0023504916
-0.0010996961
-0.0087249219
0.0042009533
0.0003390002
-0.0135717696
0.0119436356
-0.0022626227
0.0027935746
0.0036730697
0.0037259924
0.0050079906
0.0017403304
-0.0032765838
-0.0084812327
0.0018786640
-0.0029641560
-0.0004985423
0.0047978166
-0.0082398935
-0.0024794273
0.0071802169
0.0024874159
-0.0042287539
0.0061276823
-0.0032692710
0.0038520095
-0.0004353622
0.0025702102
0.0027400853
-0.0003348101
0.0060403624
-0.0001476926
-0.0032680394
-0.0068012180
-0.0020065647
-0.0003851156
-0.0012561181
0.0027594048
-0.0030151397
0.0014668901
0.0083357069
0.0001347804
-0.0047076555
0.0035077482
-0.0043875347
0.0045877458
-0.0037517080
-0.0026746306
0.0022583684
0.0046573792
-0.0025188257
0.0044487971
0.0020205008
-0.0009579530
0.0108895009
-0.0031078453
0.0028138923
0.0018418993
-0.0066618441
-0.0057168066
-0.0048136698
0.0012575604
0.0039007904
0.0030698034
-0.0001491999
0.0002419637
-0.0007838336
0.0006510717
-0.0010343882
0.0035021806
-0.0034749775
0.0010879333
0.0008101142
0.0021063887
0.0018536004
-0.0011916613
0.0007465845
0.0005652896
-0.0027139559
-0.0036261923
-0.0037918399
0.0025042159
0.0025178624
0.0007011770
0.0038226453
-0.0033285063
-0.0071246119
0.0000363195
-0.0001233032
0.0182576969
-0.0122484473
0.0084078920
0.0031142861
0.0017887408
0.0170222062
-0.0085146790
0.0046492340
0.0056654978
-0.0187494547
-0.0184370532
-0.0141184888
0.0114282064
0.0085087131
0.0080193092
0.0115694236
-0.0095421981
-0.0005208795
-0.0054527004
-0.0020899168
0.0004951718
-0.0077905094
0.0024314732
0.0052010506
0.0080051935
0.0078672927
0.0003481907
0.0027257786
-0.0035951901
0.0027252934
-0.0026552939
-0.0120167529
-0.0012145583
0.0080835841
-0.0037321801
0.0038082097
-0.0041142086
-0.0014697950
-0.0086190795
-0.0009934194
-0.0016868187
-0.0077385124
0.0029229822
0.0070373490
0.0085979460
0.0120685839
0.0009574037
0.0035287551
-0.0050408514
0.0044689697
-0.0015736025
-0.0143040168
-0.0042050968
0.0103446038
-0.0051288817
0.0010684384
-0.0018696633
0.0036982793
-0.0019391496
-0.0051314536
-0.0039827767
-0.0063667355
-0.0031776783
0.0033722254
0.0111234157
-0.0053248695
0.0038800237
0.0000704470
-0.0059574894
0.0113863271
0.0032684390
-0.0081708205
-0.0022452958
0.0043480805
-0.0073384311
0.0057537569
-0.0060379297
0.0014019783
-0.0029066921
-0.0070693711
0.0029930543
-0.0151697457
-0.0001781923
0.0063522211
0.0162067611
0.0016836842
0.0009012582
0.0024614253
-0.0049590070
0.0052878547
-0.0048851145
-0.0186890194
0.0025942641
0.0108287942
-0.0065772706
0.0136907221
-0.0132552165
0.0047095892
0.0121000261
-0.0064007126
0.0050101723
-0.0023354183
-0.0059165048
-0.0051975010
0.0029835248
-0.0201390340
0.0004612026
-0.0034323111
0.0022763574
-0.0004944744
-0.0012985370
0.0051899354
0.0093565327
-0.0067343355
0.0009398143
0.0121619383
-0.0104620733
0.0090824895
0.0080503473
-0.0079933764
-0.0073136338
0.0001847826
-0.0101418337
-0.0035837857
0.0078552456
-0.0258615516
0.0069417338
-0.0047469643
-0.0044230186
0.0150911087
0.0096208928
0.0060312590
0.0003688283
-0.0066444097
-0.0076384247
0.0074092186
-0.0070099857
0.0055925850
0.0140238362
-0.0015780858
-0.0013398117
0.0105327297
-0.0076776946
-0.0101041836
-0.0077812773
-0.0249659168
0.0017148203
-0.0063400113
0.0044916149
0.0006510292
0.0062087797
0.0203816710
0.0048196870
-0.0152793234
0.0031032302
0.0007703391
0.0002324902
0.0031219121
0.0031172297
-0.0005021424
-0.0050197256
0.0051896207
-0.0038921085
-0.0028173880
-0.0019518977
-0.0102016944
0.0030959173
-0.0024426290
-0.0003193671
0.0052690967
0.0065510391
0.0079799262
-0.0017215176
-0.0055490325
-0.0014502761
-0.0023476184
0.0022839241
0.0020498810
0.0031465474
0.0057183667
-0.0099074964
0.0170163407
-0.0033680993
-0.0064016552
-0.0133081707
-0.0090030957
0.0030026982
-0.0038677176
0.0018047247
0.0043196346
0.0121999181
0.0210641771
-0.0061949110
-0.0119903826
0.0018619749
-0.0153080459
0.0143844627
-0.0018077389
-0.0006043201
0.0036568926
0.0002157368
0.0045042144
0.0017443537
-0.0010361763
-0.0060211951
0.0039933277
-0.0012909367
0.0000508029
0.0021426591
-0.0036516173
0.0001555970
0.0044078957
-0.0010187110
-0.0018817554
0.0030616569
-0.0053982575
0.0053433308
0.0010315503
0.0044763255
0.0042416164
-0.0035443746
0.0123248825
-0.0018692802
-0.0059589662
-0.0114226879
-0.0071925881
0.0004176948
-0.0031114102
0.0036350289
-0.0013727445
0.0059311171
0.0164616980
-0.0011840981
-0.0099641949
0.0039006742
-0.0091682973
0.0089418063
-0.0024887406
0.0011949029
0.0037015396
0.0027315162
0.0044481448
0.0022840479
-0.0021562505
-0.0072147299
0.0037208365
-0.0024593165
-0.0001093265
0.0039018696
-0.0069919530
-0.0021592928
0.0053285162
0.0016257368
-0.0025457637
0.0050521957
-0.0040531925
0.0041928817
-0.0012941719
-0.0035597144
0.0046297514
-0.0048124967
0.0065970678
0.0014439857
0.0000626235
-0.0059576441
0.0051721407
0.0007624653
0.0004520468
0.0002686430
0.0007669637
0.0039320246
0.0050386712
-0.0052385385
-0.0014466427
0.0006499667
-0.0098540378
0.0088341586
0.0022992119
-0.0013069701
-0.0024854548
-0.0026126339
-0.0026815358
-0.0016710199
0.0017154289
0.0052219382
-0.0023692997
0.0022987118
-0.0000052078
-0.0031287617
0.0058712305
0.0022515361
-0.0035159267
-0.0015506111
0.0020058459
-0.0040438182
0.0021388639
-0.0021744326
-0.0018631082
0.0012478155
0.0033801154
0.0014008733
0.0048558211
0.0017873723
-0.0020600472
-0.0066914985
0.0027975155
-0.0017859363
-0.0001949822
0.0031931697
-0.0052094004
-0.0006846119
0.0058440331
0.0004488514
-0.0029941802
0.0040018653
-0.0044168827
0.0045475596
0.0022692866
0.0034130080
-0.0052919919
0.0031912477
-0.0069961383
-0.0021203863
0.0005097199
0.0076592903
-0.0066498863
0.0003969788
-0.0003822785
-0.0013807156
0.0018947943
-0.0024703146
-0.0056340492
0.0041865581
0.0017881439
-0.0022402040
0.0099978784
-0.0092237583
0.0003543163
-0.0054345089
-0.0014911705
-0.0033583328
-0.0048469535
0.0004242344
0.0046432263
0.0073133551
0.0047762401
0.0020166533
0.0023293130
-0.0046307121
0.0065353467
0.0014430473
-0.0090215729
-0.0036700252
0.0062256800
-0.0050468169
0.0007066235
-0.0013583090
-0.0020659722
-0.0014970336
0.0009534269
0.0029916961
-0.0018481592
0.0026379146
0.0012136084
-0.0004631865
0.0060072105
-0.0018609129
0.0012550062
0.0010556981
-0.0038376360
-0.0034179149
-0.0030294069
0.0010216336
0.0027113490
0.0016592064
0.0005727429
-0.0002931258
0.0014243127
-0.0041399950
-0.0036775258
-0.0023403660
-0.0073017200
-0.0004072070
0.0045964617
0.0100983152
0.0015507883
0.0022999890
0.0015812194
-0.0049541853
0.0073184444
0.0006266525
-0.0107433314
-0.0021632139
0.0066182540
-0.0060793075
0.0048058668
-0.0047705213
0.0005905596
-0.0032692485
-0.0002547419
-0.0034552969
-0.0009496403
-0.0000528656
0.0021624308
0.0029083664
0.0021066956
0.0016388818
0.0005610544
-0.0027191764
0.0046628707
0.0027754451
-0.0030954233
-0.0032354443
0.0025111948
-0.0030887844
-0.0011649627
0.0009666151
-0.0019231190
-0.0050208105
0.0041276797
-0.0029444461
0.0030558543
0.0024585134
0.0016567186
-0.0029926472
0.0084736285
0.0003390970
0.0013226832
-0.0004997762
0.0002735690
0.0014426272
0.0004793832
-0.0043789421
0.0016142795
0.0001456766
-0.0071969076
0.0064741339
-0.0022455872
-0.0065516825
0.0025048972
-0.0023696848
-0.0002802056
0.0029472258
0.0035759754
0.0004027326
0.0105651943
0.0001040885
0.0022739999
-0.0018043228
0.0010568158
0.0002592821
-0.0046993288
-0.0044913237
0.0050246065
-0.0014132569
-0.0047831479
0.0040067145
0.0011906013
0.0018940684
-0.0009173438
-0.0003298671
0.0005950459
-0.0013491240
-0.0011235527
0.0002499994
-0.0042263460
0.0005785777
-0.0008607061
0.0000965147
0.0011833528
0.0009912918
0.0017607801
0.0008211218
-0.0016640208
-0.0003570671
0.0013880779
-0.0009845634
0.0013064573
-0.0001681676
0.0004774595
-0.0037172748
0.0029469888
-0.0011722531
-0.0007548551
-0.0010766602
-0.0027875343
0.0016088042
-0.0006409390
-0.0009621277
0.0033803761
0.0037265743
0.0033378344
-0.0024486329
-0.0018140894
-0.0013407947
-0.0031061558
0.0028473238
-0.0017939710
-0.0074514878
0.0073325353
-0.0102333775
0.0106642944
0.0021446217
0.0010278212
-0.0079689095
0.0091855249
0.0022833699
0.0004723397
-0.0011871705
0.0043854196
0.0082306947
0.0070206046
-0.0102910110
-0.0008949476
-0.0006734137
-0.0172204547
0.0153960489
-0.0018478369
0.0040370813
-0.0019391802
0.0103611124
-0.0061721763
0.0020567232
-0.0005788912
0.0015936313
0.0012885807
-0.0040425805
0.0007995388
0.0035305387
-0.0092545242
-0.0089917274
-0.0045087675
0.0083621920
0.0014279243
0.0043018414
0.0094457303
-0.0076157222
-0.0012763540
0.0056314815
0.0043202960
0.0025198957
0.0092580923
0.0002801658
-0.0056983906
-0.0120561433
-0.0035545832
-0.0024188449
-0.0021845300
0.0060764094
-0.0077298948
0.0000478718
0.0138624016
0.0029112635
-0.0085667074
0.0072450941
-0.0053683778
0.0059848270
0.0023709982
-0.0002705351
-0.0036984601
-0.0015095959
-0.0042398387
-0.0019818640
0.0017290411
0.0068810909
-0.0036580146
0.0019769217
0.0000520966
-0.0031263251
0.0055755723
0.0012034266
-0.0051103939
-0.0002229732
0.0026408547
-0.0041825436
0.0046930444
-0.0046481851
-0.0006420444
-0.0057609969
0.0022455857
-0.0050012572
0.0009501915
0.0012982693
0.0029677352
0.0008606394
0.0064207481
0.0016777165
0.0012376103
-0.0028606466
0.0045764141
0.0032164675
-0.0027200951
-0.0057541815
0.0031429701
-0.0024877918
-0.0052259472
0.0046957348
0.0024931163
0.0015026599
-0.0021587030
-0.0026989435
0.0001120065
-0.0023835134
-0.0005638396
0.0025888015
-0.0065652224
0.0021525102
-0.0011080117
-0.0016631301
0.0049108750
0.0030691833
0.0009953592
-0.0006153907
-0.0013419358
-0.0026955113
0.0015671694
-0.0016452586
-0.0009047816
0.0039450462
0.0018525456
0.0030587317
0.0041018581
0.0002842502
-0.0032782000
-0.0060723520
-0.0020096311
-0.0018886495
-0.0008238366
0.0038783461
-0.0058631578
-0.0013808785
0.0067415849
0.0028149671
-0.0043803468
0.0044996934
-0.0013567026
0.0019420156
0.0014224574
-0.0037590184
0.0025681953
-0.0094250390
0.0069169182
-0.0014901145
0.0003077933
-0.0026626141
-0.0006640198
0.0036979017
-0.0008105199
-0.0027881346
0.0081323687
0.0087925598
0.0054284061
-0.0076015613
-0.0019811004
-0.0032764370
-0.0097092912
0.0084015545
0.0042385078
0.0069789471
-0.0055875644
0.0015371770
-0.0031657141
-0.0046953304
-0.0024764639
0.0050447456
-0.0145421384
0.0015581665
-0.0023996855
-0.0003194919
0.0031430405
0.0009352343
0.0009349023
0.0049431481
-0.0030922096
-0.0018734169
0.0092603969
-0.0082853041
0.0021134285
0.0014993740
0.0004103502
-0.0045940109
0.0053936493
-0.0027138077
-0.0022135362
-0.0023599623
-0.0065921992
0.0022300722
-0.0019269143
-0.0005662281
0.0043129892
0.0054705599
0.0067554373
-0.0024769556
-0.0043790558
-0.0010196913
-0.0038440604
0.0035563422
0.0022900197
-0.0067775149
-0.0037470827
-0.0051480126
-0.0074917114
-0.0003535169
0.0061187313
0.0117658057
0.0027750460
0.0037795706
0.0018353940
-0.0072147390
0.0111817673
0.0027469824
-0.0124527298
-0.0049830352
0.0080987619
-0.0084318132
0.0029995713
-0.0039224699
0.0017167554
-0.0030250795
-0.0005234208
-0.0050714753
0.0003556253
-0.0011977870
0.0019343649
0.0028005258
-0.0003114837
0.0026456696
0.0000381257
-0.0030190651
0.0067023375
0.0042775601
-0.0014411624
-0.0041504085
0.0014247214
-0.0039337973
-0.0022695916
0.0016120655
-0.0008753936
-0.0036397210
0.0031541395
-0.0036320500
0.0036383122
0.0012309426
0.0008171799
-0.0029704665
0.0049961714
0.0007448023
0.0005125115
-0.0005658870
0.0015031923
0.0027218794
0.0017576408
-0.0038899775
0.0003287098
-0.0003558970
-0.0068051729
0.0060027041
-0.0002281883
0.0020608696
0.0020312130
0.0004667690
0.0043624200
0.0000500540
-0.0025289591
-0.0048040467
-0.0012410532
-0.0008436100
-0.0009864382
0.0026702258
-0.0029812451
0.0004462301
0.0064001244
0.0007373425
-0.0035925182
0.0029980595
-0.0029663822
0.0032687529
0.0006083918
0.0041574165
-0.0041121152
0.0063422076
-0.0065472864
-0.0005210337
-0.0001819545
0.0050015004
-0.0041068381
-0.0015494677
-0.0000549687
0.0016377940
-0.0031293885
-0.0053617169
-0.0044376345
0.0062343328
0.0012034441
0.0010299011
0.0099295854
-0.0084555904
-0.0005690784
-0.0038663061
-0.0009877189
-0.0006758225
-0.0042535718
0.0013364729
0.0035333566
0.0050900246
0.0054212673
0.0005415056
0.0020165405
-0.0025992268
0.0024555271
-0.0007839439
-0.0076005858
-0.0015382647
0.0052365864
-0.0028282709
0.0013572529
-0.0014376791
-0.0000031796
-0.0000619826
0.0000615155
0.0002394833
-0.0000151582
0.0001329059
-0.0000592436
0.0000091630
0.0000581497
0.0000069755
-0.0000313501
0.0001053064
0.0000976069
-0.0000539229
-0.0000182447
-0.0000098348
-0.0000369535
-0.0000493447
0.0000112967
0.0002339713
0.0007545231,-0.0009799622,-0.0001765688,-0.0006194957,0.0185628188,-0.0187674975,-0.0509366654,0.0059756357,-0.0194758496,-0.0007546692,0.0029805784,0.0349519057,-0.0363442691,-0.0457045344,-0.0094460971,-0.0196687630,0.0399657786,0.0392596394,0.0071527447,-0.0221324239,0.0186428288,0.0336599777,-0.0134763057,-0.0027371279,0.0380715164,-0.0140250140,-0.0494291607,0.0484499142,-0.0503479473,0.0514368261,0.0159919232,0.0215811799,-0.0081729571,0.0137305371,-0.0140024931,0.0042459228,-0.0337854174,-0.0098931912,0.0125546457,0.0483311832,0.0440507037,-0.0238667327,0.0185082762,0.0494486710,0.0055155775,-0.0538681098,0.0493835868,0.0308296522,-0.0409665811,-0.0259461804,-0.0206700169,0.0425667311,-0.0303689868,-0.0078750191,-0.0365494650,-0.0156757847,0.0201754015,-0.0180645816,-0.0335971170,-0.0587210506,0.0105233033,0.0294623675,0.0542816568,
