200,1,15,8,0.100000,0.100000,1024,Hamming,50,20
-0.6139002196
0.6096717514
-0.2724081002
0.1427151057
0.0884903901
-0.2798929594
-0.3668193511
0.4007195475
0.0817965995
0.7126428058
-1.1308104570
3.3301129614
0.1125660537
0.3455223929
0.2421055087
0.0142876126
0.0193204029
-0.0169340230
-0.0162307267
-0.0247292513
-0.0175360594
0.0268222768
0.0270892604
0.0038798563
0.0033377906
-0.0799046428
-0.0641349485
0.0201869907
0.0406326075
-0.0246119513
0.0216277057
0.0108665166
-0.0089549822
-0.0204748978
-0.0263803746
-0.0171375218
0.0304474783
0.0228404110
-0.0032721960
-0.0011746720
-0.0748160552
-0.0613120148
0.0256677334
0.0394725732
-0.0222839900
0.0314841229
0.0016840395
0.0019740159
-0.0216526270
-0.0321759037
-0.0171344789
0.0426364853
0.0212138847
-0.0082151764
-0.0018635138
-0.0778274931
-0.0616931192
0.0285794175
0.0320803817
-0.0307591849
0.0335974627
0.0009006134
0.0064403269
-0.0246252392
-0.0320905801
-0.0173403956
0.0394092329
0.0178008120
-0.0076631203
-0.0017837600
-0.0757440560
-0.0608231347
0.0278550916
0.0346106674
-0.0325158346
0.0324233194
0.0030904716
0.0034951231
-0.0214230782
-0.0304206217
-0.0158117244
0.0374504668
0.0175899686
-0.0081376335
0.0031349439
-0.0745171698
-0.0607938526
0.0288277806
0.0303109798
-0.0302023067
0.0326480790
0.0024128694
0.0029642906
-0.0257495592
-0.0325249800
-0.0172806047
0.0400910260
0.0179632054
-0.0095226804
-0.0027535743
-0.0718837050
-0.0623292577
0.0339015617
0.0334946493
-0.0335526556
0.0326658319
0.0012778452
0.0035311669
-0.0263578448
-0.0323640146
-0.0162287147
0.0401812734
0.0191417537
-0.0090772552
0.0006790348
-0.0750595352
-0.0607172294
0.0293990760
0.0327088514
-0.0276332541
0.0324483471
-0.0000364521
0.0057124889
-0.0273577335
-0.0324607826
-0.0167868506
0.0494011505
0.0200309085
-0.0089085509
0.0055232441
-0.0761909323
-0.0620114419
0.0269345856
0.0335761061
-0.0331528799
0.0314798964
-0.0002521639
0.0030316079
-0.0268873516
-0.0263151151
-0.0171239309
0.0419896096
0.0218961669
-0.0078038482
0.0018390237
-0.0774280537
-0.0603740670
0.0276732782
0.0317323167
-0.0295873303
0.0343033774
0.0022905639
0.0016310732
-0.0250498288
-0.0286853357
-0.0181186359
0.0414945915
0.0195498979
-0.0089233005
-0.0005000171
-0.0768022498
-0.0568624234
0.0290386506
0.0331392507
-0.0312203848
0.0433081726
0.0035767862
0.0028002831
-0.0199924055
-0.0255689200
-0.0245957880
0.0387483409
0.0233453800
-0.0089404145
0.0080246331
-0.0841220692
-0.0704351392
0.0286705472
0.0297997950
-0.0292399489
0.0392308105
0.0097455909
-0.0034053250
-0.0124634370
-0.0144455089
-0.0318230559
0.0394939338
0.0191638456
-0.0045313565
0.0082338713
-0.0915499739
-0.0709051693
0.0203469768
0.0250851913
-0.0157045858
-0.0188565273
0.0240448697
-0.0308228794
0.0291782396
0.0693957910
-0.0479643270
-0.0450045246
0.0041076991
0.0148468512
0.0298003417
-0.0402155574
-0.0100780513
-0.0218682274
0.0006457878
0.0310454008
-0.0803998401
0.0382968662
-0.0389595755
0.0866210477
0.1729431673
-0.0611593056
-0.1589892647
-0.0348230326
0.0242753464
0.0644550475
0.0486667184
0.0917218588
-0.0643348975
-0.0521808945
0.1083205254
-0.2073768164
0.0094551501
-0.1094072409
0.0480554512
0.0556894544
0.0122380746
-0.0381015598
-0.0460403882
0.0695162131
-0.1215433070
0.1468441010
0.1490658109
-0.1135638565
0.0586030333
-0.0129337774
-0.3235979882
0.0080662520
-0.1076693514
0.2487612413
0.3933774655
-0.0016719458
-0.4199868430
-0.1962562062
0.0772978904
-0.0794893775
0.4935954373
0.5419828898
-0.2625751727
-0.1445556093
0.2128092490
-0.6570122466
0.4309529110
-0.4936042784
0.6388724428
1.6038509669
-0.9184462197
-1.1026197071
-0.1736861021
0.2973924917
0.6157420838
0.1432370162
-0.1720612511
-0.5464366731
-0.1935888061
0.7609394500
-0.0212772283
0.4734493997
-0.2384443220
0.6587780470
1.8116666221
-1.1818685091
-1.2127552135
-0.1029970233
0.1160685376
1.1730962275
-0.4004096930
-0.7106266380
-0.3017660190
-0.5151124848
1.0327077452
0.1825410165
0.0780607180
0.0026062970
0.1143434426
0.3696389362
-0.3174672885
-0.1057721264
-0.0215374466
-0.0158815491
0.3275655411
-0.2297246299
-0.3428669687
-0.0104474564
-0.1241075426
0.2116442330
0.0038510918
0.0464209575
0.0153549043
0.0663893247
0.2474474075
-0.1895558430
-0.1113304944
-0.0064997377
-0.0264496836
0.2230095679
-0.2069219539
-0.1546911395
0.0218605750
-0.0814830542
0.1335991928
0.0823407170
0.0272764668
0.0606830425
0.0191963183
0.0434760936
-0.0507353339
-0.0542965727
0.0246661652
-0.0543505097
0.1256475214
-0.1705501708
-0.0515419370
0.0718922202
-0.0675431936
0.0708793423
-0.1285483836
0.0955956732
-0.1224298257
0.0266388917
0.0901189744
-0.1186879400
-0.0123871591
0.0492176923
0.0608631968
0.0528056579
-0.1348205327
-0.0850909733
-0.0305862878
0.0990424845
0.0150854892
-0.3512889620
0.1131056500
-0.2201527292
0.0749269126
0.1845239736
-0.1179772271
-0.0879399469
0.0227245514
0.1250626095
0.0122299892
-0.0190494804
0.0191749381
-0.1368682648
0.1371033292
0.0402957070
-0.1122154466
0.0736747809
-0.1029091270
0.0572398605
0.0921065271
-0.0507993220
-0.0606397483
0.0121269024
0.0585055412
0.0059369232
-0.0810980549
-0.0185854044
-0.0579069163
0.0493006862
0.0428764420
0.0243906918
0.0800782340
-0.0651634734
0.0585800925
0.1147855731
-0.0958787178
-0.0713977978
0.0260624687
0.0283940193
0.0621162936
-0.1439283834
-0.0937039600
-0.0251228818
0.0117223017
0.0665948573
-0.0479885383
0.0994626078
-0.0605553051
0.1707797633
0.3095298197
-0.0982567428
-0.3135299029
-0.0293659421
0.0330379018
0.1628915192
0.0209501260
0.0954922242
-0.0905785096
-0.1255821410
0.2325027792
0.0194162532
0.0380521397
0.0359351173
0.1784334149
0.3165056701
-0.0548987054
-0.3457656760
-0.0818191971
-0.0139892191
0.1806952539
0.0926475462
0.1958319945
-0.0670364945
-0.2346517183
0.2632230307
0.0379753815
-0.0134445502
0.0472316439
0.0846664369
0.1148519904
0.0075362026
-0.1193833945
-0.0641022029
-0.0269897644
0.0469250667
0.0438760963
0.1017376680
-0.0222094857
-0.1434551792
0.1139882431
-0.6110698011
-0.0504755218
-0.4177584162
-0.0987367572
-0.3527716978
0.2866923046
0.4018011068
-0.0362557837
0.2766479676
-0.6990202654
0.4034631873
0.1172695476
-0.3105238768
0.4982084628
-0.4050495786
-0.1115613693
-0.0727757901
-0.3509902818
-0.3184723426
-0.8202677004
0.3425636754
0.8699455302
0.1064999417
0.2098246362
-0.8964660676
-0.0555957751
-0.3199058405
-0.1111377487
0.6969966531
-0.6969136733
0.1286051547
-0.1986070267
-0.1918820061
-0.3881114847
-0.9985082995
0.5350416685
0.9958922139
0.0542273375
0.1345465064
-1.0006688465
0.0587541232
-0.1115346952
-0.0476936644
0.6379340747
-0.7773908997
0.6574403706
-0.3691568191
0.3256996629
-0.2385600997
-0.8458680929
0.6391378783
0.7137349215
-0.1252133346
-0.1666606347
-0.7841844977
0.2409143281
0.2341992492
0.1295695969
0.0351311431
-0.4706480807
0.3539621536
-0.2484117671
0.1141299917
-0.2309252402
-0.5895629627
0.4113221575
0.6399540538
-0.0580197969
-0.0381314912
-0.6000485146
0.2483546864
-0.0983581642
0.0318109171
0.1862064925
-0.4242501541
0.5103980695
-0.2321436387
0.2219669755
-0.1993135481
-0.4551639015
0.3590984958
0.3664699587
-0.0337764582
-0.1146473395
-0.3484118401
0.0980946676
0.0126007597
0.1333147602
0.0242243007
-0.2473889131
0.4413112060
-0.0528295703
0.0970273428
-0.1392553660
-0.2004546146
-0.1625044670
0.4763249191
0.0694192740
-0.0984509161
-0.0096431604
-0.5751378457
-0.6117295014
0.1907574117
0.0891945032
-0.1319695912
0.7215065868
-0.1027259659
0.3725470567
0.0736940226
0.0424703663
-0.1495128045
0.4356382826
-0.0949767511
-0.2615472920
0.3800720368
-0.5632746493
-0.8314949404
0.1971759203
-0.4271363187
0.2375972971
0.4097814381
-0.1504640465
-0.1359100006
-0.0389729489
-0.3115049312
0.2083845344
0.9789802942
-0.1559163200
0.1292154086
-0.2856295145
-0.0266590766
-1.0408041533
-0.2310063738
0.1973447169
-0.2056019279
0.4984309785
-0.2888282833
-0.0658367697
-0.2323767970
-0.5592744095
0.5561954686
0.6683663073
-0.1245698463
0.1222765828
-0.6236145727
0.0989559642
-0.7679224056
-0.1540819914
0.3670932888
-0.4810617900
0.1762261014
0.1559468898
0.0368241286
0.1073915151
0.9287404745
-1.1245936528
0.0057054412
0.0260159280
-0.1132795038
0.9574362100
-1.7177108264
-1.3084020230
0.1769725674
-0.2354807924
0.3596939446
-0.1396933500
0.1006540977
-0.0308759700
0.0633219647
0.3817338680
-0.4587155367
0.0618610747
0.0330166523
-0.0182215310
0.3755821779
-0.9827617161
-0.5558102169
0.0483539764
-0.0499911712
0.1388785762
0.0508490965
-0.2973049001
0.5109311159
0.1049945571
-0.0159657458
0.4360767213
-0.0008030010
-0.2652991317
-0.2363114347
0.0257425976
-0.1842753710
0.6135081921
0.0669200487
-0.5961337640
0.1996408500
0.1729011076
-0.2911851547
0.4123832356
-0.0413672477
-0.3245829853
0.4542636985
0.4680119444
-0.1800511098
-0.1931596244
-0.1985089607
0.0233842259
0.0943763798
0.1016171375
-0.3730038472
-0.0249212376
0.7209396533
0.2560924759
0.1461604927
0.0178111687
0.1985369254
-0.6570366645
0.4118500563
0.2272329648
-0.1753201958
0.6751310110
-1.1256166118
-1.3991115190
0.3447124296
-0.1332021890
0.2060892655
-0.4740840897
0.1179606417
-0.3489793564
-0.0768884236
-0.1809015137
-0.1610156401
0.8046195602
0.0953006441
0.2022448473
-0.2498294483
-0.0636847180
-0.6310473415
-0.1437388520
0.3829795447
-0.2464601853
-1.4982501144
0.2164381868
-0.9097888811
0.0303056522
0.0927793952
0.0177324503
0.1837325550
0.0261542348
0.5851758797
-0.5891692374
0.5251367146
0.3637902146
-0.6237771941
0.7968476585
-0.3170752103
-0.7729426165
-0.0452038260
-0.4590489227
-0.0996682733
-0.3379807817
0.4566544211
0.2628869292
-0.0453743121
0.3357648912
-0.7428000672
0.6938845446
0.6015073816
-0.3836196223
0.5104376999
-0.3973535474
0.3506106470
-0.4243614498
0.2670895856
-0.2738300097
-1.0211551596
1.1356860550
0.4725778904
-0.1430707852
-0.0609936466
-0.9925645866
0.9130491647
1.1027153823
-0.0016438546
0.0080402878
-0.4946252934
0.8687938035
-0.5223532489
0.4789881944
-0.4621655383
-1.6584748390
1.4682396362
0.9177187174
-0.0607078292
-0.1917116761
-1.4008840329
0.7876631061
1.0541844247
0.2221153652
0.0460483610
-0.7603426205
0.6572064613
-0.4351074259
0.4039099030
-0.3633071177
-1.4178565055
1.3449772580
0.7140359786
-0.0653743893
-0.1521963997
-1.2018909096
0.8702960268
1.0241229674
0.1605576105
0.0312615379
-0.6230977306
0.2612082967
0.1346715393
-0.0111341358
0.1531392182
-0.1803731336
0.5148691415
-0.3567515856
0.0426515149
0.0273234521
-0.2140592599
0.3388849507
0.4898013475
-0.0429026104
-0.0914456376
0.1567355774
0.6649277698
-0.1413771661
0.2239470562
0.1112422063
-1.0866133042
1.7316113425
-0.4830391178
-0.0944609998
-0.0245609291
-1.0290668099
1.3578475503
1.8984244560
-0.0820003727
-0.2309966482
0.0240873082
-0.4143037544
0.6810584534
-0.9366307616
0.3188169441
-0.4716046206
0.7507436696
-0.6676546337
0.3429760286
0.5620034793
-0.6755077106
0.6158643641
0.1062573781
-0.4549150278
0.6995061733
0.1177433432
-0.6303550791
0.2345558869
-0.8338421227
-0.2697167543
-1.3057361130
1.0294949892
0.7264705922
0.2969820281
0.5210885760
-1.1818415782
0.7155607623
0.0238589809
-0.3436420506
1.1280266786
-0.7779641191
0.0353220309
-0.0641786662
0.0139628656
0.1712574394
-0.5845132024
1.4510807562
-0.6580675371
-0.1333081657
0.0493020359
-0.4807156985
1.2898920051
1.6651241047
-0.2311499371
-0.1557871455
0.0976284246
0.3094438028
-0.0082358607
0.1719840715
0.0158214932
0.6049554325
-0.3403691255
0.4408067450
-0.0244661916
-0.1300612909
0.3746803954
-0.1834614220
-1.3767560703
0.1398542594
-0.1269838622
0.1505438717
0.3770019094
-0.4174284332
0.3200713813
-0.3508993517
-0.3175741678
0.1578897963
1.1403813896
-0.1207677500
-0.1420992105
-0.4152322532
0.3527623281
-2.4108806496
0.1702217514
0.1400866689
-0.4484395971
0.5752943739
-0.2051118606
0.5132224156
0.0195800983
0.4714425191
-0.3458320796
-0.0783004545
-0.1537221608
-0.3085438491
0.5053006064
-0.0293888240
-2.0313535755
0.2552198424
-0.3867045838
0.2260302146
0.6642345744
-0.3463626083
0.2880173673
-0.2073988580
-0.5753274309
0.2356266991
0.1930277175
-0.1356642699
-0.0886235740
-0.1650240951
0.4097374972
0.2963309792
0.0611939047
-0.1174093390
-0.2799036232
-0.4483279754
0.0273080102
-0.4023680089
-0.0744319711
-0.1433405476
-0.2700108113
0.0905108559
-0.0000129584
0.2744095187
-0.2217134028
0.1128893233
-0.4312913752
-0.2694255470
0.3363202093
-0.2601203177
0.1928600349
-0.0487200536
-0.0225142733
0.1188010567
-0.0958898493
0.1816883013
-0.4304131750
-0.1101037716
0.0997209128
-0.1670258578
0.6062309282
-0.7917284635
-0.2359207934
-0.0726585089
0.0406791867
0.5610390021
-0.1881636314
0.3673278428
0.0273762271
0.0713830431
-0.1869936854
0.0523943624
-0.1382200595
-0.2200998531
0.2703244235
-0.1154677011
-2.0147838466
0.1628328904
-0.4674697037
0.1797842154
0.3604362022
-0.4497091835
0.3032318032
-0.3614438782
-0.7257346021
0.2678962362
0.8859583022
-0.1556244392
-0.1584308291
-0.5230869847
0.1989729113
-1.2517425021
0.1756184341
-0.1449361444
-0.4730137724
0.2134497711
-0.0466848156
-0.1547252306
0.2115853502
0.3323547623
0.0450591175
-0.6277762735
-0.2247339395
0.1129698806
-0.0494895586
1.0142928655
-1.5693477821
-0.2865806856
-0.3311432000
0.2959484702
0.8776820399
-0.0470505158
0.2370285726
-0.2052094780
-0.2373012984
-0.1808509979
0.5779820270
0.1311241819
-0.1160454273
-0.3539020754
-0.3412098752
-0.6082700499
0.2789371978
-0.1036812919
-0.2299817036
-0.5707668711
-0.4049343580
0.3391964040
0.0978245295
0.4423109673
0.3628819172
-0.4219254890
-0.3941180447
-0.1269088176
-0.6437815851
0.6577547107
-1.6076559579
-0.1090826623
-0.6291424476
0.1866912358
0.0051909342
-0.2042542367
-0.1526773643
-0.2344090030
-0.2858774162
-0.1475673060
0.6431253014
0.0139514499
0.1188329860
-0.8893163330
-0.6646557892
0.2938896170
-0.0369834151
0.3588089440
-0.4300306645
0.1434806520
-0.4604834386
0.5810099620
0.0662040801
0.4531446360
-0.0737586513
-0.1831027643
-0.3698724512
-0.2164779691
-0.0866377895
-2.3727215620
-0.8231443307
0.0261836394
-0.7697739351
0.2069429642
-0.3142870987
-0.1346540271
-0.0410963791
-0.0100949625
0.0219685290
-0.0534480066
0.0099164323
-0.0368322723
0.1707952052
-0.3833314130
-0.4027211735
-0.1296737718
-0.2203591883
0.0472536848
-0.2230422317
1.2852391187
-0.0512488529
0.3455999899
0.1744662712
0.4732714485
-0.1394249479
-0.5354191435
-0.0341118553
-0.1610359852
0.2823215617
0.5796527807
0.6386331186
0.1469817977
-0.5454765676
0.3456997845
0.1773725433
-0.2732599752
-0.0413430508
-0.2456472935
-0.2573305926
0.3249215201
0.7557374638
-0.0566640307
0.0603928070
-0.6833771190
0.8369895882
-1.0419286769
-0.0243115846
0.1739805438
-0.4262484251
0.9925170164
0.4026935389
-0.1972479137
0.1264862468
0.8154802466
-1.1143520232
0.0036719584
0.2451947152
-0.0324180376
0.8532346161
-0.7744257338
-2.3688491562
0.2131602861
-0.0312695117
0.3602660417
0.1897400963
-0.2144413181
-0.1074865399
-0.2264097681
-0.3604395741
0.7605227009
0.3600770908
-0.0429685726
0.0872777583
-0.7443935267
0.5588834349
0.8361460190
-0.1113325801
0.2324325859
-0.4466000010
-0.6602957748
0.0996340716
-0.2601399400
0.1926904911
0.8900457868
-0.0632033576
-0.4163317980
-0.0654207493
0.1577573757
-0.0030029864
0.0069467571
-0.0958483349
-0.2640891142
-0.0484821843
0.2049097344
0.0815375662
0.0818832719
0.2895427795
0.1196335730
0.6494304406
-0.4605055154
-0.0826662246
0.0275426656
-0.1762261803
0.4148961545
-0.7399982959
-1.5767232145
0.1711990834
-0.5174918446
0.3174019749
0.2632487234
-0.0607325695
0.4620323022
0.0658564445
-0.4480720984
0.5551871686
-0.3402276998
0.0107225165
-0.2362177371
-0.1004664322
0.3013630109
-0.6647329249
0.2002467213
-0.5098874430
0.1492556888
-1.6831853108
-0.1293696481
-0.3676930798
-0.2688869051
-0.6500867281
0.5887878369
0.7360594927
0.0397549637
0.3125344714
-0.8268401633
1.5948364781
-1.0650168265
-0.3179132305
0.8092405182
-0.5941804638
0.7048702403
0.0732770858
0.3406199328
-0.3601306059
-0.5545700007
-0.1844484096
0.6575916786
0.4090168449
-0.2431490013
0.6004707475
0.0099606441
-1.6949244299
0.5592479342
0.3460383223
-0.2219347128
-1.3560455986
0.0030149118
-0.2458714122
0.3926002832
0.2810044380
0.7173111427
-1.2861568860
-0.2380259609
0.2382712123
-0.1247960222
1.7257970010
-0.2505500707
-0.5124724057
-0.1519819839
0.4531417574
0.7869410796
-0.0326764790
0.8089232372
0.1456565905
0.2820779693
-0.1301064248
-0.5162895800
0.0184806726
-0.5099269378
0.6490991295
-0.5186086602
-0.9041966484
0.5185098999
-1.0346254226
0.5615292427
0.4575829505
-0.3463219973
1.1528868519
-0.0495741414
-0.3428549047
0.4844224466
0.0832389524
-0.0984697542
-0.6116704995
0.0177491435
0.2046293521
-0.8354938287
0.5307664104
-1.1535624491
0.1782311860
-2.8510560446
0.3659606848
-1.0473811637
-0.1220039283
-0.3948615054
0.0428797358
0.6561381694
0.2705490164
0.5928204894
-0.7017767842
0.3374929512
-0.5860464364
-0.4827606206
1.1144153607
-0.5730394891
-3.5918101937
0.9958155626
-2.3725574838
-0.4708102402
-1.0218885079
-0.5439379817
1.8587864112
0.9058713976
1.2465599315
-1.0726784254
-0.6381295290
-1.3015454069
-0.6881572669
2.9886764624
-1.4296341392
0.0553220235
-0.0240060658
0.4490615644
0.2225796048
-0.1979609772
0.8325442999
-0.8123802973
-0.0738106736
-0.2842717731
0.3864966218
0.6663863360
0.5399247206
0.1820792950
-0.6389905487
0.4595961817
0.1212213037
-0.4219792863
0.3539427305
-0.1111156595
-0.0810957040
0.3053506663
0.2998569945
-0.3039339668
-0.1187675020
-0.2881369244
-0.5632690444
0.5153191086
-0.0584030637
-0.5571712835
-0.0834170736
1.8185813068
-0.1277415449
0.5016196146
-0.1524217109
-0.1453900505
-0.1515500097
0.1809539447
0.0377535639
-0.2554125594
0.2062826076
-1.2682146280
-0.8400308026
0.3280495498
-0.4999569646
0.0713509550
0.7217191789
-0.0251146146
0.2147167511
-0.0207206631
0.2650791116
-0.3265199456
-0.4110203315
0.0085727344
-0.0693351191
0.1746766322
-0.1838589592
-0.1879766045
0.1150040166
-0.2629246922
0.2547029067
-0.7925501592
0.2056369850
-0.2697696803
0.3148691759
0.7838373505
-0.3969432117
-0.8806340604
-0.0750506057
0.1519025058
0.3149724165
0.2405943081
0.5347275816
-0.2499336350
-0.1035870982
0.4911604191
-0.0256040896
-0.3372012301
0.0576312326
-0.2811465101
-0.6679217719
0.3330551299
0.5426621065
-0.1267739980
-0.0125864570
-0.6550046073
0.6002610082
0.7471212550
0.0041475157
0.1929795068
-0.4248519174
1.5516813873
-0.1388654719
0.5853520659
-0.1418809592
-0.5209503596
0.0769241233
0.0000358679
0.0399187350
-0.3977749453
0.1716944156
-0.2520815547
0.6125402610
0.4601018927
-0.4118539545
0.0211391790
-0.2585886300
0.3645770827
-0.6936378158
0.1991116480
0.5601159343
-0.6100544147
-0.3707814407
0.0283798112
0.3967414203
0.1246053331
0.1707780460
0.6226810400
-0.4822657814
0.3234484678
0.1088736422
0.7159959156
-0.1933841096
-0.0064622744
-0.0456678234
-0.6179976104
0.3416553157
0.0933515840
-0.1548756031
-0.0003125162
-0.3452455516
0.5860230855
0.3128796400
-0.1130942307
-0.1000098404
-0.1181751440
1.2177924466
0.3491179531
-0.1225722054
0.0846222802
-0.0798076274
-0.8955021327
-0.0348033245
0.2190238296
0.0094760594
0.6111996491
-0.9113037579
-1.4039183943
0.1322343334
0.0042834880
0.1760437053
1.1723160361
-0.1362996181
0.1194312669
-0.1203412319
-0.8331206599
0.1833319921
0.2297116859
-0.0633409456
0.0149015547
-0.2972928528
0.3313367477
0.0652534768
-0.0336962105
0.0414207902
-0.2751219055
0.7894756116
-0.1041027925
0.3271391167
-0.0221978929
-0.4960350264
0.2195945602
-0.1718274392
-0.0322120131
-0.1483577022
0.0148562331
0.0186006541
-0.0070595862
0.1513548613
-0.2506059854
0.0148508765
-0.1762446219
-0.0620278338
-0.2243155703
-0.1330789807
-0.3635345485
0.2306110263
0.2664893324
-0.0169501212
0.2362719817
-0.5406624070
0.4614662943
0.5306748087
-0.2343531975
0.3464775241
-0.3555959750
0.9246638112
-0.2931036834
0.5219230758
-0.2246382361
-0.7491924258
0.4550568520
0.2003958404
-0.0459517292
-0.2502374460
-0.1489445331
0.3803158226
0.7068221225
0.2758174225
-0.2854900875
-0.2309008141
0.0868548839
0.3214529019
-0.3354641979
0.2926400783
0.5010429274
-0.6253139442
-0.4800007399
0.0074746486
0.2204740584
0.4217828467
0.0305148372
0.0861164011
-0.2623234311
0.0646869118
0.3029318180
-0.0066602761
0.2721570323
-0.4344454464
0.0839611551
0.0927110124
-0.2835770300
-0.0813462458
0.1086126798
0.2823376016
0.0325191971
-0.0780676339
-0.4217880128
-0.2459561024
0.3311938641
-0.0145507781
0.0154327220
0.1681197695
-0.1554024258
0.0799902493
0.0030835915
-0.0931476193
-0.2134345962
0.0736607801
0.1133075031
0.0715739527
0.1707931423
-0.5796574993
-0.0891179817
0.0636456857
0.1065539308
0.0722318601
-0.0258238750
0.0324057535
-0.0254947354
0.0214043923
-0.0563831314
0.0115908088
-0.0067705599
-0.0356597350
-0.0340996752
0.1764104043
-0.6205957027
0.0555801793
0.0347588286
-0.0033100686
1.0152676780
-0.4527494506
0.4946045116
-0.5956035124
-1.5208982587
0.9800251038
1.1674980245
0.1055179759
-0.2862175846
-0.8842626134
-0.0347154477
-0.5420393246
0.4754306025
0.2351604865
-0.8150046719
0.8765504739
-0.0277034278
0.6869719732
0.7207959328
1.5933875182
-0.1625539564
-1.8576885832
-0.3878631302
-0.3986548832
0.9774359643
0.5047485852
0.1356046154
0.0437948459
-1.4610228362
1.3156583082
-0.0291700042
-0.4715568732
-0.1507359853
-0.8143288979
-1.5478417281
0.8045397399
1.8887524380
0.1132355998
0.0970862548
-1.4298132150
0.0870419387
-2.2517775757
0.1259738376
1.0039125306
-1.3643990856
0.3100433923
-0.0038705680
0.2797611312
0.2902056984
0.9162745479
-0.4824215827
-0.7145010289
-0.1822515855
-0.1904072829
0.6830000744
-0.1945055277
-0.9096878153
0.0556545373
-0.6341983571
0.6076075673
-0.0071935124
0.0448501355
-0.0396975261
0.1380466484
0.3558360635
-0.1585156703
-0.2961916226
-0.0613753614
0.0215782324
0.1612604555
-0.0040396971
0.0159003969
-0.0795372411
-0.1294138033
0.2018967476
0.1830387479
0.1117150348
-0.0404698105
0.1348385489
0.3934725346
-0.3285561404
-0.2172765578
-0.0051306532
0.0185629116
0.2733950466
-0.2569454668
-0.1940086754
-0.0369762481
-0.1108004581
0.2226256869
0.1752587048
0.2773412880
-0.2350053515
0.2536498048
0.7553043379
-0.6254655368
-0.4140098992
0.0311365720
0.1562823040
0.4276694109
-0.4284215812
-0.2276562187
-0.1759699102
-0.0479330723
0.3722184114
0.2768572885
0.1600768092
-0.0850338983
0.1012855357
0.2979485821
-0.3785305268
-0.0932807259
0.0560157116
0.0447324415
0.2604215420
-0.3947854518
-0.3206009953
-0.0116774095
-0.0092250375
0.1656145571
0.0626083914
0.0598010595
-0.1464059766
-0.0616978155
-0.0825536506
-0.1683484874
0.2716573578
0.0621437866
0.0761255281
-0.0580659808
-0.2017585534
-0.2871088282
-0.0216793591
0.2444497300
-0.1376611508
-0.0592287068
-0.0096056003
-0.2739304669
-0.2042652725
-0.3862214000
0.0437363074
0.5800525723
0.0879881149
0.1765674771
-0.4234229959
-0.0875194783
-0.1362065961
-0.0925332520
0.5058401757
-0.4180117440
-0.9027526395
0.3020433939
-0.9608665417
0.0025577149
0.1974956942
-0.3328918170
0.2476473608
0.0948971153
0.6089210800
-0.4974193708
-0.0029989064
-0.1944616194
-0.5918131900
0.9134791129
-0.3433806858
-0.7241653122
0.2376681736
-0.6658502864
0.0874299472
0.2738446332
-0.2157605773
-0.0614300838
0.0371928474
0.4066263718
-0.1938530210
0.1281190517
0.0662847250
-0.4307324938
0.5564309756
-0.1016890651
0.1256974899
0.0670379590
0.1234627567
0.3104551934
0.9243825901
-0.3351830377
-0.8017240724
-0.1373189466
-0.0839439418
0.8640343790
0.0782972776
0.7635177732
-0.0426258208
-0.4707900965
0.6424252817
0.1430925810
0.0358307027
0.0942633543
0.1307814991
0.5858647065
-0.2812716018
-0.3819990440
-0.0462966555
-0.0698203221
0.7045027452
-0.1172880414
0.6063487473
0.0325422586
-0.2507168537
0.3780843708
0.2924813457
-0.0236974387
0.0951861288
-0.1008526978
0.0573615260
-0.1442749069
0.1304555849
0.0649128573
-0.0754068025
0.3812325579
-0.2758530832
0.4107655331
0.1501969728
0.0144196111
0.0165333113
0.2028969069
0.1962714554
-0.0621144690
0.0461308085
0.4988787563
-0.5991830319
-0.1882531956
0.1378272783
-0.0256402622
0.7256939503
-0.7082812642
-0.0282441398
0.1314515169
0.0130017827
0.2487011075
0.2297646903
0.4019855188
-0.1987160460
0.1423581583
0.7302258421
-0.9330049466
-0.3341071744
0.2320430627
0.0129772927
0.8817045539
-1.1248855998
-0.6659716814
0.1336570905
0.0632332650
0.3496095138
0.2414450178
0.0466053022
-0.0149679493
-0.0715162184
-0.0148464852
-0.1051136251
0.0439276547
0.1061113968
-0.0295794418
0.0984266898
-0.3141436404
-0.2852376858
0.1192781493
0.1295471197
-0.0428497175
0.2374028711
-0.0779867549
0.0741588307
-0.1142033365
-0.1959321492
0.1585828305
0.1147875358
0.0386116147
-0.0467896961
-0.0342557522
-0.0140201479
0.1313866155
0.0927173424
0.0927769459
-0.1088696223
0.3977076112
-0.1127538332
0.2730444837
-0.0323564166
-0.0632141462
0.1547732014
-0.0145537274
-0.0255798074
-0.1563126003
0.2266444242
0.0179209089
0.3350101471
0.1537056714
-0.2154175001
0.0852004130
0.1375785252
0.1007044982
0.0060681266
0.0508428414
0.1867895465
-0.1999838834
-0.1142804040
0.0564991221
-0.0269538567
0.2834531255
-0.3205450082
-0.0596308273
0.0598054921
-0.0288578919
0.1153810489
-0.0439032334
0.1654305674
-0.1154262914
0.1068300051
0.3730009357
-0.3347017293
-0.1976711602
0.0572572279
0.0356004757
0.3525125427
-0.3586345789
-0.0688719604
-0.0120705947
0.0057893541
0.1853616210
-0.0225684016
0.1142338237
-0.0821184001
0.0590396235
0.2628381030
-0.2560179463
-0.1065202930
0.0499894226
0.0214075706
0.2854928625
-0.2766306589
-0.0493395612
0.0050494336
0.0210388673
0.1229809309
0.0910834490
-0.0276739807
0.0601642578
-0.0194647572
0.0144816493
0.0304354610
0.0033985279
-0.0011892185
-0.0367986193
0.1123744610
-0.0216627259
0.2267119080
0.0437784956
-0.0343746869
0.0203204932
0.2460163235
-0.0055307091
0.1198538135
0.0040485534
0.0504129290
-0.0271581784
-0.0552624832
0.0101721864
-0.0858477759
0.1864794388
-0.1247862079
0.0790296578
0.1045449893
-0.1127563323
0.0792588882
-0.0006879675
-0.0234820813
0.0313203410
0.0312609138
0.0789470903
0.0618555452
-0.1107299500
-0.0321465154
-0.0081124138
0.0534834842
0.0902755186
0.2311876942
-0.0130694049
-0.0654647084
0.0557645729
0.2270360302
0.0167036591
0.1133701256
0.0574206167
0.1396936309
-0.0238292166
-0.1759003668
-0.0027112179
-0.0775146026
0.2097576472
-0.1333814300
0.2041862950
0.0688099452
-0.1829598337
0.1389304115
0.0502319054
0.0810524684
0.0079377926
0.1205479798
0.2846245574
-0.1117182590
-0.2876772930
-0.0098786618
-0.0211732949
0.2361497808
-0.1325282119
0.0228191069
-0.0045781731
-0.1452700534
0.2049699362
-0.3031162143
0.1240786176
-0.1509677086
0.1716341887
0.4447774265
-0.1732093886
-0.4090930311
-0.0314978031
0.0864107710
0.2307193551
0.0121075491
0.1121329255
-0.1408657398
-0.0580146991
0.2348402014
-0.2671738773
0.0741799366
-0.0955765898
0.1452951712
0.3803719765
-0.1210944016
-0.3709535918
-0.0507195497
0.0592944393
0.1959991749
0.0320868181
0.1478443779
-0.1116752937
-0.0812652728
0.2128135752
-0.0541389380
-0.0673163831
0.1423968498
0.1620278052
0.2945961379
0.1378874036
-0.4879356897
-0.1479121770
-0.0644630096
0.1497338044
0.2860449485
0.3427820264
-0.0521264038
-0.3252100689
0.2722333680
-0.1623886764
-0.1232871142
0.2894025668
0.3319499049
0.6595318914
0.2116311766
-0.9872668478
-0.3005996435
-0.1308463123
0.3744461870
0.5399483269
0.7660359731
-0.1179478189
-0.6911302782
0.5774672259
-0.6843938649
-0.0194029618
-0.1143623282
0.2520266178
0.5470349586
0.1688807787
-0.7167449236
-0.2097191253
0.1169210328
0.0769795864
0.6147828309
0.6734924686
-0.3120501304
-0.2023427470
0.3090954247
-0.2469850363
0.0382034853
-0.1085565244
0.1060363712
0.2611973336
0.0158535789
-0.3242524050
-0.0542852514
0.0720484193
0.0686160537
0.1954111347
0.2642500807
-0.1343618383
-0.0099404971
0.1225492295
-0.0284419134
-0.0045890654
-0.0499827485
0.0265001103
0.0930051655
0.0775208033
-0.1791694582
-0.0240463378
0.0376210541
0.0012551150
0.1526759932
0.1939755310
-0.0550721896
0.0303445894
0.0288304170
0.1250546037
0.0506389352
-0.0086903558
0.0340325686
0.1300833563
-0.0652495977
-0.1797355521
0.0335363762
-0.0102612371
0.1134808660
-0.1181125708
0.0301713564
0.0238165287
-0.0059859222
0.0766978024
-0.0140443742
-0.0185431265
-0.0519107262
-0.0657280559
-0.1157140520
0.1417369406
0.0118351284
0.0311366951
0.0328601636
-0.1567244241
0.0390966031
0.0190882321
-0.0040527488
0.1432383258
-0.1193958478
-1.3962737510
0.0843339389
-0.7090084894
0.0626333691
0.1689670424
0.2878188404
-0.2164575099
-0.0668983967
0.4692993640
-0.5453010876
0.8360404104
0.5875682340
-0.5779828289
0.5960482684
-0.2079961500
-1.7306894312
0.2003475228
-0.8622808520
0.2189576068
0.5615593666
0.0753365372
-0.5065394986
-0.0998920720
0.5651516124
-0.3485241516
0.8654871577
0.7759631927
-0.7223983341
0.5592981425
-0.0138314440
-0.1114590999
-0.0405174259
-0.0500430313
-0.0388867330
-0.0742329210
0.1583095728
0.0207849553
-0.0140121212
0.0413783815
-0.1455694656
0.1509162943
0.1794992382
-0.0522420162
0.0898865074
-0.0914736407
0.1300656132
-0.0409461355
0.0945950995
-0.0007133326
-0.0354219373
0.1045796082
-0.0207203974
-0.0099040659
-0.0576156001
0.0132237233
0.0122910694
0.1443597721
0.0500845544
-0.0952936352
0.0198943217
0.6017798753
-0.0940903834
0.4012001022
0.0082754620
-0.0833861400
0.1577679718
-0.1472966971
-0.0172697594
-0.2458425534
0.1829530420
-0.1526602922
0.2162788819
0.2489079609
-0.3705377479
0.1406100877
0.5153016903
-0.1378182298
0.3489347785
-0.0538642091
-0.2205044278
0.2723765943
-0.0182934907
-0.0246770154
-0.2039118382
0.0195262008
-0.0254446664
0.2911743559
0.2032383346
-0.2596681365
0.0108208091
0.2234522166
-0.1005224759
0.1383089885
-0.0844608371
-0.2474451830
0.2153025145
0.1398190806
-0.0065117705
-0.0741335270
-0.1217566618
0.0426623453
0.1390944423
0.0897508543
-0.0356570302
-0.1033873546
-0.0957022108
-0.0075737035
-0.0788869005
-0.0517039529
-0.1347033939
0.1041557299
0.1255757651
0.0235323079
0.0516013072
-0.1401517202
0.0561051846
0.0384027939
-0.0293661328
0.1305470192
-0.1110111517
-0.0474028081
0.0057146246
-0.0681892059
-0.0397716025
-0.0945122927
0.0620372476
0.1061278898
0.0205810721
0.0423680650
-0.0774609251
0.0340764239
0.0109191514
-0.0226488028
0.1172367075
-0.0801734449
-0.3170472697
-0.0255208097
-0.1719617691
-0.0106164341
-0.0805857785
0.1970819545
0.0532126879
-0.0360888171
0.1317149365
-0.1945995472
0.3473867746
0.3618687292
-0.1687632852
0.1657627404
-0.1009123165
-0.0553548867
-0.0483863852
-0.1063381844
-0.0663936168
-0.2181273964
0.1694636680
0.1894598166
-0.0142759574
0.0910197718
-0.2336585947
0.2168097289
0.0948476740
-0.0970007124
0.1898051041
-0.1750162816
-0.0227618412
0.0057694516
-0.0192265836
0.0463377662
0.0143598987
0.0287937079
-0.0743609866
-0.0269549293
0.0174382075
0.0334354541
0.0818045016
0.0877007526
-0.0419027191
-0.0234312769
0.0516591472
-0.0568271278
-0.0069389474
-0.0118426937
-0.0028916135
-0.1016749821
0.0986602720
0.0081719784
0.0042160549
0.0058354151
-0.0326411976
0.0072925451
0.0911134515
-0.0017587622
0.0177465987
-0.0167791973
0.0204389301
-0.0021581032
-0.0397874189
-0.0338686982
-0.1331795484
0.0463071846
0.1441932395
0.0204912476
0.0201133712
-0.0789052726
-0.0554387460
-0.0615578016
-0.0055117096
0.0732353002
-0.0743464747
0.1782689201
-0.0528352454
0.0317238603
-0.1314138079
-0.3074583710
0.0847812042
0.3352733282
0.0542515774
-0.0213886752
-0.1405780402
-0.1165509211
-0.0814473134
0.0830793294
0.1245454828
-0.1873076881
0.2098194856
-0.0620079904
0.0240335330
-0.2006884565
-0.4561861378
0.1298557432
0.5293467999
0.0961361441
-0.0238753780
-0.2252144105
-0.1745365996
-0.1880404300
0.1245223764
0.2208166622
-0.3042898391
0.2353502819
0.0258143156
-0.0191074856
-0.1075404075
-0.2809839193
-0.0092389584
0.4257951371
0.0930304497
-0.0119019216
-0.0732476933
-0.2809806166
-0.4388373560
0.0968073698
0.1335960085
-0.1626338995
0.4144992950
-0.0338399531
0.1153937702
-0.1926418759
-0.4068368953
0.0126107960
0.4683971742
0.1223413847
-0.0989451226
-0.0646701097
-0.4049665745
-0.5944333896
0.2234436520
0.1162527815
-0.2287443401
0.4154843537
-0.0341379591
0.1559519038
-0.1244298293
-0.2758286830
-0.0018415974
0.3120703130
0.0873483261
-0.1146263050
0.0158163813
-0.3272862708
-0.4212458137
0.2063224950
0.0122862329
-0.1227425837
0.0063697310
-0.0009283779
-0.0797557049
-0.0945224935
-0.2214380696
0.0550056995
0.3133556750
0.0562329995
0.0423033666
-0.1584463107
-0.0871812381
-0.1627395170
0.0094155819
0.1828677620
-0.1715674028
-0.2339898345
0.0047063098
-0.1923275835
-0.1171049757
-0.2843558135
0.1041392658
0.3846235023
0.0626431860
0.1147058416
-0.2965962682
-0.0162154626
-0.0349868991
-0.0617398631
0.3118934393
-0.2613961352
0.0593953499
0.0325338079
-0.0062589479
-0.0278366545
-0.0285340174
-0.0934004932
0.1619539721
0.0450012408
-0.0091513067
0.0488355980
-0.1996483524
-0.1754551697
0.0465978651
0.0395844412
-0.0276345726
0.3880844696
0.0157718450
0.2000085335
0.0536880555
0.1622999238
-0.1895070229
0.0259601028
0.0106012563
-0.1283197880
0.3250418406
-0.3097120979
-0.2693811077
0.1462575560
-0.2542584274
0.1796295046
0.2768668886
-0.0558429778
0.1951624656
0.0018160528
-0.0627659306
0.0765990185
0.0723328894
-0.0233101457
-0.1194142315
0.0982271212
-0.1350437319
0.0133695761
0.1191848671
-0.1912426510
0.0611667687
0.1219629563
-0.0653253114
0.0581466560
-0.1090389615
-0.2797189937
0.1311870873
0.3194840728
0.0307039253
-0.0355219125
-0.1431407957
-0.1025048542
-0.0015771730
0.0812115033
0.0683183282
-0.1645099563
0.0644885317
-0.0377701900
0.0179186843
-0.0895050544
-0.1868810630
0.0322595349
0.3481478846
0.0299215714
-0.0078996679
-0.0900892110
-0.1525649472
-0.1014979434
0.0453578239
0.0814111973
-0.1369250266
0.0838959531
0.0132343801
0.0162748824
-0.0382490438
-0.0931295993
-0.0227569106
0.2105705766
0.0331029491
-0.0183069904
0.0400377104
-0.1078418169
-0.1794756995
0.0458870260
0.0336842078
-0.0366269406
0.1811102042
0.0281847058
0.0559085990
-0.0047373231
-0.0520983915
-0.0344711073
0.1290339655
0.0355245708
-0.0468366784
0.0920955158
-0.1354602217
-0.2350110526
0.0737379781
-0.0392172197
0.0231070315
0.2307119748
0.0131336210
0.0928670843
0.0215234454
0.0390815314
-0.0595675239
0.0550424743
0.0125770839
-0.0689323702
0.1298115350
-0.1190670449
-0.2025289388
0.0790274667
-0.1126403094
0.0775493607
0.1562335385
-0.0305979507
0.1074717508
0.0163770019
0.0456365268
-0.0127139701
0.0554132698
-0.0201038960
-0.0653727974
0.0916718480
-0.0103010808
-0.0898501722
0.0557293054
-0.1116997607
0.0596071474
0.2751352323
-0.0589062142
0.1356693416
-0.0919972965
-0.2356415288
0.0647945080
0.3539014353
0.0277353256
-0.0880130763
-0.0298508349
-0.0871431639
-0.1811147006
0.1315352302
-0.0357149465
-0.0837570715
0.0279129735
0.0500383394
0.0008118502
0.0434541280
0.1190851397
-0.1240200912
0.0305992905
0.0110018033
-0.0132862137
0.1367585458
-0.0878536552
-0.1756149602
0.0180162694
-0.0396453726
0.0819890947
0.0568094213
0.0053038847
0.0728919184
0.0231305444
0.0603304704
-0.0656666410
0.0221597386
-0.0008609315
-0.0541369711
0.1226008454
-0.0568603327
-0.1319945333
0.0534299852
-0.0783143514
0.0724734683
0.3119525096
-0.1063813495
0.2509298656
-0.0655881027
-0.1949934425
0.1264270497
0.1839595712
-0.0104888681
-0.1578241597
0.0303614502
-0.0198818501
-0.1121669477
0.1744169535
-0.1650724876
-0.0082759762
0.3785546466
-0.1006866627
0.2416757210
-0.1154224742
-0.2850242916
0.1171785030
0.3018718816
0.0291607397
-0.1554298407
0.0200305099
-0.1144609529
-0.1351956459
0.2072322335
-0.1025724020
-0.0724212026
0.1542612906
-0.0810702631
0.1310309586
-0.1013134598
-0.3197040934
0.1792825107
0.2746753678
0.0258275853
-0.0833890327
-0.0862523484
-0.0271224088
-0.0456266676
0.1266034755
-0.0056473221
-0.1215904969
0.1008736730
-0.1004806540
0.0974832690
-0.1301269402
-0.3805987356
0.2294099255
0.3167596748
0.0181108206
-0.0576756155
-0.2013033861
0.0341431527
-0.0550674949
0.0999199386
0.0638350732
-0.1896471228
0.2341650126
-0.0725740957
0.1808239399
-0.0633302433
-0.2427209177
0.1566491298
0.1651255852
0.0090807094
-0.1116881753
-0.0124445819
-0.0519562028
-0.0677521168
0.1438223367
-0.0968512590
-0.0408528621
0.3407399618
-0.0508796851
0.2215728244
-0.0536234341
-0.1940144731
0.0772887456
0.1156880767
0.0354957727
-0.1510663501
0.0947754768
-0.1881912719
-0.1085487128
0.1938496935
-0.1393466543
0.0030556886
0.0441452449
-0.0329485296
0.0173327536
-0.0697420889
-0.2078094260
0.1253340327
0.1693352864
0.0236840072
-0.0141616701
-0.1151709054
-0.0022526714
0.0007267215
0.0443435921
0.0679342904
-0.1073207517
0.2130588493
-0.0561742975
0.1645344131
-0.0365237052
-0.2074385685
0.1831478718
0.0781222763
0.0014788367
-0.1086002041
-0.0168448895
-0.0203916956
0.0520897755
0.1215842283
-0.1104018833
-0.0108397972
0.2211182086
-0.0451547839
0.1536784954
-0.0234226339
-0.1612412579
0.1354904117
0.0566887641
0.0078479737
-0.1028540776
0.0235938975
-0.0555007735
0.0179983181
0.1175691990
-0.1137069864
0.0068835349
0.1944324452
-0.0377925036
0.1220412070
-0.0479179272
-0.1985294626
0.1309352703
0.1039406749
0.0231656950
-0.0857585836
-0.0067419029
-0.0783831730
-0.0168679566
0.1203467266
-0.0583037586
-0.0349654522
0.0421395244
-0.0308782371
0.0392279794
-0.0212978048
-0.2366260725
0.2377836468
0.1063996084
0.0045290081
-0.0318737502
-0.1140660616
0.0763111717
0.0876070058
0.0363474374
-0.0127577729
-0.0433538984
-0.0723297868
-0.0444775376
-0.0403075858
-0.0409600560
-0.2572596765
0.2751229172
0.1779004833
-0.0109703615
0.0315241103
-0.2405245901
0.1874096293
0.1106374325
-0.0367455792
0.0818501187
-0.1186756802
0.1291244250
-0.0722464029
0.1314138473
-0.0085008238
-0.1068293372
0.1611540777
0.0184196052
-0.0361064223
-0.0722722511
-0.0271382979
-0.0017787861
0.0981653253
0.0599181466
-0.1164466980
0.0102250829
0.0574282833
-0.1022246618
0.0941545707
-0.0380157734
-0.2414566651
0.2929934931
0.1051423981
-0.0472843864
-0.0414367209
-0.1852560183
0.1102047802
0.2218920535
0.0202329693
-0.0513063273
-0.0715199870
0.0058227978
-0.0887118512
0.0136999867
-0.1143334335
-0.3762747009
0.2979388871
0.2776683187
0.0067008083
0.0012757396
-0.2879760850
0.0892715595
0.1456282609
0.0209211457
0.1214581205
-0.2087106453
0.0241200219
-0.0204228112
-0.0120443820
-0.0364371992
-0.1635691039
0.1148389497
0.1245861189
0.0140996996
0.0066590830
-0.1217977468
0.0107695709
0.0134305248
0.0101731622
0.0627502787
-0.0820047420
0.0628363708
-0.0200962378
0.0007032718
-0.0613756607
-0.1616851970
0.0734441617
0.1434364033
0.0270382978
-0.0050688176
-0.1018599967
-0.0503193261
-0.0751002749
0.0348826540
0.0759061365
-0.0933716337
0.0750118299
-0.0362146489
0.0001332317
-0.1014486914
-0.2089265890
0.0798564566
0.2162975416
0.0430063189
0.0015452045
-0.1412445352
-0.0550417422
-0.0607909802
0.0438833950
0.1292968024
-0.1567700622
-0.0698084328
-0.0021557943
-0.1122984763
-0.1099277458
-0.2848390383
0.1347471923
0.2957243279
0.0539155506
0.0622095420
-0.2537654927
0.0129424019
-0.0765773947
-0.0068862119
0.2298898294
-0.2188718279
0.0091433351
0.0006410066
-0.0516796328
-0.0671056957
-0.1782557462
0.0753377511
0.1953041687
0.0424634261
0.0227215641
-0.1250626966
-0.0312941163
-0.0905777921
0.0139612515
0.1216854958
-0.1212722630
-0.1059986596
-0.0487604358
-0.0889724208
-0.1090776066
-0.3243714803
0.2430531164
0.3006674079
0.0247150385
0.0602497009
-0.2981730500
0.1388743815
0.0677664931
-0.0320694784
0.2000921102
-0.2242770226
-0.0151702841
-0.0461214923
-0.0436799162
-0.1068578142
-0.2445092816
0.1541422198
0.2590581947
0.0272868028
0.0312447967
-0.2140773031
0.0504283935
-0.0543219776
0.0061073204
0.1593254545
-0.1878780086
0.0124068980
-0.0429798838
-0.0150922067
-0.0842544814
-0.1792711351
0.0980648126
0.1883360065
0.0171953671
0.0119357795
-0.1534859589
0.0197215461
-0.0370897109
0.0140760533
0.1081250844
-0.1401148882
-0.1300340026
0.0135929879
-0.1119258090
-0.0301434470
-0.1363138233
0.1058120374
0.1333403227
0.0175358929
0.0674640952
-0.1703328454
0.0631823214
0.0036688125
-0.0523205496
0.1410936046
-0.1082867012
-0.3764120721
0.0340961208
-0.2670497470
-0.0198717499
-0.2110626598
0.2391881982
0.1817328274
0.0117622288
0.1614744097
-0.3409091110
0.2388642932
0.1172892795
-0.1652130018
0.2725893900
-0.1723335559
-0.3786797307
0.0299753304
-0.2745534576
-0.0335390211
-0.2135791978
0.2250841361
0.1880839329
0.0184372769
0.1722663899
-0.3516154707
0.2451953507
0.1112990293
-0.1731522194
0.2846609282
-0.1844912024
-0.2187609731
-0.0137835701
-0.1872540463
-0.1181814107
-0.3231576045
0.2044773849
0.3158731263
0.0448831974
0.1212612541
-0.3527930557
0.1239560894
0.0274390608
-0.0818743943
0.3151123787
-0.2652258078
-0.3295558382
0.0283868516
-0.2763311239
-0.0755851925
-0.2639222938
0.2002614832
0.2740465003
0.0379614331
0.1680249106
-0.3511849208
0.1661470700
0.0758926537
-0.1448102132
0.3366240902
-0.2390474286
-0.4783224094
0.0857245157
-0.3980234812
-0.0289304796
-0.1905197948
0.1586120927
0.2377472872
0.0406864494
0.2429230185
-0.3460683755
0.1843760450
0.0661783321
-0.2270482403
0.3958347680
-0.2188995876
-0.3167791062
0.0224544708
-0.2921070854
-0.0961229929
-0.3335723327
0.2317411117
0.3342080105
0.0490959417
0.1831028119
-0.4138435967
0.1657269594
0.0952966430
-0.1469368320
0.3823397880
-0.2802087921
-0.2258234173
0.0057832297
-0.2066099196
-0.0374316193
-0.2299711819
0.2344441898
0.1941913083
0.0074184078
0.1394339860
-0.3014435607
0.2131520681
0.2523711919
-0.1342405217
0.2326855633
-0.1682854363
-0.3674431027
0.0025471813
-0.3093268265
-0.0869498551
-0.3015050118
0.2626536120
0.3225275943
0.0174704527
0.2026303407
-0.4354839227
0.2750510088
0.2852054813
-0.1955522844
0.3806983912
-0.2863602705
-0.3340053256
-0.0093166752
-0.3109668707
-0.1491245622
-0.3581392295
0.2189281498
0.4225612486
0.0428032836
0.2063449571
-0.4853192777
0.1772394179
0.1492869889
-0.1709395351
0.4631256370
-0.3739258205
-0.1833762124
0.0108988379
-0.1712918091
-0.0617328091
-0.1449401926
0.0797976483
0.1868860037
0.0263733372
0.1096399634
-0.2195639909
0.0278362052
0.0077863716
-0.0931765202
0.2330989219
-0.1701851037
-0.1775837250
-0.0833331788
-0.1463506314
-0.1928961398
-0.4642562302
0.2833023308
0.4620314185
0.0475070752
0.1046479479
-0.4481161176
0.1264233898
0.1317271273
-0.0534970095
0.3581513896
-0.3824755581
-0.0849215865
-0.1113931960
-0.0660759784
-0.2095107106
-0.4941780367
0.3165284806
0.4594073708
0.0411835318
0.0699668074
-0.4145276695
0.1383853754
0.1634818349
-0.0041656556
0.3015175891
-0.3706247881
-0.0221860643
-0.0528236233
-0.0236952776
-0.0870070818
-0.2088566711
0.1508225555
0.2030405992
0.0129098677
0.0258335196
-0.1778689953
0.0618726463
0.0666604857
-0.0017345938
0.1283521668
-0.1602738278
-0.0068350208
-0.0419071020
-0.0337373867
-0.0939060645
-0.1951919573
0.1054811095
0.2045379195
0.0250763636
0.0263491102
-0.1674315815
0.0177386027
0.0488906669
0.0119035247
0.1459069108
-0.1612228444
0.0397363485
-0.0244777436
0.0219756667
-0.0370788930
-0.0589916893
0.0307225086
0.0548780688
0.0074923817
-0.0108045488
-0.0308946212
-0.0066040462
0.0415258451
0.0244505150
0.0309115780
-0.0443523611
-0.0128343412
-0.0379474933
-0.0209748005
-0.0674206965
-0.1193215609
0.0776292162
0.1315648457
0.0101722275
0.0172097333
-0.0990018604
0.0358650255
0.0649960068
0.0009452621
0.0997698011
-0.1133663674
-0.0071201698
-0.0268206283
0.0063552477
-0.0208521095
-0.0033147069
0.0247465475
0.0217729155
-0.0085698497
0.0016235152
-0.0290452381
0.0491770246
0.1065555510
-0.0028816857
0.0233628472
-0.0314121807
0.0131663078
0.0024665960
0.0170612304
0.0563113748
0.1375689645
-0.0286450655
-0.1421199280
-0.0325669047
-0.0067900913
0.0677526787
0.0497753021
0.1185269299
-0.0219450522
-0.0760361050
0.0919147402
-0.0032477208
0.0277933877
-0.0302503559
0.0851917921
0.2263473279
-0.0753054988
-0.1898987055
-0.0325925016
0.0318001266
0.0685747053
0.0433715938
0.1231479321
-0.0699647089
-0.0632976691
0.1201837487
-0.0692894210
-0.0079951934
-0.0586825851
-0.0037684897
0.0226649293
0.0240422298
0.0031777349
-0.0172874874
0.0475044819
-0.0805971708
0.0842183417
0.0558121213
-0.0632255935
0.0588094971
-0.0346283863
-0.0443347980
-0.0338147968
-0.0604237316
-0.0498316543
-0.0792790907
0.0662563612
0.1092439908
-0.0045886769
0.0514155143
-0.1354481684
0.0797300714
0.0887955776
-0.0508285600
0.1112913766
-0.1043173076
0.1029643627
-0.0724626615
0.0438111855
-0.0664594194
-0.1332018595
0.1157891378
0.1308060124
-0.0098697026
-0.0113359057
-0.1034121807
0.0772855433
0.1577216589
0.0195098103
0.0286921572
-0.0889988057
-0.0511256886
0.0119662088
-0.1051045085
-0.0508176520
-0.0928687622
0.0300129170
0.1320094449
0.0306713121
0.0637107287
-0.1334746667
-0.0112510753
-0.0522678559
-0.0383109756
0.1569526485
-0.1136063528
-0.0350614529
0.0090916573
-0.0902997466
-0.0361816242
-0.0740094072
0.0383953724
0.1098505013
0.0209141945
0.0600569399
-0.1373119317
0.0066387679
0.0116588153
-0.0418258720
0.1309010256
-0.0942310337
-0.0011410755
-0.0129000733
-0.0904479673
-0.1073933181
-0.2428260097
0.1059564873
0.2627815417
0.0530041498
0.0589095900
-0.2475458160
-0.0344950587
-0.0216022681
-0.0083793087
0.2211281782
-0.1994481542
-0.0375764537
-0.0218716443
-0.1143318893
-0.1308884500
-0.2879827116
0.1392322569
0.3047746828
0.0579759509
0.0714202381
-0.2869979560
-0.0145956685
0.0296150970
-0.0187358973
0.2687901241
-0.2498516094
-0.1369552823
0.0324911748
-0.1477390935
-0.0233508514
0.0048054549
-0.0280751735
0.0671532155
0.0234030751
0.1030021410
-0.1120225036
0.0018592802
0.0436232796
-0.0803036247
0.1813761152
-0.0855137956
-0.1925842304
0.0848396325
-0.2193540854
-0.0086400059
0.0603207337
-0.1151177693
0.0526556691
0.0494394052
0.1272544323
-0.0778078434
-0.0922701715
-0.1445614925
-0.1001500675
0.2348646577
-0.0791114735
-0.0714743351
0.0171430164
-0.1039027526
-0.0438631902
-0.0604517582
0.0057096024
0.0937950291
0.0351909675
0.0606519911
-0.0820946385
-0.0349864849
0.0044404032
-0.0342966030
0.1619513305
-0.0966369165
0.0111787177
-0.0146150856
0.0015927958
-0.0117572107
-0.0150812247
0.0305985158
0.0009519143
-0.0030342988
0.0035349264
-0.0155979106
0.0165559712
0.0866332038
0.0030452806
0.0178299947
-0.0138013299
-0.0753454034
-0.0370058574
-0.0239794161
-0.0192881924
-0.0493149126
0.1024263221
0.0264004930
-0.0211783618
0.0298142682
-0.1162880310
0.1374132387
0.1673836491
-0.0388195996
0.0478774111
-0.0510714746
-0.1917804676
-0.0210526699
-0.1149908906
-0.0098004301
0.0058613954
0.0870364321
0.0250779106
-0.0315647815
0.1048137214
-0.1753416546
0.2339471035
0.2868112597
-0.1252054154
0.1199526029
-0.0677652588
-0.1519514097
0.0037996698
-0.1032031303
0.0369143431
0.1457317773
0.0052938087
-0.0860592426
-0.0462132921
0.0985969464
-0.0589257601
0.1947327881
0.2734191910
-0.1365703356
0.0540004040
0.0141144815
-0.0658002121
-0.0817465923
-0.0050729593
-0.0271344429
-0.0644801620
0.1768263420
0.0124054231
-0.0527971357
0.0289593385
-0.1621850841
0.2526362600
0.3419918299
-0.0635775840
0.0311538815
-0.0639239867
-0.0066061637
-0.0667742733
0.0673383939
0.0562339716
0.1608911385
0.0849563830
-0.2158287392
-0.0892576365
-0.0180674515
0.0896209711
0.2643103470
0.4503103916
-0.0471139358
-0.1356454902
0.1150710803
-0.1155951724
-0.0074943644
-0.0509414050
0.0620893298
0.1803637087
0.0099396985
-0.1868699419
-0.0595542405
0.0518461477
0.0394848445
0.2125351944
0.2777107741
-0.1015580087
-0.0331099872
0.0800063945
-0.0977005201
0.0004653447
-0.0680553538
0.0290184397
0.1068564881
0.0098948827
-0.0935517683
-0.0350381386
0.0596956291
-0.0062667981
0.1619264243
0.2791360611
-0.0940234886
0.0310654169
0.0283988520
-0.1055376662
0.0387272650
-0.0762761779
0.0688636500
0.2149121825
-0.0684724553
-0.1938059366
-0.0276789726
0.0597819896
0.0794118375
0.1202754543
0.1918469775
-0.0928477782
-0.0027160358
0.0967497185
-0.0940981526
0.1118492850
-0.0715736261
0.1772561685
0.4745188299
-0.2366731195
-0.4223653299
-0.0372136222
0.0401549787
0.2750926502
-0.0103238378
0.0427185894
-0.0995312066
-0.1257032633
0.2739030460
-0.1153846137
0.0848167895
-0.1121136394
0.1213461771
0.3406372191
-0.1655851089
-0.2748862718
-0.0247273503
0.0832270459
0.1284930191
0.0132285094
0.0206377166
-0.1204935087
-0.0273055684
0.1636848782
-0.1604276528
0.0223135407
-0.0946428712
0.0885543338
0.2246018535
-0.0120577989
-0.2373655602
-0.0527103355
0.0734011358
-0.0030608793
0.1972169196
0.2211558035
-0.1328081907
-0.0034029710
0.0954539461
-0.1067980628
0.0503271930
-0.1205691399
0.0184227543
0.0892557872
-0.0688017134
-0.0588606924
0.0191497623
0.0658872230
-0.0251108656
-0.0356714199
-0.1424463598
-0.0593008639
0.1062581523
-0.0046644671
-0.1427012352
0.2560567601
-0.2176509088
0.2336765732
0.6476793883
-0.5007238497
-0.5126172913
0.0365339787
0.0935118832
0.4320328255
-0.3432848660
-0.4872729246
-0.1148079842
-0.0291581993
0.3380284627
-0.0928096536
0.0636782786
-0.0354806757
0.1781666915
0.4698399349
-0.1887168494
-0.4531039156
-0.0699160149
0.0172716240
0.2625650423
0.0992600167
0.2618895375
-0.0939806762
-0.1561867514
0.2862787555
-0.1963569616
0.0923739835
-0.0561976056
0.2827945529
0.6813748048
-0.2271062435
-0.6975965929
-0.1170587493
0.0363293947
0.3389982489
0.2058903604
0.3639397241
-0.1644668994
-0.2583884115
0.4285801099
-0.2605345376
0.0562081617
-0.1145036281
0.1546492686
0.3679172410
-0.0796286104
-0.3701170878
-0.0734561260
0.0821856464
0.1015395789
0.2140196572
0.3017782425
-0.1621396213
-0.0645457329
0.1906145437
-0.1633550053
-0.0040815520
-0.1163559238
-0.0373619895
-0.0418283364
0.0419978198
0.0864679439
0.0051569473
0.0787138903
-0.1405891678
0.0784764599
0.0862691616
-0.0742052126
0.1557736775
-0.1036635020
-0.0929869679
-0.0226458452
-0.0276450298
0.0265650695
0.0925230878
0.0423730804
-0.0934332127
-0.0409826379
0.0300899453
-0.0217098451
0.1477981796
0.2237016270
-0.0654852391
-0.0022853799
0.0249731060
-0.0762937502
-0.0352386420
-0.0233069188
-0.0092959561
-0.0075590293
0.0841474506
-0.0129569315
-0.0230719751
0.0256147206
-0.0742055450
0.1337193150
0.2157114693
-0.0346617647
0.0309196965
-0.0307080213
-0.0378199490
-0.0241819415
0.0155642549
-0.0035000869
0.0260265911
0.0488622645
-0.0242317179
-0.0233107002
0.0043675028
-0.0232445893
0.0862232598
0.1618094869
-0.0143817732
-0.0064335750
-0.0020008436
-0.1268647908
-0.0420358407
-0.0781821437
-0.0633467216
-0.1046751584
0.1134928631
0.1285520614
-0.0064303487
0.0693373448
-0.1847737560
0.1554458813
0.2554160362
-0.0655522300
0.1470789369
-0.1324582047
-0.3056054284
-0.0974390074
-0.2123150731
-0.2080032865
-0.4830237474
0.3515260304
0.4692528438
0.0258083036
0.1592402907
-0.5662588385
0.2893240398
0.2972612223
-0.1204385339
0.4393223203
-0.4350499103
-0.1709517077
-0.0315225596
-0.0727647952
-0.0066018639
-0.0077763838
0.1099793417
-0.0180550548
-0.0364825942
0.0554705097
-0.1213965975
0.1973687872
0.2519287427
-0.0854795466
0.0722000771
-0.0524558321
-0.0695184302
0.0130665981
-0.0413552071
0.0331630104
0.0971348713
-0.0111904985
-0.0989012394
-0.0099344007
0.0255568816
0.0031851689
0.0413251549
0.1048055314
-0.0375987082
0.0112550391
0.0327759855
-0.0474389922
0.0347249276
-0.0334305192
0.0776848831
0.2231532748
-0.0947140194
-0.1883086281
-0.0276703436
0.0286760977
0.0932994142
0.0294013327
0.1161312688
-0.0540966772
-0.0496945620
0.1141656600
-0.0045037544
0.0123426940
0.0439984999
0.0924640774
0.2369050043
-0.0714397823
-0.2462270153
-0.0421804945
-0.0154315023
0.1421044371
0.0597337987
0.1537304775
-0.0248155174
-0.1365734457
0.1583820734
0.0127141776
0.0318365630
0.0068613799
0.0470188755
0.1450423377
-0.0867174374
-0.1268630970
-0.0071443054
-0.0076974202
0.1050231250
-0.0422059673
-0.0063222134
0.0014597821
-0.0532147834
0.0849338109
0.0337127381
0.0432050202
0.0112324107
0.0697508590
0.1891175262
-0.1273410935
-0.1705139619
-0.0039172737
-0.0173830411
0.1515389045
-0.0952607763
-0.0653158035
0.0069056222
-0.0818786595
0.1235243834
0.0361125230
0.0375317567
0.0182848777
0.0648891903
0.1792330968
-0.1122969780
-0.1722021370
-0.0101427586
-0.0197777948
0.1428208238
-0.0768846617
-0.0321489190
0.0062381063
-0.0841028666
0.1191732257
0.0247855391
0.0348261381
0.0114683879
0.0644941073
0.1681212757
-0.0969701523
-0.1683135664
-0.0138455756
-0.0138341731
0.1212386767
-0.0471440857
-0.0041305487
0.0005569551
-0.0746883978
0.1141983686
0.0454206875
0.0197696671
0.0330383946
0.0557934433
0.1646799444
-0.0975146609
-0.1505891713
-0.0150832784
-0.0278146331
0.1286833119
-0.0425606513
0.0252024300
0.0156691270
-0.0850242191
0.1105621486
0.0898500814
0.0160078286
0.0450328326
0.0244212510
0.1002442058
-0.0991535239
-0.0765541445
0.0068004466
-0.0388721703
0.1162507601
-0.1080046639
-0.0440571120
0.0483442946
-0.0576619577
0.0744979104
0.0523345056
-0.0001086737
0.0161486034
-0.0025127994
0.0307826483
-0.0445743874
-0.0142705078
0.0143006861
-0.0171567692
0.0329151416
-0.0651741380
-0.0181181551
0.0300300068
-0.0012016719
0.0105948218
-0.0173382948
-0.0078300580
-0.0221947080
-0.0281427802
-0.0349613378
0.0098151440
0.0529201917
0.0112139031
0.0161661492
-0.0429738626
-0.0126156756
0.0176405760
0.0001394078
0.0578726851
-0.0502646596
-0.0290986856
0.0010521725
-0.0305461476
-0.0192760539
-0.0098664040
-0.0048089740
0.0316716882
0.0080683915
0.0182642958
-0.0261649221
-0.0077618368
0.0260987435
-0.0045777704
0.0530450078
-0.0369525061
-0.0305481861
0.0020863288
-0.0266401193
-0.0096874724
0.0077250502
-0.0081560657
0.0051620282
0.0029836109
0.0132744980
-0.0163166703
-0.0007036984
0.0216362453
-0.0103945275
0.0377628760
-0.0204332568
-0.0251507911
0.0131787375
-0.0262596978
0.0024088960
0.0389675139
-0.0310889441
-0.0184272432
0.0061984434
0.0149266402
0.0105360726
-0.0247351134
0.0040924302
-0.0114850505
0.0303741256
0.0035487357
0.0034817607
0.0031622204
0.0049176043
0.0104380921
0.0545458685
-0.0252321268
-0.0396139336
-0.0056624679
-0.0045938040
0.0371790942
-0.0135309277
0.0320578871
0.0012582744
-0.0130344815
0.0214450886
0.0284011061
0.0061631005
0.0217635964
0.0224144819
0.0826108921
-0.0437781828
-0.0710449345
-0.0063897347
-0.0172383744
0.0729256255
-0.0390481609
0.0120888715
0.0105737866
-0.0427290658
0.0518259739
0.0307193622
0.0273246688
0.0279702123
0.0601196806
0.1541846863
-0.0727439252
-0.1457914740
-0.0175081791
-0.0208405870
0.1176662697
-0.0366374852
0.0279841056
0.0025081291
-0.0861311171
0.1066300858
-0.0397896521
0.0498696925
-0.0156746439
0.1046038711
0.2613238721
-0.1115995698
-0.2438372495
-0.0330268421
0.0087727854
0.1514992467
0.0168600062
0.0804349176
-0.0496800747
-0.1003455481
0.1652928010
-0.0337526224
0.0207670395
-0.0254258585
0.0410907755
0.1159573544
-0.0545803366
-0.0965968240
-0.0134549480
0.0167462588
0.0476514300
0.0016073188
0.0468435637
-0.0308509553
-0.0150663202
0.0554297298
0.0061339780
0.0118443554
0.0047620641
0.0315264965
0.0875516909
-0.0398425037
-0.0874393961
-0.0124483942
-0.0062251982
0.0522361362
-0.0076552018
0.0439654956
-0.0070543801
-0.0320926487
0.0514706198
0.0030410784
0.0188792768
0.0036470857
0.0305184482
0.0868795763
-0.0454109877
-0.0893408647
-0.0064298624
-0.0041835316
0.0620721654
-0.0279892509
0.0068316079
-0.0018167135
-0.0284175709
0.0489387136
0.0269997873
0.0133404461
0.0071766238
0.0229218300
0.0762484152
-0.0431874335
-0.0753867524
-0.0038742326
-0.0098847084
0.0599966724
-0.0439498961
-0.0058077265
0.0138678339
-0.0235716594
0.0428205535
0.0291683975
0.0204437818
0.0154487817
0.0434755680
0.1169226906
-0.0693372252
-0.1124466588
-0.0073129740
-0.0180930821
0.0943882223
-0.0538020805
-0.0208853139
0.0073859004
-0.0539744737
0.0726971312
0.0185785673
0.0060721863
0.0087776688
0.0116080299
0.0499443843
-0.0375852530
-0.0413750274
-0.0026607669
-0.0078741526
0.0401474432
-0.0430256266
-0.0120433982
0.0108314121
-0.0136804051
0.0221297526
0.0325412188
0.0048502970
0.0048339199
-0.0014214498
0.0270543913
-0.0392702593
-0.0117489890
0.0061533673
-0.0093429056
0.0338214809
-0.0601069514
-0.0354803313
0.0182170236
-0.0013087404
0.0103926359
0.0236899526
0.0173125218
-0.0088078324
-0.0000752627
0.0342377912
-0.0585647044
-0.0057116620
0.0144462875
0.0024122846
0.0374339688
-0.0845965979
-0.0794894039
0.0177270170
0.0163061163
0.0048289962
-0.0211332295
0.0472166467
-0.0504176516
0.0122010544
0.0762837554
-0.0914006556
-0.0223016423
0.0193336028
0.0252536662
0.0405198693
-0.0960881627
-0.1028763457
-0.0147987358
0.0408004133
0.0119088841
-0.0207031524
0.0361948653
-0.0439999659
0.0106482576
0.0513577551
-0.0631436041
-0.0100406988
0.0131786813
0.0243727170
0.0149950915
-0.0623967450
-0.0565479513
-0.0130265343
0.0397465291
0.0050757540
-0.0097517419
0.0078141110
-0.0174449683
0.0050997624
0.0389230721
-0.0348331733
-0.0095740988
0.0029004219
0.0104623764
0.0068907397
-0.0346179290
-0.0150769816
-0.0101722971
0.0167478233
0.0011261710
-0.0925438223
0.0239558998
-0.0736115846
0.0184903100
0.0803602638
-0.0499523844
-0.0286038785
-0.0029345329
0.0436246135
-0.0019174602
0.0013499837
0.0005177355
-0.0522474737
0.0568994174
-0.0021366655
-0.0495617317
0.0128050483
-0.0425680579
0.0046261356
0.0450064415
-0.0272087489
-0.0200172806
0.0005599235
0.0225934084
0.0005891788
-0.0125955447
-0.0076564164
-0.0241518790
0.0354759769
-0.0066520951
-0.0257966691
0.0056468025
-0.0073470945
0.0249872861
0.0775378439
-0.0210211250
-0.0741112970
-0.0113437931
0.0031995427
0.0322465690
0.0102408510
0.0418006305
-0.0161885741
-0.0143794460
0.0327369890
-0.0081032301
0.0082841335
0.0081714657
0.0318036196
0.0880566835
-0.0313789661
-0.0942408244
-0.0144064074
-0.0050245214
0.0510238526
-0.0001973492
0.0398802651
-0.0081531173
-0.0337704338
0.0477930414
0.0089061640
0.0136456244
0.0025725937
0.0202072997
0.0652267015
-0.0406097563
-0.0574170277
-0.0025034900
-0.0063652769
0.0471195335
-0.0382008122
-0.0013624927
0.0012314885
-0.0133501035
0.0345009156
0.0166365585
0.0296632892
0.0066866947
0.0271219373
0.0826802871
-0.0560945453
-0.0806074954
-0.0010262965
-0.0119965462
0.0747287170
-0.0535712180
-0.0207140007
0.0087278833
-0.0318316837
0.0480084870
-0.0059667466
0.0141268315
-0.0123581612
0.0080400919
0.0370770121
-0.0335074998
-0.0283216787
0.0080489796
0.0034714534
0.0218512991
-0.0388830123
-0.0287583955
0.0018384860
0.0090572022
0.0116014245
-0.0310741639
0.0132007465
-0.0203270380
0.0251857709
0.0632487679
-0.0325572816
-0.0455201529
-0.0037245370
0.0112709260
0.0223422997
-0.0128163917
0.0000792042
-0.0187415444
0.0065612087
0.0198127969
0.0132302348
0.0362275654
-0.0077478797
0.0413808546
0.1251140124
-0.0895231414
-0.1007170509
0.0045662168
-0.0031593043
0.0989777591
-0.0774232434
-0.0661963457
-0.0001788406
-0.0307466162
0.0731265393
0.0240405728
-0.0088697787
0.0145878288
-0.0184397210
-0.0228932104
0.0046146624
0.0234270579
0.0056668584
-0.0119990635
-0.0016264294
-0.0383596420
-0.0074840360
0.0255631120
0.0104755545
-0.0193449785
0.0191726309
-0.0085538918
0.0231684253
-0.0051332675
0.0080868769
-0.0067641361
-0.0099099503
0.0000075729
-0.0137052168
0.0157430157
-0.0309448681
0.0029295659
0.0197879531
-0.0071970230
0.0022264780
-0.0537721865
-0.0046814535
-0.0427526510
-0.0295587998
-0.0426606207
0.0085798243
0.0637413615
0.0125655352
0.0238669605
-0.0647450596
-0.0015462284
-0.0107826323
-0.0135684417
0.0773562365
-0.0645399195
-0.0159459205
0.0119969573
-0.0113239355
0.0124938093
0.0597796055
-0.0448070926
-0.0347772501
0.0005108649
0.0019609166
0.0364577991
-0.0414529214
-0.0423179265
-0.0038516169
0.0029680777
0.0183358901
0.0181693688
0.0109761185
0.0072034912
0.0117914133
0.0621990926
-0.0509391294
-0.0374629600
0.0000392115
-0.0081173227
0.0511614146
-0.0601803123
-0.0464338224
0.0069943702
-0.0153299077
0.0297609603
0.0160668837
-0.0099361337
0.0043626944
-0.0195569389
-0.0265019322
-0.0023682681
0.0408278336
0.0054096333
-0.0057961182
-0.0156543167
-0.0420968014
-0.0422244754
0.0157245723
0.0264227673
-0.0325806865
0.0028327619
-0.0180518408
0.0000919959
-0.0333073273
-0.0567135026
0.0220957574
0.0694954520
0.0074127067
-0.0023765736
-0.0489305036
-0.0257371087
-0.0322051226
0.0120435373
0.0415947829
-0.0471652786
0.0078669250
-0.0062420609
-0.0007241718
-0.0115178973
-0.0071338280
0.0001477368
0.0143634803
0.0021359220
-0.0030712534
-0.0091304383
-0.0260829398
-0.0196999304
0.0084609520
0.0174442079
-0.0164515291
-0.0191366799
0.0082971251
-0.0273902163
0.0025127630
0.0377937956
-0.0270818877
-0.0121754969
0.0009646210
0.0153893540
-0.0060330666
-0.0293680300
-0.0124645796
-0.0159939873
0.0267840823
-0.0058767127
-0.0550344705
-0.0042621212
-0.0449264493
-0.0233376005
-0.0246785523
0.0110918287
0.0441678028
0.0069021494
0.0307809670
-0.0593621724
0.0071997071
0.0088096627
-0.0228489376
0.0736664885
-0.0518222462
-0.0484455374
-0.0133233405
-0.0417875397
-0.0421873740
-0.0706798224
0.0356573316
0.0862467033
0.0081985804
0.0261901395
-0.0884376519
0.0142079012
0.0112714963
-0.0157794035
0.0959529553
-0.0811472611
-0.0461261282
-0.0051242872
-0.0431291253
-0.0399643294
-0.0684931912
0.0242018328
0.0785572204
0.0157297949
0.0257510848
-0.0764325458
-0.0158565064
-0.0348002902
-0.0104253114
0.0943396929
-0.0795482787
-0.0089164392
-0.0063718859
-0.0128563248
-0.0240944003
-0.0377858215
0.0094630766
0.0431709933
0.0145919574
0.0036379860
-0.0354842411
-0.0240430480
-0.0276884386
0.0114234261
0.0467239118
-0.0455417520
-0.0001246687
-0.0025028387
0.0085802588
0.0123735260
0.0430992195
-0.0167503074
-0.0408481540
-0.0081285404
-0.0084340176
0.0304997433
-0.0062051009
0.0321931249
0.0045064756
-0.0176687800
0.0186836739
-0.0125056432
0.0062400285
-0.0196042414
-0.0197488444
-0.0135784658
-0.0025321180
0.0287949206
0.0101262891
0.0086566213
-0.0183985437
-0.0306107137
-0.0269241149
0.0069430844
0.0424764029
-0.0285031204
0.0071395684
0.0151369212
-0.0093805667
0.0134207031
0.0518879264
-0.0550934021
-0.0285359544
0.0071660201
-0.0016411874
0.0473441103
-0.0660601664
-0.0665301226
0.0067323152
0.0048799213
0.0159482408
-0.0133344252
0.0201849182
-0.0235310817
0.0060128252
0.0522674789
-0.0552949974
-0.0222677008
0.0126661637
0.0116982064
0.0337274245
-0.0656484680
-0.0655625806
-0.0033812066
0.0197968705
0.0080963534
-0.0408579946
-0.0251701246
-0.0409809049
-0.0629539121
-0.1233924004
0.0585678827
0.1364484758
0.0146125800
0.0266122064
-0.1237143103
0.0073280377
0.0040836050
-0.0059161280
0.1114451630
-0.1142304844
-0.0362747074
-0.0196748298
-0.0338637892
-0.0566644604
-0.1092234446
0.0450908124
0.1233634536
0.0179907053
0.0201952545
-0.1025889466
-0.0077780912
-0.0167830942
-0.0022656564
0.0983533809
-0.0949467762
-0.0317014788
0.0168902494
-0.0336833943
-0.0041010455
0.0272459714
-0.0404736471
0.0124144268
0.0123692571
0.0209955896
-0.0016169660
-0.0471390776
-0.0563804248
-0.0114523069
0.0460468127
-0.0161555386
-0.0229865060
0.0156764387
-0.0204639563
0.0175610419
0.0582119164
-0.0384459507
-0.0291204042
-0.0045142120
0.0092532444
0.0270836327
-0.0178386241
-0.0136212475
-0.0145550594
0.0033265728
0.0204396717
0.0095249157
0.0180756785
0.0075117325
0.0532413544
0.1248196146
-0.0674705320
-0.1065439001
-0.0170903445
-0.0111747516
0.0908995910
-0.0295074901
-0.0195528893
-0.0069152916
-0.0612983480
0.0830497232
-0.0401052739
0.0029260582
-0.0369310660
-0.0191835158
-0.0213498348
-0.0025693335
0.0398521175
0.0113045640
0.0183990171
-0.0367856457
-0.0273751017
-0.0401422307
-0.0107875922
0.0605097381
-0.0423403932
-0.0234065478
-0.0078758305
-0.0325235687
-0.0374653444
-0.0487854827
0.0029740633
0.0740205145
0.0133969906
0.0175472445
-0.0597861094
-0.0295547896
-0.0478600475
-0.0015386518
0.0786509742
-0.0678031330
-0.0527657868
0.0053518436
-0.0423045322
0.0013425067
0.0142776872
-0.0140401105
0.0035510660
0.0026308535
0.0244285226
-0.0241797871
0.0006874727
-0.0063197088
-0.0226832081
0.0500598073
-0.0242719306
-0.0223508214
-0.0038775073
-0.0429613442
-0.0490523653
-0.0771991068
0.0164493574
0.0987829338
0.0232394137
0.0277288468
-0.0818912430
-0.0354887685
-0.0509281717
-0.0026642104
0.0998780218
-0.0903990958
-0.0138272544
0.0015527859
-0.0229292563
-0.0180250047
-0.0199366074
-0.0129687614
0.0394349090
0.0102295181
0.0089201088
-0.0251897319
-0.0383874971
-0.0345564542
0.0020880027
0.0530054163
-0.0382480862
-0.0564781666
0.0076588817
-0.0484738405
-0.0228454567
-0.0117247593
-0.0131697927
0.0447332399
0.0084438238
0.0312617657
-0.0502219987
-0.0151248805
-0.0482522964
-0.0230399650
0.0753247428
-0.0497496119
-0.1346693724
0.0127062486
-0.1029593700
-0.0137504659
-0.0118994873
0.0025831457
0.0446807185
0.0064951047
0.0664393226
-0.0977917761
0.0412859835
-0.0037253308
-0.0641272350
0.1202681505
-0.0714037822
-0.1233899496
-0.0127542988
-0.0940513147
-0.0524590158
-0.0937243705
0.0566926761
0.1120937134
0.0100549513
0.0603518842
-0.1500557952
0.0546194761
0.0105159758
-0.0496024928
0.1516458346
-0.1222764106
-0.0889044932
0.0033799284
-0.0576766556
-0.0051590900
0.0130136783
0.0115578693
-0.0062043434
0.0001514086
0.0388136264
-0.0493504846
0.0419354555
0.0323738489
-0.0405841814
0.0621018453
-0.0284266149
-0.0415994693
0.0206826497
-0.0237178310
0.0353196855
0.1153020127
-0.0560091967
-0.0977289729
-0.0113359309
0.0090443228
0.0577065938
-0.0087095081
0.0029235164
-0.0236481163
-0.0161485411
0.0507937375
-0.0150102070
0.0214708933
-0.0340861158
0.0017582322
0.0392814664
-0.0566822488
-0.0043540485
0.0188690066
0.0123579382
0.0213702475
-0.0764045136
-0.0864158263
-0.0033645716
0.0368216044
-0.0063453035
-0.0500676690
0.0273811592
-0.0602088444
-0.0051963625
0.0233885246
-0.0477186817
0.0070631799
0.0170306440
0.0302217075
-0.0079601313
-0.0549622661
-0.0709480231
-0.0205085703
0.0668407171
-0.0220362990
-0.0837473079
-0.0073211667
-0.0680076603
-0.0515105258
-0.0952510567
0.0538131092
0.1084011573
0.0180423784
0.0520933450
-0.1265587900
0.0183024653
0.0073271027
-0.0273820580
0.1328112308
-0.1099528881
-0.1065914756
0.0335895766
-0.0954662330
0.0050316750
0.0472800402
-0.0467068247
-0.0111548270
0.0117086375
0.0536187924
-0.0236415654
-0.0273175962
-0.0588578447
-0.0508942443
0.0881812704
-0.0230805040
-0.0430864100
0.0182934557
-0.0359118634
0.0109859480
0.0484591922
-0.0357744518
-0.0368056463
0.0044026287
0.0166428361
0.0123154595
-0.0215782819
-0.0158491179
-0.0180381221
0.0280742394
0.0070793211
-0.0198841039
0.0105520629
-0.0403564239
-0.0192934629
-0.0091986135
-0.0322639181
0.0317662353
0.0219624454
0.0169498810
-0.0246470984
-0.0565282968
-0.0600503620
-0.0009167473
0.0665314187
-0.0367989699
-0.0491532979
-0.0107489405
-0.0717624825
-0.0782947253
-0.1496682481
0.0459947406
0.1783198981
0.0338351335
0.0409545408
-0.1616077145
-0.0260881197
-0.0306836122
-0.0070659010
0.1661755364
-0.1486980818
-0.0237424096
-0.0061052326
-0.0438666697
-0.0518575928
-0.0870433479
0.0164919485
0.1086750864
0.0266121485
0.0246096249
-0.0908561874
-0.0304963477
-0.0266008161
0.0046769492
0.1058515271
-0.0917267738
-0.0239522639
-0.0163121401
-0.0322297805
-0.0423476003
-0.0792781246
0.0241668198
0.0963240015
0.0152534610
0.0178709135
-0.0869901700
-0.0133273375
-0.0334339155
0.0016633047
0.0912845527
-0.0851319885
-0.0208800973
-0.0053960247
-0.0274542793
-0.0335766194
-0.0482651416
0.0100268677
0.0623784269
0.0129485884
0.0153766906
-0.0542745291
-0.0228377679
-0.0251710771
-0.0016382109
0.0682808202
-0.0616387810
-0.0327852202
-0.0085364657
-0.0500412646
-0.0625033091
-0.1102277660
0.0322286076
0.1324113759
0.0279203059
0.0262949071
-0.1098553540
-0.0372856146
-0.0409643358
0.0036186372
0.1258506318
-0.1137376494
-0.0261707634
-0.0095788526
-0.0436105346
-0.0620565965
-0.1104507986
0.0292064697
0.1269865494
0.0349291648
0.0223945121
-0.0956367860
-0.0407590150
-0.0424948664
0.0106913350
0.1157743696
-0.1076767522
-0.0196597312
0.0013038198
-0.0281521476
-0.0276444933
-0.0323208683
-0.0009780891
0.0450514071
0.0160920865
0.0137825177
-0.0398387856
-0.0298720705
-0.0478486353
-0.0017544123
0.0638801446
-0.0474657843
-0.0227323993
-0.0058559274
-0.0271168512
-0.0332770638
-0.0513212872
0.0178768971
0.0605407832
0.0150641295
0.0117982194
-0.0500276175
-0.0253705006
-0.0312436348
0.0031613476
0.0658007694
-0.0589740969
-0.0309497252
0.0102540262
-0.0479471776
-0.0337932377
-0.0430259809
-0.0108468070
0.0667695403
0.0282413622
0.0255898952
-0.0482035773
-0.0473139040
-0.0553111688
-0.0042816821
0.0912423509
-0.0653769348
-0.0412585720
0.0083020764
-0.0566680934
-0.0418663227
-0.0567359855
-0.0031955712
0.0813339697
0.0250746687
0.0306573924
-0.0694221944
-0.0419070007
-0.0666467986
-0.0076675887
0.1066776712
-0.0732599998
-0.0288315674
-0.0160664546
-0.0307453499
-0.0498626520
-0.0905938267
0.0405696350
0.0860830915
0.0163431705
0.0172772847
-0.0877640857
0.0020547553
-0.0369079351
-0.0000341840
0.0906442841
-0.0887574919
-0.0309964699
-0.0021363992
-0.0426397141
-0.0471990180
-0.0691416203
0.0152844623
0.0806770001
0.0244366573
0.0187601025
-0.0754250374
-0.0341628136
-0.0776152390
0.0040398973
0.0985467486
-0.0803607865
-0.0124242042
-0.0046019863
-0.0260783521
-0.0391197547
-0.0565500518
0.0037742187
0.0723103203
0.0225207200
0.0108145758
-0.0502659606
-0.0476340169
-0.0564789901
0.0091955176
0.0744771152
-0.0628785074
0.0052667023
-0.0108600361
-0.0221945424
-0.0571803708
-0.0969749598
0.0138431991
0.1114305921
0.0304620906
0.0090154046
-0.0711207086
-0.0661172255
-0.0563889347
0.0235706571
0.0930909630
-0.0896398624
0.0117115824
-0.0064034074
-0.0168934542
-0.0460960321
-0.0745396026
0.0022616208
0.0899031443
0.0266791696
0.0068872397
-0.0521884941
-0.0717235391
-0.0590001065
0.0278484933
0.0727918959
-0.0681769477
0.0187845417
0.0097460648
-0.0066773957
-0.0363231026
-0.0451935910
-0.0159803830
0.0666985183
0.0373450471
0.0009437968
-0.0250975688
-0.0832059100
-0.0665805201
0.0232611271
0.0611450781
-0.0507081379
0.0507923380
0.0191128633
-0.0047065893
-0.0236936784
-0.0119871794
-0.0474037040
0.0378460678
0.0298533365
-0.0073638460
0.0105646218
-0.1131777127
-0.0964721678
0.0345948371
0.0419946392
-0.0247302505
0.0353651516
0.0142907088
-0.0050100989
-0.0168727640
0.0051223554
-0.0558444472
0.0319820360
0.0247352506
-0.0071581157
0.0199073919
-0.1058197413
-0.0860111821
0.0285295868
0.0337164106
-0.0131805430
0.0238096327
0.0042662778
0.0018308180
-0.0154013801
-0.0040356651
-0.0290981562
0.0182700992
0.0162311005
-0.0055787355
0.0123584536
-0.0696296829
-0.0549400882
0.0229801007
0.0269400542
-0.0083194108
0.0402762989
0.0012027641
0.0045019743
-0.0257372560
-0.0238741865
-0.0303256267
0.0416582349
0.0190382864
-0.0110866669
0.0023742058
-0.0842653328
-0.0709876603
0.0320236547
0.0311288523
-0.0278045318
0.0275405990
0.0048309725
0.0008779350
-0.0258939807
-0.0229679223
-0.0197722789
0.0432266845
0.0188432730
-0.0051214746
-0.0060045270
-0.0743263947
-0.0672295436
0.0254905944
0.0360402699
-0.0298765065
0.0225940786
0.0016468006
0.0000622880
-0.0274497324
-0.0345060070
-0.0137836453
0.0493249201
0.0189283648
-0.0042738442
-0.0097565944
-0.0689907059
-0.0646274921
0.0234858923
0.0403235784
-0.0378302533
0.0056903575
0.0038548420
-0.0142197674
-0.0271602472
-0.0320473207
-0.0173056137
0.0509356117
0.0217147887
0.0024885455
-0.0184473070
-0.0630658216
-0.0611195537
0.0188598573
0.0481823894
-0.0391313874
-0.0013545555
0.0078484747
-0.0152620408
-0.0237794084
-0.0339749844
-0.0034222911
0.0525264815
0.0182130592
0.0032604503
-0.0220805921
-0.0559774265
-0.0582217837
0.0137341206
0.0488035905
-0.0425898537
0.0012894293
-0.0068059463
-0.0192455053
-0.0491681787
-0.0947746251
0.0194961057
0.1085293451
0.0238625431
0.0079025940
-0.0673723424
-0.0488538246
-0.0517582863
0.0192471677
0.0852022993
-0.0828436095
0.0016308365
-0.0113695452
-0.0146775776
-0.0623844023
-0.1249842974
0.0319168922
0.1310136533
0.0255540479
0.0047299554
-0.0942261050
-0.0502282187
-0.0416729963
0.0276553436
0.0973823667
-0.1044208955
0.0225115668
-0.0006268150
0.0058987140
-0.0148302879
-0.0174079844
-0.0157083858
0.0256125250
0.0109991001
-0.0090261719
-0.0019448191
-0.0580163727
-0.0444939775
0.0217626512
0.0228922978
-0.0212870674
0.0341323988
-0.0013434813
0.0099871541
-0.0146401559
-0.0078000312
-0.0159971113
0.0227447920
0.0150613564
-0.0129630679
0.0125826058
-0.0667244653
-0.0525442382
0.0291567267
0.0112409137
-0.0112449777
0.0218452757
-0.0028881065
0.0004726382
-0.0239659375
-0.0286026093
-0.0122881056
0.0411319152
0.0159968046
-0.0067221171
-0.0079104898
-0.0559899267
-0.0647000269
0.0265106895
0.0324860881
-0.0314083670
0.0276085203
0.0015993058
0.0013299755
-0.0246149404
-0.0288318870
-0.0137920575
0.0409956997
0.0176966134
-0.0083602078
-0.0045204610
-0.0693395688
-0.0615868379
0.0283393163
0.0310141147
-0.0312425591
0.0354441663
-0.0036938521
0.0189169863
-0.0184734126
-0.0167658427
-0.0154713576
0.0267046279
0.0145542235
-0.0143508684
0.0101783644
-0.0657192679
-0.0465691621
0.0287606683
0.0146470557
-0.0188651610
0.0387953277
0.0004376084
0.0168234749
-0.0103877241
0.0075027942
-0.0269600723
0.0070869616
0.0128510483
-0.0175109568
0.0245677035
-0.0665621938
-0.0460800986
0.0302971628
0.0032452672
-0.0005227236
0.0178386071
0.0037409921
-0.0028050007
-0.0191731738
-0.0134389541
-0.0209934612
0.0350567901
0.0158322106
-0.0036148101
0.0005911925
-0.0680205558
-0.0562095465
0.0205839825
0.0259206146
-0.0230940591
0.0290358197
0.0057607450
0.0060980617
-0.0106765256
-0.0001402073
-0.0266723599
0.0231520317
0.0186237999
-0.0077888170
0.0137754367
-0.0735581576
-0.0619557606
0.0241655654
0.0137924397
-0.0083557387
0.0545087712
-0.0030822806
0.0207006397
-0.0198454778
-0.0141514967
-0.0254255666
0.0318431511
0.0231574290
-0.0190766476
0.0186124920
-0.0811107119
-0.0583742372
0.0371628780
0.0077429533
-0.0101559089
0.0494854375
-0.0050014229
0.0197861032
-0.0184191421
-0.0171789987
-0.0205310758
0.0356535413
0.0115749627
-0.0195023860
0.0147149850
-0.0713395936
-0.0516276508
0.0331792816
0.0067113473
-0.0138377133
0.0739586321
-0.0056737722
0.0360642313
-0.0131066573
-0.0100365940
-0.0260571866
0.0303437027
0.0133538916
-0.0291510573
0.0326641241
-0.0790612258
-0.0583096888
0.0464918975
-0.0154372262
-0.0000202955
0.0639170589
-0.0004323541
0.0287962820
-0.0156588703
-0.0131062080
-0.0264395080
0.0299338860
0.0137612036
-0.0240204410
0.0254495034
-0.0820802084
-0.0656622438
0.0399703225
0.0004813363
-0.0089723921
0.0424563400
0.0016462186
0.0104808535
-0.0177931253
-0.0096226728
-0.0219895168
0.0279771855
0.0188582927
-0.0142101758
0.0137750800
-0.0759420474
-0.0610392136
0.0307137139
0.0156693171
-0.0165960906
0.0433960421
-0.0024083657
0.0178191614
-0.0101909766
0.0018693931
-0.0223711067
0.0183092246
0.0082819124
-0.0185962884
0.0248780288
-0.0662299850
-0.0521574407
0.0286680003
0.0008383763
-0.0058223385
0.0666606280
0.0003687934
0.0330729942
-0.0092222461
0.0067693461
-0.0284510511
0.0180594441
0.0095367340
-0.0248618625
0.0379773430
-0.0772389330
-0.0623177263
0.0383412867
-0.0135182605
0.0027181846
0.0378364299
-0.0066531255
0.0182688348
-0.0217237161
-0.0252676943
-0.0078763122
0.0440800651
0.0096562443
-0.0120159130
-0.0056758757
-0.0672915709
-0.0483377636
0.0311192380
0.0191728940
-0.0284664992
0.0614121137
-0.0035555931
0.0312420602
-0.0064415276
-0.0017128336
-0.0168358243
0.0232280108
0.0062299362
-0.0239964155
0.0279643269
-0.0793008424
-0.0661422923
0.0369084403
-0.0161120556
0.0026827959
0.0734739263
-0.0004737047
0.0348201382
-0.0050844169
0.0119323753
-0.0320261451
0.0068100068
0.0089221048
-0.0267211329
0.0499163876
-0.0922809086
-0.0724486410
0.0414886300
-0.0211227882
0.0106768027
0.0532049352
-0.0055902140
0.0205242197
-0.0192046019
-0.0296352399
-0.0115362873
0.0385149216
0.0154889292
-0.0195683619
0.0062276391
-0.0790086497
-0.0635985027
0.0349836494
0.0104665874
-0.0218949258
0.0466978970
-0.0069658259
0.0162026233
-0.0259667128
-0.0428167879
-0.0024714749
0.0525911761
0.0189000005
-0.0139703242
-0.0050767646
-0.0669883122
-0.0586745656
0.0318772651
0.0198106165
-0.0312233232
0.0705696920
-0.0082941444
0.0320525223
-0.0207350098
-0.0323197653
-0.0095338375
0.0568253562
0.0112562652
-0.0240931751
0.0137249084
-0.0707985300
-0.0617665217
0.0411992357
-0.0044499795
-0.0101729103
0.0537733846
-0.0028174280
0.0200476491
-0.0265481270
-0.0469519774
0.0024178827
0.0654302348
0.0143931395
-0.0176649337
-0.0058767323
-0.0623834008
-0.0589835173
0.0323671361
0.0217072239
-0.0338073159
0.0448476204
-0.0018216908
0.0103621800
-0.0239869208
-0.0234609416
-0.0140701136
0.0404571212
0.0168850925
-0.0130198197
0.0000489605
-0.0733254365
-0.0577136835
0.0335508994
0.0271417322
-0.0218782124
0.0422926392
-0.0019607565
0.0087747536
-0.0243175885
-0.0312638211
-0.0124675066
0.0454827251
0.0155702530
-0.0131363205
-0.0023882410
-0.0707787948
-0.0628628512
0.0307651959
0.0249995822
-0.0256370597
0.0545553135
0.0033387817
0.0208826481
-0.0102692894
0.0095653154
-0.0326201754
0.0093496318
0.0140402462
-0.0201959713
0.0301669677
-0.0780810140
-0.0696713729
0.0329909389
-0.0036917505
-0.0001727767
0.0604716611
-0.0076629053
0.0242997853
-0.0203920503
-0.0312833060
-0.0128857216
0.0450164783
0.0130843276
-0.0229549417
0.0119830546
-0.0707545846
-0.0587854455
0.0403596633
0.0105183070
-0.0202851400
0.0450371960
-0.0059886266
0.0163593826
-0.0226994845
-0.0230201430
-0.0121725036
0.0404825574
0.0113705258
-0.0171480129
0.0050589681
-0.0698508275
-0.0554833968
0.0310835627
0.0153214236
-0.0204705223
0.0453192782
-0.0124672851
0.0196537593
-0.0273615081
-0.0405821456
0.0007194509
0.0522296506
0.0107531616
-0.0173514003
-0.0075712825
-0.0591869638
-0.0457936869
0.0299782364
0.0201557544
-0.0315940101
0.0766643134
-0.0148698837
0.0361160845
-0.0249586480
-0.0384238825
-0.0058904294
0.0557765967
0.0096181249
-0.0245354699
0.0098490029
-0.0695276252
-0.0631823172
0.0450160260
-0.0058003843
-0.0204372223
0.0529845913
-0.0083501637
0.0183575740
-0.0280931642
-0.0424944115
-0.0026691672
0.0582654572
0.0139869149
-0.0176467463
-0.0028910549
-0.0680317967
-0.0571094928
0.0372261131
0.0168922107
-0.0324070642
0.0423203936
-0.0044509958
0.0127422167
-0.0188553574
-0.0334205919
-0.0062451565
0.0551618475
0.0139339180
-0.0127651157
-0.0010639950
-0.0663947670
-0.0570660744
0.0283529690
0.0203744987
-0.0297258988
0.0480645602
-0.0097255602
0.0156472010
-0.0248958192
-0.0481059014
0.0043540811
0.0577537943
0.0145901721
-0.0125574862
-0.0097894367
-0.0571596718
-0.0460996090
0.0299912321
0.0194206169
-0.0268905593
0.0215291751
-0.0056088106
-0.0071048294
-0.0396266758
-0.0558572871
-0.0012894701
0.0871071540
0.0181572208
0.0022056420
-0.0314259614
-0.0608423644
-0.0628185417
0.0198973903
0.0534656437
-0.0582724010
0.0191850202
-0.0150585665
-0.0007659904
-0.0393885861
-0.0814199755
0.0157996251
0.0983503526
0.0181703962
-0.0034854424
-0.0535788695
-0.0520142597
-0.0417742254
0.0241284089
0.0568755016
-0.0660160356
0.0393809080
-0.0087433067
0.0104089107
-0.0267938674
-0.0470838087
0.0021284625
0.0644411744
0.0189058983
-0.0106428890
-0.0123192245
-0.0575871959
-0.0517252153
0.0260401493
0.0235117171
-0.0370959014
0.0255232949
-0.0230312635
0.0081817446
-0.0460014174
-0.0859897673
0.0357160279
0.1057875810
0.0111702360
-0.0053435121
-0.0633466844
-0.0429903192
-0.0357744114
0.0259623809
0.0506816258
-0.0715510362
0.0159112879
-0.0322047634
-0.0002290306
-0.0547671756
-0.1298966601
0.0561300404
0.1368686673
0.0174116882
0.0015624334
-0.0986202147
-0.0374245593
-0.0289787190
0.0221700643
0.0765739104
-0.1031152906
0.0386234933
-0.0238734433
0.0081426251
-0.0502777361
-0.1035292112
0.0333791764
0.1128318272
0.0170213989
-0.0044483226
-0.0659693646
-0.0545327888
-0.0506673342
0.0301849499
0.0557721258
-0.0772177894
0.0314551944
-0.0184614825
-0.0030599696
-0.0586727202
-0.1097685470
0.0287772694
0.1188216090
0.0240190443
-0.0014295968
-0.0688996526
-0.0610548276
-0.0689063688
0.0316316583
0.0720127137
-0.0861606727
-0.0073858417
-0.0224881159
-0.0245878897
-0.0687562596
-0.1417027323
0.0568260402
0.1517282469
0.0223575630
0.0143385687
-0.1130758677
-0.0230664725
-0.0415620852
0.0170272399
0.1070968632
-0.1211016680
-0.0103913151
-0.0209320380
-0.0201964601
-0.0545133392
-0.1039979267
0.0450965127
0.1167992454
0.0171189725
0.0099508008
-0.0885200368
-0.0257454099
-0.0405468186
0.0118514111
0.0857995161
-0.0974009100
0.0109522525
-0.0297491132
-0.0092537769
-0.0718094435
-0.1435726454
0.0602823654
0.1498265939
0.0236422109
0.0072743815
-0.1115862005
-0.0331909490
-0.0367119027
0.0236151662
0.0989192171
-0.1128458330
0.0298304218
-0.0237335302
0.0051016885
-0.0582145504
-0.1175437602
0.0457136293
0.1196912119
0.0222650326
-0.0047048007
-0.0775867671
-0.0444250483
-0.0370588125
0.0351686165
0.0705199655
-0.0894237537
0.0450125033
-0.0078466965
0.0177244713
-0.0209646091
-0.0231342012
-0.0085964237
0.0371215693
0.0120565097
-0.0152306305
0.0000354370
-0.0644410675
-0.0497028234
0.0278618136
0.0109766428
-0.0229375587
0.0202819359
-0.0131776469
-0.0038090542
-0.0392181526
-0.0666751390
0.0132644963
0.0802490607
0.0250143777
-0.0017855534
-0.0429597692
-0.0549160539
-0.0427855079
0.0265969012
0.0541391725
-0.0615082518
0.0590436420
-0.0291685905
0.0330759816
-0.0367436287
-0.0790059351
0.0292475696
0.0878037580
0.0040869738
-0.0240549648
-0.0349809381
-0.0412601302
-0.0369301386
0.0413721641
0.0131057404
-0.0477678535
0.0664308257
-0.0449970446
0.0406378338
-0.0564702367
-0.1267351680
0.0646078892
0.1333523830
0.0026206731
-0.0253503989
-0.0725991325
-0.0244296106
-0.0235725224
0.0395550400
0.0251902234
-0.0778654288
0.0413965621
-0.0338748537
0.0208856756
-0.0573784916
-0.1156538118
0.0529561770
0.1256901534
0.0149115143
-0.0131137775
-0.0721069589
-0.0390854876
-0.0365775204
0.0336601662
0.0466953848
-0.0847571391
0.0567358406
-0.0164877197
0.0250113693
-0.0278642207
-0.0593034961
0.0117952214
0.0673869888
0.0100216305
-0.0213849468
-0.0108000958
-0.0564633315
-0.0416629586
0.0355784953
0.0141496962
-0.0374222366
0.0271600062
-0.0043485905
0.0026315626
-0.0244445922
-0.0364629869
-0.0046337527
0.0546158224
0.0161683176
-0.0057623652
-0.0118819669
-0.0683935511
-0.0547809703
0.0234910014
0.0373603476
-0.0387502065
0.0222732957
-0.0003741058
0.0027382949
-0.0241429589
-0.0159224410
-0.0194864643
0.0423473962
0.0212134023
-0.0038349362
-0.0019529718
-0.0707770226
-0.0652249318
0.0236621140
0.0315927857
-0.0313326981
0.0261409764
-0.0162081547
0.0109243805
-0.0341409349
-0.0503692328
0.0113008367
0.0749669737
0.0133446379
-0.0105314813
-0.0150116070
-0.0470727557
-0.0388378524
0.0246182429
0.0311189073
-0.0485658197
0.0311940153
-0.0065747845
0.0144844185
-0.0124497270
0.0131400543
-0.0195281393
0.0123848674
0.0032637138
-0.0134661887
0.0139321298
-0.0633231724
-0.0561657284
0.0212629374
0.0032531696
-0.0120453415
0.0168983790
-0.0020658868
-0.0115786990
-0.0336444431
-0.0421262921
-0.0054796437
0.0605337849
0.0182249004
0.0000785851
-0.0255964168
-0.0694565861
-0.0673754630
0.0209469633
0.0525107678
-0.0509640026
0.0068772758
-0.0109563311
-0.0136058933
-0.0398736136
-0.0704191495
0.0221202402
0.0921565209
0.0204982461
0.0046771373
-0.0573640560
-0.0455806707
-0.0505588979
0.0197037740
0.0678664194
-0.0730385081
0.0411809266
-0.0231705279
0.0071054952
-0.0529012630
-0.1081195211
0.0389541267
0.1083382567
0.0202883471
-0.0061043922
-0.0627012364
-0.0472822270
-0.0450776542
0.0308851027
0.0567981117
-0.0786392636
0.0011386849
-0.0479249211
-0.0045582408
-0.0816462030
-0.1836962017
0.1075039246
0.1796885846
0.0122591704
0.0063979598
-0.1500988957
-0.0095190568
0.0054660278
0.0228477853
0.0975440990
-0.1372243160
-0.0294895942
-0.0441678210
-0.0114737758
-0.0628051584
-0.1440067085
0.0950335434
0.1425019302
0.0040342140
0.0164142232
-0.1396351669
0.0036581848
0.0205743738
0.0017128155
0.0912125330
-0.1145933089
0.0130694569
-0.0180708042
-0.0013286400
-0.0452078356
-0.0797282478
0.0323584604
0.0846194139
0.0153855345
-0.0002524094
-0.0585409654
-0.0368105683
-0.0325652978
0.0185333905
0.0606869155
-0.0701356339
0.0143980274
-0.0170031987
-0.0010735446
-0.0456810430
-0.0848600231
0.0364934846
0.0976148596
0.0148880896
0.0002124928
-0.0635609929
-0.0360179596
-0.0389953818
0.0211515144
0.0611794207
-0.0765911837
0.0235144452
-0.0124020210
0.0059905694
-0.0286028138
-0.0480901796
0.0170852820
0.0558427239
0.0079305852
-0.0031792518
-0.0322381686
-0.0463108256
-0.0272324816
0.0184126994
0.0314611991
-0.0428205677
0.0165992616
-0.0192716558
-0.0044021708
-0.0553292642
-0.1243565786
0.0536754095
0.1272688798
0.0206336736
0.0002452745
-0.0887015082
-0.0322640072
-0.0254758323
0.0239380373
0.0771007215
-0.0977902359
0.0256706364
-0.0294520766
-0.0027863452
-0.0690038962
-0.1484407179
0.0698329405
0.1433744134
0.0199670590
0.0047456967
-0.1072845740
-0.0292119521
-0.0288591748
0.0256573964
0.0835510734
-0.1111634255
0.0719795890
-0.0092664819
0.0421972610
-0.0019391763
0.0005985217
-0.0032836241
0.0035094398
0.0015729297
-0.0293460671
0.0308613658
-0.0592304709
-0.0459033636
0.0343958766
-0.0287947903
0.0092469448
0.0435009386
-0.0142625608
0.0191884124
-0.0316455433
-0.0533044760
0.0225357698
0.0611473967
0.0104428751
-0.0164891824
-0.0225993998
-0.0507151563
-0.0455189524
0.0376669868
0.0181767352
-0.0365248161
0.0232233281
-0.0207565856
0.0091076405
-0.0448580684
-0.0896620204
0.0348648910
0.0913000143
0.0143770536
-0.0063777089
-0.0529807364
-0.0424237690
-0.0287837658
0.0268293860
0.0500171506
-0.0662310074
0.0082166999
-0.0386143742
-0.0064351518
-0.0724440099
-0.1737173324
0.0935965101
0.1636140723
0.0195603502
0.0025691211
-0.1298211478
-0.0091853588
-0.0026979770
0.0229905482
0.0998066794
-0.1264645444
-0.0112891740
-0.0540708349
-0.0206500560
-0.1074019926
-0.2502499007
0.1392506615
0.2306338999
0.0278911719
0.0142482908
-0.2002836999
0.0185277691
0.0160829598
0.0222188987
0.1503263216
-0.1794700597
0.0194063464
-0.0176840309
-0.0030962768
-0.0500974314
-0.1012698802
0.0390976064
0.0991375735
0.0172642836
-0.0001424888
-0.0676937480
-0.0389106305
-0.0307067387
0.0215871380
0.0640009237
-0.0785798448
0.0349258787
-0.0068319412
0.0131820366
-0.0234039739
-0.0303882113
-0.0007864866
0.0425212920
0.0117950606
-0.0119010175
-0.0010029892
-0.0575906744
-0.0423836286
0.0259348162
0.0194271349
-0.0269084480
0.0140370047
-0.0111348056
-0.0030747409
-0.0409438637
-0.0680423154
0.0206796575
0.0765546818
0.0155812532
-0.0008775786
-0.0472992461
-0.0417239687
-0.0293466678
0.0212287927
0.0523567212
-0.0630437354
0.0081834385
-0.0234367388
-0.0046684252
-0.0568792986
-0.1093658212
0.0438103244
0.1118917345
0.0187198523
-0.0001978840
-0.0795867361
-0.0413637309
-0.0385469953
0.0231330268
0.0708918372
-0.0891785335
0.0108060168
-0.0308455752
-0.0077908700
-0.0794173424
-0.1677560279
0.0762001090
0.1673276648
0.0243135126
0.0027135352
-0.1214867398
-0.0326913561
-0.0358909223
0.0262936202
0.1007976685
-0.1264167121
0.0346814465
-0.0422868061
-0.0017383015
-0.0869990536
-0.2019369446
0.0999512397
0.1905595752
0.0263079138
0.0091657343
-0.1427008428
-0.0178709132
-0.0239397872
0.0331440392
0.1060333859
-0.1440420291
0.0237939404
-0.0329313840
-0.0038986866
-0.0808321405
-0.1819441790
0.0868958122
0.1619241464
0.0270238407
0.0007810515
-0.1284649487
-0.0258242252
-0.0149122090
0.0328115654
0.1040757969
-0.1300715998
0.0364360384
-0.0141213672
0.0076541986
-0.0365781162
-0.0776840839
0.0183733810
0.0755802460
0.0172370229
-0.0089991025
-0.0365367379
-0.0550468037
-0.0454924290
0.0325233940
0.0467262126
-0.0599193979
0.0390207991
-0.0211963918
0.0229235170
-0.0285037119
-0.0580824717
0.0289542410
0.0435523061
0.0060812945
-0.0176547208
-0.0274728778
-0.0367878324
-0.0167284020
0.0290042670
0.0178287228
-0.0361042276
0.0180827964
-0.0242216481
0.0123506970
-0.0445356730
-0.0926871373
0.0465644521
0.0842699719
0.0118015482
-0.0082324284
-0.0564233275
-0.0367487838
-0.0237987734
0.0235513104
0.0495479239
-0.0703375292
0.0130855356
-0.0236345463
-0.0010877050
-0.0517697433
-0.1087664238
0.0490535090
0.1013927466
0.0155334639
-0.0018739127
-0.0755333856
-0.0311594316
-0.0314177485
0.0224909345
0.0633742773
-0.0813832577
0.0081338731
-0.0241884241
-0.0030616560
-0.0561791090
-0.1174827110
0.0522492858
0.1101978199
0.0186987669
-0.0003898861
-0.0785964940
-0.0295526053
-0.0254005388
0.0230349038
0.0711721320
-0.0904936860
0.0353554183
-0.0218224221
0.0148769864
-0.0464759195
-0.1056691287
0.0429746006
0.0917934522
0.0232404390
-0.0130483988
-0.0537449761
-0.0473059604
-0.0353404881
0.0352870229
0.0497747791
-0.0699443747
0.0148204186
-0.0448716328
0.0131971412
-0.0831307853
-0.2043232859
0.1214426218
0.1638937263
0.0202214950
-0.0029899465
-0.1450800629
0.0078210452
0.0190180752
0.0303064177
0.0939413167
-0.1361495285
0.0344011615
-0.0353933584
0.0193659566
-0.0593536257
-0.1375330931
0.0744135839
0.1247507927
0.0143319654
-0.0133238126
-0.0863210932
-0.0125656405
-0.0042755614
0.0365348453
0.0586518396
-0.0903575374
0.0381849906
-0.0335351831
0.0196858844
-0.0588158922
-0.1330320512
0.0716224248
0.1182144010
0.0156348757
-0.0130157214
-0.0841786717
-0.0228700432
0.0074714858
0.0324993915
0.0534195956
-0.0893390312
0.0486985311
-0.0221091709
0.0238919390
-0.0357785708
-0.0768223449
0.0336758401
0.0675834046
0.0082774877
-0.0173786167
-0.0329109598
-0.0371708248
-0.0219890743
0.0312522584
0.0245135508
-0.0481372312
0.0403760885
-0.0192209475
0.0094478457
-0.0483894804
-0.0986626273
0.0335279807
0.0996426465
0.0177669669
-0.0116921305
-0.0538122011
-0.0487589318
-0.0424007253
0.0322499976
0.0498135516
-0.0714603741
0.0146326238
-0.0335463312
-0.0041071370
-0.0733265794
-0.1627674386
0.0764547546
0.1585229878
0.0227795255
0.0041702206
-0.1145418144
-0.0241220900
-0.0264988959
0.0263335523
0.0919598986
-0.1222096004
0.0217736975
-0.0066769872
0.0064482816
-0.0384046989
-0.0792783587
0.0326631812
0.0796859757
0.0134960771
-0.0082672127
-0.0461725648
-0.0414900160
-0.0318912330
0.0259676269
0.0428849783
-0.0615537889
0.0322617006
0.0011429863
0.0084799549
-0.0274670203
-0.0420973126
0.0019687874
0.0525321142
0.0132220934
-0.0108879518
-0.0166346703
-0.0593993573
-0.0458833889
0.0289835457
0.0297850101
-0.0406010811
0.0501913247
-0.0113276780
0.0143437727
-0.0289303197
-0.0533529892
0.0066941443
0.0548632553
0.0169157540
-0.0136846117
-0.0168396249
-0.0639797740
-0.0456517194
0.0329253663
0.0285317522
-0.0383932047
0.0535078458
-0.0071755853
0.0223541821
-0.0325942671
-0.0548435517
0.0115205276
0.0518995949
0.0155755332
-0.0201311622
-0.0129884450
-0.0668431979
-0.0370958406
0.0405777507
0.0207698129
-0.0374774059
0.0205139997
-0.0128045636
0.0042925495
-0.0348810821
-0.0694239149
0.0282576144
0.0646410990
0.0120515938
-0.0080282348
-0.0402870509
-0.0388750524
-0.0191403375
0.0221351681
0.0377154645
-0.0522583329
-0.0019454495
-0.0278178838
-0.0028877273
-0.0503462471
-0.1176727056
0.0629049240
0.1134134048
0.0142931824
0.0008923282
-0.0905838557
-0.0118732980
-0.0000180033
0.0185774277
0.0678724321
-0.0904939267
0.0106584494
-0.0247176767
0.0093526807
-0.0311502458
-0.0668494632
0.0436592198
0.0560462348
0.0014290466
-0.0076445389
-0.0503279554
-0.0002134250
0.0127333111
0.0182850301
0.0274181483
-0.0429388701
0.0094143838
-0.0270058679
0.0081158222
-0.0330388747
-0.0680061309
0.0523562171
0.0550054139
0.0007962660
-0.0065862298
-0.0513276980
0.0034646179
0.0215549989
0.0157198824
0.0325712409
-0.0491245389
0.0083805822
-0.0144853666
-0.0014136879
-0.0393591591
-0.0741351672
0.0319585124
0.0720238983
0.0122158219
-0.0030470034
-0.0474042589
-0.0311198555
-0.0263634735
0.0183996473
0.0521152879
-0.0586608796
-0.0200404552
-0.0093514328
0.0007050743
-0.0074713718
-0.0070313530
0.0188092869
0.0067914835
-0.0031214504
-0.0016620439
-0.0138069829
-0.0158302959
0.0012942156
0.0002533352
0.0088793087
-0.0142468587
0.0017449939
-0.0242067396
0.0102975790
-0.0284707660
-0.0597588633
0.0425102777
0.0560987528
0.0042462739
-0.0074435012
-0.0437265007
-0.0149150362
0.0025749380
0.0127667718
0.0271341788
-0.0413658411
0.0205233655
-0.0233392429
0.0068309780
-0.0424023292
-0.0999965823
0.0432785540
0.0966368257
0.0171462315
-0.0026762787
-0.0633263949
-0.0386109963
-0.0268697868
0.0290744453
0.0509967606
-0.0727617147
0.0413071419
-0.0278740007
0.0393086358
-0.0153619695
-0.0514956061
0.0470476644
0.0374716965
-0.0049715969
-0.0236791046
-0.0192556721
-0.0173152801
0.0024342937
0.0296776584
-0.0126573962
-0.0212696980
0.0379414807
-0.0188732595
0.0326299088
-0.0140331230
-0.0348075774
0.0275922119
0.0348238582
-0.0033210416
-0.0218581291
-0.0055788641
-0.0272621359
-0.0132058117
0.0258455110
-0.0121609301
-0.0082191157
0.0261776551
-0.0176725137
0.0145340152
-0.0274069764
-0.0701798070
0.0333337509
0.0756315431
0.0063816429
-0.0139223544
-0.0327443218
-0.0321206010
-0.0204869534
0.0214996714
0.0171917532
-0.0376334126
0.0078023211
-0.0380236667
-0.0031543295
-0.0697004807
-0.1669253089
0.0874754503
0.1725307996
0.0203829061
0.0015409642
-0.1223157118
-0.0133815342
-0.0212215236
0.0217796667
0.0905236797
-0.1190558665
0.0045627291
-0.0101075448
-0.0079092743
-0.0369042720
-0.0690361390
0.0240757439
0.0826424469
0.0142615940
-0.0002658513
-0.0463816565
-0.0419644768
-0.0414262989
0.0160831710
0.0489758555
-0.0586050429
0.0239296513
-0.0098340442
0.0145289011
-0.0263401602
-0.0407045855
0.0153684093
0.0598093709
0.0099027441
-0.0112986367
-0.0182633887
-0.0530628647
-0.0506166205
0.0238648620
0.0212250116
-0.0354804289
0.0435527037
0.0053799013
0.0108363214
-0.0077440107
0.0047485308
-0.0304851974
0.0193588413
0.0116810770
-0.0143306294
0.0305531717
-0.0818788699
-0.0786289630
0.0269553378
-0.0021175919
-0.0003573660
0.0572192977
-0.0052738279
0.0217925643
-0.0128530766
-0.0284022263
-0.0013770516
0.0461030918
0.0089749957
-0.0200879926
0.0049597278
-0.0677147929
-0.0607490700
0.0339986948
-0.0016379276
-0.0139847755
0.0699748103
-0.0132142187
0.0443608696
-0.0083406295
-0.0213221013
0.0122403378
0.0264159508
0.0043216101
-0.0294548142
0.0111811248
-0.0520171394
-0.0348607213
0.0348252621
-0.0246868187
0.0025478764
0.0565350664
-0.0111110665
0.0351685420
-0.0097196310
-0.0104375709
0.0013281093
0.0181641102
0.0025490480
-0.0255490248
0.0165438867
-0.0443833003
-0.0285543194
0.0293870628
-0.0224260260
-0.0012578998
0.0105722636
-0.0075288966
0.0030179487
-0.0169119738
-0.0227948905
0.0080636498
0.0351029913
0.0054411717
-0.0023968473
-0.0124609525
-0.0425147103
-0.0290141001
0.0133082820
0.0163586440
-0.0253216083
-0.0327769747
0.0034785797
-0.0278841735
-0.0187120518
-0.0237755042
0.0025886274
0.0364392011
0.0101605305
0.0127265041
-0.0263167441
-0.0379311272
-0.0354850642
-0.0018213245
0.0498908408
-0.0393760053
-0.0510389941
0.0124977362
-0.0577702093
-0.0246066123
-0.0366650886
-0.0099184683
0.0653713028
0.0207735223
0.0356851012
-0.0478703147
-0.0363230053
-0.0436793259
-0.0136183478
0.0888109292
-0.0604879765
-0.0627944389
0.0090545958
-0.0636531096
-0.0377896522
-0.0753135904
0.0232100068
0.0962295490
0.0210863523
0.0401944985
-0.0907541024
-0.0157237613
-0.0315821272
-0.0233243972
0.1133640015
-0.0818953129
-0.0506447585
0.0107022151
-0.0590794281
-0.0348546941
-0.0662589426
0.0125559070
0.0932503998
0.0217828178
0.0332159882
-0.0688105259
-0.0378001380
-0.0516001832
-0.0096161347
0.1009365008
-0.0741296383
-0.0246522798
0.0148454808
-0.0333011306
-0.0173408701
-0.0430762818
0.0051024386
0.0636057246
0.0177311330
0.0172391773
-0.0364952806
-0.0519765759
-0.0554731567
-0.0018770186
0.0549622953
-0.0369589880
-0.0126325739
-0.0068636249
-0.0080247464
-0.0150619212
-0.0465543415
0.0317740809
0.0458721383
0.0030870805
0.0053485977
-0.0410016431
-0.0192565035
-0.0172779794
0.0029649337
0.0326173402
-0.0319137738
0.0054132409
-0.0019315024
-0.0025268752
-0.0079034644
-0.0089286403
0.0004179663
0.0155810697
0.0030197794
-0.0027872642
-0.0073193233
-0.0376133093
-0.0322260127
0.0065937334
0.0112606903
-0.0145632749
-0.0107474396
-0.0250524103
-0.0070650427
-0.0410249308
-0.0944474091
0.0650019524
0.1058565389
0.0049666831
0.0073160214
-0.0814697585
-0.0085375939
-0.0051105435
0.0046317743
0.0524207670
-0.0713829053
-0.0245627162
-0.0352115544
-0.0330631828
-0.0800238100
-0.1885725753
0.1022827147
0.1956341964
0.0229413953
0.0210682937
-0.1535508129
0.0050476915
-0.0052137765
0.0043781949
0.1235337363
-0.1419960726
0.0707924277
-0.0284591926
0.0404032576
-0.0198107585
-0.0765414088
0.0476112862
0.0795336742
-0.0031755182
-0.0273774094
-0.0318397053
-0.0168260196
-0.0053397337
0.0298391141
-0.0116592800
-0.0265573342
0.0731666837
0.0030982522
0.0324618593
0.0051056054
-0.0000844539
-0.0173605178
0.0248220347
0.0006206886
-0.0182308825
0.0283876583
-0.0489308369
-0.0434446260
0.0236642721
-0.0273555207
0.0181210096
0.0026094713
-0.0023438378
-0.0288779724
-0.0417178461
-0.0797712007
0.0154072141
0.1078300481
0.0229723389
0.0130268981
-0.0637720572
-0.0433301035
-0.0568187272
0.0082881947
0.0766088765
-0.0734868558
-0.0510334262
-0.0319835607
-0.0591887184
-0.1180365286
-0.2717134659
0.1399051928
0.2781516399
0.0351812485
0.0382616894
-0.2374532872
0.0154111157
-0.0080996690
0.0025317060
0.1957358250
-0.2138446970
0.0149540399
-0.0362110080
-0.0058216695
-0.0663545303
-0.1821117716
0.0916032498
0.1844828222
0.0190346610
0.0078736072
-0.1388601967
-0.0063838040
-0.0126048642
0.0191486877
0.0972444280
-0.1295459148
0.0537094472
-0.0283795923
0.0117214259
-0.0596294053
-0.1552759884
0.0614060006
0.1737214676
0.0154542744
-0.0071877516
-0.0892583906
-0.0285794142
-0.0352100788
0.0336877510
0.0642460159
-0.0973171164
0.0245401571
-0.0020893328
-0.0058736897
-0.0273560129
-0.0587431830
-0.0010231092
0.0865339766
0.0156724085
-0.0010905471
-0.0262402084
-0.0549261236
-0.0630089435
0.0169127312
0.0430736108
-0.0462661218
0.0128504889
0.0001927644
-0.0100704330
-0.0128174364
-0.0180314635
-0.0044827074
0.0473452266
0.0107024419
0.0029048517
-0.0120785045
-0.0386684352
-0.0493221576
0.0101197269
0.0325350314
-0.0252574693
-0.0348109350
-0.0072497873
-0.0510045484
-0.0487254175
-0.0976070798
0.0315523226
0.1241961039
0.0195764324
0.0297529341
-0.0982816139
-0.0113983456
-0.0289948312
-0.0088203732
0.1143654892
-0.1009757902
-0.0159292898
0.0045969168
-0.0352642425
-0.0327014310
-0.0505072534
-0.0047821346
0.0797227998
0.0196539383
0.0192424144
-0.0459138325
-0.0420159953
-0.0537181602
0.0067623449
0.0715572308
-0.0598696339
0.0196027651
0.0074157841
-0.0145350482
-0.0196483331
-0.0153239142
-0.0269547807
0.0703139516
0.0163855263
0.0032859873
-0.0042368191
-0.0672328351
-0.0908534173
0.0122128460
0.0323327831
-0.0281815858
0.0593468577
0.0171065002
0.0034204365
0.0101021961
0.0375710001
-0.0573556325
0.0285706634
0.0110477052
-0.0082600766
0.0545297898
-0.0784956806
-0.1078078113
0.0192457310
-0.0114481851
0.0211464496
0.0725036195
-0.0016167123
0.0166796621
-0.0112427494
-0.0281350040
-0.0173027606
0.0686025492
0.0169061050
-0.0176319853
0.0074132048
-0.0690972759
-0.0827769818
0.0322310249
0.0058652589
-0.0191153670
0.0896380893
-0.0173393527
0.0397324845
-0.0195019106
-0.0558673837
0.0083468939
0.0758914693
0.0080205924
-0.0283086292
-0.0013282835
-0.0586772398
-0.0567576219
0.0421448682
-0.0074540837
-0.0175380391
0.1281780086
-0.0284869372
0.0793755249
-0.0027389936
-0.0409507937
0.0153388146
0.0511093823
-0.0093324745
-0.0535205684
0.0299859764
-0.0447144495
-0.0337832861
0.0500160732
-0.0667301955
0.0152965297
0.0443629104
-0.0111136604
0.0093708206
-0.0253370130
-0.0569572235
0.0089430387
0.0785290720
0.0123888450
-0.0093017969
-0.0252310494
-0.0541035444
-0.0544900107
0.0232922273
0.0285994954
-0.0430420417
0.0492163250
-0.0104371735
0.0117856079
-0.0271551073
-0.0557292596
0.0041923499
0.0727440245
0.0128238638
-0.0116745073
-0.0172969147
-0.0596374055
-0.0541404501
0.0262807898
0.0265929688
-0.0376806305
0.0597591088
-0.0087075148
0.0279489143
-0.0133447658
-0.0284877443
-0.0065399917
0.0415212420
0.0076540850
-0.0222349779
0.0082605176
-0.0599486798
-0.0503158013
0.0300999045
-0.0029127237
-0.0089802642
0.0369606632
-0.0037069902
0.0082472366
-0.0284537482
-0.0451016510
-0.0030095033
0.0624298127
0.0139388727
-0.0099567867
-0.0155716299
-0.0631825718
-0.0505321627
0.0282256030
0.0364333142
-0.0388105144
0.0329044844
0.0000208662
0.0037209732
-0.0285001766
-0.0455297856
-0.0004443591
0.0609751992
0.0179696922
-0.0029141575
-0.0144810072
-0.0676513544
-0.0579485182
0.0281720187
0.0360458308
-0.0436727293
0.0289743065
-0.0063630973
0.0047370991
-0.0337479436
-0.0507496700
0.0029879275
0.0634326624
0.0165994543
-0.0012295158
-0.0201178661
-0.0645304097
-0.0522392957
0.0293791823
0.0428906108
-0.0389461255
0.0353956154
-0.0036446322
0.0064019821
-0.0279649062
-0.0421508238
-0.0062579211
0.0531277861
0.0158338911
-0.0097078306
-0.0087803717
-0.0687931895
-0.0572697729
0.0280667024
0.0310949652
-0.0350606866
0.0403590492
0.0014843399
0.0111119994
-0.0244604520
-0.0333070616
-0.0124099396
0.0438362458
0.0183365785
-0.0124818475
0.0027228055
-0.0721418368
-0.0617186013
0.0282593283
0.0254735482
-0.0289864846
0.0311132340
-0.0037547957
0.0013594466
-0.0287765751
-0.0426999539
-0.0085869548
0.0558945469
0.0181108186
-0.0067424411
-0.0144020437
-0.0706028005
-0.0601764635
0.0258280040
