200,1,15,8,0.100000,0.100000,1024,Rectangle,50,20
-0.8137998011
-0.0381305515
-0.2388424569
0.0409867328
1.0064703686
-0.1767380156
-0.6241633244
-0.0420595094
0.1408272432
-0.0420542321
-0.1560066765
0.0128497104
0.0470316344
-0.5220889902
-0.0036284930
0.0809191754
0.0380585940
-0.0003147072
-0.0482563275
-0.0618689272
-0.0378525591
0.0316757878
0.0734251663
-0.0255534532
-0.0515691113
0.0473210719
-0.0708540427
-0.0517931943
0.0498948325
-0.0404370095
0.0787612318
0.0312240339
0.0059602601
-0.0415915986
-0.0626574163
-0.0236246815
0.0273405087
0.0669915206
-0.0227632937
-0.0443586469
0.0414760974
-0.0679561512
-0.0442841226
0.0452897238
-0.0385635917
0.0842502751
0.0290571856
0.0097427253
-0.0403617062
-0.0629973713
-0.0193324303
0.0294163173
0.0653106656
-0.0200425671
-0.0475907679
0.0420209690
-0.0647243599
-0.0404054686
0.0441217684
-0.0358501817
0.0749007688
0.0287564447
0.0097459665
-0.0367646865
-0.0604623891
-0.0171545916
0.0200034152
0.0649406260
-0.0171186040
-0.0450652081
0.0432897752
-0.0690187530
-0.0393249695
0.0484375939
-0.0353048309
0.0979557171
0.0347996814
0.0108258430
-0.0426049635
-0.0693161600
-0.0103291268
0.0502650822
0.0633484464
-0.0189201897
-0.0490345261
0.0445233269
-0.0516413940
-0.0466639848
0.0433428268
-0.0327216988
0.0729803837
0.0312740271
0.0097307640
-0.0375796654
-0.0572755523
-0.0158038892
0.0253144636
0.0640848357
-0.0190112298
-0.0455230150
0.0444005085
-0.0676730787
-0.0403534824
0.0440789035
-0.0341270581
0.0756216024
0.0266432449
0.0122210242
-0.0372177668
-0.0631630673
-0.0136597780
0.0232570700
0.0691224957
-0.0200744244
-0.0458053077
0.0406190911
-0.0675762035
-0.0401581853
0.0424525444
-0.0321374833
0.0733546693
0.0260735201
0.0128270094
-0.0360894195
-0.0619087951
-0.0160688391
0.0222905340
0.0663455591
-0.0170565620
-0.0434981108
0.0414262488
-0.0673989319
-0.0354652423
0.0465762948
-0.0337123630
0.0775909751
0.0290552178
0.0119582757
-0.0363087649
-0.0643076940
-0.0155330198
0.0239773496
0.0654938546
-0.0215183868
-0.0452032362
0.0408666140
-0.0660777269
-0.0397822317
0.0442459035
-0.0340210018
0.0737178286
0.0269018306
0.0124926282
-0.0355473272
-0.0643620988
-0.0164046931
0.0306725968
0.0661206394
-0.0204497318
-0.0444820557
0.0382993265
-0.0698266289
-0.0386673759
0.0438974763
-0.0348806513
0.0808533494
0.0314182633
0.0060105102
-0.0405341878
-0.0785494577
-0.0139937061
0.0261979716
0.0700407036
-0.0203794423
-0.0466782308
0.0419506677
-0.0749576737
-0.0451358896
0.0574656222
-0.0443822899
0.0852772178
0.0316215400
0.0078247779
-0.0393802432
-0.0785203063
-0.0062965777
0.0349676449
0.0649873950
-0.0189148314
-0.0445712439
0.0419041071
-0.0603842011
-0.0428593866
0.0459813083
-0.0373704261
0.1464962563
0.0359213905
-0.0072620183
-0.0533856618
-0.1610148066
-0.0333402282
0.0961686041
0.0535938501
-0.0220698725
-0.0487185294
0.0621132208
-0.0237957417
-0.0603263880
0.0483398325
-0.0699044481
0.1359395941
0.0241232308
-0.0167350090
-0.0392240207
-0.1703665068
-0.0592871642
0.1193860399
0.0217441434
-0.0114300605
-0.0213851072
0.0478134639
0.0372516654
-0.0484483530
0.0265981213
-0.0793125100
0.2176436382
0.0474885312
0.0875481544
-0.0526044220
-0.0892375708
0.0825830896
0.1795955969
-0.0009190352
-0.0595294344
-0.0226349720
0.1279523668
0.0607560995
-0.0467610868
-0.1400460338
0.0952469190
0.3671669189
0.0077719071
0.1083959087
-0.0118612065
0.0156400064
0.1798510353
0.4331843717
-0.2181759705
-0.0400270966
0.0763060714
0.1596631106
0.4852136355
-0.0127982780
-0.4728070291
0.2700808441
0.4750796984
-0.0112756883
-0.1748074520
0.0082330901
-0.6663773654
-0.5409445749
0.6510213882
-0.4801797114
0.0415491196
0.1760588463
0.1635484056
0.4299984719
-0.0168506382
-0.5156555277
-0.3021293723
1.1093696193
0.2667664554
-0.2747152329
-0.3469069824
-2.0920365552
-0.8744395745
1.2810063642
-0.0702514304
-0.2586758751
-0.1202527843
0.6640030895
0.4209649082
-0.4095129840
0.2301105174
-1.2285071301
0.4248146929
0.1434284994
-0.3638031530
-0.2122007149
-0.9899673311
-0.5507005807
0.4994583018
0.1361951771
-0.0248986020
-0.1424394269
0.0241242779
-0.2993514400
-0.2766741487
0.5237222767
-0.7692399105
0.2232082986
0.0682248593
0.1012824473
-0.0749273408
-0.3275381000
0.0640221847
0.1728131701
0.0650391402
-0.1126808985
-0.0493938268
0.1698179736
0.0700205211
-0.0670970664
0.0595442082
0.0013524412
0.0738076689
0.0322834471
-0.0476093733
-0.0510550469
-0.1053918991
-0.0320789428
0.0124703895
0.0839304028
0.0012975941
-0.0615163608
-0.0168482000
-0.0433098126
-0.0595265743
0.1209055949
-0.0755116374
0.1966709769
0.0660720664
0.0027279738
-0.0817463473
-0.2026955210
-0.0593553968
0.1530539606
0.0754962055
-0.0637042317
-0.0623847127
0.1306320302
0.0670688840
-0.0910844046
0.0569272658
-0.1081529107
0.0963949494
0.0405043249
-0.0211149231
-0.0482937312
-0.0640914744
-0.1097630142
0.1010483029
0.0015396531
-0.0417501706
-0.0201611722
0.0865581208
0.1636705198
-0.0474724059
-0.0852576321
-0.0624192008
0.0883692812
0.0453718267
-0.0782786902
-0.0690341026
-0.0740893840
-0.0915739874
0.0441750833
0.1104391421
-0.0004887133
-0.0795554194
-0.0041314534
-0.1437530870
-0.0826953046
0.1229225507
-0.0962873286
0.0618536441
0.0217772995
-0.0847349371
-0.0409317286
-0.0993276457
-0.0645795608
0.0481557700
0.0795069915
0.0233412984
-0.0493745013
-0.0502458928
-0.1467038406
-0.0599948783
0.1446877680
-0.1163626128
0.0808395442
-0.0015551412
-0.1446084032
-0.0135541968
-0.2047991510
-0.2239191070
0.1178246813
-0.0238565085
0.0452141921
0.0083822511
-0.0617171913
-0.0044081187
-0.0347982868
0.0732517208
-0.1712946158
-0.0200057071
-0.0235761501
-0.0625230525
0.0191671303
-0.0983358788
-0.0824243371
-0.0338412204
0.0191232701
0.0477532551
0.0088213892
-0.1021494180
-0.1571534786
0.0054536573
0.1044661723
-0.0075857539
0.1729116860
0.0558816031
0.0289683657
-0.0814764141
-0.2188601135
0.1110737565
0.0934428459
0.1768611958
-0.0303819637
-0.0951325790
0.0192716710
-0.2329488036
-0.1019882740
0.1866030935
-0.0199517019
-0.4168464723
-0.1324593146
0.5856814155
0.2371120873
1.1945912405
0.9112825522
-0.4247953200
-0.3900011720
-0.1038891390
0.2484053837
0.1897464935
0.3876366891
0.3725262460
-1.2897097735
1.1569469231
1.0847152938
0.4019363824
0.9674635175
-0.4649290566
-0.2486189358
1.5195735042
0.5794668949
0.5601675905
-0.6380750883
-0.4385481123
1.0294657671
-0.1971730301
-0.3759106457
-0.3998815226
0.9564347367
0.3780601655
0.1434865122
0.8574723059
-0.1091009595
0.4762710140
1.2977171422
0.1437198916
-0.0270806808
-0.4191862276
-0.0550935203
0.6935424422
0.1871344395
0.0222443318
-0.9844421749
1.2068574923
-0.2032749891
-0.0694519726
0.0649844138
0.0628197128
0.7560611395
0.5059428829
-0.2627688548
0.0610222807
0.1462044678
0.0023528669
-0.4449904007
-0.7486632209
0.0584906014
-0.0538614413
0.6457797861
-0.2262751381
-0.0291305422
0.5503022669
0.0741413717
0.8494898769
1.0147778882
-0.4822516238
-0.0011493827
-0.0819485509
0.0057905179
0.0822300254
-0.4377994490
0.1653043970
-0.5214802790
1.0867013747
-0.1057041422
-0.0530035788
0.1415292602
0.0884896613
0.2468642030
0.2547996574
-0.1031662971
-0.1300957913
-0.0096513710
0.0941720591
-0.0358004354
0.0618848749
0.1238509833
-0.2908847291
0.2827086862
0.6632834773
0.1928015689
0.2467948751
-0.2279485928
-0.6556138117
0.3187293590
0.5622523283
0.1218549874
-0.3013954534
-0.1465230628
0.5489942216
0.5422669014
-0.2105867376
-0.0659871661
-0.1111979840
0.0813064649
0.0424366808
0.0892111242
-0.0947847901
-0.3164385526
0.8502394044
-0.0986496384
0.3740187781
-0.0115919357
-0.1811169242
-0.0765269913
-0.2903635880
-0.1305616046
0.4387229394
0.0819493845
0.1726162097
0.0373966574
-0.2644982538
-0.0867116582
-0.9121102964
0.5916262964
0.1889976211
0.1417477342
0.0332802757
-0.0382233238
-0.1887286272
-0.6753544890
-0.1329791751
0.8397839461
-0.3346792944
0.5879222506
0.2283834015
0.4484185825
-0.2431762474
-0.4555942517
0.8473970402
0.1415457165
0.2945132709
-0.3849696438
-0.2102242638
0.6329456172
-0.5077425741
-0.1700902250
0.1849687915
0.3154774768
0.6721109719
0.2009363881
0.3948816797
-0.2798968376
-1.7696011556
0.5466790064
0.4184739935
0.6672237224
-0.2879371956
-0.3064184773
0.3290932050
0.0064190964
-0.3156583734
1.5181651838
-0.0344027159
-0.0708732080
-0.0660992125
-0.0364855806
0.0660469619
-0.3504599560
0.3353910382
-0.0920798295
0.0440434922
0.0715801200
0.0555078139
-0.2024843708
0.2450436504
0.0499827299
0.3039193183
0.0563700741
-0.6018704045
-0.2330716874
-0.2184219193
0.2655760102
0.4431085297
0.5053054517
-0.5211289926
-0.0875495784
0.3144699847
0.1919773935
-0.6970565871
0.0861998112
0.2439717020
0.0142175647
0.1683597757
-0.0483935243
-0.0380569082
0.2330889537
0.0637377215
0.2265195605
0.7007152747
0.0378834344
-0.0601789642
-0.0670154691
0.0837706615
0.0626508217
0.6030714311
0.0908135313
-0.1615312222
0.3023218944
1.0327804316
0.3528754657
-0.4152091606
-0.5375027711
-1.7577722322
-0.5610346121
0.7581711267
0.8946348183
-0.0979617826
-0.5784305091
0.0781633116
-1.4294254633
-0.6961126004
2.1549489916
-1.2471870727
-0.2841196251
-0.0586477041
0.3031206619
0.1177659640
0.6409476879
0.5460632039
-0.1098029407
-0.0825437352
-0.0763493392
0.1306924847
-0.0806857390
0.1954999944
0.1665127152
-0.3323979636
0.5772717759
-0.0180394682
0.0248593595
0.2788032330
0.0335174934
0.3717109261
0.1845603555
0.0841016378
-0.2529063393
-0.1934444562
0.1218640590
0.3435842115
0.7766925298
0.1199134023
-0.8277627769
0.4234187019
-0.6107298414
-0.1785790506
0.2505526050
0.2783903728
1.1708781701
0.3982691259
-0.4624638207
-0.4011566937
0.0410159390
0.2897707696
-0.0840948771
0.1925362353
0.3729583648
-0.9982873559
0.7859265078
-1.1806177627
-0.3447098797
0.1987910824
0.4759636004
1.9770490897
0.4927738897
-1.0222742959
-0.4010996691
0.2553831637
0.3856217828
-0.6469200104
-0.4915318080
0.5674202521
-0.9167884753
1.1598762215
-0.5087938067
-0.0247913554
0.6203764598
0.0900684892
1.5627896486
1.1277570543
-0.6365138256
0.1278272559
-0.1438554648
-0.0096310619
0.0186178714
-0.7770466736
0.1977578941
-0.7113443335
1.3850812978
-1.0402097594
-0.2110113371
0.2825981657
0.3126168223
2.2270329856
0.5757639323
-0.9851559397
-0.3601487197
0.1384351086
0.2438418774
-0.2575269636
-0.4292980591
0.4219166319
-1.2825065304
1.4038457318
-0.6996454185
-0.0691931398
-0.2467739153
0.0993603062
0.9912573320
-0.4793397946
-0.6189251414
-0.0523663417
0.1628819281
0.0515738722
-0.4949423628
-1.2381846425
0.1181127285
-0.1487048845
0.4252788401
-0.8508080222
-0.1918860004
-0.4136335357
0.2145693737
0.9810517392
-0.5846167780
-0.8323941534
-0.0323411483
0.3806199905
0.0775409514
-0.7820785045
-1.5306148797
0.1985826611
0.3388544051
0.2075088923
-0.5046740158
0.0586396446
-0.2353886112
0.0101392002
1.2798777933
-0.8663970553
-0.2911724128
-0.5507773259
-0.1022749715
0.1625459708
0.1726967040
-0.4061467942
0.1201943692
-1.3026731183
0.4739344987
0.7699244767
0.6560970743
0.0029049045
-0.7777664092
1.2525668109
-0.6333599836
0.5110038469
0.5602770673
-0.6242844096
-0.6568638868
0.9891375937
-0.7501670844
-0.7351115713
0.1181339532
0.3727521757
-0.6059448702
-0.0189651348
-0.0876657836
0.0916380611
1.9139203462
-0.3815465199
-0.0474578916
-0.5146180102
-0.0687901874
0.2430324435
-0.0289398029
0.8530742587
0.1579357930
-0.9477945364
0.6009767664
-1.2641981745
-0.3074128592
-0.2896274920
0.3706436252
1.4611745392
0.1591224662
-0.9998839064
-0.1687604631
0.4516498154
0.2464073880
-0.8270636471
-1.4098463892
0.3505893767
-0.2677971217
0.5704321451
1.6108384773
0.6164181620
0.4827801626
-0.7371605153
-1.6361860385
0.8379383308
1.1190465439
0.5699081723
-0.7624659515
-0.5821809789
1.4570912700
-0.1746707462
-0.7134070279
0.3206399556
-0.2426492005
0.8531232630
0.2914218424
-0.2159341732
-0.4845941455
-1.9731764679
0.2738866772
0.5822938671
0.7466759484
-0.0811730841
-0.5413044707
0.3646656970
-0.9878275169
-0.6475267341
0.4511049400
-1.2540467652
-0.5322601839
-0.2270130390
0.2618143470
0.3430646640
-0.7202680311
0.1747664934
-0.2729779368
-0.3815491311
0.0264096069
0.3752339056
-0.0663179455
-0.7534214587
0.4169626083
-0.0368913850
0.1032854116
-0.5178704567
-0.1873535649
-0.3333904557
0.2391631367
0.2731472841
-0.2816186173
-0.4590176233
-0.1574703894
0.2566479391
0.2175762202
-0.3677568997
-0.3447261401
0.2285020438
-0.2970155340
-0.0893197466
-1.3245090716
-0.4703506991
-0.2851192039
0.6457718771
1.4831059107
-0.1174875657
-0.9723741370
-0.7959985448
0.4613998438
0.6637864088
-0.6561599560
-0.4617599128
0.7116487313
-1.1961227473
0.6662266101
0.7244333212
0.1704990419
-0.1086898265
-0.2229127852
-1.1344473725
-0.1132660187
0.6400424429
0.2927665670
-0.1866930661
-0.1453418786
0.3456369262
-0.7493561097
-0.2643955004
0.8039852531
-0.4853978412
0.1256918422
0.0671941877
0.1043019507
-0.0695043112
0.4438833471
0.3029852612
0.3002638793
0.1112369087
-0.1278410666
-0.0448580088
0.0902203865
-0.8260070610
-0.0633713731
0.4934596595
0.2453799923
0.4957461151
0.1311240434
-0.1119737775
-0.1729072133
-0.6481548751
-0.3956052093
0.4759569545
0.0884880665
-0.0949126472
-0.1232398122
0.1192460820
-0.3713607483
-0.2056676923
-0.0861262758
-0.5855541968
0.5401054578
0.0190600214
0.1310223895
-0.0566900671
-0.8118976887
0.0927865051
0.2694892219
0.3109755440
-0.0368473326
-0.1038476124
-0.0844846820
-0.5074234819
-0.1082618655
0.7968613734
-0.1224423619
-0.1471972567
-0.0864871668
0.5035766789
0.1692582135
0.4101576197
0.3417169217
-0.0533195139
-0.2874415081
-0.1521737032
0.2219870700
0.1181262141
0.8831561406
0.2641366444
-0.3748485674
0.7043038612
0.6475513934
0.1510794651
0.0207566239
-0.2586089029
-0.2681010377
0.2470524721
0.1205399557
0.5250552431
-0.0406771137
-0.3413573996
0.2501295715
1.2318215363
-0.3358713962
2.0040213489
-0.3303819273
0.3107275384
0.0002058238
0.2673316689
0.0259245045
-0.7093690502
0.1164754428
0.3859364591
-0.0598682033
-0.1244797866
0.0939591746
0.0743735058
-0.1435430906
0.0467852528
0.3489045288
0.1245749541
0.3829507282
-0.0040044772
0.1028232788
0.0190547002
-0.7253244603
0.0855187034
0.2540682533
0.0382351917
-0.0907213896
0.0551610614
-0.0359482197
-0.7110832201
0.0276518087
-0.1506339677
0.0725472902
-0.1826128292
-0.0790214659
0.0614825162
0.1287941105
0.4166378136
0.0669119284
-0.0309623865
-0.2016404028
0.0071711875
0.1562378802
-0.3919404418
-0.6227657252
0.1515178144
-0.1222468400
0.1129275474
-0.2083639812
-0.1726890961
-0.2148699262
0.1458183362
-0.0586277542
0.1747996968
-0.0753887540
0.2834619093
0.2675472473
0.0407073252
-0.9161196350
-1.5165645056
0.0352904080
0.9425393948
-0.2015717032
0.8796507553
0.1742952778
0.2215023082
-0.1858935538
-1.4950118379
0.0626984638
0.6780569664
0.0117401743
-0.3225609981
-0.0654875493
0.6253592974
-0.1092278117
-0.1773885719
0.1568681016
-0.5009579793
-0.1178861448
0.0905849365
0.4835530209
-0.0781052704
-0.5832547152
0.8002147410
-0.0388697882
0.1240029534
-0.2422648193
-0.0960033723
0.4522776864
-0.5925526465
-0.0287296773
0.0304593451
0.1557736886
-0.4739772446
-0.2624053074
-0.7023366392
0.3068361949
-2.0657627638
-1.6446860088
0.2494191785
-0.6467486108
0.3538045973
0.4467621529
-0.5546249950
1.4693940872
0.2421489652
-0.0493475074
-1.3000222608
0.3122411395
0.0378840768
-0.0651362573
-0.0953515848
-1.0215823138
0.0321891098
0.2244729564
0.4085080205
0.0095681789
-0.1651804285
-0.1053341529
0.1898427950
-0.1576979837
-0.0419074890
-0.2845659251
-0.4548169392
-0.2697399638
-0.8812531550
0.2418905323
0.0697243930
-1.0981290595
-0.3583019667
-0.0323184921
0.5865321318
0.1538989256
-0.9730263966
-0.2937585345
0.0847881603
0.2146391536
-0.6729303548
0.1786603806
-0.0148626296
0.5062693496
0.0885974079
0.4693570644
0.4750893938
-0.6992813253
-0.1560899751
-0.1610644686
0.0480605552
0.5247088066
0.5204674841
0.2039985727
-1.8493337319
0.5202225056
0.8538862844
0.1882900096
0.0076681600
-0.2529895472
-0.7234010667
-0.2711972015
-0.4087380931
0.5143191216
-0.0806450973
-0.3716938340
0.5115853430
-0.8702087759
-0.2686972810
-0.3442279285
-0.3843440223
-0.5214855191
-0.2965592551
-0.7329227363
0.3658753437
0.1937082811
-1.3855949448
0.1007845183
-0.6549324186
0.4061557016
0.4835467054
-0.6369449914
1.2849581455
0.3034336309
-0.5369664163
-0.7633137957
-0.1421781401
-0.0506771656
-0.0189975158
0.0389909803
0.6488871780
0.4719515656
-0.3469965820
0.2165114530
0.1254550866
-0.0625013779
-0.0500544326
0.1078051034
0.0261504945
0.1437645337
0.3635907177
1.0338303567
0.2610149394
0.2719197300
-0.3423915710
-0.8862778522
1.0062494029
0.1528261842
0.6300512423
-0.2523378038
-0.4456301191
1.3507421882
0.8573096325
-0.3232052596
0.7942492495
0.1013020894
0.6948570789
0.2594188561
-0.1629014343
-0.3756857422
-0.9483440987
-0.0343555324
0.1899957017
0.4346848902
-0.0630338065
-0.4425015864
0.9946773635
1.6205402644
-0.4295522072
0.6886525156
-0.5001703198
-0.5544872314
-0.0235060762
-0.2936682907
-0.0067468824
0.4481761878
-0.3550720931
-0.3598273691
0.1093067012
0.2244476256
-0.1049437410
-0.4343723934
0.6438498968
-0.0567763184
0.1432017473
0.0335445965
0.6432653771
0.2551689321
0.8370618649
-0.1985318596
-0.2722655315
1.0698076639
0.6517197530
-0.2357113348
-0.6338228420
-0.0259485408
1.2951460172
1.5635174446
-0.0320106668
-0.6879277297
0.7034886448
-0.3825826647
-0.0604075821
-0.2464119061
0.0396711413
-0.5242315894
0.0079515810
0.4357724767
0.2558847447
0.1100725404
0.0149379225
-1.1222365831
-2.4367970670
-0.0392768260
1.9902973898
-0.2631912210
-0.4380247650
-0.1115356696
0.1221423909
0.1547449010
0.2247224224
0.3010845961
-0.1565413811
-0.1340003264
0.0658330255
0.1056284399
-0.0113185436
-0.7046502158
0.1858862960
0.6481745937
0.2893677662
0.4059318489
0.0134757675
-0.4150462864
-0.0861866008
-0.9642032484
-0.3349608337
0.7386900016
0.1027326656
0.1228687449
-0.0424410109
-0.1772771574
-0.3449828512
-0.2132464347
1.0220567695
-0.7987413588
0.0643941552
-0.0803333597
0.1965843478
0.1447262983
-0.6166806582
0.0252430559
0.3107110535
-0.3983658334
-0.0842309421
0.2544102552
0.3140470804
1.4921654872
0.1963737561
-0.1297877358
0.3623282543
0.1010044151
0.1829349259
0.3215812320
-0.2191755697
-0.7818663681
1.0206516519
0.0522205962
0.8599560001
-0.2315806234
-0.3125399323
-0.1298213692
-1.5072192506
-0.2377411478
1.7936186203
0.7862760336
-0.7786208206
-0.2018443351
0.1257899365
0.3144426917
0.2090869869
0.2248102209
-0.3591717831
-0.4039937910
0.0708464757
0.3174906298
-0.0675961307
0.7585100013
0.3954110493
-0.8802222511
0.6125802650
-0.4669686090
0.0155740565
-0.1316436791
-0.0244005645
-1.6265945263
-0.5946276987
0.3059330243
0.1268647252
0.0037944736
-0.0173176700
-0.3965702336
-0.3956263866
-0.0700660879
0.3645681023
-0.5025634549
-1.4380158349
-0.1471437704
-0.0013337230
0.1993967862
0.3457582355
0.2670129124
-0.5898941895
0.0141986917
0.1956052573
0.0792201700
-0.7729972690
-2.1874485562
0.2071395303
0.2954444151
0.3119692453
0.0663089175
0.1424753741
0.3175866698
-0.1588475232
-0.5389546358
0.2775808151
0.3635298000
-0.0566995268
-0.2319269588
-0.1320208832
0.4012819733
-0.3886761357
-0.1317659467
-0.5328980481
-0.0477042121
0.1037028413
0.1986475958
0.2267703958
-0.2414747430
-0.2780072063
1.2665637067
0.3449297288
0.6318797263
-0.2366439434
-0.2433151968
-0.4210842001
-2.6672350634
-0.2594529384
1.6190792450
0.6946324740
0.0909378080
0.0982935062
0.0980334259
-0.1091801984
0.1649450563
0.5679781636
0.1534862626
0.0483744075
-0.0886924405
-0.0720552092
-0.1611657418
-0.4993381222
-0.0976633571
0.4380437699
0.4065739891
-0.3999544342
-0.2421093093
-0.5777441081
0.3144533880
0.6519837137
-0.7144600418
-0.2160813090
-0.7080760851
0.3737351123
0.3870453719
-0.3127925990
0.9308499262
0.3162366199
-0.3667024185
0.0571030049
-0.8327371582
-0.3368434494
-0.1796870116
0.4334747642
1.0213472712
0.1768142033
-0.8312378563
-0.3586503813
0.3860680579
0.3826734806
-0.6691622871
-0.5006137632
0.4622089881
0.1105608792
0.8160389541
-0.0250720706
-0.0259822772
-0.0559895548
0.0339980142
0.2136169188
0.2090857364
-0.0354708880
-0.0363972572
0.0547344290
0.0412009628
-0.1252050957
0.1260553003
0.0332847843
0.0859274645
0.3375407478
0.6149193115
0.4249947738
0.2514619802
-0.5856899735
-0.7070684771
0.5990002166
0.1277029975
1.1468174622
-0.2874716875
-0.7582624904
0.3364208477
-1.3949915024
-0.6511813985
0.8792778140
0.0095757625
-0.4145841047
-0.0832754501
-0.0264497695
0.1365175616
0.1780420592
0.1412165140
-0.1345780233
-0.3435592497
0.0481508591
0.1830883725
-0.2721328236
-0.3610086407
0.1787676737
-0.9427212327
0.2092140316
-0.2500577496
-0.1103562147
0.1435964503
0.1721226651
-0.1440690390
0.0037580302
0.1928032402
-0.4439834387
-0.0198678514
0.2632633337
-0.0197162474
0.4429032157
0.2113664565
-0.6416061257
0.1794081789
-0.0863872838
0.1021348000
0.6146091930
-0.0539263005
-0.3648415546
1.0134227646
-0.1786410275
0.0797566683
-0.3030667972
-0.0617826431
0.0788060410
-0.3469031194
0.0620200517
-0.2985823646
0.8807933579
-0.1606232988
-0.1651078285
-0.6232675074
0.1536187450
-1.2775557864
-0.8345730905
0.1874503515
-0.1142289275
0.2990717173
0.1604329185
-0.4335542662
-0.4152987114
0.0623422573
0.4313576215
-0.8145034122
0.2905285273
0.1284368019
0.5671143815
-0.1675499836
-0.4577905197
0.8351725546
-0.4996186543
0.6205134345
-0.1933904582
-0.3830836825
0.6047031528
-0.4274098333
-0.1245088527
0.2094141005
0.5919921363
0.4083044805
0.0860781353
-0.3858834246
-0.1655899048
-1.1923568592
-0.8311440943
0.2007410103
0.2161264605
0.1062119347
-0.1828902793
0.0120621785
-0.4593749901
-0.2491715235
1.0370999596
-0.7056456854
0.2748727527
0.0585266293
0.0289731662
-0.0631494023
-0.4662069825
-0.0798925809
0.1597244390
-0.0122038200
-0.0697855603
-0.0408777016
0.2501776721
-0.0216455625
-0.0594409778
0.0908212670
-0.0433892905
0.1504039164
0.0362607985
0.1823993301
-0.0248087840
-0.2956127366
0.1761677745
0.1207250940
-0.0061025002
-0.1161937315
0.0136511564
0.1664201786
-0.1153575417
0.0039212427
0.0649554105
0.2242198413
0.6235162610
0.2042486425
-0.0534299102
-0.2533906612
-0.9673105346
-0.3816949337
0.6018833449
0.1248347627
-0.1822434153
-0.1690398574
0.3402692609
0.0464386079
-0.2823306829
0.4494790696
-0.5210677120
0.3180274313
0.1205508750
0.3027704104
-0.1275674415
-0.4517303834
0.3253550895
0.2838097111
0.1084744562
-0.2235867363
-0.0824995549
0.2595569723
-0.0371578405
-0.0989369469
0.0936896951
0.2384814129
0.3130623471
0.1179874012
0.2232715975
-0.1277973247
-0.1597985349
0.2162124715
0.2367949691
0.0105183082
-0.1807819844
-0.0828266785
0.3227782788
0.2364343769
-0.0929858070
-0.1177349377
0.1882570647
0.3254137235
0.0795868628
0.3701939116
-0.0543692193
-0.1215546441
0.3164077225
0.2261170588
-0.2328876622
-0.2033440505
0.0280023532
0.5275748466
0.6050507293
0.0204431658
-0.5262801510
0.3843166048
0.1936489833
0.0075156328
0.4304879469
0.0560340659
0.0928833444
0.2381029099
0.1611894521
-0.4410489557
-0.1895514612
0.1648009658
0.5837834231
0.8890617157
0.1485585491
-0.9249600380
0.4179949953
0.4665888252
0.1286211393
0.1274146298
-0.1312988474
-0.3432937252
0.1585693553
0.5861647107
-0.0892883405
-0.2370693200
-0.0044650476
0.3501591482
0.2909909271
-0.1075139961
-0.2129338781
-0.0809592269
-0.1319943059
-0.1240650462
-0.4033648625
0.1249748387
-0.2443650794
-0.6301298653
0.0648781353
-0.1928894508
0.2307888251
0.1425576414
-0.3297577604
0.1148937108
0.0668249465
0.0108760634
-0.5049818746
-0.4922677605
-0.1949773214
-0.4209940963
0.1926718980
0.0178340052
-0.6062251429
-0.2645801808
-0.0551795848
0.3475768741
0.1240057108
-0.6581025949
-0.3852285998
0.1211965677
0.2466303804
-0.5052275709
0.0141527655
0.0180565952
-0.1506957270
-0.0324404976
-0.2079980989
-0.2965102777
-0.0044401149
0.0943734170
0.0611130392
-0.0568659531
-0.1193190494
-0.1475251348
-0.0669863302
0.2924706731
-0.2843417559
-0.0373373945
-0.0371195844
-0.1524773753
0.0215595118
-0.1669493043
-0.2118590777
0.0800890146
0.0385741520
0.0908828518
0.0094329772
-0.1776540850
-0.0119101512
-0.0147093830
0.1968846287
-0.3449725308
0.7591491136
0.2511505019
0.2338142051
-0.2975147012
-0.6474235475
0.1383061518
0.5960334472
0.2390606876
-0.3344020282
-0.2339379662
0.6014588956
0.4653971047
-0.2939806614
0.0230759040
-0.2355214366
0.2636684351
0.0788313421
-0.0090954535
-0.1058976126
-0.3213211655
-0.0678032383
0.1964494013
0.1480471041
-0.0637280876
-0.1061363054
0.1067517953
0.0090623923
-0.1242459432
0.1977562059
-0.2388547260
0.1220490982
0.0609362061
0.0169587078
-0.0865665820
-0.2213215812
-0.0214495675
-0.0319236341
0.2188080053
-0.0316438846
-0.1283166117
0.0150236168
-0.3473026035
-0.1014660312
0.3092288385
-0.1132132292
-0.0742091012
-0.0178352111
-0.0510905269
0.0112331835
-0.0068098389
-0.0518631454
-0.1323315713
0.0956210638
0.0569400492
-0.0328342121
-0.1455484437
-0.2485141064
-0.0039068103
0.2060904464
-0.0580588978
0.1688394160
0.0537789235
-0.2446533583
-0.1073620685
-0.4377785494
-0.3608340911
0.0464093756
0.2594794359
0.0804999233
-0.1603748882
-0.1339547281
-0.4945157814
-0.1644397995
0.6483444310
-0.4455440429
0.2895666009
0.0899122655
-0.1713930413
-0.1358979807
-0.4918110035
-0.3008852643
0.2075168971
0.2023409001
0.0041052782
-0.1490157371
0.0441432827
-0.1731422257
-0.1849954630
0.4241686732
-0.4288698665
0.1037000377
0.0221540235
0.0196448338
-0.0330808251
-0.1279272855
-0.0224484773
0.0952185300
0.0502134847
-0.0298778771
-0.0293286966
0.0683102620
0.1327364208
-0.0346385216
0.0195516739
-0.1055587771
-0.2693685338
-0.0919891656
-0.0998977801
0.0998594676
0.2171462057
-0.1011257188
-0.2285404013
0.0027155776
0.1413319843
0.0500006259
-0.2786245586
-0.1881007015
0.0839267651
0.0582930757
-0.0258584887
0.0726591402
0.0282355657
-0.0482016305
-0.0374282386
-0.0756634391
-0.0861645282
0.0272305458
0.1010760851
0.0127496483
-0.0589923481
-0.0200850376
-0.0711744959
-0.0561235298
0.1380963452
-0.1055209415
-0.3023535558
-0.1138338555
-0.0663350022
0.1327866153
0.4169489526
-0.0435243495
-0.2332060302
-0.0472472816
0.1382520338
0.0902816644
-0.2856232506
-0.0405542291
0.1277906976
-0.0491822242
0.0851499862
-0.2091495412
-0.0742771792
-0.2066441191
0.0668468894
0.2074596062
-0.2259870427
-0.1583571636
0.0749879454
0.1719345690
0.0079546680
-0.3416866406
-0.2731693335
0.0256596646
0.2830119156
-0.1485635291
0.0823300007
0.0135241497
-0.0655011964
-0.0253660713
-0.0915047043
-0.1845777952
0.1029941649
0.0227499032
0.0097731203
-0.0203210693
0.0012415575
0.1564054701
-0.0384963950
0.0660792994
-0.1652020920
0.1037908933
0.0115043750
-0.0421474795
-0.0176175833
-0.1006310451
-0.1511523676
0.1552933403
-0.0276621869
-0.0158084377
0.0058165667
0.0599917450
0.2563448162
-0.0239857379
-0.0373871215
-0.1572468910
-0.0573560951
-0.0524273972
-0.1746643098
0.0513153926
0.0203653538
-0.3188988395
0.0586450199
-0.0863687428
0.0973472118
0.0603184404
-0.1491732398
0.1625030843
0.0248494425
0.0323544155
-0.2272503844
-0.2857635012
-0.1167726621
-0.1627306289
0.1484190386
0.3180229267
-0.3397508018
-0.1352597615
-0.2289139191
0.1438246930
0.1597698833
-0.2503936316
0.2537951665
0.1471499004
-0.2276836923
-0.0500468834
-0.5544786139
-0.2007224958
-0.3717719296
0.2248975855
0.5223258879
-0.5205423361
-0.3621312265
-0.1791531394
0.3241054682
0.1758135190
-0.6345109937
-0.1511068624
0.1891569059
0.0640590446
-0.1340434385
-0.3893939820
-0.1470769636
-0.1796385744
0.1881254330
0.4227989494
-0.3787452628
-0.2781650503
-0.2439592046
0.1804734316
0.1781723490
-0.3118102344
0.1604050425
0.1930639227
-0.2597656580
0.0235174373
-0.1619631815
-0.0571572229
-0.1293930060
0.0629293714
0.1654116184
-0.2118892544
-0.1524498429
-0.0050231668
0.1113450046
0.0377218382
-0.2087393313
-0.1808340260
0.0447623848
0.0632704621
-0.0587937218
-0.1221054656
-0.0462467767
-0.0522960903
0.0650324074
0.1704487094
-0.1503676316
-0.1279263785
-0.0662754218
0.0642754307
0.0495604231
-0.0892259276
0.0966115488
0.0693170672
-0.1277458188
0.0270478111
0.0539092379
0.0142211132
0.1742392065
0.0067805198
0.1555195309
0.1029075001
-0.0163893519
-0.0450432646
-0.0914451207
0.0186394478
0.1744699579
0.3651188182
0.0464487363
-0.3760892489
0.1993023598
-0.1001490542
-0.0179542991
0.0243053673
0.0186406572
0.2603752127
0.0843867460
-0.1939719880
0.1310778023
0.0435872516
-0.0442604283
-0.1565347458
-0.3364170392
0.0132070945
0.0856512104
0.1264891784
0.0708671659
0.0207160772
0.1422709927
0.0143822818
0.0598191336
-0.0642605311
0.0497932972
-0.1614254172
-0.1081890609
0.0648723263
0.2319055458
0.5739387407
0.0613755798
-0.5104314383
0.1225778679
-0.1529904392
-0.0854350940
-0.0728234726
0.1461607530
0.1172190864
-0.4445443182
0.0029486622
-0.4100314745
0.0368886073
0.2157807497
0.0581482393
0.8667039527
0.1846576800
-0.6818236568
-0.0434496283
-0.1524374011
-0.0442834550
-0.0826612790
0.0368360782
0.1854880266
-0.0785222542
-0.1951557411
0.1100557025
0.1058146833
-0.0262432257
-0.2291942686
-0.3196225005
0.0171741208
0.1505623822
-0.0020228632
-0.2181935303
-0.0567520584
-0.1703472218
0.0336992510
0.1975225546
-0.0564185758
-0.3031610998
0.2192546879
0.1760607355
-0.0713528855
-0.3694203423
-0.6139036924
-0.0048037066
0.4178136090
-0.0215619520
-0.2899845184
-0.0940197856
-0.0734178505
0.1109328029
0.4086615619
-0.0492193912
-0.3007744957
0.0061444779
0.1423077423
0.0501827007
-0.2629732272
-0.0321770340
0.1130424735
-0.0345664231
0.1546819081
-0.4441956854
-0.1427691241
-0.1934895367
0.1607039579
0.5322849753
-0.1326645953
-0.4292174348
0.0281815125
0.2424397607
0.0636423352
-0.4655331022
-0.3136988539
0.1341344454
0.1515258476
0.0943994359
-0.0207321116
-0.0026050727
0.0229411028
0.0086537512
0.0794896083
-0.0201565890
-0.0669330321
0.0033683166
-0.0025532909
-0.0028707446
0.0194440597
0.0594028241
0.0204674516
-0.0831674122
0.0567307667
0.0696273192
0.0310775098
0.0863191649
-0.0305902276
0.0040557452
0.0717406436
-0.0017737429
0.0481402434
-0.0509131531
-0.0401705188
0.0989585226
0.0549003375
-0.0206374507
-0.0621519547
0.0723278216
0.0610863877
0.0330118033
0.0912604890
-0.0358621594
0.0200957697
0.0981990276
0.0060483418
0.0771155002
-0.0521764410
-0.0446150120
0.0711711194
-0.0173247381
-0.0270734767
-0.0324478949
0.0775906766
-0.0610481978
-0.0158269790
0.0378603280
0.0371008942
0.0891932349
0.0135330574
-0.0814313190
-0.0408059926
0.0017043489
0.0261585183
0.0182028553
0.1936923054
0.0435631098
-0.1489983275
0.0770175570
-0.0522318990
-0.0049952887
0.0058499178
0.0099294853
0.1348911814
0.0496354245
-0.1377214248
0.0271428952
0.0150172462
-0.0157918543
-0.0281639882
0.0073732345
0.0181138707
0.0096721621
0.1288981477
0.1971790366
0.0834842898
0.1043765273
-0.0961097981
-0.1894320500
0.1463164324
0.0998761455
0.0984698991
-0.1104051620
-0.0857076383
0.1997614308
0.1230699627
-0.0818390870
0.0126511901
0.0286226019
0.2230313896
0.1101373716
0.1769929262
-0.1316883295
-0.1805266824
0.2409147344
0.0816328744
0.1891464110
-0.1444326626
-0.1427994373
0.2283682633
0.0141083900
-0.1145702355
0.0319267891
0.0644294827
-0.0061752285
0.0214280880
0.0691048143
-0.0289845531
0.0696855236
0.1810246858
-0.1256210633
0.1459481682
-0.0115466120
-0.0756388039
-0.0292137367
-0.1733662744
-0.0256660143
0.1322964006
0.1315740934
-0.0058692599
0.0139046138
0.1969784800
-0.0085687025
0.1706319540
0.4004961862
-0.0603279723
0.1214816369
-0.0618767781
-0.0422252240
0.0528425134
-0.0134041004
0.0036466245
-0.0195503908
0.2400698442
0.1245528301
0.0509409462
0.0728854636
-0.0626505828
-0.0641932251
0.1049929689
0.0414463110
0.1150720045
-0.0602732768
-0.0726122459
0.0895574869
-0.0737128831
-0.0604762935
0.0488630830
0.0232689735
0.1725502087
0.0458892735
0.0931819785
-0.0535268085
-0.0900704879
0.2026693671
0.1342636644
0.0857992523
-0.0745190150
-0.0465012186
0.1289337363
0.1419794169
-0.0565409766
0.0536731639
0.0456221292
0.1582152597
0.0801240366
0.0465217438
-0.1210712405
-0.1213112640
0.1695232390
-0.0035421226
0.3427102316
-0.0414706359
-0.1847118434
-0.0085184404
-0.5118241325
-0.1485581825
0.3829835767
-0.0214667772
0.2227171586
0.0890859127
0.0492685116
-0.1236189799
-0.2084400905
0.1021097604
0.0811873027
0.2449151581
-0.0646265359
-0.1528897992
0.0828953671
-0.2390634075
-0.1398625302
0.2658761371
-0.0594539860
0.2447273867
0.0902644745
0.1608946727
-0.0943990675
-0.1818115856
0.1841454385
0.1585048114
0.0685613706
-0.1475815464
-0.0730749353
0.2760153490
0.0948307417
-0.0753640593
-0.0763877828
0.0563162586
0.2820697455
0.0946121805
0.3029624279
-0.0924367938
-0.1193640201
0.3973976851
0.1923110888
0.0287125252
-0.2093720497
-0.0579502659
0.4072828369
0.4310845658
-0.0529332896
-0.2638652161
0.1977704845
0.2031316276
0.0714662944
0.1202874717
-0.0859561351
-0.1584031156
0.1934285829
0.1093176634
0.1142821918
-0.1053060046
-0.0807545289
0.1663072927
0.0569859277
-0.0783555892
0.0213102493
0.0352488523
0.1896917052
0.0736401556
0.0609897642
-0.0905460090
-0.1894348079
0.1225555530
0.1212092190
0.1374198653
-0.0864149412
-0.0848971589
0.0728582370
-0.1342842050
-0.0910661300
0.1429683014
-0.0226393070
-0.0952327404
-0.0332169124
-0.0943092555
0.0249960151
0.0635463329
0.0467020481
-0.1616845994
0.0802767207
0.0942172186
-0.0264165538
-0.1829621837
-0.2284866250
0.0100889895
0.1950736220
-0.0156572778
-0.1082371429
-0.0429251141
-0.1300640544
0.0334303589
0.0791008816
-0.0578777106
-0.1429553992
0.0449182671
0.1073385748
-0.0072965593
-0.1969974082
-0.1872681202
0.0159495556
0.1667209976
-0.0498606864
0.1231758265
0.0296731902
0.1768422105
-0.0276261184
0.0297961960
0.3178954879
0.0534259587
0.0376432685
-0.0938902335
-0.0215830547
0.1445245062
0.1696391226
-0.0052982861
-0.1087708162
0.1655761257
0.1734503900
0.0992643895
0.2656819851
-0.1014905805
-0.0126114014
0.3997856469
0.0050916706
0.1203139276
-0.1709679388
-0.1018912794
0.2813666336
0.0604419606
-0.0630549113
-0.0517224497
0.2560499784
0.1683334922
0.0695791185
0.2080370374
-0.0682062287
-0.0495173891
0.2946962724
0.0841854766
0.0645922111
-0.1351912731
-0.0625318498
0.2373754967
0.2039584572
-0.0457763123
-0.1085312309
0.1649528255
0.0741043516
0.0208730996
0.1250668368
-0.0203215421
0.0564422442
0.1974646384
0.0428883424
0.0566845392
-0.0633001774
-0.0221744197
0.0602808279
0.0320560151
-0.0103181673
-0.0409639241
0.1148596697
0.0211264475
0.0071942922
0.1072958781
0.0026486463
0.0872224638
0.1667753228
0.0034303920
-0.0074229157
-0.0531058250
0.0101876429
0.0548028850
0.0901682528
0.0246550566
-0.1027576729
0.1238351779
-0.0433220465
-0.0184606938
0.1919798130
0.0527203505
0.2386261261
0.3441338550
0.0429404013
-0.0709530729
-0.0835947513
0.0846891209
-0.0032568208
0.1894023576
0.0876405516
-0.2260782490
0.2819542396
0.2394557824
0.0712629454
0.2563415444
-0.0599827045
-0.0548457801
0.3229938673
0.2230930639
-0.0244766902
-0.1876920440
-0.0077555628
0.3243386716
0.4019708602
-0.0226554318
-0.2718553990
0.1692947138
0.2042406078
0.0714820173
0.2298100400
-0.0648288207
-0.0628218017
0.3153805811
0.1443912252
0.0636029717
-0.1550449854
-0.0454192984
0.2256391329
0.1937047960
-0.0442511495
-0.1458723801
0.1482366715
-0.0614301436
-0.0177202543
0.1527863726
0.0344744648
0.2352994012
0.2442230617
-0.0825188537
-0.0262034851
-0.0371812499
0.0289467228
0.0296889565
0.1278232016
0.0593029022
-0.2044482012
0.2275935654
-0.0521706634
-0.0190480461
0.1351676503
0.0320751990
0.1916394471
0.2806945818
-0.0339690590
0.0074722753
-0.0305770858
0.0256371001
-0.0082147469
0.1333832993
0.0506294471
-0.1090703307
0.1876871883
-0.0129543001
0.0081150907
0.0783910208
0.0032572604
0.0925981878
0.1347212629
-0.0461217262
0.0291822776
-0.0186851415
-0.0139277886
0.0166366357
0.0288564907
0.0096926837
-0.0438845255
0.1065447651
-0.0453791898
0.0033852492
0.0976118844
0.0021834848
0.1513512663
0.1992282067
-0.1116231453
0.0591154755
-0.0167896189
-0.0254184474
-0.0111193702
-0.0327295279
0.0145005990
-0.0117105150
0.1548302799
-0.0548713512
-0.0009556874
0.0684700018
0.0016311707
0.1576747641
0.1804518874
-0.1232606496
0.0791062707
0.0004438132
-0.0317622980
-0.0397097423
-0.1050108578
0.0069827247
0.0342339847
0.1398446456
-0.0088969336
0.0194257089
0.0190376621
-0.0333572010
0.0608308610
0.1263437391
-0.1342913222
0.1526618120
0.0131099834
-0.0842220396
-0.0639173530
-0.2353257089
-0.0364062989
0.1841870590
0.0514383546
-0.0362721671
-0.0011518074
0.0435094965
0.0027432275
0.1088832737
0.1073680362
-0.0895822705
0.0380055457
0.0027509307
-0.0153220600
-0.0144352998
-0.0336758850
0.0085295868
-0.0046027469
0.0891746605
-0.0782033502
-0.0198431411
0.0470057660
0.0293483162
0.1915811495
0.1241359013
-0.1331010849
0.0135032090
0.0172010979
-0.0051486922
-0.0374874252
0.0005716654
0.0344541014
-0.0337098045
0.1367059531
-0.0791415946
-0.0140826294
0.0121477427
0.0178352309
0.1489492318
0.0689615381
-0.1438323039
0.0395427155
0.0321217156
-0.0176136356
-0.0669469159
-0.0674440386
0.0209518464
0.0265680059
0.0910484063
-0.0165654471
0.0228790488
0.0232427683
-0.0281052605
0.0686408450
0.1082032949
-0.1324540488
0.1179889499
-0.0001407757
-0.0661277996
-0.0442257542
-0.1939684132
-0.0254719992
0.1350568609
0.0788933909
-0.0340833104
-0.0006680864
0.0809008248
0.0115167320
0.1168205001
0.1436977202
-0.0992028767
-0.0009002494
-0.0081940723
-0.0103341707
0.0480211753
0.0724778329
0.0287308295
-0.0736049301
0.1388550672
-0.0713242010
-0.0081635685
0.1057214364
0.0194063626
0.1857330006
0.2041428935
-0.1530006937
0.0208101361
-0.0116601594
-0.0081261254
0.0090400525
-0.0313869709
0.0390435731
-0.1194466688
0.1975076137
-0.0598924361
-0.0093376493
-0.0597326378
0.0028831684
0.0487451932
-0.0216278444
-0.1397085383
0.0645831444
0.0530225940
-0.0330381245
-0.1100039969
-0.2280972763
-0.0025280790
0.1085704244
-0.0113380512
-0.0934795913
-0.0210971634
-0.0467007071
0.0181545778
0.0948385818
-0.0012134207
-0.1566456348
0.0473396681
0.0581707798
-0.0195713233
-0.1138918524
-0.1629862504
0.0120662411
0.0778175041
0.0223009698
0.0406498242
0.0181786487
0.1009417823
-0.0129576091
0.0436279780
0.1259210528
-0.0166454669
-0.0155159490
-0.0522108675
-0.0128373426
0.1158761857
0.1419951779
0.0099268104
-0.1503043457
0.1151714131
0.0816867313
0.0254278009
0.0447338719
-0.0257369475
-0.0354657054
0.0586265158
0.0459466938
0.0085315268
-0.0431210594
-0.0188792379
0.0766997311
0.0399165216
-0.0159943333
-0.0442241886
0.0145816275
0.0637239732
0.0305357265
0.0822549243
-0.0312983976
0.0179563017
0.0831213429
0.0058325301
0.0407623158
-0.0499727800
-0.0342510178
0.0860486334
0.0057177645
-0.0173335478
-0.0621686848
0.0743355443
0.0545804058
0.0243227327
0.0781853550
-0.0231426009
0.0308633806
0.0875125408
-0.0055709853
0.0343845449
-0.0428205179
-0.0285258414
0.0699500589
-0.0015359052
-0.0115598584
-0.0723357424
0.0676811107
0.1247160086
0.0424943897
0.1159682640
-0.0389925741
-0.0470171766
0.0952363395
0.0425787945
0.0299020737
-0.0772313083
-0.0438937824
0.1666817855
0.0822876063
-0.0288451028
-0.1190068762
0.0611388405
0.1526832879
0.0546496611
0.0955512330
-0.0620160084
-0.1054284829
0.0837298122
0.0696124891
0.0829511140
-0.0724734383
-0.0672190732
0.1493709168
0.0027363458
-0.0579542949
-0.0244443984
0.0175888465
0.0446214769
0.0264983184
0.1558772088
-0.0112337628
0.0748814453
0.1798324205
-0.0039312259
-0.0099823377
-0.0726032795
-0.0060553342
0.1564792712
0.1682987505
0.0157845810
-0.2133654564
0.1615744563
0.0959982091
0.0371899498
0.1130607234
-0.0379151818
-0.0271729587
0.0861197136
0.0367056299
0.0306953333
-0.0747534236
-0.0354945672
0.1264783458
0.0628659050
-0.0174356441
-0.1454177282
0.0668775567
0.0076477894
0.0090099205
0.0581640538
-0.0076340278
0.0448249475
0.0445577308
-0.0352574322
0.0310546489
-0.0216156876
-0.0192301934
0.0299271625
-0.0491130581
0.0005994673
-0.0619275304
0.0603367012
0.0830817662
0.0281558150
0.0764560914
-0.0282802666
-0.0500526613
0.0345705621
0.0399175562
0.0084737370
-0.0495720412
-0.0265347720
0.1224978473
0.0984100794
-0.0141337095
-0.0940999614
0.0325015119
0.1926764653
0.0658698894
0.2181633068
-0.0572551859
-0.0944322457
0.1631713381
0.1204589316
-0.0489317200
-0.1504834639
-0.0284205722
0.3472685049
0.4049866737
-0.0178203158
-0.3174960819
0.1412983472
0.0796639475
0.0180635126
0.1198875889
-0.0030999587
-0.0290316164
0.0744514028
0.0652864985
-0.0854913636
-0.0656727593
0.0114108300
0.2094074849
0.3277309018
0.0155511569
-0.2398713277
0.0822977896
0.1167594603
0.0423197958
0.2082896593
-0.0297263413
0.0307459376
0.2089953982
0.0687222002
-0.0520701868
-0.1239031684
-0.0054477386
0.2778815691
0.2908681058
0.0099522611
-0.3187854290
0.1899905603
0.1012228346
0.0422263003
0.2123807081
-0.0280998965
0.0461074250
0.2032680357
0.0462495165
-0.0641089969
-0.1221771921
0.0020536889
0.2864851577
0.3401748106
0.0130510384
-0.3252664774
0.2064693415
0.0959984890
0.0432247878
0.2089362549
-0.0320775451
0.0243662519
0.2126211158
0.0047281702
-0.0250086662
-0.1085992105
-0.0285813875
0.2679639892
0.1921922137
0.0038354057
-0.2603185271
0.1936416816
0.0035322190
0.0000354204
0.1114695736
0.0171772595
0.1328552440
0.1089066711
-0.0005351263
-0.0693868851
-0.0473969146
0.0255418149
0.1110319285
0.1833116535
0.0430181912
-0.2411313927
0.1289676027
-0.0082887288
-0.0055140826
0.0066058872
0.0098654964
0.0288405448
-0.0049955856
-0.0137494224
-0.0062350779
0.0042998870
0.0031680431
-0.0022241990
0.0079064314
0.0126896442
-0.0349089058
0.0002701490
-0.0608710202
-0.0377121602
0.1752641822
0.0742445094
0.2266904855
0.1987246268
-0.0956238009
-0.1693790826
-0.0402125058
0.0800367411
0.1644043483
0.2824372665
0.1163475574
-0.4417093094
0.2537186631
0.0446485662
0.0197214505
0.1789975015
-0.0037683017
0.1110627496
0.2196252568
-0.0210450310
-0.0205823336
-0.0875710936
-0.0036148571
0.1769784389
0.0912450490
0.0301824893
-0.2527985075
0.1980988350
0.0455385014
0.0178900796
0.0397653942
-0.0147424466
-0.0092479860
0.0223059020
0.0101292950
-0.0000073200
-0.0223964856
-0.0065185637
0.0675971534
0.0071595054
0.0034146327
-0.0625306220
0.0213280923
-0.0699128654
-0.0290890979
0.0761752791
0.0466839529
0.1596476822
0.0799840859
-0.0762155667
-0.0802480639
-0.0050183013
0.0454898063
0.0444989854
0.1319564480
0.0676197240
-0.2380218605
0.1220617154
-0.1522202188
-0.0490177845
0.0815367172
0.0737073369
0.2669566153
0.0931329086
-0.1630391822
-0.0890114103
0.0159184715
0.0602603296
-0.0085967292
0.1048478092
0.1014479715
-0.2510457027
0.1798960263
-0.0045618072
0.0033720965
-0.0342542493
-0.0110329681
-0.0150979452
-0.0908495800
-0.0379953569
0.0383997041
0.0189437855
-0.0267645974
-0.0332169615
-0.0882308361
-0.0172403392
0.0522442179
-0.0597333719
-0.0436265550
-0.0089320661
0.0121732549
0.0157964273
0.0827785775
-0.0201378407
-0.0751951498
0.0128131506
0.0112430747
-0.0052731777
-0.0223634450
-0.0678682633
0.0156439382
-0.0352239747
0.0226222526
0.0033510387
0.0057192854
0.0288243233
-0.0058384571
0.0316201621
0.0381424538
-0.0270809094
0.0401817654
-0.0074943266
-0.0204275985
0.0055467238
-0.0727619132
-0.0048820178
-0.0140709250
0.0203014548
0.0351893493
0.0132624856
0.0581623380
-0.0131680402
0.0249704807
0.0427221970
0.0024283336
0.0220377660
-0.0192053713
-0.0162681409
0.0651961450
0.0099130089
-0.0035255522
-0.0944613343
0.0402146133
-0.0286167893
-0.0149267913
-0.0182111175
0.0214856617
0.0331055914
-0.0719776460
-0.0328260435
-0.0047793236
0.0223887216
0.0097202471
-0.0350922953
-0.0242593386
0.0164834952
-0.0660105520
-0.0347643375
-0.0106546500
-0.0125156278
-0.0096614086
0.0184203178
0.0203568912
-0.0456816302
-0.0217963957
-0.0136876406
0.0135383399
0.0120703134
-0.0130943237
-0.0323127375
0.0175705023
-0.0448480134
-0.0033677195
0.1242603079
0.0499450310
-0.0567507285
-0.0680682578
-0.2416681824
-0.2292499613
0.0958734977
0.0578892969
-0.0192928132
-0.0605451124
0.0546128375
-0.0261927273
-0.0791751262
0.1266451511
-0.2025064829
0.0013537176
0.0017980504
0.0248695376
0.0036828052
0.0185924988
-0.0483380995
-0.0097258059
-0.0172796677
-0.0090625094
0.0024250628
0.0263446784
0.0404630452
0.0088832530
-0.0777800789
0.0075072953
-0.0036124022
-0.0011361149
-0.0108941090
0.0004876317
0.0039049340
-0.0762912408
-0.0123889506
0.0069503484
0.0086680672
-0.0029324998
-0.0185544741
-0.0655844455
-0.0012405467
0.0257146475
-0.0251399685
-0.0658046235
-0.0238664093
-0.0035936659
0.0270767229
0.0771316092
-0.0354308914
-0.0592140300
0.0012515177
0.0292951355
0.0171477063
-0.0774448646
-0.0839972084
0.0265622582
0.0026602437
0.0134388252
0.1700137132
0.0643543951
0.0857173807
-0.0726531560
-0.1383622770
0.0232239495
0.1209658408
0.0572117675
-0.0914391031
-0.0575980891
0.1569934578
0.0539488667
-0.0638243997
-0.0308347439
-0.0213911563
0.0215625975
0.0019471452
0.0031727912
-0.0011656116
-0.0061791137
-0.0506125564
0.0070092889
-0.0059887586
-0.0017676760
-0.0016892188
0.0194758060
0.0083788158
0.0103962216
-0.0200291436
-0.0199704657
0.0933613525
0.0157685762
0.0825371788
-0.0121188570
-0.0303975165
0.0717925321
0.0645079522
-0.0172702729
-0.0489593136
0.0007808825
0.1176976099
0.1304392742
-0.0001464994
-0.1395840922
0.0344204282
0.0318153583
0.0159848125
0.0129611032
-0.0183713164
-0.0262810730
-0.0719935437
-0.0184202247
0.0334060976
-0.0116144055
-0.0356546330
0.0432549165
-0.0198182884
-0.0196822605
-0.0383123421
-0.0308054767
0.1097575837
0.0375216014
0.0262951312
-0.0497716540
-0.1168213225
-0.0245837131
0.0331733631
0.0711040627
-0.0328025907
-0.0591443513
0.0867289461
-0.0411449188
-0.0512612972
0.0499189634
-0.0561794121
0.0223763222
-0.0017020670
-0.0639776027
0.0026134099
-0.0597877509
-0.1793839496
0.0123573338
-0.0276889848
0.0280223350
0.0041725888
-0.0038409793
0.0342899043
-0.0048210769
0.0052764596
-0.1109369291
-0.0992133637
-0.0354261284
-0.0383943167
0.0454882081
0.1004468216
-0.0866537953
-0.0876337621
-0.0359443762
0.0556519692
0.0288921469
-0.0826912181
-0.0272447207
0.0466638867
-0.0116752283
-0.0132775676
-0.0510549999
-0.0285604658
-0.0298944586
0.0351020055
0.0585810102
-0.0546451284
-0.0634084123
-0.0350211911
0.0375719210
0.0226824423
-0.0494329419
0.0065174440
0.0361691379
-0.0454255691
-0.0073916517
-0.0814649670
-0.0366262186
-0.0031778366
0.0500910932
0.1277645503
-0.0226692509
-0.0644105058
-0.0541918233
0.0339960012
0.0415183990
-0.0483671138
0.0348923484
0.0512487137
-0.1046961424
0.0251875790
-0.0935813758
-0.0444295546
-0.0325138259
0.0654189984
0.0959673543
-0.1154333155
-0.0352129108
-0.1184833043
0.0440684751
0.0737911112
-0.0448923561
0.1195747700
0.0701241805
-0.1627311943
-0.0203942999
-0.0981573535
-0.0416736087
-0.1159488146
0.0449953250
0.0098610920
-0.2316060826
-0.0389772028
-0.0292365088
0.0856067710
0.0312068749
-0.1464738540
-0.0962552755
0.0218776768
0.0565191762
-0.1540988486
-0.2023103547
-0.0961069232
-0.0926469941
0.1211308619
0.1743813307
-0.1711764971
-0.0889355240
-0.1728063715
0.1141820972
0.1264275007
-0.1586598126
0.0947451216
0.1201148743
-0.1510343726
-0.0375103323
-0.2748955151
-0.1126910526
-0.1842192388
0.1251339005
0.1464271062
-0.3024929098
-0.1792937505
-0.1054540511
0.1712499861
0.1034329941
-0.2977178214
-0.1309836942
0.1062212661
0.0514854513
-0.1214425819
-0.0566667055
-0.0477657797
-0.0786198131
0.0573078315
0.0189669507
-0.1695702970
-0.0147193592
-0.0979037305
0.0651016058
0.0637836029
-0.0564716817
0.0816281387
0.0509496060
-0.0731283788
-0.0734579961
-0.0238994177
-0.0356596681
-0.1272097658
0.0357529533
-0.0595413471
-0.2543507957
0.0637097174
-0.0753955215
0.0696214512
0.0507202512
-0.0842687727
-0.0019924480
0.0157489944
0.0523064831
-0.1926926261
-0.2448274390
-0.1094878348
-0.1033312440
0.1338196163
0.2118163636
-0.1522718542
-0.1531648941
-0.1409869004
0.1329768582
0.1220800788
-0.2163525923
-0.0245594197
0.1329392706
-0.0807315166
-0.0164324511
-0.0544794630
-0.0481587847
-0.1255885235
0.0561922106
-0.0565557313
-0.2684506664
0.0097115682
-0.1126150465
0.0766017907
0.0702699018
-0.0875792113
0.0974725224
0.0462703856
-0.0455716514
-0.1554303798
0.0481068323
-0.0176942008
-0.1499696621
0.0135026255
-0.2004038382
-0.3486622944
0.0767682546
-0.0840547311
0.0602965570
0.0359690361
-0.0295439925
0.0818835884
0.0003077909
0.0395278640
-0.2356959774
0.0659662515
-0.0088168993
-0.1079146176
0.0128241628
-0.1784256398
-0.2841134986
0.1048506696
-0.0988436512
0.0320702507
0.0381494493
0.0053564360
0.1711807492
0.0020126483
-0.0527178372
-0.2044844352
0.0906803603
0.0275618835
-0.0235708676
-0.0331496378
-0.0965466935
-0.1234450698
0.0598976035
0.0097348699
-0.0157129099
-0.0273978084
0.0463611110
0.0511631169
-0.0365265001
0.0409222995
-0.0922075322
0.0205283636
0.0148673568
-0.1942660087
-0.0328316723
-0.1651640410
-0.4078319513
-0.0230084869
0.0443528949
0.0748352349
-0.0515866018
-0.1097872902
-0.1847904283
-0.0569844693
0.3612431747
-0.2690036667
-0.1813995042
-0.1040846502
-0.0824305026
0.1249758227
0.1538033514
-0.1258041138
-0.1340154826
-0.1543946583
0.1174802615
0.1144279330
-0.1441974328
0.0852303875
0.1236108684
-0.1583174705
-0.0010120743
-0.0133072059
-0.0430059738
-0.0451780256
0.0560990035
-0.0332357069
-0.1388677506
0.0694013914
-0.1502550254
0.0399382606
0.0804045831
0.0139290985
0.2645659759
0.0606460243
-0.1807867042
-0.1017718510
-0.1466935797
-0.1248256822
-0.1741202618
0.1479192621
-0.0125807279
-0.2989114458
-0.0318752200
-0.2431698079
0.1471868048
0.1651482068
-0.1519167486
0.2268641102
0.1368825094
-0.1883293956
-0.1531091345
-0.0245254339
-0.0195694422
-0.0526064784
0.0235101936
-0.0000513184
-0.1342143457
-0.0344980547
-0.0343782358
0.0349595674
0.0219905423
-0.0289678015
0.0331902378
0.0202755884
-0.0192524257
-0.0639425469
-0.0506945738
-0.0322589992
-0.0905196161
0.0346005613
-0.0463991943
-0.1886512425
-0.0431021775
-0.0291343880
0.0635616590
0.0235774926
-0.0813124529
-0.0475634564
0.0223155464
-0.0121202151
-0.1183871720
0.0251132675
0.0009016749
-0.0284555586
-0.0000403747
-0.0644560659
-0.1021830478
0.0534511902
-0.0164862137
0.0021966232
0.0035867666
0.0062613118
0.0401737735
-0.0067294992
-0.0223427926
-0.0942456422
-0.0035398668
-0.0095309360
-0.0223839668
0.0140832816
-0.0088945716
-0.0901178827
0.0093449635
-0.0235580427
0.0122856548
0.0138866939
-0.0042067250
0.0330674455
0.0128156134
-0.0700422872
-0.0607393185
-0.0381616033
-0.0225897945
0.0165583348
0.0299168577
0.0469899703
-0.0281874197
0.0026526061
-0.0423514457
0.0108564218
0.0364310436
-0.0060162886
0.0722640131
0.0350320767
-0.1200276404
-0.0150410231
-0.0804882028
-0.0325084314
0.0464154777
0.0566539482
0.1459214878
-0.0329291127
-0.0443133611
-0.1287238578
0.0032379848
0.0704192245
0.0370400579
0.2542337774
0.0803378838
-0.2452206650
0.0583326540
-0.0861159074
-0.0464051922
-0.0132544224
0.0637193249
0.0843447194
-0.0783518222
-0.0732287737
-0.0980953692
0.0382623584
0.0640635903
-0.0218273183
0.0997144389
0.0712475886
-0.1746198681
0.0183501283
0.0223754244
-0.0158362158
-0.1363279228
0.0130448948
-0.1908264964
-0.3135211899
0.0775256420
-0.0602084174
0.0515562017
0.0249009608
-0.0463779452
0.0928426349
-0.0078834664
0.0352934244
-0.2446775245
0.0503599188
-0.0054936543
-0.1221755395
-0.0031684328
-0.2137259991
-0.2743776371
0.1033149812
-0.0372424579
0.0390497642
0.0167172648
-0.0357040259
0.0575950189
-0.0207305417
0.0552466231
-0.2423822973
0.0658527137
0.0117740828
-0.0288139964
-0.0195271749
-0.1171769580
-0.1083297840
0.0591410464
0.0216263616
-0.0008218118
-0.0171174176
0.0183533981
0.0045388644
-0.0259909115
0.0194948792
-0.1067677256
0.0507327386
0.0086721039
-0.0298165525
-0.0147183847
-0.0831675178
-0.0818903270
0.0327039292
0.0240852853
0.0039077953
-0.0186666383
0.0059224797
-0.0217791188
-0.0241156500
0.0365101671
-0.0799187628
0.0606582996
0.0109283461
-0.0479008702
-0.0238322788
-0.1225365087
-0.1212118870
0.0526031791
0.0327404335
0.0122053697
-0.0233046912
-0.0106740187
-0.0356404926
-0.0362464851
0.0983111812
-0.1250619679
0.1074808807
0.0320058245
-0.0349729684
-0.0478203746
-0.1571578893
-0.1056896066
0.0872370626
0.0551874070
-0.0105617685
-0.0378710903
0.0273161726
-0.0452207945
-0.0587062816
0.0971890807
-0.1256603084
0.0787004398
0.0214933793
-0.0033666946
-0.0229997239
-0.0604676373
-0.0250335402
0.0408362051
0.0385423764
-0.0025890213
-0.0252515046
0.0226374540
-0.0214164506
-0.0278530599
0.0052031908
-0.0284312103
0.0360774136
-0.0020527177
-0.0286380885
-0.0025357196
-0.0468915739
-0.0689410504
0.0232289595
0.0106327518
0.0206958186
-0.0052192147
-0.0046462621
-0.0161435422
-0.0098382137
-0.0004349296
-0.0588458962
0.0143422449
-0.0097257240
-0.0461372103
0.0082513904
-0.0320075007
-0.0727491993
0.0103793660
-0.0024070008
0.0275718369
0.0078257939
-0.0304990324
0.0194995572
-0.0001254756
0.0158574007
-0.0733919964
0.0397583264
0.0022253883
-0.0032786706
-0.0051029016
-0.0284088353
-0.0307150907
0.0299234701
0.0037608754
-0.0023321245
-0.0048108148
0.0186306026
0.0378015457
-0.0055758702
-0.0246469306
-0.0403031613
0.0346299566
0.0128719822
0.0045584268
-0.0179559056
-0.0342832263
-0.0245950661
-0.0007613171
0.0348496716
-0.0076340582
-0.0263864156
0.0208825982
-0.0336551824
-0.0193653126
0.0124857937
-0.0313556145
0.0245420358
0.0037725653
-0.0249437500
-0.0062864624
-0.0355627149
-0.0534699798
0.0160210014
0.0249756823
0.0112378379
-0.0113651319
-0.0128143241
-0.0499217331
-0.0136198586
0.0164631457
-0.0660290792
0.0515028456
0.0177347886
0.0106075535
-0.0191043841
-0.0484533172
-0.0301895264
0.0248975481
0.0297495318
-0.0140498640
-0.0214502333
0.0456178158
-0.0162651380
-0.0229886671
-0.0045748788
-0.0383036768
0.0499443867
0.0148180593
0.0088321443
-0.0182829801
-0.0414110144
-0.0184493594
0.0200422309
0.0327201513
-0.0115675512
-0.0245001135
0.0364353112
-0.0187830439
-0.0205592615
-0.0018016192
-0.0320429250
0.0392054776
0.0101496833
-0.0208939874
-0.0140140711
-0.0620902397
-0.0642579642
0.0081059035
0.0353669976
0.0060810860
-0.0222994755
0.0040417303
-0.0531848941
-0.0228209944
0.0390888932
-0.0656760903
0.0380379269
0.0061910956
-0.0863098846
-0.0185665585
-0.1381087268
-0.1754917908
0.0319838369
0.0408452238
0.0340439925
-0.0262070385
-0.0390407826
-0.0869541958
-0.0365057931
0.1118435249
-0.1651453019
0.0496725394
0.0084928410
-0.0639603313
-0.0115671652
-0.1324988684
-0.1358458188
0.0469511194
0.0339497149
0.0178291483
-0.0217272496
-0.0147587967
-0.0467035527
-0.0343047798
0.0732400455
-0.1411477947
0.0539262186
0.0003257504
-0.0671005597
-0.0090559273
-0.1134034420
-0.1475899381
0.0417289364
0.0024231019
0.0275629114
-0.0072371669
-0.0052413897
-0.0264784979
-0.0203671274
0.0520614889
-0.1272985042
0.0773259766
0.0179317664
-0.0502379412
-0.0238491507
-0.1393622914
-0.1337542920
0.0873610065
0.0142123420
0.0034810761
-0.0161405224
0.0116557386
0.0115767444
-0.0357359891
0.0549893926
-0.1364719611
0.0536224496
0.0100466932
-0.0265568741
-0.0067679633
-0.0733503078
-0.0746139648
0.0290295549
0.0162810899
0.0128898615
-0.0103965148
0.0091857256
-0.0190518264
-0.0137843144
0.0133224419
-0.0600100667
0.0749053625
0.0202331586
-0.0210062900
-0.0306364044
-0.0886314040
-0.0715562829
0.0354242796
0.0458304205
-0.0055149865
-0.0345141251
0.0225306440
-0.0451323694
-0.0342422863
0.0439114769
-0.0702183338
0.0825206526
0.0269826897
-0.0003166680
-0.0364859220
-0.0895417399
-0.0283355114
0.0382032392
0.0695664681
-0.0171558225
-0.0483753338
0.0265885177
-0.0821433612
-0.0472442800
0.0621279734
-0.0565008607
0.0828894264
0.0236961587
-0.0454311720
-0.0338772332
-0.1174954439
-0.1061657842
0.0486945743
0.0540332311
0.0064844737
-0.0422743173
0.0018216325
-0.0746693655
-0.0424372869
0.0959251982
-0.1039338949
0.0675474534
0.0118768577
-0.0032622807
-0.0198165329
-0.0783547573
-0.0466708051
0.0252855626
0.0346423477
-0.0057698343
-0.0223563300
0.0297398327
-0.0272027050
-0.0199523611
0.0138984632
-0.0418835446
0.0428564481
0.0128569555
-0.0135008062
-0.0213323283
-0.0552630765
-0.0499182292
0.0028626100
0.0487031874
0.0037417827
-0.0299731118
0.0045810747
-0.0713193027
-0.0266985821
0.0544059989
-0.0531842229
0.0721860746
0.0289968096
0.0006741206
-0.0377344191
-0.0776346640
-0.0379149301
0.0177999541
0.0648691718
-0.0115705091
-0.0473248812
0.0315094230
-0.0655858655
-0.0422762511
0.0660385430
-0.0570681114
0.0709078128
0.0204553471
-0.0445967270
-0.0338409833
-0.1146210547
-0.1126101648
0.0306867652
0.0534105191
0.0071959990
-0.0377181127
0.0093530091
-0.0692377860
-0.0458871483
0.0983129958
-0.1107771613
0.0649326873
0.0136066617
-0.0001203569
-0.0197433800
-0.0677958660
-0.0356631129
0.0420669921
0.0247224270
-0.0111266423
-0.0201288685
0.0385835610
-0.0201645820
-0.0221418159
0.0118940117
-0.0594069892
0.0655159781
0.0220981176
-0.0209802294
-0.0349755083
-0.1016532772
-0.0688537954
0.0218445911
0.0621380664
0.0001355647
-0.0437225897
0.0196483121
-0.0748352140
-0.0442879357
0.0740408469
-0.0857233488
0.0548324384
0.0149666262
-0.0137957437
-0.0159760328
-0.0895977603
-0.0852129939
0.0206235381
0.0176688902
-0.0027313217
-0.0142112325
0.0342434619
-0.0204129094
-0.0207278305
-0.0033503216
-0.0742529168
0.0531005297
0.0169487851
-0.0196415424
-0.0196354655
-0.0804089668
-0.0780054661
0.0081687965
0.0316418444
0.0008547596
-0.0240968382
0.0171081020
-0.0414585547
-0.0227213342
0.0378110192
-0.0689203263
0.0055807096
-0.0200562636
-0.0560879279
0.0202532349
-0.0578803124
-0.1351755721
-0.0107848130
-0.0290226992
0.0404256882
0.0206344762
-0.0173992904
0.0064314254
0.0185575242
-0.0262069043
-0.0734426855
0.0807568317
0.0272459399
-0.0142493081
-0.0358613374
-0.0971727926
-0.0690723737
0.0275887091
0.0541907084
-0.0015862977
-0.0417790334
0.0273025782
-0.0551951568
-0.0425847616
0.0607772879
-0.0675329739
0.0859367699
0.0149000487
-0.0384330216
-0.0266408045
-0.1260367426
-0.1068273063
0.0663254956
0.0218364310
0.0026439745
-0.0181347384
0.0172564865
-0.0198978253
-0.0366927606
0.0449406441
-0.0992407269
0.0802644214
0.0247654683
-0.0127413392
-0.0318584781
-0.0913143470
-0.0628993441
0.0468802220
0.0416724214
-0.0069689050
-0.0339921375
0.0253558046
-0.0417598373
-0.0388072743
0.0461107255
-0.0691161241
0.0680810779
0.0202006429
0.0002148268
-0.0217294673
-0.0769644934
-0.0433224051
0.0307864571
0.0344206734
-0.0052333584
-0.0263460554
0.0353544313
-0.0329176302
-0.0278688038
0.0068873511
-0.0481239614
0.0504340819
0.0076383358
-0.0330567796
-0.0120717013
-0.0737303624
-0.1056803273
0.0285645468
0.0115764816
0.0109892574
-0.0127058223
0.0013907101
-0.0158296122
-0.0193270845
0.0094663343
-0.0902990459
0.0760427445
0.0253454647
-0.0491335529
-0.0406768447
-0.1298966534
-0.1183309110
0.0392054197
0.0667238745
0.0047965783
-0.0494916685
-0.0040634583
-0.0987549278
-0.0542083259
0.1423528810
-0.1175454236
0.0356904833
0.0191959557
0.0042808240
-0.0187235065
-0.0323577031
-0.0194987615
-0.0056209891
0.0492388661
-0.0033450529
-0.0316362098
0.0072547676
-0.0672937930
-0.0216775692
0.0233679345
-0.0235397185
0.0489982639
0.0175898700
0.0066461116
-0.0239101658
-0.0505868546
-0.0302316642
0.0127924969
0.0433013547
-0.0041280527
-0.0298878943
0.0219458760
-0.0416311639
-0.0234473334
0.0228739418
-0.0303268883
0.0274221654
0.0093189449
0.0310650734
-0.0063990504
-0.0038440870
-0.0010919221
-0.0124856620
0.0104560033
-0.0157297839
-0.0106525863
0.0481463660
0.0129738875
-0.0001032314
-0.0595175700
0.0104009102
0.0422765760
0.0155643026
-0.0241257943
-0.0241167438
-0.0640614265
-0.0697965658
0.0031688719
0.0497433008
0.0037122855
-0.0314440205
0.0020779868
-0.0827708736
-0.0311332095
0.0733036053
-0.0611259021
0.0419802844
0.0158771594
-0.0196657596
-0.0153609868
-0.0657479595
-0.0626618440
0.0064400761
0.0530762127
0.0028848478
-0.0312080315
0.0015752752
-0.0807057798
-0.0305230811
0.0695925204
-0.0643963509
0.0300737102
0.0154891059
-0.0010840374
-0.0174967269
-0.0382900596
-0.0314586806
-0.0086296925
0.0527836298
0.0011446965
-0.0309435036
0.0015641926
-0.0828384900
-0.0234676094
0.0622875530
-0.0274852601
0.0423205677
0.0139559980
0.0074579559
-0.0185791740
-0.0499897931
-0.0125919507
-0.0045927737
0.0576903966
-0.0041495145
-0.0318458595
0.0141143949
-0.0784883324
-0.0224092474
0.0472399890
-0.0228280711
0.0440257242
0.0088356307
-0.0242686375
-0.0169769266
-0.0742749307
-0.0753640238
0.0044176679
0.0404825212
0.0100888272
-0.0258573719
0.0118519656
-0.0630361764
-0.0233546004
0.0491019045
-0.0679752481
0.0933571879
0.0313220125
0.0155684081
-0.0405104140
-0.0943343654
-0.0333619279
0.0458920075
0.0505925627
-0.0270741875
-0.0377734244
0.0639151711
-0.0157446496
-0.0419069582
0.0274310904
-0.0493555169
0.0457756189
0.0130282781
0.0006571485
-0.0206346795
-0.0363805268
-0.0198505986
0.0086926015
0.0451085983
-0.0027120875
-0.0303766128
0.0146090987
-0.0564315320
-0.0239422717
0.0198218674
-0.0296844195
0.0458684620
0.0107821254
0.0264944532
-0.0131146388
-0.0147159695
0.0061364206
0.0012331747
0.0208365484
-0.0118733856
-0.0169694632
0.0376754135
-0.0058318875
-0.0081779361
-0.0319847730
0.0056587311
0.0633433957
0.0223081412
0.0302563201
-0.0248411013
-0.0385924489
-0.0060817042
0.0095993397
0.0316651361
-0.0221533986
-0.0308452097
0.0596038616
-0.0052447839
-0.0211667018
-0.0216028709
-0.0023221504
0.0517346262
0.0174012452
0.0230120095
-0.0237792754
-0.0292166179
0.0005483945
-0.0001376803
0.0433179315
-0.0174294576
-0.0312592512
0.0499002013
-0.0421802268
-0.0237960702
0.0021246616
0.0088732967
0.0498203246
0.0126504135
0.0010980876
-0.0172892440
-0.0519170714
-0.0294636757
0.0164320394
0.0343437092
-0.0032055001
-0.0248524719
0.0211113606
-0.0372486101
-0.0208630773
0.0112993928
-0.0353249293
0.0515027613
0.0156358256
0.0090382376
-0.0229498221
-0.0488941260
-0.0239999943
0.0083039849
0.0428558279
-0.0130406433
-0.0305835284
0.0290315596
-0.0481660649
-0.0206290257
0.0195021417
-0.0276800108
0.0535175913
0.0180053882
-0.0077281092
-0.0283177023
-0.0764196281
-0.0532487915
0.0036225399
0.0620906245
-0.0034470271
-0.0378223896
0.0085600330
-0.0864261298
-0.0337825986
0.0671209397
-0.0546320051
0.0354214315
0.0108161013
-0.0358818634
-0.0199631792
-0.0631157654
-0.0815241088
-0.0112817752
0.0497794215
0.0129404806
-0.0315284897
-0.0115446426
-0.0959538502
-0.0296695989
0.0959599275
-0.0705846458
0.0354041164
0.0107613163
0.0323179530
-0.0134713644
0.0111152803
0.0139826869
-0.0083916924
0.0300909923
-0.0167310463
-0.0207934858
0.0396102380
-0.0126072078
-0.0070121038
-0.0432665356
0.0125100345
0.0184178971
0.0034169072
0.0210973107
-0.0051688235
-0.0032915434
0.0038776738
-0.0177509196
0.0296478652
-0.0021025394
-0.0121471818
0.0222895053
-0.0198480336
-0.0032315484
-0.0333700755
-0.0003904536
0.0335230375
0.0095821537
0.0104577683
-0.0117685544
-0.0284077431
-0.0121631651
0.0032259428
0.0339921673
-0.0081406207
-0.0207006642
0.0222975792
-0.0440270635
-0.0141222935
0.0115766420
-0.0177773554
-0.0063230102
-0.0064661790
-0.0397778498
0.0046876631
-0.0085611731
-0.0825311790
-0.0343245806
0.0157083592
0.0296492905
-0.0076357745
-0.0308168201
-0.0488902376
0.0026824735
0.0372818024
-0.0553177667
0.0022253704
-0.0060878271
-0.0760004508
-0.0058595616
-0.0587774561
-0.1033669710
-0.0315318811
0.0544453110
0.0461779172
-0.0278561415
-0.0670855779
-0.1246640875
-0.0253008519
0.1189614648
-0.1084752757
0.0049802419
-0.0063859678
-0.0287097745
0.0052938281
-0.0282919797
-0.0898561432
-0.0299501977
-0.0002638441
0.0197006579
-0.0033796156
-0.0088514412
-0.0089222329
0.0039334254
0.0117930624
-0.0404646226
0.0689676058
0.0187149887
0.0168809150
-0.0252848386
-0.0687790258
-0.0240443835
0.0188542986
0.0460589713
-0.0175523280
-0.0310666657
0.0447773601
-0.0341435307
-0.0277129083
0.0140053553
-0.0255644506
0.0515434415
0.0098690606
0.0154189193
-0.0128115162
-0.0463171048
-0.0153686572
0.0025091564
0.0256755682
-0.0089831192
-0.0199127775
0.0411770852
-0.0248061212
-0.0137432193
-0.0196623954
-0.0122040992
0.0831134285
0.0245145348
0.0056050353
-0.0362734534
-0.0752479807
-0.0309192287
0.0390925434
0.0510749024
-0.0186069948
-0.0406821282
0.0457854280
-0.0325760400
-0.0396280031
0.0323484323
-0.0471565735
0.0681243286
0.0172334298
0.0126797067
-0.0200056602
-0.0543664883
-0.0187664757
0.0212203626
0.0243700291
-0.0124194482
-0.0186932807
0.0442591605
-0.0009310482
-0.0203207977
-0.0166429576
-0.0196559043
0.0379593536
0.0050882554
0.0163198275
-0.0057988899
-0.0304425775
-0.0279828707
-0.0127094974
0.0132213351
-0.0059202793
-0.0108993874
0.0397626599
-0.0056990204
-0.0035722934
-0.0317382169
-0.0044054340
0.0596497074
0.0150650795
0.0423213047
-0.0163557973
-0.0215288323
0.0106148606
0.0231877197
0.0125477802
-0.0240058321
-0.0167115230
0.0710680835
0.0188132561
-0.0111545014
-0.0559256107
0.0056734756
0.0618872339
0.0193461996
0.0447988734
-0.0186676055
-0.0346785769
0.0132514486
0.0200573250
0.0207918531
-0.0321076902
-0.0199670710
0.0718663703
0.0170328415
-0.0107250941
-0.0491977303
0.0075324017
0.0600681117
0.0181976761
0.0535881767
-0.0163792014
-0.0134968707
0.0258553334
0.0120320039
0.0085962838
-0.0329378292
-0.0164913092
0.0805062469
0.0433263730
-0.0078411545
-0.0811677033
0.0272681194
0.0613557359
0.0184240966
0.0206126718
-0.0237220125
-0.0513166411
-0.0142745930
0.0147356967
0.0439016654
-0.0166059574
-0.0319732609
0.0398846453
-0.0415776913
-0.0240072461
0.0188207335
-0.0195370808
0.0503515865
0.0084804788
-0.0070217965
-0.0122217598
-0.0701674319
-0.0669817682
0.0046769696
0.0188263067
0.0000382613
-0.0169506905
0.0237941194
-0.0229025387
-0.0138383319
0.0282665361
-0.0434037303
0.0523434445
0.0146665939
-0.0053612267
-0.0183727957
-0.0528931252
-0.0481797895
0.0183749133
0.0317675872
-0.0039237277
-0.0184365146
0.0232020544
-0.0386398873
-0.0210269513
0.0310167507
-0.0421077587
0.0540173760
0.0147951406
0.0454225166
-0.0117267504
-0.0122227568
0.0183176941
0.0216280395
0.0041003878
-0.0248906145
-0.0124418097
0.0698612709
0.0429964006
-0.0070178907
-0.0722383747
0.0086356558
0.0442022062
0.0082259585
0.0016778508
-0.0121948657
-0.0406455942
-0.0602126855
-0.0027752405
0.0125659729
-0.0041433809
-0.0095165924
0.0342846059
-0.0019522499
-0.0100264459
-0.0009678243
-0.0310171498
0.0453186243
0.0077717142
0.0043335224
-0.0104747530
-0.0406395374
-0.0419099395
0.0058996669
0.0116006247
-0.0059956778
-0.0093135143
0.0369698988
0.0009522312
-0.0104434194
-0.0179075298
-0.0294689324
0.0638502817
0.0176563494
0.0050670881
-0.0154443527
-0.0598947826
-0.0408939814
0.0243852323
0.0393332644
-0.0136181521
-0.0249311781
0.0427285886
-0.0017797529
-0.0219251755
0.0060603087
-0.0414840384
0.0499654762
0.0097417272
0.0541671895
-0.0061281691
0.0065060591
0.0360892564
0.0211025944
-0.0036372955
-0.0284497613
-0.0054950176
0.0747152631
0.0744554360
-0.0001176167
-0.0932390897
0.0306216421
0.0702942236
0.0170969797
0.0545385257
-0.0129504791
-0.0100641479
0.0515568659
0.0506978504
0.0046216411
-0.0372303008
-0.0060072876
0.0757873222
0.0801300163
-0.0061832372
-0.0822250641
0.0194969190
0.0815395232
0.0249120048
0.0847901076
-0.0254827041
-0.0129907319
0.0832541305
0.0364670988
0.0214639072
-0.0552122780
-0.0234374889
0.1053672410
0.0563206516
-0.0125628808
-0.0947048549
0.0568913179
0.0669617945
0.0115058527
0.0322606951
-0.0110731235
-0.0502283676
-0.0024719171
0.0224307302
0.0015850200
-0.0185527114
0.0044694398
0.0732772563
0.0441839672
-0.0049453097
-0.0715084429
0.0017032442
0.0536082604
0.0128232690
0.0224979870
-0.0139303244
-0.0295618802
-0.0102512398
0.0225124409
0.0122737744
-0.0173203504
-0.0129976410
0.0548379386
0.0311139391
-0.0104370780
-0.0379390984
-0.0105121862
0.0578832470
0.0179611308
0.0363980336
-0.0198457851
-0.0194278902
0.0178746909
0.0155263260
0.0270991486
-0.0249194897
-0.0210070195
0.0586705696
0.0094211582
-0.0148582275
-0.0326363910
0.0113661291
0.0862169545
0.0255343917
0.0425229622
-0.0285562715
-0.0445503183
0.0240992846
0.0342446037
0.0339953829
-0.0358977092
-0.0282001840
0.0765281057
0.0146680123
-0.0259316638
-0.0306931305
0.0002308247
0.0906279298
0.0294274452
0.0723073851
-0.0304826913
-0.0318079019
0.0552718940
0.0293190041
0.0332130974
-0.0474263542
-0.0312820916
0.1000862932
0.0326010826
-0.0222726858
-0.0613758342
0.0325373984
0.0954270324
0.0298231741
0.0656010105
-0.0329702864
-0.0392717048
0.0470877246
0.0408070001
0.0359065814
-0.0444772909
-0.0313522283
0.0999964259
0.0248045403
-0.0264031402
-0.0566173890
0.0183252181
0.0865978263
0.0227676783
0.0434377448
-0.0273539457
-0.0417364723
0.0238255120
0.0478206152
0.0269687304
-0.0352490715
-0.0257318870
0.0756644136
0.0246337964
-0.0245058016
-0.0366511756
0.0032637953
0.1030524332
0.0308383359
0.0544713800
-0.0367372653
-0.0510681875
0.0359668373
0.0546137571
0.0359213134
-0.0444573314
-0.0289078401
0.0869147743
0.0284624655
-0.0207153401
-0.0402323439
0.0103246856
0.0908904511
0.0253796698
0.0600787141
-0.0274187079
-0.0347385433
0.0378530451
0.0388502065
0.0204377913
-0.0446265722
-0.0227109212
0.0962826399
0.0579153831
-0.0201372216
-0.0581235589
0.0190699563
0.0771537476
0.0243022081
0.0317144057
-0.0304354524
-0.0512902570
0.0117639892
0.0243766647
0.0470349533
-0.0277024493
-0.0343525183
0.0621969695
-0.0174382934
-0.0286851726
-0.0029014263
-0.0103833167
0.0595234641
0.0137274915
0.0513139581
-0.0156968069
-0.0078163508
0.0482663947
0.0310099331
0.0130851060
-0.0262008611
-0.0143104149
0.0707091322
0.0608523281
-0.0093517015
-0.0686331242
0.0228291331
0.0834895704
0.0274799908
0.0421300173
-0.0324185680
-0.0524076280
0.0229705761
0.0273315558
0.0458672008
-0.0364101771
-0.0336558675
0.0704495005
-0.0064489553
-0.0303174378
-0.0138274676
-0.0029259676
0.0674336772
0.0248368542
0.0215408373
-0.0299492953
-0.0503166817
-0.0026871862
0.0222248521
0.0483563772
-0.0236961574
-0.0354456321
0.0507497581
-0.0251113148
-0.0277304424
0.0177885964
-0.0221923156
0.0799334069
0.0255402804
0.0165789342
-0.0328033796
-0.0654412215
-0.0169794999
0.0305017638
0.0517823512
-0.0179199133
-0.0352245180
0.0464895027
-0.0320697627
-0.0325237884
0.0241465150
-0.0350182084
0.0740265078
0.0170660989
0.0237189948
-0.0151224528
-0.0532822763
0.0013016567
0.0468280210
0.0280549356
-0.0204068593
-0.0219377627
0.0540703536
0.0336906222
-0.0205136693
-0.0128449615
-0.0231233982
0.0721913440
0.0199575739
0.0239928192
-0.0256140282
-0.0490750574
0.0060926313
0.0395070255
0.0386941311
-0.0207717190
-0.0292083799
0.0500965592
0.0047070014
-0.0267384776
-0.0029162961
-0.0215878466
0.0822901852
0.0255032533
0.0211996511
-0.0324662747
-0.0580123598
0.0025881879
0.0380234608
0.0518649337
-0.0252919529
-0.0339518965
0.0534796586
-0.0096562269
-0.0316716676
0.0043921846
-0.0251947011
0.0812469429
0.0262528608
0.0123052319
-0.0367894570
-0.0682411814
-0.0194375381
0.0359757294
0.0551462985
-0.0238785872
-0.0405543690
0.0470651838
-0.0308447807
-0.0351304649
0.0349434565
-0.0380747516
0.0795960472
0.0259232998
0.0252153726
-0.0324803208
-0.0544934443
0.0036849752
0.0384930317
0.0560043592
-0.0276625226
-0.0356535034
0.0614734459
-0.0208137218
-0.0312233322
0.0138632364
-0.0228287564
0.0787972324
0.0287064307
0.0264612789
-0.0339988834
-0.0553334138
0.0103397550
0.0293552438
0.0518679341
-0.0255630863
-0.0387753655
0.0547166811
-0.0227879990
-0.0323103796
0.0081079101
-0.0201750817
0.0700888217
0.0276982865
0.0199619220
-0.0306041702
-0.0475950249
-0.0027909427
0.0282798608
0.0481215547
-0.0225318033
-0.0364697748
0.0468593852
-0.0321712289
-0.0323860998
0.0113455759
-0.0188049030
0.0725558840
0.0229579370
0.0309267056
-0.0298748012
-0.0408936039
0.0066349501
0.0322631770
0.0399937983
-0.0269024807
-0.0292510830
0.0556339794
-0.0043108965
-0.0250810349
-0.0154994771
-0.0047020669
0.0783100727
0.0187437619
0.0359905716
-0.0231522752
-0.0227207383
0.0253189597
0.0560215707
0.0183133246
-0.0199133556
-0.0179545617
0.0519889000
0.0465021982
-0.0214050299
-0.0420896115
0.0085039888
0.0823567977
0.0232417095
0.0166755304
-0.0327174178
-0.0554057627
-0.0153228957
0.0471681718
0.0412652541
-0.0174947103
-0.0338514728
0.0399050525
-0.0135828163
-0.0354286068
0.0155171889
-0.0217724392
0.0748632367
0.0256731861
0.0114469565
-0.0316846798
-0.0590961058
-0.0166174295
0.0366833488
0.0540474793
-0.0190451281
-0.0382873139
0.0383386755
-0.0378143537
-0.0346577710
0.0285203269
-0.0313262648
0.0791066659
0.0284069404
0.0264621689
-0.0339887803
-0.0581721860
-0.0027944616
0.0259252495
0.0524344894
-0.0273856125
-0.0386817415
0.0536199974
-0.0264094839
-0.0246470374
0.0077065772
-0.0207939371
0.0693860332
0.0254472893
0.0144306217
-0.0299764646
-0.0573492440
-0.0087645940
0.0239055091
0.0533451352
-0.0160371544
-0.0359325732
0.0424049534
-0.0399266440
-0.0348172909
0.0287007478
-0.0280828991
0.0697531828
0.0258543697
0.0148016775
-0.0314042689
-0.0487629603
-0.0083715110
0.0273487519
0.0549242308
-0.0137117499
-0.0378569060
0.0376544384
-0.0408149224
-0.0330555328
0.0264365887
-0.0276423667
0.0775492171
0.0278962551
-0.0103342957
-0.0345203732
-0.0916316228
-0.0510334330
0.0347252261
0.0611281787
-0.0076676747
-0.0419786281
0.0283341052
-0.0574556077
-0.0427493158
0.0540740581
-0.0714457509
0.0776795224
0.0278636295
0.0058238094
-0.0363611284
-0.0827903462
-0.0260601935
0.0327110323
0.0628839555
-0.0199639358
-0.0407315208
0.0434830485
-0.0535485673
-0.0395812971
0.0420657614
-0.0476145490
0.0669863352
0.0208996732
-0.0015347404
-0.0270021077
-0.0742630335
-0.0314535606
0.0322622565
0.0488985261
-0.0144533772
-0.0261647034
0.0287205075
-0.0311242761
-0.0326945675
0.0271201066
-0.0469858670
0.0628323604
0.0235701039
0.0085100114
-0.0283253903
-0.0606030068
-0.0255307580
0.0293614223
0.0532171381
-0.0098228667
-0.0364108940
0.0232726058
-0.0500843604
-0.0342305955
0.0369748389
-0.0431785782
0.0584832617
0.0163450798
-0.0188262169
-0.0276831679
-0.0729937884
-0.0390596565
0.0189084560
0.0673150655
0.0020219300
-0.0385507858
0.0065317865
-0.0716464804
-0.0380677771
0.0627664930
-0.0712938528
0.0599331085
0.0174620529
-0.0052086852
-0.0281475847
-0.0666942750
-0.0255788294
0.0216415177
0.0623086785
-0.0014648896
-0.0306102101
0.0017765925
-0.0708913115
-0.0360934661
0.0647926854
-0.0525839103
0.0865035972
0.0277881300
0.0054280539
-0.0381051902
-0.0752959919
-0.0190575306
0.0417286336
0.0682026242
-0.0152384134
-0.0436341430
0.0342967989
-0.0548843382
-0.0429145170
0.0434236876
-0.0433959452
0.0823042354
0.0242506204
0.0020815571
-0.0360294234
-0.0744928814
-0.0226345854
0.0387858966
0.0628275685
-0.0139640484
-0.0418930441
0.0271081946
-0.0635510764
-0.0442869799
0.0496026689
-0.0499706176
0.0565597385
0.0177909714
0.0010121329
-0.0252724182
-0.0488916808
-0.0167187258
0.0156791084
0.0614313822
-0.0068043575
-0.0333529919
0.0171995633
-0.0648419128
-0.0329318307
0.0363455911
-0.0318136308
0.0770830724
0.0246155420
-0.0260370377
-0.0338369448
-0.1011237014
-0.0734851959
0.0415121374
0.0651502824
-0.0066853750
-0.0448775232
0.0101301144
-0.0805011670
-0.0463348697
0.0700074187
-0.0831490586
0.0802007645
0.0226471343
0.0010786245
-0.0335399635
-0.0667544878
-0.0141902220
0.0395059388
0.0556349608
-0.0093338588
-0.0376933587
0.0265311222
-0.0466515329
-0.0336516674
0.0405796222
-0.0409180037
0.0621890012
0.0226010404
-0.0039390275
-0.0299361820
-0.0655200920
-0.0208277765
0.0226712818
0.0651929710
-0.0091361880
-0.0406913636
0.0018371988
-0.0856078820
-0.0357434283
0.0613151003
-0.0299025732
0.0733566437
0.0255074532
-0.0068053288
-0.0330345433
-0.0823647744
-0.0350341755
0.0304805921
0.0625135689
-0.0116422455
-0.0431575387
0.0229478660
-0.0650850199
-0.0412340033
0.0565909486
-0.0623007471
0.0785982384
0.0276136381
0.0108218813
-0.0377794605
-0.0760405847
-0.0135896614
0.0314834243
0.0703311241
-0.0209711681
-0.0440550357
0.0344564792
-0.0592302280
-0.0397945472
0.0483547287
-0.0432808330
0.0600068125
0.0221949238
0.0003005377
-0.0320281340
-0.0642445190
-0.0226829671
0.0114561273
0.0734612864
-0.0081505120
-0.0412616486
0.0139228750
-0.0823933756
-0.0383028307
0.0630267943
-0.0514388657
0.0490038684
0.0173839058
-0.0045259806
-0.0261466880
-0.0542227387
-0.0146173870
0.0080709964
0.0664707916
-0.0049108744
-0.0399888323
0.0076743727
-0.0828187358
-0.0305548811
0.0536523312
-0.0494839038
0.0584642681
0.0187814653
0.0071714165
-0.0297633571
-0.0554187986
-0.0105724099
0.0129911668
0.0643001061
-0.0118211091
-0.0401831214
0.0232636987
-0.0611315242
-0.0332237003
0.0397276280
-0.0421196856
0.0688463797
0.0214796814
-0.0034979378
-0.0274423860
-0.0802669386
-0.0442002604
0.0317778513
0.0523147094
-0.0142104891
-0.0347721644
0.0279157664
-0.0424333593
-0.0356220446
0.0343805128
-0.0614180883
0.0750393473
0.0261508182
0.0056952424
-0.0353682698
-0.0688420547
-0.0202679402
0.0256268478
0.0625935538
-0.0166378809
-0.0404382896
0.0353764092
-0.0591501299
-0.0407281817
0.0401964478
-0.0432317741
0.0821343423
0.0291633936
-0.0250328265
-0.0385199567
-0.1155134057
-0.0817631289
0.0449464837
0.0688929788
-0.0078934754
-0.0467664718
0.0151225984
-0.0744618708
-0.0484588196
0.0668129901
-0.0967739731
0.0566676410
0.0180094385
-0.0035100761
-0.0257406028
-0.0581856759
-0.0249664134
0.0171034454
0.0554625170
-0.0040647837
-0.0360246149
0.0143174029
-0.0629585267
-0.0333175814
0.0437312674
-0.0499926766
0.0674624686
0.0217976599
-0.0234203559
-0.0320454554
-0.0943260793
-0.0703925599
0.0292396588
0.0551219932
-0.0046178049
-0.0377996485
0.0120163672
-0.0653165950
-0.0399629451
0.0549741212
-0.0813424122
0.0434699403
0.0149041524
-0.0091276257
-0.0255571276
-0.0596717147
-0.0278850653
0.0003107471
0.0686225436
-0.0004196953
-0.0402779821
0.0028502143
-0.0910959946
-0.0336629038
0.0630464805
-0.0518667770
0.0449874624
0.0169481483
-0.0026889722
-0.0280749588
-0.0646447450
-0.0172983245
-0.0007574328
0.0788927343
-0.0002486089
-0.0439018368
-0.0043754739
-0.1162604522
-0.0382796212
0.0855508288
-0.0449425253
0.0680095289
0.0233947255
0.0093842167
-0.0284239605
-0.0550437305
-0.0089103707
0.0155085050
0.0661073222
-0.0166021266
-0.0434404434
0.0308952259
-0.0704229827
-0.0346307241
0.0442537178
-0.0366888080
0.0446746410
0.0137004833
-0.0733117835
-0.0312809849
-0.1138557895
-0.1233834398
0.0110522993
0.0766777889
0.0280510575
-0.0417320456
-0.0400089634
-0.1336190982
-0.0511767706
0.1234974521
-0.1397736276
0.0641784841
0.0208631066
-0.0006337517
-0.0287641013
-0.0581930034
-0.0219762647
0.0108577740
0.0633140815
-0.0094021319
-0.0413840084
0.0216707808
-0.0754815057
-0.0368288548
0.0530205049
-0.0425827837
0.0637106541
0.0250098240
0.0339743155
-0.0259657340
-0.0460579913
0.0134031480
0.0199872282
0.0469461949
-0.0221279439
-0.0285170108
0.0532976046
-0.0278349238
-0.0226591924
-0.0029944377
-0.0060945384
0.0353571852
0.0103436116
-0.0060999443
-0.0195579172
-0.0568762106
-0.0176063158
-0.0061642080
0.0633187178
0.0094016931
-0.0328411183
-0.0074521067
-0.0961110130
-0.0287011353
0.0713855326
-0.0428594061
0.0571761143
0.0207241135
-0.0172381448
-0.0325214481
-0.0809348818
-0.0413357834
0.0176824584
0.0712761352
-0.0038858554
-0.0454719973
0.0036686569
-0.0967621582
-0.0401710853
0.0755586028
-0.0716076278
0.0515467316
0.0159250994
-0.0302884492
-0.0298647239
-0.0839620345
-0.0470831224
0.0043011278
0.0750937645
0.0080526728
-0.0456263550
-0.0106327623
-0.1145060551
-0.0378795966
0.0861099229
-0.0834708008
0.0667315608
0.0250610464
0.0211467715
-0.0312187450
-0.0727013208
-0.0020867476
0.0081399859
0.0700422676
-0.0133030866
-0.0413713222
0.0374769274
-0.0784440827
-0.0342871448
0.0470998062
-0.0170916728
0.0547627658
0.0193561740
0.0163100988
-0.0221891405
-0.0462393991
-0.0118973540
0.0115198520
0.0483495549
-0.0195890909
-0.0311809641
0.0354013481
-0.0391780086
-0.0268482534
0.0135547241
-0.0221298278
0.1004465196
0.0361911831
0.0359612933
-0.0455910358
-0.0824201949
0.0127801194
0.0382581958
0.0743404136
-0.0343426842
-0.0535711045
0.0739416252
-0.0492214264
-0.0459024232
0.0197236069
-0.0134717210
0.0449106957
0.0163116574
0.0496917775
-0.0141657439
-0.0199550244
0.0314850381
0.0001001968
0.0409586815
-0.0289220528
-0.0269901703
0.0524644876
-0.0329830613
-0.0154196937
-0.0206904628
0.0260883315
0.0618565420
0.0204561885
0.0173660275
-0.0278005906
-0.0558078207
-0.0288757379
0.0260743940
0.0403099247
-0.0219299412
-0.0258290727
0.0476444172
-0.0219750746
-0.0253489120
-0.0138025682
-0.0308815411
0.0553001986
0.0227082825
0.0317813516
-0.0283183845
-0.0446539784
0.0137449334
0.0033889465
0.0600666174
-0.0232808393
-0.0327648239
0.0424644423
-0.0560788561
-0.0287164536
0.0117231880
-0.0048984679
0.0630454950
0.0237826570
0.0262336416
-0.0187196352
-0.0458294748
0.0175670465
0.0123046660
0.0616082189
-0.0233482673
-0.0410913386
0.0448586793
-0.0473096628
-0.0332192154
0.0150521375
-0.0173790045
0.0664057855
0.0240538730
-0.0069233439
-0.0378102369
-0.0913820743
-0.0357044709
0.0220558919
0.0767042836
-0.0086727802
-0.0459965020
0.0174197534
-0.0924862390
-0.0462128664
0.0712836133
-0.0676340701
0.0598860900
0.0219817901
-0.0115827008
-0.0275033755
-0.0697383518
-0.0367178995
0.0106635110
0.0631044249
-0.0036557190
-0.0410122874
0.0139963197
-0.0853021767
-0.0379567653
0.0589095544
-0.0578710861
-0.0169951431
-0.0064072634
-0.0614778322
-0.0081805974
-0.0345438343
-0.0538996552
-0.0510230550
0.0883182519
0.0480642843
-0.0378212431
-0.0771728648
-0.1642997516
-0.0266024912
0.1147458496
-0.0896697706
0.0067522682
0.0075195324
-0.0004817819
-0.0144230019
-0.0155544094
0.0087344198
-0.0389158447
0.0709579898
0.0096916307
-0.0359716055
-0.0216123797
-0.1186648767
-0.0184978638
0.0694524560
-0.0147050456
0.0365197007
0.0133888980
-0.0225919114
-0.0260863399
-0.0643922420
-0.0452561420
-0.0092207012
0.0714842463
0.0095818743
-0.0413298304
-0.0115250465
-0.1125651851
-0.0367148516
0.0754686067
-0.0669944369
0.0507320085
0.0165553212
-0.0460141079
-0.0335879435
-0.0928886373
-0.0787449631
0.0095470079
0.0905555894
0.0161562088
-0.0469933698
-0.0201965278
-0.1270733032
-0.0488317890
0.1085177149
-0.1068950790
0.0534859470
0.0194339261
-0.0187893626
-0.0278385255
-0.0767379018
-0.0475273757
0.0127558833
0.0710355295
0.0060530055
-0.0445777432
0.0092696644
-0.0900747927
-0.0394453750
0.0683261043
-0.0697755713
0.0814138004
0.0281208251
-0.0692280533
-0.0408652839
-0.1612838592
-0.1516608662
0.0422837357
0.0716919933
0.0095767581
-0.0514141361
-0.0040882201
-0.1093561170
-0.0551780268
0.1055483275
-0.1587719434
0.0616385735
0.0201501507
-0.0570754537
-0.0356390859
-0.1444990378
-0.1468858635
0.0297161945
0.0632789544
0.0105500318
-0.0411907244
-0.0121280499
-0.1036529428
-0.0489952094
0.0917679692
-0.1397096633
0.0817926656
0.0241297070
-0.1202862393
-0.0441772509
-0.2340317892
-0.2450123642
0.0603086679
0.0751343857
0.0304748221
-0.0445841175
-0.0323232733
-0.1358666980
-0.0690784865
0.1297790983
-0.2351091803
0.0908971916
0.0324790799
-0.0296589263
-0.0441618158
-0.1342818476
-0.1011900575
0.0411416260
0.0735537107
-0.0107163785
-0.0509206744
0.0263481362
-0.0896356574
-0.0566483488
0.0662694766
-0.1093372700
0.0605073774
0.0213325575
-0.0125399311
-0.0320646147
-0.0696730587
-0.0487931520
0.0111327281
0.0641817530
-0.0068403928
-0.0447971924
0.0198686008
-0.0832995490
-0.0345986076
0.0455222045
-0.0644338834
0.0387798569
0.0180091911
-0.0014934452
-0.0247395658
-0.0371976133
-0.0062714433
-0.0117647221
0.0692212885
-0.0044897070
-0.0411084997
0.0067713037
-0.0826938112
-0.0298436091
0.0540815374
-0.0319243204
0.0500308083
0.0208453926
0.0038608061
-0.0274467715
-0.0484808919
-0.0065699074
-0.0019715979
0.0600047282
-0.0079258467
-0.0381982525
0.0222213708
-0.0708252441
-0.0297899270
0.0289262978
-0.0283416918
0.0439917386
0.0123579549
-0.0353292667
-0.0256103605
-0.0708102927
-0.0621372289
-0.0009542399
0.0602919815
0.0115853334
-0.0369520179
-0.0077609566
-0.0793115279
-0.0345391012
0.0517241043
-0.0855436521
0.0880718684
0.0276353300
0.0115908323
-0.0278135940
-0.0839970223
-0.0313026872
0.0335812998
0.0521876963
-0.0252255447
-0.0401195035
0.0505371173
-0.0306285865
-0.0394717969
0.0141492885
-0.0506021455
0.0673177652
0.0229303127
-0.0043317677
-0.0317609375
-0.0781156772
-0.0443927994
0.0269006416
0.0555717199
-0.0097553649
-0.0361874277
0.0289844067
-0.0424362206
-0.0361961928
0.0245374647
-0.0660428037
0.0396202887
0.0132630775
-0.0180689582
-0.0209330061
-0.0453556706
-0.0229180386
-0.0112663898
0.0621837618
0.0080743679
-0.0360882384
-0.0036718652
-0.0932977534
-0.0279094359
0.0568019348
-0.0515475925
0.0650140308
0.0243849073
0.0179821534
-0.0330613258
-0.0492515089
0.0090420182
0.0069720476
0.0678708306
-0.0185987337
-0.0425517822
0.0407353461
-0.0532424130
-0.0353343298
0.0226591741
-0.0195014304
0.0514041802
0.0210919965
0.0370203929
-0.0269118927
-0.0203438199
0.0363993568
0.0024966667
0.0629409842
-0.0229706774
-0.0363908357
0.0459535925
-0.0474273060
-0.0228257059
-0.0049961476
0.0107077013
0.0481421626
0.0184816437
-0.0384907309
-0.0345981081
-0.0856134322
-0.0507652448
-0.0021001693
0.0905596458
0.0118032887
-0.0512651169
-0.0209748722
-0.1466264152
-0.0452446164
0.1030017578
-0.0918576551
0.0643412616
0.0252578580
-0.0019700812
-0.0335469942
-0.0715839523
-0.0372488316
0.0175148929
0.0573860656
-0.0150918833
-0.0390321779
0.0266977547
-0.0664911794
-0.0324975963
0.0364860121
-0.0468807876
0.0400805332
0.0141554190
0.0040514715
-0.0229268060
-0.0411617725
-0.0150714159
-0.0029556298
0.0539424160
-0.0065856739
-0.0342880105
0.0141378338
-0.0680411769
-0.0262551346
0.0316142251
-0.0272532722
0.0503818366
0.0225206258
0.0271460136
-0.0261891168
-0.0355659945
0.0098621144
0.0049963787
0.0527298377
-0.0215723726
-0.0372477986
0.0414082078
-0.0430032500
-0.0290153634
0.0080010312
-0.0149834156
0.0200266803
0.0114988882
0.0190114176
-0.0138310984
-0.0024548869
0.0115296577
-0.0206187525
0.0437017203
-0.0066356058
-0.0292912738
0.0182467533
-0.0499549123
-0.0131155114
-0.0009939783
-0.0022896246
0.0666583386
0.0254272640
0.0131538598
-0.0331030886
-0.0584356015
-0.0140734141
0.0153100207
0.0598094001
-0.0196012954
-0.0381161390
0.0391809027
-0.0566438980
-0.0350750896
0.0241329508
-0.0334745339
0.0684855533
0.0249052008
0.0100311716
-0.0347225412
-0.0700817351
-0.0256730211
0.0195384994
0.0708059694
-0.0138769337
-0.0431501383
0.0312484635
-0.0671232025
-0.0316270742
0.0495391692
-0.0474499915
0.0671222640
0.0223085695
-0.0023444113
-0.0221337092
-0.0628701744
-0.0308416767
0.0197399133
0.0550196251
-0.0136601181
-0.0359926220
0.0289546678
-0.0543735532
-0.0351661397
0.0326899829
-0.0495041262
0.0532399438
0.0245776715
0.0141507003
-0.0281725617
-0.0440806589
-0.0004177215
0.0034431261
0.0569453306
-0.0180085424
-0.0377019032
0.0313284406
-0.0617671528
-0.0271571116
0.0293481921
-0.0208476529
0.0333059141
0.0185224831
0.0234361560
-0.0131064042
-0.0051533314
0.0113145044
-0.0105241123
0.0402418406
-0.0146785894
-0.0220795055
0.0317850267
-0.0503101847
-0.0162603636
0.0041943196
0.0062428451
0.0578214547
0.0275182551
0.0340094591
-0.0308197247
-0.0373848172
0.0185019251
0.0090941766
0.0579179520
-0.0278918350
-0.0394754458
0.0470896262
-0.0394724764
-0.0271585202
-0.0075603028
-0.0023119587
0.0548962606
0.0232315872
0.0430102612
-0.0281009982
-0.0227164152
0.0249864721
0.0021326399
0.0537467020
-0.0268950566
-0.0356509548
0.0474375728
-0.0339891070
-0.0255031119
-0.0058267498
0.0059719426
0.0630323079
0.0233024628
0.0199258073
-0.0245046923
-0.0369629351
0.0054101383
0.0078106537
0.0570534741
-0.0201488323
-0.0391451328
0.0354224020
-0.0530700827
-0.0290099181
0.0214524643
-0.0143534650
0.0682602068
0.0267788303
0.0210587892
-0.0322856274
-0.0580071269
0.0022790555
0.0165175515
0.0635270778
-0.0251483350
-0.0440244050
0.0387600818
-0.0560054339
-0.0317341746
0.0319005779
-0.0229338477
0.0582017884
0.0195534862
0.0154186993
-0.0226214344
-0.0370420920
0.0033042644
0.0019092776
0.0579725111
-0.0136497755
-0.0388283636
0.0285467989
-0.0548627340
-0.0289914817
0.0159945224
-0.0171232609
0.0708672648
0.0328661676
0.0304386356
-0.0347759764
-0.0483668321
0.0155190150
0.0158860581
0.0625370992
-0.0317230884
-0.0389057164
0.0527465726
-0.0486547886
-0.0333940939
0.0150946474
-0.0098952887
0.0571981496
0.0221628445
0.0291170819
-0.0306524952
-0.0319109155
0.0159681626
0.0035460720
0.0599929380
-0.0244563086
-0.0398272063
0.0400105804
-0.0513276980
-0.0289123181
0.0081431649
0.0001036766
0.0649435224
0.0288755007
0.0268689954
-0.0313288603
-0.0488521077
0.0060093132
0.0200646801
0.0551268248
-0.0276992750
-0.0387038186
0.0487732184
-0.0372475733
-0.0296015241
0.0086483659
-0.0133455717
0.0058563924
0.0108694296
0.0316716333
-0.0054738531
0.0365252027
0.0334013643
-0.0349306117
0.0363326091
-0.0092105311
-0.0176288967
0.0131684499
-0.0251430060
-0.0030188446
-0.0296269413
0.0287088654
0.0536491234
0.0243901536
0.0095398582
-0.0287365822
-0.0395616197
-0.0058975974
0.0047792475
0.0613928405
-0.0135694151
-0.0380116678
0.0245387169
-0.0664131876
-0.0318996031
0.0353126034
-0.0245071195
0.0183717550
0.0106258609
0.0160753601
-0.0167851895
0.0014724933
0.0127468896
-0.0186200993
0.0520204549
-0.0048634285
-0.0311641639
0.0048170207
-0.0556677991
-0.0134611834
0.0090504561
-0.0007414389
0.0455243421
0.0194052054
0.0118660145
-0.0229452769
-0.0366694986
0.0068780993
-0.0065389173
0.0694917152
-0.0120703599
-0.0410293923
0.0161550879
-0.0827325365
-0.0302307118
0.0466168779
-0.0217731320
0.0566743372
0.0344203235
0.0456129226
-0.0296077338
-0.0342315725
0.0388724952
0.0037477336
0.0581276763
-0.0314680980
-0.0370440975
0.0505531554
-0.0506978330
-0.0258247934
0.0020541178
0.0150732195
0.0333643901
0.0124606129
0.0328876366
-0.0157347046
0.0014239700
0.0163857631
-0.0013293928
0.0320586101
-0.0184464172
-0.0225180270
0.0377435129
-0.0145451832
-0.0095014675
-0.0325083998
0.0143555221
0.0514699415
0.0208406086
0.0082891501
-0.0262314463
-0.0417698619
-0.0193886337
0.0117771150
0.0522125704
-0.0128018152
-0.0350037806
0.0243708219
-0.0571808636
-0.0300180562
0.0308250582
-0.0304064477
0.0612566796
0.0229070168
0.0141116770
-0.0307013393
-0.0501782398
-0.0208619170
0.0184030763
0.0600907329
-0.0136888771
-0.0414280943
0.0286083880
-0.0658678289
-0.0321500592
0.0381948771
-0.0368078026
0.0610448589
0.0252197202
0.0066969561
-0.0321689981
-0.0603956641
-0.0181744603
0.0123838233
0.0645888816
-0.0152409232
-0.0400710732
0.0238513220
-0.0743502680
-0.0320823531
0.0520667089
-0.0391998145
0.0526680134
0.0221043634
-0.0015751446
-0.0279038487
-0.0505849803
-0.0208320371
0.0045992148
0.0665905938
-0.0095715488
-0.0400250216
0.0154822283
-0.0828952842
-0.0337465841
0.0536587530
-0.0363902946
0.0425124704
0.0164894868
-0.0094367272
-0.0228033022
-0.0451550614
-0.0385441795
0.0007170475
0.0528883999
0.0005614840
-0.0318939327
0.0077673258
-0.0656945775
-0.0274463188
0.0451515068
-0.0416575056
0.0352281837
0.0151813201
0.0202130927
-0.0165021481
-0.0049693731
0.0147361613
-0.0094486212
0.0414733167
-0.0097934511
-0.0191690844
0.0279474878
-0.0293981437
-0.0135264996
-0.0142343283
-0.0005539711
0.0452865017
0.0167563693
0.0024393234
-0.0249770193
-0.0453823850
-0.0136108109
0.0021258328
0.0563622744
-0.0076973086
-0.0327310766
0.0126029079
-0.0651872871
-0.0270339733
0.0408400852
-0.0303783704
0.0319564846
0.0084037382
0.0016652803
-0.0116215728
-0.0132641602
-0.0260395418
0.0000869673
0.0264447666
-0.0052611384
-0.0154777558
0.0153337508
-0.0267803164
-0.0122928046
-0.0017408778
-0.0174675882
0.0561024029
0.0224685962
0.0077723045
-0.0252239234
-0.0513352378
-0.0112474557
0.0128088098
0.0504965507
-0.0124931401
-0.0276038712
0.0293187844
-0.0378710106
-0.0276447329
0.0199907750
-0.0312349045
0.0466048201
0.0119908136
-0.0260267889
-0.0182354667
-0.0646063543
-0.0737995155
0.0107029677
0.0293327770
0.0099305616
-0.0201290889
0.0075544745
-0.0344382544
-0.0231695144
0.0254158392
-0.0634953741
0.0162705190
0.0089304363
-0.0037257032
-0.0100152917
-0.0102235715
-0.0185628915
-0.0196215519
0.0393709704
0.0051730526
-0.0238567669
-0.0064738467
-0.0482264721
-0.0132108757
0.0204342499
-0.0262834523
0.0494931426
0.0186576234
0.0147231186
-0.0262717923
-0.0285630746
-0.0065373735
0.0063832277
0.0514112827
-0.0166114390
-0.0343754592
0.0272904615
-0.0424325003
-0.0255136197
0.0196505954
-0.0188511727
-0.0046493991
-0.0038980756
-0.0378711561
-0.0034988629
-0.0024008304
-0.0498261728
-0.0288544934
0.0406299065
0.0281871739
-0.0213561461
-0.0458149057
-0.0771175060
-0.0093571668
0.0531209696
-0.0532956959
0.0208275103
0.0089743410
-0.0052785829
-0.0131908747
-0.0140387994
-0.0216279344
-0.0092397329
0.0407468511
0.0034335946
-0.0217780424
-0.0062500590
-0.0511176143
-0.0172777133
0.0293151986
-0.0285282991
0.0247057748
0.0073700297
-0.0311910441
-0.0169840816
-0.0443179179
-0.0367905227
-0.0092976003
0.0663356810
0.0168356202
-0.0367424654
-0.0190131406
-0.0833608429
-0.0291075703
0.0655654047
-0.0644214331
0.0182814534
0.0076509509
0.0297959708
-0.0088376289
0.0172919980
0.0058004637
-0.0115946348
0.0218428011
-0.0105086978
-0.0143533022
0.0162899416
-0.0077267459
-0.0033979161
-0.0326872912
0.0115073847
0.0649156137
0.0234470093
0.0328857362
-0.0277897122
-0.0388444098
0.0099901162
0.0202861022
0.0468218749
-0.0227088354
-0.0342167178
0.0447633535
-0.0193822201
-0.0282764114
-0.0058838582
-0.0052034256
0.0580522044
0.0225690127
0.0145564395
-0.0270640707
-0.0396054073
-0.0100256925
0.0086460713
0.0510233082
-0.0148966987
-0.0342381971
0.0298880291
-0.0469223019
-0.0275754491
0.0193619655
-0.0225884665
0.0801683951
0.0275542231
0.0091683229
-0.0354866361
-0.0854625737
-0.0267011326
0.0374211777
0.0588710263
-0.0227438541
-0.0425042546
0.0369751627
-0.0508314156
-0.0416431337
0.0437130386
-0.0438675474
0.0797416734
0.0271986990
0.0202506024
-0.0358061963
-0.0755627805
0.0051744978
0.0254281470
0.0666501168
-0.0227859652
-0.0459999356
0.0485950754
-0.0505700988
-0.0406304598
0.0251117419
-0.0336121789
0.0550885465
0.0210302574
0.0127589036
-0.0246035075
-0.0340200116
-0.0059375169
0.0127957125
0.0501838439
-0.0160558863
-0.0334635891
0.0256667904
-0.0427932887
-0.0254105785
0.0125260144
-0.0189602140
0.0801748178
0.0330335648
0.0262039354
-0.0350053004
-0.0590561939
0.0095089352
0.0317738653
0.0600653896
-0.0298739685
-0.0416663198
0.0519736236
-0.0427407079
-0.0357266228
0.0194583879
-0.0146790674
0.0322445331
0.0096425590
-0.0027293144
-0.0150212189
-0.0277522313
-0.0274697458
-0.0014129824
0.0335837730
-0.0029359071
-0.0214614721
0.0104762166
-0.0465814228
-0.0162323099
0.0238652855
-0.0263150402
0.0661211087
0.0186206137
0.0133734752
-0.0258319490
-0.0563874527
-0.0228450441
0.0245416480
0.0367377815
-0.0152756460
-0.0188702855
0.0526672255
-0.0093500023
-0.0242848330
0.0014650420
-0.0304384027
0.0868538439
0.0261336655
0.0340735482
-0.0326792507
-0.0656022533
0.0171808765
0.0421017573
0.0416325954
-0.0331708990
-0.0339152260
0.0701570136
-0.0124233128
-0.0307240500
-0.0130239243
-0.0092584712
0.0840939670
0.0305300499
0.0441501467
-0.0345312976
-0.0523070522
0.0193566925
0.0363426096
0.0379278961
-0.0401935092
-0.0328483596
0.0833671640
0.0067846639
-0.0280709960
-0.0283088171
-0.0000936476
0.0831716539
0.0274788744
-0.0020671836
-0.0365923334
-0.0878170929
-0.0367166648
0.0422471799
0.0462737325
-0.0203384026
-0.0354406876
0.0454073060
-0.0351769290
-0.0394751424
0.0406071516
-0.0614400322
0.0829207260
0.0321642592
0.0146828113
-0.0377965172
-0.0883127272
-0.0191321545
0.0389391850
0.0514522911
-0.0239527527
-0.0375036421
0.0536514209
-0.0229061703
-0.0407051916
0.0322369058
-0.0466689083
0.0333681143
0.0088061818
-0.0236215695
-0.0188647574
-0.0556582580
-0.0405093600
0.0034004000
0.0436720786
0.0074294042
-0.0295564132
0.0019355471
-0.0552865300
-0.0261939959
0.0485214926
-0.0612618492
0.0379920754
0.0112560621
-0.0103661501
-0.0194330701
-0.0459123222
-0.0326906414
0.0033266956
0.0499941354
0.0007036843
-0.0282327235
0.0010425259
-0.0564467690
-0.0256802842
0.0395292393
-0.0480062289
0.0205029746
0.0034952503
-0.0232439423
-0.0122921773
-0.0286756138
-0.0316359374
-0.0087103506
0.0493987672
0.0144999473
-0.0249146987
-0.0134954425
-0.0651773223
-0.0123485487
0.0437740637
-0.0514992910
0.0428640661
0.0168027500
0.0377633620
-0.0167963585
0.0022737066
0.0265657757
-0.0024419378
0.0281355222
-0.0225502264
-0.0206263777
0.0516340468
0.0124242291
-0.0105870713
-0.0426967146
0.0167360546
-0.0041077205
-0.0032379665
-0.0634897062
-0.0109601424
-0.0246996768
-0.0540120003
-0.0334182254
0.0726184274
0.0449909973
-0.0342626831
-0.0692383861
-0.1297496801
-0.0274289995
0.1039076747
-0.0911363411
-0.0175290176
-0.0137075621
-0.0831257670
-0.0008862356
-0.0456169920
-0.0573919954
-0.0342817840
0.0794377129
0.0633101277
-0.0326599822
-0.1013716761
-0.1746836270
-0.0289136271
0.1318802321
-0.1281482212
0.0665897339
0.0234667195
0.0399968455
-0.0276795156
-0.0377916782
0.0274880346
0.0264291291
0.0435487954
-0.0298024894
-0.0320899393
0.0602335340
-0.0170235465
-0.0255591363
-0.0184948758
0.0004508704
0.0607781399
0.0279955804
0.0479840018
-0.0238577533
-0.0116379697
0.0357946906
0.0113718329
0.0387509819
-0.0334676468
-0.0305107347
0.0636943097
-0.0005997594
-0.0207379717
-0.0352882416
0.0131315880
0.0212261830
0.0074130248
0.0049282676
-0.0150458310
-0.0118485566
0.0215385423
-0.0178477059
0.0608644491
0.0008389889
-0.0346489690
0.0078929754
-0.0767093124
-0.0228771565
0.0221163488
-0.0183237342
0.0764803177
0.0271962497
0.0196209231
-0.0366988575
-0.0796208162
0.0255775352
0.0183814841
0.0859597696
-0.0169331019
-0.0520417753
0.0360715923
-0.0840407588
-0.0446934835
0.0540342226
-0.0365381013
0.0613001841
0.0188981847
0.0022954214
-0.0267550824
-0.0775376112
-0.0030704559
0.0150572100
0.0770972229
-0.0056725020
-0.0465532837
0.0185100091
-0.0845669641
-0.0398561374
0.0589085255
-0.0552199146
0.0813022218
0.0238724100
-0.0022814131
-0.0355719295
-0.0808318920
-0.0156325772
0.0441273061
0.0591557125
-0.0153030942
-0.0393031573
0.0236433730
-0.0625587072
-0.0427800962
0.0485773861
-0.0536756939
0.0919089247
0.0262732298
0.0205546643
-0.0349544798
-0.0726753890
0.0141791707
0.0640659653
0.0513158805
-0.0314072331
-0.0299730254
0.0540215413
-0.0308163670
-0.0334357244
0.0043482693
-0.0322418503
0.0926764142
0.0293498324
0.0477823013
-0.0296354940
-0.0462941971
0.0367507051
0.0457834309
0.0501391827
-0.0397287500
-0.0305907673
0.0758368831
-0.0200232028
-0.0176644574
-0.0271788270
0.0016485651
0.0762046641
0.0269370686
0.0545038699
-0.0325370197
-0.0458114546
0.0421964338
0.0258660277
0.0573992576
-0.0393259956
-0.0349075957
0.0677331113
-0.0279164529
-0.0279629847
-0.0178913129
0.0102966920
0.0507814683
0.0146141985
0.0132204565
-0.0205364194
-0.0372243221
-0.0039899549
0.0231453368
0.0388663473
-0.0173546279
-0.0224845141
0.0278673875
-0.0370525597
-0.0186149897
0.0033146541
-0.0164849981
0.0713565110
0.0247466763
0.0161842399
-0.0360655541
-0.0629508258
0.0157769030
0.0241118923
0.0715867582
-0.0232155024
-0.0449139882
0.0363013728
-0.0771361232
-0.0385221124
0.0395449415
-0.0291143395
0.0360558474
0.0122602218
-0.0405429132
-0.0278551994
-0.0658292675
-0.0428446280
0.0007052240
0.0835718592
0.0181361428
-0.0445261819
-0.0364247421
-0.1323423262
-0.0380805108
0.1105791529
-0.0904628540
-0.0212283715
-0.0073152105
-0.1161531611
-0.0080905166
-0.0542900464
-0.0798644205
-0.0516939009
0.1142512347
0.0810556499
-0.0501960135
-0.1406509325
-0.2479381420
-0.0403355853
0.2142230314
-0.1532181327
0.0502401487
0.0182352714
0.0022563470
-0.0271769256
-0.0431526861
-0.0042705910
0.0084918134
0.0606301668
-0.0094491216
-0.0326691384
0.0188442164
-0.0671548456
-0.0305213960
0.0434157158
-0.0370721050
0.0358161048
0.0107104765
-0.0157050412
-0.0234888712
-0.0394471680
-0.0102918819
0.0001287122
0.0700874589
0.0102592328
-0.0406995304
-0.0100768025
-0.1021228191
-0.0337426029
0.0679338286
-0.0552804181
0.0448765607
0.0201288962
-0.0088448309
-0.0285225062
-0.0539157962
-0.0148105759
0.0038217496
0.0755939912
0.0022465938
-0.0425563147
-0.0039661212
-0.1075340263
-0.0363376916
0.0762259854
-0.0519546862
0.0490423964
0.0195346440
-0.0180147634
-0.0311338033
-0.0597584329
-0.0232947110
0.0004266041
0.0803734466
0.0025248774
-0.0454289122
-0.0032916039
-0.1133757184
-0.0394213503
0.0842024279
-0.0568567812
0.0677839667
0.0254152727
0.0178366710
-0.0311424433
-0.0509279330
-0.0025833997
0.0148021187
0.0714221804
-0.0197255696
-0.0442246528
0.0383056021
-0.0681768910
-0.0362981123
0.0398119245
-0.0302369889
0.0591577613
0.0212922323
0.0066713245
-0.0289890719
-0.0523072833
-0.0122478468
0.0120637997
0.0613692486
-0.0138387523
-0.0411270407
0.0316416310
-0.0692624568
-0.0330712205
0.0430825519
-0.0348202187
0.0690711364
0.0247708190
0.0128661076
-0.0339155384
-0.0568079217
-0.0072118299
0.0167227384
0.0696306837
-0.0190286424
-0.0447868591
0.0358877712
-0.0720648275
-0.0388327051
0.0517161679
-0.0321937093
0.0739951115
0.0273155288
0.0154139572
-0.0359436771
-0.0627091447
-0.0049399392
0.0214852197
0.0661660739
-0.0199853683
-0.0461854683
0.0422593843
-0.0636050657
-0.0397625182
0.0394012173
-0.0314076280
0.0664821629
0.0261970464
0.0094481661
-0.0350434853
-0.0568481118
-0.0075005060
0.0132243382
0.0704197365
-0.0157728291
-0.0441291624
0.0324749963
-0.0739140715
-0.0348224170
